474 128
459 -0.32088515 -1.0382775 0.014296396 -0.36117324 -0.23841178 -0.29673842 0.2359648 -0.22412547 -0.36493507 -0.12372186 -0.27000034 0.09154254 0.24165425 -0.39996853 -0.2716207 -0.054368503 0.047485944 0.03142219 0.2773017 -0.12149126 0.092662744 -0.07189867 0.06564945 0.19055735 0.19510877 0.2556388 -0.3276624 -0.44467714 -0.07805298 -0.082442775 0.32940352 0.13893951 -0.6014922 0.23855303 0.36170185 -0.053965878 0.336127 -0.23807745 0.26822853 0.21889469 0.6373751 0.20209643 -0.04119841 0.10355213 0.36375204 0.39118785 0.3374256 -0.21646366 -0.10984455 0.17437007 0.15250799 -0.108249635 0.060766704 -0.11871062 0.13655318 -0.14770213 0.100833386 -0.23944876 -0.18113142 0.17772244 0.41071308 0.14692856 -0.31421188 -0.013430578 0.20501292 -0.0054843794 0.41950113 -0.12409991 -0.18283467 -0.037227187 -0.49814567 0.5009445 0.06583257 0.2277055 0.036222316 0.029661942 0.11772441 0.057503354 0.015207432 0.060862493 -0.16723952 -0.09532647 -0.22026053 -0.25415027 -0.048463043 0.19351834 0.04085284 -0.5283411 -0.25738662 -0.26422974 0.15040582 0.4076968 -0.012298447 -0.1814886 0.077442005 0.12991765 -0.08328672 0.053316075 -0.11691478 0.18591894 -0.11574021 0.43037385 0.22553939 -0.06638038 0.26455218 0.2461475 -0.24904518 0.30042398 -0.105882145 0.16824599 -0.31910697 -0.017107874 0.11029011 0.39421722 0.1374266 -0.41718492 -0.0964642 -0.0069860322 0.12069646 0.15238339 0.24173568 -0.3112591 0.259218 -0.21351698 0.11229298 0.29633528 -0.76486313 -0.13001777
355 -0.20473662 -0.9356799 0.034965426 -0.3192657 -0.1929202 -0.25725356 0.2096451 -0.27996212 -0.32148 -0.2037597 -0.25250015 0.23965558 0.307767 -0.36823505 -0.20496526 0.06351223 0.14525282 0.08886293 0.2568814 -0.116692044 0.035878796 -0.07596824 0.033930827 0.20833842 0.1566096 0.3419932 -0.33672005 -0.48691007 -0.11631031 -0.106079414 0.19948965 0.13880499 -0.57686263 0.31599504 0.21199268 -0.12590727 0.3057801 -0.15608166 0.23735036 0.149737 0.603043 0.189031 0.05471939 0.08653914 0.5081517 0.36175525 0.24473026 -0.13573408 -0.023871085 0.16716261 0.11364171 -0.18711382 0.2004088 -0.12347927 0.053299468 -0.09037559 0.17585069 -0.12665673 -0.20201191 0.2616096 0.37797987 0.14045262 -0.3750449 0.008551009 0.28940246 -0.04033265 0.3438043 -0.13404405 -0.12999946 0.08655025 -0.47175682 0.3892379 0.0743828 0.26185286 0.120800756 -0.058117177 0.11352401 -0.015347721 0.1178302 0.073233515 -0.18111126 -0.04120323 -0.33298695 -0.18492243 -0.17151503 0.27240542 -0.056295343 -0.4772476 -0.23917453 -0.14163597 0.14503933 0.45462158 -0.010307456 -0.1809504 0.07418835 0.124009065 -0.03152497 0.08687634 -0.067152575 -0.04283452 -0.14091223 0.43046734 0.34463704 -0.13651176 0.26410648 0.34950873 -0.31194487 0.09029593 -0.09298153 0.23288123 -0.33557653 0.0011260131 0.14194086 0.25666878 0.19158131 -0.48803812 -0.0992797 -0.10971079 0.25301012 0.12863909 0.040661506 -0.2635668 0.22687083 -0.20495586 0.142728 0.25633436 -0.7060017 -0.10067107
215 -0.0024382935 -0.07040625 -0.1580295 0.2175448 -0.2397258 0.007961944 -0.0101520335 -0.3731363 -0.2933291 -0.12059071 0.32082662 -0.1880448 0.45318845 -0.32401368 -0.0038076395 -0.034144647 -0.113022596 0.3375637 0.15766552 0.4684425 0.045146853 -0.15505825 -0.3990064 0.028392758 0.3269075 -0.13708116 0.08349584 0.10808865 -0.47010183 0.15736544 -0.10947286 0.19052987 0.0055537215 -0.046506684 -0.08285953 0.43244538 0.09745126 -0.16168912 -0.114590794 0.11428046 0.09237808 0.2191974 0.243794 0.07068495 -0.30222794 0.31081265 -0.04459742 -0.42135316 0.10056127 0.22486584 0.16312774 0.17898725 -0.18138365 -0.003749842 0.050248522 0.07645259 -0.1375201 -0.04121905 0.32654765 0.003579876 0.29733336 -0.039797883 -0.12577635 0.17303151 -0.0482636 -0.045950774 0.18266067 0.08455401 -0.28848216 -0.0842563 0.25761306 0.026679669 -0.0021518578 0.070437245 -0.2162503 0.103582315 -0.27014568 0.37210214 -0.19937111 -0.03894106 -0.25648355 -0.36906487 -0.061014526 0.15196975 0.2108787 -0.120128624 0.020274077 -0.069395676 0.003749021 -0.108641565 -0.1838879 0.057849064 -0.04278145 -0.0114234565 -0.11952518 -0.14775005 0.287315 0.0992554 0.11329343 -0.2811317 -0.15165062 -0.20919424 0.20722167 0.14672849 0.16271807 0.28433466 -0.002046397 0.29575297 -0.107573606 0.16087274 -0.05421863 0.030366795 0.03494099 -0.14104961 -0.13089387 -0.10587466 -0.062299743 0.025440322 -0.19752146 -0.21325698 0.3067564 0.12116895 -0.123806 -0.14667152 0.20783058 -0.14124691 -0.040345635 0.30614752
67 0.041945484 -0.05858103 -0.089486115 0.21634808 -0.31046054 0.0770813 -0.0041102273 -0.3214194 -0.2420724 0.015066343 0.39878002 -0.116508804 0.44208762 -0.3052925 -0.071922995 0.027760712 -0.045040373 0.30211875 0.114285775 0.4764389 0.057387184 -0.054460056 -0.46434963 0.005902271 0.30271998 -0.084032245 0.08807099 0.08626064 -0.50405586 0.062561326 -0.05379199 0.27809224 0.023156524 0.034281485 -0.057375763 0.36093694 0.10702666 -0.1845927 -0.06417457 0.093635045 0.11488169 0.2187922 0.22670513 -0.039356723 -0.18424524 0.1777812 -0.17432012 -0.404621 0.09262177 0.16690949 0.15956464 0.06427232 -0.12974274 0.06811013 0.018835679 0.07510291 -0.13947974 -0.04347537 0.37699786 0.0214632 0.26616558 0.0639349 -0.2127467 0.16976523 -0.035179712 0.014243353 0.1294776 0.096095935 -0.24493814 -0.081188835 0.17826095 0.0025841962 0.025294578 0.13956472 -0.18853441 0.010197174 -0.26235896 0.22549322 -0.14535806 0.029874751 -0.32779452 -0.32036605 -0.053971533 0.14714374 0.2702989 -0.1537773 -0.039510522 -0.15021051 0.034914874 -0.02418263 -0.06299857 0.08503571 -0.13457707 -0.0028340113 -0.051864274 -0.13494071 0.1916106 0.13253741 0.14335494 -0.22842737 0.004942638 -0.18138646 0.22026385 0.040058825 0.16515568 0.18250954 0.081422746 0.15071677 -0.059230387 0.18472256 -0.06548061 -0.071455605 -0.025353312 -0.08712901 -0.17617343 -0.054810546 -0.10139231 0.034817446 -0.16151658 -0.35661194 0.2653204 0.14436601 -0.10127874 -0.13608305 0.28537956 -0.18315974 -0.017590916 0.26780435
217 -0.0039238837 -0.09099844 -0.15649414 0.3407887 -0.13772804 0.048726298 -0.10860606 -0.39203015 -0.20443505 0.015628777 0.28890276 -0.050978675 0.42867512 -0.31169337 -0.07391585 0.02073605 -0.1290867 0.30201814 0.16548015 0.5086085 0.1350351 -0.13096698 -0.42354733 0.036837913 0.33213463 -0.16400176 0.10569931 -0.02487376 -0.4754464 0.07132896 -0.04792035 0.22599164 0.026326306 0.003509084 -0.061536774 0.3102916 0.09291984 -0.085515484 -0.11676514 0.036175422 0.12292412 0.22595638 0.20113505 0.028642934 -0.31822166 0.1144515 -0.21902981 -0.38028008 0.15975545 0.22332478 0.17425816 0.097920306 -0.14300509 0.017088545 -0.039893392 0.15208809 -0.20169978 -0.14979 0.35769773 -0.032074213 0.31260523 0.012526879 -0.107229926 0.046410784 0.016560512 -0.0554978 0.17879924 -0.0073482534 -0.13056058 -0.23521374 0.17645846 0.1265941 0.025611198 0.17714748 -0.21232651 0.08876717 -0.31181985 0.26734444 -0.24907595 -0.012097674 -0.297346 -0.3746786 -0.14565031 0.16027936 0.22750714 -0.19551238 -0.02641671 -0.10210532 0.12211977 -0.0603947 -0.050063964 0.09746279 -0.06779201 0.06990393 -0.10012365 -0.12239209 0.1351767 0.17236665 0.058823902 -0.31595832 -0.13054292 -0.18298659 0.2612121 0.15347414 0.2762357 0.31156123 0.12833267 0.2968484 -0.046769325 0.16037072 -0.05978127 -0.071769215 -0.015008818 -0.0367825 -0.079582974 -0.024589742 -0.082227774 -0.009695687 -0.111759245 -0.25378156 0.28305316 0.1891878 -0.04932883 -0.10137591 0.19381626 -0.2017408 0.004295165 0.3144881
153 -0.031753693 -0.1187356 -0.20755942 0.26081955 -0.13964209 0.08771736 -0.026923606 -0.26509652 -0.31251055 0.050077353 0.37642318 -0.17755656 0.36137497 -0.48862892 -0.12365329 0.063975655 -0.09791472 0.23709178 0.19662921 0.5064802 0.067704104 -0.15082522 -0.31157896 0.10548755 0.27217343 -0.20164326 0.028241098 -0.013649936 -0.45619044 0.006342191 -0.0044002132 0.19957869 0.06759097 -0.009394645 -0.0402545 0.42715892 0.15620267 -0.17050871 -0.11858854 -0.0069359853 0.044280354 0.21429488 0.18058738 -0.021465676 -0.21856137 0.04966644 -0.13915607 -0.34647676 0.20236407 0.18627614 0.14626485 0.10123445 -0.118889526 -0.047722414 -0.043207712 0.081896506 -0.09509661 -0.1411963 0.45256817 0.05375016 0.31382287 -0.013602223 -0.1364791 0.1636419 -0.0030492565 0.04627849 0.20304279 0.13755968 -0.15816778 -0.11864919 0.16073824 0.02919588 -0.1046348 0.1225545 -0.09751146 0.10921565 -0.18588625 0.30679348 -0.28066444 0.028562011 -0.27089497 -0.3172941 -0.110970356 0.07855471 0.17936116 -0.2238756 -0.05262336 -0.11692892 0.16903326 -0.1191374 -0.14507766 0.06929952 0.02988617 0.04024781 -0.10815337 -0.06286842 0.22432862 0.12583667 0.14220312 -0.19278413 -0.16614613 -0.2251808 0.19796835 0.011830061 0.15979132 0.18881729 0.2202436 0.2548976 -0.011197756 0.21243985 -0.11329928 -0.14331947 -0.08762836 -0.012724618 -0.052567847 -0.19155182 -0.1283606 0.0027853553 -0.14152546 -0.25498083 0.21020553 0.14493288 -0.18940915 -0.19684869 0.18481223 -0.12714513 -0.033934034 0.23764703
73 0.022339752 -0.14233986 -0.2832707 0.26384553 -0.15143892 -0.010214475 0.03308504 -0.32271782 -0.25789127 -0.03497519 0.3445862 -0.060272902 0.410539 -0.38299984 0.021665147 0.04349974 -0.0727325 0.36788097 0.10409276 0.5314016 0.0658073 -0.26497453 -0.31662673 -0.04553928 0.3024611 -0.13585348 0.093238756 0.08057144 -0.5463162 -0.024223607 -0.11106903 0.20294303 0.026408944 -0.015956426 -0.046943642 0.44003135 0.1988319 -0.08113735 -0.16461149 0.11874077 -0.040480286 0.18247303 0.24731949 -0.025766093 -0.13551863 0.21087259 -0.061098866 -0.4108052 0.14868441 0.2841048 0.17221178 0.17814274 -0.28135726 -0.026637327 0.013975989 0.1564545 -0.16618061 -0.15440637 0.2945821 -0.00209429 0.29342598 -0.06230823 -0.14706431 0.19485876 -0.043482702 -0.019240316 0.24306159 0.07036675 -0.19667058 -0.16067886 0.20882541 0.10543261 -0.023308493 0.12684903 -0.12774831 0.07492683 -0.29107186 0.24582969 -0.26092148 -0.04391657 -0.27541882 -0.45552757 -0.07628051 0.18118349 0.21091354 -0.1774867 0.08330419 -0.12868166 0.11863709 -0.043697346 -0.22631872 0.03115535 0.040640138 0.07617133 -0.1343165 -0.13739835 0.24568808 0.09724355 0.14170668 -0.16668862 -0.08400646 -0.26793998 0.19984454 0.0971463 0.20236373 0.3159988 0.07791051 0.324718 -0.07551868 0.08520166 -0.10759154 -0.014628785 -0.039041527 -0.034281548 -0.14179778 -0.084187694 -0.15057069 0.097248435 -0.0834199 -0.3770586 0.19661246 0.11013096 -0.116203226 -0.08375813 0.26618615 -0.22664647 0.029215798 0.21514805
65 0.041331884 -0.15051101 -0.13912563 0.18882823 -0.16240738 -0.047228757 0.018351998 -0.36786973 -0.19508368 -0.09662432 0.24040379 -0.08592005 0.4642985 -0.37672135 -0.051040895 0.09180244 -0.071323045 0.27078953 0.15989469 0.5552418 0.050520875 -0.20868899 -0.3873605 -0.0134370895 0.28588343 0.003480895 0.004709237 0.024464022 -0.45437524 0.06663141 -0.10333101 0.20857945 -0.0073348195 0.01754228 -0.093592584 0.48221898 0.12064768 -0.16310324 -0.11903329 0.085511096 0.08601152 0.2716555 0.1527774 -0.035347607 -0.2286192 0.122365534 -0.15545566 -0.40641922 0.21077116 0.16498353 0.1800678 0.09318204 -0.21888238 0.08997598 -0.115947515 0.08940191 -0.16362281 -0.19704059 0.31930062 0.014172498 0.23930945 -0.042883 -0.11923751 0.1545771 -0.026237 -0.055772685 0.20384818 0.10825736 -0.2046861 -0.18800707 0.25407106 -0.0009804876 -0.095281206 0.08861204 -0.12735035 0.16994728 -0.25388396 0.14697082 -0.26584002 0.057409756 -0.26681823 -0.43931997 -0.066109374 0.11234626 0.054248977 -0.15412335 -0.15239784 -0.09109203 0.029360026 -0.07041081 -0.1848823 0.032270763 -0.0074554137 0.025746537 -0.11832307 -0.1830564 0.30895883 0.15763444 0.0760915 -0.19068693 -0.19366828 -0.23949946 0.2627925 0.026611816 0.29623252 0.2027461 0.13411528 0.24983484 -0.062323414 0.10029697 -0.10707622 -0.024516348 -0.13051033 -0.07561533 -0.1852284 -0.07470214 -0.18061696 0.033806354 0.024711965 -0.25376102 0.21968809 0.19375102 -0.0355625 -0.029162059 0.25831667 -0.06977152 0.0123815425 0.26735824
334 0.12466506 -0.1234985 -0.22671686 0.27917725 -0.18524045 -0.0028889272 0.10652223 -0.35640118 -0.31267673 -0.05626628 0.31752637 -0.1294865 0.4749501 -0.41982758 0.008989892 0.08269355 -0.072934434 0.28200337 0.12433841 0.5414838 0.096293144 -0.2421316 -0.388691 0.052557603 0.33417836 -0.03972586 0.11581337 0.058672957 -0.4920809 0.07069899 -0.18096848 0.18904518 -0.04336727 -0.082119405 -0.04061248 0.3918424 0.20523983 -0.22487925 -0.15368062 0.09674188 0.0593568 0.1836955 0.20353091 -0.04490284 -0.25587866 0.12340522 -0.01358882 -0.38497746 0.08341093 0.25560415 0.12248853 0.15175541 -0.24665944 0.022913642 0.033135716 0.055072144 -0.17996986 -0.091679536 0.354048 -0.048180383 0.24402893 -0.0012855072 -0.12300344 0.22958761 -0.039136846 0.009577212 0.33506653 0.07130657 -0.1770374 -0.06262254 0.26466432 0.070485115 0.0013788171 0.0631914 -0.12892392 0.01947002 -0.25253895 0.23927416 -0.19499108 -0.027569257 -0.3122034 -0.32803723 -0.040220976 0.13760841 0.13012235 -0.22429644 -0.09904649 -0.15006816 0.08366822 -0.057625365 -0.20366722 0.099325076 0.009043835 0.047491908 -0.045597244 -0.06471971 0.16311465 0.16897069 0.11679338 -0.2174267 -0.12521137 -0.21802129 0.21294822 -0.031565968 0.18948744 0.21081595 0.15187769 0.29708967 -0.06419245 0.15852764 -0.10703791 -0.03624354 0.020842839 -0.03229801 -0.11957748 -0.10498526 -0.09801977 0.04144098 -0.19160855 -0.30268136 0.30236438 0.20285186 -0.1174781 -0.08759027 0.28104797 -0.17287362 0.032547493 0.31793183
104 0.005529751 -0.18001834 -0.14216405 0.16988926 -0.17012507 0.1357059 -0.0006546327 -0.39933202 -0.20053394 -0.061478127 0.30289477 -0.06253383 0.38645312 -0.4529364 0.07593993 -0.0716752 -0.0822091 0.33156502 0.08726192 0.50863403 0.086735964 -0.15545106 -0.29661608 0.06695884 0.39977586 -0.18796864 0.18293758 0.0939963 -0.50641143 -0.04054634 -0.08626475 0.14551961 0.042963758 -0.09118156 -0.07961008 0.4490461 0.21970224 -0.15833335 -0.3234938 0.027341444 0.14975369 0.27696157 0.14607632 0.04914243 -0.17859267 0.2037876 -0.13465881 -0.4163828 0.1484577 0.10583852 0.124740675 0.071353674 -0.15896136 -0.04101937 -0.080194384 0.2354408 -0.12646092 -0.17769043 0.29497638 0.025979705 0.34807095 -0.08128738 -0.07993353 0.22196616 0.06216927 0.011260557 0.23219605 0.06938444 -0.24038468 -0.12623769 0.2890293 0.07290821 0.043148365 0.09840497 -0.09916264 0.06094014 -0.24548289 0.16792437 -0.07218832 0.022357712 -0.2914351 -0.45979232 -0.026772112 0.059320018 0.18433811 -0.15100202 -0.010151044 -0.09971252 -0.014353816 -0.12703755 -0.2542355 0.03932295 -0.03029683 0.047862194 -0.022400584 -0.20735937 0.13173462 0.091641426 0.014166037 -0.30344808 -0.078877866 -0.30333012 0.15102778 0.102107175 0.24583714 0.21712953 0.22613095 0.276009 -0.0506872 0.09082721 -0.09712455 0.029049454 0.019270938 0.04492207 -0.06483582 -0.006625077 -0.06442993 -0.042737816 -0.10055209 -0.2727777 0.23670873 0.17870937 -0.08866293 -0.10146243 0.17667796 -0.1657343 0.022219488 0.28659603
100 -0.03309589 -0.11152164 -0.11424304 0.37222415 -0.17802817 -0.022103338 -0.02881415 -0.37831342 -0.1704812 -0.089077055 0.41954976 -0.1861839 0.37641037 -0.38092092 0.03632795 -0.059675355 -0.056481536 0.2676455 0.083028466 0.4467933 0.020875318 -0.108638935 -0.31919193 0.008112709 0.3135188 -0.07136801 0.019233309 0.18833956 -0.4364012 0.14743145 -0.15175587 0.21040666 0.0777218 -0.03911953 -0.01959253 0.3711983 0.07876829 -0.071465425 -0.057316422 0.08088883 0.14384763 0.2425553 0.1878447 -0.022441532 -0.23073071 0.2168666 -0.17958283 -0.31175172 0.041687608 0.29801744 0.17958806 0.014434441 -0.09891842 -0.00024784482 0.08527986 0.12697262 -0.21431647 -0.030405952 0.39818686 0.04596884 0.24155952 0.045762528 -0.23277137 0.24863715 -0.017445143 -0.046851598 0.14518832 0.0031552291 -0.22279663 -0.11277621 0.13356517 0.029283565 0.03447106 -0.0073112026 -0.24970424 0.09134747 -0.11905435 0.29754397 -0.16385888 0.040348485 -0.26148036 -0.43503213 -0.065603204 0.0012424691 0.23391534 -0.15472887 -0.0887102 -0.033080928 0.16750365 0.051511325 -0.044612728 0.14318307 -0.09012827 0.047307637 -0.017763535 -0.18073027 0.08821286 0.14013587 0.04207827 -0.35933855 -0.13818604 -0.29553425 0.217269 0.063966654 0.10729228 0.18604581 0.078434914 0.3331675 -0.036192194 0.19255954 -0.015390712 0.0699025 0.03271487 -0.06721753 -0.05105417 -0.1535316 0.012412275 0.0043086004 -0.13332039 -0.28125292 0.30784497 0.19824408 -0.08922272 -0.09447768 0.20317018 -0.23166944 0.044539675 0.31524953
122 -0.012075449 -0.07452554 -0.16068004 0.20901597 -0.24370971 0.018601175 0.063726746 -0.34678742 -0.19434181 -0.018507466 0.40091127 -0.1620745 0.45189422 -0.39378455 -0.035702847 -0.08009476 -0.071422085 0.24165824 0.070926465 0.5069224 0.05928133 -0.15064129 -0.42135653 0.07979089 0.30450207 -0.053081922 0.054920804 0.18054622 -0.38098946 0.016066877 -0.108292855 0.21736895 0.0954461 -0.040145654 -0.0069869854 0.22036211 0.26054522 -0.15878372 -0.119151846 0.13574585 0.17476293 0.26349908 0.21836019 -0.041249774 -0.21989638 0.19666159 -0.15417708 -0.36809617 0.030495998 0.23362732 0.15497737 0.06325072 -0.0863717 0.013641496 -0.014188856 0.16011171 -0.11432275 -0.085009255 0.37411526 0.040223107 0.22236603 0.0015463955 -0.1751878 0.20965818 -0.013918353 0.019573946 0.2073082 0.07437474 -0.2140292 -0.0733001 0.1948533 0.062632576 -0.007906887 0.04865235 -0.19411555 0.035782173 -0.18496114 0.23738897 -0.17486452 -0.021618105 -0.21311186 -0.39343974 -0.008390854 -0.04537926 0.13257307 -0.19006695 0.0033233243 0.027587973 0.12517957 -0.0056504845 -0.16320561 0.08205159 -0.16536458 0.0056076217 -0.1097254 -0.09093232 0.30007747 0.14692378 0.07769406 -0.30231425 -0.22239333 -0.27006322 0.2446265 0.060765415 0.15221854 0.2995846 0.15405968 0.1325123 -0.023076499 0.13858172 -0.043368224 -0.02616951 -0.034394924 -0.16209702 -0.12023771 -0.10536422 -0.11475433 -0.10326128 -0.15549621 -0.18274693 0.28866065 0.11596593 -0.15585776 -0.10356422 0.18709913 -0.15062244 0.024356812 0.31056824
289 -0.008046354 -0.11617596 -0.21237539 0.13733156 -0.23465161 -0.07047463 -0.13409083 -0.45894563 -0.23283978 -0.08054826 0.24173917 -0.10083672 0.40455613 -0.3589799 -0.0070522786 0.035540253 -0.15186983 0.15870753 0.15960233 0.517202 -0.04399454 -0.24354275 -0.35279608 0.094475985 0.3234683 -0.22098349 0.10009934 0.010675249 -0.4973052 0.07105924 -0.030110696 0.33511224 -0.08575633 0.08254539 -0.10801149 0.47460607 0.11716358 -0.10362255 -0.13915147 0.0017544241 0.09771232 0.2064256 0.21624741 0.03452854 -0.23219663 0.06523239 -0.13275135 -0.41842198 0.2025587 0.10281261 0.22033136 0.08796405 -0.15985113 -0.004894796 -0.012655836 0.11987081 -0.17883824 -0.1028295 0.3374039 -0.08373419 0.30801365 -0.07496857 -0.1594486 0.14817965 0.00233091 -0.056669295 0.23570791 0.056899384 -0.21147695 -0.15159716 0.1877829 0.030588016 0.016569968 0.18657789 -0.18186034 0.10772887 -0.28248757 0.19112062 -0.2128327 0.014630973 -0.24920774 -0.3052624 0.0005712013 0.1743797 0.16737884 -0.14415957 -0.024453137 -0.11311113 0.098758645 -0.073868304 -0.20059639 0.008438627 -0.023489786 0.14673278 -0.16899309 -0.14304419 0.1505289 0.093403384 0.10757853 -0.14916587 -0.15615703 -0.27918363 0.19631906 0.09320538 0.26477444 0.24247617 0.1807029 0.16704342 0.08178692 0.13412042 -0.11497756 -0.06921666 -0.08634159 -0.07810625 -0.005157693 -0.10736883 -0.120002635 0.04531988 -0.0818113 -0.20740092 0.21097037 0.18532047 -0.11511413 -0.048660584 0.3027194 -0.160296 0.023465702 0.24470884
294 -0.20659284 -0.9009181 0.17829801 -0.38696012 -0.21616165 -0.09952866 0.15873352 -0.2728891 -0.42128605 -0.28020796 -0.24517573 0.13237219 0.19297542 -0.3389468 -0.102454 -0.039358903 0.09921012 -0.009701279 0.19254208 -0.20314743 -0.042607293 -0.045908343 0.118170045 -0.00018760013 0.058880787 0.25198454 -0.4552521 -0.37725657 -0.08307568 -0.15437053 -0.03471893 0.15625903 -0.48616648 0.14763586 0.19296683 -0.018456057 0.24979383 -0.08267885 0.2319976 0.37747058 0.5169665 0.3164495 0.00591867 0.08799158 0.33169863 0.40314654 0.22199267 -0.24052773 -0.14878611 0.14734639 0.28604847 -0.28526288 0.06995239 -0.012982123 -0.061075825 -0.2919144 0.21074665 -0.27334803 -0.22661039 0.17658211 0.28242964 0.28784147 -0.15937819 -0.034847464 0.2575679 -0.070330285 0.29678768 -0.11724835 -0.10645956 -0.024617277 -0.5662437 0.3317717 0.021293402 0.34969455 0.042023066 -0.09713342 -0.10446718 0.009243409 -0.08798592 0.06080492 -0.22255349 -0.15251788 -0.14904943 -0.23066227 -0.1111154 0.31852105 -0.018186543 -0.5271071 -0.2248608 -0.18002139 0.29439625 0.35402948 -0.022291495 -0.2475741 0.081730865 0.2449936 -0.069399424 0.03585511 0.011351007 -0.016898552 -0.20490299 0.53832114 0.26181808 -0.11010487 0.25266227 0.3414648 -0.32066923 0.14871459 -0.064709865 0.22667395 -0.3874598 0.06580305 0.1185622 0.31521222 0.29562008 -0.49662417 -0.13248746 0.056936093 0.17738871 0.20037201 0.19884446 -0.24914466 0.2163073 -0.25748488 0.19051675 0.21990222 -0.612085 -0.17386003
168 -0.3772519 -0.98118097 0.1875298 -0.4412514 -0.20674299 -0.16114181 0.071536325 -0.23939449 -0.31532708 -0.29302064 -0.39458093 -0.06717019 0.24134164 -0.3861797 -0.15069333 -0.032262165 0.18381028 0.056887962 0.19003342 -0.20371194 -0.0012495776 -0.068871066 -0.05397339 0.06803002 -0.088778615 0.2890062 -0.5143733 -0.34942335 0.08968163 0.03920958 0.013560987 0.1704061 -0.2596914 -0.03520867 0.21063243 -0.0028970721 0.25870395 -0.29909176 0.44100684 0.43688214 0.34149104 0.24022208 0.156754 0.13758403 0.5073354 0.42374444 0.329748 -0.16316402 -0.3216018 0.1506756 0.21263145 0.021428915 0.14040162 -0.059942253 0.034721054 -0.2309187 0.12883095 -0.31276593 -0.22375788 0.050151326 0.41327524 0.073299706 -0.2170714 -0.042237453 -0.04403077 0.15464944 0.48848578 -0.29259357 0.0062873596 0.032775957 -0.49212205 0.22286066 -0.057869323 0.20268972 -0.27546558 -0.20439404 -0.3055005 -0.038608246 -0.18399231 0.3609004 -0.35416198 -0.1032411 -0.20165454 -0.107339635 -0.16600491 0.072425164 -0.02037156 -0.47449535 -0.06787435 0.011804502 0.25561616 0.2824625 -0.0109859 -0.32909396 0.08532486 0.121115685 -0.22192164 0.03464261 -0.00391016 0.04526021 -0.16204394 0.46025836 0.20294629 -0.10209973 0.20066415 0.46187276 -0.27044687 0.06836991 -0.10369036 0.23774019 -0.3896164 -0.17583846 0.21207072 0.2870591 0.34585848 -0.5097837 -0.013596156 0.0550063 0.24112794 0.17843373 0.2149386 -0.20348667 0.26570168 -0.20419113 0.12318437 0.45047355 -0.6143851 -0.109233245
125 0.08488125 -0.0376178 -0.25443125 0.32343826 -0.28717464 0.005934099 0.0016608043 -0.42756855 -0.2160253 -0.024410482 0.3987899 -0.13230942 0.39656863 -0.28298113 -0.082379185 0.02056758 -0.07730531 0.26377547 0.14848603 0.5715856 0.07018143 -0.028956302 -0.39091113 0.042453658 0.23648801 -0.0682293 0.013432467 0.09779453 -0.53840774 0.06513907 -0.09136395 0.22205688 0.015680369 0.030831011 -0.1016616 0.37760204 0.21948555 -0.085977614 -0.16798012 0.06538833 0.03702687 0.223569 0.24996969 -0.0148685025 -0.23387347 0.17029846 -0.2149345 -0.3498869 0.05988103 0.1862292 0.092913635 0.10857267 -0.22881894 -0.03844143 -0.047274582 0.08369881 -0.16301468 -0.17087841 0.2703024 -0.026821477 0.27274707 -0.017831622 -0.099070296 0.17272769 0.024464536 -0.01302666 0.10465492 0.10611754 -0.16856006 -0.10114607 0.17360742 0.088889875 -0.057958692 0.11765449 -0.22656445 0.111149706 -0.18647237 0.2715293 -0.14724234 0.020306766 -0.31583092 -0.2987887 0.05226142 0.12326108 0.2941768 -0.1828281 -0.038952295 -0.09856152 0.016110716 0.037198707 -0.1756648 0.1821564 -0.09018303 -0.02122266 -0.04482755 -0.14811908 0.20945488 0.17932042 0.0527495 -0.2735098 -0.13219847 -0.1687458 0.16193175 0.07073379 0.12621333 0.29871687 0.07380446 0.23196836 -0.035359144 0.27676278 -0.012088674 -0.012285085 -0.05032756 0.02984752 -0.124337934 -0.04062014 -0.09986881 -0.026776318 -0.08690763 -0.26993996 0.3214795 0.16444525 -0.088939816 -0.11188412 0.14887203 -0.14486559 0.047521204 0.24221054
343 0.005535386 -0.027038358 -0.06718944 0.2680016 -0.27138796 -0.02960285 0.08116969 -0.495875 -0.22871922 -0.11391189 0.21083276 -0.13521291 0.4680094 -0.33796665 0.042951107 0.055660382 -0.07869497 0.30155817 0.11932456 0.5063165 0.081417665 -0.071281664 -0.27459395 0.07156043 0.3434179 -0.13249882 0.11705141 0.15239692 -0.44618157 0.013570607 -0.07482217 0.2584954 0.031370584 0.018763214 -0.10170886 0.3859606 0.19091961 -0.11141328 -0.146928 0.12853895 0.12710935 0.26998863 0.19792973 -0.043726668 -0.21533042 0.18476436 -0.13407518 -0.4158673 0.09741324 0.1564143 0.096450426 0.09349265 -0.14706074 -0.02092713 -0.029271064 0.12655997 -0.16420507 -0.10406726 0.3322893 0.03219712 0.23963785 0.021767685 -0.14224122 0.14036646 0.02458787 -0.0015878953 0.15633285 0.12933427 -0.13515428 -0.13819198 0.20060186 -0.016586142 -0.085344404 0.057294354 -0.15726537 0.10098534 -0.21940091 0.19775523 -0.17871802 -0.02991227 -0.29912168 -0.38611928 -0.07842414 0.043326963 0.17887296 -0.19782011 -0.04140915 -0.097067125 0.065573454 -0.045396775 -0.2529617 0.14158742 -0.11706438 0.06700585 -0.08274487 -0.1976967 0.11232805 0.18320252 0.0522439 -0.23611261 -0.10891031 -0.20464402 0.19046311 0.0210998 0.19139235 0.21101384 0.13338505 0.27009568 -0.11822595 0.10811133 -0.13517982 0.045509383 -0.061447885 -0.11287626 -0.15491048 -0.11102073 0.0078127 -0.11213866 -0.07895106 -0.27978382 0.28077582 0.2003233 -0.064424306 -0.024851948 0.2171831 -0.111880794 0.019427512 0.20152827
470 0.0033904754 -0.0417395 -0.13793819 0.1372303 -0.25170827 -0.061006416 0.058510423 -0.37452137 -0.24388851 -0.039770484 0.2434585 -0.09822572 0.453824 -0.41017744 -0.15943621 0.048009418 -0.101400174 0.2154726 0.06828174 0.41829273 0.108407944 -0.258647 -0.34597477 0.06802873 0.29606763 -0.07178989 0.038789194 -0.021023814 -0.44555187 0.024034457 -0.10092725 0.20289482 -0.017775951 -0.03836878 -0.07515328 0.44404408 0.09525487 -0.15728341 -0.11782874 0.15232311 0.13743107 0.33207962 0.26981187 0.08824265 -0.2850664 0.10212875 -0.2605293 -0.4172942 0.013377163 0.2619966 0.21417624 -0.02315953 -0.26594692 -0.012803965 0.019673198 0.08238875 -0.12480668 -0.15222308 0.33505324 -0.0054020104 0.22196785 -0.047290247 -0.13648263 0.12402778 0.017443018 -0.0077032046 0.14844815 0.08469433 -0.17533496 -0.124829866 0.232767 0.08648062 0.022906141 0.14005351 -0.12041637 0.05320005 -0.23439988 0.20670497 -0.2123748 -0.10977837 -0.2554739 -0.35296956 -0.0016141495 0.005505887 0.13040145 -0.17501968 0.01626905 -0.017576711 0.14088584 0.028157009 -0.11073437 0.005755739 -0.021413412 0.104355045 -0.08364259 -0.10101368 0.11572176 0.06897 0.16854033 -0.157635 -0.22019091 -0.24043068 0.22009967 0.09407893 0.1654004 0.20473132 0.08535188 0.23812233 -0.054376315 0.103932574 -0.13376196 0.017380187 -0.07452579 -0.035912704 -0.020016052 -0.111905 -0.14243251 0.10161151 -0.10772956 -0.20558381 0.27168256 0.1902018 -0.18750234 -0.09369964 0.14694706 -0.09989244 0.12067865 0.24052817
48 -0.053867795 -0.11184283 -0.25497246 0.25415424 -0.101461925 -0.005603159 -0.024686001 -0.43417034 -0.28118318 -0.0669781 0.28552312 -0.09210324 0.40087417 -0.47565213 -0.06404853 0.16478217 -0.05447291 0.23420063 0.07490066 0.5473332 0.08139714 -0.22182284 -0.39038047 0.05742165 0.28196293 -0.19074081 0.09673926 -0.046495132 -0.46874657 0.03457075 -0.05771614 0.2214213 -0.05352842 -0.0036437714 -0.020356305 0.4208168 0.09850802 -0.06891017 -0.09834479 0.1239595 0.0756598 0.22825627 0.13795847 0.043574333 -0.21994223 0.15945855 -0.18402998 -0.45512107 0.067604646 0.23504478 0.17755549 0.13451394 -0.23002689 -0.028857881 0.005213909 0.17470801 -0.11800525 -0.010798146 0.3730774 0.03133665 0.32905245 -0.0683677 -0.20090608 0.18901937 -0.06522834 -0.01221509 0.1019766 0.07256623 -0.14694405 -0.07667291 0.08133672 0.07742122 -0.0269583 0.1410342 -0.12595218 0.031509865 -0.31130284 0.2756842 -0.30287054 -0.038629994 -0.17913206 -0.2734526 -0.082155794 0.016312402 0.113761134 -0.2782141 -0.106164336 -0.1538167 0.13689569 0.00094468874 -0.17007832 0.09829023 0.033130005 0.14057721 -0.15159635 -0.080641985 0.26046014 0.11502963 0.18634278 -0.12694573 -0.20269479 -0.2282587 0.22162773 0.01352405 0.2249665 0.25023702 0.114003085 0.17822646 -0.03245588 0.08606736 -0.13027674 -0.024386117 -0.1037685 -0.06869563 -0.11799138 -0.11728927 -0.16721821 0.13178815 -0.07445875 -0.22882521 0.28820002 0.16992392 -0.09460992 -0.050187383 0.08080208 -0.15759021 0.011850551 0.33633634
458 -0.038290933 -0.17254956 -0.16871707 0.18112828 -0.23349488 -0.007539487 0.0062963944 -0.31790316 -0.33995205 -0.0006435268 0.30161184 -0.107792936 0.3987506 -0.42136338 -0.0278254 0.19490431 -0.17815201 0.21779926 0.1861894 0.5741859 0.07411349 -0.27233964 -0.4100798 -0.042383205 0.27380618 -0.16828653 0.12711747 -0.10021458 -0.43213674 0.045975607 -0.09508051 0.16888069 -0.1361219 0.011426386 -0.010449023 0.3967924 0.04517069 -0.21989463 -0.16063844 0.0014073673 -0.023835192 0.2572148 0.16632968 0.08844368 -0.28835386 0.15151426 -0.19316244 -0.36013675 0.11317211 0.25599915 0.2948683 0.14892216 -0.25687563 -0.06853969 -0.069675595 0.15335757 -0.16619113 -0.19218817 0.37746632 0.015381299 0.24727237 -0.038962964 -0.06422682 0.102778435 0.06064023 -0.023423355 0.23136191 0.121815145 -0.14263603 -0.1032665 0.21408346 0.064407706 -0.053982873 0.23694283 -0.12827083 0.005051018 -0.2739824 0.24249159 -0.29352424 0.0059014224 -0.31595483 -0.3868526 -0.17475516 -0.003810154 0.14795138 -0.16590385 -0.046198092 -0.15041599 0.16498221 -0.079447635 -0.15703067 0.073829465 0.08603104 0.0085324785 -0.13573423 -0.1615928 0.19336005 0.25308552 0.10481372 -0.1570532 -0.19721243 -0.2677815 0.20927484 0.100381516 0.13728245 0.22965421 0.18968931 0.18211615 -0.033000037 0.19307186 -0.062566936 -0.06608374 -0.17368914 -0.021125589 -0.12071103 -0.12538415 -0.2294465 0.07640677 -0.059904747 -0.19276355 0.2962261 0.17464566 -0.16209815 -0.05024912 0.17204094 -0.17323083 0.058523864 0.26186523
204 0.16101663 -0.30438212 0.054940656 -0.27866182 0.093185894 -0.018215306 0.08662165 0.026434923 -0.058129065 0.25109082 0.02906603 -0.43106335 0.09081628 -0.31777528 -0.17812343 -0.14923702 0.20490675 0.056157637 0.3088709 -0.2891625 -0.01575862 0.45783472 -0.36788967 0.15143359 0.54350185 -0.26458883 -0.09585114 0.13565683 -0.24652958 0.17823772 -0.2543342 0.018390367 -0.046743978 -0.2506226 -0.07429557 -0.2412024 0.06151441 -0.021750914 -0.4192147 0.11065957 -0.09335115 -0.094217405 0.31653523 -0.027185358 -0.14296505 0.18781987 -0.25799903 0.037882216 0.19833975 0.014871525 0.20506173 0.34200925 -0.29992393 0.23242332 0.2025034 -0.1477242 -0.28760877 0.010762972 -0.007083658 0.026422089 -0.28793913 -0.051845007 -0.057575606 0.068131074 0.37117836 -0.2694223 0.29746905 -0.092422195 -0.08076736 0.13979459 -0.091034934 0.5476931 -0.38100433 0.1844026 -0.110136345 -0.04504981 -0.031060768 0.00097474287 -0.17293647 0.0022890395 -0.25012657 -0.17998344 -0.2760106 -0.18173285 0.040564965 0.028345719 -0.14126681 -0.12077052 0.10995951 0.01574178 0.17230226 0.12968373 0.054804716 -0.26983196 -0.31748608 0.22402468 -0.17262964 0.07009269 -0.090479776 -0.1603885 0.26493412 -0.023938589 -0.18037125 0.025927711 -0.005803455 -0.12841798 0.22257732 -0.09142779 0.36858025 0.1250772 -0.22482134 0.26531726 0.35737932 -0.24868241 -0.09086807 0.22596025 -0.22775364 -0.005308506 -0.111399926 -0.24463631 -0.0022657213 0.13741432 -0.03015656 0.10719046 -0.24919793 -0.04925309 -0.07817274 -0.039556827
187 0.105890356 -0.2526758 -0.24858595 0.21680602 -0.3436525 -0.32721007 0.2316775 -0.03710279 0.20662145 0.2538403 0.036816444 -0.027654031 0.15156618 -0.13505945 -0.053197872 -0.35137984 -0.080341525 -0.0010038847 0.6016311 -0.44425413 -0.25824293 0.19775441 0.32667482 0.01067081 0.36342898 0.24724804 -0.035637762 0.061307177 -0.059521254 -0.058895525 -0.14901137 -0.33594298 -0.089898385 -0.0040480285 0.039652105 -0.222937 0.34777033 -0.031205636 -0.41266274 0.26504132 -0.026774984 -0.13982143 0.15594988 0.23625089 -0.16013356 0.024809444 -0.1660994 -0.28669629 -0.078235514 -0.010343697 -0.095436566 0.4273672 -0.04162727 -0.25684056 -0.08165279 0.18020703 -0.32619146 0.21962835 0.35091943 0.1803653 -0.055283897 -0.30307704 -0.079341084 0.4876991 0.2869176 0.015112068 0.36995974 0.036976647 -0.0459142 -0.27138853 -0.039830755 -0.22376885 -0.00022959043 0.31352925 0.0015015255 0.1593602 -0.5765037 -0.0497734 -0.26619923 -0.2352057 -0.28670916 -0.50776494 -0.15421095 0.03781209 0.12789808 0.16050406 0.01162069 0.07392585 0.117011264 0.2884922 0.12604703 0.35832673 -0.30339983 0.124770105 -0.07508703 -0.23871315 -0.15764134 0.20019275 0.13961363 -0.15852228 -0.033354823 -0.23262241 -0.19603209 -0.077793375 -0.07778942 0.20481373 -0.11723004 -0.2437333 -0.044961758 0.32387367 0.06624526 0.22617617 -0.10207024 0.12398233 0.028592587 -0.10171937 -0.039544206 0.46669844 -0.02087661 -0.16812813 -0.0068600173 0.15741992 -0.18833639 -0.09359212 0.368137 0.0067913737 -0.22815003 0.3302962
176 0.06306098 -0.0757347 -0.19789971 0.27764124 -0.22067976 -0.024639536 0.039376147 -0.40472162 -0.26562756 -0.046164647 0.35766044 -0.046660308 0.463262 -0.302424 -0.08414057 0.03941671 -0.15198524 0.23350832 0.20385735 0.51940477 0.017772565 -0.17063715 -0.3828847 -0.0060111913 0.32214794 -0.10756182 0.14502123 0.10657192 -0.456775 0.08810919 -0.1551891 0.35803166 0.0018414431 -0.0880646 -0.012813147 0.25919396 0.19400477 -0.14327702 -0.1509201 0.11614712 0.10883552 0.20388034 0.2196811 -0.039201554 -0.28533113 0.20437764 -0.18704782 -0.35804716 0.07877827 0.20814134 0.122884594 -0.058413986 -0.20766747 -0.013037514 -0.03609504 0.17344034 -0.09619201 -0.08775096 0.3147341 0.11927734 0.19125405 -0.05008782 -0.15801182 0.18251377 0.08865292 -0.041185323 0.2118817 0.027853731 -0.18641822 -0.122268744 0.30022246 0.05697413 0.043706797 0.1067873 -0.12941445 0.08754298 -0.31491095 0.15532027 -0.12831196 -0.026728908 -0.2685345 -0.37697196 -0.10148497 0.21344116 0.047654755 -0.18631823 -0.056237828 -0.068948574 0.14584233 -0.030428298 -0.18852235 0.03605019 0.02680593 -0.044468857 -0.074607015 -0.20297278 0.1247109 0.035544854 0.10474969 -0.3561339 -0.16737646 -0.15037145 0.17877539 0.05729701 0.18390378 0.305007 0.16865139 0.1191647 -0.04065203 0.12518089 -0.040291652 -0.04225385 -0.08645908 -0.04372511 -0.05954212 -0.09470618 -0.076563805 0.055746444 -0.035876125 -0.19941282 0.15528457 0.14213836 -0.083353676 -0.18445571 0.24943748 -0.1597726 0.057329472 0.2602029
205 0.05518445 -0.23507331 0.04453052 -0.1923958 0.10113048 0.023028627 -0.043073557 0.13039434 -0.031428386 0.28199032 -0.018762032 -0.53237087 0.17400473 -0.2916253 -0.19610888 -0.21118411 0.06701341 0.054517664 0.2170741 -0.3028967 0.001289732 0.3358878 -0.41040692 0.027949587 0.53285855 -0.25167412 -0.154296 0.18484227 -0.20511904 0.1481508 -0.33708957 0.06049319 0.03059993 -0.22378269 -0.06309917 -0.099114336 0.05598626 0.046010826 -0.51685566 0.078389 0.07610772 -0.014804246 0.46471485 -0.03713401 -0.095263764 0.23567674 -0.06520166 0.19865432 0.14285032 0.15729585 0.21717227 0.19160154 -0.14363301 0.39127097 0.08191793 -0.13612235 -0.36976632 -0.04567945 -0.10607818 -0.07483116 -0.46596202 -0.16030028 -0.18663688 -0.05070106 0.18961208 -0.3325504 0.19567484 -0.02602481 0.005299986 -0.02980393 0.013765398 0.5060324 -0.19154918 0.18638448 -0.055917844 0.024578093 -0.1726445 0.019882996 -0.12848833 -0.059915002 -0.12854752 -0.23961318 -0.2870997 -0.080941215 0.052041348 0.009912883 -0.044106577 -0.06780327 0.14376518 0.03446471 0.14437765 0.12035176 0.011778021 -0.17159465 -0.2841617 0.14863783 -0.09838174 0.03713622 -0.035372354 -0.1439795 0.33459267 0.013810086 0.0038790342 0.10814533 0.16026105 0.0070987367 0.23092657 -0.01661061 0.29862735 0.08286859 -0.30314073 0.20397575 0.12720028 -0.12607744 0.0010210921 0.22391142 -0.31755704 0.03453961 -0.11632877 -0.1973287 0.024669776 0.18395586 0.089629024 -0.07453766 -0.31281096 -0.020462224 -0.13255168 0.0008490413
302 -0.028628157 -0.006982001 -0.22514838 0.3035886 -0.21798673 0.12788598 0.038007263 -0.3528743 -0.2671122 0.059127826 0.42685887 -0.21526197 0.5095765 -0.36820698 -0.18125953 -0.052669656 -0.12517866 0.25026703 0.08083067 0.47616148 0.051376138 -0.118939206 -0.36622882 0.045362916 0.37926498 -0.0705155 -0.037810862 0.13626333 -0.47467488 0.033918306 -0.079044506 0.19861218 0.033550788 -0.07440662 -0.021222504 0.4709268 0.20004356 -0.18830831 -0.04808518 0.15490317 0.12137211 0.2645633 0.21657787 -0.06290847 -0.24875587 0.14845693 -0.18756863 -0.21906187 0.066571295 0.22120392 0.085640594 0.053812545 -0.080398805 0.0067270426 0.019147785 0.046563674 -0.2093322 0.042098477 0.36234203 -0.11690882 0.368496 -0.03718716 -0.14160632 0.19515032 -0.060285594 -0.04297081 0.14520456 0.07222652 -0.13890706 -0.07555378 0.20557663 0.06386845 0.0002850577 0.11806411 -0.2045865 0.019345671 -0.2816453 0.2538308 -0.12478503 0.014152955 -0.25447184 -0.37643772 -0.010067144 0.045155723 0.24948806 -0.28957662 -0.085829586 -0.15186742 0.082583524 0.005096931 -0.11595271 0.16135842 -0.039913278 -0.0047614323 -0.010143868 -0.12123001 0.051183734 0.14098948 0.11455401 -0.28478086 -0.054349367 -0.18629865 0.1550302 0.07043013 0.09555496 0.3010519 -0.057473246 0.25215062 -0.09530989 0.2585317 -0.03653228 -0.037574407 -0.027734907 -0.114348195 -0.19324145 -0.10973042 0.03188127 -0.06413776 -0.13694355 -0.20710951 0.3162612 0.21968684 -0.04988387 -0.12756297 0.20386313 -0.13175783 0.027414354 0.29754508
202 -0.05161067 -0.4562178 0.30889016 -0.15292121 -0.1650053 -0.036566284 0.25380033 -0.011659598 -0.0067684944 0.06164256 0.020508746 -0.5533527 0.48807946 -0.3816055 0.07461284 -0.1707748 -0.19980223 -0.016718281 0.021629544 -0.27196944 0.009612165 0.116006434 -0.23619178 0.20825055 0.13838468 -0.21131562 0.12864365 -0.119281575 -0.4437369 0.0067611192 -0.086321 -0.046921194 0.06507704 0.10828465 -0.18697035 0.13726987 0.18390435 -0.4134662 -0.23991166 0.25516897 -0.4892106 -0.275895 0.2750269 0.117848285 0.27862453 -0.20226377 0.22074218 0.37767822 0.10663064 0.20253383 0.3392265 -0.3655795 -0.4209511 0.3439116 -0.3184477 0.092463225 0.04639297 -0.095095515 -0.11484082 0.17385112 0.38024506 0.11112452 -0.011466075 0.2835779 0.09245571 0.09285376 0.14124651 0.28446016 0.12801045 -0.1811191 -0.4939682 -0.13050933 0.072459966 -0.14500932 -0.48087987 0.22890945 0.05761621 -0.18960238 -0.18048751 0.111530654 0.12662435 -0.28068897 -0.41943032 -0.30794486 -0.16939093 0.3425951 -0.08073664 0.09892965 0.17955923 -0.068397954 0.120006606 0.28344566 -0.13291393 0.0011579407 -0.014867446 -0.2720987 -0.13785377 0.11637914 0.074670285 0.014365751 -0.11020258 0.2868218 0.094083086 0.16891462 0.015868964 -0.062268198 0.04002845 -0.04773989 -0.09258337 -0.20064355 0.0152973225 0.14953092 0.22052664 -0.11535911 0.47811002 0.23404133 -0.002626609 0.07855624 -0.08086776 -0.32521778 -0.045298398 -0.31656817 -0.21400866 -0.20793553 0.13169299 0.052201156 -0.3196977 0.23284867
292 -0.04841571 -0.094370745 -0.15704045 0.33313578 -0.31523487 -0.026152112 0.09713195 -0.30573693 -0.239044 -0.14444184 0.31936124 -0.19950415 0.493289 -0.30778503 -0.01425293 -0.014304851 -0.15423681 0.26138976 0.1442735 0.5436212 0.07188468 -0.064828195 -0.3360651 0.04905406 0.2841607 -0.1314189 0.089535825 0.06978706 -0.44006795 0.13742617 -0.12137685 0.13669805 0.07212802 -0.00735689 -0.060083948 0.3233137 0.14692014 -0.16592844 -0.17810096 0.065916896 0.17947914 0.2536696 0.07002849 -0.045039434 -0.2468989 0.16774641 -0.1375706 -0.32189262 0.08375231 0.21819483 0.17161302 0.08102498 -0.19494095 -0.0152472155 -0.10588167 0.24832551 -0.1896656 -0.1727882 0.29482958 0.0013433986 0.2747173 -0.042750668 -0.034148537 0.19349581 0.047391817 0.013647374 0.21451208 -0.02219494 -0.18691461 -0.1920505 0.312933 0.08579406 -0.005065293 0.061575577 -0.114792906 -0.02818561 -0.32555327 0.19728182 -0.027364679 -0.02791467 -0.24279729 -0.30797997 -0.07663611 0.025513116 0.23368387 -0.18986408 -0.0658806 -0.0614006 0.06644063 -0.04228525 -0.22155742 0.08020497 -0.029083926 0.07821908 -0.027534362 -0.21915163 0.0766382 0.14775646 0.17107205 -0.3829316 -0.09003247 -0.22404215 0.20773722 0.13621244 0.20919567 0.32318062 0.18120821 0.1862054 -0.14333344 0.07488459 -0.130299 0.07741763 -0.051271506 -0.07285116 -0.11988408 -0.032959674 -0.060955033 -0.033380307 -0.09335521 -0.16428998 0.25387812 0.1546956 -0.11204536 -0.065513976 0.31306565 -0.06916187 -0.004059723 0.28086093
364 -0.0036628065 -0.090503454 -0.12758741 0.17751245 -0.28553233 -0.35255247 0.3973385 -0.016769642 0.07215607 0.14737952 0.10738091 -0.011701752 0.2563338 -0.005128209 -0.49939594 -0.3288354 0.4018791 0.16261078 0.34890562 -0.61990756 -0.22795542 0.020291505 0.15333232 -0.036415618 0.36817116 0.059932478 0.10114393 -0.031263966 -0.15988001 -0.10111036 -0.13065398 -0.43301827 -0.08114339 -0.077870294 0.13572411 -0.2094229 0.1855 0.0043101 -0.24466342 -0.023641858 -0.30766103 -0.17678772 0.103225924 0.13733684 0.029182177 0.03272233 -0.11982895 -0.14777017 -0.05266845 0.18692343 0.18472262 0.40552923 0.27315924 -0.22537899 0.23267527 0.17880128 -0.2148568 0.123911664 0.24595352 0.06962197 -0.011139129 -0.22732551 -0.19266477 0.36736545 0.2523774 -0.08692011 0.3229031 0.21216674 -0.036071762 0.0022081924 -0.0841751 -0.17198204 0.0671586 0.13007589 0.07366337 0.072478555 -0.64067394 0.10671022 -0.34730557 -0.19091617 -0.47354305 -0.45071286 -0.15950581 -0.12561478 0.22212565 0.18249674 0.3753946 0.14957684 0.092714205 0.08147983 0.097204074 0.28442544 -0.3717393 -0.009978571 -0.14156784 -0.21274944 -0.24941626 0.14941694 0.24127704 -0.23205557 -0.08335689 -0.22062124 -0.058094464 -0.266649 0.05575394 0.44801122 -0.15352212 -0.009296356 -0.12003931 0.40771034 0.14451195 0.25730658 -0.29179537 0.072986156 0.31168687 0.050142135 0.0020153904 0.38850877 0.048845842 -0.13687046 0.15718791 0.3432294 -0.1786235 -0.017739538 0.17655043 -0.14570501 -0.17904474 0.1498419
160 0.17589352 -0.18933126 0.2662301 -0.26560682 0.1049172 0.03736904 -0.062360227 0.110771745 0.011817883 0.12723821 -0.030332385 -0.33773607 0.28555802 -0.15450011 -0.30065516 -0.13192128 0.21727705 0.083247125 0.31327087 -0.22813787 0.040604934 0.22535872 -0.30038154 0.17846866 0.50408995 -0.2978321 0.00850277 0.0944327 -0.19903089 0.111234605 -0.2574781 -0.005832894 0.06836709 -0.31516182 -0.07594496 -0.13243847 0.1100016 0.061047208 -0.5182974 0.15011677 -0.025428964 0.090483755 0.22056133 0.028768765 -0.009392205 0.43482763 -0.14166029 -0.002439779 0.11413048 -0.031514984 0.18388936 0.27605188 -0.09940412 0.16754556 0.32013625 -0.046445966 -0.24304277 0.14912957 -0.17588095 -0.034164276 -0.3660173 -0.10041993 -0.17036043 0.17272788 0.25741845 -0.3581195 0.24000205 -0.06555926 0.07647742 0.035100743 -0.07591029 0.6485593 -0.32298672 0.26674044 -0.073417775 0.07494459 -0.09125648 -0.0575704 -0.109146744 -0.025271801 -0.028215433 -0.15283357 -0.17854501 -0.09865143 -0.0006473824 -0.074972145 -0.04106811 -0.1401423 0.09710413 -0.110387586 0.10910507 0.11426786 0.09292377 -0.14939612 -0.19074781 0.20127395 -0.09409971 0.3247566 0.045442678 -0.041560043 0.13039419 -0.061590634 -0.08396943 0.114283025 -0.06971142 -0.08165603 0.27676156 0.16339985 0.20258567 0.14956273 -0.28860596 0.12341087 0.18081154 -0.05173641 0.13220304 0.2971809 -0.16162336 0.047059327 -0.13192888 -0.26950714 0.10675979 0.23059453 0.0064687864 -0.034105822 -0.37286592 -0.083763056 -0.075547285 -0.0019129147
167 0.19238147 -0.2569097 0.086368255 -0.2754576 0.10424697 -0.10602364 -0.06251644 0.171269 -0.12503195 0.29235464 0.080504365 -0.4538868 0.15918581 -0.33988655 -0.123595655 -0.2521416 0.23460448 0.0033381642 0.039664157 -0.30608582 0.066807255 0.33992323 -0.3170538 0.17952411 0.5230917 -0.33251387 -0.13179621 -0.036303274 -0.22077067 0.13247155 -0.24990006 0.067360446 0.013733844 -0.23054749 -0.11610051 -0.19385235 0.04069677 0.016959084 -0.559215 0.07974258 -0.021854725 -0.15903266 0.523482 0.022593923 -0.08930927 0.12994799 -0.19526255 0.11785168 0.08359974 -0.09945334 0.17058459 0.35505027 -0.11232618 0.26148596 0.15789504 -0.14072192 -0.3105818 0.050979875 -0.28723612 0.016946979 -0.348626 -0.0006347588 -0.10819748 0.10572469 0.24262817 -0.3573329 0.34481686 0.042872295 0.07372965 -0.027620617 -0.039402913 0.54285115 -0.33472398 0.21960428 -0.13914432 -0.07890013 -0.18012355 -0.03682745 -0.05678779 -0.117878176 -0.33899662 -0.15622556 -0.24770622 -0.2104076 0.064398736 0.10964503 -0.1016723 0.070961714 0.132091 0.025483955 0.110863775 0.060948484 -0.05516742 -0.17429726 -0.41538578 0.2574312 -0.027789565 0.060738027 -0.14858185 -0.14426167 0.2606124 -0.035868894 -0.10691208 0.016382772 0.13606532 0.009690744 0.20740587 0.13256621 0.348721 0.13263686 -0.27315134 0.29202315 0.19868378 -0.16535577 0.0944417 0.17892104 -0.13512072 -0.040424686 -0.055998974 -0.17205237 0.1100573 0.17009301 0.03716123 -0.08563833 -0.21718657 -0.028055804 -0.22228706 -0.031654954
199 0.018475374 -0.26981837 -0.057064127 0.19562933 -0.28945225 -0.324474 0.23889986 -0.018872133 0.19538705 0.27012026 0.04648151 -0.08963631 0.15649846 -0.0907009 0.0012025213 -0.2714998 -0.030662758 0.06367094 0.6368409 -0.34965235 -0.2541987 0.37448698 0.4432028 0.17084533 0.25527087 0.22289371 -0.16121708 -0.023324894 -0.2228191 -0.02226176 -0.20404565 -0.40140936 -0.09411417 0.038409922 0.088356264 -0.32364434 0.44039896 -0.031186784 -0.47098005 0.18501407 0.12855175 -0.053281166 0.1613086 0.29170305 -0.1264955 0.013987513 -0.20537126 -0.20767476 -0.09662392 0.10149433 -0.1384276 0.4369789 0.041953493 -0.2605986 -0.08256325 0.250785 -0.3854997 0.252196 0.37794375 0.015247118 -0.20981058 -0.3635727 0.09249298 0.5108043 0.17818157 -0.01688888 0.29668823 0.08881274 0.06926166 -0.2176858 -0.115867175 -0.16035123 -0.03636546 0.26365727 0.056849796 0.12417191 -0.65181476 -0.04076471 -0.2555409 -0.22647889 -0.40819398 -0.50232124 -0.15108016 -0.016909808 0.23971045 0.122764505 0.06922003 -0.04233966 0.20506187 0.22908163 0.044948034 0.4194537 -0.3155123 0.17822345 -0.1490688 -0.36584947 -0.23920365 0.08385888 0.19677392 -0.07880314 -0.08205734 -0.2745064 -0.036392957 -0.08401412 -0.019319952 0.14175116 -0.13491605 -0.15576173 -0.119701326 0.30409765 -0.12650652 0.26174775 -0.17545219 0.08352845 0.0038813925 -0.031278152 -0.008463503 0.42789486 0.022600682 -0.29351375 0.013016406 0.068495095 -0.24087922 -0.100655 0.25209755 0.07578873 -0.29753336 0.2974209
350 -0.2429134 -0.79529434 -0.1463142 -0.22389401 0.046622105 -0.025975455 -0.15340939 -0.5300046 0.13245025 -0.08173272 -0.23200443 -0.14212741 0.36908543 -0.33052564 -0.31141546 -0.12485395 -0.17029212 -0.20666839 0.46144044 -0.13979754 0.4259978 0.030606149 0.07171713 0.40850493 0.20485425 0.44842473 -0.14653935 -0.28522533 -0.1485761 -0.046943095 0.1690166 0.08079817 -0.5100429 0.3278101 0.011046963 -0.06317274 0.119569145 -0.06653933 0.4681155 -0.03965928 0.5039204 0.15542686 0.118105456 -0.03346532 0.2919714 0.48556766 0.21624269 -0.35460636 -0.23486826 0.10761908 -0.020892156 -0.061757613 0.04388851 0.26704824 -0.064354286 -0.26612312 -0.073061585 -0.30918953 -0.26103878 0.32515505 0.25163186 0.11818429 -0.14166361 -0.05077205 -0.11444028 -0.10106461 0.2951221 -0.01570316 -0.13146977 0.2929651 -0.45671406 0.32861993 -0.117763355 0.1722359 0.16711566 -0.157384 -0.15798016 -0.032675553 0.2837556 -0.033500154 -0.18350326 -0.1217058 -0.34254786 -0.07097371 -0.33335876 0.46076953 -0.08846574 -0.33987197 -0.42697492 -0.12355792 0.17224635 0.41420898 0.04398251 -0.049659736 0.1242396 0.105993375 -0.3784452 0.25796214 -0.15080327 -0.383195 -0.27363282 0.081440195 0.24530001 -0.2867419 0.2117315 0.602084 -0.0040899003 -0.11838309 -0.23210178 0.064915 -0.27241263 0.024034722 0.24672633 0.407135 0.12148484 -0.501461 -0.00073749124 0.20258811 0.35810417 0.29666454 -0.014885086 -0.23778453 0.17678724 -0.08634197 0.33316764 0.42237222 -0.66290927 0.06890093
359 0.059641734 -0.014563298 -0.07228148 0.09848276 -0.26159796 -0.23756315 0.35842028 -0.041834123 0.13667916 -0.0037545448 0.018544761 0.014749371 0.16076513 0.019590389 -0.21743809 -0.31157067 0.20474114 0.11030691 0.3324942 -0.44928038 -0.284302 0.072728194 0.15136011 -0.073011816 0.48299703 0.044605568 -0.043871354 0.0419635 -0.113582835 0.0016571832 -0.1505897 -0.37979633 -0.059409264 0.012916971 0.059053537 -0.18963605 0.24326792 0.01977428 -0.32476428 -0.02905489 -0.3127158 -0.17644475 0.18011013 0.14455232 -0.019590987 0.08277044 0.023851313 -0.21048173 -0.03868634 0.14019082 0.10177293 0.353113 0.21705964 -0.2851717 0.07691819 0.08867842 -0.1850315 0.15542226 0.31591746 0.06670833 -0.11286329 -0.23003638 -0.18770446 0.32263786 0.32058364 0.047521356 0.17522144 0.1814391 -0.09368125 -0.20959528 -0.08757807 -0.16160177 0.010826156 0.1883991 0.09877037 0.1307443 -0.5749462 -0.07178074 -0.34644848 -0.25986987 -0.44164777 -0.42924163 -0.1694394 -0.052720923 0.21795401 0.19907679 0.19218299 0.12088344 0.16547522 0.0994597 0.20229325 0.31845242 -0.31826064 0.057847608 -0.100345954 -0.15120609 -0.3005902 0.16197613 0.23895651 -0.1969744 0.00067403365 -0.26273435 0.028215196 -0.19833982 -0.011848029 0.27762142 -0.13027206 -0.052430216 -0.12105503 0.46584502 0.018856198 0.253127 -0.08133336 0.14821497 0.0809072 0.03200749 -0.088923834 0.4121753 0.12132193 -0.11359846 0.2291827 0.31339368 -0.20797719 -0.12610543 0.23302852 -0.10240375 -0.24977401 0.2764105
0 -0.22645502 -0.856875 0.012302308 -0.23577322 -0.09709151 -0.22426412 0.099120565 -0.307304 -0.30601352 -0.083561175 -0.2325772 0.15363005 0.22952959 -0.33497953 -0.26868024 -0.123028204 0.16458094 -0.00062700297 0.25529322 -0.29277837 0.124927126 -0.08171995 -0.0132984035 0.13521744 0.22174497 0.3635123 -0.33455735 -0.41016853 -0.07172538 -0.20357825 0.121722385 0.17754172 -0.43450904 0.40586075 0.22693811 -0.0612663 0.41822198 -0.21202613 0.09588932 0.30826354 0.46459273 0.11855765 -0.009825565 -0.029477747 0.32353303 0.32880405 0.22285636 -0.1031743 -0.14694515 0.25119215 0.25257307 -0.21472569 0.11024223 -0.07716645 0.10169279 -0.11875688 0.1147492 -0.3433499 -0.2048179 0.118347555 0.4069617 0.2538272 -0.39746878 -0.17590685 0.22975764 -0.058371507 0.35859814 -0.0790772 -0.12544267 0.02512747 -0.56617653 0.30355993 0.06412757 0.20144598 0.0005874861 0.014289931 0.015481713 -0.002907836 0.09556899 0.040453255 -0.24712242 0.11716615 -0.0511271 -0.1670392 0.046268284 0.3263797 0.028678622 -0.42183515 -0.25273874 -0.12276846 0.18211183 0.22479558 -0.10260825 -0.13141447 0.046554662 0.25333446 0.006380799 -0.05078884 -0.060167853 -0.03810247 -0.13643439 0.43075567 0.123820685 -0.14691356 0.26828325 0.46651742 -0.19743805 0.1591621 -0.08403027 0.14072797 -0.2804535 -0.025362018 -0.025460884 0.27520823 0.20563589 -0.58359504 -0.03539142 -0.019875651 0.10039464 0.073137134 0.23402768 -0.35364214 0.055537853 -0.118283436 0.11018657 0.22964369 -0.75036305 -0.19414154
235 -0.02834459 -0.08138561 -0.11856745 0.20238909 -0.14610186 0.036453113 -0.082572 -0.38532153 -0.32267132 -0.025154889 0.26936883 -0.025858328 0.408005 -0.4757131 -0.09516852 0.15254569 -0.14402919 0.22201042 0.0055281725 0.53442025 0.046647467 -0.32429546 -0.36635968 0.064992204 0.30501637 -0.3147849 0.1162802 -0.028928392 -0.49111483 0.0006814782 -0.20982915 0.24757814 -0.07309095 -0.0022419414 -0.029856212 0.59988666 0.14625251 -0.19491768 -0.11022299 0.08022631 -0.01181802 0.18794526 0.28579816 0.0999844 -0.35590163 0.035020128 -0.12027081 -0.40359253 0.08302335 0.34563953 0.41529557 0.16145213 -0.19306983 -0.023823889 -0.032279164 0.13176635 -0.19211042 -0.1654292 0.35872918 -0.035607044 0.2072886 -0.04821774 -0.23821671 0.12206752 0.07502546 -0.06747054 0.2722931 0.2646146 -0.1473973 -0.25495872 0.16634355 0.07745827 -0.21197261 0.29030252 -0.055255745 0.017696695 -0.25806183 0.310972 -0.4333987 -0.0045227422 -0.17408563 -0.4173052 -0.15618716 0.023304787 0.023670705 -0.10318067 -0.2549927 -0.1667021 0.0674426 -0.15454344 -0.11604666 -0.00029266038 0.04756665 0.08180375 -0.1366776 -0.008925347 0.15277915 0.08263943 0.32471925 -0.28200912 -0.20971584 -0.1711728 0.09160303 0.11417612 0.18516238 0.09696835 0.23310688 0.23084733 0.014427693 0.17438911 -0.09973401 -0.05274519 -0.15643495 0.01524496 -0.17458136 -0.14286415 -0.12549603 0.061806474 -0.14761008 -0.1527699 0.20839229 0.21404175 -0.25548157 -0.013832096 0.08215242 -0.11999827 -0.05240305 0.19158971
10 0.15598147 -0.009514577 -0.1338052 0.14037684 -0.33279458 -0.20431775 0.5685622 -0.06752507 0.15340702 0.011657436 0.031993613 0.14720681 0.26995128 -0.017594257 -0.37915716 -0.19507226 0.26527873 0.09983276 0.20826766 -0.4933681 -0.22946198 0.011473636 0.1800817 -0.12991828 0.431981 0.1489214 0.084976226 0.018269822 -0.07762627 -0.14243543 -0.15134263 -0.2797803 0.0838178 -0.052780956 0.0061446275 -0.18131626 0.23663701 0.104926586 -0.38448796 -0.085383154 -0.36278167 -0.29863223 0.14666001 0.038104262 0.072566725 -0.012299425 -0.113788486 -0.09942343 -0.1028229 0.19261728 0.19287424 0.2434481 0.10146635 -0.21566367 0.26760653 -0.051253732 -0.20488511 0.16751625 0.2416424 0.11150808 -0.062720746 -0.0810625 -0.24622884 0.5515971 0.394163 -0.09574117 0.19458246 0.15881552 0.021987353 -0.115803905 0.0036035627 -0.13788304 0.052359037 0.13734351 0.13534169 0.07649146 -0.75331724 0.089117765 -0.25909156 -0.14021732 -0.37139282 -0.37679294 -0.11165479 -0.109100185 0.135201 0.34017643 0.35945192 0.15173051 0.1468422 0.04932747 0.021778319 0.30925673 -0.37458384 0.050525934 -0.20859005 -0.17245197 -0.31017494 0.13562033 0.34083596 -0.2694525 -0.048540622 -0.28014153 -0.0029292768 -0.25402886 -0.015739404 0.44103178 -0.06619201 -0.016343957 -0.127722 0.56343955 -0.011976816 0.4583505 -0.16419531 0.20739603 0.24314852 0.007267555 -0.08599518 0.5054247 -0.062558204 -0.07390292 0.2779924 0.33809716 -0.033069443 -0.059840143 0.24002758 -0.24854194 -0.11329285 0.058288533
84 0.0794424 -0.44082984 0.33135346 -0.1874922 -0.18762045 -0.012184899 0.2168444 -0.16887116 0.057680815 0.011026829 0.029334925 -0.43719998 0.42254934 -0.40314034 0.045017097 -0.3392212 -0.13667364 -0.12129806 -0.12149289 -0.084523186 0.0073525114 0.24010369 -0.38516474 0.11549992 0.18514246 -0.09889383 0.035010092 0.18607418 -0.53344 -0.07563603 -0.095052496 0.024267973 0.08088024 0.0077778865 -0.23322688 -0.009286556 0.16538002 -0.446388 -0.1769609 0.36849093 -0.6540538 -0.2553835 0.19097266 0.09312385 0.33852455 -0.17333245 0.14286004 0.3486287 0.12637337 0.076184094 0.2820804 -0.27634457 -0.50031793 0.25745684 -0.22005336 0.0054039895 0.01744711 0.037226755 0.03014989 0.17553592 0.3667412 0.13380757 -0.012189105 0.26953593 -0.0031413818 -0.0021993131 0.17563201 0.2490609 0.03294976 -0.22673033 -0.68661237 -0.106898285 0.085036464 -0.1416259 -0.49224195 0.4278602 0.16287905 -0.21160433 -0.11902399 0.075205036 0.055540647 -0.30303803 -0.49380112 -0.17174797 -0.07899665 0.49924558 -0.04794315 0.14505236 0.1931272 -0.07166684 0.1654405 0.27212042 -0.2510523 -0.05587325 0.07446364 -0.3302874 -0.11788488 0.047990542 0.013412397 -0.04864929 0.059739966 0.30528995 0.14777674 0.25765494 0.07449132 -0.07188002 0.012324997 0.029161926 0.104199186 -0.14603794 0.039008375 0.07474364 0.095793255 0.008727638 0.47748545 0.30242 -0.054446306 0.22618425 -0.0738357 -0.46752417 -0.018681126 -0.6172713 -0.3614183 -0.164079 0.00032412953 -0.02048646 -0.41804382 0.27328113
311 -0.09661136 -0.09660299 -0.21610722 0.31982923 -0.26543525 -0.035866003 -0.07661599 -0.28896052 -0.40456232 0.03743187 0.20408694 -0.01829991 0.43595535 -0.43543896 -0.040165603 0.28652257 -0.08492016 0.25257903 0.031125018 0.5348265 0.04371318 -0.20859589 -0.47511655 -0.010892306 0.28500625 -0.16670436 0.24338163 -0.06877432 -0.42195138 0.056612507 -0.29764456 0.15092997 -0.19236992 -0.050598677 0.09881519 0.49541247 -0.0018333223 -0.13891396 -0.007691051 -0.0084349625 -0.017631926 0.22454387 0.29859665 0.060577277 -0.35781398 0.08581468 -0.19705056 -0.37228101 0.127285 0.38367215 0.31140932 0.20480518 -0.16777535 -0.019056775 0.060838215 0.27201208 -0.23750898 -0.17688558 0.39873517 -0.07088953 0.21490334 -0.05930926 -0.21140899 0.178741 -0.0094523905 -0.004151633 0.32187852 0.17869578 -0.14287215 -0.111820884 0.16008842 0.08202733 -0.11463144 0.19472232 -0.006479761 0.039363127 -0.32301012 0.39322287 -0.36574578 -0.035975713 -0.22284795 -0.33515516 -0.22204176 -0.035494447 0.0657454 -0.110963084 -0.07142444 -0.064918414 0.1306762 -0.0859001 -0.06116747 -0.014975659 0.056136362 0.089965224 -0.11038247 -0.10443796 0.12253329 0.18786299 0.25921038 -0.18832025 -0.1956937 -0.29384327 0.29849237 -0.01651078 0.28133047 0.2135318 0.22945336 0.20490777 0.111769326 0.086159185 -0.099065125 -0.008978211 -0.18623996 -0.0682428 -0.08170372 -0.21461692 -0.23858213 0.073992066 -0.028282136 -0.20791505 0.18828817 0.14187735 -0.09588443 0.04212886 0.1986679 -0.07788726 -0.051071897 0.22289057
130 0.055222765 -0.14731283 -0.23942327 0.2666718 -0.09988291 -0.036113072 -0.028951708 -0.29459354 -0.3870947 -0.022685412 0.24859753 -0.16281886 0.37401354 -0.4074878 -0.11997293 0.27388135 -0.076485515 0.23981144 0.091394275 0.49359903 0.00022576697 -0.2786975 -0.39243156 0.040380914 0.22086248 -0.322138 0.18663278 -0.054232754 -0.54788214 0.04108744 -0.2995086 0.27659622 -0.09092741 -0.063443065 0.008993259 0.4784223 0.055171594 -0.116857 -0.08756407 0.19134499 0.04927149 0.16139683 0.43097693 -0.006584075 -0.3391382 0.13393977 -0.08879222 -0.47667608 0.132299 0.28385982 0.40659663 0.10580752 -0.15852849 -0.092421435 -0.011850056 0.1734646 -0.17093033 -0.091440484 0.26162007 -0.028051607 0.17689885 -0.08707832 -0.17165603 0.12533271 0.03898324 -0.029233271 0.22565399 0.2120304 -0.0680146 -0.29447505 0.22008926 0.15690699 -0.12054999 0.24821274 -0.047298316 0.07527102 -0.41732097 0.15959668 -0.27232355 0.04566672 -0.20395665 -0.37701118 -0.22963522 0.078907125 0.12881984 -0.15506 -0.12491972 -0.21231565 0.107275054 -0.046822444 -0.14462435 -0.0014133337 0.043899573 0.16011065 -0.03835716 -0.18541746 0.25573686 0.15306695 0.31444293 -0.10675923 -0.19814096 -0.31479767 0.16599354 0.06371243 0.179856 0.19532664 0.14479701 0.13036099 0.06644052 0.048081573 -0.07444453 -0.08594452 -0.11346953 -0.027023694 -0.17592616 -0.16622002 -0.28900513 0.09252553 -0.026560638 -0.14247124 0.13294576 0.22515193 -0.16782255 -0.009490101 0.12332855 -0.08914999 -0.034646 0.2279942
32 0.008288486 -0.09380703 -0.17560227 0.20974581 -0.16612266 -0.039143816 -0.098023586 -0.3289206 -0.3314303 0.022929478 0.23723434 -0.07828896 0.4623905 -0.34096625 -0.07176113 0.2054364 -0.10251762 0.1808834 0.074878044 0.4794674 0.034670305 -0.31982282 -0.449834 -0.03500254 0.3427122 -0.25101534 0.14651689 -0.08680462 -0.47015372 -0.010804165 -0.17419258 0.24137422 -0.110624045 -0.08740576 -0.094884194 0.5911791 0.05358434 -0.19413762 -0.054324787 0.035239547 0.14018504 0.16227955 0.22993195 0.044327904 -0.3074151 0.059008658 -0.16124402 -0.38741446 0.03196523 0.3010298 0.3170742 0.104163505 -0.17943713 0.012535962 -0.004046787 0.22429064 -0.22800307 -0.113738574 0.32374293 -0.027759746 0.2562852 -0.04178729 -0.14595655 0.09648575 0.09458487 0.037916254 0.2624385 0.14044626 -0.08620482 -0.16259162 0.23997934 0.10212107 -0.112708785 0.17849071 -0.08861749 0.055843323 -0.27273837 0.17524695 -0.43410498 0.016602907 -0.26286945 -0.38912457 -0.23969096 -0.0028948018 0.03579142 -0.10056706 -0.1351265 -0.15461974 0.09308902 -0.09416543 -0.12079367 0.01312055 0.08916111 0.059897438 -0.13315114 -0.08209164 0.14723466 0.14780474 0.40309995 -0.20232779 -0.19334048 -0.2863014 0.21686757 0.010830832 0.29471135 0.2695349 0.19834349 0.13707848 0.071224496 0.045450322 -0.11232995 -0.12731552 -0.17982322 -0.058456928 -0.07547335 -0.109407805 -0.2110824 0.104467556 -0.10450052 -0.15794602 0.0700519 0.22383288 -0.18963131 0.025102729 0.12713623 -0.0911368 0.009636807 0.10058166
335 0.10899696 -0.05297701 -0.1572254 0.17568785 -0.07249248 0.041819036 0.011551316 -0.33784482 -0.28253016 -0.090326205 0.30952746 -0.026708046 0.4604679 -0.5041239 -0.12502867 0.27956787 -0.11684644 0.25658187 0.039240144 0.5261789 -0.050515532 -0.26834545 -0.39390185 0.004019693 0.29499945 -0.17781188 0.22939949 -0.012895063 -0.5361089 0.07770199 -0.1889959 0.21286908 -0.19185136 -0.09291554 -0.015358559 0.51269287 0.12065723 -0.1829593 -0.115889855 0.12775385 0.0643309 0.16016361 0.2852255 0.0004170095 -0.23469366 0.102279894 -0.096572876 -0.36425087 0.0014199269 0.34685045 0.3119255 0.15886858 -0.23486978 0.03504991 0.027050825 0.21982291 -0.1391177 -0.15034561 0.31462926 0.012830703 0.24904355 -0.026313419 -0.17099191 0.079008184 0.017657865 -0.020032905 0.314523 0.28837377 -0.10375831 -0.17973405 0.19005735 0.070137806 -0.15094113 0.30666345 0.013150484 -0.012278316 -0.36281878 0.233381 -0.3115161 0.020078944 -0.2463604 -0.4773312 -0.286243 0.07073829 0.08588762 -0.23775643 -0.17438345 0.00068840757 0.033722714 -0.11715189 -0.113493286 0.030295333 0.0014318138 0.07654059 -0.14567554 -0.20519799 0.080589704 0.16890514 0.25813273 -0.16903655 -0.20595281 -0.19524038 0.1330717 0.021124633 0.19274262 0.12192053 0.17945707 0.07363634 0.06574215 0.11590379 -0.058040947 -0.1372013 -0.18662891 -0.001193842 -0.1642943 -0.21784012 -0.1963156 -0.019010672 0.017495463 -0.07892487 0.27837157 0.2597454 -0.18281774 -0.073513776 0.15271623 -0.12602375 0.04772482 0.09254797
452 0.18109418 -0.11431632 -0.22636548 0.20152381 -0.14805642 -0.27698764 0.44750646 -0.11324571 0.05737161 0.025214907 0.061786212 0.13655007 0.19893451 -0.116226025 -0.29328123 -0.20788793 0.09107367 -0.004199336 0.24041286 -0.49190447 -0.17284535 0.042106565 0.12700324 -0.019929627 0.45873767 0.09865002 0.07603578 -0.031374402 0.026987415 -0.16146754 0.001197635 -0.36544785 -0.017623095 -0.0011572926 0.12442061 -0.30958357 0.22516371 -0.06375901 -0.2824905 0.0129888 -0.28818372 -0.29158464 0.18858008 0.05365936 0.057169363 -0.032151844 -0.14826392 -0.17683576 -0.11784786 0.19202113 0.14790416 0.3510707 0.18329155 -0.1724837 0.35538122 0.10939312 -0.25540623 0.18990272 0.28824392 0.028062796 0.040257648 -0.17139098 -0.31873378 0.41168657 0.29667264 0.0075040325 0.36435565 0.05793525 -0.09684992 -0.17152466 -0.019762864 -0.18185975 0.06041172 0.22527602 0.103046656 0.19356722 -0.6108386 -0.046677534 -0.36059004 -0.23604278 -0.39961898 -0.45435235 -0.17149292 -0.19332092 0.15105979 0.19301294 0.33966506 0.27762872 0.10647154 -0.003263168 0.14983672 0.36142993 -0.22729445 0.23636529 -0.16176917 -0.14444838 -0.36735746 0.13785483 0.118447684 -0.13384956 -0.16593264 -0.09966156 0.027445933 -0.23602132 -0.013724374 0.48842835 -0.22432797 0.012992801 0.1002796 0.45437294 0.07493834 0.26902512 -0.30784133 0.16519685 0.33330715 0.070651166 -0.17733854 0.47334006 0.109108396 -0.064467795 0.40671745 0.27480355 -0.2616441 0.050913323 0.27025878 -0.23059341 -0.08276268 0.17376646
403 -0.041236855 -0.0901413 -0.09108541 0.22442558 -0.27055144 -0.01102971 0.009919082 -0.44538406 -0.306122 -0.0697025 0.36541632 -0.16303676 0.49379253 -0.38310856 0.07654757 -0.06109211 -0.14020966 0.33738357 0.12107817 0.4344362 0.060923666 -0.07664756 -0.3122602 0.009022633 0.35690776 -0.03162518 0.009293895 0.1842984 -0.43255642 0.051761273 -0.050790723 0.23999801 -0.020455537 -0.0308735 -0.08818417 0.34801012 0.12987575 -0.09289568 -0.10740015 0.13007402 0.09080122 0.25308976 0.15741743 -0.00917749 -0.22455621 0.08651574 -0.09842014 -0.35497427 0.020878086 0.24954145 0.19337943 0.032322086 -0.15729246 -0.10071946 0.070985556 0.04180434 -0.22932081 -0.038448963 0.35814488 0.09378451 0.20466417 0.03348759 -0.07180358 0.17241007 -0.025657682 -0.04759743 0.22506651 0.12557827 -0.1442644 -0.21052296 0.37579572 0.09936433 0.02322067 0.027266063 -0.22923516 0.112394735 -0.1778981 0.1222303 -0.24888206 0.004927887 -0.39350292 -0.34716603 0.040420607 0.07766551 0.19132043 -0.20560662 0.022346938 -0.0010591527 -0.04990958 0.07773402 -0.17028485 0.1268965 -0.03358188 0.13070434 -0.09367117 -0.10482562 0.18579774 0.15713993 0.017238727 -0.21567705 -0.122844435 -0.08468226 0.22738759 0.06591777 0.25529516 0.20256165 0.057753317 0.25612774 -0.102940075 0.12753974 -0.12473319 -0.008837501 -0.01506414 -0.051412206 -0.2024841 -0.09297297 0.022271393 -0.106185965 -0.042481557 -0.25646973 0.28369534 0.18986812 -0.18927339 -0.14944422 0.25909787 -0.2537143 0.035021428 0.2613935
257 0.14502975 -0.24355112 -0.07341263 0.083016 -0.22007796 -0.2265217 0.18856391 -0.15547723 0.14637321 0.28385115 0.07015526 0.010417387 0.13010128 -0.031137135 -0.109521374 -0.3886967 0.063140586 0.0039964556 0.5851434 -0.34307295 -0.41505077 0.2893261 0.3659818 0.007302768 0.365999 0.10699347 -0.21001479 -0.05375159 -0.20846245 -0.21214886 -0.17795725 -0.27028346 -0.2266099 -0.07946361 0.04519918 -0.27116838 0.3697058 -0.10681834 -0.49347714 0.18692225 -0.019909753 -0.07716602 0.10353805 0.30059358 -0.1289358 0.12759647 -0.2516867 -0.24724188 -0.06378394 0.0005901093 -0.18702948 0.3750869 0.065003745 -0.38347247 -0.05354548 0.10325182 -0.45153663 0.20140293 0.44068038 0.13702972 -0.16835149 -0.29091343 -0.04739967 0.39413774 0.25112826 -0.07679046 0.31547812 0.17335321 -0.07567032 -0.4006493 -0.08331467 -0.14766836 0.07313889 0.20345707 0.078971185 0.1764215 -0.5796614 0.026828792 -0.11374569 -0.15620515 -0.31977978 -0.49058664 -0.124344 0.114386156 0.2312124 0.1357521 0.06787307 0.11785423 0.12995334 0.22886297 0.053371195 0.3756903 -0.39123732 0.20914577 -0.01449547 -0.2960278 -0.17057045 0.096723326 0.23821725 -0.14649296 0.114634484 -0.19753759 -0.06556912 -0.15558502 0.0048154164 0.19808139 -0.069663465 -0.057498556 0.0106329825 0.27636936 -0.13107885 0.2612351 -0.15692316 0.13559765 0.08891504 -0.004513877 -0.023770113 0.3803127 0.14069611 -0.30060512 0.11978327 0.13290025 -0.23589131 -0.08978716 0.31668645 0.012181028 -0.13677973 0.18798465
320 0.087729044 -0.32208893 -0.11048559 0.1636811 -0.3450881 -0.20916681 0.2911816 -0.03331486 0.36381912 0.24724698 0.042697128 -0.061019927 0.15514156 -0.20990084 -0.020485228 -0.37926283 0.03751726 0.03706062 0.702102 -0.36427712 -0.23751019 0.12977453 0.32224408 0.1330191 0.3807387 0.15240295 -0.19019316 -0.09219 -0.1620448 -0.033934493 -0.09360473 -0.39987168 -0.07972148 0.05799155 0.008045294 -0.35180545 0.3901459 -0.0034401156 -0.40699917 0.18625027 0.072604835 -0.12508196 0.13972294 0.2796967 -0.14885771 -0.031014036 -0.18281084 -0.26806515 0.08588166 0.07158091 -0.15833363 0.367932 -0.005426968 -0.293253 -0.06681154 0.11170884 -0.31116346 0.3177895 0.40595162 0.09064951 -0.17970295 -0.30320942 0.07019692 0.4228708 0.21643622 0.0026854863 0.21548219 0.085186765 -0.062567025 -0.16753134 -0.039581902 -0.1602386 -0.088898465 0.3737062 0.048451476 0.15281935 -0.6464339 -0.0264234 -0.19109038 -0.33389297 -0.34653598 -0.5487504 -0.06638118 0.19986627 0.10209233 0.15718742 0.027999073 0.030981267 0.15918693 0.16190228 0.12533346 0.40044057 -0.27705002 0.11534176 -0.119233966 -0.3361398 -0.08862587 0.10780096 0.027427375 -0.3483416 -0.025834888 -0.16782057 -0.062172998 -0.05414014 -0.06425058 0.02230359 -0.25104326 -0.19271597 -0.10940768 0.3384562 -0.043148894 0.1951739 -0.21691744 0.17753018 0.15280122 -0.04411707 -0.024664871 0.4518975 -0.05747306 -0.26385635 0.055713408 0.13608429 -0.24017882 -0.06255576 0.25953376 0.08464412 -0.27536815 0.19770576
279 -0.08233551 0.031737834 -0.09676062 0.22528216 -0.34246787 -0.018675009 0.08074179 -0.44907337 -0.34504622 -0.09087718 0.4388054 -0.20610659 0.46961987 -0.38131016 0.02183786 -0.03808786 0.0022822742 0.279401 0.21428226 0.45051247 0.16321626 -0.03791587 -0.3959841 -0.031091586 0.32578665 -0.033133846 0.01530454 0.24821323 -0.4145619 0.110129006 -0.16922121 0.18223526 0.0048146825 0.01831602 -0.08221608 0.2524953 0.16632615 0.009899869 -0.129323 0.03157188 0.16892056 0.1522177 0.14661227 0.025285885 -0.1081999 0.23914294 -0.18770501 -0.30715185 0.13697034 0.14243157 0.08940377 -0.059404735 -0.11352586 0.027715435 0.039156906 0.15221152 -0.120015614 -0.23179062 0.24181674 0.12995143 0.14468007 0.06886439 -0.1406506 0.12055992 -0.051097337 0.037120305 0.14494383 0.14802018 -0.22593176 -0.18883519 0.2442779 0.03992617 -0.022115301 -0.029116886 -0.22923054 0.13660951 -0.20698753 0.13562323 -0.072540104 0.043336127 -0.32176116 -0.38260797 -0.06016967 -0.07889681 0.3515435 -0.2167426 -0.015712302 -0.07209023 -0.0052818013 -0.08206914 -0.12434599 0.109554335 -0.18070084 -0.038056202 -0.06339258 -0.17955442 0.23833674 0.19739817 0.040852502 -0.35836142 -0.20081295 -0.2545628 0.18612604 0.100399524 0.09171446 0.353135 0.08141699 0.27205637 -0.0842191 0.12993225 -0.042190265 0.0028761956 0.014188009 -0.10755068 -0.11073931 -0.084106356 0.06624262 -0.10616355 -0.10307609 -0.3581283 0.2657254 0.24807964 -0.17875378 -0.09754839 0.20804843 -0.07357328 -0.02486284 0.32689244
404 -0.3546419 -0.85117066 -0.105638266 -0.35375217 -0.09876131 -0.01438559 0.065291464 -0.30401945 0.14937416 -0.20194085 -0.24662322 0.00964523 0.31907 -0.28083622 -0.3665171 -0.042349834 -0.15243345 -0.15165044 0.56812716 -0.11204701 0.32682127 0.07964902 -0.10231083 0.15314922 0.3318259 0.338001 -0.21119332 -0.19167905 -0.027171863 -0.08384782 0.29430282 0.09258075 -0.5981703 0.324529 0.0036560073 -0.09288565 0.14064021 -0.13747683 0.42716998 0.23574984 0.40875584 0.11706006 0.055693872 0.035439752 0.26318198 0.5034063 0.16409501 -0.3211625 -0.22735038 0.2033434 0.13199149 -0.081610925 -0.096962534 0.13314745 0.12449236 -0.2607416 0.0016566525 -0.372726 -0.18448222 0.31105843 0.30776152 0.045856435 -0.041191373 -0.15188092 -0.20641792 -0.24143367 0.3057075 -0.09885231 -0.14216231 0.32688358 -0.43772346 0.34892172 -0.038139477 0.16858108 0.02881164 0.06965392 -0.0062399 -0.07929076 0.08033676 0.053685755 -0.18282752 -0.109537914 -0.3109987 0.08094628 -0.40009 0.28373325 -0.023695974 -0.4044807 -0.34744066 0.07453972 0.10396741 0.49876484 0.08563642 -0.18211907 0.101149745 0.025542019 -0.27067706 0.037235327 -0.088561356 -0.307559 -0.25417 0.12904371 0.27349356 -0.25721157 0.0883668 0.5728912 -0.1146422 -0.23939733 -0.3736073 0.09977247 -0.4631814 0.1151264 0.13976403 0.4059453 0.29869777 -0.5042549 -0.033240475 0.24190746 0.32984307 0.16219646 0.0053719375 -0.25341195 0.15848963 -0.115245804 0.27518678 0.31036866 -0.5618629 -0.10845806
247 0.1621538 -0.19324927 -0.11352392 0.22039616 -0.16208814 -0.34781173 0.3868717 -0.069978386 0.18644175 0.03445867 0.03366932 0.070367716 0.260566 -0.06415846 -0.45476443 -0.30053136 0.2026173 0.027903436 0.2916686 -0.5615307 -0.26246458 -0.05983603 0.21391328 -0.115801655 0.45042992 0.10262812 0.045063976 -0.11058131 0.07206663 -0.10042736 0.013005236 -0.4367329 0.006711494 0.004695316 -0.019216122 -0.031238284 0.31134266 0.07634622 -0.1904898 0.11069101 -0.45278072 -0.23452786 0.16276503 0.042075057 0.024148645 0.049721736 -0.1864638 -0.29826945 -0.13921383 0.25276402 0.17347515 0.38449532 0.25162506 -0.22671963 0.16998799 0.08718956 -0.20097083 0.2353974 0.35959902 -0.025483705 0.019100774 -0.22879067 -0.25460967 0.41440508 0.34817475 -0.07515935 0.20177792 0.21857704 0.0049996064 -0.12649219 -0.02324698 -0.029029876 0.16342255 0.15744837 0.05678873 0.14432105 -0.5943463 0.014751145 -0.31096902 -0.3372404 -0.43657613 -0.43507892 -0.22067736 -0.106265984 0.31156477 0.06584864 0.35822922 0.17025396 0.21989481 0.096558355 0.17656021 0.15548325 -0.24311315 0.050887607 -0.20785336 -0.16612574 -0.32578376 0.2766718 0.13928862 -0.1411427 -0.06268224 -0.10426172 0.06191797 -0.26534986 -0.039152045 0.2724337 -0.12559725 0.044460632 -0.07982923 0.4329612 0.13470182 0.26944718 -0.19140331 0.055611927 0.1897457 0.09566747 -0.17184584 0.40177074 0.2157493 -0.08798573 0.27307585 0.3175554 -0.03080538 -0.061259624 0.18836926 -0.16601658 -0.10840843 0.21393749
464 -0.017335897 -0.18545216 -0.16460852 0.28506485 -0.22683235 0.06573719 0.1029367 -0.51535344 -0.28758743 -0.0068020006 0.29365742 -0.13539015 0.48089024 -0.32890564 0.010997518 0.071156666 -0.012981189 0.3198838 0.24349348 0.5210545 0.15635741 -0.09658081 -0.39480647 0.04838181 0.4523309 -0.017448397 0.054475963 0.19707778 -0.43059024 0.12938978 -0.14877117 0.21690488 -0.021349797 0.09348303 -0.14605194 0.32255113 0.22439858 -0.056660526 -0.15993786 0.013032585 0.10954504 0.16575025 0.10191354 -0.07771727 -0.24963413 0.091563895 -0.1872274 -0.25173268 0.11233365 0.21161407 0.16121146 0.014306482 -0.05969152 -0.10055004 -0.10468086 0.07528141 -0.048984244 -0.090792045 0.30042988 0.14647773 0.15274389 0.0110766785 -0.1976898 0.084400944 -0.012284798 0.018932827 0.059405293 0.09760514 -0.30170634 -0.16056104 0.3596071 0.10024502 -0.11508216 0.04494952 -0.29146343 -0.041331377 -0.14701489 0.14953478 -0.16088527 -0.017186482 -0.3292544 -0.42121056 -0.010141302 0.049172964 0.24466278 -0.26204124 -0.05390871 -0.13166738 0.010218296 -0.047444038 0.004136231 0.12713611 -0.15267894 0.1118265 0.013684752 -0.12026745 0.23522775 0.21641195 0.060917944 -0.32927987 -0.17311001 -0.27542132 0.17840175 0.11711953 0.22251216 0.15010254 0.12029679 0.16307291 -0.066967785 0.20957409 -0.15431039 0.17134924 0.024847876 -0.081880584 -0.18420605 -0.05330396 -0.0063472884 -0.11444094 -0.16038871 -0.19871673 0.35056895 0.30132464 -0.21050851 -0.14049359 0.24479493 -0.09054736 -0.07902991 0.27321136
438 0.22164594 -0.26361617 0.22247617 -0.31445777 0.06259957 -0.06125525 -0.06122555 0.2520444 0.06461297 0.1752019 0.0086485045 -0.49416074 0.2233125 -0.3412148 -0.26045012 -0.23613426 0.11097762 -0.033065494 0.23750643 -0.29659975 -0.024921665 0.28128803 -0.23620239 0.29656485 0.52627504 -0.26709744 -0.08855068 0.1555259 -0.22328708 0.16140693 -0.3520195 -0.05017628 -0.06580722 -0.2699761 -0.19959062 -0.15025623 0.12975663 0.067443125 -0.50338215 0.22128896 -0.03226422 -0.026301568 0.31165686 0.07725712 -0.19047576 0.32211685 -0.17592376 0.028265692 0.10451633 0.06692824 0.19072263 0.36312187 -0.24949044 0.2735645 0.1261623 -0.096943535 -0.21372089 0.08725509 -0.21329355 -0.20167033 -0.40108106 -0.073096454 -0.091201715 0.1700412 0.27239442 -0.33838326 0.29844564 -0.09348647 -0.1357558 0.14464816 0.0001603501 0.53752726 -0.21786764 0.1989463 -0.10357419 0.072105825 -0.12944423 0.009360865 -0.08175278 -0.17984062 -0.3202217 -0.21927582 -0.22161883 -0.02972545 0.13514137 -0.03906224 -0.060353093 -0.05777179 0.18267757 0.0875576 0.1327736 0.1900647 0.0062955176 -0.12792975 -0.37070334 0.2853927 -0.11243539 0.050221 -0.0130767785 -0.12746365 0.2380337 0.011096052 -0.09764857 0.08415312 0.01124656 -0.16087244 0.19456205 0.13557054 0.30397198 0.13421485 -0.3227065 0.1844478 0.15887411 -0.12140068 -0.08433908 0.22712803 -0.23287067 -0.012268794 -0.18426739 -0.12637669 0.043874 0.19427012 -0.023231002 -0.07317484 -0.3419413 -0.008803981 -0.12421521 -0.050208434
135 -0.05440821 -0.0984524 -0.26716936 0.25766566 -0.0710389 -0.09195111 -0.101337366 -0.32019588 -0.27934286 -0.055284213 0.31906563 -0.014143077 0.46415028 -0.50660104 -0.11876298 0.21172401 -0.09559809 0.11175588 0.042474445 0.6069942 0.049499802 -0.30338374 -0.33481222 0.09757712 0.34158283 -0.2405018 0.15007155 -0.0430096 -0.4866404 0.04309268 -0.111007966 0.20604041 -0.17517178 -0.03722795 0.02075985 0.5432251 0.018628895 -0.10620622 0.09605716 0.16371302 -0.06215701 0.1361156 0.30899242 0.068453625 -0.34152833 0.046440683 -0.17618786 -0.36845317 0.15317905 0.32013443 0.32028422 0.14463618 -0.24850078 0.021227915 0.11588058 0.17805745 -0.18731228 -0.07371375 0.24967934 -0.05986973 0.24960886 -0.06336107 -0.1565545 0.18565638 0.058052935 -0.06103278 0.25902593 0.17018327 -0.12711751 -0.090404764 0.2124502 0.12059844 -0.038081046 0.2960525 -0.10175575 0.0813877 -0.32361683 0.26231468 -0.257541 0.05957468 -0.3068171 -0.46223915 -0.27291802 0.061053976 0.12448865 -0.10027215 -0.12958041 -0.07590452 0.11686132 -0.066823326 -0.17018822 0.0252608 0.06020242 0.12558647 -0.14402589 -0.103541434 0.13157307 0.19372608 0.26541033 -0.17588674 -0.26793057 -0.2850306 0.18615243 -0.007874105 0.21052109 0.1482378 0.19544941 0.19365953 0.064925745 0.14188449 -0.1009837 -0.11071804 -0.20965938 0.038508546 -0.090350546 -0.1642141 -0.13692775 -0.068010144 -0.026101595 -0.1259147 0.23460452 0.208276 -0.13661636 0.02393917 0.18500611 -0.111599 0.004236743 0.19229707
414 -0.19692807 -1.1032941 -0.034604598 -0.38600144 -0.15467553 -0.19746374 0.04966645 -0.16388929 -0.2885253 -0.23737843 -0.23165093 0.20958744 0.2826884 -0.24438274 -0.16348304 0.02198975 0.12607346 0.10040522 0.253132 -0.20576698 0.041741934 -0.13161182 0.009607695 0.094085395 0.045700308 0.2388669 -0.39952683 -0.30388215 0.016521737 -0.07893422 0.0861379 0.10685042 -0.5559748 0.097311236 0.23714514 0.043408737 0.29189888 -0.21115346 0.22603616 0.15935278 0.4226968 0.31010637 0.077253826 0.16211833 0.4019977 0.38252252 0.29499477 -0.26220545 -0.29930356 0.09957133 0.14987217 -0.14156705 0.11652932 -0.16824068 0.07701817 -0.10051252 0.25173756 -0.2757986 -0.19744217 0.12497601 0.39735314 0.24726495 -0.34551537 -0.01710521 0.25455716 -0.006982207 0.32872024 -0.15733515 -0.026169147 0.08289799 -0.4905329 0.4287098 0.11104143 0.18185197 -0.08177183 -0.014797565 -0.036286257 -0.01591485 0.07546641 0.14001606 -0.11418402 0.006120365 -0.31874403 -0.06939568 0.061139345 0.3019608 0.07623422 -0.5170234 -0.07416478 -0.13174379 0.22764353 0.3332782 -0.032239094 -0.13392709 -0.010630784 0.21869186 -0.026440881 0.20324482 -0.15841135 -0.043338805 -0.103867255 0.41518742 0.37240043 -0.0057518193 0.23590696 0.4368019 -0.20711729 0.24352653 -0.06410015 0.22208168 -0.3138278 0.00678969 0.22981349 0.35993612 0.2506827 -0.42453375 -0.2117553 0.07699668 0.21280017 0.21415655 0.2167508 -0.47210827 0.17352223 -0.20060378 0.059459116 0.24484316 -0.76555026 -0.18921925
437 -0.45976925 -0.8260204 0.0057061855 -0.15506594 -0.18969999 -0.28914115 -0.34152082 -0.13715033 0.44261995 0.008484769 -0.26503253 0.044464763 0.5711231 -0.38575414 -0.27396587 0.55162895 -0.21550883 -0.15959333 0.13885832 -0.30375 0.30467483 -0.0023706355 0.29062986 0.055209897 0.2818862 0.53116465 -0.3502889 0.0039348328 -0.19838731 -0.16216068 -0.25439012 0.044138767 -0.19923641 0.3206667 -0.23800828 0.031306524 0.41279927 -0.18525578 0.013484034 0.06931166 -0.08373862 -0.025931772 0.34689447 0.03296762 0.44834387 0.1994063 0.003951829 -0.32460594 -0.4408925 0.2936681 -0.03492711 -0.098510265 0.13372056 0.18663992 -0.059774954 -0.2958924 0.031179471 -0.25308606 0.06988054 0.20393352 0.3739805 -0.053002786 -0.04223132 -0.19697914 -0.25504267 0.09885804 0.4706559 -0.4053988 -0.16012554 0.22561215 -0.61764413 0.7793779 -0.41042817 0.09042785 0.063129306 0.17599235 -0.24372062 -0.0042335824 0.07995539 -0.055587217 -0.2834181 0.3334238 -0.018878883 -0.09496594 -0.19704995 0.23314597 -0.5810344 -0.53446895 -0.38926876 0.061943203 -0.26048 0.33185852 0.33439344 0.05532131 0.098042056 0.1931029 -0.16792998 -0.08090541 -0.20135891 -0.5147817 -0.015886948 0.13362996 0.15834771 -0.16751274 0.09965654 0.70370877 0.060893055 -0.46516567 -0.4895155 0.06732795 -0.6753645 -0.3341902 0.14967178 0.219474 0.45422643 -0.53938454 -0.1025424 0.15772927 0.5075874 0.1502848 0.08524547 -0.097890764 -0.089425705 0.08211455 0.49682838 0.0013668982 -0.50636846 -0.050706916
258 0.27027416 -0.1560987 0.18381055 -0.2573988 0.19159955 0.049267225 0.09054588 0.20499824 -0.046157587 0.05350597 -0.022048602 -0.35292193 0.13198474 -0.19687495 -0.25580204 -0.22994424 0.25061452 0.089426234 0.26760575 -0.26474717 -0.08202378 0.15491281 -0.1991304 0.13358441 0.5469173 -0.24420309 0.020973133 0.15579808 -0.12027813 0.09322369 -0.233016 0.16661377 0.115563065 -0.28043208 -0.12708315 -0.18149509 0.12204953 0.0706689 -0.52047205 0.12165937 0.032756012 0.0059048827 0.2989253 0.05930879 -0.07961089 0.3183314 -0.07380005 -0.10821441 0.12103814 0.13482617 0.18590657 0.20012578 -0.14976719 0.27816868 0.19284017 -0.09014457 -0.21331458 0.13550757 -0.11127922 -0.013125205 -0.4345972 -0.07457045 -0.32122493 0.20123555 0.25496355 -0.32047275 0.11131449 -0.06092657 0.059374634 0.12128515 -0.027624423 0.53019756 -0.36567566 0.45612082 0.04443459 0.05289441 -0.13743311 -0.039992318 0.0023499932 -0.003413748 -0.09145025 -0.28859395 -0.26326394 -0.00953619 0.085575625 0.113556005 -0.02427806 -0.14547321 0.1658352 0.010007466 0.25012088 0.14334711 0.01936264 -0.17915145 -0.2404663 0.21476045 -0.053384863 0.126229 -0.13882983 -0.1391451 0.21925852 -0.10782396 -0.12375692 0.053835362 0.029903527 -0.09119768 0.2709057 0.17600247 0.15196438 0.122816116 -0.25471377 0.18387982 0.14022192 0.019318452 -0.01806545 0.2790861 -0.37712935 0.12029982 -0.16307664 -0.1818627 0.08715023 0.17633915 0.021567922 0.026611237 -0.33299333 -0.18243216 -0.054605264 0.13711894
251 -0.019931147 -0.33375898 -0.067372 0.03228789 -0.2878015 -0.3567196 0.30671254 -0.104014665 0.2532904 0.26378655 0.1987097 0.053267233 0.16125569 -0.16261284 -0.02313069 -0.2112322 -0.12789175 0.07054542 0.6739592 -0.30931425 -0.23572676 0.27927965 0.24838832 0.090797804 0.34827656 0.18152349 -0.19428211 -0.090719186 -0.11215325 0.098458804 -0.18355535 -0.38769692 -0.08670327 -0.024498375 0.09385199 -0.40404865 0.5582262 0.10094906 -0.356587 0.20545854 0.06745327 0.016896395 0.13429324 0.23395705 -0.3058645 0.00053244276 -0.26991376 -0.2655872 0.1281813 0.0019567253 -0.08293629 0.48460138 -0.08692067 -0.23906931 -0.047325913 0.09677772 -0.32849574 0.21867757 0.40726793 0.08804121 -0.26641622 -0.27884674 0.049182948 0.5446294 0.23253056 0.032644875 0.19996111 0.115112066 0.00572243 -0.17515472 -0.07605152 -0.11608625 0.07465738 0.22300372 0.12644964 0.105607904 -0.5888244 0.0352805 -0.20901625 -0.23387828 -0.44505933 -0.5975856 -0.089966945 0.023424264 0.2349378 0.17448166 0.13245702 0.19208136 0.16012034 0.28843194 0.10772177 0.39947575 -0.3576029 0.16638207 -0.037046604 -0.3596581 -0.14409825 0.058960576 0.12325537 -0.29017627 -0.13699235 -0.20211135 -0.10629382 0.006008691 0.03951556 0.13073154 -0.1424026 -0.25382543 -0.08219038 0.25758433 0.049274784 0.3353767 -0.16434418 0.12972888 0.04957523 -0.044443943 -0.03373197 0.48789215 -0.02419142 -0.20480171 0.016598249 0.0919819 -0.19952357 -0.16926001 0.25874662 0.20954588 -0.30139154 0.12232723
248 -0.5773582 -0.7745943 -0.022426594 -0.11189176 -0.20266542 -0.07632603 -0.21899635 -0.067121096 0.21862994 0.00043775683 -0.40010405 0.11332555 0.4781723 -0.3182543 -0.3091683 0.57997847 -0.20586866 -0.009017293 0.013797492 -0.40606287 0.29340026 0.037602987 0.17965326 -0.10224058 0.32654265 0.30197728 -0.13811153 -0.013176036 -0.28172734 -0.23181151 -0.25906396 0.10668219 -0.2718648 0.3831712 -0.14604908 -0.1268377 0.41287264 -0.04918076 0.21538346 0.006280644 -0.060623903 0.009613908 0.4330007 -0.010495975 0.483401 0.39192384 0.12449498 -0.41875514 -0.38880736 0.32172662 -0.027327407 -0.105932094 0.18509828 0.21043326 -0.124067664 -0.24371453 -0.06771234 -0.45924476 0.062217355 0.40764624 0.267106 0.030987488 -0.009284185 -0.2328 -0.41485193 0.025083512 0.31735346 -0.2935599 -0.12946257 0.19341743 -0.61179286 0.74817544 -0.33139783 -0.0739143 0.067804284 0.11223052 -0.16763453 0.006933635 0.07478987 0.019001814 -0.29118392 0.30358157 -0.0038099652 -0.23768255 -0.21996321 0.34690967 -0.3556384 -0.5576884 -0.46725085 0.18829067 -0.090424046 0.33766937 0.33707365 0.12761341 0.1826421 0.11761339 -0.1822435 0.0010202406 -0.31078115 -0.6265027 0.0040657963 -0.020986948 0.09864961 -0.09045329 0.13945 0.6856988 0.058221355 -0.5233503 -0.51828796 0.26395506 -0.56836474 -0.34837875 0.15470578 0.2841244 0.39608553 -0.5685257 -0.27920628 0.07596867 0.4747292 0.06015177 0.13082573 -0.072100036 0.006107801 0.103750944 0.54069704 -0.025832053 -0.3988003 0.08358939
436 -0.17740305 0.065266535 -0.28125688 0.41433465 -0.13956438 0.009023541 0.121023856 -0.39443472 -0.026126474 -0.09853893 0.42606756 -0.12391899 0.3755962 -0.29771435 0.07704933 -0.08193577 -0.2074732 0.18013024 0.17759696 0.45970136 0.020671243 -0.20219818 -0.4297289 0.10492923 0.15203047 -0.10770148 0.23479381 0.27007338 -0.31928274 0.04513115 -0.11093574 0.19915582 0.13324866 0.028716633 0.008771056 0.28879818 0.23488359 -0.19595295 -0.053583294 0.1484467 0.11518852 0.30831456 0.17095006 0.07132946 -0.1280798 0.14879222 -0.16784522 -0.36436683 0.1570736 0.10024348 0.082070746 0.11024927 -0.3000863 0.000468327 0.11672651 0.05956398 -0.0008500772 -0.08967468 0.38906667 0.05221473 0.20621721 0.14076701 -0.19486398 0.23072779 0.026783329 0.15790151 0.083163045 0.001723821 -0.18076272 -0.16143204 0.020363804 0.2365834 0.06610357 0.08133949 -0.027714405 0.047273073 -0.22210398 0.0014383135 -0.1042018 0.009264108 -0.2861469 -0.3523636 -0.091011144 0.18894877 0.18996353 -0.202708 0.046345554 -0.20217338 0.14570166 -0.029369347 -0.070907615 -0.030810138 -0.070919104 -0.027249442 -0.17548889 -0.03009841 0.08294461 0.15723865 0.11825274 -0.16941358 -0.05868038 -0.2861498 0.19380352 0.12822117 0.1384873 0.48504043 0.11739823 0.4032555 0.020915927 0.24456315 -0.034432504 -0.12796962 0.10492867 -0.04047508 -0.15063791 -0.058021888 -0.0061638337 0.107720196 0.044626772 -0.35337844 0.22898228 0.1810605 -0.13438384 0.01825592 0.027339337 -0.22732514 0.04378986 0.29998428
379 -0.081776425 -0.44374618 0.35914338 -0.07791695 -0.1312633 0.060202498 0.24451526 -0.17220451 0.07432347 -0.024805617 0.0077048526 -0.6204177 0.4198929 -0.23119208 -0.069857694 -0.19715296 -0.19246222 -0.024808407 0.010261899 -0.28558356 -0.071368836 0.04356775 -0.17373127 0.14251287 0.049146593 -0.22260754 -0.08136353 -0.01815916 -0.44952005 0.050649766 0.06479084 -0.13958701 0.048960682 0.07568492 -0.24497011 0.12375803 0.2425076 -0.20445596 -0.11984342 0.31428438 -0.57156247 -0.22643517 0.3078121 0.2037616 0.34319407 -0.11723199 0.10088218 0.24602379 0.020056037 0.0656352 0.26700342 -0.21867822 -0.4424876 0.29842123 -0.33294213 0.042969897 0.08104294 -0.16380711 -0.070389345 0.11607919 0.24577174 0.091107935 -0.05475048 0.20984998 0.09963533 0.056426298 0.17716563 0.27608648 0.12773873 -0.13287441 -0.60764784 -0.11296462 0.11774428 -0.09931602 -0.46140268 0.22854018 0.11104612 0.0032244923 -0.120654956 -0.008519796 0.22274518 -0.31575167 -0.49715373 -0.15277226 0.0781049 0.3029382 -0.024637148 0.13595803 0.111536294 -0.12961303 0.055024177 0.22106843 -0.24822532 0.041327946 -0.08150157 -0.22727479 -0.1504366 0.05673516 -0.14548883 -0.12198731 -0.16015224 0.393908 0.19794013 0.08827924 -0.20525335 -0.051153064 0.18403023 0.091969244 0.013688787 -0.025974529 -0.043479927 0.14487185 0.21746059 -0.11888302 0.41127488 0.23934475 -0.010394614 -0.008392388 0.014147421 -0.2886154 -0.021443883 -0.4156598 -0.28247684 -0.19051805 0.17750938 0.08065455 -0.31297556 0.19575529
197 -0.059408884 -0.16985728 -0.17739148 0.15600105 -0.2512522 -0.38122192 0.3291294 0.016322887 0.18898654 -0.0056033935 0.10213835 0.20936811 0.29873 -0.04989616 -0.43803194 -0.28965747 0.20606494 0.09215163 0.25292394 -0.37764242 -0.1841628 0.064516686 0.14852999 -0.019570239 0.44074965 0.12365522 0.07025825 0.044759966 -0.068354614 -0.111610614 -0.0038712707 -0.35881546 0.000104704406 -0.1534165 0.18659012 -0.21391898 0.19803125 0.007277852 -0.309342 -0.18554379 -0.370947 -0.24372943 0.19460359 0.12454406 0.07175902 0.08361618 -0.10755481 -0.16301881 0.026539942 0.07656466 0.15771687 0.45906448 0.36976257 -0.24096623 0.30155867 0.2716524 -0.19823895 0.19873759 0.19118878 0.12353686 0.02668126 -0.14189908 -0.27739 0.3398886 0.39431673 0.07061501 0.19685742 0.16765203 -0.0536065 -0.18407746 0.0071072653 0.010522398 0.012314823 0.10313184 0.040172905 0.2237276 -0.6200053 -0.017206617 -0.39390653 -0.14514275 -0.401483 -0.43322155 -0.23552024 -0.10050298 0.22292873 0.09991906 0.32927456 0.22927818 0.059850197 0.04878228 0.1777702 0.29301876 -0.41104552 0.17549315 -0.118113704 -0.2208781 -0.39557254 0.12139771 0.14502446 -0.24628153 -0.048357524 -0.21563686 0.01736923 -0.22700368 -0.015292618 0.4108312 -0.10667577 0.0654019 0.024480289 0.5009003 0.077993095 0.3655744 -0.3207185 0.12596962 0.25724578 0.016594572 -0.18809927 0.51640403 0.09239894 -0.005652607 0.25928432 0.049147982 -0.23085682 -0.13160087 0.27129728 -0.19059011 -0.0714922 0.19202133
413 0.050004423 -0.6674347 -0.23716098 0.24060272 -0.21339023 0.067710936 -0.0045855874 -0.17291714 -0.3180374 -0.6414893 -0.51561135 -0.2667661 0.66650647 -0.56276363 -0.49923804 -0.27566752 0.15946268 0.2633009 0.3520567 0.009572469 -0.22614121 0.5929304 -0.1813349 0.23252706 0.2534674 -0.19113763 0.018623155 0.014759491 -0.06486137 -0.05611156 -0.31567332 0.19057187 0.11525525 -0.03715948 -0.12253735 0.22823097 0.046925686 0.5058983 -0.04592073 0.0910273 -0.29703468 0.11468712 0.13888888 0.2069634 -0.09406696 -0.3392347 -0.21306632 -0.09572276 0.022596821 0.10807018 -0.07845723 0.15986143 0.356918 -0.12608847 0.15632506 -0.22462903 -0.060291026 -0.14975534 -0.47927326 -0.24601243 -0.32958016 0.35914218 -0.29209766 0.13016482 -0.25448537 -0.10534982 -0.05237903 -0.06783386 0.09899206 -0.040587716 -0.44088602 0.2262881 0.79904974 0.22074255 0.08529262 0.35145658 -0.014459345 -0.2119073 0.07312384 -0.28742173 0.14086942 0.06450135 -0.16957371 -0.030700587 -0.24371472 -0.15395336 0.016501611 0.0014362971 0.0629488 -0.6455456 -0.063584134 0.31833255 -0.07170142 -0.26930723 -0.07594167 0.31645986 -0.06258454 0.22556643 -0.2474999 -0.11757575 0.287561 -0.14246108 -0.349196 -0.21590127 0.156389 0.10476851 -0.07254673 -0.27808014 -0.15853266 0.354537 0.114908576 -0.015280517 -0.3316073 0.12622039 -0.032879014 -0.2386634 -0.11410259 0.1983614 0.1298536 0.42966115 -0.19970688 -0.14132805 0.22567485 0.08174659 0.18253472 -0.06351847 0.03621989 -0.09702115
183 0.00039502143 -0.10093031 -0.2926614 0.29222614 -0.14863895 -0.44931468 0.26360995 0.007236245 -0.12675351 0.17589591 0.10763126 -0.0079754945 0.18325028 -0.11009253 -0.27287847 -0.24669738 0.0010709186 -0.09431519 0.32941455 -0.34719384 -0.28595662 0.062894255 0.40077606 0.00029151738 0.44994578 0.05091038 -0.057469133 0.08849083 -0.12878957 -0.06448253 0.014679419 -0.4252024 -0.036964435 -0.050538685 0.114418894 -0.16928722 0.4041368 -0.20310165 -0.31638318 0.069973916 -0.19633326 -0.021879766 0.2610186 0.29380286 0.08128499 0.1446779 -0.16449104 -0.2276767 -0.029499825 0.077473246 -0.04205666 0.47356135 0.11507182 -0.469928 0.12877467 0.10560961 -0.4551589 -0.01871235 0.5627631 0.048987035 -0.15537396 -0.31454858 -0.055997998 0.45207262 0.2737694 -0.05434994 0.21882471 0.27950314 -0.011636018 -0.27112865 0.07950332 -0.34429318 0.22918591 0.35145295 0.07361984 0.119881056 -0.5396816 0.03944954 -0.26734155 -0.34008262 -0.33293328 -0.58776844 -0.040329244 -0.23120683 0.23751797 0.023478044 0.12682368 0.085693255 0.037729222 0.057723515 0.07514801 0.31227085 -0.26284072 0.10208504 -0.18459381 -0.07306889 -0.3450717 0.008796682 -0.0612483 -0.21201128 0.0850803 0.017872784 -0.098879404 -0.26389208 0.15650196 0.17018092 -0.25979063 -0.087247394 0.1947056 0.46369255 -0.15342478 0.29061744 -0.05500223 -0.05929848 0.15661547 -0.061150596 -0.21114303 0.44777387 0.14584103 -0.08156387 0.17574084 -0.03791764 -0.2545075 -0.01237313 0.4420148 0.18362713 0.014804792 0.17575073
351 -0.46926132 -1.0217314 0.32130265 -0.31230497 -0.0863138 -0.22223742 0.019788537 -0.2746039 -0.18958405 -0.3875485 -0.26631692 -0.14235842 -0.043496326 -0.26768142 -0.3441769 0.021693138 0.16892093 0.04769882 0.37259275 -0.13764961 -0.08847367 -0.1277624 0.070878856 -0.18124649 -0.108812526 0.2961835 -0.44852084 -0.3898368 0.01736723 -0.21641228 0.05509916 0.15088119 -0.39884177 0.07763939 0.007535328 0.05779595 0.06911449 -0.12980528 0.26642814 0.28812104 0.2736514 0.21604604 0.29891348 0.05480722 0.30743665 0.48750585 0.3300104 -0.2532703 -0.42188758 -0.021844411 0.24263142 -0.23105773 0.044326156 0.04000708 0.0648687 -0.33552602 0.0780402 -0.43407598 -0.25226137 0.13736841 0.22033568 0.18674324 -0.29566985 0.06956673 -0.10638015 0.03427272 0.4736962 -0.22243091 -0.12031523 0.07297115 -0.52927 0.44148138 -0.05176584 0.17415516 -0.1356171 -0.11379881 -0.25826338 0.054014854 -0.08558698 0.31168997 -0.31312013 -0.074498326 -0.05678538 0.029042812 0.058651496 0.22311346 0.022721078 -0.48358077 0.05676464 -0.13260868 0.45045835 0.13292496 -0.04592113 -0.17558219 -0.059175383 0.08883212 -0.105181456 0.049076192 -0.057519257 -0.028929593 -0.09474759 0.3447402 0.17445132 -0.056909733 0.04506111 0.5198812 -0.33653125 0.22639671 -0.17495726 0.20363027 -0.3682695 -0.106310256 0.22083631 0.40334392 0.29246032 -0.35840294 -0.08467771 0.13887529 0.23753713 0.19299519 0.08600674 -0.2936417 0.17122114 -0.18466924 0.22230549 0.35852474 -0.56421894 -0.047037464
137 0.06428824 -0.3412252 0.3956472 -0.1493679 -0.069709316 -0.015211192 0.21080929 -0.08002173 0.0055925557 0.13811192 0.040004827 -0.44753247 0.45376146 -0.35499653 0.030195266 -0.24415246 -0.12458168 -0.118156835 -0.08246088 -0.026455058 0.016242908 0.23830229 -0.29964358 0.13254455 0.1455883 -0.15022096 -0.008832811 -0.027745888 -0.44064316 0.044489678 -0.005668223 -0.045814738 -0.03263435 0.13148648 -0.27781978 0.11796764 0.14186797 -0.23737743 -0.21764731 0.29697284 -0.6537822 -0.23512575 0.21260953 0.044638146 0.24454457 -0.2107789 0.1859546 0.25242966 0.16651428 0.07879567 0.29493666 -0.21303731 -0.5105935 0.22953922 -0.31795052 0.28022528 0.08514593 -0.13217534 0.028037874 0.12028685 0.3084332 0.0681087 -0.2008246 0.3159193 0.040407453 0.03238262 0.099154405 0.27752092 0.08558377 -0.21204472 -0.6775328 -0.12870285 0.15242279 -0.11954536 -0.46517056 0.4215472 0.18224621 -0.2231536 -0.24231532 0.18670195 0.06332288 -0.24585356 -0.5527925 -0.16187203 -0.115818664 0.50999296 -0.084779344 0.17340128 0.11167925 0.101217076 0.16940698 0.20264038 -0.18997563 -0.028488785 0.007319239 -0.21771975 -0.048365522 0.16974422 -0.016371751 0.0039388686 -0.147235 0.21688169 0.0061895405 0.15934342 -0.0075196754 -0.004909285 0.05263278 -0.003603208 -0.004812322 -0.060598113 0.03538603 0.24459988 0.08675162 0.0034414043 0.38857087 0.2196332 -0.106524065 0.10323574 -0.04998182 -0.2949613 -0.011226443 -0.44775006 -0.2536071 -0.21922076 0.024263518 0.08598401 -0.40192577 0.08601054
71 -0.069796085 -0.13206102 -0.10413033 0.21284007 -0.1373493 -0.014763422 -0.06344515 -0.3884701 -0.341631 -0.0541748 0.23354778 -0.08109986 0.43934545 -0.39916468 -0.14853247 0.29440123 -0.12918636 0.25572893 0.12597117 0.6437722 0.025569113 -0.25078762 -0.32341322 0.033978865 0.3770253 -0.26598188 0.116592534 -0.06710307 -0.39905602 0.051484708 -0.20905837 0.24267665 -0.13777773 -0.22365588 0.013053771 0.5683955 0.05245849 -0.14127399 -0.029444618 0.087267034 -0.035765678 0.20113526 0.3693948 -0.018389365 -0.32715815 0.13546237 -0.04817069 -0.44668308 0.09192201 0.28935575 0.34725937 0.24998707 -0.16139993 -0.07961603 0.027065199 0.2647002 -0.1757727 -0.12215998 0.39211455 0.009168889 0.30140728 -0.020813333 -0.15084334 0.10326989 0.054639723 -0.045306455 0.3030974 0.20283462 -0.118474215 -0.19997887 0.3466936 0.11931934 -0.07166773 0.22193639 -0.12687448 0.1557578 -0.29934144 0.2777862 -0.38821787 0.09004249 -0.3135602 -0.4225122 -0.24937417 0.001327886 0.017818717 -0.2025959 -0.17177413 -0.053702526 0.20367816 -0.023320032 -0.05096903 -0.0035331089 0.015457727 -0.023690408 -0.052289817 -0.14431256 0.22606772 0.15639791 0.25256246 -0.14703019 -0.17122614 -0.33113486 0.2243441 -0.033058446 0.30830985 0.2111898 0.13529976 0.074999124 0.09510191 0.14493713 -0.14839473 -0.038491488 -0.23801364 -0.10336097 -0.12935527 -0.19139479 -0.22698423 0.14415075 -0.018006984 -0.1728255 0.10170993 0.067461304 -0.21687038 -0.03284025 0.18496968 -0.15987727 0.055351246 0.124763854
90 0.19655555 -0.18695973 0.21578218 -0.3589972 0.07174369 0.08929534 -0.0013456465 0.19118986 -0.0027747038 0.1818624 -0.020595903 -0.40532848 0.15690042 -0.21277085 -0.17696397 -0.24065329 0.23110622 0.10283785 0.25869095 -0.3647266 -0.033152707 0.18459855 -0.25519827 0.19086143 0.60666364 -0.31211564 -0.048722383 0.20910259 -0.14816682 0.21908456 -0.31037408 0.068294555 0.028529087 -0.3119106 -0.16064228 -0.098511375 0.2683008 0.10330142 -0.48050916 0.14117306 -0.016230067 -0.029744325 0.23469447 -0.1699076 -0.05148793 0.23979427 -0.04016916 -0.02685108 0.12579723 0.10096416 0.1604281 0.18759279 -0.12968194 0.2232144 0.12642276 -0.17988203 -0.31002522 -0.013786523 -0.089031145 0.019587938 -0.385629 -0.02690803 -0.24216494 0.10084862 0.24510084 -0.35021156 0.105287425 -0.0062157847 -0.1115335 0.21708335 0.024173515 0.5513499 -0.35148963 0.12181567 0.023513338 0.18090288 -0.15633306 0.0998467 -0.17777821 0.028247373 -0.21176122 -0.14489466 -0.19442697 -0.22715981 0.0867687 0.0219407 -0.104443945 -0.10998056 0.15421018 -0.15439951 0.17305805 0.22767566 0.015152379 -0.18002106 -0.2387693 0.2539451 -0.118066564 0.15901649 -0.0411757 -0.13912931 0.28685483 -0.17088379 -0.1950587 -0.0016668283 0.07445154 -0.12717381 0.19563979 -0.008073032 0.2825456 0.21041167 -0.30436385 0.15809992 0.29557806 -0.15260173 0.029146392 0.06800853 -0.35730803 0.037764993 -0.15951952 -0.3087643 0.015494839 0.07452725 0.016022576 -0.010062752 -0.33534178 -0.10151474 0.014457197 0.0033750136
439 0.12937245 -0.20007013 -0.047461644 -0.10058069 0.057783723 0.014174847 -0.039751794 -0.037278105 -0.20932291 0.3714266 0.09930741 -0.8539535 0.40624297 -0.51543045 0.009108181 -0.63253057 -0.10243362 0.12801498 0.29384974 -0.4419948 -0.20166548 -0.059395313 -0.63937044 0.36593473 0.58623195 -0.58605975 -0.23355715 -0.15403068 -0.14619768 0.14652888 -0.43405434 -0.17976248 0.050639562 -0.07805734 -0.15507233 0.019835602 -0.12162829 -0.109947205 -0.15089619 -0.00073365704 -0.21717651 0.09470832 0.5163204 -0.1139373 0.05263269 -0.3158571 0.23764546 -0.08706692 -0.18958777 -0.18373835 0.3763082 -0.058997154 -0.6106244 0.50287586 -0.17685612 0.01353373 -0.08685372 0.07358533 -0.21174848 0.36814263 -0.2895354 0.07860707 0.28400847 0.35145304 0.3086623 -0.09711545 0.2659089 0.1756878 -0.35694924 0.21364562 -0.20879148 0.34180248 -0.0008900579 -0.14566274 -0.48538628 -0.085805446 0.07215378 0.024093086 -0.0831246 -0.14399856 0.03883518 0.112937264 -0.3263638 -0.348535 -0.030031295 0.08759448 -0.25476927 -0.030374803 0.012617015 0.32146987 -0.16793934 0.41335386 -0.0933692 0.07612696 -0.03397819 0.021133408 -0.43177277 -0.0454855 -0.3926296 -0.36873823 -0.15909316 0.2127739 0.15570447 0.124837 0.34277955 -0.24390787 0.03190676 0.23309858 0.4695988 0.24717374 -0.24862215 0.14810537 -0.07137046 -0.34673363 -0.0023970038 0.13726977 -0.021171995 0.3920313 0.3114827 0.07523214 0.005150343 -0.040331922 0.24148215 -0.22215976 -0.16733457 0.2001389 0.122176915 0.15984003
368 0.07653988 -0.04568733 -0.10661604 0.30427837 -0.32675362 0.051007666 0.1573013 -0.42836374 -0.28984636 -0.10423794 0.38529056 -0.17577416 0.47940272 -0.3724212 -0.0014010153 0.026094746 -0.065719634 0.30113274 0.20536096 0.5178912 0.08367302 -0.13729653 -0.41747427 0.03739754 0.31668147 -0.10071719 0.0070077917 0.30197614 -0.5195082 0.035880342 -0.11872406 0.22272559 -0.016839711 -0.05614662 -0.15483618 0.31660432 0.280368 -0.091963395 -0.20233424 0.13764821 0.17710721 0.20850499 0.031708818 0.0043190373 -0.19746292 0.18292806 -0.17074001 -0.24602765 0.04050807 0.17183454 0.06611395 0.08893599 -0.07800494 -0.062119223 -0.12653187 0.13344617 -0.19605519 -0.14674976 0.39330563 0.0903619 0.1399306 0.03410668 -0.17205065 0.20419966 -0.004532279 -0.035767976 0.16563125 -0.025454795 -0.23966327 -0.0024535279 0.30798656 0.09486682 -0.055297766 0.011390751 -0.28113297 0.044986174 -0.1883499 0.12053977 -0.12979354 -0.07897851 -0.35944447 -0.47152907 0.013796758 -0.0483295 0.14035432 -0.1475855 -0.06175511 -0.0713624 0.08559818 0.035872594 -0.15008886 0.069435455 -0.03873226 0.035271678 -0.030130647 -0.13054724 0.25525072 0.16511896 0.025992448 -0.42616588 -0.23166737 -0.32038862 0.1565047 0.043618556 0.16582729 0.2148325 0.091847286 0.24083485 -0.05787831 0.22676972 -0.025157876 0.07428856 0.013653648 -0.026155552 -0.14614706 -0.07387826 -0.058131177 -0.016771225 -0.105669916 -0.14967063 0.30523294 0.22632128 -0.15302224 -0.01598681 0.15408133 -0.16754408 -0.11064037 0.26954994
