36 128
33 -0.026617682 -0.082690075 0.10789107 -0.08635959 -0.023455288 0.042514544 -0.09641671 0.0990222 -0.048405875 -0.057404112 0.053729236 0.12996909 0.03349962 0.114227206 -0.04165569 -0.03493394 -0.15011427 -0.054378033 0.12152018 -0.027089773 -0.14132056 0.16283272 0.03451263 0.10451552 -0.018613264 -0.014559114 -0.06842793 -0.1595241 -0.07591581 -0.113861755 0.2097486 0.03280673 -0.0056268857 -0.08402746 -0.063598275 -0.08089653 0.04361947 0.13729681 0.108036704 -0.013554302 0.06261249 -0.07681937 0.0045299158 -0.027206628 -0.032089215 -0.07656231 -0.02073145 0.02804013 -0.054296546 0.062104426 -0.1072346 -0.06819016 -0.10036602 -0.01729559 0.0006478427 0.13965687 0.09546242 0.0045413026 -0.018076917 0.16329664 -0.056610104 0.05546277 0.03273515 -0.031170687 -0.025713902 -0.041747168 -0.047550477 -7.668215e-05 -0.041669514 0.17788684 -0.08035695 0.07117556 -0.1383405 0.20231816 0.031120121 -0.033403467 -0.029215114 -0.019216752 0.019959707 0.1103382 0.067475386 -0.07365226 -0.058450777 -0.032307353 -6.9875045e-05 0.09390595 -0.010007143 0.15220596 0.09799956 -0.016281359 -0.053192753 -0.035421778 -0.06846703 0.056950934 -0.0479702 -0.06406275 -0.028826747 0.0089708455 -0.06640752 0.02425287 -0.05186514 -0.022469325 0.04409598 -0.008953196 0.03458619 0.060539704 0.06395278 0.016846804 -0.037763484 0.058362655 0.002596491 -0.04577341 -0.043271318 0.08210544 -0.09393794 -0.03536102 -0.14197952 -0.059919972 -0.03813831 -0.07526482 0.008244291 -0.028148282 -0.03209096 0.01900424 0.13340215 -0.024085565 0.011022234 -0.007995384
19 -0.040771652 -0.057741314 0.11211662 -0.063812286 -0.007414565 0.022360014 -0.093350284 0.074903995 -0.06045996 -0.07435713 0.041898336 0.11923786 0.043621004 0.1069857 -0.027209144 -0.06352793 -0.13042943 -0.02323867 0.104307204 -0.042063653 -0.11570352 0.14137706 0.041723266 0.0750034 0.010648764 -0.021060776 -0.06525697 -0.14405559 -0.09317137 -0.110667296 0.18053116 0.018193586 -0.026393069 -0.11375245 -0.11379162 -0.117223695 0.085969575 0.1772164 0.14621739 -0.027077891 0.103340864 -0.09138488 0.0033978245 -0.05794002 -0.048283912 -0.107495345 -0.04903497 0.053758003 -0.029175814 0.063249715 -0.09951524 -0.053339373 -0.106423154 -0.011157489 -0.0042875363 0.12898737 0.10231663 -0.010150014 -0.029188955 0.16931061 -0.09455194 0.09663451 0.019751044 -0.01750497 -0.012605217 -0.0059639 -0.02036309 0.00058515 -0.025725521 0.1381053 -0.04841955 0.042115245 -0.118789755 0.15907386 0.0023268245 -0.032605898 -0.027962923 -0.019547142 -0.018041382 0.117505826 0.05472504 -0.05738703 -0.06689571 -0.039487522 0.0026016769 0.10558899 0.010898588 0.16333787 0.07577812 -0.00542549 -0.037054744 -0.043201786 -0.041194562 0.058115847 -0.06665379 -0.07706071 -0.050321598 0.0071966643 -0.07224315 0.017519936 -0.07294227 -0.018651875 0.033668652 -0.02023434 0.014832849 0.09043755 0.075778104 0.0067971596 -0.022549113 0.08901683 -0.028389951 -0.028476175 -0.04291173 0.08643637 -0.116349705 -0.04797429 -0.136469 -0.045227464 -0.049002618 -0.0883099 0.032566257 -0.015821384 -0.05981797 0.02397352 0.13367006 -0.0035897007 0.012675123 -0.019432884
12 -0.00885514 -0.056418788 0.04825977 -0.03363359 -0.01893568 0.031293504 -0.06054066 0.038805798 -0.024805885 -0.051217623 0.014520702 0.04705699 0.027363539 0.047961656 -0.015691701 -0.035021327 -0.10511961 -0.0019325136 0.07368991 -0.04140457 -0.10397164 0.10006187 0.020586321 0.052444145 -0.009805913 -0.018789023 -0.04929137 -0.10924169 -0.060539708 -0.08919222 0.17684205 0.034107085 -0.01680938 -0.12282388 -0.07598899 -0.1361697 0.10249354 0.15266593 0.15685241 -0.034196615 0.06226356 -0.068739705 0.003222139 -0.04936403 -0.04114338 -0.09189746 -0.03486891 0.047590446 -0.040411398 0.08254163 -0.1093624 -0.09147224 -0.14612442 -0.045687903 -0.01802143 0.1671099 0.13525587 -0.006713482 -0.039585833 0.20556574 -0.07815705 0.04986377 0.057876315 -0.042624496 -0.01085489 -0.029968364 -0.051710468 0.0072811353 -0.03297299 0.25390542 -0.08740491 0.08588383 -0.098774776 0.1935683 0.0073272246 -0.037462723 -0.027161473 -0.03529248 0.017361864 0.117129244 0.06722674 -0.062615775 -0.07183346 -0.020973086 0.018937796 0.115746506 0.022123616 0.16618651 0.11959141 -0.009862191 -0.037959356 -0.013140331 -0.046591923 0.072272226 -0.060100332 -0.08089116 -0.018744636 -0.0008414768 -0.076126456 0.0051155374 -0.04420744 -0.023377966 0.029263875 -0.0012432609 0.012195475 0.06323851 0.07828073 0.045327947 -0.04683601 0.07235508 -0.011850711 -0.049201716 -0.043927997 0.07680199 -0.098103605 -0.032770228 -0.118294746 -0.05283489 -0.04350682 -0.09830226 0.011502826 -0.0030838242 -0.036435973 0.005295333 0.12526177 -0.013281778 0.023718296 0.0041373842
23 -0.015553018 -0.08974414 0.10894205 -0.078158475 -0.0053274194 0.024008038 -0.1192863 0.08656223 -0.04889416 -0.08813336 0.043475892 0.12121804 0.03730848 0.09343066 -0.020792425 -0.06527259 -0.12630725 0.002660173 0.110559754 -0.040416647 -0.11755186 0.1325961 0.02311774 0.058613848 -0.010911837 -0.020770283 -0.045185056 -0.13015355 -0.06283967 -0.09846059 0.2001127 0.01966568 -0.014009404 -0.07724328 -0.09992203 -0.0900459 0.05238874 0.15665781 0.11258851 -0.023635339 0.09045815 -0.07475116 0.0011422323 -0.04191004 -0.033009645 -0.09989804 -0.04221051 0.030337887 -0.058738224 0.06788166 -0.104931764 -0.07522429 -0.12954397 -0.013639222 0.0015351508 0.14517389 0.1257671 0.0026311602 -0.036068927 0.18772371 -0.09608278 0.0844555 0.042484086 -0.03309851 -0.0072430223 -0.005960018 -0.024496784 0.009887468 -0.033051763 0.15921381 -0.06321764 0.047252983 -0.09770286 0.17851529 -0.012185681 -0.03459759 -0.035015576 -0.02740988 -0.007801844 0.12709305 0.06316621 -0.065199524 -0.06295837 -0.040321205 0.0072769276 0.11722675 0.036751017 0.15563601 0.09965068 0.009892409 -0.056263827 -0.022208579 -0.048311852 0.08093518 -0.05689345 -0.07749009 -0.025735525 0.0056663384 -0.075238846 0.005700626 -0.04398889 -0.023059161 0.020618865 0.0020068982 -0.014011377 0.052132756 0.028760716 0.06118434 -0.025783846 0.032295477 -0.019510673 -0.017649436 -0.05142948 0.08066314 -0.11785738 -0.05888808 -0.14245985 -0.052853342 -0.048006237 -0.10134624 0.013488156 -0.009943879 -0.059628803 -0.000115785646 0.13216715 -0.009007094 0.053652167 0.025203034
26 -0.0572841 -0.027315525 0.092036836 -0.050965227 -0.0011730324 0.01886729 -0.06998503 0.032589298 -0.068807356 -0.061082046 0.013214498 0.110689685 0.031703904 0.10535704 -0.04806908 -0.05266014 -0.14390707 -0.07335972 0.08837274 -0.04106656 -0.12201599 0.1420197 0.040190317 0.08300931 -0.014366801 -0.024603559 -0.07382804 -0.14560495 -0.113840505 -0.1012239 0.20282385 0.061055254 -0.015042402 -0.13833229 -0.046095893 -0.119561404 0.114681624 0.10123723 0.1601102 -0.040856894 0.07379279 -0.08067473 -0.018103998 -0.09413058 -0.03205053 -0.078447655 -0.016104195 0.06968978 0.016980764 0.05618814 -0.07489451 -0.06907025 -0.08975553 -0.06601985 -0.03460599 0.095689334 0.057356678 -0.00828661 -0.019479347 0.059972934 -0.027417455 0.015551196 0.029370924 -0.01386286 0.0029081844 -0.02198524 -0.034872025 0.0022782243 -0.009879342 0.17382114 -0.045374367 0.06426111 -0.08693609 0.080165416 0.0056043025 -0.004792203 -0.0162258 -0.014572632 -0.0056750057 0.05366133 0.058997773 -0.035653505 -0.06323504 -0.01641775 0.0057876096 0.10206176 0.015354266 0.14049017 0.06919616 -0.029792609 -0.01675421 -0.040530216 -0.020920863 0.031166822 -0.037595727 -0.039009623 -0.045267213 -0.005695137 -0.09793807 -0.03634771 -0.06328824 -0.054348458 0.018460322 -0.021615544 0.05655465 0.10725509 0.12716499 0.015622712 -0.07448861 0.11568171 -0.023684869 -0.06719034 -0.036468588 0.12950274 -0.1302982 -0.035778027 -0.17768103 -0.06130089 -0.07576125 -0.13943985 0.04936907 -0.031092677 -0.07401582 0.03478726 0.17706588 -0.0017251204 0.013382125 0.002114817
15 -0.043156754 -0.05571517 0.11706377 -0.075974636 -0.0074251066 0.022202404 -0.09852389 0.07460841 -0.06695939 -0.08198306 0.040930312 0.14026657 0.048080508 0.12058888 -0.028636325 -0.066168696 -0.12766154 -0.022765068 0.10419576 -0.03972666 -0.10990128 0.14433473 0.04144175 0.077091396 0.012146981 -0.023189992 -0.056556515 -0.14534482 -0.094417416 -0.10489681 0.17968437 0.021690957 -0.026004136 -0.10748137 -0.10531445 -0.103108235 0.08068591 0.15780951 0.1342959 -0.030073287 0.106244326 -0.092646085 -0.0067634503 -0.06288241 -0.045173835 -0.09928845 -0.04737737 0.05672762 -0.017353725 0.065137215 -0.1009171 -0.05183707 -0.09984154 -0.014113458 -0.018343935 0.120520614 0.10242044 -0.007212724 -0.036245905 0.15481246 -0.09052534 0.097080156 0.027701167 -0.014583587 -0.009290177 9.205636e-05 -0.030816779 0.0055408357 -0.024190765 0.15248959 -0.04752304 0.050700117 -0.12975812 0.15616845 0.00024773384 -0.03080055 -0.029817605 -0.01891015 -0.026153954 0.11650898 0.058814716 -0.05122317 -0.07897836 -0.05004678 -0.007639715 0.12153198 0.015683502 0.17755175 0.07094629 -0.002573055 -0.026935995 -0.050111223 -0.041623242 0.059094515 -0.068586215 -0.07353595 -0.060726322 0.0026715721 -0.05992664 0.0067178076 -0.0715806 -0.008292266 0.03609876 -0.022186324 0.010781011 0.095358044 0.08016796 -0.0039162687 -0.020039449 0.09161254 -0.034433298 -0.02502146 -0.042893074 0.08174121 -0.1085853 -0.0496083 -0.12826993 -0.039470818 -0.04443361 -0.09027729 0.04900529 -0.018330805 -0.066174604 0.033282716 0.123608924 0.0053250897 0.012759176 -0.027691405
28 -0.015844207 -0.10202045 0.11945133 -0.095584564 -0.021994159 0.042506255 -0.15182352 0.13695031 -0.06180094 -0.10552387 0.055389624 0.13037892 0.06487265 0.13595533 -0.0045850086 -0.06906669 -0.13435726 0.0056736455 0.11958989 -0.04999212 -0.13456333 0.15117568 0.028842783 0.09622479 0.024166867 -0.014265383 -0.028075432 -0.14886978 -0.07476501 -0.13809443 0.22495425 0.03829754 -0.031573784 -0.060794566 -0.11351038 -0.050357338 0.043758135 0.13465503 0.08869149 -0.0001786264 0.07159929 -0.06241476 0.010181223 -0.018312939 -0.04859352 -0.09185159 -0.05436201 0.026379075 -0.03963311 0.06740359 -0.0921603 -0.037225176 -0.06996644 -0.010112779 -0.00838539 0.11597069 0.031070288 -0.006296328 -0.029367613 0.10741696 -0.07704317 0.089937516 0.015657833 0.008048324 -0.013363897 -0.010973971 -0.059595976 -0.0048155943 -0.027709054 0.18746726 -0.0613687 0.06640844 -0.12843367 0.20364371 -0.005362051 -0.04294988 -0.015255444 -0.0044827317 0.0028434903 0.12342311 0.04715843 -0.057759173 -0.081512555 -0.039675534 -0.0005531467 0.10277666 0.001345508 0.17717789 0.0988537 0.022218084 -0.049543414 -0.014630097 -0.03710423 0.077094756 -0.03577398 -0.06772193 -0.027448257 -0.020990547 -0.07107695 0.010555707 -0.083074294 -0.030697254 0.037625447 -0.029099679 -0.015879828 0.08081867 0.08838242 0.042919863 -0.017628776 0.08908989 -0.0014934513 -0.052829772 -0.03281879 0.041224774 -0.074852526 -0.02956022 -0.098511316 -0.016781494 -0.053208593 -0.080330946 0.0373112 0.00513062 -0.02826674 0.01817843 0.11010186 -0.0039435024 0.019895444 0.0115499655
22 -0.023465434 -0.03992752 0.06491263 -0.07712872 -0.01988255 0.03505092 -0.06898607 0.08895828 -0.034507263 -0.039927974 0.038978755 0.10133282 0.02605518 0.100052066 -0.034339197 -0.015214045 -0.110580154 -0.028654676 0.08210033 -0.012312413 -0.09765914 0.1135197 0.021885376 0.080000885 0.01209425 -0.019306082 -0.046355188 -0.122996 -0.05217738 -0.10193941 0.14549594 0.033262204 -0.013744213 -0.078945875 -0.058755472 -0.07161126 0.056373272 0.11952228 0.11244336 -0.004074165 0.0683008 -0.0741641 -0.005287768 -0.031791262 -0.05365187 -0.07834258 -0.022467291 0.03788811 -0.028433792 0.0769056 -0.12450706 -0.06385597 -0.09474375 -0.04105493 -0.014326497 0.14661248 0.12370777 0.004302488 -0.025050176 0.16591567 -0.0650608 0.06311766 0.053092647 -0.037335224 -0.009269255 -0.03871267 -0.06816354 -0.003071209 -0.046566445 0.20655335 -0.09508794 0.09333961 -0.1800269 0.25758946 0.036662307 -0.05439264 -0.027266197 -0.0062454967 0.019574367 0.13100375 0.090362564 -0.08094758 -0.09334411 -0.050516926 0.005907074 0.12714535 -0.012523085 0.22289355 0.11515643 -0.017020028 -0.052593477 -0.03732024 -0.07154159 0.07911313 -0.058520034 -0.07970343 -0.046775315 0.0008282955 -0.095658846 0.0009544934 -0.1050077 -0.040101778 0.06832327 -0.035463262 0.048898928 0.1094588 0.14312866 -0.0016640042 -0.05362373 0.109801635 -0.010383228 -0.07009273 -0.042548466 0.08083988 -0.084145196 -0.0316405 -0.1382378 -0.038840238 -0.053122364 -0.08073079 0.041144717 -0.04212648 -0.059639636 0.054061666 0.16386059 -0.019068383 -0.010033748 -0.0355997
21 -0.03904138 -0.08159471 0.14194696 -0.09676965 -0.017737914 0.03721894 -0.13110842 0.122270264 -0.061504956 -0.100424655 0.06451401 0.14635661 0.042017158 0.13177447 -0.024555653 -0.07981149 -0.1307498 -0.023057686 0.1257077 -0.031856027 -0.13246156 0.15425734 0.05126577 0.08478255 0.028079657 -0.003403164 -0.063311666 -0.15094528 -0.076333106 -0.12992628 0.1950071 0.023653295 -0.01572718 -0.07745327 -0.13552748 -0.07305676 0.031212388 0.18375534 0.09519115 0.0033045216 0.08569018 -0.089551345 0.035506107 -0.009728873 -0.054495953 -0.12407878 -0.05178703 0.019088782 -0.049851377 0.047416218 -0.09550809 -0.020636963 -0.06836958 0.015824815 0.010722502 0.10963906 0.048796017 -0.008728653 -0.044458337 0.15560688 -0.10446728 0.1260036 0.009046901 0.006472809 -0.020234985 0.00142684 -0.041041926 -0.021988794 -0.045456633 0.16383448 -0.04414669 0.0564359 -0.14476867 0.21516758 0.0043538054 -0.04828056 -0.02443649 -0.024875881 0.005306328 0.14007851 0.06418441 -0.08121654 -0.07164418 -0.040730055 -0.0067262156 0.11463345 -0.0019868433 0.18532969 0.08923011 0.017142797 -0.037257936 -0.030989602 -0.047782388 0.087276205 -0.06406433 -0.07277962 -0.03712744 -0.0070676296 -0.08961416 0.02183559 -0.089276046 -0.029314192 0.044168197 -0.020706559 0.0061577503 0.09052293 0.10555613 0.027058756 -0.015230804 0.10330178 -0.003908676 -0.035326783 -0.053122997 0.065438166 -0.10515642 -0.047702774 -0.13282558 -0.04701464 -0.05657449 -0.08877938 0.028006986 -0.013955928 -0.038878217 0.032170556 0.12487786 -0.01094106 0.007982961 -0.0100802155
34 -0.035904605 -0.08246334 0.10391313 -0.06642257 -0.015328654 0.020945337 -0.10964073 0.07439411 -0.061285935 -0.08242202 0.039057493 0.109533474 0.05345018 0.10284199 -0.016422609 -0.06321383 -0.11638631 -0.011705149 0.0981928 -0.05638305 -0.11406553 0.1434761 0.0429179 0.08752521 0.0198111 -0.006104849 -0.03563589 -0.14453894 -0.09679876 -0.11800934 0.20174387 0.033498082 -0.034482148 -0.11159915 -0.114871085 -0.09758191 0.079306476 0.17160283 0.1438591 -0.031116426 0.083898224 -0.0773943 0.0059013898 -0.043605804 -0.050546445 -0.09997293 -0.07227059 0.063858345 -0.04477549 0.08846613 -0.08996323 -0.067112446 -0.10953894 -0.009468499 -0.004519187 0.14296119 0.06654163 -0.012133215 -0.032825533 0.15312426 -0.093862265 0.09137887 0.029571429 -0.009334719 -0.009204067 -0.010488546 -0.046842206 0.01650436 -0.018687747 0.17818834 -0.0479703 0.059933938 -0.099290915 0.16220228 -0.00037727362 -0.030587856 -0.016676538 -0.008180663 0.0061937487 0.10502723 0.029042898 -0.050690345 -0.06984129 -0.035608705 0.0021827072 0.09250576 0.010012295 0.15248254 0.08907119 0.010857833 -0.047378324 -0.028187443 -0.03194769 0.063602164 -0.043344583 -0.065398276 -0.035048924 -0.01185141 -0.07105584 0.0051844674 -0.06817958 -0.023798341 0.026643336 -0.025321513 -0.018653838 0.07509721 0.07154948 0.040802088 -0.024154074 0.079479 -0.01773612 -0.053123366 -0.038793743 0.0657264 -0.11090441 -0.032958664 -0.12134091 -0.043727994 -0.060096435 -0.09684574 0.03892131 0.012144616 -0.045107566 0.013282423 0.1385758 -0.009106473 0.036546748 0.019482842
9 -0.039598532 -0.09463272 0.14199282 -0.09407487 -0.011999636 0.034163658 -0.12604466 0.09994269 -0.0842177 -0.10680586 0.05575649 0.14643534 0.04798161 0.14407277 -0.031142343 -0.08998539 -0.13785285 -0.024943661 0.13246112 -0.04254691 -0.14329976 0.17944546 0.050441142 0.09337618 0.016461004 -0.021570515 -0.0672702 -0.17455587 -0.09069768 -0.13473892 0.21742153 0.02151006 -0.01975443 -0.07586245 -0.12748787 -0.079330996 0.049165145 0.16227578 0.103875294 -0.0057308367 0.07678347 -0.06254721 0.013092584 -0.02583797 -0.04438555 -0.09563151 -0.051135775 0.024098776 -0.048990984 0.070422575 -0.08131689 -0.04030857 -0.08399943 -0.008793227 0.004380348 0.11356912 0.036489025 -0.001610093 -0.03997993 0.13098158 -0.09051738 0.10062328 0.014262682 0.0057126093 -0.027530022 0.00255414 -0.028586848 -0.006825828 -0.04135291 0.15793099 -0.04568259 0.0544269 -0.1185101 0.17751536 -0.0018474263 -0.03236516 -0.04090993 -0.023082767 -0.026496494 0.1246364 0.057471626 -0.06369846 -0.07820191 -0.046039674 -0.012534257 0.11053956 0.008901923 0.1558088 0.07664256 0.019131584 -0.026512127 -0.033991687 -0.028854422 0.06631118 -0.07652267 -0.06175295 -0.039105665 -0.005240359 -0.068830505 0.028662939 -0.05739683 -0.0050988896 0.04320653 -0.010716685 -0.007337099 0.08262165 0.07560007 0.025712071 -0.0202614 0.08415871 -0.019862736 -0.028469633 -0.04912329 0.074120134 -0.11434705 -0.0609292 -0.14438559 -0.053601675 -0.042893536 -0.095063925 0.033695597 -0.0052374313 -0.04035591 0.0165664 0.12650713 -0.009892298 0.014352073 -0.0144654345
8 -0.030076072 -0.09142456 0.14289322 -0.09821652 0.006462042 0.030592592 -0.13578716 0.09917568 -0.077938326 -0.11148676 0.06282006 0.15727015 0.037154064 0.1144547 -0.047748215 -0.08733868 -0.14761877 -0.023814432 0.13478704 -0.051373553 -0.13591354 0.17557402 0.046751317 0.08192997 0.0053845043 -0.008615502 -0.06963535 -0.17422879 -0.10302649 -0.13146353 0.21842419 0.029037109 -0.02218048 -0.08733066 -0.14196214 -0.09930986 0.05129538 0.19519484 0.12701961 -0.024270404 0.09686279 -0.07938805 0.017752996 -0.031862997 -0.057373576 -0.12681049 -0.057550084 0.025101943 -0.07837331 0.07221247 -0.111354 -0.07643357 -0.13210423 0.0059355935 0.01646337 0.16067214 0.09018316 0.010544438 -0.04163667 0.1989828 -0.13013828 0.12217595 0.015582168 -0.007349087 -0.038287524 0.009785874 -0.020305268 0.007732924 -0.03905442 0.13339137 -0.04304405 0.057224873 -0.113794014 0.17833835 -0.015576223 -0.0070448797 -0.06538423 -0.037467033 -0.050088555 0.13034472 0.056265112 -0.07668135 -0.07038704 -0.040792 -0.022109486 0.11178654 0.02408898 0.116693065 0.044531114 0.0052448423 -0.026935091 -0.046329778 -0.035033323 0.054063518 -0.090276875 -0.077347405 -0.05699993 0.026805077 -0.030031133 0.046658445 -0.01612422 0.027900985 0.03635296 0.01135403 -0.0003799944 0.06780564 0.03494252 0.01936975 -0.018287096 0.04245656 -0.03239159 0.0008419321 -0.035803866 0.08460807 -0.13028966 -0.0846126 -0.14883699 -0.07839311 -0.018108444 -0.08326801 0.024838079 0.006613181 -0.046523612 -0.005315276 0.09247435 -0.008244537 0.03179943 -0.026962772
29 -0.009018216 -0.0878715 0.08329219 -0.0877609 -0.022331674 0.03192938 -0.08655926 0.09427968 -0.038232647 -0.058250632 0.04931703 0.12356897 0.03413586 0.09635638 -0.029340198 -0.030011175 -0.11978275 -0.007294324 0.098608814 -0.024660893 -0.100623176 0.13104746 0.020714851 0.08441886 -0.010247266 -0.026526053 -0.054240495 -0.14442255 -0.056958698 -0.10261302 0.18838061 0.013633058 -0.011830439 -0.08552626 -0.07313758 -0.09447508 0.05800602 0.14526214 0.111678846 -0.024798518 0.08886676 -0.0819158 -0.0128487665 -0.044755585 -0.047982123 -0.08120124 -0.037851445 0.040673126 -0.054647297 0.08295337 -0.1222864 -0.08118346 -0.12827913 -0.01862978 -0.008899165 0.15738085 0.16348149 0.014651062 -0.02491805 0.21414717 -0.079103306 0.0694428 0.06277843 -0.052234825 -0.009426587 -0.034156404 -0.0505363 0.009973525 -0.03678283 0.17533739 -0.09256803 0.06368106 -0.12539345 0.21968207 0.027352082 -0.0479076 -0.028669512 -0.018774647 0.018888649 0.12767678 0.071071774 -0.06229245 -0.07143558 -0.04669071 0.0054429946 0.110308364 0.012884163 0.18599586 0.11214227 -0.0013744109 -0.06795921 -0.034085363 -0.075396344 0.07630419 -0.06053328 -0.07975781 -0.03011654 0.0055215308 -0.08040078 0.00023356282 -0.06575226 -0.016931064 0.041617706 -0.011608273 0.0019001106 0.06191595 0.046294004 0.021925023 -0.030378394 0.043279532 -0.009940675 -0.03323721 -0.053396884 0.061076567 -0.0778322 -0.03721351 -0.11207535 -0.035463054 -0.032019295 -0.07857943 0.01653818 -0.025053928 -0.05192076 0.02173386 0.13531041 -0.014541979 0.029342625 -0.002581869
3 -0.0039332057 -0.10283137 0.115801044 -0.08351528 -0.0018151962 0.026983665 -0.12860198 0.099332534 -0.064876296 -0.116323136 0.056191567 0.12463545 0.046129216 0.09288149 -0.023062734 -0.08694012 -0.115047894 0.01720891 0.11835971 -0.05425393 -0.11764285 0.1487107 0.037841085 0.07126192 0.018456813 -0.008351677 -0.049034584 -0.15745966 -0.07869626 -0.12670012 0.2096269 0.01583 -0.026939154 -0.07749838 -0.15825944 -0.09199142 0.046707176 0.19357121 0.11297889 -0.022138815 0.08787488 -0.06882261 0.024070531 -0.020562105 -0.060012043 -0.12325544 -0.07048222 0.025316568 -0.07827257 0.07820894 -0.09900731 -0.061246645 -0.12742223 0.009694375 0.009034315 0.15715843 0.0798356 0.0044949558 -0.051035218 0.20891203 -0.13556322 0.12711084 0.022418182 -0.0039796596 -0.04412598 0.014823857 -0.031893328 0.009597607 -0.04050481 0.17606132 -0.046396736 0.0668603 -0.111945815 0.19180804 -0.018792149 -0.018151324 -0.06283664 -0.047980092 -0.054915108 0.14595288 0.056884788 -0.07298972 -0.08366946 -0.0415014 -0.021659963 0.12685813 0.030116726 0.14411058 0.0640687 0.019229801 -0.022931717 -0.037051633 -0.029944083 0.06496307 -0.09937122 -0.08583088 -0.05027997 0.009099845 -0.045438055 0.037265573 -0.025427626 0.01529865 0.03260516 0.0072796424 -0.023417478 0.06878656 0.039233662 0.03660943 -0.011864526 0.057661045 -0.035332806 -0.0074822195 -0.045348257 0.07171789 -0.12791544 -0.08017757 -0.13848479 -0.0688949 -0.026310533 -0.094258524 0.029347502 0.02761481 -0.037198596 -0.0042177443 0.08969898 -0.00046458718 0.03819392 -0.025059449
2 -0.039609805 -0.07891962 0.11724561 -0.06735408 -0.024571322 0.033867307 -0.115054846 0.08276328 -0.061162017 -0.07908645 0.03375891 0.09891564 0.04679209 0.11059689 -0.019854104 -0.0646638 -0.12740591 -0.02886229 0.10225026 -0.04670108 -0.13761505 0.13768195 0.031820755 0.08055573 -0.00027133527 -0.0060458714 -0.038276985 -0.12838018 -0.08378619 -0.103653856 0.20546304 0.042853784 -0.026535409 -0.11872613 -0.072560236 -0.09651869 0.084288195 0.12471525 0.14534877 -0.025542576 0.057667162 -0.0767344 -0.0048373356 -0.064984374 -0.035139047 -0.06723423 -0.028133836 0.055520136 -0.0032653143 0.07420166 -0.064683564 -0.057371866 -0.09142242 -0.05469481 -0.021037603 0.10031928 0.05979969 -0.01563021 -0.018166626 0.08269454 -0.037506554 0.025828632 0.03722457 -0.02155946 0.0042412863 -0.025411215 -0.04348061 -0.0017741421 -0.019318154 0.21305406 -0.051179305 0.060786266 -0.09651302 0.14312921 -0.0003467005 -0.0361579 -0.01079093 -0.015487295 0.01745028 0.09411339 0.055278204 -0.059184417 -0.064744316 -0.01918933 0.021328285 0.1047226 0.012788302 0.17342518 0.12176336 -0.013327437 -0.050028224 -0.0194769 -0.026377868 0.06488079 -0.033382468 -0.061226092 -0.015288145 -0.019035464 -0.0910474 -0.0048491205 -0.069605246 -0.060283888 0.010827001 -0.02104802 0.011059936 0.08205166 0.09286154 0.052156195 -0.04369828 0.1015387 -0.008729049 -0.066342615 -0.034378435 0.08485689 -0.108047135 -0.026624948 -0.14330913 -0.042598244 -0.06386144 -0.102798715 0.027431587 -0.008998788 -0.030546486 0.015332779 0.13635594 -0.005082913 0.018891355 0.028590322
0 -0.023140185 -0.07824156 0.08822483 -0.09010931 -0.042549435 0.043306854 -0.082802325 0.08350323 -0.053956468 -0.06314883 0.06461745 0.13839853 0.05021381 0.087495506 -0.033776425 -0.052205727 -0.119273625 0.017418077 0.104774185 -0.041275203 -0.09280251 0.1355702 0.03379702 0.09198566 0.020359125 -0.027467035 -0.05676213 -0.16934566 -0.10066287 -0.11796127 0.1885697 0.022820141 -0.027678205 -0.06731521 -0.0974669 -0.080725916 0.053004116 0.1599042 0.09172915 -0.02491599 0.10041524 -0.113634564 0.009754433 -0.038347393 -0.07852884 -0.09435294 -0.06702633 0.046501208 -0.0689113 0.100167796 -0.12452519 -0.07183055 -0.13203718 0.006670514 -0.027553525 0.17252867 0.16636403 0.014601982 -0.02049793 0.22536838 -0.08691688 0.078505725 0.06707253 -0.04839713 -0.014799279 -0.020004377 -0.07010087 0.005916025 -0.013937913 0.15347506 -0.07202818 0.046567358 -0.08804909 0.20190848 -0.004688005 -0.04350429 -0.020925896 -0.028637042 0.027082466 0.10312071 0.044332422 -0.053786267 -0.08070093 -0.036124267 0.011993191 0.09385252 0.02884968 0.16968521 0.115969606 0.010199944 -0.07752166 -0.0020069482 -0.06517145 0.086431056 -0.049818333 -0.09287432 -0.007125538 -0.031311613 -0.090557665 -0.02552903 -0.07964239 -0.024097087 0.014680691 -0.023841763 -0.050065 0.033316866 0.028865397 0.06878724 -0.011063295 0.035450425 0.0015596676 -0.040143225 -0.042789523 0.009328672 -0.032548126 -0.013430141 -0.042407192 0.00042821688 -0.021093033 -0.08050411 0.023770485 0.013336114 -0.02476994 0.010671093 0.10266721 -0.009317325 0.04739049 0.029397592
11 -0.07988881 -0.005729715 0.10799891 -0.05583113 -0.0060059014 0.032841038 -0.047465265 -0.0011014475 -0.06512641 -0.033092342 0.015281201 0.1348857 0.015703844 0.08963024 -0.078829706 -0.051601816 -0.15665513 -0.09169544 0.09516206 -0.028616501 -0.1278207 0.15118946 0.038451597 0.056181263 -0.039645966 -0.03501934 -0.10663047 -0.16223904 -0.14432724 -0.08063247 0.17695326 0.053313658 0.00078960246 -0.11890215 -0.023650963 -0.1345122 0.098956294 0.12336897 0.16444698 -0.045520503 0.08593344 -0.10002576 -0.016440568 -0.08235978 -0.01934023 -0.07785946 -0.0036222045 0.056651518 -0.0105698 0.06139767 -0.10237574 -0.10207232 -0.13624091 -0.05423391 -0.027813101 0.14124647 0.15253134 -0.002880164 -0.022553734 0.1470128 -0.046999045 0.019852962 0.04296499 -0.053150896 0.0003164134 -0.015817972 -0.011942389 0.012161114 -0.014086173 0.13990805 -0.050709378 0.042396937 -0.09833773 0.11186286 -0.012908127 -0.0022825391 -0.043827392 -0.03681522 -0.005487442 0.07014986 0.079464465 -0.05878146 -0.059292275 -0.027483087 0.012350586 0.12290476 0.035271794 0.13118137 0.08453939 -0.055066884 -0.030096123 -0.04639327 -0.05564079 0.05112603 -0.057716977 -0.07563791 -0.03443732 0.01465616 -0.07448049 -0.01465913 -0.039746664 -0.03718214 0.010067555 -0.009356995 0.061441492 0.06843873 0.0738321 0.026595024 -0.06796871 0.06772796 -0.025790961 -0.03971702 -0.028819779 0.12868057 -0.11840901 -0.041968435 -0.16005132 -0.07029642 -0.035008907 -0.10767524 0.029598724 -0.050082408 -0.08336122 0.015436878 0.16273578 -0.01833882 0.018542556 0.0014606422
30 -0.024968777 -0.05296555 0.06631935 -0.06894065 -0.029271562 0.03667932 -0.05893602 0.0625012 -0.05037167 -0.04542219 0.037380632 0.113025166 0.044637337 0.08079096 -0.052313417 -0.027814373 -0.10679677 -0.03539801 0.07246307 -0.04122694 -0.08286375 0.12095445 0.025872463 0.10532796 0.0067103505 -0.011211932 -0.043483377 -0.15940493 -0.10389176 -0.10969926 0.1773113 0.04270902 -0.022149436 -0.09354833 -0.052492794 -0.08280965 0.06645767 0.110192865 0.10621097 -0.033512454 0.06277832 -0.08179056 0.0037586952 -0.04858104 -0.06911317 -0.06405922 -0.04661973 0.05755266 -0.03380837 0.084097035 -0.104329176 -0.077421926 -0.10715998 -0.012677397 -0.02994205 0.14279845 0.09754518 0.01047771 -0.007895962 0.1344907 -0.044493522 0.028797807 0.052158434 -0.034600627 -0.0199789 -0.04428006 -0.07811153 0.018887095 -0.00785854 0.20061332 -0.06041419 0.081062354 -0.1047473 0.15433349 0.02005755 -0.015597334 -0.023685103 -0.030179342 0.030147292 0.06778462 0.057231206 -0.04505224 -0.067802854 -0.019447789 -0.00034684237 0.089522034 0.009229042 0.15994044 0.11808763 -0.031696476 -0.069684304 -0.03080269 -0.057032797 0.047415067 -0.04106063 -0.071202375 -0.03421002 -0.025523495 -0.11161223 -0.05790147 -0.08179524 -0.06192153 0.0087327715 -0.03367614 0.0057180882 0.08459013 0.09728428 0.055681188 -0.07399016 0.09716209 -0.0012399105 -0.104300246 -0.037347015 0.08371853 -0.06976131 -0.0069908523 -0.11695993 -0.026273115 -0.061722275 -0.12697321 0.05002105 0.0019273531 -0.044448704 0.03437923 0.15787297 -0.01609579 0.031024173 0.036960762
16 -0.073245205 -0.022302043 0.09726706 -0.047890786 -0.023205362 0.026134739 -0.01735043 -0.005608063 -0.06217421 -0.021736855 0.02760563 0.1252989 0.025070084 0.083687626 -0.067711 -0.04698109 -0.120266095 -0.08343629 0.08974565 -0.029764464 -0.109549955 0.1548495 0.05182096 0.08067635 -0.013814738 -0.021352094 -0.093455076 -0.17113435 -0.13591366 -0.087551415 0.1509436 0.028270584 0.0024505467 -0.09460044 -0.05263928 -0.0965944 0.05904279 0.14132525 0.12533697 -0.032716807 0.066111416 -0.07491847 0.004329679 -0.039576337 -0.028088126 -0.06650471 -0.039290007 0.05797152 -0.044372912 0.07536209 -0.086134344 -0.07565551 -0.1125496 -0.01600073 -0.01743954 0.14556362 0.07752166 -0.0025900442 -0.016810032 0.12339088 -0.03840148 0.021750132 0.03843055 -0.034509905 -0.021251146 -0.028297143 -0.041766286 0.019315204 -0.022048526 0.19996868 -0.06030761 0.062017538 -0.11242796 0.1511658 0.009486091 -0.017003912 -0.040169735 -0.039759614 0.01282468 0.08562363 0.06815565 -0.06443912 -0.07092864 -0.032323476 0.0018596431 0.122799486 0.015306984 0.17449021 0.120518394 -0.032746375 -0.053960018 -0.044290815 -0.060914308 0.061159663 -0.058959946 -0.07396459 -0.028046738 -0.00979135 -0.09548183 -0.016350038 -0.05656293 -0.05137727 0.018604793 -0.025385888 0.012490827 0.05579664 0.06500859 0.048416574 -0.057332125 0.07556731 -0.01157295 -0.07425363 -0.042717513 0.1008792 -0.11086151 -0.03216049 -0.15046789 -0.061811954 -0.05007904 -0.12046682 0.03690019 -0.014378302 -0.056948677 0.0167932 0.17847897 -0.02591919 0.03360749 0.029172726
24 -0.06768946 -0.0032408254 0.10746267 -0.037914705 -0.010164055 0.02833617 -0.034991466 0.013531407 -0.061913747 -0.044585794 0.030470967 0.13189821 0.016375126 0.078227945 -0.084915474 -0.05683498 -0.17079104 -0.121944934 0.106686436 -0.028720722 -0.14243154 0.1706063 0.057726193 0.09160991 -0.036495235 -0.017515726 -0.12854049 -0.18424998 -0.15186596 -0.097391516 0.20636334 0.060174715 0.0098721245 -0.16502725 -0.02917593 -0.16593827 0.116409004 0.14224802 0.17115794 -0.044108562 0.076381676 -0.11829021 0.020751197 -0.088767596 -0.035586804 -0.09442842 -0.0050462075 0.060012776 0.0034934036 0.023367876 -0.06852868 -0.05648061 -0.08734515 -0.03206737 -0.024551041 0.082403064 0.0742906 0.0017155417 -0.0029158301 0.06757958 0.001092235 -0.02079729 0.023761118 -0.03968098 0.0043497384 -0.034805402 -0.016057406 -0.011258322 0.0051037692 0.12304533 -0.023119332 0.024554428 -0.01792526 0.017902642 0.002083349 0.005838944 -0.005489033 -0.050884854 0.05058748 0.013215896 0.06163478 -0.03129639 -0.008168851 0.02044253 0.018953556 0.06509519 0.02508553 0.082930826 0.08007331 -0.05322361 -0.04125222 -0.023120042 -0.030172996 0.019605434 -0.011619059 -0.031431664 -0.016916461 -0.0092913 -0.14297467 -0.07606697 -0.059735145 -0.10845825 -0.026239824 -0.019160103 0.06863432 0.07270196 0.10436032 0.068623155 -0.094909795 0.10239773 0.0074973023 -0.089420155 -0.04092868 0.14213468 -0.107010946 -0.017496226 -0.17179553 -0.05535804 -0.087386936 -0.15780637 0.020157447 -0.034012068 -0.075471 0.026993237 0.19714488 -0.024966998 0.032670397 0.062926635
32 -0.030927857 -0.051208984 0.10012408 -0.07321107 -0.019765336 0.03178551 -0.095841356 0.07485763 -0.051471714 -0.062985376 0.04789671 0.13777389 0.033304807 0.09091848 -0.047887042 -0.047302786 -0.13256752 -0.036913626 0.09319412 -0.037264187 -0.11213867 0.12889254 0.026397595 0.07875941 -0.013315586 -0.010636826 -0.0497064 -0.15157458 -0.10014606 -0.101836875 0.20969184 0.05333293 -0.015121861 -0.10678025 -0.059183538 -0.103577465 0.07001673 0.13946474 0.12984501 -0.033668272 0.09062223 -0.10856396 0.0063091945 -0.0614649 -0.050351575 -0.09594992 -0.032402955 0.05370326 -0.029549161 0.060634065 -0.104324706 -0.07937992 -0.11612249 -0.022618981 -0.022275383 0.13354388 0.1337279 0.004824036 -0.01605646 0.15126851 -0.05305225 0.03848091 0.05370724 -0.04979286 0.0110282935 -0.02665121 -0.04462146 0.005994669 -0.0035804792 0.13947847 -0.04354681 0.03933065 -0.07284553 0.12543873 -0.006326336 -0.024514344 -0.013547222 -0.025620945 0.040379684 0.068579435 0.049402207 -0.046863887 -0.03631257 -0.017587176 0.014973451 0.08104081 0.025753753 0.123738796 0.09819569 -0.022526827 -0.06370467 -0.019403003 -0.048245918 0.061603088 -0.017263805 -0.061460655 -0.019824076 -0.009436623 -0.10519144 -0.05322749 -0.07111344 -0.06865772 -0.006782128 -0.019835146 0.016056957 0.061380945 0.07204414 0.06678757 -0.056914914 0.067294344 -0.00015838032 -0.06345156 -0.032311622 0.08497795 -0.082337745 -0.025166703 -0.12004334 -0.03259398 -0.05975851 -0.11294412 0.030371858 -0.019021273 -0.064446904 0.023335276 0.15300593 -0.014882642 0.041773792 0.055042192
25 -0.061626513 0.0025774187 0.08039006 -0.04291921 -0.0036535892 0.013374096 -0.02292644 0.014852948 -0.050637253 -0.029275833 0.02480208 0.12710316 0.0058189924 0.08809601 -0.07117255 -0.031039236 -0.15754575 -0.102776 0.092773564 -0.01607317 -0.119177856 0.15170462 0.046456877 0.08154165 -0.033899818 -0.033182494 -0.112519234 -0.16461791 -0.114993155 -0.09255839 0.1888173 0.04759642 0.014060092 -0.13714477 -0.03419638 -0.1353084 0.09491478 0.1248645 0.15066926 -0.036820002 0.084528916 -0.09953683 -0.00041658687 -0.08119849 -0.023533095 -0.09089883 -0.00026986632 0.05826079 -0.0003513336 0.036883924 -0.10335351 -0.07318287 -0.103630364 -0.04730282 -0.026845008 0.11706177 0.11614202 0.001520961 -0.018029172 0.12354979 -0.026066262 0.015961578 0.04073855 -0.04862973 0.0015744213 -0.0331724 -0.020735504 -0.004989724 -0.018889342 0.13652107 -0.05285836 0.049106844 -0.09439443 0.08855486 0.020574864 -0.013269509 -0.020983765 -0.031759076 0.018924288 0.060468387 0.08497096 -0.049010083 -0.04200181 -0.022386521 0.006637859 0.10992376 0.009631442 0.14164054 0.0682112 -0.045051716 -0.024485672 -0.05110235 -0.049951304 0.030695075 -0.041937042 -0.039297853 -0.049832433 0.01416128 -0.11170567 -0.046858393 -0.064204864 -0.06677505 0.024436375 -0.01794675 0.08640345 0.09131935 0.118013665 0.004681124 -0.07900916 0.101676255 -0.016513955 -0.061381742 -0.049814995 0.15150239 -0.13760449 -0.047273356 -0.20084308 -0.07420077 -0.07782494 -0.13900231 0.033044584 -0.05654149 -0.09692825 0.049896926 0.19694376 -0.018199055 0.0050630593 -0.0054514394
7 -0.06244089 -0.041876994 0.117304154 -0.08934934 -0.026563898 0.03712417 -0.06987978 0.07524496 -0.06876987 -0.056676112 0.067250066 0.16482481 0.038008787 0.118995585 -0.055536605 -0.059451222 -0.11647575 -0.03520057 0.102177784 -0.027251689 -0.09624299 0.15589634 0.058203712 0.09068164 0.03942921 -0.019532973 -0.08593742 -0.18572602 -0.12115395 -0.12950267 0.15586703 0.023100505 -0.013245907 -0.062082235 -0.11661853 -0.074824594 0.036867745 0.18595475 0.0937627 -0.002828518 0.10175143 -0.09774533 0.028919853 -0.01092549 -0.07620908 -0.11475749 -0.07493666 0.04183803 -0.06449847 0.07528965 -0.114944756 -0.042715862 -0.0855381 0.028503453 0.0022757521 0.150638 0.09058536 0.0047562225 -0.030459382 0.19271426 -0.10670371 0.1203315 0.025286226 -0.015893528 -0.029873129 -0.001804345 -0.046332363 -0.0032717132 -0.034246966 0.119010314 -0.04855738 0.048539363 -0.15429744 0.23116042 0.0064813597 -0.037145056 -0.043818735 -0.027443578 0.00477451 0.1273003 0.059814807 -0.07745558 -0.08819671 -0.05787292 -0.014538823 0.11438164 -0.005529481 0.18439765 0.08260361 0.0021602584 -0.05145571 -0.04623675 -0.069446765 0.08093108 -0.07872927 -0.08825949 -0.04629621 -0.008102668 -0.08803523 0.0009136391 -0.103973925 -0.017733332 0.05038774 -0.042143133 -0.006004645 0.080423035 0.0974569 0.019085243 -0.02192154 0.09282663 -0.009185376 -0.055016197 -0.04358361 0.050929613 -0.077958606 -0.039601777 -0.101754695 -0.029696884 -0.04149653 -0.08679451 0.04882473 -0.010246665 -0.058574915 0.04071267 0.15084043 -0.02584145 0.012528843 -0.011965551
1 -0.027833337 -0.033044495 0.097469255 -0.04694829 -0.011851684 0.041779183 -0.10217571 0.07175399 -0.03869334 -0.07132038 0.046177253 0.116475284 0.021729954 0.06871691 -0.057485774 -0.04653045 -0.14135046 -0.06325129 0.08736399 -0.03981727 -0.113573514 0.10245282 0.036874622 0.06158581 -0.023963664 0.009046723 -0.07723893 -0.12599465 -0.095924415 -0.09061108 0.19085078 0.06799028 -0.0032786268 -0.14056078 -0.07610442 -0.14348003 0.08576922 0.17623846 0.15926507 -0.034023944 0.08760284 -0.12897219 0.040682405 -0.059859596 -0.041651327 -0.1396111 -0.016729884 0.041216157 -0.03461702 0.0113472035 -0.1102694 -0.06359586 -0.10730044 -0.009667508 -0.011663772 0.12137677 0.09989968 -0.0027088777 -0.02345716 0.15031762 -0.061482243 0.04178023 0.024263198 -0.034886893 -0.011890421 -0.019562716 -0.035541963 -0.010437625 -0.0056305067 0.14787133 -0.02928961 0.045968965 -0.08529112 0.14335811 -0.010600723 -0.014518339 -0.02101987 -0.051178154 0.052898932 0.078231506 0.05895884 -0.07131768 -0.018948764 0.010612308 0.011451128 0.07716026 0.016360449 0.088933066 0.07836773 -0.04057591 -0.0465881 -0.020001553 -0.052956466 0.06047323 -0.024307054 -0.067191586 -0.026517209 0.010385709 -0.10599418 -0.037809655 -0.04529803 -0.071342155 -0.0032833465 -0.0048742034 0.057632532 0.06259873 0.095933124 0.06855249 -0.075187586 0.074985184 0.0140138585 -0.06548266 -0.039740022 0.115839615 -0.11776409 -0.03878792 -0.15217417 -0.07337514 -0.07246015 -0.13142939 0.010424741 -0.021075267 -0.059766173 0.009825638 0.16869774 -0.019555002 0.040895123 0.046113417
31 -0.06842022 0.026302962 0.07674836 -0.020973684 -0.006918863 -0.0012252522 -0.014759776 0.009835527 -0.05048755 -0.020230588 0.021769963 0.115861885 0.01828159 0.08206848 -0.05901002 -0.02189819 -0.13546303 -0.09683162 0.06323395 -0.017175369 -0.09729128 0.12927526 0.040442687 0.07344886 -0.028569004 -0.029742664 -0.08352005 -0.13627155 -0.118843764 -0.07282413 0.15625809 0.05472851 0.009904561 -0.1375533 0.007718713 -0.12496711 0.11425246 0.087390155 0.15498877 -0.03352178 0.0865732 -0.093422815 -0.011461347 -0.09717871 -0.023359638 -0.06725402 -0.012091544 0.0833676 0.03309655 0.029473389 -0.06269462 -0.051464025 -0.058563735 -0.05412398 -0.03343572 0.06700135 0.059609894 -0.003151277 0.009062802 0.014921309 0.022055117 -0.035479736 0.02882958 -0.04355902 0.017092008 -0.033340618 -0.016719837 0.0019219331 -8.994894e-05 0.11818712 -0.041227628 0.031611823 -0.08518634 0.06520666 0.008905238 -0.006223047 -0.0032909245 -0.024362395 0.042558815 0.046304796 0.07538796 -0.035585064 -0.044578344 -0.022123232 0.016126463 0.10943211 0.011677841 0.1681068 0.086708605 -0.050494645 -0.05306604 -0.052937865 -0.045108706 0.033534884 -0.015249224 -0.039915096 -0.048740167 -0.003225102 -0.1603131 -0.09023329 -0.108947285 -0.12350242 0.0072177756 -0.058164895 0.08154288 0.10507247 0.15266947 0.034239434 -0.10061704 0.14011815 -0.015148462 -0.113165215 -0.03924237 0.16383941 -0.13747326 -0.0276002 -0.20634346 -0.04769916 -0.116493605 -0.17023681 0.06019195 -0.05265314 -0.1303817 0.057368908 0.26451293 -0.029967653 0.03074212 0.04369009
13 -0.047546864 -0.008224022 0.07244662 -0.020112878 0.008058835 0.0017868895 -0.02893776 -0.008691853 -0.048689142 -0.04696531 0.0051769386 0.10356289 0.015525892 0.059828047 -0.05362596 -0.04666829 -0.15225753 -0.08179797 0.07937337 -0.032756153 -0.10858878 0.13739128 0.029872563 0.064762376 -0.053416647 -0.034365024 -0.09525304 -0.14590013 -0.12243605 -0.073460676 0.20157368 0.051832553 0.005894111 -0.1775897 -0.0062629096 -0.17427924 0.14954329 0.098847486 0.18926731 -0.07011244 0.089948535 -0.09683405 -0.024581535 -0.13486797 -0.018963141 -0.07393983 -0.006047764 0.0869167 0.024152271 0.046169005 -0.06297183 -0.08649852 -0.1195847 -0.075980805 -0.04381659 0.08764137 0.11174652 0.004947806 -0.002556144 0.048454612 0.011406726 -0.049646977 0.04866421 -0.05920051 0.023623336 -0.03176335 -0.007685363 0.011452865 0.013201272 0.1395038 -0.04338869 0.026833737 -0.0005116323 -0.007177768 -0.012716003 0.011627889 -0.007437109 -0.041589726 0.018237775 0.018779097 0.06960141 -0.015689796 -0.026839703 0.0037128604 0.020242197 0.10126606 0.057566028 0.115399756 0.08088264 -0.044302326 -0.044728316 -0.036347445 -0.024107898 0.021945167 -0.017115034 -0.032804254 -0.019194217 -0.0014759607 -0.13334379 -0.08961044 -0.04201001 -0.10113033 -0.025515873 -0.0140082445 0.047311682 0.07054301 0.069170274 0.0649139 -0.091626555 0.071681365 -0.019052893 -0.06607751 -0.04561253 0.15338808 -0.13932313 -0.034318935 -0.19437572 -0.05805422 -0.091339216 -0.1738275 0.031395003 -0.02997617 -0.107912526 0.01678642 0.20695488 -0.009439544 0.05904918 0.06372855
5 -0.058334023 -0.010566132 0.054802477 -0.041654762 -0.03512571 0.024353852 -0.0038853143 -0.007889527 -0.049250364 0.0032075555 0.008526966 0.09514787 0.023911193 0.075492695 -0.0691559 -0.0029159545 -0.09735038 -0.067716554 0.047570243 -0.021317247 -0.08617289 0.11205096 0.025487809 0.07177342 -0.029424494 -0.026733484 -0.054815903 -0.1318784 -0.10901958 -0.06099248 0.14139526 0.049695212 -0.008165788 -0.1271971 0.029276444 -0.114452064 0.11012252 0.07723834 0.16088344 -0.046666782 0.056819193 -0.0773384 -0.041428313 -0.08677483 -0.034924187 -0.01849243 -0.01523048 0.091090076 0.013750489 0.09543192 -0.08231858 -0.105694525 -0.11512405 -0.07595415 -0.042127382 0.12640142 0.15556863 0.0013484138 -0.0009898405 0.11244658 0.005817822 -0.045861874 0.087165214 -0.07732092 0.022739168 -0.06450492 -0.058058426 0.034916062 -0.010148231 0.2244006 -0.087308 0.07820521 -0.0992813 0.14183235 0.037604135 -0.02600696 -0.017403921 -0.009678294 0.05721258 0.05713685 0.07075104 -0.04546833 -0.07448677 -0.032322433 0.030867523 0.106930874 0.0118121635 0.19383202 0.15218927 -0.05515172 -0.07037303 -0.034725998 -0.067435734 0.056916993 -0.032884862 -0.06977623 -0.024703048 -0.013095686 -0.11148838 -0.05694957 -0.084256366 -0.06750268 0.014613117 -0.040472887 0.04089635 0.077211805 0.10396081 0.028715165 -0.09124967 0.092038885 -0.0184885 -0.10806052 -0.03366003 0.11036145 -0.07898872 -0.00036499486 -0.13583548 -0.03987687 -0.058953993 -0.116576165 0.047327224 -0.04291247 -0.07434646 0.039818916 0.2051503 -0.029061902 0.02535452 0.029764574
14 -0.036975488 -0.0032363557 0.051806662 -0.022021838 -0.023096794 0.011116455 -0.01471547 0.023936406 -0.041223954 -0.028311396 0.015223552 0.086592995 0.021001443 0.06692229 -0.06284145 -0.0148076005 -0.10960851 -0.083303474 0.04685872 -0.0221271 -0.09060848 0.106445484 0.03533047 0.08407986 -0.026885346 -0.010072039 -0.068221174 -0.12854129 -0.09618093 -0.06621446 0.16408832 0.058921363 -0.0013235734 -0.19385444 0.010308324 -0.1628961 0.14634083 0.09415417 0.18896742 -0.046704046 0.06052783 -0.10344548 -0.012234291 -0.119089186 -0.050599806 -0.05320173 -0.0056086634 0.10166696 0.055963423 0.044667106 -0.05171864 -0.06248825 -0.06676076 -0.07290793 -0.043598823 0.057284582 0.08687161 0.005368262 0.014341323 0.0264868 0.042288367 -0.07067593 0.06392168 -0.057489894 0.028023448 -0.060403988 -0.045088865 0.0058132824 0.0032637678 0.19590858 -0.049658407 0.065317094 -0.045215957 0.046724785 0.03999405 -0.01581605 0.004026729 -0.028343145 0.06631639 0.021598108 0.06627839 -0.026324525 -0.034600206 0.002987578 0.021531405 0.08047145 0.005216446 0.15362507 0.11046312 -0.06564681 -0.050898697 -0.03915297 -0.037060354 0.015869087 -0.016643493 -0.031540316 -0.042387336 -0.011204726 -0.14651547 -0.09943144 -0.09032192 -0.1129458 -0.0010886649 -0.037208494 0.077445 0.112136714 0.15279771 0.017189663 -0.10920495 0.1457793 -0.012919218 -0.12620102 -0.04271381 0.14763862 -0.09887771 -0.0076264413 -0.17424789 -0.04201391 -0.10371903 -0.16309896 0.047612395 -0.036519326 -0.084423356 0.060803358 0.22159918 -0.019216362 0.015365688 0.039102193
35 -0.009257699 -0.050772827 0.056248352 -0.0288798 -0.0039671035 0.004227557 -0.042151067 0.048762314 -0.027226707 -0.056922812 0.01673296 0.0594491 0.019063838 0.056125358 -0.018278278 -0.038566127 -0.107282065 -0.031971153 0.08422589 -0.017627673 -0.101058625 0.1070418 0.022935452 0.058618862 -0.026572904 -0.023584107 -0.060443792 -0.09146996 -0.037707247 -0.06536747 0.15962729 0.013369736 0.0036507733 -0.11674588 -0.04781682 -0.10470351 0.07823782 0.09399184 0.110776864 -0.020683303 0.050133448 -0.06736866 0.0058503165 -0.07205213 -0.024193933 -0.06360774 -0.00277393 0.040283423 0.0024583323 0.03684728 -0.059257906 -0.040423315 -0.075170614 -0.0425064 -0.015556876 0.07253754 0.061704595 -0.0022956056 -0.011299305 0.07773988 -0.013222697 0.0029347455 0.032318413 -0.028994348 -0.012879912 -0.035941623 -0.030194322 -0.011959563 -0.03507565 0.21704398 -0.073918834 0.07556332 -0.10056721 0.123063244 0.023769563 -0.024404632 -0.01997631 -0.043455772 -0.0037908833 0.10201337 0.09947664 -0.06696485 -0.07095494 -0.021744313 0.0095465835 0.14304793 0.016753886 0.20512635 0.108763576 -0.025024496 -0.03893971 -0.041061163 -0.0478018 0.040224236 -0.064887464 -0.056817435 -0.041572727 -0.0040029474 -0.15209939 -0.03478585 -0.08286402 -0.09573091 0.031243924 -0.014245451 0.057885204 0.111724705 0.11942999 0.0411273 -0.07524426 0.12493255 -0.021541009 -0.07848375 -0.07501334 0.15644784 -0.15952417 -0.050046187 -0.23863955 -0.07117141 -0.10917476 -0.17715855 0.01889485 -0.030065067 -0.079947025 0.03881486 0.21007174 -0.010484718 0.029030737 0.012165297
18 -0.01968722 -0.033309508 0.065641895 0.010844067 -0.009126634 0.004561822 -0.052908625 0.013554125 -0.035474222 -0.053178582 -0.0048913476 0.04784367 0.028424332 0.04786346 -0.029203318 -0.039423432 -0.1305397 -0.0457243 0.05562698 -0.03664338 -0.1167811 0.089828275 0.00225367 0.04453379 -0.081878945 -0.02423732 -0.051377356 -0.08023578 -0.06596094 -0.032528624 0.20479439 0.05014656 -0.004040513 -0.22496065 0.039324235 -0.21635698 0.1993249 0.06959069 0.23517172 -0.084831946 0.07219457 -0.10884901 -0.04339091 -0.17871 -0.0009252024 -0.025153581 0.02495721 0.10664154 0.07825643 0.03440241 -0.013252506 -0.07171561 -0.09914627 -0.11859173 -0.05561103 0.018504934 0.14179109 -0.00271993 0.023694392 -0.017347151 0.0808295 -0.14028002 0.07555616 -0.1035011 0.055810783 -0.06876804 -0.0023415152 0.012808559 0.035053875 0.17791481 -0.05153302 0.01519979 0.04512705 -0.033810068 -0.001524307 -0.01912007 0.023569522 -0.03740379 0.07983672 0.005352776 0.06342951 0.0025251966 0.004227366 0.02753144 0.065720744 0.06686789 0.06039239 0.10760049 0.14071223 -0.061628994 -0.08124394 -0.0046064123 -0.015109456 0.024819035 0.020256678 -0.030600116 0.023925358 -0.015277447 -0.1702892 -0.11942018 -0.055424746 -0.1603271 -0.06819686 -0.01667584 0.04893765 0.06638066 0.05148023 0.108261414 -0.116349086 0.07040411 -0.0098026125 -0.09895103 -0.056927297 0.16297403 -0.119018614 0.0066780807 -0.19666329 -0.03269755 -0.122138426 -0.1825642 0.0035596273 -0.04396024 -0.09862307 0.009203461 0.25207502 -0.005624627 0.07847858 0.12653302
20 -0.039039575 -0.041151635 0.0866966 -0.013422902 -0.025563305 0.0188579 -0.075846925 0.0250706 -0.044976905 -0.051874597 0.001477946 0.0654769 0.03769154 0.072080635 -0.02494523 -0.045858245 -0.13333979 -0.047569588 0.069193475 -0.037985515 -0.1367549 0.10517533 0.004244837 0.051099885 -0.06444781 -0.019313945 -0.04069013 -0.08759572 -0.07855917 -0.044936772 0.22215421 0.06522382 -0.013182265 -0.18325251 0.038767017 -0.16022766 0.16219203 0.061616536 0.20188186 -0.0688062 0.062153954 -0.093428545 -0.047634136 -0.14337866 0.0027050425 -0.025084293 0.015977882 0.09249584 0.070576824 0.0377052 -0.009605234 -0.05909068 -0.080266915 -0.111337006 -0.05130654 0.019842092 0.1063725 -0.019271677 0.008770513 -0.016328834 0.05964905 -0.10488728 0.06485225 -0.07310719 0.05998067 -0.054413974 -0.017191386 0.0078007067 0.022801401 0.1920623 -0.051891897 0.0195222 0.0071479813 0.0015523741 0.00063712534 -0.025040653 0.031403646 -0.014772662 0.08265657 0.012755392 0.05534828 -0.010670576 -0.017424896 0.016412415 0.06489865 0.07351211 0.04326121 0.13602799 0.14579958 -0.04511035 -0.065861754 0.0020133997 -0.017428359 0.0491976 0.027508069 -0.03500593 0.030490078 -0.02894024 -0.15649474 -0.097984426 -0.07192738 -0.14409623 -0.06096876 -0.029022556 0.03945854 0.057823326 0.07569778 0.10724855 -0.09610749 0.08101659 0.0036107225 -0.09796323 -0.036313143 0.11822056 -0.08578396 0.020434761 -0.14300877 -0.017429713 -0.105217814 -0.14556459 0.012227774 -0.04927845 -0.07222309 0.010003134 0.20934086 -0.0042917146 0.06135615 0.11988101
4 -0.031977024 -0.049946018 0.10500146 -0.020749187 -0.022273554 0.022178333 -0.10130831 0.06756701 -0.04625158 -0.0813162 0.01120585 0.065220684 0.03415425 0.086863734 -0.028404031 -0.06297811 -0.123759806 -0.06556966 0.07857145 -0.03279367 -0.13870804 0.10559296 0.023492038 0.061333124 -0.043046553 0.0013476199 -0.042596493 -0.086508505 -0.07280981 -0.05749727 0.19942082 0.062410243 -0.007116786 -0.18050458 0.007476162 -0.14322622 0.13477392 0.07320134 0.17748123 -0.030399932 0.037698667 -0.09564628 -0.0029944538 -0.11955911 -0.014017633 -0.041230455 0.017738465 0.06707299 0.072370924 0.007697003 0.0070954347 -0.018290348 -0.023810335 -0.08143826 -0.029697869 -0.02755392 0.006428223 -0.016495774 0.015731027 -0.08612991 0.06853809 -0.094860464 0.028589582 -0.03294072 0.041462183 -0.045054287 -0.019388134 -0.015772814 0.008172938 0.19768007 -0.02710691 0.036364846 -0.013056395 0.018137697 -0.0010317925 -0.022370132 0.027761884 -0.027634038 0.07600878 0.025218688 0.062064067 -0.03393871 -0.016720694 0.024383815 0.04770533 0.07124139 0.025663849 0.13908845 0.13856365 -0.044946436 -0.06297282 -0.0027670343 -0.011327327 0.042322066 0.015139041 -0.02731704 0.00234064 -0.03222218 -0.1919198 -0.09476017 -0.09848152 -0.17041503 -0.034718346 -0.033555705 0.06182206 0.10801342 0.14813598 0.10225741 -0.110385984 0.15034255 0.0065254075 -0.13134444 -0.050969366 0.16003002 -0.12558332 -0.0009225401 -0.21215205 -0.038843524 -0.14049064 -0.18983047 0.022551084 -0.04124072 -0.07362034 0.028608423 0.2504909 -0.017426655 0.0471941 0.11136647
10 0.2946548 -0.47142604 0.024564892 -0.14440592 -0.14814538 0.060969688 -0.5274893 0.5129688 0.058789786 -0.34955084 0.09186786 0.03301112 0.1779273 0.11530749 0.21159068 -0.017280614 -0.19782166 0.43486643 0.076509066 -0.12785819 -0.22194797 0.0048018233 -0.19562119 0.102625705 -0.119362965 -0.00736174 0.27842247 -0.029992202 0.23725341 -0.14020546 0.8124853 0.18310013 -0.08737747 -0.42535207 0.11081813 -0.35400292 0.4184931 0.05853286 0.4431553 -0.14862977 0.104728624 -0.15914577 -0.17877732 -0.33784685 -0.08424691 0.004879664 -0.025503794 0.2197944 0.12712845 0.19911222 0.021317998 -0.17226818 -0.19451614 -0.35218248 -0.13180648 0.006311192 0.4412247 0.068076745 0.07861223 -0.02889886 0.22369172 -0.41191712 0.38338536 -0.3105219 0.32567763 -0.191403 -0.141766 0.06380242 0.08017843 0.46958733 -0.24241194 0.033685196 0.45711514 0.019304615 -0.024337614 -0.19356968 0.23965345 0.07985929 0.44470575 -0.01619253 -0.04197434 0.13380264 0.064575374 0.08976299 0.2688666 -0.072720505 0.203241 0.13545217 0.46210888 0.12579027 -0.33426043 0.29524893 0.049842186 0.20758112 0.2877608 -0.001036683 0.34369153 -0.18128893 -0.29346436 -0.39316946 -0.07105004 -0.3363025 -0.25762367 0.015344343 -0.29052007 -0.14583392 -0.1699873 0.45844445 -0.089508094 -0.2057426 0.11226621 -0.14802043 -0.053324375 -0.17376934 0.21147454 0.1924 0.2109975 0.26102936 -0.17583692 -0.11862154 -0.10522762 0.08088662 0.033646926 -0.103247836 0.1286507 0.026211973 0.3348169 0.5326615
17 0.3502119 -0.50123763 -0.029666623 -0.12152734 -0.16385047 0.052903295 -0.4759008 0.53765184 0.0624035 -0.28378126 0.08739172 -0.05530828 0.18088767 0.113302045 0.2288049 0.029906282 -0.11769756 0.44941908 0.045041084 -0.1131307 -0.2036912 -0.0394912 -0.24734586 0.13948028 -0.12540467 0.008102184 0.36788774 0.013003959 0.32270855 -0.1250136 0.7643838 0.11646673 -0.13895051 -0.4364122 0.15817823 -0.30920982 0.40897593 -0.04075677 0.43551004 -0.15094951 0.04801816 -0.121802956 -0.24633633 -0.38343686 -0.10909459 0.14240673 0.015333004 0.23005375 0.18159883 0.2504138 0.0566611 -0.1773338 -0.1943328 -0.4219341 -0.14493467 -0.029474704 0.46079254 0.08492067 0.15338376 -0.11645815 0.31987026 -0.52072513 0.42532948 -0.3567911 0.31241745 -0.27967513 -0.17557149 0.069115855 0.083099894 0.5681622 -0.2785461 0.06591188 0.3971792 0.01591986 0.058060966 -0.22721405 0.23815624 0.11049281 0.44243094 -0.020569418 -0.0027156791 0.12219028 0.060802694 0.08439642 0.28751293 -0.081691146 0.14970092 0.2355622 0.5472715 0.072425246 -0.40131623 0.26549453 0.040243722 0.15737894 0.28412753 -0.005226677 0.32844582 -0.19271193 -0.36015758 -0.40834382 -0.14414756 -0.40310502 -0.27497613 -0.001312077 -0.27096772 -0.053437643 -0.1582645 0.43680653 -0.13176629 -0.1336773 0.10490315 -0.2284639 -0.05735741 -0.1288396 0.2331401 0.22000074 0.1353565 0.30331936 -0.19069357 -0.11726683 -0.09644236 0.054829348 0.078108646 -0.06383469 0.18242225 0.04251987 0.2844434 0.54876184
6 0.26271904 -0.4116159 0.017116023 -0.11165802 -0.14155419 0.06426628 -0.4349692 0.44955465 0.04283918 -0.27148446 0.08300923 -0.0076553933 0.15195686 0.11210458 0.18276685 0.009202171 -0.14020044 0.35326427 0.05271515 -0.09259497 -0.19220288 -0.020808723 -0.17183991 0.09725628 -0.11832618 -0.0003871427 0.25166 0.015337014 0.24441299 -0.0956462 0.65481216 0.12620454 -0.086185336 -0.37619984 0.12895879 -0.29457015 0.3530538 0.0012207414 0.37772313 -0.123629786 0.05750979 -0.13616389 -0.17692117 -0.30797097 -0.06417793 0.067864634 0.026223546 0.17694393 0.15060504 0.15590553 0.05092022 -0.12661752 -0.127368 -0.33555478 -0.1220224 -0.051669635 0.35737878 0.057491947 0.08765768 -0.08311845 0.247533 -0.4078944 0.32870924 -0.27655265 0.26569304 -0.20895806 -0.13596189 0.038095895 0.065409176 0.47882342 -0.23039499 0.045678224 0.33894005 0.04816415 0.021955447 -0.18513024 0.20844704 0.07287039 0.40794036 0.006254998 0.00010263677 0.096528955 0.05354041 0.0797494 0.24318705 -0.053584415 0.1374741 0.16545092 0.4449637 0.077494785 -0.3056402 0.2400093 0.025277533 0.16850282 0.23325567 -0.015035493 0.29588822 -0.16048749 -0.29823628 -0.33257392 -0.101467825 -0.3207414 -0.22239406 0.0056038243 -0.1972294 -0.0728016 -0.1124904 0.37473792 -0.11075508 -0.119191326 0.10737185 -0.17078692 -0.063052066 -0.11087353 0.17758705 0.18339303 0.1299932 0.22180547 -0.16046329 -0.10833733 -0.10025768 0.034702245 0.055224404 -0.07304975 0.16791496 0.028578898 0.2545089 0.45239747
27 0.26316276 -0.44177347 0.066907324 -0.1292043 -0.14424804 0.073903054 -0.50518554 0.50141144 0.035254814 -0.30164665 0.08587654 0.00970453 0.17461473 0.14800741 0.19188017 -0.032075897 -0.1423985 0.37337765 0.08172896 -0.11877545 -0.2386202 0.0015052086 -0.18250673 0.09775524 -0.09875355 0.029291173 0.30178276 -0.003663584 0.24366517 -0.12197023 0.70221055 0.14892817 -0.1035436 -0.34786773 0.10377472 -0.25171992 0.3270878 0.02222189 0.36751136 -0.08704924 0.048321836 -0.11774812 -0.16410649 -0.28283095 -0.07130056 0.06447851 -0.009747072 0.17883538 0.14791192 0.16918857 0.059733436 -0.11895941 -0.11488727 -0.3264618 -0.09514149 -0.063817225 0.3041922 0.047280055 0.104159154 -0.13935164 0.23930633 -0.38965848 0.31927964 -0.25443226 0.2840567 -0.19206749 -0.1285806 0.04911976 0.06556922 0.47479248 -0.20235993 0.04297178 0.33647922 0.054333273 0.0021917084 -0.20054895 0.20549493 0.09535043 0.39941823 -0.0018790258 -0.030321082 0.07934142 0.057255395 0.07696949 0.24531849 -0.07999971 0.124623485 0.1737298 0.45604202 0.08299538 -0.3274341 0.25146502 0.036770627 0.18360811 0.26316565 -0.0020229323 0.2935386 -0.15906045 -0.27453125 -0.31275403 -0.108721204 -0.3326031 -0.22971964 0.0027338641 -0.25086477 -0.07735443 -0.12418215 0.40762937 -0.09165441 -0.1274695 0.10524297 -0.1805759 -0.04415809 -0.122537546 0.19225992 0.17602201 0.13030201 0.23493427 -0.17695373 -0.103500105 -0.08959947 0.048095256 0.06315984 -0.0782038 0.15488233 0.017046677 0.26730874 0.4984193
