34 128
34 -0.00038360732 0.0013157886 0.0026435384 -0.0017514345 0.0014672152 0.001035707 -0.0030094841 -0.00042788245 -0.0021012276 0.0036386482 0.0014150509 0.0021353075 -0.0026199392 0.0018206746 -0.0011183375 -0.0018195868 -0.0025612062 0.003384634 -0.0009972753 9.442808e-05 0.0016536015 0.002560354 0.00047563136 -0.00262232 -0.0010388619 0.0005390524 0.002769217 0.0025508562 0.0013239125 -0.0004341263 -0.0028426966 -0.00026823225 0.0013993898 -0.0017731022 -0.0008394064 8.0115526e-05 -0.00014193963 -0.0022087689 0.0038905987 0.0008897148 -0.0030165657 0.0022703179 -0.003122085 -0.0015935872 -0.002263738 4.529499e-05 0.0025327953 -0.0035232562 -0.0017248986 0.0032545151 -0.0014891609 0.0036567291 -0.0020956772 0.0010298123 6.450416e-05 0.0023294562 -0.00026704904 -0.0038779718 0.002434934 -0.00074296456 -0.0012464618 -0.0026235073 -0.001469573 0.0022910866 -0.00093375257 -0.001211555 9.83438e-05 0.00088978163 0.00070915674 -0.00037809962 -0.0037374324 -0.0012264643 0.0017416794 0.0037073952 0.0029507165 0.0036356933 0.0016657357 -0.003074949 -0.0034727894 -0.0022144397 -0.002043257 -0.0035166733 -0.0031484012 -0.00082838995 0.0024654916 -0.00017143866 0.0013798173 0.0020108637 0.00090759987 0.0035355361 -0.000984434 0.0017095868 0.0037089714 0.0028637894 -7.2458664e-05 -0.002131773 -0.0035611605 -3.16021e-05 -0.002152382 -0.0033617562 0.0019020255 0.001596334 -0.0022259054 -0.0007861314 -0.0013506038 0.0003290117 0.003701258 0.0007324191 -0.0028911012 -0.0003159478 -0.0015578304 0.0013446065 -0.0029773042 0.001610061 -0.001207551 -0.0023963775 -0.0020563512 -0.0011232758 0.002983465 -0.0015491224 -0.0010840984 -0.00011280918 0.0035825735 0.0006968038 -0.000901574 0.0036295 -0.0035673052 -0.0021245214
33 0.001337908 0.0019841848 0.0036050724 0.003349984 0.002572013 0.002027062 -0.0022723782 -0.0016744833 -0.0012303535 0.0031918322 0.00330213 -0.00037239754 -0.0034935707 0.0028090745 0.0020689394 -0.0025390657 -0.0016618345 -0.0035323165 0.001157649 0.001900703 -0.002112317 -0.0026241357 0.002182856 0.002723203 0.0017509438 0.0017605436 -0.0024923342 0.0027873858 0.00058256066 0.00023637598 0.0013122025 0.003284966 0.0026976431 0.00016294343 -0.0019136675 0.0021076081 0.0032810157 -0.0034375032 0.0030370064 -0.0006694706 -0.00068206183 0.000973133 -0.00022672028 -0.002421448 -0.0027295314 0.00029311402 -0.0036561189 0.0033778218 0.0027508114 0.0005277326 0.0016683594 -0.0007868437 -0.0033389956 -0.0017288228 0.0011618821 -0.0030319688 0.001900912 0.0015454915 -0.0019081607 0.0036756191 -9.767587e-05 -0.0026253045 -0.0018505097 0.0032819337 0.0028433073 -0.001572665 0.002478085 -0.0011875354 -0.0027517325 -0.0020636446 -0.0005065164 -0.0024627033 0.00019616254 -0.0030851231 -0.0023173117 0.00028477111 -0.0020650225 -0.002144702 0.0006648636 -3.9454135e-05 0.00069934706 0.0029835226 2.518802e-05 0.0023756372 -0.0034854934 0.0010750397 0.0029584945 -0.0010710586 -0.0023279246 0.0034460567 -0.0033893546 0.0018018952 0.003870371 -0.0017656903 -0.00032679777 0.0036340575 0.0012900194 0.003322431 -0.00039595278 -0.0013743069 0.00087549654 0.0020137345 0.0014098523 0.0018596075 -0.002105202 -0.0035051506 -0.00176841 0.0008815418 0.0009571304 0.0021054305 -0.0025405623 0.002462561 0.0012584522 -0.002370007 0.0015027587 -0.003679097 0.0020860906 0.0011423669 0.0037281418 0.0031071247 -0.0034393321 -0.0037613611 -0.0031252333 0.002189669 0.0010338704 -0.0009429719 -0.0008937487 -0.0034406933
32 0.0004940954 -0.0034430686 -0.001181248 0.0039032083 -0.0023554564 -0.0020157895 0.0008449832 -0.0011280519 0.0001383744 -0.000847528 -0.0030359232 -0.0028684265 0.0010255717 0.003598464 -0.0018292015 0.0018447784 -0.0033410166 -0.003070374 0.0014060832 -0.00085489714 0.002300259 -6.176605e-05 -8.7422595e-05 0.0003548251 0.0036912179 -0.0014850745 0.0025921396 -0.0034951498 -0.0011742986 0.0036393155 0.00095530035 0.00089615624 0.0026208505 -0.0007976574 -0.0031077964 -0.0035123357 -0.0032480534 -0.0021103364 0.0023171282 -0.0015624268 0.0009630736 0.0017502622 -0.00063260837 -0.0012935001 0.0020473269 0.0021041157 -0.00013086169 -0.0014983021 -0.0017645992 -0.0021582064 -0.0018430416 0.0030853406 0.0032725595 -0.0022623336 0.00061953755 -0.0008498043 0.0016943334 -0.002979108 -0.0013271584 -0.0031738419 -0.0017967308 -0.0006768348 0.0020528662 -0.0026107943 0.0030311164 -0.0037016491 -0.0033156846 0.0034503452 0.0036725802 -0.00041921085 -0.0015521629 -0.0021179914 -0.00323299 0.0026810372 -0.0022016228 0.0006168126 -0.0034199993 -0.00027497287 -0.00086530985 0.0013602072 -0.00054446346 0.00037044048 -0.0010337812 -0.0033172942 0.0016520837 0.002522394 -0.0006883101 0.0024755225 -0.0012239475 0.0034446237 -0.00030726593 0.00022773395 -0.00027208612 -0.0013043338 -0.0019461747 -0.0032129309 -0.0012072888 0.0035771523 0.0030868417 -0.00018783161 -0.0024598096 -0.0032630512 -0.0028750317 -0.002516421 0.0022902105 0.0028936467 0.0024131888 0.0028170855 -0.0008499957 0.00090645975 -0.0016616834 -0.00021497936 -0.0036300512 -0.0016851214 0.00070131035 -0.002624497 0.0024777346 -0.0018790902 0.000927701 -0.0018429711 -0.0021330195 0.0016195114 -0.0034479403 0.0006558596 0.0021807265 0.0020968386 0.0016163248 0.0014081261
17 0.002765695 0.0027114132 -0.0035818473 -0.0028236394 0.0008329271 0.0017300537 0.00016488621 0.0004984908 0.0018566257 -0.00057772687 -0.0026401912 0.0030731703 -0.0013369955 -0.002919155 7.039507e-05 0.0019316706 0.00089047395 -0.0010512866 0.00014248102 -0.0032302877 -0.0005790921 0.0021060146 0.0023675957 0.0019185832 0.0010731186 0.0013661046 7.816585e-05 -0.0028564304 -0.0014615884 -0.0025889508 0.00094678986 -0.0007707037 -0.0026282358 0.0019629728 0.0014113749 -0.0014340355 -0.001017181 -0.00075131364 0.0008471329 0.0035896264 0.0038017335 -0.0021915382 0.0006981262 -0.0016992493 0.002410275 0.0038717017 0.0004366283 -0.0020656912 -0.0025474573 0.0012434726 -0.0011253161 0.0009620867 -0.0013537884 0.00035066644 0.0006486332 0.0027713426 -0.0037373214 0.0021745365 0.0019263051 -0.0032097958 -0.0031611572 0.0026780732 0.0031609344 -0.0038928948 -0.0025522169 0.0009053819 0.0018044842 -0.0035286008 -0.0035825782 -0.0020183204 -0.0038807383 -0.0031469725 0.0028302032 -0.0034113 -0.0023816319 -0.0022597422 0.0014079167 0.0026500789 -0.0023532803 -0.0030941025 0.0012829818 0.0015688754 -0.00021812436 0.0009959207 0.0011916471 0.0037766478 -0.002054191 -0.0009901616 -0.00183369 0.0011252199 -0.002545774 -0.00041125994 0.0030000512 -0.0012948517 -0.0009104488 -0.0012742514 -0.0021912132 0.0030653111 -0.00091820693 0.0012075684 -0.00011253744 0.0030175266 -0.00341206 -0.00027979282 -0.0005010062 0.0027955696 0.0021715846 0.0011156015 -0.00012222966 0.0026045975 0.0009122723 -0.0010980971 0.0005003467 0.002802785 -0.0013357005 -0.0012691355 -0.0034792796 -0.0009872057 -0.0035769509 0.00046163774 0.0022839808 0.0015456362 -0.0025841012 -0.0016277754 -0.0018697362 -0.0031756929 0.0027703356 -0.0037688494
11 -0.0004455983 0.0008556253 0.00048732568 0.0012491032 0.0035001133 -0.0032013913 -0.00010112024 0.0034024839 0.0015287197 -0.00051747455 0.0029306025 0.0025028135 0.0024859651 -0.0029505251 0.003348978 -0.002563839 0.0029407244 0.0023894832 0.0016310075 -0.003462048 -0.0020676896 -0.0028889517 -0.0021600306 -0.0013974456 0.0004608963 -0.002267463 -0.0003208083 -0.0017669133 0.0026674091 -0.0015601857 -0.00214978 0.003459001 0.0013706274 -0.002911438 -0.0038207467 0.0005034714 0.0029612607 -0.002977752 -0.0003132372 -0.0021019322 -0.0035889298 0.00022832409 0.0022123982 0.0024823316 4.4664026e-05 -0.0027476295 -0.0018356644 -0.0012209644 0.0035232778 -0.0031754163 -0.0017419395 0.0018059582 -0.002417376 0.0016019548 -0.00018430446 -6.736838e-05 0.0031871356 -0.0026390222 0.003329916 0.00021839759 -0.00094870466 0.0028077213 0.00060203153 0.002205308 -0.0027873532 -0.0018738693 0.003655648 -0.0001856656 0.0018015773 -0.001159674 0.0019656448 -3.502738e-05 -0.0030572882 0.003443218 -0.0035746028 0.0038798277 -0.0016401485 0.0033641479 -0.0011811465 0.0031677098 -0.0015306415 -0.00017588843 0.0029279517 0.0010979215 0.00081279455 -0.0025938493 0.0006264572 0.0020402055 0.0025446538 0.0037154483 -0.0023399924 -0.0031648357 0.003530924 0.0021958358 0.0020500482 -0.0020403527 -0.0007977443 0.0022233846 -0.00027372167 0.0021401593 -0.0038038285 -0.00047574413 0.0012648345 0.0007841885 -0.0005156299 -0.0036784646 0.0017543061 0.0028523682 -0.00030488707 0.0025881154 0.0033647409 0.0017232958 0.001721418 0.00161023 -0.0015879902 -0.00054416474 -0.0025575713 -0.0021232986 0.00159131 -0.003563314 0.001542977 -0.0016921894 0.0010699645 -0.0020715296 0.003588424 -0.0035090002 -0.002843727 0.0025764324
28 -0.002364578 -0.0003835052 -0.0030187673 0.00028449862 -0.0020598895 -0.002926911 -0.0029074799 -0.00057422824 -0.0005988457 0.0002854325 -0.0013431637 0.0007844642 0.00094114215 0.002197067 0.002161952 0.003277939 -0.0015837946 0.003323866 -0.0032564255 -0.0012370921 0.0015821909 0.0006965704 -7.243618e-05 -0.0017606975 -0.0033119966 -0.0005522613 0.001153955 0.0027831963 -0.00061611366 -0.0015859052 0.0005276931 0.0010096596 -0.0035848871 0.0013775289 -0.0019775939 0.0020446891 -0.0030360287 -0.0014486506 0.0021801519 0.0027044558 -0.0035826352 -0.0024255498 0.0026340946 -0.003010208 -0.0027999317 -0.0021625268 -0.0018506824 0.002552893 -0.0002749751 0.002176105 -0.002291893 0.0030395 -0.000593386 -0.00041657715 0.0028030206 -0.0031480088 -0.0019396337 0.0025224697 -0.0010992708 -0.003821473 0.0027661403 -0.0023946548 -0.00150178 0.0018172977 -0.00020420099 -0.0006460954 0.0015907553 0.00073048606 -0.0007637873 0.002997283 -0.00015639063 0.00087797095 0.0018188793 -0.0025193414 0.0014215834 -0.0031358404 -0.002860711 -0.0030229324 0.0037194917 0.0011825847 0.00061128056 0.000446728 -0.0015701202 0.0014675744 0.00110482 0.000635833 -0.00060695957 -0.0005819861 0.0012981677 0.0026050278 -0.000570393 0.00024150775 0.00038339448 0.00017941295 0.0014967704 0.002423732 0.0038240617 -0.002829014 -0.00018871999 0.0018858131 -0.0019438281 0.0030692366 -0.0022757342 0.0012587885 0.0013057576 0.0016679076 -0.0024751083 -0.0017464244 0.00013929688 -0.0012378974 -0.0014772933 0.0003072518 0.0021438133 -0.0035555055 -0.001296105 0.0008137159 -0.00070135045 -0.0032578313 0.003758546 -0.003723734 -0.0032187453 -0.0030632275 0.0034870626 -0.0012041659 0.0022900177 -0.0027117063 -0.0024538243 0.0018839831
7 -0.0016708345 0.0029704284 0.0029280155 -0.0030869339 -0.0008005471 0.0018927772 0.003415154 0.0020347931 0.0014857281 0.001686587 -0.00023950706 0.00317658 0.0034189648 -0.0005734657 0.0026760648 -0.0024615705 -0.0017427895 -0.0008652671 -0.0026809887 0.0020947566 0.0013533976 0.00027933647 -0.0030464444 -0.00030053098 -0.0036513542 0.0009819719 0.0008321709 -0.0015337041 -0.0014620855 0.0018848467 -0.0015250583 -0.0037919676 -0.0031057317 0.0009555245 -0.00029060946 0.002871183 -0.0023166966 0.0017372487 0.0017887065 0.0034685645 0.0005359566 0.0016758606 0.003653306 0.00069681596 0.0022065688 0.003497987 -0.0035206303 0.002874326 0.003379983 0.0030665137 -0.0026662434 0.002320017 0.0034940923 0.0034226014 -0.001779848 0.0011114537 0.0015997605 -0.0027427808 -0.0006390135 0.0012313301 0.002092424 0.0036892786 0.0006946317 0.00068974344 -0.002408627 0.0019263955 0.00075926766 -0.0030138264 0.00133436 -0.0025072386 -0.0029514816 0.0022237487 0.0014405432 0.0013611432 0.0018791624 0.0032228797 -0.0015332318 0.0007366889 -0.0015465488 -0.0009483739 0.000218848 0.0022012002 0.0017199572 0.0016026617 -0.0030577844 -0.003221948 0.0035151667 0.0028516238 0.0008612347 -0.0031009181 -0.0020186605 -0.0016257552 0.0019611507 0.0016911835 0.0035284583 0.0032754818 0.0036271694 -0.0032838548 -0.0012200676 -0.001141904 -0.0037015886 0.00052155217 0.0015889807 -0.0036130939 -0.002614002 0.0033087588 -0.0016854475 -0.0035367573 0.0027566624 -0.0025424722 0.0036363697 0.0008127319 -0.00092507416 -0.0034850694 0.0014997281 -0.0036633592 -0.0022606428 -0.0016424351 -0.0014642561 1.9288414e-06 0.0016997065 0.0013740135 -0.0032746831 -0.0025701018 -0.0017992046 0.0016105021 0.0013011676 0.003299547
14 0.0032216834 0.0018954367 0.0014858884 -0.0029102014 -0.0032352859 0.0012675383 0.002218217 -0.0027288466 0.0023157566 -0.0008341863 0.00075707206 -0.0014143931 -0.000846768 0.0020383685 0.0033392727 -0.00041004986 0.0034378492 -0.0021540986 -0.0003549776 -0.0023387838 0.0038859001 0.0003170257 0.0034841246 -0.00085175084 -0.0022421444 -0.0001982549 -0.0022061202 -0.00023132171 0.00092737196 0.0036038477 -0.0028966172 0.0029209491 0.0034450165 -0.003458705 -0.0024766426 0.003895886 0.000111834925 0.00073012407 -0.00091447186 -0.0010118887 0.0019580717 -0.00071427936 0.003095563 -0.0017580688 -0.0016304622 -0.0022225971 0.0028495793 -0.0032235507 0.0012864877 -0.0006211734 0.0012122367 -0.0032630411 -0.0018888505 -0.0035357259 0.002118813 0.0035006779 -0.0030201937 0.0029474199 0.002950983 0.0029924794 0.0011179278 0.0022074445 0.0007971189 -0.0013696735 -0.0018488987 -0.0021085863 0.0006542829 0.0008067069 -0.0016468546 -0.0020465632 0.0037023758 -0.00011229123 -0.0017776481 0.00049722334 -0.0013046628 -0.00052895775 -0.0025521128 0.0028813547 -0.0021475353 0.0037029264 0.0010873997 0.00088293175 -0.003781666 -0.0004751644 -0.0005586957 -0.003762826 -0.003274329 -0.00031132565 -0.0020872897 1.6275262e-05 -0.0027885917 -0.0033852211 0.0011972693 -0.0021042186 0.0029604011 0.0020352604 0.0019716248 -0.00079322845 -0.002555515 0.002748588 0.0015191732 -0.0014153714 -0.0032908297 -0.0020850543 -0.0038600757 -0.0012636721 0.0016745599 0.00033105354 -0.0029417777 0.0015283409 -0.0030510877 -0.0037440863 0.0036688594 9.617869e-05 -0.0019899318 -0.0015713328 0.0038982874 -0.0016242329 0.0020429788 -0.0020013808 -0.0012087453 -0.0015887951 0.003250102 0.0033934799 -0.0037862854 0.0018652338 -0.0038064478 0.0008953872
30 -0.0019588026 0.0013478529 0.0016147678 -0.00017017593 -0.0031696847 0.0034738223 -0.003499393 -4.4824596e-05 0.002404834 0.003519461 0.0010990405 -0.0016071969 -0.0015627091 0.0011531981 0.00060004374 -0.0009844868 0.00012462903 -0.0017484985 -0.0035534229 0.0037438464 -0.00063711 -0.0018497339 -0.0022366869 0.0012341242 -0.0012448768 0.0019146071 0.0012691012 0.0031159003 0.0008248018 -0.00017391676 0.0007382095 -0.00070591824 0.0037268572 6.0657672e-05 0.0038189979 -0.00055913976 -0.0010574303 -0.0034693282 0.0014733148 -8.7556284e-05 0.0006329004 -0.0013940571 -0.0024138372 -0.002722508 -0.00063097593 -0.00067070324 -0.0006961571 -0.00040602367 0.0012319651 -0.0030861301 0.0037429403 0.0038825723 -0.0018966143 -0.00040555274 0.0034730895 0.0024026425 -0.0037335618 0.003164265 -0.003338637 -0.003603633 -0.0011264315 -0.0023456025 -0.00045876254 0.0010665524 0.0038523003 -0.0023647803 -0.0010513762 0.00010575264 0.0005065133 -0.0004999885 0.0023077745 0.0020087499 0.0003195876 -0.00356194 0.003213596 0.0034888117 -0.00014963296 -0.002401475 -0.0017653028 4.193637e-05 -0.00014961531 -0.00106665 0.0034659035 0.001695469 -0.00037160827 -0.0033745114 -0.0033002293 -0.003230637 0.000992068 0.00062414166 -0.0013045014 -0.00050605705 -0.0037494688 0.003649358 -0.0009513435 -0.002348431 1.1003332e-05 0.0006909001 0.000454088 -0.002720314 -0.0029690757 -0.0033603278 -0.0019181239 -0.0029213517 0.0032490904 -0.00056900026 -0.0015989444 0.002525613 -0.0019426828 0.0021303168 -0.0029105993 0.0010612018 0.0038882066 0.0012367471 0.0029891583 0.0035389455 0.0022854046 0.00025048375 -0.0033548516 0.00029131057 -0.0021823142 -0.0011095 0.0032859964 0.0014350213 -0.0026369754 -0.0035003996 -0.0021390456 0.0027082064
8 0.0011207513 0.001492859 -0.0016647787 0.00090354163 0.0020592052 0.00021271831 0.0026840146 0.0029212034 -0.0019227392 0.0014130884 0.002945601 0.0027583786 -0.0022127787 -0.0026725691 0.0016119303 -0.0027287768 0.002956047 -0.0034104967 -0.0022867047 -0.0025471256 -0.0008618006 0.00091644283 0.0010307932 -0.0035067017 -0.0022674506 -0.002363343 0.0025067003 0.0006299798 -0.0030502125 -0.0032143195 -0.0017722636 0.003359163 -0.00038765007 -0.0028185055 -0.001013264 0.00013327657 0.0015894277 0.0018817148 0.00062313984 -0.00047726388 0.0027477292 -0.0030042527 0.0032551473 -0.0038203255 -0.003050608 -0.0008036296 0.00046945896 0.0019703698 -0.0027465022 -0.0033839687 -0.0017230713 -0.0021866069 -0.00097381516 -0.0030803485 -0.0031331922 -0.0030464993 5.8679045e-05 0.0027369568 -0.0021368985 0.0026180448 0.0024949696 0.0022747386 0.003775585 -0.0009331928 -0.00073177455 -0.0020827984 -0.0029565552 0.00065309013 -0.0030396217 0.00014677383 -0.0018634058 -0.00061985344 0.0036682314 -0.0018757198 0.0010087789 -0.0031981908 -0.000406028 0.0004584692 -0.0035310662 -0.002004438 -0.0010109561 0.0027773741 0.0032676132 0.00014937691 -0.0025998855 -0.0026887956 0.002049337 -0.0028792243 0.0018191935 -0.001470359 0.0021777663 -0.0020582976 0.00090036367 -0.0016252956 0.0037851634 -0.0004412846 -0.0035072167 0.0024340986 0.0035256871 0.000552379 0.000403764 -0.0029845673 0.00236254 -0.0010057358 -0.00012102953 -0.0025006623 -0.0026633325 -0.00026971044 0.0008787164 -0.0018462457 -0.0038768607 0.003846365 0.002364601 0.00023528107 0.0038379745 0.0036377418 -0.0012708799 0.0007494589 0.0009040122 -0.0032970014 -0.0026990208 0.0021046177 -0.0034050911 -0.0019910051 -0.0024832315 0.0011052383 0.0019715081 -0.0034007556
13 0.0029433265 0.0015830357 -0.002485331 -0.00210279 0.0028608714 -0.0016298818 -0.0032030037 -0.00022177726 -0.0022038713 -0.0024519637 -0.0026859504 -0.0016103912 -0.0027417783 0.00016549861 0.0032600279 -0.0016430999 -0.0013468431 0.0012344801 -0.0014298187 -0.00023128434 0.0010419772 0.002252464 -0.001269596 0.0021569564 -0.0001923507 -0.0007429016 0.001893023 -0.0005521083 -0.0021081688 -0.0019146733 -0.0012491343 0.002220279 0.0007685641 -0.0027849467 -0.0027652958 0.0028804245 0.0024239253 -0.0019618485 0.0018230109 -0.0012701348 0.0019898978 -0.00042087727 0.0010498324 0.00044152813 0.0036374317 -0.0006631393 0.00069427275 -0.0038540282 0.0017730399 0.0032618206 0.0030185538 -0.0009822218 0.00071756094 0.0032621836 0.0018349694 0.0024625282 -0.0015662379 0.0036895836 0.0014021922 -0.0019207922 -0.0029851315 0.0016603116 -0.0024020402 0.0027297004 -0.0012828412 -0.0010551605 0.0002698383 -0.0038352944 0.0010618612 0.0017428431 0.0033400506 -0.0021293715 0.0030380287 -0.0012801023 -0.0005033787 -0.0027260215 -0.002193626 -0.0016988207 0.0011682125 0.00022282854 0.0038774442 -0.002204521 0.0036795365 0.0017319234 0.0035029303 -0.0024300884 -0.0006134541 -0.0028641769 -0.00040124496 -8.268054e-05 0.0018433047 0.0033486292 -0.0014868325 -0.00020437189 -0.0018336499 -0.0033483696 0.003052632 -0.0006271274 0.0038077657 0.00021507022 0.0009783091 0.0037716809 -0.0035699469 0.0011791012 0.003244547 -0.0012897975 -0.0025088594 -0.00058864494 -0.0010557492 -0.0011067138 0.0022788222 -0.00022336033 -0.0024267086 -0.0029144841 -0.0016170338 0.0015923608 0.0023977014 0.003779199 -0.0021634747 -0.0017094093 0.0024435564 0.0008032874 -0.00070012134 -0.003855181 0.0030850947 -0.0011642709 -0.0018610198 0.0026101798
4 0.0015243469 6.3948224e-05 -0.0012277002 0.0025206031 -0.001974522 0.0002949579 -0.0037884926 -0.0028292492 -0.0029409265 0.0025098803 -1.281058e-05 -0.0009851252 -0.0029015716 -0.00018526397 0.002343215 0.0020164107 0.0002519203 -0.0013390989 -0.0030782388 -0.0034640569 -0.0024651485 -0.0012069605 0.0013372089 -0.0017363224 0.00029611192 0.0023558051 0.002785159 -0.0017236328 0.00041748188 -0.0037517468 -0.002539413 -0.00012383643 -0.0025729574 0.0022094082 0.0026071449 0.0031846426 -0.0032594688 -0.00068819494 -0.0022297471 0.0031022425 -0.0018175052 0.003737488 -0.0034162446 0.00032370034 0.0006366469 -0.003392046 -0.0019267247 0.0030392199 0.0029527948 -0.0010473197 -0.0018993468 -0.003416102 -0.0038179543 -0.0029922407 0.00078687345 1.5090178e-05 0.0023301602 0.0037952815 -0.002598175 0.00042555248 0.0021991057 0.0007045926 -0.00089878443 -0.0023392253 -0.002100936 0.002361275 0.0017249031 -0.00077104627 0.0032998722 -0.0037246868 -0.0033752327 0.00092900696 0.001731811 -0.002349884 -0.0031108896 0.0011535386 0.0034739927 -0.0014925465 -0.0025732554 0.0016828759 0.003020919 -0.00030922005 -0.002872847 -0.0034567856 -0.0011033005 0.0026993507 0.003616309 0.002191953 0.0021221994 0.0030790225 -0.0013456234 -0.00072997605 -0.003336179 0.001175302 -0.002860185 0.0031245148 0.002521899 0.0016799236 -0.0036095362 0.0037597772 -0.00034393757 9.630098e-05 -0.00081092294 -0.00051265553 0.0014349673 0.0033026082 -0.0026640857 -0.0015961985 0.0037404133 0.0001856074 -0.0010615264 0.0031177553 0.0031236103 0.0015691498 0.00031727622 -0.0016189589 -0.00027428239 -0.002528318 0.0038930466 0.0016787335 -0.0010829065 -0.002089069 0.0030976753 0.0001224922 -0.0026616221 0.0013924766 -0.0004555812 0.002300555
18 0.0021616237 -0.0019011414 0.0008448571 -0.0011113615 -0.00042036473 -0.0021945187 0.003693279 -0.0026148746 0.0020584865 0.0036959888 0.00015622421 -0.0018977273 0.003060264 0.0034516582 -0.00063215545 -0.00046365545 0.0012741766 -0.0036664794 0.0035053517 -0.0032758971 -0.0034628166 -0.00043225836 -0.0010269781 8.229398e-05 0.0032451407 0.0020154694 -0.0011514527 -0.0011298478 -0.0037326922 -0.000103045546 -0.0017233877 -0.0026769352 -0.0029058186 -0.00091550895 -0.0020545316 0.00021806783 0.00085593184 0.0020081936 -0.0035794787 -0.0037564079 0.00026184437 -0.0016738494 -0.002644509 -0.0010602684 0.0021966873 -0.0029567897 0.0012388316 0.00023003698 -0.0035222585 -0.0014075427 -0.00043814137 -0.003085911 0.003610548 0.0008171194 -0.0017751257 -0.0016068608 -0.0033706753 -0.0019688718 -0.0026133615 0.0025994452 -0.00015761533 -0.0009610314 0.00057871506 -0.0033912593 -0.0023457145 0.00025486283 0.0022888056 -0.0010547813 0.002851619 -0.0020083392 0.0022552449 -0.003394842 0.00047580406 0.0009790431 -0.0010920672 -0.0034356192 -0.002775976 0.001397608 0.002786669 -0.0032613692 0.003439633 -0.0027699638 0.0029703768 2.1050977e-05 -0.0007429292 -0.0013819068 -0.00030890314 -0.0022007916 -0.0026689216 0.0017800339 -0.0037005583 -0.0011412336 -0.0013066409 -0.0019571024 0.002251498 -0.00262174 0.0027334595 0.002305708 -0.0023693205 -0.0032565165 -8.489726e-06 0.0022552237 0.0013254187 0.002832833 -0.0003183537 -0.0010111375 -0.0021249538 0.0020105303 -0.0021615755 -0.00044945793 0.0021374805 -0.0015221996 -0.0031657377 0.002961791 0.0012517968 -0.001305332 0.00078017113 0.00061309617 0.0009911906 0.0009158314 -0.00021605803 0.0004891883 0.0019021773 -0.0015894141 -0.0018137143 -0.0038488535 6.152489e-05 0.001303422
22 0.0015394532 0.0011338755 0.0024641154 -0.0018228287 -0.0018597298 -0.0035993957 0.0017657144 0.0028962898 0.002725717 -0.0038456875 -0.0036100657 -0.002965047 0.0025869478 0.0015717606 -0.0027962225 0.0027018446 -0.0034491566 -0.0013116965 -0.00013600467 0.002855084 -0.0020133832 0.003368795 0.0027076367 0.00070776785 0.0034791376 -0.000980615 0.0011214734 -0.0013137653 0.002044558 0.0032433523 0.0006266211 0.00087779807 0.0022726415 0.0021165214 0.0019037102 -0.003407588 0.0020379669 0.0027583558 0.0014140651 -0.00048717865 0.0017762792 0.0018781943 -0.0014986239 0.0013328571 0.0012135012 0.0016696737 0.0006135272 0.0033372317 0.0030462928 0.0038040148 0.003833104 -0.0029553063 -0.0029288044 -0.003249694 0.00083866256 0.0022341623 -0.00040683596 0.0029326465 -0.0004375653 0.003761919 0.00040796696 -0.0006831938 -0.0028114116 0.0033004894 -0.0033680233 0.0026845222 0.0030074937 -0.0033377132 -0.00084623316 0.0020492242 8.322883e-06 -0.0018120134 -0.00087085797 -0.0037967153 -0.00060023094 0.0009983855 0.0014933958 -0.0034716025 0.0028021515 0.001924898 -0.0006937107 -0.00045654265 0.0019684355 8.385825e-06 -0.0002949234 0.0033291942 -0.0037169126 -0.00024077333 -0.0018905705 0.0031428903 0.0026289413 0.0032755611 0.0036200844 -0.00089052797 0.0003897785 -0.0010013785 0.0013530661 0.002119791 0.0022442343 0.003531402 0.0013081352 0.0024838496 -0.0030671495 0.0026520602 -0.0025323725 0.0034475056 -0.00045157038 -0.0030377964 0.003844824 -0.0030918738 0.00046547037 -0.003173699 -3.4160497e-05 0.0031894548 0.0027504072 -0.0038738817 -0.003485446 0.0023737233 -0.0015559483 0.003755688 -0.0030023209 0.003838393 -0.0029014803 0.0034608396 0.0031918932 0.003429226 -0.00085780455 -0.001813382
26 -0.00012347402 0.0012869296 0.0013549572 0.003442562 0.0005269327 0.0023159569 0.003119664 -0.0028191917 0.0028043753 -0.0009601309 0.0033759829 0.0025446473 0.0015485437 0.0033704266 5.7041514e-05 0.0027239027 0.0008653335 5.8482252e-05 0.0017600693 -0.0023164346 0.0006945747 0.00038958582 0.0032091176 0.00075559854 0.0017316346 0.0027090495 -0.003584259 -0.00021880987 -0.0010589211 -0.0013101456 -0.0020512359 -0.0036912821 -2.4820805e-05 0.0014928222 -0.00026600677 -0.0027682048 -0.0026218218 -0.002793254 -0.000909245 0.0036202907 0.00046047408 0.0028903915 -0.0003383297 -0.001999843 -0.002878021 -0.00042159186 -0.0038409664 -0.0029939904 0.0029168369 0.0007988243 0.0005926619 0.00059981097 0.0018098273 -0.00043804615 0.0014678536 -0.00091240497 -0.0023414264 0.0023435527 0.0017409684 -0.0015125908 0.0034612936 5.7903784e-05 0.0018849412 -0.0025953134 -0.0011914381 -0.0025380373 -5.961449e-05 0.0034957621 -0.00047145697 0.0023780651 0.0018590912 -0.0038452384 0.001985941 -0.00034592953 0.0026781256 0.0032876865 -0.0020550746 0.00094997906 -0.002928253 -0.0006029864 0.0034321651 7.975317e-05 0.00011314263 -0.0027312671 -0.00018027065 -0.0034890717 -0.0023460865 -0.0015793816 -0.0037641048 0.0033078527 -0.0036552155 -0.002488505 -0.0034359898 0.0009022259 0.0016011738 0.0014165486 0.0015101332 -0.00046311403 3.6076533e-05 0.0030436965 0.0008476771 0.0026410474 0.0011016654 0.0004936369 0.0012120152 0.0001383116 0.0036423577 -0.0037326657 0.001043104 -0.003656225 -0.0036027948 0.0010196485 -0.0035802503 0.0020615049 0.002173565 0.00048458733 -0.0015787609 0.0018195116 0.003050707 -0.0010607509 -0.0032686344 -0.0024349235 -0.0028222245 0.00075664464 0.0008860396 0.0011154265 0.00065775216 0.002579293
10 -0.00083175534 0.00068707607 -0.0006901566 -0.002360369 -0.0011793697 0.0011498503 0.0029689 -0.0005906772 0.0008156122 0.0029262048 -0.0004639378 -0.0032278039 -0.0006274285 0.0025733986 0.0006475958 0.00020643149 0.00016153685 -0.0013267711 0.0016726933 0.0037107551 -0.0037610622 -0.001516315 0.0013452108 -0.0038364811 -0.0006612365 -0.0007767424 0.0012825056 -0.0008341871 1.963377e-06 0.0013538644 0.0037391926 -0.0009116436 -0.0018195363 -0.0027173327 0.0036617985 0.0007893794 -0.001644981 0.0009182296 -0.0011664199 0.0010375613 -0.0014633184 0.0031595163 0.0016954114 -0.00030193184 0.003344969 0.0026622948 9.506358e-05 -0.0014539766 -0.0030590068 -0.0025259536 -0.002532041 0.002586811 -0.0030652385 0.003429825 -0.0023199182 0.0036120487 -0.0020358877 0.0023760106 -0.00025459836 0.0024681396 -0.0001600534 0.0027746914 0.0024193844 0.0014801136 -0.0023692518 -0.0011006109 0.0024213868 0.0022818597 -0.00010567415 -0.0023493164 -0.0029212877 -0.0038193718 0.0018130431 -0.003636677 0.0011155688 -0.0009885795 -0.0012465799 -0.0038258769 -0.0027883206 0.0025511119 0.0007675929 0.001583686 -0.00033555852 -0.003702971 -0.0017898527 0.0031637163 0.0009466843 0.0018161433 -0.00092236156 0.002396874 0.0036447376 -0.0027568077 0.0018396642 -0.0028063185 -0.0004767718 0.0029457498 0.0034691773 -0.0030915271 -0.0024548606 -0.00079613057 -0.0038221707 0.0030019176 0.0024609354 0.00040467747 -0.0012067526 -0.0016958248 -0.003079759 -0.0021411183 -0.0013534513 -0.00040403524 0.0014025911 -0.00189525 -0.0037145237 -0.0026031912 0.0018618917 0.0038793099 0.001015257 0.0024823535 -0.0027526657 -0.0030570726 -0.00074150215 -0.0027013212 0.0024493658 0.001008533 -0.00023622953 0.003456811 0.0024823875 0.0036968756
9 -0.002199289 -0.0021553584 0.0026588521 0.0010495204 0.0016436332 -0.0017995294 -0.0011574695 0.00022094017 -0.0030898016 0.003434004 0.0015019056 -0.0027685028 -0.002741745 0.0020704533 8.455187e-05 0.0017341406 -0.0017512849 0.0011258228 0.0017328578 0.0013380165 -0.0006787542 -0.0029500246 0.001775916 -0.0035670106 -0.0025264462 -0.0015047435 -0.0019092775 -0.0034685042 -0.000116828196 -0.0013838292 0.0008189714 0.0032729981 0.003182338 0.0006532758 -0.0033164092 0.0038410637 0.0027668076 -0.0023830207 0.0032299338 -0.0016693869 0.0024378283 -0.00357582 0.001159089 0.0028895522 -0.0009734256 0.00061661174 0.0027402993 0.0028933126 -0.0036339946 0.003573999 0.0022455284 -0.0037160416 -0.0007160667 -0.0035180433 -0.003560227 0.0031041831 0.0038081587 -0.0014933007 0.00057309656 -0.001279245 0.0031109755 0.0028328681 0.00012860727 0.00082252035 -0.0022384454 0.0022893671 0.0025663944 -0.00078450853 -0.0025868912 -0.000713796 -0.0005615831 0.0034138758 -0.0020519823 -0.00087409635 0.0035966737 -0.002561936 -0.0031041899 0.0038739552 -0.0034403233 0.0024020444 0.0014814814 -0.0011926028 -0.0034152088 0.002504106 -0.001475724 -0.0009886451 -0.0007299184 0.00039984373 0.0035927882 -0.00056099193 0.0020952087 0.0005487631 0.00087685854 0.0022639444 -0.0037185485 0.0034648944 -0.0028038577 0.0007726105 -0.0013071017 0.0023315083 -0.0037790493 0.0037825892 -0.0034660303 -0.0010565944 -3.7085858e-06 0.0014654185 0.0023390637 -0.0015222083 -0.0015905955 0.0008423738 0.0025412405 0.00032695444 -0.00019383257 0.0018263438 0.003346151 -0.00013865561 -0.001422996 -0.0026055623 0.0021341622 -7.985028e-05 -0.0012726889 0.0012305402 0.0019752446 0.0014812179 0.003074686 0.0019806009 0.002333382 0.0009978194
12 0.0004325304 -0.0020575954 -0.0023953803 0.0035456978 0.002474178 0.00344364 -0.000151582 0.0033227722 -0.0030714173 0.0007868487 0.0014963645 0.0029528833 -0.00036986897 -0.0016384067 -0.003380824 -0.0024431855 0.0014055243 -0.00090923667 0.0021557505 0.0027966904 0.0008851385 -0.0035518114 -0.00081724295 0.00069059443 0.0033412527 0.00343115 -0.0019511081 0.00089499506 -0.0030188211 0.0021615997 -0.0035619116 -0.00019221008 0.002305795 -0.0013286795 -0.0025087034 -0.0002791369 -0.00067255204 0.00077717676 2.7861333e-06 0.0025129693 0.00021474955 -0.0038319717 0.0019063446 -0.0026950028 -0.0038316776 0.0023984974 -0.0028906 0.0024421082 0.000667854 0.0026791263 0.0016955191 -0.0008701988 -0.002763782 -0.0019480283 0.0017965204 0.002610442 -0.0026268489 -0.0028131306 -0.002842137 0.0018198004 -0.002077462 0.00023785584 -2.0060317e-05 0.0016825384 -0.0022756797 0.0024008679 -0.0005940726 -0.0006557485 0.00049582584 0.0012159796 -0.0024365536 0.00238587 0.00058291777 0.0020028905 0.00069385214 -0.0006363105 -0.00084437936 0.00018611034 0.0006300751 -0.002068554 0.0002967245 -0.00017411436 -0.0029959064 -0.003126989 0.0022685318 0.003136254 -0.0037731216 -0.0022547543 -0.002279447 -0.00011554802 0.002850092 -0.0006249725 -0.0015168318 -0.0016501731 -0.0005860813 0.0018841554 0.0034851958 0.0035708626 0.0035366681 0.00025665935 0.002725924 0.0010415673 0.0036169083 -0.0022864437 -0.0028763246 -0.0027619903 0.0005890395 -0.0017479453 0.0029141798 0.0018022774 -0.0018205327 -0.00066241965 0.0010429743 0.0033561746 0.0035256937 0.0010695594 0.003444767 -0.0018784263 0.002959447 -0.0015034677 0.0019537767 0.002219808 -0.0028986866 -0.00023116394 -0.0034855704 -0.00023903028 0.0010091877 -0.0017345593
2 -0.00062100764 -0.0016850841 0.002105916 -0.003663576 -0.00021494519 -0.0022161584 0.00018868582 -4.4447846e-05 -0.00013923885 0.0014656391 -0.0033653104 -0.0038766407 0.0038107154 -4.644719e-05 -0.0012864576 0.0027228415 0.0019646715 -0.0036672212 -0.0007386598 0.0019385854 -0.0022409807 -0.0009563374 -0.0010836017 -0.0015234526 -0.0004744939 0.00057092117 -7.549974e-05 -0.0030263818 -0.00063263706 -0.0022042957 0.0010417955 0.0032304535 -0.0016013993 -0.003485967 -0.0026145186 -0.002100357 0.001877397 -0.0010645104 -0.0038623651 -0.0025270544 0.0025178776 -0.0031919132 -0.0005778608 0.0035304641 -0.0033252325 -0.0019519638 -0.0028950348 0.00020014953 -0.0035675524 -0.0018694734 0.00082238583 0.003751949 0.0013702451 0.0026177398 -0.0029904544 0.0015497913 0.0026481305 -0.0016820175 -0.0004341623 0.0035109045 0.0011169554 0.0013692632 -0.00027397045 -0.002968251 -0.0029944053 -0.00382364 0.00045094045 -0.0008635829 -0.003884348 0.0013629112 0.0030535108 -0.0024890366 0.002354501 -0.0010038977 -0.0011077074 -0.0019116186 0.0026850402 -0.0032607468 0.00021686588 0.00019054709 0.0019710034 -0.002659933 -0.0023079203 0.0033217147 0.003762095 -0.0012482172 -0.00035221825 0.0016747145 0.001400194 -0.0026290547 0.00067850563 0.0019698835 -0.0010207855 0.0031921843 -0.003317354 -0.00028995317 -0.0034579074 0.00335673 -0.0021004693 -4.8713617e-05 5.9602477e-05 -0.0017132211 -0.002132327 0.003421416 0.003227511 -0.0007599302 0.0031782838 -0.0007235889 0.0023735731 -0.00035104973 0.0033164883 -0.0004744537 0.0038891204 -0.0036467058 -0.0009287919 -0.00016041662 -0.00326915 -0.0014976605 0.0015806974 0.002691364 4.5540888e-05 -0.0035099695 -0.002954679 0.0005537807 -0.0033941017 -0.0017214102 0.0017907645 0.00033306566
20 -0.0023930601 -0.0030105475 0.0010004594 0.0033117584 -0.0010144719 -0.00038640064 0.00055543246 -0.003457805 -0.0013371602 -0.0033242838 -0.00061345147 0.0016636746 -0.0015918767 0.0031029526 -0.0027885064 -0.0024683017 -0.0014524135 0.000341868 3.174834e-05 0.0016014922 -0.00016541063 -0.002338036 0.0015331263 0.0036990803 -0.0021811195 -0.0027394104 0.001230073 -0.0008467149 0.0011251251 -0.002393989 0.0010529698 0.0018147435 0.0008827354 0.0019002868 0.0010664186 0.003139852 0.0020278995 0.0038415317 -0.00057940866 0.0026415826 -0.00058361824 0.0006993836 0.0009573249 -0.00315155 0.0013584172 0.0005841987 0.0026845552 0.001873309 -0.0005992568 0.0019320783 0.00093039044 -0.00341581 -0.001227293 -0.0014584629 -0.00036686385 0.0011845981 -0.002435191 -0.001007873 0.002901241 -0.0012961243 0.0012041087 -0.0032216802 -0.0012351016 0.00011644244 0.0034325607 -0.0014613502 -0.0016815282 -0.0016345367 0.002477794 0.0021473367 0.0037038773 0.00094365847 0.001670033 0.00021193046 -0.0037282372 0.0030968064 -0.0038566086 0.0034891595 -6.457272e-06 0.0033371402 0.00051225454 0.0017841043 -0.0014738404 -0.00047487885 -0.0016051611 -0.0005857806 0.0037893022 -0.002575227 0.0032044402 0.0013063882 -0.0012477372 -0.0016087157 0.0033378364 -0.00049515755 -0.001425044 0.00045885917 6.634239e-05 -0.0036543917 0.003572745 0.0016691479 -0.00039317217 0.0022355185 -0.0017633633 -0.0020828324 -0.0021013722 0.0020602439 0.0005701019 0.0014921786 -0.0022958436 -0.0006306151 -0.0019957074 -0.002297161 -0.0038684169 -0.0020421643 0.0021815856 -0.00036920878 -0.000826107 0.0032363583 -0.00059947814 -0.0023570915 -0.0029106038 0.00031809905 0.0011614129 -0.00017380348 0.002423503 -0.0009374294 -0.0009910682 0.0036843382
3 0.0014798604 -0.0033271872 0.0025181351 0.0036247843 0.00298595 -0.000464919 0.0018159364 -0.0002250364 -0.0018125395 0.0029479843 -0.0028354113 0.00012583144 0.00057790236 -0.0036936703 0.0011539352 0.0024324234 0.0022483713 -0.0023326129 0.0025055595 0.0031860238 -0.0020634106 -0.0034134919 -0.00078819774 9.4030685e-05 -0.0017410262 0.0018254126 -0.0032986132 0.0011543146 0.000737885 -0.002042781 -0.0030201108 -0.0034394404 -0.003410602 -0.0013798785 0.002768595 -3.2015974e-05 -0.000554953 0.0016200778 0.0017186806 -0.0021962367 0.00059792405 -0.0009395906 -0.0003547294 0.0023536617 -0.0034858696 0.002099632 -0.002519216 -0.0013087152 -0.0022062196 -0.00031903057 -0.0019633695 0.0017267439 0.0038831835 -7.5612435e-05 -0.0016064652 -0.0035887246 0.00022786598 -0.0003522048 -0.0005681975 -0.0027570932 0.002896423 -0.0027250345 0.003362171 -0.0016564358 0.0034272536 -0.0031631938 -0.0018005818 -0.003461512 -0.0016603795 0.0025508576 -0.00035751797 0.002387385 -0.0017550251 0.001293751 -0.0010547184 0.00022600216 0.0010060386 1.3120953e-05 0.00034024092 0.00039607618 0.0038066895 -0.0007673007 -0.0021121826 0.0015515967 -0.0032686975 0.001365496 0.0034590191 -0.00087025616 0.0013437696 -0.0020645629 0.00014659706 -0.001142044 0.0014221965 0.0035881624 0.0017242441 -0.0004256399 -0.0035825844 -0.002295039 0.0035298725 0.0034380378 0.0006913697 0.002361194 0.002579027 0.0013071754 -0.00097651215 0.0021917773 -0.0008981135 -0.0005534436 0.0028135784 0.0032742582 -0.0037663935 -0.0036123411 0.0006867609 0.0007525803 0.00048313977 0.0024586755 -0.00015273322 -0.0038409424 -0.0034148542 -0.003606709 0.0019585448 -0.00026338635 0.00041730245 0.0025919927 -0.0019812174 0.00011594946 0.0020809618 0.0026820807
29 -0.0011219033 0.00021878851 0.0022051686 -0.0036692377 0.001114568 0.0016635364 -0.0009992076 0.0001654106 0.002950971 -0.0030695572 -0.0036087404 -0.0006117171 -0.0028178194 0.0015207 0.0038530908 -0.0014539799 0.0026270107 0.0010726143 0.0030126353 -0.0019767787 0.0005981871 0.0032155388 -0.0031894175 -1.9421654e-05 0.0034272773 -0.0015723035 0.0004940881 -0.0026462616 0.0015915784 -0.0036796248 0.00097384676 -0.0025263592 -0.0005385738 -0.0035339643 -0.00217147 0.00046995986 0.0013125092 0.0016043015 0.00050649105 -0.000811245 -0.002107485 -0.0029141626 -0.001225786 0.0035512622 7.31055e-05 0.0030243865 0.0012837714 0.002838782 -0.0019126565 -0.0017291442 0.00089286204 -0.0017496456 0.003612815 -0.0016488734 -0.0011678694 -0.0017287612 0.002788352 0.0002212635 0.003882565 -0.001411785 0.001408874 -0.001844406 -0.00055707473 0.0024262727 0.0033676748 0.0024745234 0.0038716504 -0.0008683976 0.0021708005 0.0019407084 0.0036284954 -0.00077154627 -0.00383933 -0.0011163641 6.5200725e-06 -0.0034373973 -0.0014810431 -0.002079539 0.0016255219 0.0038629356 -0.0020666013 -0.002942685 -0.0025071308 -0.0037438497 -0.0033348645 0.0006331865 -0.0025623224 0.0012259769 -0.0028401234 0.0011569363 0.0003798134 0.0022505668 -0.00048383756 0.0005524673 -0.001206658 -0.0030310573 -0.0026500542 0.002108274 -0.00059036235 -0.00087226 0.000537167 -0.0030378352 -0.0006991996 0.0028052682 0.0037420609 0.00032425474 0.002301854 -0.00036427766 -0.0015131875 0.00014521304 0.0032487435 -0.0030541916 -0.00084475527 -9.087183e-05 0.0006686458 0.0032984233 -0.0026005332 0.0028583861 0.00030983044 -0.0031117357 -0.0030305167 0.0016618982 0.0011718895 0.003262262 -0.0037357335 0.0011357279 0.0024958062 -0.0038134495
23 0.0028897724 -0.00015486313 0.00075139717 0.0021937399 0.0009940498 -0.0010014612 -0.0006103341 0.0027015784 -0.0021468909 -0.0017861332 0.00020633951 0.0033781384 -0.0035017843 0.00303399 -0.002843863 0.0025909287 -0.003112096 0.0021670237 0.00374681 0.0019731906 -0.0019490527 -0.0029590772 0.0029713628 -0.0026481715 0.0031274261 -0.0038776996 -0.0035774547 0.00086002244 -0.0006373084 0.00187411 0.001721949 0.00069013145 0.0035227016 0.0037536966 0.0035127355 -0.00096657366 0.0034760204 -0.0016593925 -0.003035392 0.0021990286 -0.0004994294 0.0016661062 -0.0038252424 -0.001676103 -0.0036769907 -0.0033316028 -9.4300674e-05 4.4491157e-06 -0.0012770194 0.003746329 0.002915096 0.0010613247 -0.002000332 -0.002223257 0.0025086321 0.00120828 -0.003465957 -0.0021749022 0.000988786 -0.00089290674 -0.0030933267 0.002761348 0.003543427 0.0031177253 -0.0009651722 -0.00015640195 -0.0017869021 -0.0011437009 -0.0017764505 -0.0010999787 -0.0012184413 0.0024525023 0.00073205546 0.0002669563 -0.0020077953 0.0033651004 -0.002087278 -0.003312855 0.0008865069 0.002460808 -0.00047827984 -0.0024912262 -0.0017056628 -0.00062203885 -0.001986088 0.0012283204 -0.0023174698 0.00037105512 -0.0022469226 -0.001675066 0.00010206824 -0.00095638796 -0.0029738338 0.0010934566 0.00015096884 0.003743427 0.0028152908 -0.0015184308 0.0013952681 0.002122503 -0.0017192721 0.002134889 -0.00026751304 0.0012579502 0.0009267856 -0.0033332657 -0.002077566 -0.0032869994 0.00366454 0.0036335282 -0.0037313935 0.0017907034 0.0008999933 -0.0031726272 -0.0026359046 -0.0017384274 0.0014831023 0.0011081152 0.00047408426 -0.002346814 -0.003071696 0.0025932007 -0.0023221902 6.814447e-05 0.0030141722 -0.0008285279 0.0012864323 0.0007912722
6 -0.0007002253 -0.003383965 0.0025239536 0.0011704715 0.0006569949 0.0025431684 -1.5779606e-05 0.0014377284 0.0032906414 -2.4473018e-05 0.0021030803 -0.0030770816 0.0023699785 -0.0035774766 -0.0016024599 0.0012023854 0.0038263574 0.0030418383 0.0022695279 -0.0018367568 -0.002940246 0.0034342448 0.0023307847 -0.0038392898 0.0017870243 -0.0008609135 -0.0019258948 -0.0025850954 0.003292551 -7.5593634e-05 0.0019721088 -0.0035428149 0.0021841924 -0.0005730733 -0.0007302655 -0.0011683194 0.0017822264 -0.0025098713 0.00017570784 -0.0026411386 -0.0010954852 1.1771892e-05 -0.0036668717 -0.0023835793 -0.0033686098 0.0006618089 0.0023790984 0.002548764 -0.002963209 -0.003714377 0.0006304553 0.0012848303 0.0010947975 -0.00039705756 -0.0009948116 0.0020464063 -0.0024099036 -0.0028454456 -0.0024358174 -0.0011215552 -0.001065364 0.0034833935 -0.000927724 0.0024155742 0.00059621484 0.0002291869 -0.003106952 0.0016219243 0.0012054809 0.003773568 0.0038197278 -0.0030812456 0.002433356 0.0011652162 -0.003017767 -0.0033137687 0.0016604699 -0.0016252314 0.000731945 0.0010156725 0.0033399963 0.0035792666 -7.7893535e-05 0.0019807802 -0.0035889635 -0.0034682876 -0.0003209429 0.0031764158 0.0034104763 0.00075665343 0.0013768359 0.0018967767 -0.002136453 0.0033042668 0.0033557196 -0.0012767384 0.0009251459 0.0016784851 0.002731606 0.003316634 -0.0005692605 -0.00042805434 -0.0028550148 0.00035113274 0.000101597914 0.0034574554 0.0010729369 0.0010193675 0.002826808 0.0034268186 -0.0017260215 -0.0020130947 -0.0019947991 -0.0005938587 0.0017808779 0.0022755782 -0.0011053894 0.00073803874 0.002057586 0.0025625743 0.0013555948 -0.000567737 -0.0034243315 -0.0038550931 -0.0010623079 -0.0036466904 -0.0035525768 -0.0035750787
1 -0.0032494878 0.0036079884 -3.7923797e-05 -0.0025356587 -0.0030488886 0.0014705502 0.0006836172 0.002445866 0.0019672322 0.00013519086 0.0018451181 0.0012401 -0.0038206968 -0.0018575698 -0.0019192229 0.0032232245 0.0015308859 -0.0033631125 0.0037745098 0.002052654 -0.0034109312 -0.000736707 -0.0017027012 0.0020866927 -0.0017901802 -0.0031482023 -2.834416e-05 0.00074128585 -0.0007749663 0.0032820855 0.0013658289 0.0029660356 -0.003629024 -0.0012175787 -0.0008097085 0.00028871538 0.0011042405 0.0008503928 0.0020020127 -0.001268215 0.0015661569 -0.0011851359 -0.0032962107 0.0014861989 0.0001005907 0.0039112046 0.003810004 0.00063826086 -0.0009057546 0.0032132533 -0.0016254005 0.003064133 -0.00021593997 -0.0037660864 0.0012327051 -0.0027226529 0.0038637235 -0.00221814 -0.0036262835 0.00072335906 -0.0024685015 0.0032855019 0.0019931798 0.0009389747 0.00063456706 0.00055109983 0.00050555484 0.00092973904 -0.0015851025 0.0024423343 -0.0023372378 0.00025265294 -0.0021447346 -0.0018386738 0.0038850799 -0.0014030088 0.0024774633 -0.001781414 0.002285943 -0.00061965 0.0004335994 -0.0014541746 -0.00023728746 -0.0002225748 0.0035650192 0.001229518 0.0032070559 -0.003770075 0.002757593 -0.002822221 -0.0037463065 -0.0020422034 0.001013725 -0.0035857437 0.0037859248 -0.0030738586 0.0035734721 0.0019234334 0.0024521102 -0.00141975 -0.0026675358 -0.0007150224 0.0010272306 0.0026047083 0.0025741362 -0.002199218 -0.0016680651 0.0016027279 -0.002470084 -0.0028431981 0.00018616821 -0.0033424192 -0.0022208474 0.00024799432 0.0017488204 0.0020860196 0.0026322005 0.0017816579 0.0010923938 0.0024606222 -0.0010895048 0.0029667309 0.0034482675 0.002202631 0.0019497995 -0.0033489577 0.0012523859 -0.0017876244
19 -0.003869824 -0.0020677368 0.002942959 0.0029265604 -0.00383163 -0.0008442487 -0.0030617965 0.002020397 -0.0029769018 0.0023268498 0.0038148474 0.0032014472 0.00048682143 -0.0014854324 -0.0010484513 0.0024858715 -0.002659018 0.0035801283 -0.0018528929 0.0012395225 -0.0027071824 0.0018277643 -0.00037020486 -0.0012496144 -0.0030396665 -0.0033788811 -0.0023506593 0.0025956186 0.00090844085 0.0010225552 -0.0034496963 -0.0036823277 0.0036615643 0.0036993087 -0.0020272161 0.0019438479 -0.0019441403 0.0004745654 0.0013578967 0.0037352093 0.0013657999 0.0024029217 0.002422546 -0.0027646394 -0.0026554451 -0.0038534186 -0.0025073984 -0.000556874 0.002211848 0.0007687512 0.0035429946 0.0019538319 -0.003562229 -0.0004665871 -0.0029243699 0.0019925092 -0.000315294 -0.0001948359 0.0009377184 -0.0004393415 0.0021247733 -0.001704199 0.0026660173 0.0037921593 -0.002624606 -0.001829215 0.0020913368 0.00102553 -0.002303906 -0.0030423023 0.0009309092 0.0006345269 -0.001981722 0.00046486335 0.0033685735 0.0020448493 0.0011615822 0.0022439894 0.003253656 0.0028617482 0.00038364218 0.0031491176 -0.0035405767 -0.0038355964 -0.0003521739 -0.003319405 -0.0007608151 0.0024077634 0.0028406226 -0.0020148512 0.0036126513 0.0026482234 0.0027492438 -0.00017809766 0.0015294964 -0.002161669 0.0034499755 0.0019274069 0.00016710503 -0.0038430972 0.0010864201 0.0031976032 0.0016174781 0.00032893196 -0.0038700989 6.737812e-05 0.0005762456 0.0006648323 0.0003030709 0.00062200247 -0.0031410651 0.0014324994 -0.0014957744 -0.0037633823 0.0029370484 0.00015485719 0.001388216 8.8039225e-05 -0.0026864877 0.0029164709 -0.0015906398 -0.003159181 0.0018593043 -0.00059209234 0.00280104 0.0026444453 0.0030834016 0.0016068834
5 0.0012079261 -0.0005576172 -0.0029717686 0.0032102608 -0.0026298927 -0.0034179657 0.0035928455 -0.0031985817 -0.00054210454 0.0011060726 0.0027695163 -0.0016690787 -0.0015623296 -0.0016918562 0.0023508335 -0.0014237401 -0.0019760826 -0.0008998472 -0.0025098417 -0.00094257726 -0.0007696702 0.0018730932 -0.0011863076 -0.0035237798 0.003710794 0.0016394662 0.003003729 -0.0013833803 -0.00095551787 0.0014446585 -0.0036089907 0.0002772809 -0.0032031448 -0.002011845 -0.0013989139 -0.002530175 -0.003215509 0.00061717007 0.0028124624 -0.003372529 -0.0016784378 -0.0008116563 0.0013111181 0.0025870393 0.0034781143 -0.0013167085 -0.0015136886 0.002181269 0.0021128098 -7.0817456e-05 -0.0032946079 -0.0037795436 -0.0009641628 -0.00010283292 -0.002704713 -0.001099805 0.0033129093 0.003414672 -0.003452771 0.003363473 0.002922549 0.0022454874 0.0020326292 0.002348918 -0.0031499316 -0.00078768405 0.0018986237 0.0035473888 -0.0034180884 0.0013506635 -0.001346016 -0.00041413624 -0.0020755164 0.0027879877 -8.680273e-05 0.00031395967 -0.0028196867 0.00019020257 5.6067405e-05 0.0036181987 -0.0007841648 -0.0036737171 -0.0033375712 0.0018192758 0.003629658 -0.001963042 -0.0019574037 -0.0005785255 -0.0031469373 -0.003218769 0.0037587318 0.00045851033 0.003038743 0.00017563504 -0.0031089953 -0.00055882277 0.000483054 -0.00018347267 -0.00018577778 -0.0012088161 -0.002611069 -0.0017615672 0.003093096 -0.0011061314 0.0028669685 -0.0032375555 0.0019441459 0.00033285518 0.00042664804 0.0019897493 -0.0019696197 -0.0013751327 -0.002115859 0.0019005748 -0.0038863719 -0.0023178027 0.003149641 0.00060091633 -0.0010747364 0.0016487513 -0.0014194893 -0.0013833331 -0.002571461 -0.0036242418 -0.0025610349 -0.0024080374 0.00027163955 0.0017284125
15 0.0017692475 -5.3444997e-05 -0.0007018273 0.00226669 -0.0004396868 -0.00059568963 -0.0022105316 0.0009041331 -0.003584547 -0.003684886 -0.0008084353 0.003645996 0.0018886426 -0.0031359151 -0.0034755853 -0.0030308354 -0.0020995098 0.0003461572 0.0010913764 -0.0017517015 -0.0006286263 0.0028448957 -0.0034535239 -0.003547128 -0.000494744 0.0030399482 0.0003096516 0.0021479342 -0.0028331862 -0.0012485745 0.00040641127 0.001352424 -0.0034283928 0.00088329136 -0.00012029011 -0.0033420569 0.0011374056 -0.0037251217 -0.00041478453 0.0030834256 -0.002000766 0.0012936236 -0.00060156797 -0.0036490231 0.0024929792 -0.0019721268 -0.0010089409 0.0029756145 0.003158908 0.00088572217 -0.003105062 -0.003428594 0.0024601195 0.0016534807 -0.0026923758 -0.0021603706 -0.0015959743 -0.0027191902 0.0025850544 -0.002597154 0.0017384939 -0.0011539161 0.0038411447 0.00011617915 0.0022068117 -0.0032257284 0.0018101434 0.003098025 0.0036326447 0.003008682 -0.0022175517 -0.0037763047 0.0010825092 -0.001246219 0.0022842376 -0.0010105311 0.0031437217 0.000118860626 -0.0006910432 -0.000548386 -0.0011722252 0.0006714784 0.0015283593 0.0020128195 0.00044082495 -0.0012208082 0.0027376881 -0.0028104088 -0.0033950745 -0.0019887406 0.002877859 -0.0015023685 0.0002753562 0.0032889028 -0.0031941014 0.0013012384 0.0012646584 0.0016896224 -0.0034374045 -0.0035624693 -0.00026904902 0.0008863067 0.0012847555 0.0013519145 0.0014596791 0.0015038712 -0.0025395597 -0.0034526149 0.0038035256 0.00012205524 0.0038995938 0.0038034273 -0.00071387336 -0.0026684036 0.00086756435 -0.00038576996 0.0006433666 -0.00020345452 0.0020084549 0.003847144 0.0004585343 -0.0017449117 -0.0003164281 -0.0017561043 -0.0004045259 5.360857e-05 3.384991e-05 0.0028325517
25 0.0026382396 0.001629098 -0.0022291047 0.0003334254 0.0034760141 0.0004948346 -0.002666105 0.0023705298 0.0031157087 -0.0032239829 0.0038601796 -0.00081743766 -0.0021693176 0.0005273924 0.0016791616 -0.0014870302 -0.0023161527 0.0010203248 -0.0015895126 8.2039754e-05 -0.00021667512 -0.0019646834 0.00078327005 0.0023085754 0.003596037 -0.0012629164 0.00053046615 0.003041037 0.002876537 0.0021017087 0.0028250585 -0.00033200328 7.59692e-05 -0.0022616321 -0.0018467389 0.0022086136 -0.0015207813 -0.0033193997 0.0030384301 0.0014858163 -0.0033439035 0.0022278063 -0.00044000856 0.0010715426 0.0007250253 0.0036997537 0.0036803496 -0.0013688274 0.00041593672 -0.00038528565 0.0010868931 0.0015959176 -0.0010729309 1.0845582e-05 -0.0021870218 -0.001818368 -0.0023409065 0.0017553287 -0.00086896267 -0.0020434859 -0.002116482 -0.001161601 -0.0033459817 -0.0027635817 -0.0017410162 0.0016639818 -0.0036277568 0.0016817745 0.00066275906 0.0016943127 -0.003006067 0.0028882304 0.0017382235 0.00046894467 -0.0032607552 -0.0033946452 0.0024693199 0.0036155717 -0.001476921 -0.003254458 -0.0015376974 0.0024965326 -0.0029461298 0.0022202518 0.0031965184 -0.0004197828 -0.00079214294 0.00093520246 0.002786837 -0.0027078849 -0.0016129499 0.00030093026 -0.0007799074 0.0020687636 -0.0037104003 -0.002936012 -0.003303319 0.0005145977 -0.0007306143 5.7149675e-05 -0.0014762409 -0.0030008426 0.00022361158 0.0034898717 -0.0037681768 0.0012086703 0.0029985306 -0.0030666182 0.001210568 0.0038990958 0.0035031226 0.0015092163 0.0025312507 -0.0003339175 -0.0038561665 0.0020559148 -0.003054498 0.0030551734 0.00040623202 -0.00051325496 0.0014320075 0.0022649867 -0.00324296 0.0014947968 -0.0023390069 -0.0037061821 -0.0007278247 0.0021676854
24 0.001820894 0.0017446155 -0.0029815703 0.00074389606 -0.003103073 0.0038391405 -0.003436911 -0.003044408 -0.0021736426 -0.00088672456 -0.00069775403 -0.0007248705 0.0029456501 -0.00021883684 -0.0001476772 0.0036868681 -0.000769799 0.0031013922 0.0014812268 0.003700221 -0.0033331127 0.0026871976 -0.0013966183 -0.0019521699 -0.0024281172 0.0023169753 0.0024991815 0.0030673158 0.0025353043 0.003558359 -0.00035585155 -0.0015172374 -0.0015066589 0.00082922354 0.0015391707 -0.001457156 -0.0021337264 -0.000799352 -0.0022981735 0.0025576877 -0.003584231 0.0014206527 -0.00090622314 0.001277565 -0.0010818482 -0.00046592933 0.0033404857 0.0025398843 -0.0007588084 0.0035891286 0.0009821487 0.0016385472 0.002780145 -0.0007167624 0.00039757128 0.0019732798 -0.0025170313 -0.0017010168 -0.0005023578 0.0019875574 -9.451317e-05 -0.002020432 0.002722584 -0.0031983291 -0.0014594104 0.00067101704 0.00021506334 -0.0027289954 0.0013135573 0.0016023857 -0.003727666 -0.003741379 -0.00036850307 -0.0011040054 -0.0032422794 -0.00037205344 0.0037458877 0.0006978532 -0.0023390467 0.0033726145 0.003435275 0.003552968 -0.0023299314 -0.0012192492 -0.00024505117 0.0020690472 0.0021138329 -0.0009419698 -0.0038511718 -0.0010777802 0.0027674155 -0.0030938748 -0.0013621291 -0.0020471693 3.990253e-05 -3.463393e-05 0.00043689742 0.0017299365 -0.00074471586 -0.0034523797 -0.0026001197 -0.0033484087 0.0017324327 0.0035721003 0.0018868571 -0.003286776 0.0012949542 -0.00061863364 -0.0015053264 0.0016788025 0.002462992 -0.0017980372 -0.0028295566 -0.0016220344 -0.0004998032 -0.00019091905 0.002161727 0.0020693564 0.0010455116 0.0021626805 -0.0010311069 -0.0038869586 0.003547361 0.0033366063 0.0021723176 -0.0012849979 0.0002959647 0.0035940404
21 0.0023097978 -0.00017713026 0.0021830532 0.0012336107 0.0028981364 0.0022631204 -0.0008825307 0.000811549 0.001393848 -0.002579859 0.0026032408 0.0027846491 -0.0024149301 -0.0029457926 -0.0006134915 -0.0018620746 0.0024391625 -0.0036071644 -0.0032839212 0.0022126099 0.0015349021 0.002808827 0.0037432455 0.0012398433 -0.001981707 0.001575317 0.0020941326 -0.00030881097 0.0011302877 0.00094337127 0.003485921 -0.0023739713 0.00041510726 -0.0018105812 -0.00050373556 -0.0014072553 0.002176584 -0.00083498674 0.0027429126 0.00086635276 0.0033817654 -0.0003745353 9.370556e-05 -0.0012787903 -0.0021395457 0.0023021179 9.447904e-05 0.0006259297 -0.0038872533 -0.00086651766 -0.0026727442 -0.002456239 0.0012150136 0.0026618685 -0.0028301433 0.002179873 0.0034955763 0.0015359774 -0.00045638118 0.0014916747 -0.0013739155 -0.0029152806 -0.0004937102 -0.0007348475 -0.0028585747 0.0025039567 0.0017709798 -0.0028745972 -0.0014380798 0.0038603244 -0.0034081747 -0.00049186597 -0.0034421359 -0.0024824566 -0.0008023413 0.0037434725 0.0011696375 -0.002472034 0.0032555433 0.00027542398 -0.0023936662 -0.0018380525 0.00040334932 -0.0019976383 -0.002482823 -0.00075509254 -0.0007766572 0.002496092 -0.0011481479 0.00051486696 0.00021850555 0.0025693045 -0.0016118371 -0.00075635227 -0.00085021544 -0.0014895378 -0.0010996497 -0.0029558581 -0.00092189194 -0.00012545392 -0.0023004885 -0.0027000124 0.0012874905 0.0011722511 -0.00023432812 -5.179124e-06 -0.003374492 9.5946154e-05 -0.001554384 -0.0037211683 0.0016541781 -0.0036793158 0.0036460317 -0.0032390507 -0.001414085 0.00011805743 0.001764688 -0.0015204448 0.00014103724 0.0019836752 -0.00026640313 0.0004608854 -0.0032326959 -0.00069207605 0.003808463 -0.0030236964 0.0021569268 0.0027409412
27 0.0014388559 5.5779405e-05 -0.0004487191 -0.0005949127 6.631961e-05 -0.0035052015 0.000306332 0.00068244163 -0.0002212454 -0.0001692771 -0.0037743833 -0.0016798625 -0.00083431794 0.002805504 0.0033342696 0.0033551068 0.0016201795 0.0005992209 -0.0033873767 -0.00191825 0.001286787 0.0013291383 0.0019303632 -0.00083605666 0.0027445676 0.0018771258 0.002826078 8.70534e-05 -0.00039229152 0.0014853034 0.0026317178 0.001443346 -0.00010845564 0.002414246 0.0019306251 0.00339963 -0.0007294139 -0.0017437913 -0.0003661726 0.00040567177 -0.0020816755 -0.003034568 -0.0023292026 5.8197777e-05 0.002231138 0.0011929089 0.00016762709 0.0035204105 0.0010989552 0.0010755747 -0.0009590105 0.00077054027 -0.0030582163 0.00025758048 0.0016010343 -0.003689909 -0.0016859042 0.0015290944 0.0033232907 -0.0037092243 -0.0035428377 -0.00051824586 -0.0034403387 -0.0026476716 -0.00057426223 0.0031624832 0.00043917677 0.000105575964 -0.0017472409 0.0036508576 0.0020371687 -0.0030530938 0.00034412462 -0.00010445093 -0.0036061 -0.0011732284 0.00016159863 0.000973413 0.0012713883 0.0005364874 0.00051426206 0.0012218311 -0.0026950156 0.0019844596 0.0037152679 -0.00077975984 0.0013283645 0.0030435533 0.0018569803 0.002018904 0.0035011221 -0.0009067366 -0.0028415374 0.0019701237 -0.0037163284 0.00021836847 -0.002110605 -0.0024306758 -0.00080267893 0.0008556042 -0.00082361425 0.00070502213 0.0034263353 -6.806247e-05 0.0014326827 0.0017063016 -0.003604408 -0.0025205284 -0.0007028045 0.0026193575 -0.0032518005 -0.0030531376 0.0029483836 -0.0025673497 -0.003728371 -0.0021314863 -0.0035204764 0.0022088175 0.0030465582 0.0026233406 -0.001305827 0.0027152807 0.002002683 0.0037448467 -0.0021810308 0.0015193215 0.0005940779 0.003424077
16 -0.0014504432 0.0016339554 0.0005500065 0.0023691491 0.003045029 -0.00051785086 0.0024791646 0.003379125 -0.002111574 0.003808765 0.00255034 0.0006420344 -0.0023622967 0.0038954867 -0.0028310088 0.0033622829 -0.0027662152 0.00011565579 0.0026476528 -0.00039322575 0.0018525998 -0.0032392174 -0.00097610947 -0.0034413654 -0.0015400939 0.0030995654 0.0023307933 -0.0038533488 0.003259543 -0.0008544755 0.0028284325 -0.0037289164 4.6106845e-05 0.00068028446 0.00087728625 -0.0008450503 0.003514903 0.0030485839 0.0034873926 0.0034859942 -0.003734133 -0.003662105 -0.0038806458 -0.00080222666 0.0029253801 -0.0032016647 -0.00058108644 -0.00097432383 0.00088187045 -0.001464251 -0.0036952947 0.0021067262 -0.0007431597 0.00075290503 0.00023708705 0.0027564866 -0.0009498177 -0.0024335196 0.0010370244 -0.001653727 -0.0031803492 -0.0033205608 -0.0030488973 0.0022853527 -0.0019895886 0.00038890357 -0.0018889667 -0.0010850952 0.0006980817 -0.0014598034 0.001887526 -0.0017990952 -0.0031293957 -0.0022057446 -0.0013060216 0.0031078523 -0.002407159 0.003080607 0.0022674801 -0.0033960699 -0.0011278853 -0.0032866038 -0.0006271011 0.0007580354 0.00088509766 0.0020569833 -0.0008889342 -0.00013511704 -6.5999055e-05 0.0010195271 -0.0038318115 0.003678334 -0.00044961355 0.00017877301 0.00018694374 -0.0027017402 -0.0011552626 0.0034474728 -0.0021678633 0.003504689 -0.0031712716 -0.0027694271 -0.003427057 0.0005507969 0.003377401 0.0020428111 -0.0019769087 -0.003369137 0.0006152258 0.0038152102 -0.0034384418 -0.0033474239 0.0015195425 -0.0011634553 0.002612275 -0.003676827 -0.0037394485 -0.0038910762 -0.0002438507 -0.0014626301 -0.0014466718 0.003865197 -0.0037539126 0.0022851177 -0.0013142932 -0.0021494057 0.003744441 -0.0007337199
31 -0.0032649657 0.0035199434 -0.00042753082 -0.00073873624 -0.0028005845 0.0033905406 -0.0016291732 -0.00013349573 0.0003583242 -0.0019099035 -0.00040530923 0.002281921 -0.0017258043 0.0027250228 -0.0016354197 0.0039051715 0.0009157395 -0.0022198495 0.0016779583 -0.0024538678 0.0037206945 0.0031091212 0.0015410256 0.0038796694 0.0006941789 0.0014381651 0.0029628186 -0.00085410936 -0.0009095579 -0.0010128473 -0.000702783 0.0019020992 -0.0002828767 0.0029339443 0.003440554 -0.0025261906 -0.0021468813 -0.002024282 -0.0026227438 -0.0015417333 0.003621125 0.00015200935 0.0026774853 -5.970178e-06 0.0025840204 -0.0012566522 -0.0004473211 -0.0019632631 0.0017626068 0.00097461004 -0.00067903666 -0.0030879139 0.0032600092 0.000889294 -0.0036975201 0.0030295644 -0.0031407452 0.0032293147 0.0007138088 -0.00252391 0.0005592698 -0.0010091371 0.0016418062 -0.0017751979 0.002084606 0.0021176124 0.0019325381 -0.0032666582 0.003046944 -0.0006512825 0.0027450994 0.00040124336 -0.00050670886 1.4645023e-05 -0.0032391432 0.00056026323 0.00077194814 -0.00103871 0.003267546 0.003789648 0.000685717 -0.0029551634 -0.0033090478 0.002747169 0.0017010341 -0.0015119725 0.0016636298 0.002815577 0.0024943994 0.0028663578 -0.0029778425 -0.0029971544 -0.0011647494 0.0014227085 -0.0015102299 -0.0014718715 0.0015578282 -0.0035371152 -0.002125963 0.0003372351 0.0038250375 0.0009767179 0.0011663225 0.0026182581 0.0026154048 -0.0038885989 -0.0022077875 -0.0007318802 0.0025369301 0.00011133029 -0.002802844 0.00062637933 0.002583127 0.0009980601 -0.0033152602 0.0032179633 -0.0034317437 -0.0022025253 0.0031782072 -0.0008148599 -0.0023897116 0.003121962 0.0009411209 0.0022484101 0.0015257554 -0.0018059561 0.003727126 0.0027704206
