197 128
37|18.36 -0.001951572 0.0038051275 0.0005425821 0.0033251478 0.0027272014 -0.0019012521 -0.0024915084 -0.0029492397 0.0008066137 0.0016619234 0.003634458 0.0030417703 0.00033956397 0.0007648226 -0.000836444 -0.0010561302 -0.0008313571 -0.002197645 0.0008953234 -0.000615798 -0.00026421872 -0.00037852844 -0.0006269132 -0.00028379218 -0.0037422865 -0.0020679717 0.0004164909 -0.0032473134 0.0017890196 0.0030455727 -0.0018030783 0.00075937464 0.003296824 -0.0015808663 -0.0011428572 0.0025312682 -0.0011021767 0.0019585171 -0.0027996541 -0.000679987 0.0008502104 -0.0005429011 0.0015661002 0.000756017 -0.0036747393 0.0018304572 -0.00034121628 0.0029146215 -0.0031862108 -0.0011644021 0.00024034936 0.0017581083 -0.0038390865 -0.00040669454 0.003319106 0.00230507 -0.003164347 -0.003378337 0.00092474045 -0.0005892845 0.0037633625 -0.0036499994 0.0018483304 -0.0025690957 0.0032999136 -0.0022571327 9.582701e-05 0.0019945896 -0.000293977 -0.0012118276 -0.0003695583 0.003656467 0.0005810471 -0.00058798987 0.0037794607 0.0004455854 0.002912224 0.003373821 0.0029810274 -0.002953454 -0.0022300708 0.002679411 -0.0007255438 0.0020992549 0.00043550308 -0.0034114558 -0.0020654516 -0.0038064045 -0.0035969089 0.0001867669 -0.002826248 0.003207351 0.0018663262 0.0011491821 0.0031514317 -0.0033896142 -0.001489069 0.0034864882 0.0027503378 0.003799462 0.002086177 0.0026412862 0.00082082156 -0.0038940131 -0.0019484749 -0.00042181942 0.00090858096 0.002112116 0.0038191415 0.0011176047 0.0005414169 0.0028846832 -0.0026982839 -0.0033481275 -0.0013311653 0.0025001473 0.0028930523 0.0027476272 0.0017239599 -0.0016101268 -0.001370841 0.0024305095 0.0012088403 -0.0009792915 0.0031696183 0.0005492839 0.0032685795 -0.000615273
37|33 -0.001727728 0.0032297052 0.003638827 0.00065911846 0.003452891 0.0010099636 0.0036423549 0.0024884099 0.0029839503 -0.00046165966 0.00017082786 -0.000711573 -0.0034261297 -0.0013855826 0.0038311072 0.003305903 0.0020007617 0.0020159225 -0.0014873897 0.0024688889 0.0026317367 0.0021645243 -0.0009416896 -0.00209783 -0.00020781343 0.0003217781 -0.0021483735 -0.0038601363 0.0027750372 0.0038066874 0.0011971458 0.0027804454 0.0028283752 -9.0666625e-05 0.0023553232 -0.0010360368 -0.000988562 -0.0031144219 0.0029940652 -0.0027865898 0.0027753916 0.0030144192 -6.607478e-05 0.002927422 0.0023817057 0.002187058 0.0010568203 0.0017951288 -0.0022502043 0.0024157043 0.00028095208 -0.0034834675 -0.0038284617 0.0005039569 -0.0027267397 -0.003861724 0.00084584113 -0.0005238422 -0.0037608298 0.0013416703 -0.0006230274 -0.00022183929 0.001273351 0.00039886285 -0.00050541805 -0.00052528986 -0.0028029538 0.0032519244 0.0005259398 0.0018087847 0.0038270918 -0.0007777261 -0.000411406 -0.00096985966 -0.0013163638 -0.0027576312 -0.0019124969 0.00021122316 -0.0011668808 -0.0035672602 0.0021730408 -0.000115581955 0.002273804 0.003732721 -0.0015101357 -0.00010460881 0.00026650986 0.0023461827 0.0001386977 0.0034802863 -0.0009363515 -0.0036234206 -0.0029402182 -0.002581074 0.0026758348 -0.00058766693 0.0037957798 -0.0034254757 -0.0009818255 -0.0032407602 0.002917086 -0.00050107914 -0.0013594957 -0.0035583365 0.001959388 -0.00016417653 0.0010163643 0.0035212438 0.0025801992 -0.0013720759 0.0018839628 -0.002871472 -0.0034523935 0.00071635644 -0.0037229513 -0.002470968 0.0010196912 0.0012406589 -0.0032842522 0.003630796 0.0010093722 0.0011163303 0.0007096352 0.0025491542 -0.0012781704 0.0015825175 0.0013542196 0.00026182018
18|37.27 0.00054893474 0.0018819981 0.0027181462 -0.0013566093 0.0032430617 0.0026452665 0.0028311464 0.0029774085 0.00036234967 -0.0007439535 -0.002674664 0.00071394263 0.003523524 -0.0024530978 0.0020732167 -0.0009978956 -0.000734757 0.0020647722 0.003082674 -0.0014558026 -0.00064711453 0.00043947704 0.003095688 0.0022837878 0.000627913 -0.001623537 0.0036382324 -0.00296819 -0.0008089649 -0.0003065684 0.0005128968 0.0035648756 0.002594799 -0.0017473765 0.0024919305 0.0020943587 0.0010449007 -0.0033340915 -0.0016940623 0.0026762243 -0.001110752 0.0019797813 0.0035267833 -0.002430998 0.001148724 -0.0018320035 -0.0017994522 -0.00030757082 -0.00091075746 -0.0011913151 -0.0004223634 0.0017671991 0.0022469293 -0.0038352425 -0.00093732344 0.00021249907 6.749346e-05 0.00094703457 -0.0006397902 -0.0013305211 0.00032959308 0.001090285 -0.0038310378 0.0006984357 -0.0032871005 -0.0015070514 0.0020012795 -0.0024458363 0.0035039796 -0.0026872887 -0.002345877 0.0014425642 -0.0021959785 -0.0038706006 0.0036750466 0.00045861074 -0.0029931003 0.0038784563 0.00013472406 0.0013860634 0.0008693488 -0.00069323875 0.0020219751 2.470255e-05 0.0014729096 0.00056706264 -0.0005982331 0.0010652763 -0.0010249907 -0.002723586 -0.00010706628 -0.0037857166 -0.0010076611 -0.0033459917 0.0036555706 -0.0023765366 0.00221933 -7.6478085e-05 0.0014322955 0.00038886108 0.0018006111 -0.0014238257 0.0029242241 -0.0013987802 -0.00011256746 0.00014826565 0.00159954 -0.003756767 0.0016198292 0.0010139485 0.0015762609 -0.0028353978 0.0019230568 0.0035112286 0.003086167 0.0033777235 -0.0022187498 0.0025897324 0.0038749753 0.0038091044 0.0036539503 0.003412139 0.0018472149 0.003237642 0.00085881725 -0.0016294968 0.0009311968 0.0035261828
18|37.18 0.0018684221 0.0035206552 0.0020903712 0.0034905295 -0.0036282004 -0.0021650407 -0.0027382753 0.0010537797 0.0018349577 0.003604978 0.0016468944 -0.00060764974 -0.0013506134 0.002127788 0.0013219111 0.0038342702 -1.2692179e-05 -0.0027281228 0.0017635328 0.0035725082 0.0016089822 -0.0017074688 0.0008278778 -0.0006967956 0.0021464673 0.0028321943 -0.00023716032 4.1761166e-05 0.0014419968 0.0012738447 -0.0032202653 -0.002759006 -0.0025762788 -0.00021940231 -0.0009070986 0.0035092868 -0.0017577822 0.0034774705 0.0035038737 0.0018993675 0.0007394013 -0.0013153994 0.003732559 -0.001244375 -0.0015004863 -0.0018067197 0.0035636062 0.0019137849 -0.0011681048 -0.0007285154 0.0009289802 -0.00064594555 -0.0029241191 0.0014790879 -0.0020728281 -0.0028057878 -0.00019313028 -0.002815322 0.0023790186 0.0035270127 -0.00054423563 -0.0011802401 -0.0035824508 -0.00062655815 0.0007792781 8.314851e-05 0.0011142625 -0.00053378963 -0.003838325 0.0003941444 -0.0018100069 0.0037494805 0.003842803 -0.003400147 -0.00134708 -0.0027226217 0.00016988392 -0.0031383114 0.0027019149 -0.003322644 0.0013095773 -0.0034536093 -0.002537196 -0.0008210006 0.0037548707 -0.0035379622 -0.000204004 0.0006711031 -0.003200179 0.001307855 -0.0015080373 -0.003821036 0.0006673173 0.0006787012 0.001004782 -0.0007310813 0.0010602985 -0.0032111115 0.0006322547 0.0035901105 0.001380074 -0.0027745701 -0.0031547649 0.0012324849 0.0028028195 0.0029707598 -0.00048736806 -0.0037522125 -0.0026955085 -0.003310928 -0.001914436 0.0005081067 -0.0028820036 -0.00306816 -0.0036151886 0.002788536 0.0002421325 0.002328274 -0.0008288574 0.0020569423 0.0020878883 -0.0023556957 -0.0014096217 0.0017716173 0.0026124925 0.0017127526 -0.0016997856 0.002768802
37|18.37 0.0038171082 0.0034219786 -0.002810307 0.0006462265 0.0030384175 0.000763533 0.0026937453 -0.0024088493 0.0033066915 0.0036241226 0.0026166604 0.000109586996 -0.0020749338 -0.0023525232 -0.0019958261 0.0039148047 0.003067588 -0.0012904935 -0.0025510252 0.0011894713 -4.744437e-05 -0.0010871859 -0.00063724717 -0.0015716511 0.0036650463 0.0023255982 -0.0028456808 -0.0028341427 -0.0034261218 0.0025361709 0.0002712758 0.00037233092 -0.0026985656 0.0013294383 -0.003352561 0.0037589632 -0.002151691 -0.0032265019 0.0011600365 0.0001384027 -0.0038102553 0.0025624663 -0.0017156848 9.415356e-05 -0.0033233655 -0.0012872097 0.0022405994 -0.0032893114 0.003638047 0.0011175115 -0.00018801763 0.00041207203 0.0029085136 -0.0036973732 0.0037917483 -0.003690566 0.00015141563 0.0010016335 0.0020700847 0.003792047 0.0035993028 -0.002342546 0.0010327377 0.001007149 -0.0034286613 -0.0015539093 0.001954564 -0.0035717175 0.0016298501 0.00315287 0.0016564802 0.00046654593 -0.00182581 0.0029940337 -0.0028434123 -0.00037934154 -0.001342107 -0.0024303156 0.00041651723 0.0013670855 -0.00025653085 0.0026404457 -0.003852857 0.0028799034 0.002065669 -0.00071123656 0.003297956 -0.0010707482 0.001629551 0.0023579479 -0.0009918904 0.0010272679 -0.0009798588 -0.0012838327 0.0015150975 0.0037642317 0.00024584893 0.0017196948 -0.002912542 -0.0024770673 -0.0014201746 0.0021974412 -0.002660942 -0.003576243 0.0010437686 -0.00184649 -0.0020098386 0.0011975102 0.0008083612 -0.00054528576 0.002980342 0.0027452423 -0.0024534 -0.0008373081 -0.0024174294 -0.0035993278 0.0035555626 0.0011374207 -0.0011680471 -0.0019415399 -0.0027250305 0.0038528375 0.0007822797 0.003122291 -0.0016948255 0.0010789451 -0.0032956714 -0.001111954
18|37.16 -0.00016149301 -0.0026722318 8.94319e-05 0.0020282296 -0.00079837395 0.0030221746 -0.0032374496 -0.0004127429 0.0034730695 0.0013405965 -0.0025988694 0.002076678 -0.00033917322 0.0028507337 0.001996158 -0.00054743973 -0.0032797896 -0.0012121138 -0.0031542347 -0.00057973765 0.0024884692 -0.0011251791 0.0014258893 -0.0019820556 0.0038204358 -0.0028430985 0.00350909 -0.002260503 0.0022798472 -0.0033943146 7.620645e-05 -0.0036777114 -0.0021455397 -0.00019174564 0.0013127911 -0.0012832349 -0.0014847282 0.0030531096 0.0020631088 -0.0020240585 0.0026740378 0.0037686252 -0.0033578603 0.0005696346 -0.0024736268 0.0029964764 0.0034194337 -0.0029280244 0.0031019275 0.003241226 -0.0021094223 0.003821152 -0.0005095514 -0.0028655562 -0.00084951305 -0.002868197 -0.0034263977 -0.0013073091 0.00057569257 0.002580039 -0.0019568587 -0.0014590377 -0.003472805 -0.0033964391 0.001512357 0.0035590234 0.002343772 -0.00021498317 0.0038418407 0.0034482656 -0.0013514587 0.0020962069 0.00091827556 -0.0018070884 -0.0026800446 1.9806022e-05 0.00021831473 0.0021668538 0.0002722088 0.0037715635 0.0019739785 0.002764676 0.0037833762 0.0007753508 -0.0031360737 -0.0005119199 -0.0016382921 0.0003729439 -0.002542515 -0.0026872908 0.0031363934 0.0021194208 -0.0013361858 0.002236469 -0.0024160303 0.0027868932 -0.0034791285 0.0021864888 0.001518981 0.0033200672 -0.0038721992 0.0016376425 -0.0005126927 0.002730502 -0.0019587146 0.001548839 -0.0032611398 -0.0012732456 -0.000693206 -0.0014773647 -0.002357773 -0.0038842063 -0.0014023561 -0.0022241601 -0.000991485 0.003082108 0.0015768247 0.0032303277 -0.0038862163 -0.002452861 0.0018979027 0.0024639983 0.000656783 -0.00097108097 -0.0009784772 -0.003620696 0.003541435 -0.0003520794
37|24 0.0033666554 0.003478815 -0.00028847682 0.0036265105 -0.00046412714 -0.0034689603 -0.001845584 -0.002012313 -0.0029875366 -0.0032157074 0.0022054208 -0.001070484 -0.0033788257 0.0029802069 -0.0036375003 0.0032789009 0.003059167 4.110336e-06 0.0014312254 0.0012547604 -0.0022658869 -0.003537791 0.001019965 -0.0020854573 -0.0009227375 0.002983698 -0.0013449636 -0.0028616833 0.003329398 1.28080155e-05 0.00093714916 0.003167961 -0.002918402 0.00046080758 0.0037617758 -0.0017789592 4.604951e-05 0.0027957647 -0.0013160994 0.0013244244 -0.00085382396 0.0017491005 0.0029630768 -0.0027309975 -0.003213029 0.0038474617 -0.0012720986 0.0023779469 -0.0004315769 0.00044898415 0.0012531043 -0.00076366845 -0.0015069224 -0.00279711 -0.0015569796 -0.00035412205 -0.0011266685 0.003532118 -0.0025036982 0.0026205075 0.003723372 0.0036958798 0.0029534425 0.0034592045 0.0035221595 -0.0034015642 0.0014765409 -0.0010483155 0.00035612826 0.00076378166 -0.0022074918 3.5165383e-05 0.00068433356 0.0023406679 0.001218912 0.0016748392 -0.001834088 0.0035540026 0.0022405533 -0.0015809728 0.0005311999 -0.00022515348 0.0028562953 0.0006021809 -0.00019327427 -0.00063208764 -0.0026473338 -0.0031416584 0.0013617076 0.0030945241 -0.0021349913 -0.001506424 -0.0021685543 0.0031816373 0.0008222217 0.0018639136 0.0028494995 -0.0016311792 0.002484716 0.0010561445 0.0014982948 -0.0006569264 -0.0026763305 -0.003209392 0.0034290494 -0.0006333687 0.0032369902 -0.0033809624 -0.0014874935 -0.0031669755 -0.00063770707 -0.0012835969 -0.0031566117 0.0020321119 0.003172479 -0.0014878912 -0.0022060587 0.0022849299 0.0024057697 0.0015858193 -0.0030169853 0.0018420367 -0.0020014609 -0.0034712176 -0.003841906 0.0033690967 -0.0013073866 0.002067341
37|7 0.0023190656 -0.0034181853 0.0013957663 -0.0011063142 0.0016519229 -0.0028299065 0.0032358023 -0.003222988 -0.0016909229 0.0017396236 -0.0023385722 -0.0009673277 0.0030478246 -0.00070165517 -0.0027044641 0.002198904 0.0035024113 -0.0034132295 0.00089633453 -0.002351816 -0.0027123298 0.0017850549 0.0021300225 -0.00041336383 0.003366098 -0.0010648693 0.0027006103 0.0017835876 0.002559834 0.0028794839 0.0021272546 0.0038274657 0.0025786883 -5.5930836e-05 0.0032992575 0.0037886626 0.003765856 0.0025908353 -0.0008187198 0.0033444203 -0.0028614847 -0.0019640648 0.0035759942 -0.0039017405 0.00121254 -0.00018587233 -0.0005959587 0.0022891446 0.0015319756 -0.0031162333 0.0035789919 0.00046397763 -0.0020277738 0.0038455676 -0.0036808029 0.0028219826 0.0038035924 0.0012077028 -0.00062034564 -0.002723989 0.0021126047 0.0028855524 -7.4740994e-05 0.00028077443 -0.0003496092 0.0013959178 -0.0026878347 -0.0018812779 0.00020861546 0.0001775982 -0.0013477547 -0.0039143725 0.000769776 0.0033451675 -0.001332591 -0.0022663677 0.0022184867 0.00059478276 -0.0027771806 -0.0027073964 -0.0031699669 -0.0015834051 -0.0016501462 0.0029834819 -0.0026366771 0.0024391094 -0.0037897578 0.001439351 0.003810125 0.0024760466 0.00018035375 0.0034716497 0.00035965358 -7.9092955e-05 -0.0002998624 0.0022027192 -0.0005551575 -0.0020054176 0.0012620904 -0.0034171878 -0.00122912 -0.0021401662 0.0007612043 -0.0016654398 -0.0030846829 -0.0017827592 -0.0016988217 0.0014426905 0.00017243468 -0.0024965913 0.0019649449 0.0001456184 0.0014342166 0.0030044634 0.00040005494 -0.0027264962 0.0033823117 0.0026248745 0.00026367756 0.0028055666 -0.00041878698 0.0023918147 0.0022717386 0.0036532613 -0.00060721673 0.0011716598 0.0029121062 0.003751342
37|27 0.0030986695 -0.0013181164 0.0032605769 0.0022533115 0.00040845628 0.0011404778 0.0021172129 -0.002329435 -0.0015006477 -0.0032504376 -0.0018581585 -0.0030992313 0.0023554862 0.0012253675 0.0003231876 0.0014995781 0.0024138682 0.0028098167 0.0015321586 -0.0031996162 0.0034562752 0.0021427397 0.00030791556 -0.0007762701 -0.0018097063 0.002296937 0.0028805835 -0.0012364619 0.000111102796 -0.0032882972 0.0027987077 -0.0013064198 0.0016451621 0.001196427 0.00040528984 0.0027629207 0.00070420647 0.0027080243 0.00018374022 0.0027367084 0.0029510497 -0.003119199 0.0020747364 0.0009011501 -0.003642281 0.0011553129 0.0017577702 0.0010538673 0.0035847225 4.0040402e-05 0.00022769348 0.0037361118 0.0024446435 0.0037288878 -0.0030486055 0.0025405812 0.003114514 -0.0028608034 0.0004901581 0.00031092373 -0.0007499189 0.0032135535 0.0018641647 -0.0013525572 0.0023103736 -0.0017030927 -0.00072496274 -0.0032814823 -0.0007196832 -0.0010948608 0.00042726795 -0.0035853246 -0.0024605363 0.0010889793 0.0010376472 0.0028719672 -0.0023068544 -0.0023386527 0.0017131653 0.0038535453 -0.003135432 0.0011702585 -0.001580774 -0.0032439001 0.001667149 0.0018363068 -0.0018721375 0.0015560762 -0.0031081745 -0.00057811243 0.002665636 -0.0026439298 -0.003261534 0.0002461158 -0.0018070615 0.0019870785 -0.0017480669 0.0034846056 0.0030847436 0.0032292425 0.001194268 4.1400675e-05 0.00041162714 0.0016123556 -0.00084310427 0.0034573032 0.0037136257 -0.00023194762 0.0028634518 -0.0025212101 0.0002694379 -0.0010585276 0.0020167532 0.0014350147 0.0010328814 0.0011482522 0.0026682753 -0.0038598054 -0.0021905052 0.0012615004 -0.00070734386 0.003587638 0.0005499819 0.001714825 -0.0010078627 0.0028344546 0.0023409468 0.0014608911
18|37.18.37.31 0.0016133909 0.0013583585 0.0014737967 -0.0029942957 0.00022366669 -0.0005902385 -0.0004146519 0.002163822 -0.0017359336 -0.002503221 -0.0013975992 -0.0034242207 -0.0016444502 0.0032740263 0.00085773016 0.002354219 0.0034818486 -0.0034028091 -0.0018524532 0.0034758914 0.00103984 0.0002853348 -0.0038051263 0.0016240469 -0.0019450752 -0.0030905295 0.0006540432 0.0006670678 -0.00031914972 -0.0036310244 -0.0029561897 -0.0024757173 -0.0008303661 -0.0020458978 0.0008294808 -0.0008942348 -0.002965205 0.0002722494 -0.0036141465 -0.00045849674 0.001507781 0.0032727295 0.00078167795 -0.000108538086 -0.0026348685 0.0023755718 0.00079100515 0.0013937438 0.0036065234 -9.638636e-05 0.0006848187 -0.000324404 -0.0007586773 -0.0033371267 -0.0026221173 0.0029776723 0.0007096089 0.0009557632 -0.002454891 -0.0035245745 -0.00010494991 0.0016136024 -0.0030351565 0.0031963198 -0.0033446513 0.0018040307 0.0021020067 0.000112800415 0.0025664775 0.0014362029 0.0023326515 -7.57672e-05 -0.0015166658 -0.0024023433 0.0024821726 0.0006860008 0.001539526 -0.0012167768 -0.0017132672 0.00027951557 -0.0018819674 -0.0018017377 0.0022433733 8.907492e-05 -0.0026159626 -3.6529595e-06 0.0017942794 -0.0027654024 -0.0010209663 0.0037355872 -0.0017378604 -0.00045466272 0.0012049031 -0.0003853638 0.0012360357 0.0027180628 0.0017948659 -0.0017930242 -0.00080210867 -0.002890329 0.0017721389 -0.0013337707 -0.0037991726 0.000519917 -0.0023079517 -0.0025086997 -0.00058029394 -0.0019326811 0.0017657883 -0.0032066454 0.00094094983 0.0033987723 -0.0021392799 -0.002317567 0.0015257656 -0.0025519298 -0.0017990858 0.00087176764 0.00084584777 0.0013780608 -0.0009754904 -0.0002859674 0.00055114186 -0.0036085409 0.0019934145 0.00075292523 0.00023233471 -0.001968961
18|37.22 0.0028445646 -0.00097424537 -0.0037110895 -0.0009742099 -0.00017489406 -0.0037612815 -0.0033626044 0.0019239626 -0.0022059118 3.417887e-05 0.0029519028 0.0033208565 -1.861374e-05 -0.0011106847 -0.0017373905 0.0011897377 0.0015057398 -0.000105396175 -0.0015996661 -0.0015017381 0.0016165813 -0.0015442795 -0.0009887523 0.001506283 -0.002812784 0.00032728794 -0.0005906134 0.0020919212 -0.003282043 0.00092749344 0.00087001466 0.0027949407 0.0003208889 -0.0032786918 -0.00046270623 -0.0016904162 -0.002980739 0.0034642795 -0.0009912611 0.0032569678 -0.00028237223 -0.0024786075 -0.00019012518 0.0027302909 0.00067305187 -0.00069442496 0.0009387334 -0.0019797941 0.00010384428 -0.0007963989 -0.0038647156 0.00092560926 -0.00299885 -0.0016452061 -0.0035072681 0.0005207418 -0.003594582 -0.00063679204 0.0027111857 -0.0014868992 -0.0027169113 -0.00374735 -0.002720056 -0.0030046608 -0.0010499012 0.0031567914 0.0006999933 0.0038129569 -0.0010680028 0.0034272706 0.0016453083 -0.0019605553 0.00246573 0.0018010795 0.000112379406 0.0011469861 -0.00037225417 0.0039021594 -0.0035541817 0.003774627 -0.0025433644 -0.0005564923 0.0016328129 -0.0010089542 -0.0037472025 -8.50057e-05 0.0037865178 -0.0011155936 -0.0016296714 -4.0081077e-06 0.001071964 -0.0011876556 0.00023373688 -0.0011420691 -0.002997229 0.002851256 0.0008825763 0.00012423516 0.00021627122 0.00045275333 0.001468857 -0.00060294766 0.00059509656 0.0012319937 -0.0026448858 0.0007289432 0.0016630758 0.0011372791 0.002060249 -0.003830819 -0.003715194 0.0011684747 0.00070698507 0.003825978 0.003614724 0.0001406288 0.0035784517 0.0022933995 -0.003637119 0.0036842804 -0.0026080578 -0.0011264326 0.0024737357 0.0006083298 0.001143559 0.0022819263 -0.002985351 -0.002703262
36|24 -0.00041877484 -0.0024139788 -0.0022326056 -0.0014406582 0.0012934674 -0.0021483153 0.00066811044 0.0032601925 -0.0034189832 -0.0030810656 -0.0012915661 0.0025276132 -0.0015834351 -0.0014426123 0.0001540714 -0.0012870763 -0.00040207984 -0.0010544016 -0.0004203223 0.0028462952 -0.00374478 -0.0027344632 -0.0021457884 -0.0017389037 -0.0019568556 0.0027394725 -0.0010375762 0.0027513483 -0.0034657333 0.0026904552 0.0014916675 -0.0025155353 -0.0012740727 -0.0037205056 0.0034830587 -0.0038675976 -0.001241381 -0.00019875953 -0.0031659603 -0.002636378 0.00038311156 -0.001080883 0.0020118784 -0.00029619393 0.0019806167 -0.0005426045 -0.00047432864 -0.00040596572 -0.00034195377 0.0021816478 -0.0020166414 0.0020703154 -0.0012821178 0.003369336 -0.002220326 0.0022329704 -0.001611567 0.0022265154 -0.002538635 -0.0024796282 0.0025904137 0.0016692524 0.0031271041 -0.0020954448 -0.0027000522 0.0034437038 -0.0021772254 -0.0011516876 -0.002297644 -0.0003329679 -0.00011002164 0.0023658175 -0.0007380395 0.0036934956 0.00038537438 0.0036046512 0.0012437364 0.003153923 0.0012170969 0.0022158276 0.0029949 -0.0033293525 -0.0019548873 -0.0007327256 -0.0008195568 -0.0004461147 0.0012039552 0.0029259785 0.003363088 0.0036173423 -0.0029910712 0.00014045865 0.0023554675 0.0015493328 -0.001740704 -0.002880611 0.0022823105 0.0037744076 -0.0034561192 -0.0017148284 -4.473689e-05 -0.003670033 0.00018693786 0.00024634745 9.691946e-06 0.002548494 0.0031464668 -0.002086732 -0.00386492 -0.0019516186 0.0037181396 -0.0038591109 -0.0028903978 -0.003308373 0.0031930504 -0.0030510656 0.0035105243 -0.00095049024 0.002647686 -0.0022140488 -0.0005519535 -0.00018815757 0.0029617595 0.0030311719 0.003701686 -0.0030184914 0.0013268262 -0.00088777934
36|18 0.003060872 -0.0027131008 -0.002764282 -0.0013759647 2.4193523e-05 -0.001791739 0.00056755147 -0.0010747383 0.00274579 0.002177024 0.0028325727 0.0027720141 -0.002235862 -0.00057140074 -0.002369323 -0.0037750949 0.0011269756 -2.3728144e-06 0.003450471 -0.0012926805 -0.0036135835 0.00012951344 -0.00038205413 0.0024377238 0.003213004 -0.0018753014 -0.0034302035 -0.0030093705 0.0022180772 0.0014656696 0.0017101213 0.0023972543 0.003024028 -0.0005205707 -0.003131402 -0.0038048106 -0.0014289272 0.0029264397 -0.0023273097 -0.0009407349 0.00032275546 0.002901536 0.0026714576 -0.0024103774 -0.0010940136 0.0016056492 -0.0022876423 0.0020939135 -3.1721396e-05 0.0035790408 0.00011491546 0.0011835429 -0.0038115103 -0.00012363454 0.00015430668 0.002892008 -0.0001671047 0.0010673755 -0.0028992044 0.0030581178 -0.0010551362 0.002249883 -0.0013733597 0.0035062814 -0.0009428227 -0.00022502223 -0.0022814577 0.0024435956 -0.0012341994 -0.0037286598 0.00021941752 -0.003191191 -0.00018758656 -0.0019950608 -0.0034623137 -0.0037817576 -0.0024925247 0.0030584396 -0.0014041713 0.000536989 -0.00044520196 -0.00025458485 0.0017456302 0.0025006959 0.0003439701 -0.0024578332 0.0012273552 0.0035222415 -0.0015483105 -0.0004922045 0.0036856385 0.0033261855 0.0012477373 -0.001463361 -0.0031879465 -0.0028970214 -0.0030408322 0.003227994 -0.0017485091 -0.0038270357 0.001924958 0.0016949757 -0.00082647824 -0.0018524103 -0.0031092698 0.0005363884 -0.0024482603 0.0019148651 0.00033634593 -0.002840077 0.0034687358 0.0038512978 0.0009289726 0.003422142 0.0038295537 0.003001426 -0.0013505404 -0.0012709849 -0.0024849514 -0.0024572473 -0.0024160263 -0.0003509321 0.0034764835 -0.0032761453 0.001648592 0.0029477905 0.0013848868 0.0026590344
18|37 -0.0025988077 -0.0009025976 -0.001187693 0.003502473 -0.00282004 0.0030444157 -0.00134991 -0.00012856099 -0.003503739 -0.0019494274 -0.0027381552 -0.0018555225 0.002263411 -0.0019528453 0.0017539874 -0.0027598268 -0.0011364418 -0.0038594385 0.0029906475 0.002985857 -0.0014520129 0.0012282707 -0.00052084686 -0.0030882626 -0.000771148 0.0033075712 -0.0030771273 0.0028009617 0.003477539 0.0007823305 -0.0021341208 -0.0028895745 0.0014241425 0.0002320205 0.0020646972 -0.0014851327 -0.0028871123 0.0003885287 0.00019182327 0.0021105933 -0.0013340907 0.001286879 -0.0038027784 0.0019270765 0.0007439528 0.003076414 -0.0026350846 5.017944e-05 -0.0004198861 -0.00078119466 -0.00067469804 0.00075574836 -0.0025603515 -0.0006143167 0.0022300521 -0.00047314583 -0.0012288685 -0.0011998819 0.0018728514 0.0006168315 0.003320329 -0.0027732677 -0.0031363799 0.0010825981 -0.002539987 0.002649026 0.0021094617 0.002703723 -0.0017461383 0.0011375168 0.0031807704 -0.0023300056 0.0013371736 -0.0009451867 -0.0031526994 0.0035433783 -0.0002524788 0.0021741719 -0.003097896 -0.0026037805 0.00082299195 -0.0020396055 0.0021113737 -0.0003906456 0.0015278079 -0.00055938767 -0.002287501 8.732212e-05 0.0037109675 -0.00070426025 0.0013509142 -0.0027508303 0.003803066 -0.00038941743 -0.0037900233 0.0023108092 -0.0029725023 0.0024883458 0.0038616112 0.00122546 -0.0018158673 -0.0037753885 -0.0019639253 -0.0003535917 0.0029743693 0.0023897812 0.0025237012 -0.0027748165 0.0039052947 0.0030152441 0.0035662875 0.0020582245 0.00019925491 -0.00022778536 0.0036712883 -0.00073972455 0.0036634747 0.0012961278 0.001924079 -0.00034900583 -0.0013990352 -0.001255726 0.0024647343 -0.003005903 0.002110806 -0.003337827 -0.0013382604 -0.0013237629
18|37.18.37.23 0.0027421236 0.0012653418 -0.00066681637 -0.003642173 -0.0020793811 0.0005666193 -0.00025985486 5.7592162e-05 -0.0031201195 0.001264613 0.0035416929 0.0018523276 0.003264545 0.0032239107 0.0011979173 -0.00054905866 0.0028086551 0.003344427 -0.0014876372 0.0019443579 -0.0037410622 -0.002868734 -0.003712602 0.0022242593 0.0010968792 0.0030884198 -0.00020332068 -0.0002199362 -0.00034237036 -0.0026249485 -0.0014691937 0.0037344296 -0.0025391532 -0.0016588778 -0.00064051035 -0.003327885 0.002577842 0.0023413775 0.0029939096 0.0022537594 0.00017698425 0.00034102998 0.00062264816 -0.0038023088 0.0013524212 0.0029741384 0.002723356 0.0026646075 0.001721058 -0.0028751546 -0.002072376 -0.0024728873 -0.00029485562 -0.0018706006 -0.0011132006 0.0028751614 0.0038121168 -0.0022215217 0.0034915346 -0.0015725103 0.002200699 0.0024427564 -0.003913193 0.0024645675 0.0028036176 0.0010472352 -0.000105248386 -0.00010493891 0.0022848006 0.0009138647 -0.0031019985 -0.0010480031 -8.027418e-05 -0.0027017167 0.0029829491 -0.0015834399 -0.0037483235 -0.00047959224 0.00020845224 -0.00069843075 -0.0027209853 -0.0031505506 0.0019108498 0.0038034234 -0.0023891595 0.0013042392 -0.0013581789 -0.00016779969 0.001945816 0.0005258601 0.00023709005 0.0030988143 0.0035627712 -0.0022205198 0.0031974853 0.0028168913 -0.0021937927 0.0015445634 0.00298015 -0.00060559553 -0.00337363 -0.0031731958 -0.0013111565 -0.0027831034 -0.0022902272 0.0019316502 -0.0016629574 0.00265262 0.003139555 -0.0031559558 -0.0034960774 -0.0022074468 0.0038898338 -0.0037417319 -0.0032339771 0.0012996688 0.0012089532 0.0031580322 0.00018164713 0.0006103238 -0.0015323788 0.0021730396 -0.003164842 0.0036862872 -0.002158282 -0.0022327753 0.0020123287 0.0035054067
37|18 0.0023750735 0.00089373376 -0.0028681702 -0.002604745 0.0019542205 0.0022587993 -0.0018252346 0.001975172 -0.00093311886 -0.0024465076 -0.0034081344 -0.0029153938 0.0034772835 -0.0015527754 -0.0030801452 -0.0014041463 0.0009869947 -0.0038508005 -0.0038299176 -0.0038349237 -0.001154497 -0.0034311023 -0.003255898 0.0023231015 0.0026749766 -0.0019501488 0.00021460344 0.0015383007 -0.0019333373 0.00247185 -0.00051478914 0.0034156556 0.0008095648 -0.0037912359 0.0021465681 -0.0029292048 0.002151317 0.0005526598 -0.0033126366 0.0005718109 -0.0013885578 -0.0014629544 -0.0021737514 0.0016742502 -0.0032905878 0.0029390128 -0.0028282262 -0.0026627304 -0.0021361217 -0.0019339285 -0.00036447938 -0.00032633246 -0.00075038435 -0.0003453772 -0.0038563812 -0.00071307743 0.0015460805 -0.00051009975 0.0029579778 -0.0005268509 -0.0020013656 -0.00081247085 -0.0023882105 -0.0017829934 0.002669526 -0.0029095672 -0.0036049301 -0.0002370533 0.0023266405 -0.0008689099 -0.0030324056 -0.00251288 -0.00018909352 0.00331382 0.0034996618 -0.000920586 0.0014561092 -0.0008902653 0.0021666768 -0.0016670697 0.0031428812 -0.0016775412 -0.0032337813 -0.0007305908 0.0009019254 -0.0011093 0.00038261156 -0.0030402653 0.0023344215 0.0005134854 5.507506e-05 -0.00040311972 0.00095269777 0.0011320437 -0.0018501563 0.00075018045 -0.0012627041 -0.0029457237 0.0037358531 0.0029664263 -0.0037219457 -0.0010726356 -0.002944282 0.0036503254 0.0023837483 -0.002446196 -0.0009544054 0.00021719065 -0.0018400649 0.0028566609 5.4539807e-05 0.0035767525 -0.00080938364 0.0034805834 0.0008814896 0.0015447282 0.0003918703 -0.0036459898 -0.003374743 -0.002348868 -0.0036706275 0.002625484 -0.0019770248 -0.0020765185 -0.0015962519 0.0001467205 0.0025038568 -0.00041889504
37|16 0.0025881487 -0.003634643 0.0015431235 -0.003650187 0.0014695391 0.0029739433 0.0009592415 -0.0020133548 -0.00011707854 0.0024113464 -0.0017695847 -0.0031195986 -0.0031148144 0.0027323025 0.0014952179 0.00013609014 -0.00019063588 0.0029110825 0.0013171274 0.00047703693 0.0028468422 -0.003524676 0.0014481599 0.002184946 -0.0018329977 -0.0019537003 -0.003735826 -0.00049627904 -0.0019861972 -0.0020354332 -0.0014038344 0.0019724467 -0.0012081119 0.0029666873 0.0022470606 6.558811e-06 0.0009416055 0.0012742225 -0.0006078909 -0.0034770356 0.0013916211 -0.0006336047 0.0013322077 0.0003087584 -0.0013951957 -0.0033896067 0.0039025692 -0.0022409079 -0.0018415169 0.00017736577 -0.0012685368 -0.002165228 0.0021107744 -0.00033925078 0.0013075549 -0.0027366213 -0.0026951008 -0.0034062732 -0.0022461058 0.0017055271 0.0039172303 0.000343196 0.0024478026 0.0021507451 -0.0029026093 0.00041731374 0.003025406 0.0020337168 -0.002507334 -0.003217236 -8.198119e-05 -0.0025836874 -0.0025913105 0.0009399581 0.0002702335 -0.001959364 0.0024754643 0.0010344748 0.0032187318 -0.0022397575 0.0021306754 -0.00042758524 -0.0037655062 0.00091736764 -0.003160773 -0.0036577878 -0.0029916423 0.002642293 -0.0008004791 -0.0021836534 -0.0009044855 -0.00036591652 -0.003179052 -0.0035759008 -0.0002813603 0.0033722625 -0.0012500493 0.0012287783 0.00070304255 0.0029276449 -0.0015915765 -0.0023015623 0.00032912265 0.0037632184 0.0029228188 -0.003823763 0.0036980086 0.0028176173 -0.0024512187 -7.7514975e-05 -0.002182911 0.0031514578 0.0028171851 0.0023431166 -0.0025280942 0.0035476536 -0.0028754969 -0.0037566235 0.0010817873 -0.0009539444 0.00018184843 0.0018877075 0.00087053044 -0.0009802423 -0.0033976266 -0.00047487672 0.0017702398 -0.0014301798
18|37.5 0.0009294328 -0.0031608155 -0.0035335135 0.0035361082 -0.0028269724 1.2618593e-05 0.0013098184 0.002954277 0.0003398066 0.000767816 -0.00070557365 -0.0031506734 0.0034457876 -1.5944926e-05 -0.0014438749 0.003595198 0.0012874871 -0.0037020836 -0.0017031161 0.0015199669 -0.0019152085 0.0008127808 0.0014716558 -0.0012431884 -0.0024902385 -0.0035601966 0.0013782546 0.003392318 -0.0014874213 -0.00080502825 -0.0025560143 -0.0017083276 -0.0016691295 -0.0015924216 -0.002157921 -0.001209874 0.0006415567 -0.00040057904 0.0033435172 -0.0039068675 0.0011363195 0.0032381897 -0.00268318 0.0032674777 -0.002520852 0.0022405314 0.0034854757 -0.0016314785 0.00076948357 -0.00034811776 -0.0020194259 0.0026346422 -0.0020439632 0.002489754 -0.0036975313 0.0035742365 0.0017635344 0.00053547445 0.0035723138 -0.0016886881 -0.0030812023 -0.002520596 -0.0025634228 0.0010519922 -3.7825306e-05 -0.0027558163 0.0012418918 -0.0035640092 0.0037355581 0.0019413929 -0.003313889 0.0037022992 -0.00028858206 0.0023690492 0.003104016 -0.0008855725 0.0014865311 -0.0009142757 -0.0011937814 0.0015852695 -0.0012194043 0.00021710634 0.0019072545 0.0030985489 0.0031158552 -0.0014586439 -0.0027374413 -0.0030659589 0.0038858505 0.003293071 -0.0035012355 0.0010877751 -0.0021986691 -0.00024978764 0.0022211312 0.0014768977 0.0018011722 -0.0007719409 0.00020097946 0.0004546094 0.0004514539 0.0010321817 -0.0029676058 -0.0025567634 0.0013048232 0.002156656 -0.0015850017 0.002481019 -0.0012038703 -0.00069963164 -0.00017714805 -0.0003667786 9.069012e-05 1.4953566e-05 -0.0003094502 0.0032335818 0.0011287031 -0.0024458554 0.0013640767 -0.0028595456 -0.0023731126 0.0023958723 0.0017646017 0.0014828395 0.00169303 0.0006082003 0.0017355261 -0.001403338
37|30 0.0026846952 -0.0022197168 0.0019366423 -0.000256361 0.0021064058 0.0014896169 -0.0021385832 -0.0022925197 -0.0026028447 -0.0031214347 -0.0016530034 -0.003792942 -0.003074404 0.003430206 0.0037113142 0.0014534094 0.0003869187 0.0011912991 -0.00027056626 0.0021786836 0.0010780839 -0.00036203445 0.0012980667 -0.0036158224 -0.0030248754 0.00016907263 0.002155267 0.0037101184 -0.0019815217 0.0011346304 -0.003797688 0.0025358784 -0.0031598369 0.00063446944 0.0013860416 -0.0019876775 0.0019500551 0.0032266446 -0.0017653547 5.2570967e-06 0.0024489893 0.0022057048 0.0005475209 -0.0015664579 0.0009366374 0.0018649466 -0.002660046 0.0015552226 -0.0031336516 0.00043963004 0.0002811466 -0.00040164596 0.002218207 -0.0035185318 0.001232068 -0.00079137087 0.003391389 -0.0006258222 -0.0007660811 -0.0006960973 0.0011186699 0.003783996 0.003775606 -0.0013007477 -0.003652552 -0.0035530447 -0.0010097492 0.0014284751 0.0031480705 0.0010064811 0.0027680502 -0.0028615058 -0.0036429465 0.0035739138 0.002933515 0.0031355652 0.0012637994 -0.003008124 -0.002719147 0.00021800234 0.0028843535 0.0023620655 0.0017198699 0.00012565247 0.0030430402 -0.00028867516 -0.002818504 0.0015873365 0.0032262811 -0.0005092849 0.00014298952 -0.0016943034 -0.003767319 4.319881e-05 -0.00016069124 -0.00076164433 -0.0012804271 0.0033690478 0.0011916821 0.0020693878 0.0028192292 0.001649769 -0.00057251944 -0.002068543 -0.0014244035 0.003389719 -0.0026225115 0.00026556663 0.00041762227 0.00019082136 0.00108678 0.002436453 0.0013299665 -0.00043511446 0.0007486705 0.00031673923 -0.0016513962 -0.003328062 0.0021946318 -0.0023658522 0.0016569953 0.0021379017 -0.0022366142 0.0016530185 -0.00053095317 0.0038049675 -0.0031160396 -0.00087665085
18|37.11 -1.939533e-05 -0.002051893 0.0015981253 0.0022305364 -0.0010691698 -0.0018913089 0.0037955395 0.00046948777 -0.001262151 -0.0016048809 -0.0014240454 -0.0027776342 0.0009878422 -0.003206323 0.001646865 0.0027763373 0.0016036753 -0.0007509169 -0.003599761 -0.00063413207 0.0030967623 -0.0022530635 0.0017703723 0.0008829449 0.0036172797 -0.0033582284 -0.0031694071 0.002152241 0.00200521 -0.00018953519 0.002493406 -0.0038959412 0.0014539408 0.0020853525 0.0015482366 0.0006051864 -0.00010146788 -0.0017654969 0.0021913482 0.0017926733 -0.0028434012 0.0033496665 -0.0009283626 -0.0037063635 0.0025252937 -0.0037623735 0.003258563 0.000113628805 0.00084235054 0.0014282985 -0.0018482417 0.0038226151 -0.0001380123 -0.0009968672 -0.0001576768 -0.002393278 -0.0038139336 -0.0029378198 0.000632324 0.00056028453 0.0006362834 0.0021822646 -0.0020335773 0.001186381 0.0020230543 0.0024706465 -0.0007575484 0.000314034 0.001230552 -0.00026944853 0.001489379 -0.00019249841 -0.0023673186 -0.00233156 0.0035311908 0.0014935201 -0.0020753308 -0.0031952364 0.002946245 -0.001179628 0.0010610325 -0.0023418672 -0.0029713882 -0.0037088634 0.0033023474 0.0025832588 -0.0026658934 0.0021712414 -0.0030700127 -0.0011799828 0.0011246832 -0.0018069863 -0.0005927301 -0.0027895826 0.0006926462 -0.0023924573 -0.00020478448 -0.0012148824 -0.00044812885 -0.0022738862 -0.00033047367 0.0035139313 0.0013932001 0.0023443606 0.0032876572 -0.0011526245 0.0006815621 -0.0035668563 0.0022285627 -0.0019375796 -0.0034567933 -0.00026737375 -0.0037483836 0.0010826554 -0.00031899457 0.00323045 0.0019765212 8.9321715e-05 0.0033091514 -0.00032325476 0.0018808262 -0.00025392754 -0.0033879874 0.002214259 0.00344218 -0.00027740846 -0.0009478021 0.001861003
37|19 0.0016720236 0.00086714677 -0.0027908587 -0.0015573374 0.00046334468 0.0024560269 -0.002880658 0.0027710905 -0.001948805 -0.0010595439 -0.0021250008 0.0002980479 -0.00040630845 -0.0003445572 -0.0014142838 0.0015551253 -0.0029567764 0.00017156368 -0.0019362022 0.0012591741 -0.0010027757 -0.0014690593 0.0028875675 0.0013712359 0.0021583098 0.00092447887 -0.0031315775 0.0038156067 0.002842793 0.0010177061 0.0028449828 0.00012192383 0.00024489776 0.0038721766 -0.0035032786 -0.0027331382 -0.0011008938 -0.0022953663 0.0023541108 0.0020327638 -0.003091446 -0.0025878507 0.0026409947 -0.003927535 -0.00081406813 -0.0013735798 -0.0029615576 -0.0019738409 -7.912732e-05 0.0023736656 0.0008535256 -0.0030857513 -0.003768551 -0.0028681664 0.00092869526 -0.0013769274 0.0037893518 -0.003418056 0.0021532779 0.003439454 -0.002045517 0.0038040357 0.0035023412 0.0011051535 -0.0029304381 0.0021376936 0.0026942915 0.003489509 -0.0024144347 0.0037756527 -0.0017459601 -0.00033914502 -0.0010866761 -0.0024670018 0.0007371309 -0.00093242934 -0.0011187465 -0.0034390353 0.00072084 -0.0028707387 -0.0010150069 0.0013958558 -0.0014703603 0.001985715 0.0037266319 -0.00058085413 -0.0022635527 0.0019477151 0.0027269986 0.00093053654 0.0025015706 0.0016318026 0.0029961225 0.00023597754 0.00079038023 1.786405e-05 0.0028243389 0.0019989677 0.0036973092 -0.001528405 -0.0013976912 0.003388428 -0.0025693884 -0.0029554383 -0.0027615172 -0.0035556678 -0.0015320887 -0.0008992866 -0.00085093157 -0.00061849126 0.0011103234 0.002330057 -0.001799999 0.00079923606 0.0021955604 0.0023768696 0.0033834793 -0.0021334107 0.0019922142 -0.0006931655 -0.0023413002 0.0014721324 -0.0025201468 -0.00079319294 0.0028488687 0.0038957186 0.0034302666 -0.0022842046
34|18.6 -0.003693497 -0.00030871303 -0.0029394529 0.0036590863 -0.002722277 -0.0037493736 0.0016750798 0.0009128133 -0.002189504 -0.0005106015 -0.0012859502 -0.0022533818 0.0030089777 -0.0034690949 -0.002824517 0.00082751823 -0.00034924652 -0.0020599503 0.00028789934 -0.0014278314 0.0012858819 8.3736646e-05 0.0035510077 0.0006307684 -7.7031e-05 -0.00042282004 -0.0011587262 0.002941853 0.0025306 0.00043506688 -0.003850379 -0.003203284 -0.0028435611 0.0018066135 0.003523576 0.002294274 0.00081152195 0.0018510715 0.00351789 0.001035673 -0.0036516485 -0.0024620406 0.0031597898 0.0014447479 4.5359884e-05 0.0013446994 3.2236876e-05 -0.0013813518 0.0010902222 -0.0016301841 -0.0029636743 0.00024181376 0.0025200155 0.0011506663 0.00089073455 0.002807995 0.0011668138 -0.0008887959 0.003120494 -0.0013832784 -0.0031599212 0.00024546767 -0.0038732428 1.9266645e-05 0.0025538476 -0.0038312564 0.0021123586 0.0030392657 0.00062399154 0.0032184655 0.0033206837 -0.0007946688 -3.5113557e-05 0.0018384398 0.0012029217 -0.003721039 -0.00048012205 -0.0013767036 0.0022422452 0.00072616205 0.0017158655 0.0008349584 -0.0016919161 0.0025620316 -0.003823325 -0.0002583465 0.0013965784 -0.0021798254 0.0037480101 -0.003085798 -0.0018744325 -0.00084130646 -0.00084338617 -0.00053362444 -0.0010642518 -0.0035491833 -0.003436003 0.001735158 0.003117276 -0.00020320131 -0.0024027948 -0.0013181452 0.0004844332 -0.0006285314 0.0025631664 -0.0023874857 -0.0021108189 9.151201e-05 0.0021192809 -0.001666899 0.0016015342 -0.003417816 1.5237797e-05 -0.002237593 -0.00086793094 0.00025295338 0.0025065572 0.0017146867 0.00057381403 -0.0019294531 -0.00069909845 -0.0036382503 -0.00217728 -0.0031748645 -0.003884697 0.0016754433 0.0010091228 0.0011147843
26|23 0.0014152626 -0.00214104 0.00086478906 -0.0023904345 0.0036381097 -0.0037710732 0.00022604821 -0.001994996 0.0017741505 -0.0007408965 0.0019683775 0.0020735436 0.0006728499 -0.0024431562 -0.0020666923 -0.003212533 0.0007703358 0.0008068472 -0.0024792068 0.0006320663 0.00057229877 -0.0016718227 -0.0034961347 0.0022551776 0.0027078171 -0.00086748874 0.0024656993 -0.002903242 -0.0036742303 0.0036623364 -0.0020556701 0.00013591387 0.0006864006 -0.0032518238 0.0035539088 -0.0037906405 0.00088230096 0.0022669479 -0.0027811914 -0.002496654 0.0005041534 -0.002394755 -0.0009455062 0.0003977047 0.0024601868 -0.0010480594 -0.0037657237 0.0025269962 -0.0007069999 0.00045897963 -0.0026638804 0.0008759127 0.002525068 0.003052683 -0.0009262124 -0.0019596587 -0.0001325847 0.0009090649 -0.0030758257 0.0004004177 0.00097408245 0.0026411398 0.0013807102 0.00022932532 -0.0022023711 -0.0028335357 0.0033982114 0.0025157386 0.0020481441 -0.00061000104 4.7353174e-06 -0.0016666963 0.0007049419 -0.0005703884 -0.0012358706 0.00065140496 0.0009481994 -0.0014503334 -0.00076877594 0.001568886 0.0007410757 0.0022537326 -0.0011478043 0.0019407776 -0.0018375425 -0.0003653633 -0.0015075493 -0.0024563642 0.0033438038 0.0013043907 0.003732271 0.0011760923 0.00010533371 -0.0016388146 0.00029846033 0.00024701504 0.00204477 0.0012782303 -0.00034658215 -0.00097526336 0.00097473635 -0.0012207764 0.003134505 -0.0038706898 -0.0021916998 -0.0035687238 -0.0034315616 0.003572788 -0.0027681051 -0.0010456004 0.0018161748 -0.0026737424 -0.0017285508 -0.0007318175 0.0025798138 0.001608893 -5.723149e-05 0.0019656653 -0.0036036107 0.0023264466 0.0017436929 0.0035480133 0.003773602 0.0007491956 0.0018594626 -0.0030009085 -0.0027708418 -0.0037297918
18|36.18.37.19 0.003861536 -0.0030116176 -0.0016699994 -0.0037321527 -0.0007938351 0.0033764413 -0.00017438913 0.0007898275 0.0012694441 0.0010220289 0.00079510757 -0.00072394055 -0.0017975231 0.0033300805 0.00089478976 0.0018584223 -0.0022129882 0.0037855806 0.0024315862 0.0010081868 0.002853008 0.0011049401 -0.0012789868 -0.0016556598 0.0001870708 -0.0027631985 0.002166591 0.00044597493 0.0033897106 0.0010637805 -0.00072597864 0.0034858743 -0.0011076066 -0.0022074145 0.0012747031 -0.0033118774 -8.443178e-05 9.517273e-05 0.0022598593 0.003696498 0.0027101166 0.0011464774 0.00044901812 -0.0023498982 -7.3988005e-05 0.0018697944 0.0020420146 -0.0020920876 -0.0020220033 0.0025786927 -0.001705626 0.0013298583 -0.0022997227 -0.003824698 -0.00036581262 -0.002626902 0.00047099925 -0.0021114433 0.0033585941 -0.0023049891 0.0030770644 2.2734217e-05 0.002575233 -0.0030937176 -0.0013574207 -0.00036252465 -0.0024809334 0.003647269 -0.0011159645 0.0006489955 0.0009678487 -0.0036074491 -0.0038375354 -0.003562288 0.0011938863 0.00017569038 -0.0023919484 0.002443337 -5.5587298e-05 0.00079216773 0.0031145937 0.0005021833 -0.0007447372 0.00026259964 0.0013481249 -0.0031806417 -0.0022469072 0.0017050549 -0.0028155318 -0.0029678498 -0.0032019916 -0.0036748778 -0.001047847 -0.00040790037 0.00033974016 -0.0021237954 -0.0032677057 0.0013597712 0.00094883546 0.00311553 0.0010709121 0.003458288 0.0018934285 -0.0005562705 -0.0024881244 -0.00076500425 -0.002295123 -0.0035395417 -0.00080042164 0.0036487975 -0.0030642755 -0.0026448152 0.00053933344 -0.0034650327 -0.0030285208 0.0009493679 0.0018538076 0.003585746 -0.0034482763 -0.00079652324 -0.00077022216 -0.003661416 -0.0026740455 -0.0017908385 0.0022199685 0.0020822943 -0.0028618374 -0.0025841706
18|37.18.37.18.37.16 0.0014182449 0.0028169686 0.0026127778 0.0009389431 -0.00078047236 -0.0016425388 0.003703868 0.0015699437 -0.0007286471 -0.00152125 0.00032640144 -0.003121648 0.0035246327 0.0029850327 0.0013160498 -0.0028090568 -0.00092487177 0.000608354 -0.0007732517 -0.0008779821 0.00125311 0.0026813205 -0.00038215512 -0.0011678207 -1.2360193e-05 -0.0019013322 -0.0004892085 0.0005794736 0.0011411813 -0.0036434382 0.00057129003 0.00044962042 0.0032339925 -0.0010007231 -0.0005849752 0.0013996727 -0.0025787721 -0.0027626103 -0.0016815431 -7.6051525e-05 0.003607227 0.0026386376 -0.0014392895 0.002029822 -0.0010746405 -6.836096e-05 -0.0017014904 0.002076314 0.0027786798 0.003072795 -0.00059031934 -0.0031026816 0.0035116666 -0.00016029445 0.001605487 -0.0038158672 -0.0022394306 0.0033825974 -0.00011878491 0.0036482438 0.0017011279 -0.001855879 0.0038901977 0.0038862529 0.0027514868 -0.0013081098 0.0015902097 0.0038004217 -0.0011207218 0.00247327 -0.00033224726 0.0017461716 0.0010144316 -0.0016918657 -0.0030833774 -0.0028589126 -0.0007802798 -0.0019010201 0.0038093536 -0.0017188708 -0.00074975565 -0.0028456524 -0.002010076 -0.00046062266 0.0010713872 -0.0017629117 0.0017051854 0.0020672374 0.0013844394 -0.0018617377 -0.003858263 1.5051103e-05 0.0036792087 -0.0014059572 0.0006565996 0.0011072828 -0.002368356 0.00021722517 -0.0030829674 0.001036205 0.0038812107 0.0031619098 -0.0011433953 -0.0020179108 0.0020482652 -0.0014729411 -0.0010142056 0.00074894424 -8.845051e-05 -0.0028197549 0.0038651812 -0.0028747544 -0.0024979203 -0.002585746 0.00029965537 -0.00014320106 0.0005145163 -0.0015622402 0.0018162552 0.0021898283 0.0009852338 -0.002645018 0.0026370315 0.0036833507 0.00094480225 -0.0033218556 0.003360739 0.0028217223
18|37.9 0.0036990594 0.00043711817 -0.0029348428 -0.0008014465 0.0014986304 0.0038857586 -0.00016055166 0.00035464298 0.0025438173 -0.003144325 0.0014733472 -0.0010530351 0.0011506741 -0.0023097282 0.0039132345 -0.0030656725 0.0027232247 0.00019606842 -0.0038654236 -0.002932841 0.003266773 -0.0018902459 -0.00019181895 0.0038023915 -0.0026184085 -0.002979357 -0.00052333064 -0.0037484677 -0.0009475257 0.0011277152 -0.0030118518 0.0012192798 -0.0009113789 -0.003894521 -0.002315869 0.003395779 -0.0028668924 0.0033762502 0.002531038 0.0027220857 -1.8541507e-05 -0.00033619616 -0.003424627 0.00045357505 0.0010773225 -0.00012217613 0.0035317736 0.0028215183 -0.0031920234 -0.0014415467 -0.002483448 0.002921749 -0.002118887 0.002359759 0.00044224338 0.0018853145 -0.003226987 -0.0031689266 -0.0024070968 0.003072475 -0.0018753201 0.0006876489 0.0030168719 0.0008856942 -0.0005402081 -0.0033374655 0.001377217 -0.0020947657 0.0015109134 0.0019031989 0.0010110675 0.0020250336 0.00022938696 -0.0039099185 0.0023633095 -0.0018340979 -0.0015213443 -0.0032755223 0.0032507398 0.0032072635 -0.0035417627 0.0020962642 -0.0032027957 0.0017598519 0.0027889523 -0.0006261823 -0.0026317367 -0.0036141654 -0.0015157799 -0.0024717723 -0.0011720033 0.0016036577 0.0036577375 -0.0035162582 -0.00048465971 0.0028744803 0.0017044448 0.0038918648 -0.0019621223 -0.0030554591 0.002997265 -0.0019516925 -0.00042801714 -0.002175857 -0.0036792613 0.0036232104 0.0008691867 -0.0014512982 0.0037568898 -0.0019388748 -0.0010328644 -0.0030349179 -0.0005989692 0.0039071855 -0.001852492 -0.002839307 -0.0036886593 0.0009091224 -0.0019599295 0.0020902203 -0.0012031109 0.0003147075 -0.00037475565 0.0016632741 -0.00014059606 -0.0030125382 -0.0024652441 -0.0018845986
18|37.18.37.18.37.32 -0.0030509587 0.002269279 0.0031516184 -0.00014160248 0.0013274389 -0.003412182 -0.0022675537 0.0032533854 -0.00019666833 0.0005003056 -0.0004941504 0.0002279116 -0.0015635701 -0.0036368296 0.0015290523 -0.00085013435 -0.002734192 0.0028236317 0.0018813194 0.0018660736 -0.0008023495 0.0037313958 -0.0021743437 -0.001516565 -0.002849896 0.003764302 0.0028354733 -0.0028470783 0.0012438523 -0.0015293768 -0.0014487444 -0.0014355651 -0.002042987 -0.0008866267 -0.0020446498 0.0021359492 0.0024581994 0.0035737182 -0.0013469793 0.0028299124 -0.002433722 -0.0025879513 -0.002778271 0.0010338648 0.001395186 -0.00022352222 -0.0024394495 -0.001525809 -0.002243144 0.0017085009 0.00057777343 0.0025580954 0.0021906977 0.0007195529 0.0023022385 -0.0008223521 -0.0033024366 -0.0024824901 -7.251228e-05 0.00039147597 0.0020439571 0.0023968017 -0.0030273686 -0.0030544873 -0.0002784867 -0.0030799115 -0.00029832817 0.0032560157 -0.0005568819 0.002242486 -0.002995751 -0.0015220416 -0.00010699506 -0.0008469878 -0.0026904487 -0.00032715264 -0.0021843705 -0.0023451599 0.0012662053 0.0024216296 -0.0035977839 0.0037844807 -0.0018749484 -0.0022932312 -0.002495249 -0.0021736538 -0.002425215 -0.0026280284 -0.0011551783 -0.0037913558 -0.0025644857 0.0032652689 0.0027402556 -0.0031572185 0.0009398829 0.0031612823 0.0012255498 -0.0025474802 0.0018107394 0.000983826 -0.00033572566 0.00028221516 0.0003317215 0.0037372292 -0.0024639023 -0.0036372305 -0.0020713413 0.00053374155 0.0035864136 0.0010132394 -0.0014526627 -0.0025649795 0.0017771778 -0.0031685838 0.00041081267 0.002827538 0.003406755 0.0008220745 0.0028099536 0.0021936758 -0.0019100517 0.001164389 -0.00366672 0.0007383226 0.0016204765 0.0028630893 0.0032055276 0.0036541014
28|27 0.0033638717 0.0021988426 0.0032516776 0.0007030812 -0.00028063313 0.003063901 0.0028912993 -0.0027571118 0.0019481863 0.000696564 0.00065797596 -0.0015073802 0.0037389356 0.002604984 0.0005776154 0.0033330172 0.0037044098 -0.0023725063 -0.002975306 3.965787e-05 -0.001306364 0.0029594149 -0.0023024399 0.00043895975 0.00029661087 0.0036657988 0.0009284601 -0.002413643 -0.0001402979 -0.0008337055 0.00049766374 -0.002815913 -0.0010725799 -0.0018979422 -0.0021372912 0.0014163577 -0.00017050155 -0.0020127373 -0.00033937139 -0.0028564774 0.0011769045 -0.0010712482 -0.00017687175 -0.0032133337 -0.00063563226 0.00058937597 0.0030760295 0.003317628 -0.0036376212 0.0015669712 -0.0025690396 0.001177841 -0.00094728987 -0.00046992511 0.0013427085 -0.0012941147 0.0029977208 0.002358278 0.00016249012 -0.0010081837 -0.0036578479 0.0004088738 -0.0016088132 0.0019568023 -0.0031153534 0.0008420877 -0.0005578903 -0.0017627992 -0.00061559124 -0.0021219999 0.0036067427 -0.0006760425 0.0006943844 -0.002496996 0.0038249027 -0.0038877744 0.0027967296 0.0022943383 0.0029619094 -0.002859895 0.003165023 0.0013133099 0.0033453074 0.0019710977 0.0026097791 -0.000261424 0.0022212479 0.0026175724 -8.555766e-05 -0.002124636 0.0011906754 0.0017793652 -0.0030834079 -0.0010939937 0.0032135327 -0.0030829534 -0.0001830209 -0.0021321317 0.00018951886 -0.0025597361 -0.003876218 -0.00096039637 -0.0002195984 0.0011499649 -0.0016275997 -0.0033126099 0.0014470157 0.00207055 0.0031908427 -0.0028753453 0.0020953652 0.00017327862 0.0019852114 0.0012895686 0.00027313887 -0.003374309 -0.00084772287 -0.0026050357 -0.0023432283 0.0021071855 0.0007019069 -0.0037821853 -0.001188035 -6.611841e-05 -0.00022630571 0.00013447137 -0.003252248 -0.0026303958
18|36.7 -0.0012864931 8.170871e-05 0.0023445382 -0.0022659185 0.0026631753 -0.00095841277 -0.0018766709 0.0022429635 0.003239431 0.0020035254 -0.0013924106 0.0017894245 0.00036604563 0.000679122 0.00078395626 -0.0020274264 0.002810085 0.003463212 0.0020960728 -0.0034847057 0.0002708321 0.0031727364 -0.0038300017 0.00042465312 -0.0023927805 0.0010141397 -0.002256988 0.0015631338 0.003692884 -0.0028380055 -3.7528498e-05 0.0036356181 1.9671063e-05 -0.000449048 -0.0015826423 0.0035484664 -0.0020755674 0.0036421386 0.0037678182 -0.0035416954 -0.00071038 -0.0024422202 -0.0028952276 -0.0012470557 0.002071267 -0.003661691 -0.0016960325 0.00010840758 0.0031279495 -0.0011626538 0.0028500978 -0.0012609427 0.0014874842 0.0013806607 0.0036346524 0.0018331452 -0.0017081042 0.0013992691 0.002803222 -0.001544328 -0.0015749758 0.0020825486 -0.0028326965 0.0011117596 0.002418125 0.0028451306 0.00029449555 -0.0029930347 0.0014805215 0.0018205073 0.0029767947 -0.0007450359 0.00046463215 -0.0015687401 0.0024060411 0.0025275336 0.002963504 0.0019341008 -0.000908361 0.00067892537 0.0027779809 -0.0034087452 -0.0031228003 0.0026285069 -0.0035036805 -0.002976075 -0.0006363835 -0.0027575279 -0.0011044529 -0.00049736904 -0.0020920082 -0.00080285594 -0.0034442223 0.0024391087 0.0037042657 -0.0006985586 -0.0021757516 0.001979597 0.0033241932 0.001034135 0.0012620531 -0.0021366782 -0.003255492 -5.953665e-05 -9.408955e-05 -0.0011445191 0.0035762698 0.0016465081 0.0027929023 0.0017517895 0.0002213151 0.00084345083 -0.00082550035 -0.00199026 0.00058229646 0.0035728847 0.0010852303 -0.0015478083 0.0005838283 0.003463618 -0.00089667714 0.00094391115 0.0032771984 -0.0030955356 0.002393655 -0.0038402565 0.0013089766 -0.003770722
18|37.18.37.32 -0.0029548267 0.00029281568 0.0016633155 -0.0021268746 -0.0027362527 -0.002933257 -0.0030809566 0.0029615911 -0.0022324405 0.002667204 0.0017607192 -0.000704653 -0.000799051 -0.000110128625 -0.0035531924 -0.0021399548 0.00097493385 0.0031583935 -0.0038041694 -0.0010955743 0.001342666 -0.0027680497 -0.0023056855 -0.0019224861 0.003594372 0.0025534008 0.00095532247 -0.0008986491 -0.00033687556 -0.0010303876 -0.00045012223 -0.0014098833 0.0011883038 -0.0025871415 -0.0028252427 -0.0019417806 0.0020602185 -0.0011998913 0.00013129039 -0.0022086478 -0.0027353805 0.00258385 0.00090406055 0.0037429973 -0.0020667324 -0.0021822923 0.0009585307 -0.003273056 -0.0035444647 -0.0033971914 -0.00011530881 -0.0016983299 0.0006235574 0.002590218 0.00041654243 0.0005392234 -0.003276982 0.0027282047 0.0036936293 -0.0015059402 -0.003423156 -0.0015582457 0.0005184606 0.0016225926 0.0012383361 0.000984386 -0.0027171755 -0.001395584 -0.0004922124 -0.0009945816 0.0037966603 -0.002438425 0.0020172785 -0.0020880196 0.0006609306 0.002346557 -0.0030143065 0.0020953107 -0.0028333985 0.0038935544 0.0002686784 -0.0012465686 0.0038760714 -0.0037438413 -0.0027738586 -0.0037377214 0.0012687391 6.8000205e-05 -0.0021298819 -0.0035358137 0.0008421977 0.0028595836 -0.0026469873 0.00017667118 -5.3581705e-05 -0.003067744 0.0007317029 0.0026105673 -0.0001571764 -0.0038454642 7.792666e-05 0.003902547 -0.0025937872 0.0007004689 0.0006017662 0.0022690732 -0.0021747365 -0.000833316 -0.001445577 0.0037260079 -0.0005117533 0.0014985413 -0.0015875457 0.0036669741 0.00082426413 0.0030931495 -0.00021880722 0.0016262581 0.0017072222 0.0015442038 0.003137746 -0.0038048301 -0.0009683455 -0.003347783 0.0013483153 0.0033536286 0.00065792404 0.0001980133
18|37.18.37.33 -0.0037867394 -0.00042992548 0.0029250793 -0.002793606 0.0003543632 0.001228698 0.003735381 0.00037914814 0.00060160726 -0.0022716231 0.0006767105 -0.0016183794 0.0011364224 0.0031082004 0.0014547587 0.00034404206 -0.0013780855 -0.0008771036 -0.0010050093 0.0038255714 -0.0017726417 -0.0013418146 -0.0026955737 -0.0010659547 0.0017308709 0.002243078 0.0021474087 0.0025759118 -0.0025347103 -0.0017420319 0.00021485199 0.0036630465 -0.0012630922 0.0017708141 0.0036755912 3.501017e-06 -0.002194254 0.0032500592 -0.00161618 0.0036212723 -0.0032981113 0.002118983 0.0004112992 0.00018205107 0.0007801897 -0.0033950144 0.0007804732 0.0026967854 -0.0018789574 0.0013748736 0.00032056926 -0.0012934997 -0.0027765022 -0.0026578521 0.000102396305 0.002344283 0.0020623263 -0.0024659699 0.0017863954 -0.0036125924 -0.0033120848 -0.0025509277 -0.002477607 0.002635973 -0.0037906934 0.0015957125 -0.0026196998 0.0035816461 0.00210077 0.0022557743 -0.0018010696 -0.0030758043 -0.0013457881 0.0013438878 0.0010826443 -0.00096340873 0.00017997282 -0.0037551858 0.0015567493 -0.003652438 -0.0038972818 0.002327098 0.002140726 -0.003128781 0.003016713 0.0016321798 0.0033677958 -0.003200328 -0.0027039284 0.0016011517 -0.0024923608 0.0036760827 0.003624684 0.0027624266 -0.0011579248 0.00247429 -0.0019040995 0.0023492095 0.002630502 -0.0037686292 -0.0015671253 0.002611502 -0.0033459621 -0.0024961666 -0.0017964774 0.0007114866 -0.0026062445 0.0034978793 -0.00094019953 0.0030920077 0.003504752 0.000607901 0.00075254857 -0.0003784955 -0.0015789461 -0.003596364 0.002561511 -0.0017305847 0.00019154299 -0.003814361 0.0027614885 0.00203587 -0.0033544714 -0.0027001332 0.0009667748 -0.0021295727 0.0038057822 -0.0019829553
18|36.9 0.00187647 -0.003495428 0.0025897762 -0.0029412336 0.0023685896 -0.0034729657 0.0010881833 0.0003910027 -0.0011166139 0.001836635 -0.0010935318 0.003751422 0.0012041287 -0.0028689704 -0.003504634 0.00086957857 0.0016039826 -0.0009601149 0.002587993 -0.0035011568 0.0017576503 0.003755166 -0.003689627 0.0017003402 -0.0029171028 -0.0036638225 0.0030122362 0.002842711 0.0015018914 -0.00322056 -0.0007612055 0.00085635623 -0.0019069489 0.0015936962 -0.0029407549 -0.00015716089 0.0014768927 -0.0004620484 -0.0019574533 0.0026552116 -0.0026042857 -0.002387094 0.0012671998 0.00011048858 -0.0035376234 -0.002665103 -0.0015423567 -0.0035707252 -0.0019112915 0.0008609178 -3.0648844e-05 0.00044505537 -0.0024252676 0.00353018 0.001956126 -0.0022591383 -0.0019058186 0.0034502163 -0.0011387751 -0.0015542653 -0.0009945073 0.0021267107 -0.0031487106 -0.00077241403 0.0017801946 0.0037714695 0.0018793438 -0.00020051475 -0.0014296089 -0.0022128357 0.0015863413 -0.0006484196 0.00052867 -0.0024989662 -0.003223564 0.002776061 0.0004077856 -0.0008161156 0.0037781133 0.0016870477 0.0028648726 -0.00054131576 0.001774651 -0.0038795928 0.00051078264 -0.0019359681 -0.0033745607 -0.0031579132 -0.0029137356 0.003342364 -0.00376566 -0.0024354074 0.0027509585 -0.0004927717 -0.003079975 -0.0030312142 0.0019305731 0.0010061138 -0.0015121241 1.3634891e-05 0.002632715 -0.0018176616 -0.0019306609 0.0013706993 0.0035912017 0.0028806692 -0.0035829926 0.0027809034 -0.0022338985 -0.00044626958 -0.00221885 0.003158003 -0.0007987858 0.00022306164 0.0035444857 0.0033928324 -0.0024663075 0.0033862283 -0.0034042494 0.0025658945 -0.0028418703 0.0013126857 0.0038877106 0.0017978367 0.00250599 -0.0015388015 -0.0020643896 0.0017795309
33|36.21 -0.0018167112 -0.0031247851 0.0017123336 -0.00047813848 0.0035543642 -0.0014767126 0.0005611153 0.0035390717 0.0026352229 0.0020368497 -0.0023414795 0.00020863391 -0.0015554865 -0.003412559 -0.0010096357 0.0034191315 0.0014088476 0.0008494081 0.00093205646 0.0028041436 0.00029307028 -0.0013926675 -5.2802927e-05 0.0011428533 -0.0011569149 -0.003027389 0.0029595874 0.0005331833 -0.0030945216 -0.0030370858 0.0007189218 -0.0008523542 0.0024140168 -0.0024241454 -0.003663154 -0.00072518154 -0.002651558 0.0003919411 -0.0017726789 0.0022501915 0.0018477147 0.0026301707 0.0012561285 -0.0038379391 0.0026375093 0.0009361873 -0.0030342247 -0.003065142 0.0006620913 -0.0004113678 5.5600394e-05 -0.0020645128 0.001366672 0.0019997077 0.0038566077 -0.001998254 -0.0003124122 -0.001979928 0.0015769466 -0.00060727814 -0.0025482762 -0.0015422686 -0.0029097893 0.0019504998 0.0010676661 -0.0010893119 -0.0016253799 -0.0026998415 0.003009638 0.0013636036 -0.0008540925 0.0029705914 0.0032291529 -0.0031008946 -0.0015201832 -0.003628452 0.0015740644 0.0014911095 -0.000981746 -0.0020681152 -0.0013759588 0.0022817277 0.0016836065 0.0023338597 0.0031599274 -0.0006964744 0.00089515554 -0.0011018087 -0.003913172 -0.0008330119 0.0032712778 -0.003812329 0.001533363 -0.00040157276 0.0023557118 0.0021349369 0.0026046264 -0.0032195547 0.0019766414 -0.00082435156 -0.0005846068 -0.0030344287 -0.0006456972 0.0017837211 0.0015628346 -0.0013096676 -0.002027477 -0.0003061813 0.0027290045 0.00035974575 -0.0014305015 -0.001508115 -0.0006175237 -0.003634297 0.0032530723 0.0013670936 0.0030810204 0.0023330688 -0.0032757965 0.0026561187 0.00023515316 -0.0014046874 -0.0034972178 0.0020988244 -0.0029845673 -0.0024763234 -0.0035309435 0.002627796
18|37.18.37.28.27 0.00024955906 0.00079861126 -0.0020416207 -0.0021195684 0.0016581733 0.00015593249 -0.00037695153 -0.003810073 -0.00027040968 -0.002211518 -0.0022668864 -0.00079369755 0.002986465 -0.0030568424 -0.0030167126 0.0026725254 0.0031318835 0.0035261284 -0.0020351352 -0.0024603256 -0.00052816747 0.00015213754 -0.002707401 1.7477803e-05 0.002528689 -0.0008086491 -0.0013658265 -0.002026534 -0.0028150666 0.0037501578 0.003158539 -0.0023330457 -0.0032407755 0.0011331586 0.0023142127 0.0032735097 -1.0753858e-05 -0.002947907 0.0022300233 0.003489973 -0.0021321322 -0.0002816609 -0.0032576348 -0.003019344 -4.791649e-05 -0.0015513102 0.0023094595 -0.0006910285 -0.0025205868 0.0017114792 0.0014694085 -0.00043519633 0.0012976157 0.0023481199 -0.0020942 -0.0037208833 -0.0020061065 0.0035122393 0.0016251414 -0.0027641293 0.0003701262 -0.002760853 -0.00019406782 -0.0034653887 0.0030580363 -0.0025552162 0.001516366 0.0032324998 -0.0016504873 0.0024689003 -0.0012017224 -0.0011965483 -0.0013758492 0.00032220426 -0.0005125027 -0.0007369439 -0.0017510409 -0.001674913 3.9491773e-05 0.0036060936 0.0025794953 -0.0026696378 -0.0005809122 0.0035342174 -0.0012044057 -0.0033224458 0.00045614 -0.0022899052 -0.0024342034 0.0030570838 0.0014809686 -0.0017705471 0.0038267085 0.00044889093 -0.0019996008 -0.001897176 0.0024075732 -0.0036605545 8.7918495e-05 -0.0009943773 0.0018061355 2.667145e-05 -0.002723813 -0.002174773 5.3443775e-05 -0.0014816673 0.0006054088 -0.0034096185 -0.0022295534 -0.0014737064 0.0013964206 -0.001878763 0.0020001146 0.0012625712 0.00022641226 0.0039044337 0.0024598069 -0.003689013 -0.00033832 -0.0019625446 -0.0028026963 0.00032639058 0.00013398528 0.0017229264 -7.912765e-05 -0.0025248744 0.0015702619 -0.0027514086
13|36.30 0.0012017029 0.0016295911 -0.00083083747 0.0032699415 3.9159593e-05 -0.0029961339 -0.000117945856 0.0032331785 0.0032352437 0.0011937845 -0.0033896843 -0.0005846852 -0.002654898 0.003455764 -0.00074186496 0.0036509642 0.001997848 -0.0013718365 -0.0032504478 -0.0026463976 0.00348833 0.0005337089 0.003218525 0.0015570603 -0.0038576364 0.0037295278 0.0023383978 0.0029285273 0.0027214354 0.003775408 0.0023256585 0.0032746843 0.0022250516 0.002102428 -0.002016877 0.0009345574 -0.0017625146 0.0009997012 -0.0001287757 0.0023699363 -0.0018850106 -0.0033261834 0.0012279836 0.003249535 0.002853434 -0.00041088296 -0.002788566 0.0001358499 0.0013607019 -0.0027859255 0.0031366886 -0.0014251778 0.0028611023 0.0034919106 0.0007541376 -0.002405756 -0.00050224573 0.0021665618 3.9197774e-05 2.5132746e-05 -0.0016849173 -0.0018569337 -0.003236457 -0.0026723174 0.0018781695 -0.0033148387 4.5529872e-05 0.0038326147 0.003728038 0.0008616324 0.0025518998 -0.00036867053 -0.0020744705 0.00042873024 -0.0014391193 -0.0019171839 0.0010207716 0.0036593406 -0.003431779 -0.0039078514 -0.0016262673 0.0021249333 0.0034507068 -0.0008952754 0.0015310198 0.0012461677 -0.0037641465 -0.0017498992 0.0037711565 0.0028295284 -0.00021933635 -0.0016967343 -0.00029017703 0.003564922 0.00046692367 0.00016973067 -0.0009240564 -0.0008316487 -0.0038500577 0.0038428016 -0.0015139953 0.0031637496 -0.0036537447 -0.0023131885 0.00045102192 0.0013942624 0.003428551 -0.00072262075 -0.0011252674 -0.0022740045 0.0012993336 -0.00013950966 -0.0016770639 -0.0013728002 -0.0010045507 0.002937627 -0.00020640266 0.00283772 0.0034700027 -0.001594692 -0.0022192707 0.0021407914 0.0006589014 0.003380038 -0.0015392043 0.0022226765 0.0036787733 -0.002403779
11|0.24 0.00047176177 5.2132957e-05 -0.0026559895 -0.0031970916 0.0036991586 -0.001956572 0.00095818733 -0.0029297336 -0.0006884589 0.000998993 -0.000669249 -0.0033629884 0.002752167 -0.0006898051 0.003126803 -0.00073020894 8.4184445e-05 -0.00028852958 -0.00018222953 -0.002865745 -0.00045063018 0.0014561261 0.0007863118 0.0034666532 0.001736428 0.0025005199 -0.0018867691 0.0016433767 0.0022600302 2.9151055e-05 -0.0015036747 -0.0020660085 -0.0016946907 0.0012281686 -0.0035529109 0.0003401859 0.0026591208 0.0011682071 -0.0015577582 0.0021510166 0.0037495785 -0.0014603904 -0.00074866007 0.0024986307 0.001265728 -0.0010132173 -0.0026773212 0.00033025237 -0.00090004026 -0.00082288054 -0.0024374777 0.0029566544 -0.0005319768 0.0010913056 -0.0011175964 -0.001092598 -0.0025651606 0.001183848 0.00059856084 0.0023357507 0.0010186111 -0.0020657792 0.0011370573 0.000105540654 0.0012538873 -0.0010374341 -0.00079271535 0.002338589 -0.0030202458 -0.00082368543 -0.0009655575 0.0029600637 -0.0013950852 -0.002172255 0.0010234605 -0.0032714554 0.0024688914 -0.0030029046 -0.0012341848 -0.0012156791 0.0027903842 -0.0035981694 -0.002086995 0.0015065883 -0.0010810301 -0.003881505 0.0004479725 -0.0004617202 0.003625786 0.0013453505 -0.0018872729 0.0015284983 0.00054284744 0.0023979708 0.0030253993 0.00094812864 0.0024502585 -0.0018615499 0.0025738147 0.0007981728 -0.002569259 -0.0032229773 0.0007266754 0.00094188616 0.0024829186 -0.0025508404 -0.00061914354 -0.0001975394 0.002337236 -0.0012312565 -0.003578929 -0.00015109853 -0.0034298901 0.0037224835 0.0035674786 -0.0007219505 0.0031973356 -0.001602999 -0.0015174281 0.003169275 0.001166574 -0.00036048866 0.0019560964 0.0019570622 -0.0018250059 0.0012306165 -0.0018111429 -0.0024512087
27|28 -0.0037012761 -0.00091318385 0.0024540948 -0.0038950949 -0.0008966527 -0.0036170678 0.00280077 -0.001263947 0.0006417888 -0.0022481463 0.0013594041 0.0012136443 0.0012736807 0.0006427172 -0.0002453457 0.002886042 -0.003130174 0.00063452695 0.003398433 0.0026690564 -0.0032973462 0.0016086716 -0.003087709 -0.00037030492 0.0014974063 -0.00083709136 -0.0033758965 0.0024862685 -0.003192301 0.001511293 0.0018561456 0.00030777525 -0.0022209957 0.0034474453 0.0034385913 0.0019205322 0.00068851083 -0.002790467 0.0018686209 -0.0035539647 -0.0030427182 -0.00081250427 -0.0035134135 1.295808e-05 0.0023239695 0.00013780706 0.0036314141 -0.0010508965 -0.002180117 0.0038286773 -0.00037756044 -0.0038154675 -0.00011326003 -0.0024853002 0.0021779556 -0.00029100085 -0.00029324015 -0.00146552 -0.00255438 -0.0021034665 -0.0013974321 -0.001183946 -0.0016707551 0.0022070503 -0.0005655183 -0.0012951484 0.0015378838 -0.0038239479 0.00047918304 0.0028162245 0.0032616158 0.00089380116 -0.0032010607 0.0017052109 -0.0019012121 0.0005446219 0.0024506361 -0.0019026898 -0.003615766 -0.0010290463 0.0027659521 0.00086562545 -0.0012605822 -0.0031811928 -0.0016733075 0.0025983264 -0.002281892 0.002748374 -0.0026089456 0.0023819744 -0.00040196843 0.0020988944 0.0036185621 -0.00341748 -0.001927703 0.001907504 0.00012656469 0.0033457777 -0.0027944546 0.0018736866 0.0024949007 -0.0004784459 0.0014045141 0.000376146 0.0038013936 -0.00012476146 -0.0018315357 -0.00079277216 0.0031981803 -0.00011161991 -0.00071531493 0.0027997927 -0.0022632228 0.0005564415 0.0016121898 0.0005515315 0.0018132618 0.0007181043 -0.0018913789 0.0010553134 0.0029089532 -0.0034793266 -0.0020490354 0.001051041 0.0025393507 -0.0039026083 0.0018961831 0.0011694806
18|37.18.37.34 0.0038096393 -0.00056359207 0.0030094981 -0.0031300553 -0.0037738685 0.0012244041 0.0022928957 0.0034994618 -0.0034454672 -0.0031265903 -0.0034569635 -0.00015568745 -0.0037509534 -0.0031470533 -0.0013570448 0.0017691886 -0.0031406807 -0.0037463815 0.0019005084 -0.0009814764 0.002088797 -0.00070035533 -0.00037881793 0.0005518611 -0.00040714146 0.0024378416 -0.0013945831 -0.003371824 0.0016429039 0.0002489809 -0.001862929 -0.00021946758 0.0012363077 0.003651507 0.0035842115 -0.0017601333 0.0037044024 -0.0024669494 -0.0025739998 0.0014261237 -0.0030178253 0.0009873331 -0.0007281202 -0.00025652262 -0.0023804188 -0.0013711686 0.0022513808 -0.0014758554 0.0023785452 -0.000955535 0.00056264346 -0.0005088352 0.002160849 0.0032402347 -0.0011490058 -0.00022563174 -0.0008398813 0.00045804493 -0.0021875754 0.002975484 0.001596552 -0.0029799538 -0.0027900545 -5.3139567e-05 0.00323777 0.00024306879 -0.0023362671 -0.0021674663 0.00062213594 0.0008901784 0.00065348914 0.002107836 -0.0012199836 -0.0012309735 -0.00054705166 0.001547705 0.0019766248 0.0037307872 -0.0009633888 -0.0024436992 0.0037163326 -0.00016856668 0.0023802344 -0.0029300943 -0.003744001 -0.0026553131 0.001855675 -0.0010436513 0.00075492304 0.0036391697 0.00038812144 0.0017868698 -0.0022126788 -0.002110349 0.0023978872 -0.0028403641 0.001884479 0.00058388954 -0.002904024 -0.002021922 0.002526141 -0.0002947517 -0.0008372587 0.0035612942 -0.0036633408 0.00091301545 0.00058465195 0.002508056 0.0015898574 -0.0001865284 0.0015137402 0.0008384259 -0.00024004887 -0.0012721679 -0.0008697022 0.00043492537 -0.0018394015 -0.0036618293 0.0036240004 0.0031585004 0.0029515377 -0.0016198305 0.00264996 0.00096627214 0.0020897766 -0.0012158221 -0.0020364088 -0.0013622639
37|18.37.18.37.30 -0.0028427688 0.0016601294 0.0026952296 0.0023755482 0.003784152 -0.0011821118 0.0037127526 0.002086698 0.0038787578 -0.00014332055 0.0034231194 0.003826135 -0.0028783777 0.0015794563 0.0027132756 0.0008304593 -0.001608911 -0.00077730475 0.0009901981 0.0020788244 -0.0011408479 0.0022046631 0.0035458626 -0.00021137686 8.178279e-05 -0.0034303563 -0.003401684 0.0034789306 0.0017734151 0.0025415525 0.0030069922 0.0013878515 0.001187736 -0.001018543 0.002480074 -0.00249593 -0.00042341504 -0.0009128173 0.00027197428 0.0037115794 0.0025511875 0.0037757016 -0.0024345333 0.0037323534 -0.0019679202 0.0013186691 0.0014216095 0.0037941113 -0.001335623 -0.0025380587 0.003365595 0.0019667514 0.00269419 -0.0029622887 -0.001898358 -0.003708259 -0.0017068208 0.0001712073 -0.0031423476 -0.0003172256 -4.9978906e-05 -0.0002699947 0.0012898734 -0.0027078995 -0.0031866522 -0.0010325444 7.48112e-05 0.002858934 0.0026818034 -0.0006809431 0.0025110263 -0.00035192946 -0.0005991928 0.003335649 0.001481109 -0.00035344498 -0.0015015077 -0.00069981307 -0.0005990899 -0.001635549 -0.0028894376 -0.0017082534 0.0011610399 0.0015510824 0.0023586887 -0.0034104106 0.0013116198 -0.0035296604 -0.0026338578 -0.00059078925 0.0027749857 0.0020492843 -0.0017519186 -0.0034685782 1.6760701e-05 -0.0025449907 0.0011534581 0.0021973338 0.003175088 -0.00094221084 -0.0028650486 0.00027056658 0.0029453358 0.0011995236 -0.00037552317 7.3373e-05 6.257289e-06 0.0017062805 0.0027426959 -0.000975944 -0.0026699754 0.0035530808 -0.0010178107 0.000103029306 -0.0037375654 0.0012201308 -0.0010715146 -0.0018891935 -0.0018675551 -0.0031286227 0.0018024653 -0.0015625189 -0.003769913 2.827915e-06 -0.0026593516 -0.00024505644 0.0036086144 -0.0011918931
26|36.23 0.0008285873 0.0033044743 -0.0027061533 0.001784392 -0.00045889724 0.0026722404 -0.0024632404 -0.0033391023 0.0012535461 -0.0022188183 0.0010933904 -0.003713856 -0.000880333 -2.041181e-05 0.0034183175 -1.0458031e-05 -0.0024812662 -0.0037762045 -0.00023611356 -0.002046859 -0.0031114407 -0.0010273354 0.0022724061 -0.0021465383 -0.00021530171 0.003108989 9.512745e-05 -0.002391289 -0.00090167107 -0.00013875199 0.0036207722 -0.0033367944 0.0029703197 0.0002611151 0.0023459855 0.0029763351 0.0032393355 -0.0028537724 -0.00093319395 -0.00017726925 -0.0016670262 0.0009589483 -0.003578149 0.0012629929 -0.0023979312 -0.00030319 0.0028747676 -0.0019116022 0.0015792367 0.0010219894 -0.0010689471 -0.0019397791 0.00032520035 -0.00025925826 0.00219341 -0.001316946 -0.002477959 -0.0032847715 0.0034396495 0.0015948048 0.00037428428 0.0015874009 0.0014263613 -0.0016227292 -0.0016973205 0.0017483315 0.0030724104 0.0026431065 0.0029372652 4.075045e-05 -0.0038139827 0.00040304541 0.0027814326 0.0032623257 -0.002051032 -0.0015639239 0.0033845126 -0.0031137604 -0.002815308 -0.0038445117 0.003160418 0.00037033707 -0.0025396058 0.002411363 0.0035052565 -0.0023186456 0.0016970616 -0.0018282604 0.002251308 0.0037613027 0.0031592802 -0.0005345957 -0.002513263 -0.0022294885 -0.003302273 0.0012304365 0.0025258781 0.0020806135 -0.0034387724 -0.0012757137 0.00032407796 -0.000111265814 -0.0032303669 0.001507138 0.0020654923 0.0020085888 0.0009777187 -0.0037501284 -0.0007762026 -0.00070135045 -0.001579728 0.0031025435 0.0018168075 0.00036243818 -0.0036809188 -0.0034453585 0.003726334 0.0030780055 -0.0012827743 -0.0020765613 -0.00077790365 -0.002973279 -0.0025016498 0.0025942277 0.0015513942 -0.0025870688 0.0036176806 0.00019944522
18|36.8 0.002040453 -0.00354838 -0.0020976185 0.0015399044 0.0015766618 0.0016973208 -0.00087367004 -2.9878067e-06 0.002308341 -0.002180397 0.0035045925 0.0016771909 0.0034048292 -0.0011077923 0.0038598508 0.0005518324 0.0019974343 -0.0033647146 -0.0006657167 -5.8374615e-05 0.0028113818 0.0029936936 0.0011536544 0.0006638258 -0.0019214173 -0.0013288751 -0.0013527805 -0.00029375553 -0.0014098061 0.0036590917 0.0038404115 -0.0017500485 0.0017465883 0.002408406 -0.0025646123 0.0033407488 0.0020878126 0.0030661356 -0.002930117 0.0017793261 0.0016353396 0.0012111232 0.0008802525 -0.0031811458 -0.0011924783 -0.0018518355 0.0031671755 0.0013204332 0.0022660107 0.0034550773 0.0015178109 -0.001591417 -0.0008964402 -0.0036428578 0.0018077047 -0.0036715658 -0.00026032282 -0.0024939065 -0.0037630633 -0.0021054596 -0.0017178596 -0.0011194703 0.0038263039 0.0022018903 0.002871459 0.0010869543 -0.0014883083 0.0005926059 0.0006469713 -0.0013810283 0.0017865084 -0.0012390163 0.0002622402 0.00046393002 -0.00036551701 -0.0027229358 -0.0030786402 7.684234e-05 -0.0005842524 -0.0029025502 0.0019408525 0.00019019445 0.0021193374 0.0023113817 0.0004818405 0.0002517978 0.0008603 -0.0035366756 -0.00013491881 0.0019802996 -0.0015272453 -8.864695e-05 0.0004362266 0.0026095123 0.002566833 -0.0015771317 0.0036153335 0.002308862 -0.0023178498 -0.0022026212 -0.0026998806 -0.003769654 0.0021921718 0.00065247435 0.0021414543 1.6919354e-05 0.0011993338 0.0025453286 0.0007040316 0.000711224 -0.0022602181 0.0005686062 -0.0013228658 -0.0013377521 -0.002224869 0.001352916 -0.0024866888 -0.00036292302 -0.00045808466 -0.0027926227 0.003065968 0.00090885774 0.0025527843 0.00012054655 0.0014400955 -0.00028169062 -0.00060109794 -0.0027626203
8|13.18.37 0.00028172042 0.0020630911 -0.00260837 -0.0006861404 -0.0030583104 -0.0015616663 0.0008491758 -0.0015640728 6.718039e-05 -0.002518482 -0.0035502424 0.0015815272 0.0019880012 -0.0015781154 0.003610888 0.0020847502 0.0019183235 0.0033489617 -0.0032397404 0.0020976923 0.003237381 -0.003891037 -0.0026430637 -0.0030548184 -0.002893271 0.0014438749 0.0012772629 -0.0029253145 0.001963122 -0.0026642974 -0.0003982197 0.00034019575 -0.00037862398 0.0017695404 -0.0038563823 -9.269336e-05 0.0024910225 -0.0029738008 0.0007261916 0.0029625073 0.0024186599 -0.002612564 0.0037897683 -0.0031837015 -0.0018487113 0.00090209313 0.0019842074 -0.0037925488 0.0019636953 -0.0010805649 0.0032196017 0.0034159082 -8.83581e-06 -0.0020643685 0.0019053541 0.00035407214 0.0008251198 -0.0028957033 -0.0013138067 0.0020042132 -0.0006020302 0.0014087207 0.003558388 -0.00019720318 0.002975461 -0.0029258537 0.00051639375 -0.0010395589 0.0002714606 -0.00021736178 -0.0016933974 0.0011537361 0.0029063975 -0.003648784 -6.406132e-05 0.0005225589 -0.0031466505 0.0017686103 -0.0016895661 -0.0009905798 0.0024099108 0.00037048594 0.003895068 -0.0007334946 0.00066306995 -0.0009505621 -0.00047635875 0.00072845625 -0.0027279733 -0.0019351026 -0.0014701495 0.0019469571 0.0028840944 -0.002778203 4.691298e-05 -0.0032499665 -0.0005378326 -0.0037759617 -0.0034806763 0.0013490226 -0.0023379214 -0.0032547342 -0.002032951 0.0034554154 -0.0013949175 0.0026977886 0.001961534 -0.0019116846 -0.0024162722 0.0024783066 -0.00070554146 -0.0035132945 0.0003606998 0.0024244334 -0.00084364717 -0.00214583 -0.0036131411 0.0016739815 0.00043684966 -0.0026375498 0.0010892717 -0.00092516345 0.0031818554 -0.0030712548 -0.00033457114 0.0034980485 0.0033781375 0.00079306203
19| -0.00023047846 0.001609617 0.0025320696 -0.002297355 -0.0037171724 0.0026053465 0.0025326272 -0.0025226758 -0.0021530788 0.0036851868 0.0038708525 -0.000571791 0.0005724306 0.0011254281 -0.0035273498 0.0034425624 0.0019275196 -0.0017106662 -0.0024879016 -0.0011557782 0.003704963 -0.0013652928 0.0012255553 -0.0017057247 -0.0001742129 -0.0026394203 -0.0024362297 0.002261432 0.0013548125 0.00072377385 -0.0024869104 0.0021774452 -0.0036527053 -0.002268389 -0.0017287029 -0.0010067971 0.0039039515 -0.0014692241 -0.0005439604 -0.0028828536 -0.0011460005 -0.003393208 0.002335663 0.0028492294 0.0038291167 0.0003927328 -0.00096247136 0.0027717035 -0.0019330748 -0.0020509756 0.0026339728 0.000844838 0.002372172 -0.0025002195 -0.00028177747 0.0031514626 -0.0022864395 -0.002725935 -0.0029763905 0.0022401297 0.0021137106 -0.0026572936 0.0017533357 0.003637054 -0.0022076732 0.0005779673 0.0011710569 0.001153426 -0.0033701495 -0.0010395359 -0.00083179475 0.00166577 -0.00036392562 -0.0026753368 -0.0018513607 -0.0025778878 -0.0034964168 0.002734209 -0.0006199189 0.0017106765 0.0010418692 0.002568892 0.00208217 0.00074772263 0.00042163613 0.00061852275 -0.0024775562 -0.0016719172 -0.0030873795 -0.0019315248 -0.00219485 0.0018968956 0.0027972886 0.0009370335 -0.0027673277 -0.003204211 0.0016953988 -0.0009989723 8.803475e-05 0.002697243 0.0024803057 0.0010484094 -0.0013420673 -0.0024399764 -0.003936505 0.0022041772 0.0033436853 0.0012509312 -0.0032870625 0.0021155218 -0.00015915523 -0.00036997252 0.0035589328 -0.00085572724 0.0024069918 0.0020407543 0.0017710937 0.0027195117 -0.0034918736 0.0035728726 0.0026271022 0.00048181586 -0.0030137536 -0.0007287464 0.002604189 0.0012139095 -0.0010167197 -0.0005260044
18|36.2 0.0028368325 -0.001665779 0.0011748034 0.00080458005 -0.0017472937 -0.0022653246 -0.0024448326 -0.0034763124 -0.0004340109 0.0036631601 0.0025904563 0.0023603037 0.002777416 0.0034884724 -0.0026288396 -0.002739575 -0.002747817 7.1563365e-05 0.001071331 0.00048638153 0.0016359085 -0.0009872013 0.0025134473 0.0028075199 0.00016169711 -0.0017152738 0.003540849 0.0004114901 -0.0007926865 5.766148e-05 0.00031974926 0.0017965535 -0.0024826208 -0.0036361942 -0.003473417 0.0034517343 -0.0015508407 0.000869005 -0.0013839817 -0.0016232328 -0.0012523136 -0.0031748763 -0.0013118378 0.0021300993 0.0012350784 0.0017959474 0.0021009187 0.0026161687 0.0032727094 0.003660533 -0.0026890028 0.00047897498 -0.0035384332 0.0015624998 0.0006924108 -0.0012720918 -0.0027641896 0.0029868095 -0.0002041991 0.0013253407 0.0005452666 0.0013119904 -0.0008432839 0.0023854335 0.0021065446 0.0032645261 0.0018924803 -0.0030904475 -0.0033116709 -0.0002910489 -0.0024688833 -0.0030391929 -0.0030959903 0.0012157287 0.0031843388 0.0027268187 0.0029128026 -3.5340323e-05 -0.0015744984 -0.0015245605 0.0032039885 0.002078761 -0.0024669704 0.0032816648 0.0005683803 0.00087891583 -0.003762397 -0.0020206028 0.00053329463 -0.0022466888 0.003383787 0.0021904572 0.0024068353 -0.002452609 0.0014485633 -0.00043931374 0.0010400934 0.0027815052 0.0034380674 0.002728454 -0.0019684918 -0.0014021053 -0.0018193361 0.0017968023 -0.00014642302 0.0022828383 0.0013148902 -0.0029407786 0.00053823664 0.002926051 0.0013378721 -0.0033043437 -0.00031546195 -0.00034306347 -0.0029253806 0.00033077915 -0.0037295944 -0.0009899002 -0.0010582779 -0.0018757678 0.0011556891 0.0036058917 -0.0025222376 0.0024311268 -0.0019268383 0.0008840282 0.0036253033 -0.0035966607
37|22 0.0013587059 0.0019117682 0.0007464404 0.001255193 -0.0013808404 0.002387818 0.0033173384 0.0019946643 0.0016959406 0.0012775369 -0.0002715742 -0.0020299046 0.0008919152 -0.0027613218 0.00030358767 -0.0014673407 0.0034538102 0.0022902954 -0.00015591692 0.0030887197 -0.0007392071 0.0020645782 0.0038799937 -0.0032473246 0.00083819753 0.001680597 -0.0020007347 0.003253472 0.002067442 -0.0034315332 -0.0013971551 0.0010860887 -0.002439525 0.0012247303 0.0034594287 0.0013648572 -2.7761449e-05 0.0017127469 -0.0010397268 0.0034433035 -0.00062552316 -0.0018866978 0.002309549 0.0015193573 -0.0016929067 -0.0031898725 0.00052116317 -0.000753153 0.0015766356 -0.0013795632 -0.0038581588 0.0034082043 -0.000621776 -0.0014503957 -0.0015739434 0.0026152178 0.00025737344 -0.002301691 0.0030082925 -0.0011616823 -0.0006374989 0.003770872 0.0028437867 0.0010918694 0.0005948991 -0.00066156435 0.00080325344 0.0034296338 0.002050348 -0.0010243645 -0.0025740222 -0.003867506 0.00015845428 0.0028594546 0.0037756176 0.0016197332 0.001210429 -0.0031565877 -0.0018286072 -0.0031209018 0.0002003155 0.0028906064 0.003040665 0.0012294146 -0.003353704 0.0010220454 -0.00074623746 0.0030762383 -0.0004495547 -0.00048549697 0.0019349649 0.0015326395 -0.0034101629 0.0006907184 -0.0022997467 -0.00013202001 -0.0035616797 -0.0011535817 -0.0016611398 -0.0033231175 0.0013180353 0.0014570819 0.0035808166 -0.0029821726 -0.0011961595 0.0014514708 -0.0027192314 0.0031803604 -0.0014247413 0.00077684276 0.0019198463 0.000706776 0.003444194 -0.0033353067 -0.0019462935 0.0002275785 0.0020622753 -0.00040160972 0.0012736048 0.0019926615 -0.00011790802 0.003416859 0.0026699947 -0.0028653438 0.0030074448 -0.0021259005 -0.002731896 -0.0015922968
37|18.37.31 0.0026586016 4.8448004e-05 -0.00036027769 -0.0030815694 0.0024056144 0.00026171922 0.0012710524 0.0027266042 0.0016608273 0.0011847026 0.001750964 -0.0022339625 0.0027805022 0.0031237227 0.001943316 0.0037507429 -0.0032569782 0.00242605 -0.001898729 0.0028179511 -0.00015848971 0.0034032962 0.0016815914 -0.0011246052 -0.0006613412 0.00016139688 -0.0024255246 0.002395396 -0.0013903682 0.0010543439 -0.00013555607 0.0016288086 0.0020590676 0.00016985903 -0.0033850924 -0.0030113833 0.0007937988 -0.0007751913 0.0019544058 -0.0006214779 0.00018358664 -0.0017611992 0.0009865015 -0.0013302332 -0.0034052557 0.002307483 -0.0012590913 -0.00257786 -0.0025561338 -0.0013727291 0.0006244584 -0.0017319 0.0018832092 0.0030436306 -0.0017193998 0.0012669895 -0.002534323 0.0014016412 0.00230625 -0.0038164987 -0.0004928471 0.0038620606 0.0015007342 0.0010452233 -0.00308627 0.00010565627 0.0013900526 0.0034320129 -0.0014788194 -0.00044432995 0.002587033 -0.001730357 0.0006788279 0.0017961687 -0.001173247 -0.0034848861 0.0009218438 -0.0025034358 0.0026587483 0.001990903 0.0029348491 -0.0028724489 -0.00032125227 -0.0026660892 -0.001603283 0.0026576256 0.0031883738 -0.0002449472 0.0014496784 0.0024049783 -0.0023153885 0.0028829572 -0.0034358993 -0.0034004962 -0.00074668135 0.0028567868 0.0029678582 -0.0014784883 -0.0023352616 -1.7535865e-06 -0.0033667923 -0.003494178 -0.001293545 -0.00067408377 -0.0034605649 -0.0027721277 -0.0012746328 -0.001177275 0.0015455402 -9.5797426e-05 -0.0021597324 -0.0021983073 -0.0035763793 -0.0006802569 0.0001504277 0.001624761 0.0017515315 0.0006074648 0.0015560695 0.0023620115 0.00023477142 -0.003295766 0.0018745492 0.0038757087 -0.0035713343 0.0018177704 0.0030901255 -0.0009604775
37|2 -0.002156016 -0.0010024353 0.0016635401 -0.00036779552 -0.003553294 0.001800392 0.002041634 0.0006537051 0.0005719447 -0.0008952938 0.0020555183 0.001028812 -0.0013696513 0.003103573 -0.00023223624 0.0032976535 0.0014563713 -0.0024360507 -0.00040827566 -0.002764866 -0.0020499057 0.00020584247 0.0015292966 0.0005829036 -0.0022710958 -0.0012493153 -0.0025470073 0.0013618326 0.0012463491 -0.0024079212 0.00014514451 -0.0002576514 0.0015706946 4.22753e-05 0.0008233975 0.0010156842 0.0032534474 -0.00059586664 -0.0031483078 -0.003623665 0.0027607928 0.0019265787 0.0019297607 -0.00015718983 0.0017456734 0.002706604 -0.0010451638 0.0005544019 0.0026102818 -0.0038245113 -0.0036370796 0.0016985779 0.0021767693 0.002201846 -0.0027007542 0.00071981945 0.00038707108 -0.001884218 0.0030268899 0.0006985159 -0.0021230637 -0.0011863058 0.0022972494 0.0027709873 -0.0020210212 0.0022812411 0.0024502433 0.0028913354 -0.0033076766 0.0036067597 0.0018190901 0.0025090366 -0.00014903961 -0.002400666 0.0018738814 -0.00025013258 -0.0005708773 -0.0010718121 0.0029709449 3.076712e-06 -0.0018380008 0.0034416586 -0.00011174372 0.002626854 0.0035694947 -0.002513487 -0.00011295463 0.0037407835 0.0021536706 -0.0006356576 0.0009226475 -0.0002345427 0.0006553409 0.00303823 -7.4049326e-06 -0.003593847 0.000914642 0.0003875331 -0.00022963157 -0.003509077 -0.0013984458 0.0006054814 0.0015363636 -0.0018866255 0.003746212 -0.0035940446 0.0010579143 -0.003509967 0.001969754 -0.00021434875 0.0008192386 -0.00031641542 0.0037921704 -0.00014923082 -0.00089850713 0.0028506499 -6.52605e-05 -0.0013037119 0.000120205914 -0.0036584234 -0.003049103 0.0016603591 -0.0034590748 0.0008706573 0.000687603 0.00082600646 0.0017786699 -0.0015115117
37| -0.0016275286 0.0006656422 0.0004277974 -0.0018827012 -0.0017441309 0.00016849671 -0.0030920007 0.0003845559 0.0026642208 0.0028883282 0.0021209728 0.0030374522 -0.0030977938 -0.001430611 0.002350249 0.00040439452 -0.00274932 0.0018960988 -0.0038202745 -0.0022399952 0.001665762 0.0020958746 -7.627797e-05 0.0014454441 -0.0038068683 -0.0012220631 -0.0008677879 0.0013389481 0.0012818775 -0.0035914104 -0.0027506072 4.0813946e-05 0.0033064228 0.0025252758 -0.000887137 -0.0022512595 -0.0033318812 -0.0005397248 0.0038206787 -0.0020241232 0.003753033 -0.001971224 0.0033354694 -0.0014647228 0.0003700596 0.00288845 0.0006339268 -0.00057538797 -0.0031781627 0.0028138063 0.0016040757 0.0033306943 0.0036732955 -0.002239624 0.0006068397 0.0008970073 0.00026699528 -0.0018723417 0.0031703606 -0.00079393014 0.0036107618 0.0017713045 6.808306e-05 0.0025323706 0.0016626719 -0.00049643044 0.0020935882 0.0010808293 0.0010784178 0.0007964493 -0.0020365266 -0.00238165 0.0029294735 -1.3369054e-05 0.002970586 -0.001818934 0.0011205648 0.00082242594 0.00078090513 -0.00045401065 -0.00010305256 0.0009773549 -0.00013161884 -0.0013572406 -0.0027911763 -0.0019240391 -0.0012914683 0.0026263255 0.0037937786 0.0032927133 0.002301275 0.00025385674 -0.0021907568 -0.0007805355 0.0016109275 -0.0012146325 -0.0011006629 0.0004516301 -0.0031846112 0.0007269852 0.0030788833 0.0036388994 -0.00032101595 0.00080519606 0.001144255 0.0007753946 -0.00065326854 -0.00046613967 0.0028155283 0.00083364855 0.0036527566 0.0017120382 0.00059063645 0.0037993728 -0.0032234162 0.0022322577 0.0026711144 -0.0020608858 -0.00236695 0.0027920578 0.0026148183 -0.0012141566 -0.0007505783 -0.0001475211 -0.0015032124 -0.00023222365 -0.0017882192 -0.0029157505
31|17 0.0019326226 0.0024479798 0.0003652427 0.0029050275 -0.00061622733 -0.0035082637 -0.0026629681 0.0032365632 0.0026853064 0.003326601 0.003043543 0.0021522944 -0.003596685 -0.0017945067 0.0034408714 0.003814199 -0.0026609472 -0.0028202285 -3.0723673e-05 0.0034682017 -0.0006524213 0.0033275946 0.0008722676 -0.0013453816 0.0013073729 0.0037528593 -0.0006058776 -0.0028574322 0.0010086088 0.001002491 0.0011383852 -0.00054042885 0.0031296557 0.003366391 -0.0016966837 0.0033279941 0.0011263973 -0.0031036309 -0.00019741229 -0.0017490842 0.0036508266 -0.0027563253 -0.0023077384 0.00026366487 0.0010170984 0.0024868662 0.0015028177 -0.0037620796 -0.003591913 0.0036896935 -0.0018871964 -0.0004914279 0.0027400653 -0.0016740052 0.00027445485 -0.00020528496 0.0036751966 0.001860223 0.0022928638 -0.0025521654 0.003167559 -0.0006504678 0.0020974986 0.00014218797 0.0030052885 0.0007557957 0.0012779091 -1.5461272e-05 -0.001967614 0.0019406216 -0.0036835608 0.001960225 0.0028930553 -0.0027935742 -0.0012573923 0.0014441579 0.00229969 -0.0030632715 0.0038883602 -0.00025620818 -0.0016001201 -0.0014692919 0.0017935302 0.0025293815 0.00029952102 -0.0038520733 -0.0011483837 -1.1357396e-05 0.0036349709 0.0035527698 -0.0017980934 0.002951985 0.0038415962 -0.0013748622 -0.0009821043 0.0021492955 -0.00024332691 0.00012999048 -0.0007122277 0.0032464766 -0.002023075 -0.0021865775 -0.00051594904 -0.0012240311 -0.0010758376 0.0013434459 -0.0032000577 0.0010145875 0.003438158 -0.001396756 0.00014470867 -0.002845901 -0.0026070145 0.002144145 -0.0014231699 -0.003205369 0.0019777694 0.002257343 -0.00049868977 -0.003264685 0.0005758508 0.00077665754 0.0029831468 0.0027337882 -0.0011001278 0.0013535011 0.0002978414 0.0025651164
37|18.37.7 0.0026568747 0.0035402959 0.0037524602 -0.0026134218 -0.0026643507 -0.0023861306 -0.00086269603 -0.0038253863 0.00090222777 -0.0028425283 0.0021170096 0.0014818263 0.0023369663 0.0010880386 0.0029977218 -0.0021230974 -0.0004080847 0.00024568406 0.0027563912 0.0029610517 0.0009291787 0.0034875313 0.002430441 -0.0011280816 0.0033360382 -0.00085115683 0.002013503 -0.0028524077 0.0021391246 8.0923644e-05 0.0030519115 -3.866398e-05 -0.0004863793 -0.0035627915 0.0009457314 -0.0010433192 -0.0030564475 -0.0019403786 0.0013338685 -0.00072912907 0.0018193122 0.0010550963 -6.9748676e-05 -0.0032065916 -0.000913822 0.0019521222 0.0030252521 0.0034910399 0.0013204231 0.0038291654 -0.0023378795 0.00310117 -0.0007854851 -0.00046623914 0.00047287272 0.0009670338 -0.0013827275 0.003496611 -0.00079981505 0.0031090719 0.0015955765 0.0029100142 -0.0018117887 0.0011221236 -0.0018668977 0.002128696 0.0018880822 -0.0015321983 -0.00047264932 0.0038372527 -0.0028332807 0.0027349587 0.0013075313 -0.0006723787 0.002953273 -0.0003786865 -0.00040674375 0.0025208872 -0.0022924836 0.00033987936 -0.0015634963 -0.0010728023 0.0017304312 0.00025114536 -0.0015532515 -0.0030276026 -0.0020406418 -0.0037533497 -0.003499997 -0.0035174794 0.0016413992 0.0030226754 -0.0021113032 -0.0019921293 0.0019298602 -0.0010514187 -0.0013865372 -0.0019973482 6.9061075e-06 -0.002883308 -0.000771039 0.0023587884 -0.0027241018 -0.0016149974 0.00065862155 0.0023180137 0.0038818694 -0.0010844559 -0.00132843 -0.0010546203 0.00078550517 0.0018913592 -0.0037139251 0.00247716 0.0026503433 0.0010931608 -0.0032714542 0.0012708099 0.0029708722 0.0032304334 0.0012415266 0.00076220854 0.0026088874 0.0013099619 0.0024728791 -0.0014317604 0.0036113074 0.003781228
18|36.16 -0.0033255415 0.0023543893 -0.0037577453 0.001371343 -0.002859011 -5.3510823e-05 -0.00012628087 -0.0014705524 -0.00047658978 -0.00329173 -0.0024628006 0.0014962885 0.0015552759 0.0039001412 -0.00054247794 -0.0020462107 -0.0034499282 0.0024463432 -0.0034095545 0.0034260063 0.0014859535 0.00015371239 0.001502084 -0.00029933552 0.0022717935 0.0033788094 0.0027418826 -0.0032770964 0.0025377215 -0.0017714693 -0.0021993832 -0.0036531116 0.0025813072 -0.0017729889 0.0026754197 0.00307481 0.00034677557 -0.0025030668 -0.003806497 -0.0019171854 -0.0021474138 0.0026724662 -0.002430888 -0.0002753597 0.003538318 -0.0024976332 -0.002614992 0.0025611687 0.0013039856 0.0031993086 0.0035829863 0.0025691139 0.00035391288 -0.00017687505 -0.0029599676 -0.0009838534 9.936461e-05 0.0007414684 0.003786006 -0.0018656496 9.708294e-06 0.0012140139 -0.0015433361 -0.001212344 0.0015305445 0.0014117559 0.0023888596 0.0017718103 0.0025137768 0.0033357716 0.0038433762 0.0030986292 0.0034600734 -0.0038872797 0.0015665973 -0.0011755858 0.0026288454 0.003549705 0.0010508196 -0.0024018257 -0.0026257632 -0.0031533567 0.0008509089 -0.0025026351 -0.0025731702 -0.001458115 0.0032295252 0.00037965813 -0.0021257692 -0.0038976038 -0.0032089304 7.7115605e-05 -0.002760026 -0.0017571299 -0.000112219095 -0.0036622658 -0.0028579582 -0.0025523722 -0.0030081791 -0.00043978484 -0.003275324 -0.003794996 -0.00028069408 -0.0038213795 -0.0008503012 0.0030483054 0.0036469507 0.00021062043 0.00051433797 0.00093406293 -0.00043196668 0.0018876266 -0.0033016352 0.00079816673 0.0017016747 -0.00075295445 -0.0026688164 -0.0018735531 -0.00097278284 -0.00010202157 -0.0006204752 0.0006377856 -0.001281087 -0.0026517776 0.0027056022 -0.0005918016 -0.00081615424 -0.0032270649
34|36 -0.0023483976 -0.0018137805 -0.000176778 0.0029075278 0.0035494575 -0.0013211292 0.0031383347 0.0024477057 0.00065907836 -0.0025932547 0.0011888007 0.0036989371 0.0023238312 -0.0010264288 -0.0015459671 0.0020691035 0.0007966402 -0.0030639693 -0.0010907028 -0.0028044763 3.9234103e-05 0.0029096624 0.0006013817 0.0007409112 -0.0015199363 0.002054692 -0.0032379176 -0.0010120975 0.0023509199 -0.002150117 -0.003327913 0.0031052283 -0.003054634 -0.0034648988 0.0025071786 0.0012589818 -0.0026792153 0.0022103954 0.0032618549 -0.0007764295 0.0020952087 8.236926e-05 0.001198094 -0.0002525671 0.002119219 -0.002413434 0.0030699056 -0.00062305306 0.003093852 -0.003619918 -0.00055512856 0.0037471347 0.0031800573 -0.002972952 -0.0033701854 0.0009199236 -2.7023973e-05 -0.0030586943 0.0038038439 0.0017447321 5.740131e-05 0.0032158524 -0.0009067115 -0.0007121554 -0.0015966829 0.0011853451 0.0024173588 -0.002924126 0.0023748549 0.0012783746 -0.0027646897 -0.0001472477 -1.587778e-05 -0.0013466025 0.0025260916 -0.0023687747 -0.0012022981 0.0036541375 0.0023946732 0.0026061172 -0.00029997388 -0.002069156 -0.0009169145 0.00094824564 0.0013087041 0.0028137146 0.0018485258 0.0014919752 -0.0030723442 0.0036982677 -0.0031902571 -0.0023716313 -0.0018352545 -0.0028596858 0.00050036726 -0.003018364 -0.0014885418 0.0022087193 -0.0034788041 -0.0028630444 -0.002813794 0.0023367878 -0.003675693 -0.00048582346 0.0027306746 -0.0016824036 -0.00113618 0.0019018769 -0.0031123676 -0.00041425452 -0.00050906185 0.0007742977 -0.0032763204 0.00037817375 0.0030673011 -0.0029865054 0.0011985131 4.6215435e-05 -0.0033695498 -0.0005935139 0.0024312974 -0.0032785446 -0.0003648053 0.0030017511 -9.292453e-05 0.0022562484 0.003498296 0.0037410075
8| 0.00015848593 -0.001836422 0.0032311757 0.0014615365 0.0016030592 -0.00068880944 -0.002249011 -0.0010788414 0.0035187819 0.0026223124 0.0027762305 0.0010235079 0.00041935878 -0.00040971904 0.0028348684 0.0023042718 0.0038338508 -0.0013688838 -0.0036591867 -0.0009289254 0.0011405459 -0.00013723187 -0.0015377039 0.00080345175 -0.0025050133 0.00068365294 0.0026590165 0.0014781863 0.0037780618 -0.0029379216 -0.0034847567 -0.0014329717 0.002416391 0.0032424938 -0.0021147442 0.0018374791 0.000682359 0.0018616318 0.0005561436 0.0004283557 0.00053046324 0.0011597127 -0.00052561844 -0.00032016044 -0.0031531542 0.0037459773 0.00097287784 -0.0012402048 0.0012336305 0.003433905 -0.0014311372 -0.00039601183 -0.003418141 0.0017482742 0.0019186767 0.002690494 -0.00083084835 0.0026810209 -0.0036931636 -0.002814336 0.0014546523 0.0024505837 -0.003479966 0.0020897356 0.0022090492 -0.00010575295 -0.0035326 -0.003480238 7.3833886e-05 -0.0034578345 -0.0030762001 -0.0018205072 -0.00041150066 -0.0012492449 -0.002719664 0.0006931859 -0.0015319806 -0.00024349145 -0.0012819044 -0.0008123242 -0.0012216085 0.00349719 0.0024622139 0.003875675 -0.0031089394 -0.0020901382 -2.6436752e-05 0.0011003797 -0.0023260957 0.0036765148 -0.00022379025 0.00042188115 0.0035764351 0.0033425554 -0.0026938454 0.0038572552 0.0020491646 0.0020067694 -0.003596336 0.00062808744 0.0010163813 -0.0028834743 -0.003535182 -0.0010338719 -0.0028886024 -0.00050545385 -0.0019544594 -0.0010511982 0.0031685052 -0.0028938253 0.0038442416 -0.0018251202 -0.003516988 -0.0016328759 -0.000108593806 -0.003624755 0.0024294292 0.0020666507 -0.0021260288 0.00062246685 -0.001640379 -0.002572303 -0.00023377682 -0.0017321736 0.0033743617 0.0033600826 0.0012701576 -0.0038592147
36|23 0.0029822548 0.0019685316 0.0026146728 -0.0011421405 0.0021257459 0.0038185806 -0.0035836403 0.0023244242 0.0009161448 -0.0010952215 -0.002078418 -0.0030951477 0.0006398655 0.0028874867 -0.00042091977 0.0010569276 0.0024173977 0.00038588472 0.0025415975 -0.0003473992 0.0008441439 -0.0031687093 -0.0010973181 0.0025936884 -0.002895559 -0.0013475949 -0.0021897282 -0.003868304 -0.0032432342 -0.0023968895 -0.0018978908 -0.0030690632 0.0037726404 0.0008623702 0.00060773245 0.0037003192 -0.002692093 -0.0011710841 0.0010055287 -0.0016892867 -0.0021713641 0.0024381722 -0.00090171484 0.0030766851 0.0031571907 0.0021514446 0.0030224675 0.0022291625 0.0025095583 -0.0017278455 -0.0017340566 0.0002695074 0.0037632002 0.0019144431 0.0011653382 -0.00088743743 0.0024428947 0.0020769758 -0.00226074 0.0035665333 -0.0011285192 -0.0034039763 0.001437809 -0.0033708215 -0.0009916151 0.0027538128 -0.00016727786 0.0024439045 0.0034610296 0.0032501444 0.0025769356 -0.0025852153 0.0033897955 -0.0035823712 0.0033955437 -0.002405647 -0.00023927193 0.0024684945 0.0009223128 -0.0032867254 -0.00027193525 -0.00033182214 -0.00041665588 -0.002547891 -0.0033354794 -0.0024036423 -0.0014305526 0.0030243094 -0.0027088176 0.0033107302 0.00015680087 -0.003789914 -0.0029787284 -0.003227436 -0.0022006906 -0.0016481217 -0.003733559 0.0029450592 -0.0036147542 -0.0028523502 -0.0015951287 0.0022914617 -0.0012400455 0.00039837867 0.0018933512 -0.0036386403 0.0007411601 -0.0013636135 -0.0033777684 0.0029516632 0.00087861525 -0.0019435934 0.0019725 -0.0026016717 0.003211772 0.0030268175 0.00076004345 0.002375889 -0.00025867613 0.000514171 5.419992e-05 -0.0032526786 0.0036610821 -0.0017865143 -0.002173661 0.00062511105 0.0009803236 -0.0032420275
37|18.37.23 -0.0028916113 -0.0017120156 -0.0018867766 0.0012440492 0.0018171537 0.0019400656 -0.0038888035 0.0026253616 0.0020228364 -0.0016946173 -0.001096551 -0.0035036327 0.002879986 -0.0013293773 0.0023461988 -0.003101063 -0.0026076727 -0.003910467 -0.0034917812 -0.0038168507 -0.0009304971 -0.0037649402 0.0012344879 -0.00037431918 -0.0015940386 0.0010223567 0.0033633227 0.00051729794 0.0020027326 -0.0010177754 -2.5006817e-05 0.0026455526 -0.0019299195 -0.0030367563 -0.0022586964 0.00070601923 -0.0023493941 0.00055208 -0.0018445576 0.0029980727 -0.0037729174 -0.0034834952 -0.0023569635 0.0026218523 -0.0008677798 0.0024315177 -0.0010850362 -0.0027323011 0.0006538191 -0.0015674577 -0.0014978755 0.0035553488 0.0012221675 0.00020511431 -0.0022508737 0.0028249444 0.00031595022 -0.0013090363 0.003426659 0.002857303 0.003791312 0.0020836361 -0.0015315778 0.0021851417 -0.00049184315 -0.0029777917 -0.0027492342 0.0038673393 -8.335094e-05 0.0029158331 -0.0004087512 -0.0014187476 0.0027076385 -0.0011002455 -0.0017607473 0.0018608765 0.002967254 -0.00224828 -7.7759985e-05 -0.0005629799 -0.0037458872 0.00014007188 -0.0001096759 0.0034115775 -0.0026934922 -0.0034316496 0.0014386763 -0.0015515983 0.00036112752 9.682365e-05 0.00054950523 -0.0006538174 -0.0007652347 -0.0014933547 0.0023982862 -0.0028938327 -0.0023204489 0.0021170713 0.00017917299 0.0010954278 -0.0026793752 -0.0038716383 -0.0018531195 -0.0020025217 -0.003057058 0.0033128657 0.0021450496 -0.0030678308 0.0028925838 0.0037586153 -0.0024202592 -0.00014667663 0.0029797382 -0.00080762384 0.0019274062 0.002102839 0.00021784996 -0.0020442104 -0.0003234127 -0.00076480536 0.0009551752 -0.0004444747 0.0023730553 -0.0006917065 -0.0031576946 -0.001476497 -0.0031334285 0.00068357587
36|30 0.002070427 0.0009584086 0.0024922218 -0.0014058151 -0.0001425254 -0.00022895265 -0.0029373376 0.00070864364 0.00076943176 -0.0015364677 0.002611861 -0.0011940091 0.00088874105 0.0027656497 -0.00013074813 -0.0024254178 -0.00036433747 0.0023976017 -0.00091617357 0.0005976503 -0.001025634 0.0016032207 -0.0033339632 -0.0026542044 -0.000503244 -0.0022008037 -0.0018953196 -0.0028239875 -0.00283428 -0.0020149169 0.0011385531 0.0017308384 -0.0038006036 0.00071586523 -0.0012085082 0.0029264917 0.0038927642 0.002080666 0.0024173777 0.00015470777 -0.0025195812 0.0010989631 0.00021569552 0.0029132117 6.3569154e-05 -0.0037314182 -0.00020129234 -0.00028240943 -0.002304586 0.0020254727 -0.0001237883 0.0026366853 -0.0035152016 0.002267325 -0.0015997578 0.0005979275 -0.0005438466 -0.00070363743 -0.00027524467 0.002436698 -0.0008041231 -0.0005475916 0.0012356031 0.0008017651 0.0016474493 0.0035876536 -0.003604603 -0.0037697072 -0.00087016483 -0.0024859158 -0.0028807975 0.00054442347 -0.002996109 0.0030501 -0.0038940038 0.003653018 0.0035671685 -0.0024884976 0.001748742 0.0016210332 -0.0034308715 0.0021215323 -0.001384365 -0.0023248484 -0.003537533 0.0019573825 0.0017879012 -0.00051725033 0.0020526452 -0.0014572502 0.0037069863 -0.0019980045 -0.002342816 0.00092880195 0.003638339 0.00043265562 0.0015756474 -0.0011275453 -0.001269098 0.0023986078 0.0020218156 -0.0038465012 0.0017313289 -0.0022994676 0.0032193766 -0.0028683762 0.0006728201 -0.00058453507 0.0026273683 0.003423889 0.0021829996 -0.0017945521 -0.0037753095 0.0032629862 -0.001690437 -0.0030478395 -0.0004893079 -0.0023314247 -0.0013866053 -0.0013328153 -0.0003150752 -0.0036653762 -0.000771457 0.0029238411 0.0019016665 0.0038833984 -0.0010510397 2.6399022e-05
21|33 0.0022638945 0.00012407017 -0.0016589595 0.0019844088 0.0025954298 -0.0006744047 0.0027337137 0.0017963034 0.0024598269 -0.003760721 0.0024762154 0.0030548344 -0.0031053228 -0.00042526994 0.0013688253 0.00392083 -0.0017766176 -0.0035987715 -0.002288783 0.0017840499 0.0013690084 -0.0030823778 -0.0032253042 -0.0006157454 0.0038696977 -0.001749594 0.0007221353 0.00086915336 -0.0023967403 -0.0030122888 -0.0018667205 0.0027979247 -0.0016764012 0.0021852294 -0.0018440887 -0.002976767 -0.0004505341 -0.0006738627 -0.000746345 0.0035975275 -0.0030301565 -0.002095178 -0.0024347657 -0.0031852436 -0.00091869495 -0.0032115716 -0.00074576825 -0.0027832545 0.0028571084 0.0037039372 0.0013197258 0.0027662264 0.0031755469 0.0029184353 0.0027156472 -0.0030838607 0.0021300372 0.000480941 0.003191007 -0.0018176215 0.0022113996 -0.0017572538 0.002040047 -0.0027786081 -0.003090887 0.0017216264 -0.0031279102 -0.0025835189 -0.0025948621 0.0032834243 0.00192526 -7.8496916e-05 0.0013629 0.002001028 -0.0008632033 -0.003252189 0.0035919943 0.0022987046 -0.00017904307 0.0011879752 0.0027500207 -0.00322508 0.0029746918 -0.0032766827 -0.003079871 0.00066253595 0.0018489362 -0.0012695305 -0.0018814042 -0.0016513598 0.00051085785 -0.0015227981 -0.0035014218 -0.0026128257 -0.002088079 -0.002465749 -0.0010594993 -0.0035269784 0.0020224508 -0.0021010246 -0.00042984323 0.0038390604 0.0018351394 -0.0029062752 -0.00093189813 0.0029952137 0.0034605865 0.0037038308 0.0013407394 -0.00052232755 0.0007194359 4.4960845e-05 0.0035110083 0.0010110547 -0.0017796339 0.00058225996 0.0017213973 0.002679789 -0.0032433341 -0.00030379917 0.0017788475 0.0037667311 -0.0028740664 -0.0032815968 0.0005866673 -0.0005319517 0.0004640959 -0.00021357686
