531 128
414 0.10839074 0.05392995 0.02365166 -0.29537952 -0.20749873 0.071956456 0.08101876 -0.13120931 0.43026063 0.080437005 -0.0013830996 -0.4840906 0.47964624 -0.047395814 -0.30980352 0.26169142 -0.18558289 -0.28860256 -0.23634347 -0.11870595 0.2608397 0.06506624 0.0048649185 -0.1643831 -0.14512645 0.32357818 -0.28366917 -0.04317444 0.008297656 -0.15550745 -0.32584742 0.20930038 0.2738547 -0.10913551 -0.090187915 0.20020397 0.29798788 0.08384029 -0.25807536 0.2287804 -0.0020194317 -0.019408679 -0.3185741 -0.66843486 -0.3536037 0.22787265 -0.023498 0.63611877 0.5038514 -0.43120837 -0.086960085 0.107012674 -0.018462019 -0.303699 0.032002363 -0.1143468 0.2302261 -0.22280516 -0.42735457 0.38247368 0.19687456 -0.19531669 -0.07967453 0.1380429 0.1051886 -0.23122093 -0.26997596 0.18008819 -0.054275375 -0.01423931 0.030437294 0.059708554 0.387417 0.19371696 0.34081838 0.025021812 0.12865803 0.33412382 -0.7474089 -0.25862366 -0.3421661 0.43136758 -0.40012294 0.055786997 -0.16592602 0.32187518 -0.32031417 0.107489295 -0.45472315 0.20864117 0.28104857 0.0070334617 -0.34804454 -0.08706097 -0.13466194 -0.36314377 0.6739128 -0.046692505 0.03008343 0.03406395 -0.57851946 0.2696047 -0.14956634 0.21923599 -0.43287092 0.17442599 0.20050937 -0.25036654 0.030831208 0.17573045 -0.3889466 0.34019032 0.39660656 0.095338 -0.3725301 0.22294486 -0.070845746 0.13914865 0.122461736 -0.15669265 0.260757 -0.08418459 -0.19301187 -0.23514242 -0.14292237 -0.34644088 -0.20354007 -0.5427941
156 0.09622128 0.006837127 0.03394347 -0.37365675 -0.2747228 0.1383483 0.0980372 -0.20165285 0.55135316 0.082740605 -0.04176188 -0.54684174 0.5281598 -0.0389557 -0.14021584 0.22574407 -0.14767112 -0.38302672 -0.23624699 -0.12606983 0.2343373 0.21715252 -0.019302865 -0.060738623 -0.13902149 0.22724353 -0.32265955 -0.09791606 -0.05643673 -0.16620305 -0.36470997 0.16739286 0.2260506 -0.18992797 -0.16938502 0.16939907 0.30445865 0.16457483 -0.25923878 0.106423505 -0.011019913 -0.069730766 -0.20947137 -0.6123849 -0.33904788 0.25061247 -0.04103373 0.6790009 0.39193445 -0.41745958 0.011109745 0.20374173 0.097783394 -0.37962314 0.075520106 -0.11382304 0.1490535 -0.33442503 -0.33254686 0.30988246 0.20712118 -0.16624217 -0.12260527 0.13168503 0.13623579 -0.169504 -0.19306295 0.12788087 -0.06674366 0.076936044 0.054692015 0.12689662 0.28993848 0.17331098 0.3094368 0.025171485 0.061130922 0.34252495 -0.78466976 -0.14668876 -0.4510636 0.59683275 -0.53806907 -0.015160685 -0.13168003 0.18200338 -0.32583776 0.08718796 -0.48372048 0.25776958 0.28895217 0.027063228 -0.4533741 -0.12667993 -0.16920365 -0.3357347 0.61644906 -0.014770848 0.10227153 0.08667846 -0.55144006 0.34894878 -0.25061882 0.16987617 -0.38248464 0.15954295 0.15040343 -0.17518312 0.013579213 0.17820784 -0.39037174 0.3071917 0.3161484 -0.020924157 -0.44013798 0.10238657 -0.013945837 0.008575412 0.22409943 -0.13812687 0.08677644 0.0052789673 -0.07794185 -0.22990407 -0.12127326 -0.29323974 -0.27733484 -0.5206354
33 0.105186604 -0.06259881 -0.036171712 -0.32250386 -0.20674376 0.07869967 0.036366936 -0.29789278 0.4903672 0.11366431 0.010917026 -0.43285197 0.4047645 -0.04253809 -0.29105404 0.29521334 -0.21650493 -0.3963078 -0.21777402 -0.060921762 0.15777971 0.1636283 -0.064886 -0.09713025 -0.17332679 0.26392096 -0.2815711 -0.0564102 -0.027348232 -0.103130594 -0.34063798 0.14008482 0.25039184 -0.12037337 -0.17509966 0.078080386 0.37932923 0.09269665 -0.2991612 0.10106872 -0.052968614 -0.0841979 -0.21660477 -0.78973365 -0.35351753 0.21041927 0.087634824 0.61388206 0.6146607 -0.46600255 0.020892996 0.067407906 0.10997222 -0.36563307 0.030793326 -0.016648332 0.17478333 -0.29485825 -0.38458633 0.30580112 0.11534136 -0.28271368 -0.019503007 0.09506631 0.14129013 -0.34339765 -0.1554636 0.05451124 -0.05274995 0.13598584 0.02331076 0.08553329 0.35642567 0.17610198 0.29292727 0.008201586 0.22447595 0.28277645 -0.69560766 -0.22209641 -0.4096506 0.47275186 -0.49081546 0.08091748 -0.105697624 0.33043817 -0.37776512 0.17205872 -0.46837053 0.16879599 0.24036966 0.09176153 -0.35585675 -0.21451113 -0.07399055 -0.39130995 0.6028493 -0.124467924 -0.046528853 0.09762448 -0.5318863 0.34747216 -0.21577962 0.2409598 -0.41572365 0.16385196 0.16637637 -0.20184521 0.12272254 0.17799678 -0.5147819 0.42261147 0.4106803 0.015272158 -0.4738436 0.015714793 -0.06850225 0.14897737 0.15715343 -0.13056202 0.1856011 0.09303001 -0.1871208 -0.30143306 -0.13668953 -0.3139321 -0.21454482 -0.4841034
361 -0.065746516 0.31746602 0.05431958 -0.14664336 -0.01241384 -0.18204613 -0.2902605 -0.04929826 -0.19862813 -0.09521905 -0.17399317 -0.2338472 0.27103105 -0.2138727 -0.33551404 0.03254267 0.66394705 0.275275 -0.38473424 0.237334 0.33891168 -0.16560738 -0.4586642 0.2912858 -0.24453215 -0.046701588 -0.9539639 0.009887663 -0.39487666 0.6412416 0.079125844 0.7272789 -0.45369166 0.3181946 -0.510145 0.44078216 -0.1521649 0.39345834 -0.2254176 0.11732409 -0.090180025 0.08265025 -0.11480967 -0.17409258 -0.38135374 -0.28252622 -0.17299417 0.66526955 -0.04693717 -0.8946253 0.1601502 0.16080956 0.66205853 -0.45605436 -0.39972508 0.14579919 0.6833357 -0.120567344 -0.22404765 0.18855584 0.23703822 -0.63992363 -0.3717541 -0.21559162 -0.070964836 0.07585372 -0.1434491 -0.41195375 -0.10184276 -0.287866 0.38887918 -0.49326748 -0.44675243 0.19378115 0.18715188 0.14243743 0.37964445 -0.002641626 -0.41128936 0.34033996 0.26445168 0.18170111 -0.35050905 0.30081862 -0.41697383 0.17307459 -0.35969585 0.25416604 0.56345254 0.18625751 -0.15616067 -0.4256247 -0.2573051 -0.56092125 0.40620595 0.022268875 0.32242784 0.27743962 -0.3232499 0.19760637 -0.08779109 0.12463011 -0.64274013 -0.11097131 -0.10770215 0.55987304 -0.1802103 0.840916 0.08288889 0.5121569 -0.68839 -0.287056 0.038239546 -0.09963239 0.023566687 0.5291939 -0.3810656 -0.06125574 -0.15494075 -0.3363452 0.3501285 0.1813196 0.26740125 -0.02072247 -0.23655699 0.0028524362 -0.19364423 -0.90202403
491 -0.044451755 0.358575 -0.06418103 -0.1532898 0.06409759 -0.2236189 -0.1802894 0.013636475 -0.24088673 -0.07885565 -0.20823123 -0.13702142 0.3674243 -0.20927137 -0.33864653 -0.030453738 0.65337145 0.320703 -0.2836498 0.237317 0.393891 -0.120525844 -0.40369508 0.3714853 -0.26543006 -0.052148294 -0.91452795 0.009874308 -0.29706293 0.6372093 0.04307849 0.6585165 -0.44018292 0.3617258 -0.5187351 0.4969336 -0.2109195 0.41157714 -0.20051518 0.15436432 -0.11659952 0.119559966 -0.06203457 -0.19440836 -0.463338 -0.15350936 -0.30211335 0.649196 -0.008606382 -0.8679134 0.07935574 0.11446367 0.60212606 -0.3592814 -0.38208723 0.15063995 0.5986246 -0.064153716 -0.22943316 0.3326376 0.27048793 -0.5641045 -0.22604693 -0.17442602 -0.093448706 0.005819272 -0.17755915 -0.40444002 -0.09839063 -0.30365428 0.32067066 -0.42686564 -0.47924572 0.10744776 0.20047788 0.17395368 0.4899743 -0.08505916 -0.33834928 0.17877425 0.068339705 0.26171893 -0.38847533 0.26359278 -0.46074682 0.22053368 -0.3453214 0.31102192 0.5671011 0.2723519 -0.1598647 -0.34820822 -0.21072839 -0.45037526 0.44079715 0.22098765 0.37128413 0.26975942 -0.22880986 0.26789844 -0.12505093 0.16578269 -0.648142 -0.15868944 -0.17603031 0.5581279 -0.28590995 0.7746621 0.057930917 0.33713818 -0.5487152 -0.33038947 0.0092083765 -0.09545657 -0.011061822 0.49856696 -0.48168615 -0.010124539 -0.045287058 -0.38900504 0.34682325 0.15791203 0.2834796 -0.022917302 -0.29145876 -0.04520197 -0.20983633 -0.8902661
128 0.030694842 0.20802988 0.070451334 -0.042780396 -0.08288997 -0.115288466 -0.23061508 -0.06304098 -0.105034396 -0.092918955 -0.17992353 -0.26687598 0.4044788 -0.21989019 -0.28253192 0.03297973 0.6357314 0.34138077 -0.31841603 0.28776315 0.42458248 -0.16054758 -0.35392207 0.29178786 -0.2698656 -0.024089452 -0.97221714 -0.1288938 -0.2534885 0.66603184 0.047308866 0.72666234 -0.51831174 0.3529232 -0.5710054 0.5308928 -0.062051345 0.49402267 -0.2572807 0.19876787 -0.17147075 0.23086165 -0.08929271 -0.16103561 -0.34947246 -0.12480373 -0.18611093 0.72877383 -0.078790985 -0.800241 0.16039957 0.080689125 0.5660005 -0.41688314 -0.31902814 0.1044348 0.6879763 -0.07534735 -0.2517284 0.25324398 0.07805411 -0.75419074 -0.21758638 -0.21536492 -0.08777739 0.06324394 -0.15020041 -0.5258594 0.03929733 -0.4426769 0.4566882 -0.39445466 -0.44084442 0.05258971 0.16668326 0.14950389 0.43956318 -0.026747389 -0.36474553 0.28479213 0.22597663 0.20732778 -0.361137 0.31211075 -0.3143625 0.26274082 -0.32488284 0.24344765 0.5806868 0.17362244 -0.14603457 -0.41616234 -0.21296236 -0.5314829 0.4721697 0.14438364 0.40350044 0.38773948 -0.31112462 0.22719972 -0.054411277 0.14392921 -0.5803598 -0.14814734 -0.18179123 0.49032435 -0.05420012 0.8673148 0.06505281 0.45958492 -0.6294623 -0.31847593 -0.0014080511 -0.112225816 -0.08998211 0.4496577 -0.4456593 -0.23044194 -0.13284129 -0.39293948 0.34498432 0.122863494 0.32550737 -7.1295304e-05 -0.239188 0.02610747 -0.1374262 -0.8012997
158 -0.08129818 0.23621765 0.0112205455 -0.1775884 -0.0051304596 -0.14912218 -0.3709584 0.050781686 -0.062731355 0.024121469 -0.18073286 -0.33369765 0.31789973 -0.17494197 -0.3108014 -0.013603779 0.5810781 0.2871096 -0.42682946 0.23502097 0.44948152 -0.12397948 -0.3935125 0.31440803 -0.3673739 -0.098177545 -0.78202397 0.027780809 -0.31327674 0.70256984 0.04729774 0.6255801 -0.5093582 0.37175265 -0.6008451 0.44767576 -0.13394482 0.4606587 -0.21631607 0.101944774 -0.13750647 0.1850266 -0.00086003344 -0.12854227 -0.30617937 -0.12964113 -0.22145526 0.66097754 -0.03844673 -0.8117225 0.16994302 0.18937151 0.66761917 -0.39237994 -0.40749782 0.09531662 0.67576057 -0.10837179 -0.17106365 0.29507697 0.21290863 -0.59049714 -0.25686166 -0.26345164 -0.015675757 -0.08826871 -0.14830412 -0.5113007 -0.044560615 -0.34839523 0.3808379 -0.52966017 -0.51231647 0.18045507 0.18003717 0.09653503 0.4338426 0.05587543 -0.47745305 0.17594908 0.17182112 0.15750882 -0.3240081 0.23407474 -0.37943283 0.081958495 -0.31571174 0.28523076 0.58851737 0.25769156 -0.24475412 -0.33628276 -0.23806137 -0.5394644 0.39419067 0.08501131 0.32629046 0.26724452 -0.302563 0.20405787 -0.09784948 0.044826645 -0.7256536 -0.20001245 -0.15927602 0.49786285 -0.2603776 0.8164724 0.1357521 0.38270208 -0.55259323 -0.37468827 -0.04762642 -0.16564006 -0.019672515 0.4810716 -0.3577132 -0.009524961 -0.041489925 -0.38081697 0.3996641 0.18473162 0.3133764 0.015412097 -0.284309 0.05032063 -0.23624548 -0.90342826
440 0.20175424 0.580434 0.25523666 -0.0805398 0.2283427 -0.10045139 0.567694 0.016627941 0.41634142 -0.36331362 0.3111875 -0.41299924 -0.3754941 -0.055606604 0.5941457 -0.20823137 0.5510972 0.18911378 -0.21276388 0.39660183 -0.4920131 0.09001077 -0.0605564 0.17833814 -0.20954011 0.34421197 -0.15823214 -0.36888415 0.78845686 -0.19574676 0.19810516 0.0052101985 0.48956376 -0.4621392 -0.09516247 0.46871772 0.26271668 0.0860103 -0.030892545 -0.049178224 -0.06330876 0.13629419 0.09298574 0.21385767 0.057635494 0.23769277 -0.54248285 0.0018872825 -0.21427481 -0.6016634 0.089804344 0.31060058 0.344673 0.34992713 -0.21900114 0.055620816 -0.04708929 0.014856445 0.035568114 -0.036787134 -0.31482875 -0.2911275 -0.18721865 -0.13444452 -0.31312445 -0.37831718 0.039491795 -0.20309745 -0.3416251 -0.2543822 0.13514945 0.27875146 0.107858345 -0.36481687 -0.120745145 -0.37506336 -0.16309574 0.12596811 -0.15975259 -0.54227805 -0.12207134 0.070392214 -0.35085487 -0.2160957 -0.6096565 0.42677987 -0.36008266 0.049827456 0.30686682 0.15813139 0.08987482 -0.12501071 -0.0013435099 -0.12314694 -0.045963753 -0.3788502 0.091421075 -0.07178278 -0.17732549 -0.22921307 -0.18412116 -0.43540138 -0.03944546 -0.05810651 -0.09359667 0.08260928 -0.23511575 0.28698823 -0.05559237 0.18823916 -0.21120487 -0.28958175 0.03195542 -0.120006025 0.0013716602 -0.18747623 -0.29636198 0.045253463 0.35085195 -0.77247167 0.013247805 -0.1437794 0.28820878 -0.07307342 -0.10423138 0.103181966 -0.14925085 -0.054107834
436 0.19650099 -0.1544691 -0.071752414 -0.19271077 0.29401916 -0.2122511 0.14541094 -0.3826383 -0.04650337 0.15718137 -0.25830796 -0.080646485 -0.047030244 0.14067943 -0.32241535 -0.21958695 0.32449803 0.13242786 -0.117861085 -0.07995666 0.13901295 -0.19738397 -0.62927276 -0.06758949 -0.072264284 0.13808903 -0.29473412 -0.17205001 0.4533215 0.06668601 -0.22542246 0.18450008 0.08290239 -0.1840969 -0.6547629 0.29575357 -0.199191 0.32246825 -0.0012140921 -0.34073064 0.15984562 -0.024631388 -0.20346655 -0.071184635 -0.29280442 0.3989327 -0.18819608 0.30981418 -0.11771354 -0.47225434 0.0923859 0.099374674 0.33942524 0.22682719 -0.42069626 -0.056662034 0.039470054 -0.15349217 0.09383614 0.4021932 -0.3871827 -0.19400737 -0.112729676 0.28665674 0.3000232 -0.16333644 -0.06874178 0.18983778 -0.23050542 -0.03660531 -0.15228419 0.1821795 0.38373238 0.46515933 -0.26937154 0.038871136 0.22913504 -0.012801551 0.36977074 -0.14725277 -0.24734965 -0.27495393 0.05408509 -0.06921251 0.04869162 0.055462018 0.45643952 0.017098509 0.17783275 -0.0927975 0.05147155 -0.1991452 -0.36497286 0.13811754 -0.017608112 -0.51683956 0.19498767 0.0778485 -0.08727944 -0.28296098 -0.33745787 0.25860187 -0.26351616 -0.36576664 0.16712247 0.20165783 0.5078333 -0.28007528 -0.15227956 -0.15587533 -0.08630884 0.10602494 -0.037040673 0.047645584 0.28539693 0.16906065 -0.21255855 0.32805687 0.06719672 0.058513813 -0.02432378 -0.2351054 0.13127539 -0.06871413 0.20009801 -0.30612373 0.46232393 -0.1253637
213 0.35953683 0.11966266 -0.39838868 0.034415275 0.1820754 -0.14732833 0.3168805 -0.34351817 0.25101516 0.102322266 -0.14007668 -0.24854136 0.095678836 -0.30392346 0.2850335 0.1136935 -0.018982774 0.16100438 -0.17993087 0.10289691 -0.013649361 -0.026155619 0.13473402 -0.037866395 -0.050679788 0.058154244 0.016485196 -0.19996516 -0.16784857 0.33037052 0.101355165 0.16713527 -0.4411925 0.07315092 0.049517933 -0.0020562536 0.13192213 -0.05789515 0.20413288 -0.30002728 0.056107063 0.07563554 -0.21341924 0.20652337 -0.2224553 -0.050891086 -0.20233166 -0.12955378 -0.08265434 0.05254403 -0.019916499 0.22592837 0.41609752 -0.015527349 -0.06096935 0.08026156 -0.07141842 -0.04206983 0.07018334 -0.28305754 -0.53259814 -0.46538386 -0.25294593 0.0776773 -0.016440762 0.03529618 -0.13797778 -0.008211504 -0.48408648 -0.42388788 0.06853772 -0.15129817 0.2076793 0.2355938 0.17048144 0.06988255 0.18900032 0.0058177887 -0.019532919 -0.25568312 0.06425385 0.41308442 -0.1166053 0.25751343 -0.6256458 -0.027751941 0.24403045 -0.076672606 -0.012761119 -0.17420818 -0.44507483 0.063379645 -0.15367067 -0.11800386 -0.09665568 -0.046815295 0.30553144 0.15692328 0.24303694 -0.14754829 -0.050815307 -0.31048647 0.060138993 -0.23575537 0.03757987 -0.066211134 0.08183089 -0.15902643 0.027266497 0.13673179 -0.20233734 0.047076035 0.102433644 0.021161642 -0.30334476 0.23978524 0.03960442 0.29842082 -0.14468864 0.46321788 0.2339174 0.4334954 -0.1466896 -0.0076257177 -0.11140508 -0.21338433 -0.26465905 0.07654841
391 0.30024123 0.5168085 0.16794601 0.06700484 0.29700089 -0.1714501 0.52833223 0.16626641 0.34487367 -0.4657788 0.2781771 -0.388131 -0.3866214 -0.17563398 0.5389675 -0.28028384 0.4378935 0.28077137 -0.22803073 0.42563942 -0.4265207 0.0152849015 0.046392027 0.07460541 -0.15760906 0.43612868 -0.36759818 -0.4374243 0.8008406 -0.29853055 0.2653925 -0.021909798 0.45716247 -0.45892996 -0.120822005 0.39299315 0.22371791 0.13213293 -0.019537017 0.04620053 -0.07518666 0.06364459 0.17816116 0.1581404 0.02657714 0.27004376 -0.6316976 -0.036460105 -0.25852042 -0.6112891 0.03560473 0.32114938 0.3004631 0.42386198 -0.10540656 0.067721985 -0.024051705 -0.035766825 0.13804449 -0.073931724 -0.38981625 -0.31085142 -0.17322792 -0.049887747 -0.39277565 -0.3673426 0.005109743 -0.069240734 -0.32964894 -0.307262 0.21563591 0.27561888 0.035382748 -0.3440568 -0.07487041 -0.31422246 -0.27135777 0.10725283 -0.11691985 -0.36246517 -0.12292408 -0.0045457403 -0.24490356 -0.101224534 -0.6530499 0.43832457 -0.4077676 0.18827523 0.3581875 0.16613714 -0.0025934968 -0.24824326 -0.047605876 -0.109912895 -0.061419774 -0.3024328 0.20149902 -0.008251793 -0.25016025 -0.23323166 -0.12456315 -0.4915317 0.13262501 -0.0964302 -0.12942514 0.12778312 -0.21744105 0.3327811 -0.09611326 0.17253567 -0.18659826 -0.2072949 0.02958862 -0.09224511 -0.024727194 -0.20278998 -0.18760762 0.025855046 0.3569001 -0.74135005 0.0663934 -0.23978639 0.21745108 -0.15113471 -0.16057271 -0.07845616 -0.10606305 -0.14732684
93 0.42544803 0.124377206 -0.36798236 0.058828864 0.18831193 -0.05994547 0.3838005 -0.30971932 0.15669899 0.026681313 -0.13884085 -0.26677632 0.058030467 -0.1966908 0.373335 0.2328417 -0.034454606 0.23904157 -0.15297607 0.09504652 0.045181215 0.039513137 0.09261049 0.018925609 -0.12830131 0.05369036 0.017562281 -0.2854774 -0.19356789 0.34728327 0.04210364 0.2860506 -0.47271594 0.19337934 0.021435045 0.06109121 0.008720065 -0.05608451 0.23454455 -0.23302557 0.065490015 0.124872915 -0.23317733 0.24972147 -0.16923155 -0.0033260044 -0.1603016 -0.1447328 -0.025956647 0.07675826 -0.028748335 0.23517853 0.37228754 -0.002476966 0.008259326 0.12386469 -0.11885114 -0.037842505 0.12134752 -0.27122056 -0.52796793 -0.5107667 -0.24394582 0.07135326 0.019928254 0.07485405 0.012958221 -0.054892913 -0.4920254 -0.38979912 -0.004365425 -0.20442444 0.22717087 0.20265952 0.31568438 0.04822244 0.21017854 0.03726184 0.0074157026 -0.37223744 0.02702395 0.41492417 -0.13171598 0.26930758 -0.5351892 0.05591617 0.28270277 -0.03748491 -0.03088734 -0.095948845 -0.42182314 0.049163043 -0.1150637 -0.13269223 -0.2232285 -0.114482984 0.24285683 0.041211963 0.161849 -0.22119018 -0.06599411 -0.33535588 0.13208754 -0.18501835 -0.013353392 -0.07279234 0.15217565 -0.30115607 -0.04687568 0.14738163 -0.15220919 -0.018194828 0.16498473 -0.023424698 -0.27930385 0.17764415 -0.028591009 0.24214564 -0.18188317 0.4287113 0.21062958 0.39163822 -0.13412525 0.034218874 -0.10099465 -0.1387766 -0.17020111 -0.030507134
43 0.4028877 0.08637752 -0.35274184 0.059727 0.36525553 -0.119181626 0.27782673 -0.3602277 0.20765033 0.062479515 -0.08618002 -0.24989708 0.11572337 -0.31742382 0.31111646 0.12504156 -0.00869747 0.26210088 -0.12579377 0.0035811446 0.07718556 -0.016937772 0.11658972 -0.017306326 -0.17414501 0.09448707 0.07117062 -0.3223315 -0.14057468 0.40079933 0.123304695 0.15643016 -0.45248973 0.080533616 -0.0107762385 -0.050244737 0.12932374 -0.0011905527 0.20138706 -0.30720422 0.036118213 0.19306129 -0.07114774 0.23251988 -0.043812163 -0.172132 -0.29216444 -0.15836024 -0.14581819 0.077076145 0.015094198 0.19414239 0.35549167 0.10219406 -0.1464398 0.11625548 -0.0780125 -0.09942909 0.06597152 -0.26483163 -0.39714983 -0.39687407 -0.2419624 0.037188403 -0.17107768 0.09601534 -0.041355323 -0.088052124 -0.44459173 -0.372363 0.013615637 -0.15874809 0.16464292 0.21256982 0.1271086 0.037137 0.2525075 0.034488928 -0.02992989 -0.33305055 0.12880091 0.4501987 -0.07552497 0.22409226 -0.5855664 0.039002117 0.15761389 -0.03405292 -0.016023625 -0.019423094 -0.39620578 0.12033947 -0.09919305 -0.14210458 -0.16456349 -0.1542874 0.24247356 0.06826134 0.20091508 -0.21357836 -0.028965669 -0.28352055 0.07270256 -0.18947925 0.0019532274 -0.01881769 0.115100294 -0.25297558 0.10396816 0.14466245 -0.17301886 -0.027117807 0.13110608 0.06206306 -0.27512568 0.24577925 0.037329707 0.22836095 -0.11794219 0.5073265 0.23873614 0.43130612 -0.16312516 -0.022199458 -0.15569058 -0.10931327 -0.33069006 -0.0039861565
149 0.35989815 -0.013691548 -0.38593537 0.059826087 0.23775718 -0.12844314 0.19583055 -0.34328133 0.18143187 0.14296083 -0.13243458 -0.21600091 0.035266418 -0.18726255 0.4567365 0.11228994 -0.09040853 0.23499544 -0.14048167 0.034992743 -0.002794513 -0.038368795 0.10271853 0.041396134 -0.063087724 0.14161727 0.06456416 -0.19192547 -0.14822741 0.4216489 0.0930728 0.18648715 -0.51381934 0.11535121 0.049821325 -0.015863553 0.12568793 -0.09258131 0.15658437 -0.2450104 0.04832389 0.16127023 -0.17044204 0.20686257 -0.17936859 -0.017023014 -0.1989403 -0.13094915 -0.1589618 0.087099835 0.014617415 0.25936222 0.42110288 0.036556344 -0.024555434 0.13113315 -0.044139396 -0.07178321 0.008035621 -0.18920915 -0.5119406 -0.489735 -0.27806318 0.036943164 -0.06821431 0.07897958 -0.13774651 0.029444484 -0.5751753 -0.40875703 0.050512735 -0.14434059 0.23698922 0.20481622 0.19739605 0.10121329 0.2505103 -0.00089143374 -0.14461216 -0.34176573 0.07557055 0.35923368 -0.12638324 0.21367282 -0.6793644 0.07134302 0.27307123 -0.08971929 -0.06652729 -0.08781404 -0.36366764 0.13482417 -0.016626783 -0.11083975 -0.14085276 -0.1636415 0.16102594 -0.0075153606 0.2027997 -0.17665112 -0.008804543 -0.23204298 0.097117186 -0.23494312 0.0013144312 -0.011863148 0.098980434 -0.14720419 -0.0112000415 0.15063712 -0.16915685 0.07960032 0.26070595 -0.058247846 -0.2068414 0.2835407 -0.09486191 0.25415254 -0.15358011 0.38598374 0.17812501 0.3639075 -0.08615278 0.018877774 -0.011747233 -0.12081365 -0.32125324 0.011557994
485 0.47500888 0.029018698 -0.40783262 0.039010286 0.16484308 -0.14822091 0.31620908 -0.28267336 0.23671888 0.15399766 -0.062858894 -0.32940516 0.12010226 -0.29319686 0.2950152 0.20982699 0.08018121 0.20164147 -0.13157906 0.025355378 0.0022781675 0.07240166 0.096208155 -0.0627911 -0.031320337 0.023849165 0.073837586 -0.37331602 -0.22471443 0.39660305 0.01496533 0.21718423 -0.4031896 0.1309108 -0.029588252 0.0028917827 0.08721407 -0.0378071 0.18729925 -0.2216927 0.13442525 0.12674673 -0.15372689 0.18092427 -0.14615513 -0.06924999 -0.16179258 -0.12106676 -0.20177464 0.06446816 -0.060873464 0.2194532 0.301139 0.12268703 0.007309995 0.115017496 -0.11001693 -0.016574705 0.07275929 -0.30052993 -0.5245409 -0.41706476 -0.29528284 0.023571061 -0.0116676325 0.09175028 -0.090098366 -0.031901233 -0.4493854 -0.44648322 0.016304746 -0.15926564 0.26716223 0.204018 0.19775899 0.13259217 0.167444 -0.0556287 0.005368003 -0.32395825 0.0035831693 0.32317692 -0.14754494 0.20448542 -0.5712644 -0.0032224634 0.20077787 -0.06160474 -0.03165947 -0.04252982 -0.54535466 0.13825643 -0.18896826 -0.09046186 -0.118831456 -0.09275427 0.34125996 0.010913446 0.18363783 -0.15752369 -0.107081294 -0.30579558 0.08837786 -0.114486456 0.101348676 -0.019332228 0.059377883 -0.2614444 0.15514825 0.1990173 -0.07003456 0.054059032 0.16186881 0.16816524 -0.33401003 0.31207594 0.04017934 0.3029528 -0.22425011 0.37664646 0.2838705 0.38501602 -0.090806425 0.026775243 -0.1631443 -0.10671209 -0.23219663 -0.0046976856
398 0.24028923 -0.1860988 0.023774723 -0.12546141 0.4504256 -0.041925304 0.051858302 -0.3320874 0.20043324 0.2745762 -0.36418906 -0.18340172 -0.08124886 0.10425097 -0.200017 -0.20381325 0.4096414 0.20699225 -0.124967895 -0.032857846 0.0067671854 -0.09575972 -0.515759 0.050766256 -0.012095201 0.14249745 -0.24901141 -0.23189269 0.52914417 -0.0913255 -0.25135842 0.19045058 0.05989492 -0.054247927 -0.77037466 0.11287565 -0.24233344 0.4062578 0.13713014 -0.29592004 0.052681178 -0.008804629 -0.3103238 -0.03911123 -0.33089203 0.3584574 -0.110217474 0.3579852 -0.1261812 -0.4399291 0.09378961 0.06886798 0.17868452 0.25402588 -0.36823544 -0.15647717 -0.023498528 0.059670985 -0.06832462 0.19582735 -0.37095636 -0.26873106 0.01107296 0.14426418 0.2261678 -0.09132586 -0.009834477 0.22435313 -0.23194645 0.06693768 -0.30466247 0.23305663 0.25591758 0.4993328 -0.29118973 0.18326207 0.21145727 0.010015642 0.39426565 -0.06558487 -0.16819398 -0.19392744 0.064483605 -0.18414693 0.06190408 0.11603682 0.3120402 0.095521525 0.24264339 -0.14097701 -0.097049706 -0.096443206 -0.3281254 -0.00077020895 0.031397045 -0.40246248 0.22460347 0.19041513 -0.025628235 -0.23449764 -0.34751362 0.25865728 -0.27583456 -0.42256948 0.06774901 0.15576771 0.49874216 -0.31203252 -0.1464441 -0.08878003 0.07028126 0.1021724 0.09435258 0.14879474 0.17688744 0.17779694 -0.2461272 0.16881232 0.18984252 -0.03285671 -0.19047189 -0.24651025 0.052273903 -0.17243403 -0.0040880223 -0.34092546 0.2458095 -0.09464217
74 0.44181812 0.12515052 -0.42355 -0.01532246 0.18364878 -0.24115112 0.31670326 -0.37579373 0.3012452 0.19411495 -0.19956118 -0.25379378 0.0672184 -0.30730385 0.30276808 0.04708592 -0.089257926 0.19453585 -0.20752716 0.04144243 -0.020006359 0.085685015 0.112577684 -0.051564787 -0.19427192 0.049622778 0.045747038 -0.30217478 -0.18547094 0.38806477 0.089418285 0.1621812 -0.4563316 0.096299596 0.030813426 -0.006854399 0.02537502 -0.047243476 0.2667352 -0.17927274 0.14326742 0.09685211 -0.23010622 0.18411031 -0.19475292 0.001108559 -0.14903119 -0.16380078 -0.18145211 0.11365082 -0.06396098 0.2517628 0.34682462 0.0745461 -0.086450696 0.12387146 -0.19480114 0.013034016 0.08586565 -0.20767404 -0.5253161 -0.51467866 -0.35170284 0.018064158 -0.014652144 -0.027171277 -0.103638254 -0.043533996 -0.43752474 -0.36683697 0.10782385 -0.16295435 0.18788491 0.20081237 0.13404056 0.056882948 0.14399652 -0.009964852 -0.061104476 -0.3509901 0.10303885 0.38835377 -0.10405718 0.24725328 -0.6301786 -0.012435869 0.21813634 -0.08619971 -0.07447885 -0.028177416 -0.38108814 0.097134285 -0.07195921 -0.1412124 -0.1544746 -0.1015302 0.27963778 0.109980345 0.12313207 -0.10964284 0.003299542 -0.18175988 0.07040184 -0.24990217 0.07626297 -0.1448357 0.041245114 -0.2532362 0.06259282 0.16075173 -0.22040363 0.012622331 0.21684633 0.061744463 -0.23063798 0.2745502 0.038561866 0.26940128 -0.036222797 0.41351807 0.1745137 0.4346137 -0.1360746 0.06097818 -0.14604695 -0.08947813 -0.2596989 -0.009105601
126 0.45766756 0.06034075 -0.3813467 0.040389135 0.37100312 -0.08032436 0.31871292 -0.2342335 0.23862894 0.08216969 -0.15511487 -0.3159686 0.08246646 -0.20744963 0.3401693 0.19671197 -0.08101683 0.23025829 -0.069799274 0.092159346 0.071248695 0.006380057 0.1364911 -0.051332284 -0.040717896 0.0704811 -0.0097143445 -0.22514558 -0.18708132 0.42908835 0.1201889 0.061606385 -0.41588527 -0.052009027 0.03250698 -0.015978606 0.19059227 0.050418008 0.20548466 -0.31122974 0.033673063 0.13089722 -0.14729282 0.21337336 -0.0821114 -0.08197949 -0.27486244 -0.18412626 -0.083296254 0.068629146 -0.051477812 0.21858303 0.43224683 0.1420531 -0.010611129 0.07003451 -0.13735303 -0.054699674 0.058069907 -0.26461756 -0.49070466 -0.4406553 -0.18760355 0.04324625 -0.087382495 0.029525064 -0.07924006 0.0098805 -0.4720372 -0.31399772 0.030621663 -0.094139524 0.13790424 0.21978967 0.1911541 0.12533887 0.25289804 -0.012816003 -0.025208129 -0.33051682 0.14519507 0.42723984 -0.121767715 0.2986835 -0.72461164 0.0213189 0.33928275 0.016869815 -0.037546843 -0.051824223 -0.42311355 0.11125677 -0.15038307 -0.14262483 -0.045230072 -0.098221615 0.29993236 0.031911455 0.19043638 -0.2500667 -0.074943155 -0.29944807 0.12890911 -0.20046373 0.006508005 -0.055092577 0.077224985 -0.2203526 0.044770863 0.13615227 -0.18669853 0.010137495 0.17233813 0.029522212 -0.32573247 0.18524307 -0.022407379 0.168264 -0.203935 0.4546794 0.11943913 0.42941168 -0.101939656 -0.03278981 -0.082912594 -0.099227294 -0.28481382 -0.056991514
526 0.37916526 0.089366056 -0.25952393 0.13073327 0.18646553 -0.103611 0.39169955 -0.29417512 0.14850782 0.07447495 -0.084491454 -0.16661929 0.01851486 -0.2537789 0.26202506 0.15677401 -0.014723001 0.28777555 -0.12502493 0.0003259983 -0.037566014 0.030294525 0.13188075 0.017169211 -0.12955065 0.18155979 0.043251634 -0.29857618 -0.13484809 0.3448202 0.21132247 0.20657448 -0.5222587 0.036544666 0.035151828 0.0033892572 0.18253855 -0.077768326 0.24946873 -0.18961295 0.060408644 0.103075236 -0.11573854 0.094844036 -0.09543318 0.008297166 -0.17831838 -0.1474429 -0.09871077 0.006199297 0.02281906 0.22577015 0.41517267 -0.044334546 -0.11189181 0.08133348 -0.15249549 0.026310762 0.057288975 -0.2957919 -0.45973793 -0.48223972 -0.27501628 0.054475795 -0.021723457 -0.011766137 -0.07341166 -0.039388347 -0.4515822 -0.3122388 -0.010292669 -0.2046354 0.17903699 0.17376451 0.16467957 0.15871534 0.20111306 0.032971464 -0.021799147 -0.43053287 0.06747264 0.5038472 -0.20179689 0.20425679 -0.66065097 0.045354906 0.26938418 -0.10934338 -0.089376576 -0.101461306 -0.39913225 0.04490244 -0.10238883 -0.12280923 -0.0715817 -0.17287073 0.26789716 0.11004637 0.13153566 -0.20925675 0.02668762 -0.19656196 0.0038871309 -0.27542245 0.008204971 -0.034188196 -0.024299074 -0.26656216 0.1908421 0.17916386 -0.12632106 -0.08316498 0.14263599 0.018098604 -0.22897102 0.16617902 0.007625849 0.24551299 -0.11270911 0.50516844 0.18393882 0.495572 -0.12391921 0.039927315 -0.08428801 -0.13696404 -0.30350232 0.03726175
304 0.42148307 0.19018579 -0.42176333 -0.026111921 0.25053567 -0.034651462 0.29913512 -0.32641461 0.24114725 0.07850183 -0.12826112 -0.24695939 0.14838102 -0.34271407 0.34912884 0.12892072 -0.120273836 0.1812623 -0.07011085 0.022804644 0.044428714 0.15060143 0.06478157 -0.039273832 -0.05336339 0.11975682 -0.026833689 -0.28559327 -0.18052274 0.35095865 0.12871087 0.25738472 -0.46394044 0.043553054 -0.012566248 -0.09726465 0.07725265 -0.05834366 0.23308292 -0.21914546 0.07843498 0.25306323 -0.17458817 0.29017183 -0.06961118 -0.08080278 -0.2180502 -0.1328847 -0.19166198 0.033505436 -0.0349026 0.31276634 0.335869 0.023780586 0.043682013 0.13357633 -0.050143737 0.09017774 0.08492634 -0.30476055 -0.4852736 -0.39075866 -0.2278362 0.13228457 -0.06954442 0.042414777 -0.033853974 -0.09748564 -0.5206851 -0.48629233 0.06807002 -0.13940711 0.18093123 0.24170794 0.15084381 0.042920355 0.21691154 -0.056331478 0.021898774 -0.40216398 -0.024140174 0.3282949 -0.07420981 0.2223207 -0.58340394 -0.039831527 0.29081666 -0.066631705 -0.00044216024 0.032324277 -0.43164513 0.025194556 -0.042666942 -0.2881022 -0.19443794 -0.040745582 0.30828816 0.018534994 0.2173288 -0.058935955 -0.1291157 -0.17285445 0.058461428 -0.16495416 -0.05807221 0.08245243 0.026077876 -0.31445494 0.008353306 0.22774881 -0.26775435 0.05297718 0.1882816 0.08281113 -0.33753738 0.25151137 -0.04498126 0.2476446 -0.16040663 0.4791337 0.104380496 0.31542912 -0.12630327 0.048197515 -0.098144166 -0.11993281 -0.27434698 0.0009195714
249 0.45249534 0.09107118 -0.34871218 0.049003087 0.14343159 -0.066621944 0.38585892 -0.35926637 0.23144826 0.10980737 -0.14585146 -0.2893167 0.091185756 -0.3115966 0.3111727 0.14167583 -0.028917251 0.2903629 -0.08829708 0.066400945 0.11409275 0.015835188 0.08867729 -0.11926844 -0.112207465 0.16880023 0.03428081 -0.25651276 -0.14463398 0.26059008 0.10892234 0.13905847 -0.55390596 0.11710351 0.012981713 0.010392486 0.10991162 -0.07188524 0.20012218 -0.28320563 0.03781145 0.05141066 -0.098281056 0.2531624 -0.054551102 -0.020990698 -0.21258673 -0.18033129 -0.13328338 0.09112668 0.05411217 0.19333889 0.33568105 0.06650365 -0.065823674 0.07456616 -0.039564863 -0.020136999 0.037376966 -0.22035477 -0.48141626 -0.42736045 -0.29241914 0.0008008429 -0.11623034 0.0015359422 -0.0033564167 0.025662879 -0.49068373 -0.4460606 0.042334374 -0.15202865 0.10113417 0.20959614 0.22297573 0.013838986 0.31961715 0.006658733 -0.016465489 -0.2835694 0.1303419 0.3198655 -0.0721297 0.2854456 -0.5831671 0.05315784 0.29876244 -0.11005679 0.054679632 -0.0771321 -0.39310494 0.05255221 -0.13404487 -0.08702323 -0.0534577 -0.04403833 0.32411164 0.12038522 0.16822283 -0.12704223 0.011352336 -0.28367528 0.10662971 -0.11236998 0.044795685 -0.06747664 0.052909706 -0.2720091 0.085120186 0.21801665 -0.17661536 0.011451597 0.22476745 0.07525938 -0.30022958 0.18683492 0.016975455 0.24723542 -0.13720497 0.4004234 0.17346066 0.44005227 -0.06117833 0.059561975 -0.05935806 -0.16750549 -0.23667361 -0.03576409
472 0.38231546 0.009992999 -0.36456436 0.0777623 0.1917299 -0.043339126 0.31080407 -0.3227964 0.25411633 0.043546993 -0.10195617 -0.21470779 0.18968087 -0.2356484 0.32505935 0.18483688 -0.09505508 0.31010365 -0.1473802 0.18195717 0.121726505 0.03615292 0.047262426 -0.07621847 -0.20138276 0.1510104 0.050558053 -0.22488339 -0.16848776 0.34123343 0.06649241 0.13485883 -0.46776348 -0.01095717 0.11960823 -0.001063656 0.04395516 -0.0071396763 0.154235 -0.28893283 0.07457957 0.08149338 -0.058678307 0.21692847 -0.14283085 -0.11202674 -0.18950677 -0.1531826 -0.028742587 0.053530473 -0.055137634 0.2731859 0.35930544 0.034932144 -0.092662625 0.08790375 -0.09632432 -0.04795126 -0.010303322 -0.2708946 -0.5175915 -0.41961783 -0.18989484 -0.054153375 -0.054077987 0.05107224 -0.0011469522 -0.034105647 -0.43524215 -0.4459472 0.040026855 -0.13033606 0.18914606 0.17087637 0.12575842 0.05609465 0.25831077 0.030164806 -0.018133594 -0.33333808 0.060616072 0.4501801 -0.060800713 0.28699565 -0.6813183 0.049975835 0.280358 -0.11002269 0.035533052 -0.049795426 -0.45510176 0.1200795 -0.09902607 -0.11378211 -0.082173824 -0.076382816 0.36093816 -0.009905066 0.3067113 -0.15121666 -0.04317681 -0.2914434 0.06827222 -0.12105428 -0.056865647 0.003440482 0.09819678 -0.24574503 -0.036330417 0.2242516 -0.18134622 0.015183604 0.21247785 0.01967672 -0.2611405 0.18597323 -0.017460894 0.19308124 -0.1407295 0.49827006 0.1834011 0.5503596 -0.059337582 0.008974889 -0.18003334 -0.19143562 -0.2057313 0.026669346
509 0.38111207 0.02172797 -0.22253242 0.049107626 0.2114285 -0.09547798 0.3790431 -0.36694682 0.26632777 0.05060845 -0.0073710014 -0.20745878 0.13794394 -0.17568743 0.40592337 0.1480125 0.05284278 0.22801563 -0.1389241 0.10564666 -0.012283101 0.08940019 0.07539684 -0.03492816 -0.17661026 0.11031941 -0.03685501 -0.30184487 -0.2672404 0.39593887 0.14184691 0.20176025 -0.5250228 0.12450252 -0.008307484 -0.051928535 0.09534812 -0.01460984 0.17228319 -0.30246773 0.13644342 0.21311773 -0.16739844 0.23318356 -0.1246058 -0.1355286 -0.17796813 -0.2110283 -0.09648798 0.0005835901 -0.057678662 0.1459605 0.3167509 -0.016163627 -0.041140832 0.0770671 -0.12353082 -0.13809197 -0.027953278 -0.3229031 -0.4873452 -0.48139802 -0.27923283 0.00536978 -0.108036354 0.066082746 0.0046530184 -0.09800764 -0.44756085 -0.3190568 0.06779494 -0.15178789 0.22552814 0.21068801 0.15603298 0.0034636538 0.1941791 0.08795028 -0.13974485 -0.3216332 0.031485382 0.40454674 -0.035656817 0.20543015 -0.6380242 0.00019195676 0.3135039 -0.10332561 -0.012762645 -0.056855068 -0.36639208 0.07243063 -0.113285825 -0.11520955 -0.075249515 -0.16288294 0.32932225 0.12794077 0.24654603 -0.18963888 -0.03612792 -0.26467305 0.08394567 -0.19136074 -0.025134085 -0.028502317 0.03232705 -0.21860799 0.06372213 0.13192554 -0.10075621 0.0837037 0.17142336 0.010177329 -0.23406786 0.22233668 0.0480339 0.19802055 -0.14089906 0.42115524 0.1803832 0.47291464 -0.07392641 0.0087634865 -0.12204322 -0.08065205 -0.26749444 0.02550371
239 0.29080793 -0.07698318 0.06461938 -0.2390249 0.4662274 -0.17387027 0.053501535 -0.47384796 0.11675307 0.30907375 -0.27895805 -0.20492008 -0.039989043 0.2004662 -0.28827348 -0.101088494 0.22235256 0.2264974 -0.091873586 -0.0069875745 0.1256902 -0.2391174 -0.4054259 -0.06614799 -0.17349139 0.107272014 -0.23220141 -0.22873007 0.4568633 -0.08176068 -0.2710326 0.20360066 0.01852216 -0.37901545 -0.6465465 0.12298851 -0.29301128 0.43328807 0.08788712 -0.36866793 0.014277633 -0.03285931 -0.21825647 -0.115600295 -0.23785543 0.24863116 -0.11537795 0.31340238 -0.11306183 -0.49778506 0.1081948 0.062393274 0.23759158 0.019998133 -0.30542353 0.016280225 -0.043380532 0.0063459245 -0.02256731 0.119629905 -0.40417734 -0.21030022 -0.028644165 0.19246462 0.26264688 -0.1168488 0.18362173 0.14646362 -0.150875 -0.05514427 -0.27959356 0.16029401 0.3334907 0.29224947 -0.23623763 0.103358835 0.23845062 0.0017705741 0.33105054 -0.14104326 -0.22110838 -0.22796278 0.085179016 -0.2791012 0.124715865 0.25068757 0.37231445 0.011312223 0.342213 -0.19498418 0.021017293 0.020278225 -0.28935647 0.05529977 0.1011043 -0.48939863 0.1398754 0.15852769 -0.058128096 -0.18515244 -0.20703463 0.3242981 -0.34472135 -0.29533926 0.13141064 0.1992442 0.522792 -0.24573305 -0.12706347 -0.06759196 -0.027623277 0.14828114 -0.12892659 0.05406793 0.20666027 0.11469085 -0.16669075 0.005400822 0.04833755 0.09373472 -0.16683395 -0.25420272 0.14766516 -0.15970983 0.011524216 -0.2864308 0.26739833 -0.1602288
217 0.39024475 0.19095096 -0.3644312 0.040033665 0.33473417 -0.12072627 0.36216098 -0.3385918 0.18982719 0.09638809 -0.17027089 -0.20204008 0.113687694 -0.16759953 0.31441078 0.18039523 -0.09110431 0.19013958 -0.17550774 0.025029577 0.032892954 0.13223213 0.08701907 -0.0060745482 -0.16464546 0.095477656 -0.02456882 -0.15859741 -0.1813463 0.2935599 0.16116603 0.16306885 -0.502998 0.121319205 0.062391296 -0.07283945 0.104417354 -0.058466986 0.17829607 -0.28979042 0.07723629 0.17313716 -0.11075955 0.22742565 -0.20589814 -0.08499397 -0.17082226 -0.13176349 -0.1610135 0.016577821 -0.0056971144 0.25922728 0.34865874 -0.057803817 0.059690952 0.10282411 -0.05670713 -0.037102446 0.08160471 -0.2669458 -0.5408285 -0.5089641 -0.28885847 0.077184916 -0.06777501 0.015201051 0.0045154686 0.013297657 -0.47562367 -0.5091347 0.081302725 -0.09570452 0.22284856 0.15834855 0.18322866 0.02341714 0.21044038 0.026296655 -0.047606163 -0.28610453 0.16016515 0.33913386 -0.08607633 0.24733768 -0.6656517 0.07837739 0.32332942 -0.057054527 -0.01094648 -0.03181704 -0.31523016 0.03431847 -0.039758008 -0.19388661 -0.086945415 -0.16135846 0.21338071 0.07861406 0.2065812 -0.17853443 -0.088827685 -0.19834957 0.05158693 -0.14175625 -0.010314389 -0.015636012 0.016949484 -0.22380161 0.029575707 0.09069347 -0.18687785 0.012426232 0.09057951 0.11750311 -0.3509491 0.18899392 0.034851678 0.24262512 -0.20186795 0.44736353 0.09759324 0.4226842 -0.13417318 0.046378966 -0.09539779 -0.061828513 -0.27808425 0.011219606
487 0.40120158 -0.06677116 -0.43271437 0.08373179 0.19306071 -0.18737364 0.37362882 -0.35883322 0.19839635 0.09351549 -0.10776484 -0.1892995 0.07139261 -0.21207729 0.29409555 0.17902207 -0.053328943 0.25427064 -0.19479477 0.22718036 -0.00097369857 0.07163423 0.1729492 -0.045160454 -0.17882514 0.10450246 0.03385801 -0.33118013 -0.15724124 0.3488364 0.07575821 0.14839312 -0.5125685 0.10486831 0.042495377 -0.06461715 0.086699896 -0.06466788 0.16706121 -0.31954286 0.06531757 0.09071285 -0.1092942 0.22408141 -0.31303966 -0.117429025 -0.15755558 -0.057472903 -0.10572554 0.09671173 -0.028458372 0.26674286 0.30542067 -0.034285557 -0.026713707 0.10322073 -0.07536535 -0.07107837 0.04780717 -0.3044788 -0.5044525 -0.5243963 -0.2472902 -0.101125 -0.0035025768 -0.02381558 -0.00036403062 -0.08599712 -0.41042116 -0.3432169 0.046011172 -0.20919013 0.22625971 0.26885757 0.1784289 0.18762994 0.12215533 -0.026864916 0.0016218498 -0.313701 0.015451981 0.43432468 -0.047464628 0.19146727 -0.70667654 0.07339134 0.30668172 0.02795663 0.051564343 -0.11924488 -0.411153 0.08934712 -0.14244437 -0.15700324 -0.0753108 -0.048696436 0.30301863 -0.0068504945 0.25022918 -0.18161468 -0.021787671 -0.23981069 0.19305615 -0.12984248 0.017068805 -0.089675106 -0.0030227187 -0.2687115 -0.026280768 0.18653582 -0.17035834 0.05959272 0.08342051 0.0949472 -0.25175962 0.31994322 0.09222134 0.21941815 -0.091391966 0.33109024 0.13164279 0.43674517 -0.013629195 0.03799199 -0.01108134 -0.13312602 -0.28913006 -0.043804605
477 0.3925494 0.003136266 -0.32940522 0.06007562 0.26406547 -0.0573136 0.38825557 -0.29807714 0.2516815 0.074187316 -0.17430457 -0.24330096 0.060736217 -0.28095958 0.34907624 0.102599956 -0.054578114 0.23006825 -0.068125084 0.064297765 -0.021022296 -0.005908966 0.07026294 -0.053627804 -0.08660356 0.13003674 0.0034061228 -0.22366968 -0.21796623 0.34950638 0.10911685 0.15657918 -0.5192334 0.081449 -0.06767516 0.060206864 0.0942311 0.017700767 0.20890637 -0.2734739 0.12084549 0.13528168 -0.10730639 0.23007588 -0.10704207 -0.14766298 -0.22094634 -0.12426299 -0.10052108 0.10813204 -0.097608395 0.16805613 0.34907117 0.08974281 -0.097438 0.103692815 -0.00016115251 -0.04720617 0.0490979 -0.2749899 -0.4543951 -0.44013134 -0.25119406 -0.026584739 -0.08321755 0.062099703 -0.094085254 -0.052528054 -0.44973567 -0.3733372 0.0036567615 -0.12685555 0.24318983 0.2356511 0.1558201 0.08612197 0.1713799 -0.04956893 -0.034146614 -0.27334046 0.16542484 0.46636233 -0.08669771 0.30480367 -0.5451004 0.09673166 0.26475376 -0.15680364 -0.044118904 -0.05211146 -0.3712771 0.08258323 -0.13720234 -0.08081697 -0.15765059 -0.15614477 0.3454577 0.11815949 0.19287702 -0.06523273 -0.09208196 -0.24194264 0.026992302 -0.17241774 0.034517173 -0.029252693 0.05031721 -0.22885236 0.07421681 0.15779807 -0.17273118 -0.024116222 0.19267394 -0.015623547 -0.29098013 0.15043308 -0.062459588 0.23203452 -0.10403317 0.41562423 0.19975628 0.36225912 -0.078057975 0.15134388 -0.12438182 -0.09019807 -0.2056717 0.026631903
474 0.4623189 0.15871714 -0.30904114 0.03521687 0.25308812 -0.16197154 0.3746126 -0.36778226 0.2700689 0.066972554 -0.10037174 -0.21382731 0.10733459 -0.21143742 0.3551332 0.08191857 -0.14794984 0.22809927 -0.2045011 0.071336865 -0.018551478 -0.013751723 0.13048975 -0.043463267 -0.18481487 0.081144586 -0.09648334 -0.19307956 -0.16910186 0.29705387 0.11629516 0.16357234 -0.4394386 0.0075816745 -0.07787315 -0.15070452 0.049730495 -0.043930024 0.15310375 -0.23587804 0.014923918 0.12393343 0.007944003 0.16173948 0.009852405 -0.1005113 -0.16418947 -0.1578139 -0.105229594 0.00610755 -0.15058164 0.19817981 0.4198112 -0.028178578 -0.03779368 0.027469132 -0.13383722 0.011608352 -0.0052137068 -0.32088417 -0.48278907 -0.48888713 -0.37467992 0.080230676 -0.011758956 0.053027105 0.007879394 -0.07807839 -0.49880055 -0.36178347 -0.02475478 -0.06882093 0.173626 0.24976784 0.119391814 0.042033926 0.0898347 0.03160991 -0.08572928 -0.2924739 0.037562445 0.43017656 -0.075355634 0.2375254 -0.53409225 0.055438787 0.23926963 -0.07060551 -0.053664867 -0.08866141 -0.40115732 0.02971978 -0.015210249 -0.08359227 -0.058274705 -0.1311148 0.2691321 0.114919096 0.21266659 -0.27559504 -0.012445629 -0.24689306 0.08914718 -0.14805324 0.023633508 -0.0005510401 0.067631826 -0.24379648 0.11449007 0.16553468 -0.12488977 0.08731462 0.041883692 0.037023574 -0.25209618 0.1689922 0.05178465 0.20283352 -0.21158937 0.50770366 0.17272358 0.356215 -0.08258997 0.049221236 -0.22942524 -0.12484547 -0.22393231 0.10192478
420 0.60886925 -0.10709394 -0.32027686 -0.19830568 0.034915235 0.12402644 -0.31941247 -0.17426795 0.26238942 0.10488308 0.051205624 -0.6198274 0.49938777 -0.24215026 0.0974087 -0.49944237 -0.3278736 0.13690788 0.30737552 0.071177505 0.6960639 -0.03975102 -0.11760727 -0.07238423 -0.3797845 0.22047159 -0.78290844 0.08592198 0.061506167 -0.33670723 -0.120050356 -0.1825307 0.00919653 0.2574259 -0.27877086 0.1990599 0.18702368 0.21833678 -0.38975015 0.1337429 0.12643786 0.28716367 0.007771243 -0.36884665 -0.48715436 -0.0017071606 0.76870006 0.43387577 -0.023001263 -0.7905704 0.41064832 0.3552537 0.52507323 -0.2578033 0.24433467 0.05143564 0.061869808 -0.45538515 0.04895814 0.43218112 -0.084111944 0.17835787 -0.47245744 -0.38181722 0.1719569 -0.14593993 0.2698103 0.13930297 0.56222206 0.20987578 0.08022697 0.16023402 0.3989648 -0.09720007 0.46217707 -0.2849044 0.58498275 -0.0626791 -0.13679898 0.15748651 -0.093605615 0.4001528 -0.13995989 0.42521545 -0.09746667 -0.00064367906 -0.14754003 0.3508744 -0.08617539 0.22008292 -0.4860519 -0.0312709 -0.24452142 0.30375862 -0.025493056 -0.25278434 0.47711945 0.16846383 -0.29706562 -0.23279512 -0.45911178 -0.063017316 0.042606875 -0.12136924 -0.38398793 0.3060395 -0.12631948 -0.08428958 0.17149194 0.2308455 -0.37060645 -0.007582806 -0.00057924056 -0.26835147 -0.3317841 0.4275853 0.25845703 0.0626846 0.6577064 0.0072278692 0.76514745 0.26802504 -0.110102385 -0.50098145 0.23266152 -0.115759246 -0.19464175 -0.19661038
85 0.3946528 0.16426057 -0.4648627 0.0008831863 0.17011589 -0.1183031 0.30435565 -0.28284267 0.1964998 0.10007249 -0.13888417 -0.24676175 0.11311556 -0.30982608 0.31912842 0.16497967 -0.03492021 0.16800609 -0.15414678 0.12391656 -0.044736225 -0.012029372 0.06041504 0.003395886 -0.098624535 0.13375159 0.08426236 -0.2793248 -0.16405912 0.3760684 0.042246506 0.16789171 -0.44355482 0.10278734 0.010325366 -0.084121965 0.09081477 -0.055959214 0.23459943 -0.29946446 0.09838034 0.07541253 -0.19987889 0.28426796 -0.12639567 -0.1417289 -0.15042971 -0.054916557 -0.08873548 0.14732394 -0.03611751 0.15532003 0.3570169 0.05646441 -0.017968623 0.183518 -0.12628913 -0.00088332704 0.026213951 -0.23468575 -0.4407632 -0.49655157 -0.30007362 0.046809744 -0.112654515 0.01959446 -0.008671055 -0.11317305 -0.52427155 -0.3743255 0.108439036 -0.1286674 0.24276535 0.17688185 0.18892796 0.04286003 0.28446975 -0.002016628 -0.037806895 -0.3695066 0.16543269 0.3631558 -0.018356081 0.19273806 -0.6193204 0.07049773 0.2024347 -0.07261501 0.003466034 -0.03784051 -0.30640143 0.078854814 -0.09844488 -0.14693245 -0.20961787 -0.0663184 0.3313955 0.0033463442 0.07014996 -0.09503177 0.00562772 -0.17489152 0.18754938 -0.11448414 0.038421985 0.05422629 0.07063907 -0.2283712 0.0030107787 0.20628455 -0.15252121 0.09053044 0.19969364 0.016779175 -0.22178951 0.28968146 0.0633307 0.15538056 -0.105423406 0.4234104 0.2007606 0.38660344 -0.18829757 0.052556142 -0.041351575 -0.17690101 -0.17636204 -0.106879905
187 0.5727432 -0.14777581 -0.18477175 -0.21920572 -0.05194118 0.0604779 -0.29035115 -0.2661443 0.3138575 0.073488005 0.08084634 -0.60546714 0.44031075 -0.1564286 0.19873105 -0.43367037 -0.27771527 0.10308332 0.27158937 0.07272237 0.64397293 0.00272795 -0.1198495 0.10068193 -0.40078548 0.2647598 -0.6974466 0.03546198 0.04358362 -0.34209397 -0.21165536 -0.14045364 0.046457853 0.29119548 -0.2824406 0.20013049 0.33750454 0.10888678 -0.36830616 0.1172354 0.14211233 0.3305033 -0.10256462 -0.3368927 -0.5982123 -0.10589534 0.7232855 0.5631816 -0.119941324 -0.83545613 0.37685323 0.4203631 0.47260022 -0.1569349 0.2800317 0.039503325 0.13527401 -0.23562907 0.09169871 0.47119057 -0.054365437 0.15939751 -0.42836547 -0.39033642 0.17640916 -0.093803905 0.17876875 0.25200582 0.5292656 0.41331163 0.24026303 0.10878603 0.34075168 0.025896952 0.3719848 -0.2226479 0.60928464 -0.044129264 -0.10202104 0.06268008 -0.06890549 0.36167285 -0.16079982 0.3143377 -0.117522374 0.15098345 -0.044230945 0.4192874 -0.17135754 0.3473358 -0.45779586 0.016990036 -0.19615845 0.16657296 0.045481876 -0.18203449 0.5194692 0.06687421 -0.26459974 -0.21724087 -0.39352205 -0.15045524 0.08939112 -0.14258607 -0.29458112 0.23401001 -0.2336223 -0.14813401 0.2385668 0.29780877 -0.28685054 0.03772313 0.017966717 -0.3323067 -0.2252094 0.31448007 0.33313826 0.088018514 0.7028934 0.0896708 0.63180923 0.2706969 -0.042934127 -0.4906025 0.26339605 -0.08733597 -0.23031744 -0.20532909
500 0.33266625 0.073809765 -0.31123587 0.07775696 0.27386215 -0.12722518 0.35479042 -0.37821016 0.18135974 0.0039081033 -0.12925753 -0.21743876 0.17426193 -0.24712908 0.3159304 0.14857614 -0.04982979 0.23926851 -0.055442233 0.10317097 0.05472379 0.09438962 0.04098805 0.023206554 -0.113484904 0.12792484 0.049242537 -0.20188493 -0.13107052 0.39536935 0.0387172 0.23390858 -0.4122551 0.10033721 0.0929384 -0.05811062 0.10466825 -0.070479296 0.2219436 -0.21652474 0.16600122 0.17865132 -0.15343593 0.1974849 -0.12166899 -0.052387558 -0.16378467 -0.14111106 -0.09017723 0.06257081 -0.0930882 0.15068677 0.3406661 0.059420787 -0.10323059 0.06349749 -0.16026253 -0.038883027 -0.00890105 -0.2710643 -0.50940305 -0.5645316 -0.31481552 0.025375353 -0.013625284 -0.07704096 0.01577612 -0.050272338 -0.4292983 -0.32957458 0.082112186 -0.17467308 0.22352472 0.22370611 0.19398397 0.10197913 0.2581886 0.014287627 -0.030869963 -0.35564256 0.09866061 0.4225045 -0.070147224 0.217043 -0.6472787 0.046977147 0.35450172 -0.08381624 -0.02535471 -0.0038702732 -0.40670952 -0.027418582 -0.043431602 -0.2753347 -0.05097544 -0.23490667 0.26570252 0.060088217 0.20108047 -0.18472397 -0.030132394 -0.23458458 0.11957682 -0.2152507 -0.026696527 0.08349497 0.009846727 -0.2845798 0.052132327 0.20657381 -0.08819835 0.0051719667 0.22983553 -0.009615652 -0.22210553 0.1696353 -0.018333267 0.22045888 -0.13492614 0.5220339 0.10770038 0.40530556 -0.15108679 0.1653112 -0.057741437 -0.07903534 -0.3435299 -0.09844443
430 -0.0740867 0.19520965 0.12383183 0.010778286 0.05152587 -0.14549114 -0.22000358 -0.030690972 -0.046400014 -0.013202605 -0.005433721 -0.32024643 0.34391114 -0.023492893 -0.32448632 -0.059092145 0.6766614 0.23037563 -0.43079045 0.10868263 0.52170986 -0.21196562 -0.3332726 0.26042902 -0.3971759 -0.19609725 -0.82375914 -0.06603794 -0.34669358 0.72564805 -0.01716371 0.5807508 -0.5461256 0.39308098 -0.65320665 0.37498355 -0.14085314 0.41610232 -0.32209337 0.24493358 -0.27182734 0.11494126 -0.058531653 -0.2809857 -0.27775824 -0.21645959 -0.18532805 0.60694957 -0.09525976 -0.86012 0.0066970703 0.07470861 0.69105047 -0.43594414 -0.41984078 0.07579412 0.412723 -0.15443191 -0.31472212 0.3230483 0.044773106 -0.5801874 -0.33240476 -0.15573676 -0.09542848 -0.050632562 -0.13161585 -0.49304837 0.008426806 -0.33683124 0.382208 -0.34292826 -0.51945835 0.23790587 0.12649722 0.03620635 0.40812975 0.09337309 -0.2987429 0.19805253 -0.021139063 0.24971448 -0.4432834 0.18754068 -0.35992575 0.10973032 -0.2711836 0.391598 0.60561526 0.13735828 -0.3784866 -0.38776988 -0.23396277 -0.51555973 0.47292492 -0.0033765514 0.3704508 0.17566079 -0.21341373 0.31216148 0.12448389 0.161608 -0.7423541 -0.04159848 -0.13976131 0.4433707 -0.3162458 0.7986512 0.10019803 0.4643016 -0.5653733 -0.3809134 -0.18969043 -0.025017964 0.07164055 0.32065964 -0.36987224 -0.04671572 -0.005769061 -0.39310664 0.30408186 0.32379428 0.27086145 -0.020666353 -0.39512128 -0.03355781 -0.15210114 -0.79985523
366 0.4202437 0.14017965 -0.43893993 4.8599017e-05 0.20508039 -0.1301311 0.28102884 -0.387476 0.20786761 0.061269283 -0.0835514 -0.2765426 0.11497105 -0.280072 0.3398376 0.05467223 -0.008319943 0.14302133 -0.108263806 0.04697832 -0.04296129 0.01946752 0.018769143 -0.022400353 -0.20934314 0.047919266 -0.07937148 -0.28495428 -0.12522319 0.32756242 0.093869165 0.20511718 -0.4716055 0.09792563 0.05155392 -0.039320316 0.06983374 -0.061768383 0.16789225 -0.25578058 0.09635111 0.057398137 -0.16584855 0.2242893 -0.17952122 -0.10358346 -0.19498357 -0.0756497 -0.066468716 0.091330156 -0.07822266 0.24607432 0.35091704 0.03382343 -0.013116927 0.22534372 -0.13188057 0.018770957 0.034699734 -0.29488814 -0.5211833 -0.44810152 -0.27837145 0.057590824 -0.062722534 0.08717856 -0.10711611 -0.02349345 -0.43835825 -0.42230967 -0.021555828 -0.11956677 0.2553431 0.10663557 0.13722713 0.11430757 0.16622528 0.009061012 0.028090421 -0.3664033 0.21502909 0.49709147 -0.119953774 0.21493521 -0.6709255 -0.04961613 0.19229226 -0.07571966 0.01945987 0.038690086 -0.38520893 0.087462075 -0.06464474 -0.15741204 -0.114219464 -0.1474749 0.265414 0.03727152 0.21880242 -0.23447268 -0.026491553 -0.13088556 0.09720594 -0.1061583 0.044982426 -0.024032587 0.08081567 -0.27275756 -0.019853514 0.23591124 -0.16298325 -0.013031556 0.12745208 -0.00729564 -0.30470482 0.2022727 0.00543719 0.29872668 -0.20063238 0.516457 0.12845777 0.43614447 -0.09349536 0.07934353 -0.0145694995 -0.034240954 -0.22046968 -0.00078161346
106 0.44217905 0.10879176 -0.35733324 0.044637922 0.2099907 -0.18327819 0.33846837 -0.32658505 0.22933327 0.0859049 -0.12888774 -0.2405535 0.13343966 -0.24706553 0.38090292 0.15497226 -0.05614602 0.2723922 -0.16333543 0.091807 0.017361702 -0.0191502 0.08401075 -0.05772384 -0.16980374 0.08790458 0.0073337425 -0.25891823 -0.19976982 0.43841854 0.089644834 0.1801319 -0.47027987 0.071910664 0.0036587461 0.030059375 0.15144625 -0.15699033 0.1211519 -0.29715955 0.048743982 0.14976923 -0.000100476725 0.22978239 -0.17726433 -0.12303289 -0.19423382 -0.09060642 -0.11996503 0.1445964 -0.022150308 0.25754547 0.35267994 -0.0007297397 -0.07360759 0.062024884 -0.059882138 0.0039324923 0.10985306 -0.25498676 -0.43446562 -0.47467417 -0.32604554 0.09008522 0.0037870985 0.06555978 -0.07319926 -0.020564897 -0.47702274 -0.30601335 0.09988851 -0.13497172 0.19244209 0.19121747 0.09235609 0.044258546 0.2657248 0.0685378 -0.06719768 -0.29945645 0.09417373 0.3090552 -0.1387583 0.22468352 -0.5485926 0.088271946 0.37363368 -0.09922697 -0.04619876 -0.02830757 -0.41260576 0.10728509 -0.1016815 -0.07902236 -0.14609832 -0.17906223 0.2754379 0.05089183 0.32390246 -0.16109361 -0.056792956 -0.26106676 0.04681712 -0.1767473 0.018383155 -0.026645867 0.026872884 -0.20085074 -0.047146168 0.14320548 -0.13248076 0.012185927 0.13792332 -0.01378685 -0.25932285 0.07106626 0.037546568 0.17820776 -0.13454701 0.4005002 0.15710147 0.47316793 -0.10886891 0.016646441 -0.03550759 -0.17792329 -0.23120403 -0.0026495825
300 0.34847397 0.152434 -0.26845217 0.12848398 0.26597175 -0.12888461 0.41014245 -0.38019234 0.30492714 0.14796354 -0.049629014 -0.31164548 0.08385467 -0.3178888 0.2560054 0.110669896 0.02625315 0.23417121 -0.026696509 0.123850696 0.042813074 0.019221047 0.10593563 -0.023401305 -0.08535653 0.11921977 0.00176102 -0.19425847 -0.18178757 0.4064899 0.15794003 0.22084635 -0.4364708 0.027246745 0.052409552 -0.08112312 0.21723266 -0.019937081 0.14489855 -0.21852998 0.044517025 0.092859045 -0.10418263 0.16928518 -0.122558706 -0.1719147 -0.22743711 -0.18290971 -0.11226853 0.059947863 -0.046893198 0.20986335 0.41624126 0.038428426 -0.077437125 0.1917881 -0.104552165 0.00043063244 -0.034795027 -0.36409524 -0.51864254 -0.53784734 -0.22814676 0.03293802 -0.012561947 0.12954403 -0.022434533 -0.06941983 -0.4842963 -0.3626857 0.12401866 -0.14308144 0.14488195 0.28605995 0.099640176 0.18387108 0.2879171 0.055915374 -0.009116554 -0.3691288 0.13836406 0.39272907 -0.11364603 0.23621789 -0.5569148 -0.012246796 0.2603601 -0.038789023 -0.069893606 0.07244648 -0.4059354 0.05024918 -0.114151895 -0.11270276 -0.072436206 -0.10267352 0.32755962 0.081755236 0.10923154 -0.16156027 -0.03490601 -0.3744376 0.15621963 -0.1653324 -0.020171672 -0.048836246 0.10312786 -0.23221111 0.066961244 0.14477463 -0.11068296 0.18492939 0.15511195 -0.030949285 -0.30667362 0.23705962 0.044625714 0.19447741 -0.11411484 0.4374199 0.18680471 0.41613555 -0.006904923 0.038000293 -0.0558803 -0.09197272 -0.31355795 0.044033054
178 0.3953675 0.09686953 -0.38084838 0.08039549 0.22569996 -0.1257899 0.26488236 -0.35361934 0.23974906 0.1034281 -0.103961505 -0.2599854 0.15942869 -0.19340415 0.29186603 0.193253 -0.076815434 0.2789806 -0.13699943 0.095942006 0.042184412 -0.0027340534 0.12671308 0.007424639 -0.1688356 0.1376322 -0.013528867 -0.19857544 -0.2781124 0.36737755 0.17112795 0.17535958 -0.44248074 0.0225392 0.014668362 -0.062589176 0.10228155 -0.14296824 0.19732477 -0.3008458 0.15210004 0.18749203 -0.06827517 0.18477099 -0.20565176 -0.041247502 -0.24601588 -0.14974083 -0.24799313 0.113799915 -0.059965968 0.28646335 0.4320849 -0.0017036141 -0.10691394 0.21039821 -0.12173953 -0.018201062 -0.04762807 -0.3782269 -0.5869787 -0.44762668 -0.28590912 0.05606271 -0.05162638 0.0033545222 -0.10797772 -0.0533899 -0.41723037 -0.37294477 0.11001007 -0.16476859 0.2950604 0.24720532 0.08099869 0.12652957 0.28287098 0.074946746 -0.015824053 -0.36727646 0.03670417 0.30291426 -0.10238187 0.16323301 -0.663622 -0.03284494 0.19944958 -0.13536565 0.017279185 0.025530912 -0.41212583 0.042197634 -0.01465214 -0.13850886 -0.05126716 -0.09041471 0.3533726 0.054990884 0.22946817 -0.100151256 -0.052256655 -0.26866677 0.039398734 -0.17760444 0.046487533 -0.0033227173 0.1118108 -0.28658408 -0.028599456 0.22946788 -0.16210537 -0.009855353 0.14386973 -0.024413433 -0.19906352 0.17535475 0.009458242 0.23614672 -0.14840467 0.48841757 0.15241969 0.45143557 -0.10509716 0.031000203 -0.17354234 -0.08665252 -0.28115553 -0.07248228
395 0.47095022 -0.20041482 -0.43714666 0.1509364 0.5769917 0.36868152 0.19920921 0.117835596 0.30207404 0.2716046 0.0086381305 0.19000761 -0.24465868 0.25174484 0.086407915 -0.4384318 0.18890418 -0.30695695 -0.28715658 0.087246165 0.09954609 -0.10760059 -0.22316442 -0.49125427 -0.12251002 0.29859078 -0.12831907 -0.03157986 0.3565883 0.15437946 -0.22243938 0.40047655 0.34927756 0.3777931 -0.3249929 0.07699031 -0.07133294 0.24762365 -0.19161363 0.1679726 0.058095668 -0.08993303 -0.08301818 0.0049749943 0.024569023 0.32269067 -0.16452555 -0.098450355 0.21938626 -0.43633854 0.3494208 0.60755885 0.12877375 0.16005655 -0.11444029 0.24500556 0.19838376 -0.21173467 -0.15068558 -0.23290248 -0.4879037 -0.47446722 -0.029690063 0.30722082 0.31277284 -0.15150121 0.1370333 0.15802035 -0.2753795 0.12864162 -0.17516212 -0.054441176 -0.16712515 0.46575764 -0.1927976 -0.08017798 0.30108878 -0.15774344 0.36366895 0.20642984 -0.22141841 0.053775877 0.36191452 -0.23430791 -0.13763829 0.07027253 0.5350176 0.03539819 -0.21302424 -0.062016606 0.1728612 0.01402089 -0.22367536 -0.07505164 0.23489214 -0.553803 0.5973578 -0.35927773 0.16498965 0.0867968 -0.10477159 0.2567859 -0.39074114 -0.31998628 0.42988384 0.15797746 0.81481427 -0.15356515 0.13832009 -0.06785284 -0.031019598 -0.09437009 -0.25346395 0.20167944 0.023263792 -0.07641759 0.29455253 -0.17319958 0.1743608 0.103199214 -0.12594631 -0.10339344 0.17939954 -0.13004829 -0.27102196 -0.46565062 0.41514722 -0.6892419
390 -0.024593268 0.21801864 0.01950498 -0.038123354 0.074967064 -0.14828533 -0.24052154 -0.024196876 -0.081898704 0.0032492592 -0.08870053 -0.20025791 0.39274895 -0.042485606 -0.19485079 -0.21906006 0.5800074 0.2685909 -0.32693067 0.21487632 0.5094686 -0.13748312 -0.33936137 0.26113367 -0.41690174 -0.22574621 -0.89082897 0.015165563 -0.4003949 0.76184064 -0.05651796 0.60497797 -0.58564276 0.347255 -0.5095078 0.56228876 -0.09412269 0.4790635 -0.17025217 0.05529272 -0.29710722 0.11430536 -0.062435165 -0.22001056 -0.27325442 -0.13411619 -0.067042954 0.6430702 -0.123033285 -0.8863893 0.08936443 0.024461685 0.65592784 -0.49275392 -0.46912965 0.0077030356 0.42280856 -0.100450344 -0.33072826 0.30752042 0.18712829 -0.61397004 -0.2887232 -0.20186995 -0.17215061 0.03515484 -0.20120838 -0.5219264 0.045162838 -0.3190289 0.34831384 -0.30475673 -0.39678925 0.19129059 0.12578623 0.09706611 0.43256846 -0.048939113 -0.44682732 0.24310564 0.04411431 0.3376884 -0.3481427 0.27884772 -0.32573503 0.11242538 -0.20794155 0.4149533 0.5894185 0.097359784 -0.32336065 -0.3305378 -0.29626745 -0.53798276 0.3307579 -0.0668635 0.2936488 0.19880629 -0.22061181 0.22856869 0.0056742914 0.13871798 -0.62525445 -0.14345036 -0.24045691 0.550813 -0.42062268 0.7896131 0.050523777 0.4132971 -0.5731654 -0.36541793 -0.24524756 -0.09385217 -0.009610463 0.34263372 -0.4178044 -0.15678942 -0.08345699 -0.3039154 0.4901401 0.26767477 0.21169838 -0.15504733 -0.39502645 -0.051419977 -0.14659011 -0.849491
275 0.522761 -0.21349292 -0.42953852 0.05609868 0.5343509 0.45215786 0.2075177 0.04714726 0.42301366 0.3111137 -0.09255961 0.13263224 -0.31945437 0.23210144 -0.024840772 -0.568897 0.2084152 -0.19247788 -0.1616998 -0.06667863 0.114971176 -0.12224565 -0.33663413 -0.39601544 -0.0029572695 0.26087636 -0.14789103 -0.008756253 0.34459704 0.14017938 -0.22550184 0.57697684 0.24116364 0.3654486 -0.37058598 0.065232076 -0.06891731 0.2737674 -0.09959637 0.089291036 0.024835505 -0.22321819 -0.14486234 0.16657206 -0.0028058046 0.36261848 -0.077514395 -0.24118942 0.2941862 -0.550886 0.5668941 0.58825856 -0.008687108 0.2783361 -0.071213365 0.21397439 0.14116336 -0.16137943 -0.1430937 -0.24258406 -0.4598982 -0.5085705 -0.09871126 0.26523134 0.21475412 -0.17582469 0.18295483 0.19924416 -0.23325343 0.13743365 -0.27891198 -0.13185383 -0.091843784 0.33468023 -0.10437898 -0.09257489 0.24451633 -0.23305511 0.19825071 0.12984125 -0.19948326 0.04939578 0.30156222 -0.17885278 -0.054477815 0.056545015 0.45318002 -0.0043401727 -0.21325237 -0.11426982 0.17239234 -0.06887063 -0.19407226 -0.03493015 0.15889062 -0.55996567 0.52048486 -0.27703264 0.12883821 0.070397794 -0.14792342 0.39450806 -0.24986264 -0.2802788 0.27038667 0.19464944 0.79612404 -0.186535 0.24095537 0.0020689052 0.00396224 -0.1344882 -0.25199258 0.21052305 0.002178668 0.015011829 0.2724333 -0.09524818 0.24372844 0.15472917 -0.09900231 -0.14041355 -0.023234783 -0.018312668 -0.37104398 -0.3086232 0.36863682 -0.63449925
460 0.43720242 -0.23756516 -0.47745314 0.050165005 0.48039442 0.39096045 0.26660478 -0.052882284 0.4297101 0.324455 -0.023096923 0.098211065 -0.17698431 0.18911034 -0.033059254 -0.663904 0.26899898 -0.2662676 -0.19150066 -0.059778642 0.19311884 -0.10914734 -0.25028756 -0.6169248 -0.075251825 0.31466916 -0.08148289 -0.13413961 0.43919018 0.30569842 -0.2979908 0.42960584 0.3627637 0.4435742 -0.43214697 0.16959764 -0.10998268 0.34826478 -0.13516103 0.110883325 0.056532484 -0.20567478 -0.14626673 0.20408833 -0.026097994 0.22229017 -0.062042996 -0.17141597 0.28480494 -0.46876526 0.4184318 0.52004856 -0.041378878 0.23076342 -0.07363658 0.17067264 0.22363669 -0.16212909 -0.21607791 -0.34324405 -0.402648 -0.64978975 -0.035272423 0.12386609 0.15623468 -0.12640353 0.27163243 0.2461761 -0.25287297 0.2285643 -0.2653481 0.015958585 -0.035810344 0.38943726 -0.16426963 -0.07731944 0.31528988 0.030545274 0.3309114 0.14313908 -0.3086219 -0.009941253 0.36532035 -0.14783001 -0.13191219 -0.0071824184 0.46051928 0.02862128 -0.19580606 -0.061626926 0.16610414 -0.10149825 -0.306915 0.015847707 0.13772023 -0.5864063 0.42172226 -0.27986115 0.14205177 0.09987917 -0.14828873 0.4454044 -0.2501797 -0.3841803 0.39103034 0.19178733 0.73523206 -0.11828317 0.17460385 -0.050405424 -0.033658735 -0.09371504 -0.21488139 0.3154811 -0.02727848 0.06456871 0.25156897 -0.13849057 0.18501626 0.24406487 -0.07532047 -0.25820994 0.13636102 -0.12508203 -0.26463518 -0.40686068 0.36224476 -0.7045134
399 0.38009888 0.23922351 -0.42182308 -0.092635036 0.17204688 -0.0070555937 0.26291102 -0.36579686 0.18170366 0.11377887 -0.067242175 -0.20408009 0.12643608 -0.22919752 0.3317369 0.13113934 -0.14183336 0.2651713 -0.10347293 0.105013534 0.025486117 -0.06906827 0.085465394 -0.071598224 -0.08660943 -0.019883778 -0.016769169 -0.27537253 -0.14482841 0.39695898 0.06268919 0.18400347 -0.44793084 0.038078967 0.049396884 0.00027453815 0.043176234 -0.06103579 0.13253786 -0.3059317 0.03209167 0.14082582 -0.085039265 0.20588915 -0.28694493 -0.22201045 -0.2171657 -0.14429522 -0.041667078 0.14307591 0.033180796 0.18575202 0.2338304 0.017220916 -0.06988297 0.14340281 -0.02294887 0.02843802 0.0025388782 -0.45835605 -0.39572656 -0.53126246 -0.3565766 0.09433622 -0.12573382 0.04015771 -0.089704804 -0.056155935 -0.48873943 -0.36614236 0.024778873 -0.077928536 0.23728445 0.21072966 0.033280447 0.032481242 0.23581088 0.07259942 -0.092612214 -0.34880906 0.114623524 0.29643974 -0.038980484 0.20099682 -0.6472483 -0.03628546 0.25931567 -0.09554321 0.024797313 -0.059011303 -0.2950732 0.23436114 -0.13008916 -0.18104148 -0.16757676 -0.10349067 0.31725082 0.09431176 0.15802413 -0.124194235 -0.10392026 -0.2594198 0.12920113 -0.17402202 -0.060397312 -0.011753571 -0.0061491407 -0.11649038 -0.043086227 0.23609403 -0.13144393 0.047303114 0.20238651 -0.0006270098 -0.30430782 0.11836489 -0.05008433 0.29927158 -0.16283469 0.43229827 0.22209555 0.39140806 -0.12585612 0.028832756 -0.020724067 -0.0650581 -0.18939047 -0.083772406
101 0.22373317 0.6251474 0.21250376 0.05002285 0.18007128 -0.17415933 0.5824009 0.13818377 0.52900225 -0.5162707 0.2404647 -0.35984814 -0.36101088 -0.06181365 0.6017849 -0.35043713 0.5592141 0.30092925 -0.19822511 0.38472915 -0.42675233 0.10802469 -0.018518228 0.00077221973 -0.09734516 0.4452024 -0.23628722 -0.29666233 0.93945706 -0.26239562 0.14395209 0.019549508 0.41803142 -0.56996053 -0.050873373 0.52372086 0.3379368 0.057489198 -0.020627126 0.03785621 -0.045097817 0.011462373 0.1068395 0.21480918 -0.10373932 0.14262816 -0.6042379 -0.118766956 -0.16164096 -0.44305733 0.048599336 0.28917414 0.39715967 0.25552768 -0.08357341 0.05945203 -0.019907368 0.13258453 0.16182822 -0.08842343 -0.3924873 -0.39507815 -0.23272157 -0.11060616 -0.3195603 -0.36594248 0.032086965 -0.09014751 -0.2522728 -0.35830763 0.20688601 0.33891854 0.010667938 -0.4410554 -0.07444357 -0.35877517 -0.21772526 0.086242735 -0.104025535 -0.33479756 -0.13327438 -0.07691181 -0.284559 -0.15844463 -0.68258935 0.44071975 -0.36034065 0.20214923 0.43510976 0.13676442 0.086915 -0.19275308 -0.13717377 -0.061330043 0.06844328 -0.42167622 0.14922702 -0.05805829 -0.22068684 -0.16848819 -0.09280105 -0.3256692 0.18172438 -0.12594074 -0.23460187 0.17687218 -0.25944325 0.37446404 -0.17073673 0.11603407 -0.1401371 -0.24778223 0.13275945 -0.10322866 -0.069772646 -0.30354545 -0.25763807 0.18520357 0.21385154 -0.71958506 0.03899806 -0.23158067 0.28189784 -0.11195142 -0.056315526 0.011042302 -0.14759085 -0.12484885
349 0.39403605 0.07557766 -0.46372095 0.019279182 0.2546154 -0.07287039 0.31325862 -0.3208884 0.17627972 0.11561934 -0.029857503 -0.27020034 0.103289485 -0.27013588 0.325891 0.124513246 -0.006841507 0.2126717 -0.06576475 0.09673267 -0.06049279 0.06023222 0.07369603 -0.043351367 -0.18627703 0.050627586 -0.016643394 -0.25227186 -0.12574336 0.32996884 0.18434963 0.20298909 -0.47718665 0.026070297 -0.11842498 -0.044335425 0.25185838 -0.07426925 0.19533217 -0.2805348 0.061697185 0.19455174 -0.05141627 0.19207901 -0.10259583 -0.105404675 -0.17713296 -0.2119043 -0.053166367 -0.008909108 -0.06929379 0.19413808 0.35226044 0.026656521 -0.16296944 0.14154348 -0.07871664 -0.0046107206 0.05768818 -0.37589234 -0.4809096 -0.42110154 -0.2368173 0.08789709 -0.031036973 0.079393394 -0.12614548 -0.13486317 -0.52465045 -0.34284604 0.049343478 -0.17513357 0.15479559 0.21545498 0.045281406 0.124000534 0.1616105 -0.06402971 -0.043277785 -0.37600213 0.11138738 0.36658338 -0.19217344 0.107863635 -0.54282033 0.070208706 0.13401014 0.019915001 -0.0067173727 -0.041232605 -0.40881518 0.06427809 -0.0236883 -0.17977431 -0.06418611 -0.0724153 0.35397935 0.13949022 0.17313844 -0.12839352 -0.06790036 -0.15682755 0.13090609 -0.15633161 0.019764448 -0.011031517 0.049642388 -0.19864845 -0.013072454 0.16996564 -0.18116361 0.035091627 0.14606446 0.04394303 -0.2924804 0.23401779 0.029555675 0.26385385 -0.118296005 0.44905657 0.2087196 0.4515596 -0.1154089 -0.022617174 -0.107023254 -0.014184903 -0.20316039 0.07937848
63 0.57772017 0.5044292 -0.100737475 -0.41833416 0.14977495 -0.12809238 -0.43716922 -0.4863505 0.3018733 0.40887743 0.43932012 -0.4995938 -0.07582419 -0.5204315 0.2329845 0.36601695 0.25766963 -0.030009542 -0.22733498 0.24358831 0.16243716 -0.16006401 0.4093576 0.1475749 -0.3397158 -0.54466385 -0.25205588 -0.061522406 0.5565925 -0.12665479 -0.178911 -0.057986706 -0.22408792 0.34609172 0.25178957 0.32302815 0.36239016 -0.09586242 -0.6516945 0.44084832 -0.31414223 -0.09583746 -0.22140452 0.4927485 0.021638788 0.22339153 -0.29376575 0.3713274 0.68851894 -0.28986126 -0.423958 -0.12555191 -0.003524145 -0.33717638 -0.26382107 0.8362919 -0.035318375 -0.20563255 -0.45865312 0.050190784 0.26651022 -0.17096709 0.2999648 -0.02768192 -0.2419373 -0.2894132 0.010549403 -0.1300286 -0.056685515 0.51323813 0.7287447 0.2691562 -0.8522674 0.41195536 -0.17878531 0.031746335 0.13223946 -0.077521235 0.047088467 -0.28390673 -0.7212224 0.45364463 0.0708151 0.023237841 0.07288347 0.6448688 0.17231117 -0.49877226 -0.10133823 0.11709477 -0.29229125 -0.3904432 -0.4457371 0.06625826 0.07672399 -0.53323215 0.51081544 0.4157181 0.09006406 -0.5135679 -0.070602246 0.025263269 -0.4375296 0.06845887 0.13458489 0.37971407 0.38748056 0.22018051 -0.23310561 0.19994679 -0.36400384 -0.21282452 0.44428855 0.21362658 -0.21066475 0.24403758 0.41329747 0.66772944 0.05436515 -0.443589 -0.3707202 -0.5140198 -0.7426695 0.31948718 -0.1699474 -0.84215343 0.44576266 0.0018759118
530 0.5700468 -0.19102935 -0.4127298 0.039125018 0.5357061 0.44093654 0.31841126 0.013625387 0.4131764 0.32914373 0.016813323 0.036016326 -0.27419668 0.1802722 -0.0328421 -0.49265802 0.19785184 -0.23605363 -0.19279079 -0.03803775 0.050336763 -0.090783164 -0.23992741 -0.43695173 -0.07515699 0.24182716 -0.047755767 -0.0864533 0.28536078 0.24569584 -0.13719246 0.56980586 0.43340462 0.472298 -0.43247542 0.046752676 -0.21419038 0.35652307 -0.16631015 0.03209853 0.05113085 -0.26053673 -0.1009018 0.113153145 -0.04132919 0.30994183 0.015587503 -0.09586451 0.23003821 -0.50501454 0.50798 0.56020844 -0.022851598 0.21214344 -0.11322219 0.076581486 0.15276529 -0.15060368 -0.12989287 -0.2861388 -0.42772233 -0.5839572 -0.041578542 0.23121165 0.16258655 -0.12253822 0.23132859 0.13842726 -0.23611227 0.25069565 -0.24832404 0.011197146 -0.069587596 0.4697239 -0.1656839 -0.10064755 0.22674115 -0.043561563 0.21782729 0.13428736 -0.23926471 -0.043464176 0.31135592 -0.099977314 -0.08618797 0.089765124 0.41495597 -0.03509663 -0.25004387 -0.14022528 0.23685886 -0.084071696 -0.17540355 0.0676757 0.11351324 -0.60244745 0.62626904 -0.31397477 0.08654994 0.12802666 -0.110789455 0.3405425 -0.4220453 -0.2944926 0.27201217 0.09613067 0.81835264 -0.10444345 0.2201055 -0.030081363 0.08970824 -0.14930128 -0.1433993 0.33447498 -0.052046213 -0.13678174 0.22548671 -0.06863913 0.23153281 0.12147509 -0.030391691 -0.090070315 0.07732112 -0.083399706 -0.42487755 -0.2731351 0.27851272 -0.63946676
181 0.42835826 0.1543254 -0.27659446 0.023728838 0.25025186 -0.09061499 0.36685508 -0.37417144 0.26441714 0.1015326 -0.056342103 -0.29810637 0.14577474 -0.2639402 0.35416436 0.12329602 -0.09977948 0.2750487 -0.0842151 0.050625257 -0.02849271 0.056056026 0.19630438 -0.16856313 -0.19321658 0.13479231 -0.030324891 -0.1718915 -0.23725449 0.36136124 0.17708716 0.17940842 -0.434627 0.15278386 -0.037183937 -0.04316553 0.15475917 -0.132683 0.19876836 -0.24354142 0.089391865 0.119917296 -0.11869554 0.22378413 -0.13954541 -0.16016784 -0.19296128 -0.14943384 -0.056211002 0.07634364 -0.016450686 0.28282505 0.46776718 -0.028093496 -0.0733299 0.15860778 -0.090382606 0.079136215 -0.005145205 -0.30936232 -0.40703097 -0.49386898 -0.28854796 0.0029997365 -0.10175744 0.052043937 -0.03615902 -0.14492363 -0.38021863 -0.3209324 0.008731846 -0.19974597 0.18252416 0.18977673 0.06473962 0.11221401 0.3156765 0.06923932 0.016403051 -0.37591264 0.021637896 0.33103195 -0.024012065 0.21289116 -0.67508733 0.033421658 0.19391702 -0.017896963 0.013692384 -0.017421361 -0.35361624 0.10449844 -0.06472199 -0.11380295 -0.01272282 -0.11386154 0.2896598 0.08073754 0.066565916 -0.19023256 0.017255286 -0.16130108 0.086256556 -0.1684318 0.08398224 -0.04920582 0.05974686 -0.25209382 0.019102335 0.14231883 -0.16388732 0.0082970075 0.1627001 0.013110428 -0.21693105 0.17059386 0.071051486 0.29898766 -0.13885316 0.5023825 0.16950525 0.3144793 -0.052184556 0.020276068 -0.046177316 -0.11638685 -0.2686097 0.057948053
394 0.2353667 0.5336133 0.2934649 0.05778297 0.21045998 -0.048306543 0.5235804 0.059755642 0.43840486 -0.46894386 0.27752885 -0.3716781 -0.39958298 0.102377884 0.5141069 -0.26733598 0.504039 0.41532275 -0.1490277 0.38036406 -0.41290018 0.020935465 -0.016030308 0.09196318 -0.060046844 0.37527585 -0.3088369 -0.38311392 0.8731622 -0.1222459 0.18019119 0.04543916 0.42864487 -0.50930595 -0.028665002 0.4923273 0.36770192 -0.03383267 -0.0716848 -0.014813017 -0.16420911 0.031594288 0.10014665 0.19282234 -0.03571345 0.1561873 -0.4903631 -0.07475939 -0.05815078 -0.446371 0.02639033 0.32388476 0.395145 0.37480032 -0.10701068 -0.013709763 0.070785865 0.06748259 0.07425743 -0.071619585 -0.42828646 -0.3622402 -0.19665538 -0.23694696 -0.36142287 -0.3335973 0.23067318 -0.16652727 -0.2621785 -0.26548094 0.10993619 0.2775186 0.09159921 -0.50915223 -0.15481469 -0.38632962 -0.13046606 0.13275707 -0.0499834 -0.33717504 -0.03182358 -0.041133758 -0.3099727 -0.12284996 -0.5973957 0.47982645 -0.44182217 0.21690622 0.39856997 0.24694711 -0.083158135 -0.192646 -0.08833759 -0.040191565 -0.011353952 -0.34838334 0.07256772 0.016459597 -0.25259832 -0.07630407 -0.15152341 -0.39846677 -0.018872518 -0.01447089 -0.07940906 0.06682203 -0.19269927 0.25673032 -0.056908105 0.22605464 -0.17840639 -0.24871707 0.15259072 -0.06410901 0.02105351 -0.15704693 -0.2911992 0.13874297 0.19305211 -0.6446907 0.006910994 -0.08220078 0.297857 -0.16459428 -0.06920313 -0.07592279 -0.11480487 -0.12258869
69 0.511642 0.56040704 -0.04631037 -0.52412224 0.06075053 -0.016280893 -0.4478309 -0.53008807 0.48735735 0.4186242 0.34875113 -0.5780919 -0.36822143 -0.5050085 0.41919777 0.47669262 0.21761955 0.061947886 -0.14679956 0.14073561 0.026681812 -0.1761508 0.35195443 0.16361202 -0.4316314 -0.6285086 -0.0319526 0.070349075 0.507836 -0.113570824 -0.10947996 -0.15126269 -0.15678671 0.2858523 0.22896774 0.29998565 0.28041404 -0.028144827 -0.6559109 0.48089588 -0.33184117 -0.062449604 -0.22711788 0.5607033 -0.06470338 0.30071548 -0.33137733 0.40179542 0.65249187 -0.30622527 -0.41233438 -0.11654659 0.091638446 -0.39450958 -0.2528038 0.8726979 -0.007856235 -0.20096119 -0.49581036 0.14975199 0.19959836 -0.061284237 0.44992724 -0.1597927 -0.17875487 -0.37834337 -0.060712546 -0.2850809 0.07308365 0.43101564 0.8036289 0.26103607 -0.90630305 0.5116207 0.021115953 0.012645916 0.23959887 -0.093731456 0.10359421 -0.31699547 -0.7790678 0.50137365 0.13965432 0.09926663 0.09429048 0.55286473 0.12001444 -0.36474392 -0.16220373 0.2771366 -0.38471106 -0.39209998 -0.38169098 0.06231083 0.23208995 -0.57735324 0.5926258 0.5171909 -0.07912013 -0.40839198 0.039637588 0.117095366 -0.43053174 -0.2858654 0.07343318 0.23787238 0.4833513 0.051237613 -0.16329186 0.3277771 -0.3746766 -0.18800162 0.40578118 0.29644883 -0.05812033 0.4098527 0.40984118 0.58230966 -0.007887512 -0.38231832 -0.29048565 -0.41684347 -0.7288376 0.18269065 -0.20291017 -0.8131325 0.60219043 -0.040365867
330 0.0011361539 0.31131506 0.06866666 -0.103982516 -0.092523344 -0.10931398 -0.08702148 0.13648303 -0.061477274 -0.061878506 -0.17093243 -0.25279906 0.2446453 -0.29293063 -0.3308943 -0.001378233 0.6057302 0.42817512 -0.3678224 0.20697437 0.46332106 -0.07498329 -0.37599257 0.30725092 -0.296379 -0.0857063 -0.934729 -0.048684213 -0.35071188 0.62040466 -0.08392245 0.7988391 -0.45353517 0.36771175 -0.58459216 0.5727872 -0.119361944 0.42050517 -0.29669252 0.08832093 -0.1673307 0.110273354 -0.10003937 -0.19763933 -0.3922816 -0.084292166 -0.21225314 0.7159503 0.006860163 -0.83728087 0.08365237 0.12935796 0.6238196 -0.49842095 -0.43307748 0.04188653 0.5039073 -0.067214906 -0.23974739 0.3219259 0.31331733 -0.60412717 -0.2859276 -0.25993234 -0.11200697 -0.016601857 -0.12573063 -0.3954199 0.028211745 -0.52371657 0.33608726 -0.4581017 -0.36834732 0.21367142 0.1740067 0.21704836 0.44947702 -0.06103826 -0.37746927 0.2356896 0.11528853 0.24031228 -0.3386363 0.287943 -0.35388425 0.16076955 -0.338886 0.29792085 0.54119974 0.24068919 -0.17876047 -0.3848299 -0.35576788 -0.4705206 0.51572126 0.18057005 0.3709217 0.32913855 -0.31291142 0.18230371 0.0083673345 0.09903187 -0.6761003 -0.20919116 -0.0992104 0.40714854 -0.312928 0.86657995 0.11577256 0.45616746 -0.5333968 -0.4471886 -0.04849617 -0.036710646 -0.03747792 0.5610635 -0.4340844 -0.076894104 -0.021885443 -0.4164231 0.21121779 0.3479751 0.32272446 0.0133980205 -0.26123223 -0.13084449 -0.26662192 -0.8323024
464 0.2845959 -0.20065433 -0.021124693 -0.26675537 0.46239308 -0.025242236 0.05861455 -0.2885758 0.18665347 0.20797363 -0.40026626 -0.10670758 -0.04380367 0.16146871 -0.095345445 -0.096718475 0.31930044 0.119959675 -0.15204754 -0.15633431 0.08184148 -0.16846758 -0.48963133 -0.00026781752 -0.19376469 0.2455451 -0.28910744 -0.26190665 0.49134293 -0.04863734 -0.35437465 0.27022496 0.014384619 -0.1343719 -0.5923458 0.15026236 -0.14227122 0.47158912 0.21749493 -0.22008012 0.11842183 -0.0054828464 -0.23335734 -0.009312076 -0.09296109 0.27217233 -0.0708072 0.2886738 -0.107553065 -0.47641608 0.047581907 -0.009396145 0.0075487983 0.22855218 -0.30887312 0.03692674 0.11609818 -0.0755277 -0.012389316 0.23418769 -0.45840955 -0.15643202 0.029924886 0.29877228 0.09846861 -0.33431667 0.12127759 0.45168042 -0.25669342 -0.053272244 -0.2857114 0.18200159 0.205308 0.33700204 -0.15939239 0.0053401696 0.2742001 0.04470308 0.29557595 -0.11018553 -0.16137439 -0.2611663 0.091177285 -0.22778276 0.018118521 0.04767757 0.29084077 0.060270473 0.29404268 -0.13625388 -0.11807281 0.054785382 -0.31705117 -0.014528143 0.10167912 -0.5005779 0.35154802 0.13969277 -0.18458627 -0.19266137 -0.22667448 0.3115408 -0.3430207 -0.3053192 0.19880292 0.080705635 0.5527317 -0.3308731 -0.0358232 -0.07813799 0.08437296 0.21857478 -0.099322125 0.01697852 0.12204892 0.17244582 -0.1324387 0.09160722 0.021625016 0.15787165 -0.09688491 -0.30103037 0.11690377 -0.20989615 -0.11773204 -0.24911329 0.19538008 -0.08394325
134 0.41994005 0.105723806 -0.3829052 0.06229587 0.073100835 -0.09499369 0.432404 -0.36568797 0.23194134 0.1322048 -0.18340603 -0.23090714 0.04931267 -0.31284988 0.38558552 0.125604 -0.044063296 0.2971348 -0.064818814 0.13808341 -0.08540133 -0.035519462 0.21448852 -0.09323288 -0.19654287 0.021586064 0.021987284 -0.214431 -0.12179333 0.33629993 0.16546157 0.20274292 -0.44810605 0.13407768 -0.007158347 -0.06926492 0.18281914 -0.08547918 0.26145178 -0.24457373 0.047698483 0.04420893 -0.06258542 0.21812533 -0.21827695 -0.17235984 -0.19534187 -0.095061325 -0.09630973 -0.015904576 -0.065168895 0.13926592 0.3733182 0.07389433 -0.06739611 0.17804745 -0.06050167 -0.060843524 -0.012293778 -0.37271583 -0.37828594 -0.48407018 -0.29850632 0.15202369 -0.06726312 0.11180493 -0.006396455 0.06775644 -0.35913625 -0.37315336 -0.00037603197 -0.16469614 0.21140958 0.200644 0.11623327 0.038204856 0.24319158 0.027408855 -0.034851436 -0.2383615 0.11769155 0.35091326 -0.021922506 0.1885393 -0.66164184 0.124629006 0.23556842 -0.039540954 -0.030675972 -0.023934199 -0.34030297 0.15074418 -0.1701488 -0.0906363 -0.034517873 -0.16679516 0.29874614 0.092711106 0.09053344 -0.13195202 0.035176028 -0.28739366 0.15102693 -0.12667778 0.08494905 -0.02931442 0.14915882 -0.2954453 -0.0069521023 0.15929496 -0.17662206 -0.041625284 0.15489106 0.06627665 -0.17389844 0.15192163 0.037745893 0.26327026 -0.120769985 0.46294576 0.23910618 0.4242945 -0.05306033 0.108566724 -0.17251667 -0.030605398 -0.32594436 0.01767673
489 0.035696972 0.1937755 0.0901108 0.006354099 0.05205499 -0.11345957 -0.19308943 -0.02388769 -0.07339901 -0.13784862 -0.084862836 -0.31069735 0.31244677 -0.089937724 -0.2761791 -0.20679402 0.53033674 0.2027382 -0.39232633 0.11676721 0.3589885 -0.10860858 -0.33385748 0.2975176 -0.34718838 -0.18476097 -0.7971314 -0.057521172 -0.4574925 0.84270996 -0.09088304 0.6248832 -0.4304084 0.52769274 -0.47378466 0.4600794 -0.18728334 0.4376266 -0.23535411 0.12480748 -0.2285937 0.18168235 -0.0474933 -0.16640735 -0.20750754 -0.16761747 -0.030862737 0.60312355 -0.11486709 -0.9789376 0.1745918 0.080504306 0.51037025 -0.4011267 -0.5468896 -0.076878615 0.41363546 -0.1449362 -0.2185914 0.47915554 0.16315344 -0.5122885 -0.4115647 -0.28259516 -0.06499819 -0.033749964 -0.15096064 -0.45368233 0.004414748 -0.30892342 0.40223646 -0.37741327 -0.4030579 0.28414935 0.21586984 -0.004223449 0.41158235 0.0005198552 -0.46183 0.31007534 0.04523863 0.33282095 -0.3044788 0.28973392 -0.2301658 0.19527784 -0.16723727 0.3656774 0.5999341 0.15507066 -0.37201592 -0.33046883 -0.26628745 -0.51079315 0.38876334 -0.08398457 0.45382008 0.24316365 -0.20557621 0.1640734 0.12967567 -0.080440685 -0.6590652 -0.20637447 -0.21132903 0.40858784 -0.3592422 0.7666576 0.15946262 0.29821265 -0.46556577 -0.33080435 -0.17880444 -0.057779025 0.08878148 0.334629 -0.33182168 -0.030715209 -0.097541265 -0.46499228 0.31286678 0.31349105 0.16655001 -0.03595476 -0.38070953 -0.08795063 -0.17862971 -0.836941
503 0.5539496 0.6738019 -0.17535089 -0.4956943 0.16707797 -0.23312567 -0.3107743 -0.44810557 0.3271405 0.5296341 0.465404 -0.4600287 -0.28915027 -0.4753288 0.34440738 0.29894516 0.29394546 0.041998703 -0.28111333 0.19126217 0.09504203 -0.18481325 0.43774524 0.16639295 -0.24914742 -0.6237375 -0.31183538 -0.07565967 0.5194289 -0.13115354 -0.20181556 -0.1124142 -0.107817516 0.34386125 0.32417485 0.37512976 0.19081393 -0.13642521 -0.67600244 0.5266443 -0.2645383 -0.040538374 -0.10281081 0.58168817 0.0657685 0.20569855 -0.28694308 0.31965026 0.54088193 -0.28082484 -0.38519368 0.0029382554 -0.004258545 -0.27167732 -0.2563246 0.8037001 0.04092864 -0.3738828 -0.41813856 0.026079148 0.22115323 -0.100273624 0.31948918 -0.056135923 -0.08648951 -0.31044742 -0.0659349 -0.18961877 0.03193669 0.38366982 0.70174235 0.2504368 -0.74486613 0.41189867 -0.0279913 -0.015204639 0.234183 -0.09232134 0.0567977 -0.12871198 -0.668013 0.5671818 0.07389726 0.13811067 0.06598845 0.63615996 0.17014484 -0.39382607 -0.17084755 0.25120795 -0.3604327 -0.3441293 -0.45628938 0.010687538 0.042036775 -0.549981 0.43158394 0.5182579 -0.020509554 -0.5038832 0.03505597 0.08301812 -0.3991359 -0.13443132 0.21706271 0.2279979 0.40211368 0.17667793 -0.08498198 0.21739666 -0.40184668 -0.24082483 0.38397267 0.17046389 -0.28723788 0.27818006 0.36816937 0.48898092 0.011153569 -0.4181185 -0.47088596 -0.4297414 -0.46449137 0.3078479 -0.17580912 -0.80644315 0.5736464 -0.015042616
452 0.18750268 -0.19046275 0.010241306 -0.100071885 0.48363638 -0.11579853 0.17402315 -0.45545843 0.15656525 0.07872907 -0.51608247 -0.15354444 -0.05253188 0.22169867 -0.07116661 -0.083321095 0.23424046 0.10401241 -0.27798033 -0.11465113 0.06629607 -0.0023720968 -0.6644804 -0.05136021 -0.04890004 0.052346956 -0.3791393 -0.31591403 0.46990573 -0.011573196 -0.32147372 0.26240498 0.08833656 -0.06719046 -0.73671824 0.1737371 -0.25951508 0.37570244 0.012216899 -0.27105182 -0.032613482 -0.076338075 -0.28360426 -0.032789387 -0.2708865 0.32593086 -0.15076227 0.4631094 -0.09752737 -0.38761818 0.20870422 0.038413666 0.003698935 0.152804 -0.27464914 0.012406073 0.19074926 -0.11752934 0.12018656 0.1780048 -0.32582626 -0.13473694 -0.05526356 0.09299659 0.10263538 -0.26433372 -0.028932042 0.3443032 -0.2361647 0.02141484 -0.19776411 0.22376779 0.076276965 0.31973904 -0.2228022 0.14437716 0.32345378 0.0039087636 0.33407655 -0.09168717 -0.16399078 -0.0714035 0.24925497 -0.23335676 0.049054556 0.119494446 0.36354163 -0.018824892 0.22967628 -0.024230465 -0.121359274 -0.057480637 -0.3715991 -0.0052903523 -0.04402078 -0.6024871 0.04654578 0.08293664 -0.1104975 -0.3141517 -0.3526966 0.32235324 -0.3745879 -0.40196916 0.15764296 0.16609062 0.43544596 -0.3323136 -0.10093896 -0.11928334 0.02495525 0.17727448 0.11294662 -0.04612555 0.25185332 0.14037547 -0.10639662 0.09211265 -0.110243775 0.14661916 -0.16891685 -0.22867957 0.16116081 -0.27728188 -0.037228264 -0.4586588 0.20708804 -0.11939443
209 0.43852162 0.13143349 -0.3037534 -0.029951008 0.1726497 -0.08999523 0.24192116 -0.31377164 0.26913583 0.050508503 -0.14319596 -0.21191445 0.10675742 -0.26258454 0.37061468 0.13566236 -0.07106285 0.14470391 -0.190439 0.04558719 0.05073582 0.091035835 0.115650825 -0.006689595 -0.07557166 -0.009365053 -0.04811151 -0.2829952 -0.10284011 0.33909136 0.16172889 0.18989068 -0.4859513 0.06849691 -0.05739894 -0.03719245 0.106916 -0.06599296 0.14698727 -0.28719538 0.13241601 0.08227004 -0.17482993 0.2551076 -0.1407317 -0.085661575 -0.24039938 -0.19458593 -0.10999523 0.066878155 -0.030960951 0.21619914 0.36041173 -0.0030801764 -0.13993706 0.113529116 -0.100908786 -0.067771606 0.005296545 -0.2786566 -0.49341124 -0.5495833 -0.30756038 0.00694417 -0.0904846 0.0075919554 -0.061913498 0.0030010114 -0.39935157 -0.35703036 0.03328445 -0.21460462 0.12216346 0.26504567 0.12948138 0.07818403 0.20105302 0.083148286 -0.10168977 -0.32003874 0.08494006 0.41589558 -0.10048952 0.20448633 -0.61542857 -0.01812501 0.24549998 -0.07389919 -0.07759047 -0.09619534 -0.3660236 0.19727579 -0.07581174 -0.17902032 -0.04357017 -0.19784133 0.26233247 0.06522382 0.12943597 -0.19741492 0.1159377 -0.21975109 0.008251041 -0.21172883 0.025383584 -0.050835714 -0.031021401 -0.15724145 0.12399061 0.15205707 -0.22605377 0.057116136 0.2281254 0.08143054 -0.21052371 0.18413949 0.10641928 0.32375 -0.17920747 0.42951518 0.10373199 0.37199193 -0.10741283 0.03450632 -0.084491596 -0.037585143 -0.3325376 -0.008184687
131 0.27110708 0.5064362 0.27971762 0.053979903 0.17572145 -0.086785875 0.5868799 -0.010775085 0.448494 -0.49346447 0.19513305 -0.42505756 -0.33611497 -0.07208211 0.4884896 -0.25959072 0.48299426 0.3058932 -0.21819901 0.39993173 -0.45463067 0.15476361 -0.19422175 0.046008848 -0.061421517 0.37476814 -0.37250257 -0.3619727 0.79696125 -0.1642978 0.34099182 0.11225585 0.5399256 -0.51384413 -0.040008888 0.5795465 0.21956693 -0.04800886 -0.11967173 -0.06213274 -0.14586735 0.15506704 0.095599875 0.26370668 -0.01784376 0.3196193 -0.5209473 -0.010050767 -0.20438579 -0.5539673 0.055444926 0.34968963 0.3154226 0.4466267 -0.17606175 0.01994961 0.11671979 0.08337407 0.15572983 0.05082166 -0.40455624 -0.25385338 -0.22786126 -0.09305082 -0.2654139 -0.36467052 0.06831566 -0.18129306 -0.36673975 -0.35564122 0.12171112 0.3125655 0.13383432 -0.3647984 0.0469834 -0.39221343 -0.2854962 0.16755596 -0.031214133 -0.3662873 -0.06476951 0.009082227 -0.33207107 -0.1489943 -0.6041281 0.49692923 -0.3499855 0.16357987 0.28722787 0.29439962 0.013616409 -0.3020867 -0.008704598 -0.15525232 -0.033179294 -0.4103251 -0.0066359574 0.0082395775 -0.19824706 -0.22074328 -0.17863156 -0.4358215 0.06113868 -0.11644618 -0.024135392 0.07091974 -0.22797729 0.3048899 -0.040257175 0.12591122 -0.26454306 -0.21994956 0.13750009 -0.18756224 -0.12813298 -0.2906416 -0.11870984 0.120381266 0.30115384 -0.72723174 -0.11893337 -0.15081696 0.18951924 -0.124262676 -0.2124695 0.012138151 0.009171251 -0.30825305
125 0.38025916 -0.25649709 -0.13812484 -0.28428492 0.48936766 -0.07992662 0.038235117 -0.30247828 0.42825022 0.20987935 -0.50493014 -0.014291063 -0.07027278 0.08242852 -0.11184761 -0.04710627 0.46740618 -0.016805492 -0.25971434 0.06442477 0.067947 -0.33786905 -0.5147006 -0.11450834 -0.25645083 0.32491347 -0.22963116 -0.25601402 0.3088269 0.110805504 -0.4211636 0.26828748 0.5611377 -0.14999132 -0.5918811 0.17670666 -0.11218905 0.39676318 0.062019426 -0.03320973 0.24075957 -0.102988705 -0.22435844 -0.104220256 -0.19386543 0.34629154 0.0045433184 0.4426408 0.07481775 -0.41914168 0.23148465 0.1389702 -0.11921776 0.30784607 -0.23654969 0.008764273 -0.013758462 -0.07550435 0.12721068 0.13604157 -0.3291666 -0.042566758 -0.1214003 0.22950639 0.17714117 -0.31892443 0.10839232 0.32306498 -0.22180015 -0.085886955 -0.15045224 0.32597995 -0.051473204 0.20204175 -0.17438224 0.22140212 0.26841724 0.033425596 0.380238 0.04472581 -0.214442 -0.13899873 0.39595163 -0.13567692 -0.13901624 -0.101033136 0.33302042 0.07168528 0.31029508 -0.043400057 -0.49880335 0.2730157 -0.29783568 0.0075489553 0.082978696 -0.45734015 0.25378785 0.16322024 -0.16860895 -0.3383836 -0.24752022 0.50894344 -0.2546593 -0.1853881 -0.057796776 0.23491155 0.6057291 -0.23847158 -0.058326885 -0.040139027 0.0412066 0.0596421 -0.10021682 0.02680497 0.16994995 0.15860571 -0.08403058 0.06623293 -0.22077158 0.1004887 -0.25577587 -0.27430397 0.2654622 -0.10991955 -0.19485377 -0.37385082 0.24521069 -0.11493977
311 0.33933604 -0.19743901 -0.18644413 -0.29892036 0.42927822 -0.08712358 0.019321788 -0.21702085 0.32291058 0.14592704 -0.42768165 -0.0019293868 0.050385386 0.08381492 -0.012952316 0.021159088 0.34546408 0.08930038 -0.3075426 0.08897941 0.07023884 -0.35775805 -0.7205953 -0.05746364 -0.14935075 0.16535956 -0.20113182 -0.28417188 0.3249422 0.044303145 -0.31987187 0.21677634 0.42462647 -0.1823272 -0.6455027 0.23907194 -0.19357145 0.44236755 0.029147608 -0.025177302 0.24287595 -0.25607792 -0.28847378 -0.018247845 -0.17856774 0.31536826 -0.14549388 0.46151382 0.10964481 -0.42475295 0.3501078 -0.04177571 0.013844226 0.24389638 -0.14019477 0.015678288 -0.023645343 0.023766836 0.047686752 0.010759661 -0.42132393 -0.21362174 -0.059923958 0.27443343 0.1613879 -0.14157824 0.09362586 0.3278457 -0.17937955 -0.04168546 -0.18459181 0.33276606 0.09766712 0.1847547 -0.20127067 0.117193475 0.28177592 -0.017983591 0.21813697 -0.052989338 -0.1843465 -0.2280187 0.36149183 -0.11882088 -0.2113374 -0.16275582 0.37038198 0.030852986 0.40302092 -0.121632725 -0.37062174 0.18170361 -0.2254456 0.17738616 0.027599448 -0.6880513 0.3064955 0.03710282 -0.13272537 -0.34200707 -0.21178733 0.4791178 -0.32189062 -0.26899952 -0.12208539 0.41153586 0.75649005 -0.2452193 -0.06306543 -0.057667162 0.17995374 0.17543781 -0.14873174 -0.032856587 0.28001037 0.06703137 -0.17676355 0.11727016 -0.16579318 0.036540877 -0.18119413 -0.2732973 0.21521716 -0.19135967 -0.06289065 -0.29185498 0.2506072 -0.20332819
387 0.40604392 0.07642281 -0.32981178 0.05597273 0.24333313 -0.011028669 0.29853734 -0.31995222 0.27839187 0.06991358 -0.13687734 -0.23044556 0.1966498 -0.22812943 0.3016898 0.1411072 -0.08373564 0.21076761 -0.09087734 0.09089889 0.06588143 0.018970773 0.06480811 -0.0009399344 -0.13609998 -0.015135248 -0.03238718 -0.34397784 -0.18620147 0.2522167 0.18626195 0.14142768 -0.52988356 0.15069576 -0.01037935 -0.17056824 0.24330837 -0.14106943 0.060340658 -0.25814897 0.041875258 0.0727562 -0.061641943 0.23405595 -0.17343245 -0.033718612 -0.3083451 -0.22123578 -0.09461626 0.034806848 -0.09439032 0.2735446 0.28709495 0.012194229 -0.1500921 0.07157337 -0.030618055 -0.072721004 0.066890955 -0.29325184 -0.51262045 -0.5328104 -0.23132464 0.085359216 -0.15515386 0.06520749 -0.09113872 -0.025254713 -0.31085175 -0.34174776 0.11127302 -0.14342463 0.30691695 0.2236051 0.08003833 -0.0139472205 0.20937476 0.12558034 -0.11700641 -0.3572711 0.14334282 0.32046747 -0.057561573 0.08737913 -0.5488816 0.018159283 0.26246563 -0.11098488 0.050476726 0.007539903 -0.37003812 0.13382754 -0.11729505 -0.15425175 -0.014858604 -0.07694016 0.29504204 0.056845825 0.18853353 -0.21718134 0.024028977 -0.15308829 0.033401106 -0.19248316 -0.04719415 -0.018426575 0.0602897 -0.20294893 0.035061136 0.14484051 -0.20341574 0.008353969 0.2390077 0.04830009 -0.14584179 0.13578385 -0.08263911 0.19256131 -0.17461427 0.50071037 0.13072364 0.43201965 -0.122836776 0.12438714 -0.09608893 -0.06255216 -0.21875145 -0.06931502
510 0.43560693 -0.23342678 -0.10512376 -0.40617415 0.40942153 -0.12503213 0.042137615 -0.197159 0.3006327 0.2647629 -0.4551901 0.040885657 -0.049656913 0.082331166 -0.051727723 0.055855807 0.3932175 0.075054824 -0.37117228 0.17695214 0.11305525 -0.28409675 -0.7148626 -0.15750462 -0.18456937 0.34110022 -0.18662468 -0.1804616 0.35338318 0.22943762 -0.38210002 0.2563799 0.37665015 -0.08103985 -0.5549651 0.10633881 -0.18124104 0.40718666 0.11187715 -0.06952082 0.19768058 -0.014199927 -0.33832982 -0.14006057 -0.13012327 0.19740735 -0.21494737 0.50061363 0.03864853 -0.33428535 0.25780308 0.2525572 -0.0071239495 0.30343845 -0.16288598 0.10717667 0.13530304 -0.061371386 0.042611077 0.015046239 -0.44097692 -0.1966324 -0.10878872 0.26345778 0.28754008 -0.25752908 0.017605234 0.31529814 -0.1883307 0.046262197 -0.22050256 0.29777968 0.10547928 0.23138463 -0.23486939 0.20726004 0.20869884 0.119493105 0.22053783 -0.054537397 -0.17161977 -0.21440992 0.38631785 -0.18427187 -0.020885475 0.007361154 0.33523533 0.13726978 0.34882733 -0.10427437 -0.31335595 0.08922663 -0.33557433 0.10245658 0.027150875 -0.62683856 0.30841285 0.22216639 -0.1637306 -0.11467328 -0.31041774 0.46950695 -0.1979214 -0.29749963 -0.08084263 0.2178735 0.7653891 -0.23423474 -0.086497284 -0.14436457 0.08275278 0.15502395 -0.07420181 -0.010252915 0.25222793 0.14003848 -0.013010158 0.119824894 -0.17760359 0.024734251 -0.1652517 -0.27282685 0.13562453 -0.19342545 -0.06965419 -0.26837003 0.33027825 -0.094324075
148 0.50057644 -0.15248 -0.13963729 -0.27622062 -0.012358769 0.07366839 -0.25273606 -0.18763572 0.28741014 0.14044923 0.07178518 -0.4442699 0.20433158 0.006669705 0.052924518 -0.26949 -0.10983584 0.07712816 0.22104412 0.009587486 0.49113205 0.00029515335 -0.10697463 -0.026341723 -0.37642494 0.18408166 -0.33707583 0.12869944 0.019138714 -0.23628557 -0.002701327 0.04412856 0.19791123 0.19928166 -0.2949661 0.014258259 0.1683331 0.18489547 -0.2826503 0.14255497 -0.08082107 0.2196061 -0.2681006 -0.37734976 -0.45436668 -0.1552142 0.34112227 0.5396491 -0.021021975 -0.48839104 0.25775775 0.32537434 0.43661842 -0.2921596 0.36921075 -0.09537501 0.008197086 -0.3363529 -0.14195383 0.2862737 -0.024777116 0.0546427 -0.47039038 -0.32048833 0.103226006 -0.13725285 -0.010004352 0.12043308 0.33020678 0.10130814 0.24362427 0.20669457 0.06532676 -0.042468287 0.37989867 -0.14123942 0.47604436 -0.017870499 -0.043744262 0.013093722 -0.06018081 0.4649113 -0.067580484 0.114683576 0.0013380097 0.17237966 -0.029807717 0.31800365 -0.3352296 0.34781328 -0.38539815 -0.100279115 -0.21931763 -0.012855905 0.13560356 -0.25554928 0.5878811 0.15611859 -0.4141396 -0.08308515 -0.34680083 -0.020394517 -0.21063098 -0.044793688 -0.4194371 0.21892276 -0.1804787 -0.2072703 0.013407803 0.13881132 -0.3030977 0.06564286 -0.053251106 -0.18887216 -0.29328468 0.2719499 0.23615757 0.06786953 0.66012746 0.049378015 0.60353625 0.028124081 -0.053871956 -0.14196724 0.1827771 0.15531676 -0.14242715 -0.27017662
423 0.5522664 -0.080254525 -0.2059713 -0.17603955 -0.0064906627 0.0020483513 -0.17550576 -0.07781304 0.25202283 0.061589982 0.103834115 -0.2889301 0.087895826 0.19674584 -0.22426653 -0.13262402 -0.13356231 -0.08765115 -0.00038418727 0.053473156 0.37303558 -0.04480473 -0.050407816 0.09601405 -0.3559905 0.108870186 -0.1883823 0.026567582 -0.047543634 -0.14442371 -0.15491052 0.060273837 0.23153585 0.101141416 -0.45379937 0.13040085 0.06589398 0.26208988 -0.34266612 0.008224102 -0.14838728 0.43721515 -0.07150435 -0.4163459 -0.12341821 -0.27187794 0.23965682 0.49674767 0.42022207 -0.39986157 -0.08103908 0.23095185 0.34475738 -0.6455911 0.25030243 -0.2323811 0.17812838 -0.46952936 -0.32100704 0.28493756 -0.08812637 -0.14212738 -0.21697028 -0.13648337 0.057387542 -0.26653007 0.03575184 -0.004514019 0.20324044 -0.1530496 0.083731495 0.02299918 -0.08265158 -0.07143229 0.44844812 0.060598195 0.53716356 0.28609666 -0.19349574 -0.07128999 -0.2725844 0.2530359 -0.091521256 -0.09900553 -0.14205049 -0.07725372 -0.06527244 0.14269726 -0.2462301 0.31266508 -0.46268818 -0.100886986 -0.31638598 -0.18994692 0.19121578 -0.396446 0.6673662 0.13931374 -0.26079348 -0.075869605 -0.6351866 0.044298667 -0.15968457 0.09262628 -0.51259303 0.11422856 -0.17311968 -0.27474988 -0.029072601 -0.12862931 -0.3445219 0.27218127 0.13523364 -0.110168464 -0.2971301 -0.2235746 0.11699067 0.16386935 0.57217276 -0.03694087 0.39093402 -0.07522773 -0.13837743 -0.050862044 -0.021859523 0.113042764 -0.026989536 -0.43457097
9 0.25507042 0.67840207 0.10819827 -0.050056346 0.18854447 -0.16747974 0.5544518 0.15184827 0.42508623 -0.4574718 0.28241622 -0.36277208 -0.3293314 -0.06200933 0.5595716 -0.27814722 0.45416662 0.19742395 -0.24419627 0.37042797 -0.48880497 0.101345666 -0.12971386 0.0013889719 -0.18488452 0.42791307 -0.3132942 -0.29001397 0.85977507 -0.2707787 0.118822314 0.059449114 0.426875 -0.5419355 -0.044003323 0.47616243 0.26405016 0.12959345 0.004733244 0.025172997 -0.07673067 0.15413272 0.1562756 0.32881254 0.038005073 0.33529946 -0.5838009 0.17629744 -0.20186046 -0.58150935 0.067145914 0.32839805 0.43112665 0.4093453 -0.011567832 0.1352595 0.019007193 0.067727156 0.22287494 -0.11602913 -0.3265945 -0.17449373 -0.18783498 -0.13748978 -0.27698413 -0.38378516 0.03302803 -0.086273745 -0.4964289 -0.4483656 0.15202084 0.24361204 0.12970255 -0.3423262 0.03848261 -0.3403473 -0.18154193 0.17904106 0.056963783 -0.40682575 -0.16362731 0.065751486 -0.22574379 -0.18323565 -0.56700766 0.4063797 -0.4560121 0.2946205 0.34178898 0.13691083 0.012336334 -0.2725959 -0.023806784 -0.12233885 0.020414516 -0.4127734 0.19801442 0.10256548 -0.21388751 -0.21307224 -0.09251998 -0.46894857 0.12425894 -0.012269027 -0.11304587 0.13180201 -0.13064255 0.3806051 0.06464901 0.24030955 -0.106958024 -0.22513357 -0.0061499975 -0.17668298 -0.04527205 -0.110064365 -0.15805475 0.08467068 0.33645406 -0.8843283 -0.029798768 -0.0646726 0.22671132 -0.06751351 -0.11006611 -0.035496645 -0.12144192 -0.04760939
302 0.28450266 0.16729881 -0.044487044 0.21553099 0.24331781 0.11999314 0.33975875 -0.23291558 0.315025 0.039498765 -0.103282504 -0.30198014 0.11132382 -0.47778368 0.33447668 0.3419427 -0.118634395 0.12718202 -0.15258203 0.09184135 -0.12649764 0.13979101 -0.0126732 -0.40926537 -0.057998225 0.12194358 0.10545282 -0.3218396 0.02807365 0.33222413 0.12724671 -0.018673804 -0.44651794 0.14478292 -0.06374948 -0.16559228 0.3125266 -0.09004822 -0.031387508 -0.12689237 0.23227979 0.0059415223 0.021544961 0.066410415 -0.2467724 -0.24842824 -0.18006824 -0.082628086 0.15000956 0.0288388 -0.18761635 0.0824576 0.2826932 -0.22713372 -0.30151075 -0.031943843 0.14470133 -0.0115939705 -0.07582752 -0.24596685 -0.17202045 -0.23055166 -0.38319567 0.19017239 0.039511096 -0.026447594 -0.05026545 -0.09233462 -0.14787124 -0.21405827 0.2075517 -0.05336517 -0.014373244 -0.09257169 0.110478595 -0.0021238704 0.030312276 -0.021834316 -0.026650226 -0.21282862 -0.21532626 0.047950592 -0.23113735 -0.09962615 -0.63551503 0.03161214 0.098437324 -0.14966454 0.16811317 -0.11246221 -0.06660068 0.32949078 -0.34479347 -0.23264031 0.004880258 -0.06612941 0.25507063 0.2281793 0.16887842 -0.19720179 -0.058405634 -0.11470982 0.039852567 -0.118837774 -0.22762538 -0.17678308 -0.05316243 -0.17787416 -0.12027705 0.012991754 -0.053962328 -0.044309106 0.40219238 -0.12001372 -0.1338149 0.34611526 0.18458949 0.1564672 -0.044324778 0.34757003 -0.005396638 0.5499005 -0.28735837 0.182842 -0.054344803 0.09057189 -0.2824363 -0.086300425
6 0.7820123 0.25701964 -0.23847984 0.123145446 -0.13813457 0.4811493 0.56274074 -0.5678209 0.24592276 -0.11395087 0.6025919 0.023448475 -0.31354427 0.6626852 0.09070149 -0.097262084 0.31330168 -0.17162225 0.045162577 -0.31327003 0.61978275 0.10051769 -0.10441816 -0.6491725 -0.23123875 0.32608485 0.022369536 -0.9218491 0.19694841 -0.07688838 0.11181782 0.96992725 -0.671729 1.1354556 -0.010592187 0.67365307 -0.0049113133 -0.4806769 0.1044495 1.445413 -0.6385287 0.45671245 0.58286864 0.21817836 -0.25906906 -0.30749208 -0.48170617 1.2395512 0.5139414 -0.5494311 0.5866815 0.3979756 0.51746947 -0.5616062 0.43301725 -0.138217 -0.15519094 -0.79621637 -0.8923871 0.514479 0.4822675 -0.5103961 -0.07482333 0.38303745 0.037701875 -0.91481626 0.24600232 0.7360296 -0.6667665 -0.0020902676 0.6769925 0.9574592 -0.051427476 0.2757226 -0.01647914 0.2127845 0.89085746 -0.6724904 -0.43446377 -0.27960113 -0.6177453 0.4771677 0.2245869 0.28127536 -0.12564975 0.51402414 0.1496853 -0.28468186 0.4196879 0.077180736 -0.82489055 0.18556118 -0.21292777 0.5108447 0.15462288 0.36129844 0.27176654 0.44760117 0.004960226 -0.049648877 0.17439023 0.45615292 -0.37747997 0.44420916 -0.5382106 -0.43453607 -0.24241282 0.40704897 0.31292474 -0.36886102 -0.36552513 -0.4524749 -0.29273152 -0.67280525 0.0043128342 0.056106202 -0.077594295 0.06649953 -0.14631687 -0.1276908 0.37791663 -0.6133607 -0.27970573 -0.69180924 -0.05910185 0.032653175 -0.82732505 -0.06558492
111 0.34959105 -0.12363281 -0.38110602 0.11289151 0.4157586 0.45030543 0.175887 -0.34596172 0.34269994 0.16160719 -0.1533793 0.042094197 -0.27107242 0.07805163 0.09060201 -0.4238101 0.19886285 -0.26119614 -0.28894323 0.038261045 0.10298862 -0.14285772 -0.45667672 -0.399855 -0.0060283095 0.3662248 -0.07166323 -0.20273015 0.34794062 0.07602792 -0.21824878 0.4832719 0.38665554 0.31103727 -0.2752243 0.19445428 0.00045246904 0.35970187 -0.08182252 0.18611258 0.11023859 -0.15767258 0.06569853 0.08584368 -0.15354039 0.17766646 -0.10121686 -0.08972846 0.42783433 -0.30942097 0.4670414 0.5583084 0.21528989 -0.04069168 -0.09619284 0.21254875 0.08171625 -0.0035551826 -0.28228277 -0.20368452 -0.44179875 -0.5191472 0.005731049 0.3234813 0.07379082 -0.18111509 0.3742691 0.037018154 -0.2519336 0.21611843 -0.30545807 -0.04329451 -0.017821478 0.4961505 -0.0039312155 -0.06326753 0.10795676 -0.01878819 0.35579988 0.24853227 -0.24511361 -0.02203351 0.3776712 -0.1536156 -0.102134556 0.07901807 0.35340992 0.123876885 -0.095759615 -0.07041161 0.2810493 0.031280585 -0.21668501 0.040318638 0.28164503 -0.5604179 0.38236204 -0.3158455 0.12904494 0.19353095 -0.09388382 0.38771385 -0.21802294 -0.26681504 0.15353368 0.29577953 0.77962875 -0.26589516 0.21287727 -0.22763804 0.0734743 -0.068713754 -0.19207078 0.24360122 -0.11410967 -0.04820704 0.4855636 -0.18995692 0.3326606 0.18868175 0.054379493 -0.09617361 -0.09069804 0.00583778 -0.35468358 -0.28497696 0.4414652 -0.6244386
