565 128
374 -0.08500507 -0.05054882 0.38215247 0.052518584 -0.12176113 -0.59262747 -0.024750186 -0.13398883 -0.14919622 -0.07914596 -0.084415436 -0.39158407 -0.27206755 -0.25006968 0.10292074 -0.22701982 0.44607508 0.18877167 0.0045505087 -0.32355434 0.094169065 -0.07382164 0.21226518 -0.1233781 -0.14707844 0.43038246 0.005185413 0.18025644 -0.102171645 -0.14112683 -0.120449975 0.02176755 -0.096946985 -0.14315121 -0.24628589 0.16351496 -0.5040548 -0.022700442 -0.4477906 0.29906276 -0.21870308 -0.22856711 0.15672128 0.02512504 -0.25057343 -0.38941914 -0.24311903 0.35338154 -0.14231007 0.17559125 -0.14734736 0.16864413 0.42110664 0.36703822 -0.32095692 -0.14291568 0.15249327 0.13729244 0.6791528 0.5003585 0.25019288 0.5728857 0.16297896 -0.19465819 0.29940388 0.17315884 0.33266702 -0.095189154 -0.122971155 -0.30461603 0.13123143 0.17619522 -0.21508788 -0.29392022 0.16842511 -0.89315873 0.01741397 0.47406742 -0.34779662 0.6305293 0.34999603 0.037503704 0.09567913 0.105316624 -0.23403856 0.34415704 0.117535494 -0.2843638 -0.24912378 -0.11642138 -0.2206863 0.017030139 -0.58737093 0.30323365 -0.16163948 0.19600722 0.34300855 -0.07263746 -0.23421623 -0.37653062 0.33643466 0.06617229 -0.41548225 0.8015291 0.4287642 -0.4563073 0.10531368 0.62987906 0.015817063 -0.37138093 -0.39250895 0.19633567 0.36314788 0.038024053 -0.4127876 0.038164087 0.45691654 -0.14353333 0.06307832 0.1756859 0.014729619 -0.3766807 -0.36729243 0.13035361 0.4292203 -0.5687279 0.42950502 0.10151288
475 -0.10871785 0.093573935 0.47123787 -0.007272726 -0.13013357 -0.5113447 -0.08308544 -0.23215835 -0.13727376 -0.072222196 -0.05530561 -0.42856145 -0.219404 -0.25106418 0.1264187 -0.30185148 0.38517547 0.16751018 -0.031889033 -0.377765 0.04888313 0.08141569 0.13025838 -0.13430844 -0.14726661 0.33932328 0.0684643 0.21193272 -0.18393256 -0.20166346 -0.1828149 0.036064073 -0.07424666 -0.17226547 -0.17040499 0.17867495 -0.5007941 -0.002942766 -0.582705 0.28968352 -0.12527028 -0.23450732 0.21091619 0.10314257 -0.25572625 -0.39986393 -0.23537448 0.24833415 -0.13895161 0.10211552 -0.17726475 0.11011478 0.28335974 0.31481436 -0.40024754 -0.10102409 0.16220087 0.1472474 0.7747648 0.52848244 0.21491274 0.50265497 0.26573962 -0.21238115 0.3612855 0.15456542 0.3988024 0.046901815 -0.14999968 -0.24736837 0.08348304 0.27083033 -0.20256032 -0.25654984 0.026020244 -0.83855844 0.04106241 0.33189267 -0.44116724 0.61765087 0.3332334 -0.10980624 0.1090866 -0.012125156 -0.31394887 0.35074675 0.085542075 -0.2927017 -0.2119857 -0.17923535 -0.20483749 0.03627644 -0.61326575 0.23022343 -0.07966023 0.072807655 0.19320856 -0.043700196 -0.32108986 -0.36938873 0.3423636 0.12950327 -0.4252039 0.8168312 0.31750116 -0.41168687 0.19017795 0.69734687 0.017892366 -0.35487074 -0.36433306 0.17344294 0.38416108 -0.07590942 -0.35577565 0.09609571 0.4893307 -0.09449218 -0.023655156 0.1806978 -0.05802289 -0.27117956 -0.3972529 0.10076651 0.5089227 -0.42378595 0.49838653 0.14329556
108 -0.14991888 0.006436606 0.4610284 0.04781468 -0.23846257 -0.5738168 -0.042886507 -0.07851233 -0.22724412 -0.15183343 0.057283424 -0.40942356 -0.22528763 -0.26840907 0.08671123 -0.21670641 0.42175186 0.16330744 -0.050389394 -0.31596342 0.07027794 -0.10976195 0.20501588 -0.12839685 -0.16099848 0.391828 0.009304624 0.16698183 -0.06855737 -0.20006719 -0.12196021 0.03285335 -0.00045029746 -0.22092137 -0.16934831 0.116263494 -0.5736966 0.013936276 -0.494995 0.25703445 -0.1246244 -0.19203623 0.23726515 0.029166408 -0.2983443 -0.41276708 -0.18676068 0.3288282 -0.107357524 0.06929755 -0.12766598 0.13194606 0.25125158 0.26803136 -0.39889437 -0.050037865 0.1126132 0.08963256 0.6989124 0.55297923 0.308224 0.54833466 0.1928582 -0.26853758 0.4147 0.0754716 0.28349832 -0.12859087 -0.18836014 -0.24738602 0.13275094 0.21809705 -0.28173178 -0.30770802 0.17410623 -0.74125177 0.1071974 0.37600884 -0.29959446 0.6749113 0.34058186 0.047624476 0.22776765 0.08186324 -0.31561908 0.36021626 0.113935575 -0.18466017 -0.21570322 -0.16486304 -0.26909444 -0.03272284 -0.742118 0.24574615 -0.11087081 0.2027687 0.27398133 0.041270446 -0.32414007 -0.4054937 0.2050794 -0.0372703 -0.46555045 0.75997907 0.4149568 -0.39080393 0.18787497 0.6998398 -0.07944832 -0.3190425 -0.35813925 0.11426171 0.35934833 -0.09169756 -0.26375186 0.1253084 0.54632163 -0.06471986 0.073328964 0.19831511 -0.0081699435 -0.2709678 -0.29520375 0.11432932 0.47550008 -0.53005004 0.50289464 0.17061605
552 -0.16238388 0.017395698 0.43665576 0.035060044 -0.2979573 -0.5337427 -0.03049538 -0.1151777 -0.113128416 -0.064040534 -0.025663076 -0.45893928 -0.34349966 -0.25150582 0.08313888 -0.31338683 0.4153743 0.23033002 -0.05387145 -0.27850392 0.034622274 0.01162781 0.14411607 -0.012901924 -0.17661683 0.4200449 -0.010203631 0.14244413 -0.1240025 -0.19215876 -0.15993251 -0.030394936 -0.035762437 -0.19085012 -0.32782164 0.17385407 -0.50003004 -0.032665923 -0.4991646 0.36436638 -0.216701 -0.1469603 0.26458934 0.1992 -0.20161445 -0.30484757 -0.20084985 0.2666138 -0.14768487 0.068860345 -0.18483822 0.15964451 0.25506955 0.3731576 -0.37268198 -0.02493052 0.07678617 0.09823222 0.7453592 0.56668866 0.23413615 0.49701524 0.20295836 -0.24670534 0.364818 0.11908058 0.44101664 -0.066982634 -0.11019391 -0.18886578 0.11302407 0.16178228 -0.114348926 -0.26942167 0.07691234 -0.80357784 -0.027057007 0.45964563 -0.35213572 0.6962382 0.33915344 -0.03531547 0.13993287 0.05831975 -0.1622778 0.29966608 0.18128143 -0.2523359 -0.26625216 -0.13839248 -0.26222754 -0.032848854 -0.5567588 0.13745713 -0.13231008 0.16947505 0.22215296 -0.0959942 -0.30138484 -0.43060464 0.28481138 -0.020120641 -0.2914928 0.6908234 0.4046363 -0.35074547 0.28032184 0.7338337 -0.01030398 -0.29771477 -0.27249214 0.21937804 0.35293683 -0.019190758 -0.3098287 0.113086015 0.5159825 -0.06082411 -0.07476644 0.20338616 -0.008315692 -0.375481 -0.40845683 0.036885608 0.5415322 -0.49183327 0.5665788 0.15892355
307 -0.07797726 -0.040050134 0.4653811 0.08047903 -0.14253654 -0.6247804 -0.016706606 -0.15430886 -0.16368036 -0.14027843 -0.06655781 -0.35458532 -0.22815214 -0.17324182 0.061252978 -0.29496366 0.43769848 0.2910561 0.011135536 -0.2944611 0.0060325875 -0.052802872 0.20010531 -0.16904524 -0.10652229 0.39686477 0.014140048 0.23426239 -0.05685611 -0.18693916 -0.14113533 -0.03378073 0.014555642 -0.12900479 -0.24663094 0.098644346 -0.59742755 -0.013194764 -0.51673853 0.17489785 -0.30717763 -0.1879841 0.27120036 0.014478628 -0.14165354 -0.38219562 -0.2818387 0.3545649 -0.11035686 0.034880403 -0.13986847 0.20620362 0.30850577 0.22527477 -0.5337864 -0.11207899 0.097716466 0.24153657 0.76278347 0.58523315 0.27442208 0.57858795 0.15757412 -0.23371534 0.39604044 0.0862778 0.3384739 -0.14920627 -0.2359107 -0.29393166 0.17444924 0.14461717 -0.2875924 -0.3427454 0.04998805 -0.79293364 0.11090954 0.40011284 -0.32843348 0.6308362 0.4534522 0.027648 0.14179184 0.13973397 -0.23903522 0.42799786 0.057968907 -0.3011095 -0.18586557 -0.07436773 -0.3104804 -0.029371267 -0.61151165 0.23105432 -0.11469759 0.18973544 0.26105747 -0.12230789 -0.28501678 -0.51605386 0.29521194 0.024382705 -0.3896342 0.7795343 0.49358004 -0.41876176 0.16109419 0.6814883 -0.09700129 -0.36401808 -0.24038854 0.19775854 0.3400236 -0.010531398 -0.29151654 0.14791735 0.47794306 -0.17425367 0.09405667 0.2004714 0.11214662 -0.2813488 -0.2990824 0.07751396 0.5114484 -0.52422374 0.45962682 0.12544535
434 0.19902973 0.16131389 0.06753709 0.14415029 -0.28852537 -0.2392817 0.03969241 0.27335125 -0.40663034 0.14359081 0.052387524 -0.23258165 0.20653887 -0.1585865 -0.15388918 0.059943564 0.09486289 -0.15237735 -0.1895914 0.11268868 -0.18139616 0.085735746 -0.0039138626 -0.2607473 0.37157455 0.12623255 0.21738087 -0.037074238 0.16858602 -0.23272456 0.5311532 -0.10033992 -0.23469102 -0.17557584 -0.09428915 -0.102053285 0.12934646 -0.1132032 0.01586331 0.14268853 0.04505908 0.0456361 0.25718287 0.31657898 0.0086486675 -0.25299302 0.36080325 0.027029889 0.035676986 0.32897726 0.2975124 0.41661936 -0.029040618 0.0022236942 -0.08992716 0.5981085 -0.33462766 -0.28104693 0.4027744 -0.12968376 0.035430394 0.23385346 0.13482404 -0.12977134 -0.28403583 -0.06043312 -0.06479385 0.029803205 0.27907312 0.08070568 -0.09341257 0.104607105 0.07486271 -0.12654896 0.019399127 0.14700969 -0.3792359 0.09119681 0.14736031 -0.064387396 0.35461953 -0.091351196 -0.0029479396 0.13466743 -0.034851328 0.2337119 -0.101998046 -0.59253013 0.113516465 -0.22951949 -0.32869768 0.18206827 -0.23009057 -0.09489179 -0.25437465 -0.33254278 -0.37582022 -0.036601853 0.2799232 -0.08166881 -0.31519768 0.0970634 0.09502619 0.5487414 -0.12060548 -0.36383334 0.098308146 0.4212228 0.43411955 -0.24270594 -0.0849786 -0.018812329 0.26141244 0.368177 0.014367495 0.22869849 -0.0133403195 0.16876812 0.12762605 0.01805561 -0.11466008 -0.437586 0.12136323 0.00032884802 -0.29356387 -0.15359832 -0.20563556 -0.12586105
226 0.18945742 0.04179404 0.026320012 0.006235121 -0.23222092 -0.2578485 0.0019087616 0.29583216 -0.41198805 0.2522773 0.053352803 -0.25451475 0.1704359 -0.12649304 -0.22511572 -0.061729327 0.16347247 -0.12123385 -0.17355141 0.018897235 -0.16447063 -0.03787835 -0.09816639 -0.21313053 0.26828673 0.1690307 0.17503916 -0.120348744 0.21339928 -0.21953301 0.56255275 -0.08054122 -0.25882983 -0.30571327 -0.047910027 -0.17293759 0.007941515 -0.14600311 0.06989111 0.19457738 0.07193756 0.1483342 0.23645006 0.39480758 0.090390995 -0.16957815 0.22681098 0.15198737 -0.009819131 0.22097787 0.20822425 0.5028344 -0.03182016 0.14149283 -0.008199232 0.4288006 -0.3112239 -0.36386707 0.46953335 -0.02365878 -0.022633875 0.22061759 0.033846464 -0.21664411 -0.2967796 -0.21302359 -0.094469406 0.06803486 0.2795724 0.07871815 -0.04777682 -0.060846284 -0.10814348 -0.15142347 0.09156657 0.1451616 -0.41043606 0.07693612 0.16829163 -0.04759352 0.4539775 -0.09071806 0.0619379 0.11757026 -0.021551356 0.20480746 -0.037449855 -0.36313227 0.23971531 -0.18984371 -0.30213523 0.12589934 -0.2258911 -0.1733525 -0.28009748 -0.3074836 -0.3575417 -0.004361556 0.3766229 -0.16625185 -0.28062254 0.06485455 0.00023117496 0.38762617 -0.007485605 -0.49737778 0.15772861 0.4033839 0.49712613 -0.27174297 -0.024394954 -0.0038371913 0.19007902 0.36599255 -0.07544141 0.2438516 0.05087744 0.30578032 0.03975537 0.018813353 -0.1307307 -0.3078067 0.0919471 -0.12692139 -0.21196221 -0.26988542 -0.2269323 -0.18099573
316 0.18465157 -0.21353294 -0.53932935 -0.05481302 0.34825626 -0.06766303 -0.29424754 0.008227904 -1.3793074 1.4157293 0.38444322 -0.1892506 0.5627807 -0.73023605 -1.0322454 0.92628604 -0.43985668 0.24306639 -1.0769614 0.24744874 0.024038598 -0.90801334 0.20934851 -0.18726082 -0.71154267 0.7693794 -0.4337843 0.006871017 0.40624487 0.41119805 -0.2770121 -0.15382415 -0.9798077 -0.035216272 -0.28618318 -0.72525084 -0.1136311 -0.69478494 0.93668044 0.16706581 0.114747204 -0.3843313 0.17781743 -0.49486175 0.05342776 -0.024986137 0.23209003 -0.19892742 -0.5038576 -0.51217157 0.0075135846 0.16733515 0.19611576 0.21297677 -0.8648105 -0.033704773 0.5560339 0.18122737 0.973717 0.49694702 -0.4855638 -0.8808238 -0.8407541 0.28996062 -0.03776013 -0.21347958 0.006505362 0.21340157 -0.01977617 -0.15613312 -0.5956769 0.3883983 -0.39944032 -0.23938446 -0.07228954 -0.63864195 -0.9998671 -0.24338134 -0.062044818 0.11434813 0.3883691 0.15352157 1.2061131 -0.24135211 -0.13065398 0.6778353 0.22314437 -0.6056071 -0.11732054 -0.0116185695 -1.3587562 -0.42155954 -0.5143345 0.4067118 -0.760054 -0.85216975 0.5403101 -0.46418938 0.48630297 0.20236324 0.7267237 -0.2590161 -0.5939774 -0.68891543 0.04683413 -0.36299655 0.6773402 0.14208984 -0.52439433 -0.15578222 0.455749 -0.17817992 0.7910711 -0.6634725 -0.8469439 0.17058644 -0.6052579 -0.19043785 -0.45865864 0.7534696 -0.52120566 0.9549969 0.16044493 0.25873214 -0.53413314 0.4124612 -0.0202767 0.02875077
236 0.13585909 -0.09178801 -0.47358015 0.057049 0.32785466 0.084624775 -0.11212829 0.05565101 -1.3268182 1.4379892 0.3545823 -0.12396934 0.5468611 -0.654353 -1.1650419 0.894338 -0.5008615 0.35226664 -1.0513091 0.1524972 -0.092690684 -0.85913116 0.20905769 -0.18475679 -0.6429741 0.85288733 -0.30355355 -0.2034704 0.37680876 0.40167302 -0.44895193 -0.22466898 -1.0162191 -0.010149757 -0.31658038 -0.8041283 -0.13096705 -0.7036343 0.89853024 0.18056631 0.095209144 -0.5081311 0.21048577 -0.5307213 -0.053796053 0.013487147 0.2037792 -0.22093387 -0.40133607 -0.53465533 0.1361276 0.13146718 0.24472916 0.1366657 -0.8631153 -0.030145643 0.5988232 -0.009133141 0.93676215 0.5204326 -0.52865124 -0.83373827 -0.80611587 0.26536757 0.055948265 -0.3599393 0.041497074 0.11567484 -0.038689412 -0.2327877 -0.555756 0.41862756 -0.4279696 -0.29135332 -0.032702547 -0.4802291 -1.0308968 -0.21693666 0.0052573346 -0.004219422 0.48581344 0.037663788 1.149887 -0.24024278 -0.03687329 0.8826376 0.2855505 -0.6525201 -0.08525043 0.09819261 -1.3747193 -0.43238828 -0.32454497 0.32939115 -0.648001 -0.7914121 0.6626495 -0.4835519 0.40885615 0.16675052 0.6963091 -0.31261748 -0.5370613 -0.69071835 0.027785355 -0.26157346 0.77006376 0.065752715 -0.42697814 -0.12734786 0.29468355 -0.06997837 0.77597016 -0.61817497 -0.8533055 0.08659532 -0.48998988 -0.24075967 -0.570423 0.7660012 -0.6607038 0.97595453 0.32035995 0.17727013 -0.56155527 0.4095413 -0.061896313 -0.0149942
143 0.05630867 0.033763368 0.014110819 0.09559421 -0.26136288 -0.19135642 0.067646876 0.29278108 -0.47663897 0.2166695 -0.11287877 -0.21948218 0.1898324 -0.2567412 -0.07952448 -0.02048234 0.084035605 -0.04342214 -0.106480494 0.001080935 -0.16458859 -0.0608727 0.06800039 -0.30404007 0.3115183 0.27480885 0.18982427 -0.14172472 0.13199884 -0.20852143 0.5936224 0.08437839 -0.2843966 -0.24709827 0.022772605 -0.036973424 0.1620214 -0.2504735 -0.047048893 0.14969993 0.042516813 0.071304806 0.28566912 0.45322886 0.15315585 -0.2550034 0.2704097 0.14823483 -0.15303874 0.22684506 0.15523458 0.32061794 0.009611051 0.11733879 -0.018329512 0.4429048 -0.3248423 -0.3162288 0.48261955 -0.064036995 -0.029252337 0.13265349 0.23366328 -0.19752568 -0.2141704 -0.2045464 -0.08818274 0.084939666 0.39298907 0.11954013 -0.13332866 0.014385585 0.042430613 -0.21385033 0.07125404 0.07363161 -0.3771134 0.13883656 0.17361005 -0.112563476 0.3628996 -0.05457718 -0.02636882 0.08138131 -0.013247972 0.1485268 -0.16804251 -0.55327886 0.17033415 -0.13831876 -0.3451887 0.31619784 -0.18109865 -0.18671723 -0.2585243 -0.38044572 -0.3457348 0.095011055 0.40096486 -0.23166198 -0.2972246 0.1088763 0.019810509 0.48240378 0.023620019 -0.5160173 0.06876196 0.35500088 0.4497768 -0.118802465 0.024803188 -0.045411553 0.28606242 0.45855522 0.033317063 0.3300203 0.022288734 0.18994506 0.18167181 0.08451029 -0.19127086 -0.37088403 0.16771343 -0.12524731 -0.2344611 -0.15495193 -0.17280509 -0.10968151
315 0.27718824 0.114105344 -0.080692455 0.05398026 -0.17888798 -0.36319378 0.09238916 -0.05947576 -0.035287715 0.058882568 0.022409523 0.052754465 0.10570446 -0.044672783 0.15358397 -0.16625868 0.10359118 -0.01874762 0.17563245 0.07064204 -0.13424706 -0.039527856 -0.10025944 -0.24130696 0.26250625 0.177741 0.031494375 0.0637778 0.31522736 -0.14537367 0.094188325 0.09743216 -0.008023998 -0.043747023 -0.13439724 -0.059074804 -0.07772054 0.072951466 0.09170733 0.20325081 0.16621117 -0.15435405 -0.044111047 -0.25241178 0.1697331 -0.0575517 0.00715646 0.3125223 -0.1885831 -0.31890607 0.102386735 0.23536544 0.24341065 0.039085567 -0.3210888 -0.13325414 -0.2791704 -0.2075246 0.1844845 -0.013711061 0.369649 -0.14642756 0.24789874 -0.0025385309 0.20352976 0.06486495 -0.183449 -0.010973533 0.045601327 -0.014486164 -0.0054408526 0.12307694 0.07622954 -0.2003933 0.1534835 -0.06571039 -0.07033716 -0.28960234 0.16349815 0.1557897 -0.109281875 -0.21683857 0.13669807 -0.029581878 0.048101135 -0.35301274 -0.09885753 -0.17527507 0.33299637 0.08211903 -0.554793 -0.31070748 0.19237903 -0.06822423 -0.15638222 -0.04135646 -0.3812311 -0.0792345 0.27037692 0.17352496 0.041410226 0.17313333 0.3718488 -0.0012083894 0.07490604 0.04273755 0.07575565 -0.07600752 0.2375906 0.008620172 -0.14702421 0.118799046 0.13816254 -0.16648154 -0.07677489 0.22162466 0.07979815 0.19861676 -0.20203945 -0.08443354 0.013543834 -0.0392424 0.34511667 0.19096363 -0.029151712 0.1273932 0.012128464 0.53562456
438 -0.36590046 0.016118033 -0.12808764 -0.023844888 -0.29137242 -0.2069545 -0.10459485 0.1698962 0.023923416 0.04158445 -0.096977755 0.10759521 0.006353265 0.053321864 -0.11681427 -0.20422582 0.059529338 -0.047341328 0.13433467 0.22929192 0.09564841 -0.19580534 0.13871579 0.07889728 -0.015490911 -0.12879428 -0.12181721 -0.07114351 0.11686923 -0.25220856 -0.07037671 -0.05864713 -0.042242453 -0.019128097 -0.00044660142 -0.31536976 0.026484083 0.31261235 0.1943316 0.40371236 0.29446626 -0.2261842 0.037477124 -0.20210227 0.14017579 -0.014475267 -0.26470676 0.3676953 0.14453726 -0.39415213 0.24123429 0.3260958 0.14406945 0.47132277 -0.34804288 0.20229083 -0.28419837 -0.06600094 0.17757806 -0.20820954 0.34636664 -0.16786714 0.0005770266 0.0055708284 -0.07919632 0.15414652 -0.09888513 -0.12273059 -0.12040253 -0.2243984 0.021588497 -0.052569594 -0.28652343 -0.3750322 0.17296562 -0.25731948 -0.24674302 0.13430972 0.070560195 0.046115097 -0.031230269 -0.12724933 0.26538888 -0.121227965 0.05429498 -0.109825775 -0.12675828 -0.21604355 0.0789664 -0.17975354 -0.021030739 -0.09073069 0.10774638 -0.0064093247 0.035226963 -0.06073574 -0.041869715 0.04698767 0.260198 0.1982082 0.101811916 0.33433652 0.44819614 -0.013981378 -0.06725016 0.01245845 0.3996839 -0.26992804 0.124281965 -0.00028466998 -0.11898962 -0.043198306 0.18236588 -0.20610207 0.024661064 0.39662337 -0.23675993 -0.20691884 -0.5193856 -4.2418596e-05 -0.19687182 0.078137495 0.20382504 0.34137422 -0.0007746763 0.006679761 -0.07797391 0.20164797
15 0.064641684 -0.021616884 0.33158258 0.026297154 -0.2982135 -0.4548424 0.06735541 -0.0068917437 0.22327632 -0.091737196 0.22792491 0.033198502 0.077522755 0.11884212 0.060093317 0.3454255 0.05900058 -0.0630602 0.07452106 0.016485166 -0.10405492 -0.1904682 0.12317378 -0.09715175 -0.028881632 -0.13806254 -0.3307082 -0.11350098 0.0030319905 -0.15740924 0.009256212 0.07177167 0.08678716 0.03529848 -0.16483675 -0.046570934 -0.05414829 0.14494734 0.14645788 0.36840373 0.0684822 -0.42716545 0.2934929 -0.2304483 0.18937655 0.34892556 -0.03462668 0.28965634 0.13225065 -0.68285316 0.1589355 -0.13686712 0.26547125 0.29265863 -0.46811405 0.2622817 -0.101802684 0.13929282 0.5605744 -0.23980509 0.468717 -0.66799074 -0.041107155 -0.2021582 0.0040967534 -0.26535866 -0.32176897 -0.0044664284 0.27954853 -0.07750994 -0.1797897 0.15637247 -0.069596976 -0.42756018 0.24750252 -0.33807537 -0.22171926 0.2781512 0.14188659 0.20881483 0.12769668 -0.2239071 0.05079605 -0.027823048 -0.06562725 -0.022349698 -0.25567883 -0.40795213 0.13979575 -0.09528993 -0.5067768 0.002927003 0.24919 0.10470075 -0.115252525 0.046942875 0.32611504 -0.10520802 0.08127813 0.33657128 -0.21379216 0.015269273 0.40959245 0.03191906 -0.10422307 0.09970826 -0.18079276 -0.19604892 0.48666883 0.11114339 0.19125652 -0.012618569 0.041761003 -0.15457673 -0.11807464 0.1312213 -0.15473185 0.0937125 -0.21178588 0.1273511 -0.33000946 -0.045782726 0.0807271 0.4237226 0.09841546 -0.03548197 -0.03567506 0.22671929
536 -0.026138937 -0.23059122 0.29613477 -0.008135876 -0.23159692 -0.54141486 0.038686644 0.051352985 0.22368881 -0.09690356 0.15712148 -0.033409882 0.09906793 0.20341063 0.13544896 0.33088112 0.006685474 0.0125955995 0.024306962 0.06712956 -0.19460553 -0.30526257 0.05925515 0.021547401 -0.025223209 -0.17916127 -0.26880074 -0.08540184 0.020281352 -0.216452 0.10206267 0.046809245 0.022599246 0.10564636 -0.13749322 -0.08993477 0.056173682 0.019290658 0.11317788 0.45473003 0.15564594 -0.35248312 0.297721 -0.19653219 0.14299497 0.26108533 -0.12975928 0.26304233 0.114389524 -0.84753674 0.09175488 -0.04857733 0.30892816 0.14670832 -0.4438666 0.1758332 -0.13897775 0.115598045 0.3698661 -0.27459532 0.3927891 -0.5659452 -0.14364551 -0.08776129 -0.13391231 -0.3973016 -0.3882474 -0.020631552 0.43361872 0.033407785 -0.14330672 0.057814896 -0.20187487 -0.5367218 0.3280502 -0.37860847 -0.27747536 0.30340257 0.11435403 -0.036787257 0.17976765 -0.14965546 0.008770903 0.16173932 0.07543618 -0.040183183 -0.19775422 -0.37075755 0.027254082 0.008063491 -0.5353935 0.029997054 0.25862622 0.08072345 -0.053741276 -0.02277934 0.1867317 -0.036339685 0.06793509 0.3857526 -0.16587342 0.058213957 0.26662263 0.10580619 0.08175557 0.109801866 -0.24428034 -0.12740429 0.47138864 0.049365997 0.11428474 -0.058493227 0.024460802 -0.23014209 -0.23911047 0.09883142 -0.060820993 0.08527854 -0.1733044 0.05946933 -0.27724457 -0.023431623 0.0020682742 0.38750297 0.27668405 0.047187198 -0.029873403 0.37980276
69 0.22981304 0.065959394 -0.092873015 0.111716285 -0.23628742 -0.5142456 0.05298329 0.025596498 -0.27315965 -0.088224865 0.11934731 0.187365 0.053968154 -0.055670444 -0.0911645 -0.083988644 0.06621138 0.020447643 0.22643766 0.00060957065 -0.15689208 0.025308236 0.10314637 -0.08727596 0.10325661 0.08904136 0.013208902 -0.12153184 0.33972266 -0.17831932 0.0029492332 0.016789136 0.13752921 -0.06691895 -0.111295 -0.046519324 -0.100939296 0.28583798 -0.03250114 0.23134032 0.18392812 -0.08608103 0.12562865 -0.11971109 0.26334304 0.035678998 0.0151025755 0.17280173 -0.023511203 -0.34878138 0.049815554 0.119969845 0.21458997 0.20418297 -0.27661207 -0.20440201 -0.23229073 -0.11942766 0.14575762 0.06959513 0.31455693 -0.10272308 0.15079951 -0.07608863 0.11305449 0.055290427 -0.17751938 -0.1229498 0.013234803 -0.019727347 -0.00013108368 -0.071251415 0.08176621 -0.17825355 0.28623265 -0.033173278 -0.15632205 -0.34570003 0.004724551 0.08119793 -0.0048052166 -0.2557812 0.29444388 -0.14318864 0.0007870773 -0.2666201 -0.013651022 -0.18029408 0.12112535 -0.037712242 -0.45904362 -0.23046775 0.11687834 -0.134903 -0.1614919 -0.044438817 -0.3640504 -0.14385101 0.24488738 0.2739645 -0.10536087 0.040733054 0.34064624 0.049632065 0.10341969 0.048724577 0.17167188 0.09268721 0.14121053 -0.010418816 -0.10664702 0.20637774 0.11993871 -0.07090554 -0.13098276 0.26554078 0.05082323 0.07120179 -0.21669815 -0.116594784 0.032275498 -0.060743727 0.3615223 0.21647169 -0.10543061 0.061261773 0.0017308587 0.5427561
194 -0.0839929 0.10256786 0.11874351 0.085033834 -0.26451245 -0.19735682 -0.06831519 0.3069039 -0.5335291 0.17126551 -0.043700818 -0.18700886 0.3429922 -0.19515659 -0.18819065 -0.03938505 0.053130116 -0.045756176 -0.10734414 -0.031682063 -0.099815585 -0.025363896 0.06101551 -0.3483817 0.2528753 0.097738035 0.14728871 -0.18470845 0.14798014 -0.22404307 0.6773012 -0.107822925 -0.35800934 -0.30285826 -0.04317521 -0.05414119 0.082553215 -0.25328818 -0.14201997 0.20785922 0.108738884 0.13205126 0.21998759 0.5901853 0.07307192 -0.2929456 0.2440329 0.21882918 -0.03816457 0.13005267 0.11306407 0.4933114 -0.11292397 0.15703012 0.004243773 0.38359877 -0.3680511 -0.3402735 0.35623786 -0.122559465 -0.01817243 0.015883964 0.11112061 -0.19105896 -0.28747165 -0.13190776 -0.105433345 0.052837957 0.32185388 0.24113582 -0.13579197 -0.027141225 0.03778053 -0.124969274 0.039251972 0.22551897 -0.48731935 0.104130685 0.1555051 0.019715324 0.37956873 -0.13484213 0.13252991 0.068299085 0.0285576 0.28922293 -0.11512541 -0.5451832 0.20998122 -0.2180951 -0.3247091 0.23608625 -0.26839432 -0.23907381 -0.31714332 -0.28030363 -0.4145886 -0.099691786 0.39340642 -0.13734522 -0.3935894 -0.03564352 0.08290463 0.44078356 0.024141323 -0.5246976 0.16070147 0.36663935 0.49423364 -0.13180767 -0.10058205 0.06828544 0.25228947 0.44492722 -0.09435647 0.2752829 0.11771341 0.2005713 0.13739903 0.07906442 -0.3301601 -0.3351866 0.061387744 -0.111604765 -0.29396564 -0.1519801 -0.101801544 -0.10131606
324 -0.40847555 0.7345902 -0.12928379 0.32086992 0.076153494 -0.28282243 0.41915217 0.39356098 0.111709595 -0.46860102 -0.28289905 0.21303391 -0.07943857 0.3225968 -0.35004458 -0.13488117 -0.32374355 -0.16734377 -0.23828371 -0.1913761 0.3670624 0.17269279 -0.23024337 -0.54962647 -0.16458125 -0.17659809 -0.4402275 -0.2075647 -0.1727298 -0.09835815 -0.3613736 -0.49672663 -0.533126 -0.86023873 -0.054711234 -0.14581048 -0.56374604 -0.1104899 0.54385126 -0.02693988 0.11223532 -0.5044886 0.80542386 -0.85804486 0.77306134 0.07457507 -0.21038221 -0.18942106 -0.17509829 -0.19035214 0.46445343 0.41785148 0.13058217 -0.0086508505 -0.48113427 -0.01308195 0.26008 -0.07339134 -0.4775514 -0.111546405 -0.18956394 -0.31800434 0.10049192 -0.30020708 0.9445676 -0.4129107 -0.43659878 0.20306608 0.021686664 0.25248235 0.2545009 0.2947846 -0.31032002 -1.0098261 -0.16393782 -0.41029987 -0.5632201 0.027350428 0.36627957 0.18218732 0.064924575 -0.2553356 -0.23276678 0.025209041 0.016955296 -0.17255726 0.021368722 -0.14111283 -0.038619213 -0.260686 -0.312393 0.46719307 -0.11221219 -0.23178345 -0.12045951 -0.034372475 0.39197075 -0.51642585 0.9381455 0.6484291 -0.10959823 -0.11164074 0.044820134 0.65560156 -0.6318663 0.39815652 0.343823 0.107224606 -0.54723233 0.030644888 -0.1556308 -0.5472884 -0.032026045 0.04473947 -0.88001215 0.2054946 -0.57838607 0.52439183 0.01871938 0.20949195 -0.3586288 -0.03141789 -0.034419857 0.3138467 0.53277695 -0.6554744 -0.014678998 0.37317735
274 0.13732019 0.22252968 0.118707776 -0.02101962 -0.15793669 -0.4863271 -0.088912636 -0.06244916 -0.19335032 0.084217645 0.01584695 0.15573983 -0.005868225 -0.006876728 0.04930164 -0.2115697 0.016182074 -0.06491579 0.0797304 0.05836677 -0.023491902 0.06863417 0.08043474 0.010169899 0.29284814 -0.09953795 0.098648794 -0.089174435 0.23904726 -0.18305916 0.09148182 -0.056570567 0.08445776 -0.13060655 6.6121414e-05 -0.16692044 -0.07267224 0.15630579 0.042896993 0.2500055 0.21089162 -0.18568324 0.21721905 -0.21614434 0.41766608 0.12246378 0.029238977 0.09397668 -0.16376016 -0.22560076 -0.02163855 0.12201479 0.3718201 0.13800427 -0.20225474 -0.1641654 -0.15445961 -0.20302685 0.20308192 0.11553208 0.24147758 -0.23968555 0.15129784 0.009592382 0.010056445 0.12153744 -0.041368708 -0.15577649 -0.053662956 0.019754723 -0.041155558 -0.042290907 0.10980465 -0.296467 0.2916955 -0.20922877 -0.07085033 -0.26738578 -0.10682426 0.060364448 -0.024941716 -0.26721793 0.15523718 -0.04948897 0.10394804 -0.18742226 -0.1482734 -0.16303995 0.16836065 -0.15792695 -0.31302258 -0.26391885 0.076921046 -0.10649205 -0.10281663 -0.19087704 -0.32760575 -0.14710882 0.19854869 0.14089736 0.027064279 0.006833803 0.29855672 -0.052009027 0.032123394 0.031006072 0.08844259 -0.037815712 0.14597082 -0.040152896 -0.051782038 0.1821502 0.1885317 -0.20248134 -0.14979127 0.18290667 -0.05059163 0.040288568 -0.31363246 -0.07383217 0.035377037 -0.06840658 0.21655117 0.25218433 0.013848169 0.053822525 0.038868684 0.53311956
308 -0.19055317 0.15223324 0.17537603 -0.085449584 -0.40114373 -0.3736027 0.029106498 0.039350186 -0.14694192 0.1169429 -0.09579602 0.081324555 0.09727069 0.15689197 -0.12274984 0.2048115 -0.22700253 -0.009346104 0.1333112 -0.052319676 0.073319644 -0.2560109 0.3743174 -0.24520351 0.10587617 0.020991065 0.04019165 -0.2913412 0.17832819 -0.045435794 0.08711849 -0.15288599 -0.012784549 0.12138499 -0.19598919 -0.27523774 -0.056787074 0.26023412 0.13617621 -0.011936473 0.09456439 -0.30244863 0.34157684 -0.23349345 0.050560795 0.06858299 -0.18561706 -0.090463996 -0.3009781 -0.49343744 0.10747512 -0.12124648 0.40658394 0.36111617 -0.20978406 -0.035099693 0.056062117 0.09101906 0.34651375 -0.17123741 0.2839003 -0.25610143 -0.10640648 -0.07430924 0.068080924 0.24793577 -0.26341292 -0.2177364 0.30010328 -0.0030030138 -0.04371436 -0.23906825 0.15254273 -0.38975453 0.02579799 -0.019652184 0.109365 -0.31126893 0.10286731 0.27231368 0.17367625 -0.23723002 0.2529956 -0.107608244 0.020983009 -0.5757747 -0.041978534 -0.12853003 0.18702486 -0.06380012 -0.29141966 -0.34037176 0.17316656 0.08453152 -0.45141003 -0.16029826 -0.20181094 -0.059450157 -0.17075694 0.26635543 0.16526332 0.2565516 0.30840632 -0.008249322 -0.17671445 -0.0019656871 0.10694269 0.15631771 0.37773332 -0.13504957 -0.017836826 0.060647678 0.17070922 -0.3151021 0.0671751 -0.087376386 0.1009912 -0.1306929 -0.23279154 -0.47094467 -0.05426802 -0.0032028165 0.25251362 0.515232 0.12914392 -0.08525584 -0.19049734 0.4738435
486 -0.099858455 0.118311554 -0.03209278 -0.03531739 -0.30020258 -0.4727884 0.040064868 0.025842762 -0.14628874 0.20908356 -0.056347262 0.23933196 0.24985884 0.20767891 -0.12859702 0.091889136 -0.17352048 0.023364259 0.24082844 -0.030797252 0.090958856 -0.3196043 0.41584617 -0.26605487 -0.001565881 -0.009004954 0.07254731 -0.19599338 0.23659301 -0.12574372 -0.060581632 -0.03608054 -0.06116536 0.2192037 -0.34608272 -0.078852884 -0.06363322 0.3117277 0.18963885 -0.055597156 0.2539803 -0.31543252 0.2764963 -0.28936645 0.1801609 -0.09075474 -0.16031057 -0.12999693 -0.27574125 -0.53742266 0.22865342 -0.03117919 0.44194603 0.3448891 -0.35059008 -0.06708108 0.1375469 0.12403937 0.31814545 -0.17225267 0.2432013 -0.25761673 0.076160505 -0.087164335 -0.050334014 0.18106788 -0.31496757 -0.120058835 0.3152064 -0.016065288 -0.066030964 -0.27186853 0.123336874 -0.2638466 0.04299481 -0.20742145 0.13987885 -0.08325089 0.058966894 0.09274815 0.16358612 -0.19202532 0.30726862 -0.13283515 0.021730565 -0.43945917 -0.011948408 -0.06531886 0.33484098 0.033856627 -0.3685474 -0.37480873 0.2548999 -0.002966529 -0.38949734 -0.023335516 -0.25488216 -0.053991843 -0.14221391 0.23615427 0.14719848 0.2852952 0.2618421 0.0957085 -0.17247063 -0.13910419 0.033656485 0.16366823 0.3208055 -0.085991524 0.014293252 -0.0465728 0.15557474 -0.36819935 0.015436958 -0.12384806 -0.066950016 -0.12609355 -0.21157977 -0.5034328 -0.109808385 0.0005956393 0.16962248 0.43790698 0.1302369 -0.09910597 -0.19611074 0.43533885
187 -0.5488534 0.7711662 -0.051263355 0.21600457 -0.0076049226 -0.26709676 0.33816195 0.41781074 0.2072317 -0.34156063 -0.20744872 0.23675087 -0.161012 0.23084185 -0.21518688 -0.10262053 -0.17691617 -0.23287354 -0.12558585 -0.19718057 0.32815588 0.18786205 -0.2635935 -0.433785 -0.0680999 -0.13164689 -0.38949472 -0.26752174 -0.1662741 -0.044942535 -0.23033531 -0.450957 -0.4853673 -0.80763525 -0.054687526 0.0060400367 -0.47468004 -0.1630961 0.616009 -0.014573738 0.09049152 -0.4446844 0.90933204 -0.86769587 0.85517836 0.07176777 -0.23678647 -0.19382244 -0.2290194 -0.20268798 0.41777492 0.50200874 0.17960171 -0.16016462 -0.3746171 0.02450028 0.20625351 -0.11777483 -0.43235567 -0.17338364 -0.13909543 -0.35945955 0.18972167 -0.33758867 0.9224872 -0.38553146 -0.36629635 0.15216638 0.10125357 0.13186106 0.24507083 0.2228259 -0.317233 -1.0959854 -0.2646537 -0.5137914 -0.5194443 -0.02694613 0.40843573 0.12163918 0.09905308 -0.19203064 -0.33849722 0.08779883 0.0025981518 -0.17663391 0.15359035 -0.02812176 0.027822064 -0.18417753 -0.48307857 0.48611835 -0.059767496 -0.21256736 -0.21678185 0.00058161025 0.3665594 -0.44822493 0.8415596 0.6752694 0.016345207 -0.20194656 0.041093044 0.73073715 -0.48769498 0.4502103 0.2879078 0.010765207 -0.4537896 -0.051199645 -0.098464765 -0.43371746 -0.025143933 0.018907458 -0.90511936 0.2718327 -0.63725346 0.48717985 0.12332561 0.23589863 -0.340645 -0.06142942 -0.011635654 0.21932651 0.5016561 -0.4906942 -0.030620577 0.277968
190 -0.055687808 -0.12782614 0.36625868 -0.017789965 -0.17981376 -0.52575624 -0.076553896 -0.09249879 -0.16095974 -0.05633674 0.0016585967 -0.34384033 -0.33171785 -0.041696534 0.1183585 -0.18939403 0.45826584 0.26944816 -0.033925265 -0.30208293 -0.02723709 -0.06157588 0.16721483 -0.0205826 0.011387688 0.4819573 0.13013303 0.17425466 -0.12695305 -0.1761873 -0.16855916 0.081881784 -0.027115 -0.0973577 -0.2249295 0.19707075 -0.48739034 0.014903898 -0.48070788 0.22790799 -0.117957845 -0.2602471 0.15598714 0.122854225 -0.1974699 -0.3344526 -0.29105684 0.27132773 -0.16116647 0.09375665 -0.11144158 0.08705429 0.3551454 0.1771245 -0.3460131 -0.09564873 0.10742597 0.033613637 0.7511619 0.49784228 0.2843157 0.45818925 0.18220502 -0.28246891 0.34352526 0.17434514 0.30752456 -0.057474833 -0.18562554 -0.20530109 0.110125445 0.14810148 -0.1702724 -0.3245185 0.16307531 -0.9056206 -0.012733579 0.376877 -0.17765869 0.6325283 0.35343742 0.060589034 0.18020393 0.11574147 -0.18904087 0.29434794 0.12777339 -0.2786078 -0.23074241 -0.061417095 -0.2866957 0.010827967 -0.70813096 0.3412927 -0.10285039 0.13159595 0.23079199 -0.10123654 -0.16701066 -0.47237557 0.3145866 0.012840993 -0.39685723 0.67889553 0.39711976 -0.45642456 0.15480122 0.6804279 -0.07663481 -0.27673802 -0.30743584 0.1935616 0.45318154 -0.034160316 -0.31486142 0.050567437 0.48283347 -0.05672699 0.093725994 0.12076201 0.023000319 -0.32733753 -0.40945065 -0.001515833 0.4372798 -0.54927605 0.4837369 0.061817046
545 -0.26806083 0.563391 0.23770945 -0.078820616 -0.66024727 -0.051976517 0.5352499 0.045606483 -0.08171616 -0.051750164 -0.051367175 -0.18976219 0.39310855 -0.30888426 -0.45357433 0.28926027 -0.06164964 -0.21976745 -0.14914837 0.5024845 0.1380015 -0.24517646 -0.19855078 -0.14864331 -0.037927616 -0.15866545 -0.26856852 0.20385815 0.22669329 0.0020946618 0.33870322 -0.09367798 -0.18441552 -0.14830695 0.21471785 -0.0780184 0.038729552 0.01568236 -0.4515707 0.11507929 -0.1292884 -0.16622435 -0.05924798 0.16094723 -0.05610716 -0.2533654 -0.10395011 0.2527357 -0.036018744 0.12146548 0.3859522 0.31225803 0.23665409 0.4439316 -0.36783284 0.22431928 0.35534605 -0.38444334 0.27011803 0.1499303 0.14568593 0.17771077 -0.07614654 0.13087934 0.09224825 0.06865363 0.22058153 0.109859474 0.19364688 0.03557037 0.065971464 -0.04396714 0.17183658 -0.4542753 -0.018087782 0.055584554 -0.6040305 0.13404427 -0.15655193 0.04444077 0.41695213 0.22449318 0.549594 0.63014215 0.2880791 0.36055753 -0.40081626 -0.32114798 -0.076508254 0.057989158 0.15655479 -0.045511916 -0.404778 -0.049051862 -0.16701293 -0.2148439 -0.06779095 0.08765204 0.033020675 0.3412529 -0.09565864 -0.109070025 -0.07131169 -0.052980408 -0.11144761 -0.13117278 0.028762296 0.14400771 0.06935854 -0.12719476 -0.5201843 -0.2025733 -0.12724534 -0.22091049 -0.17948137 0.06454188 0.11847317 -0.012205187 0.065065786 -0.27636665 0.56553876 -0.2665165 0.2796332 0.16913207 -0.052653015 -0.012734693 0.20204176 -0.09323055
313 -0.28037003 0.5162628 0.2765145 -0.04396865 -0.46229053 -0.079136126 0.6877754 0.045427673 -0.14679603 0.016364522 -0.07379125 0.024646422 0.5217307 -0.26032904 -0.47574595 0.3833663 0.07652353 -0.10076669 -0.11818747 0.43412295 0.26670197 -0.19458093 -0.039962754 -0.13405694 -0.02226936 -0.056070644 -0.30256242 0.25438523 0.28310353 -0.20039073 0.33680347 -0.070728876 -0.14143987 -0.12669611 0.08645298 -0.20381364 0.0072203632 0.04493568 -0.43186012 0.124152645 -0.10769028 -0.24189045 -0.16500008 0.13880916 -0.15921974 -0.27915105 -0.14874989 0.24110264 -0.03475564 0.17997111 0.30861068 0.24164145 0.14533833 0.60583496 -0.23227167 0.2787346 0.4343441 -0.2669444 0.11831838 0.19186759 0.16490065 0.27495682 0.0021258271 0.12147847 0.11389929 0.08601967 0.19253922 0.07241236 0.2760334 -0.107805714 -0.0470676 -0.01149865 0.22547221 -0.5362998 -0.05723318 0.098660074 -0.5218974 0.13029271 -0.15679026 -0.09555269 0.47467104 0.10917762 0.41083628 0.4160298 0.3274564 0.34117675 -0.4159884 -0.17174406 -0.05240698 0.17911318 0.018933719 0.02833794 -0.5911995 -0.07726042 -0.25210708 -0.1626015 -0.11407113 0.0031833197 0.20141219 0.3039786 -0.09996689 -0.048984487 -0.047112588 -0.009734756 -0.08247261 -0.27193305 0.03503168 0.12366557 0.12285667 -0.1545063 -0.6109875 -0.2645011 -0.19576895 -0.2038899 -0.13015151 0.08194435 0.083377 -0.04935628 0.100135334 -0.20751528 0.54184234 -0.2299214 0.18099818 0.09676585 0.022534246 0.15345182 0.1383566 0.011247804
75 -0.45377937 0.120280676 -0.17699246 0.0865155 -0.37220436 -0.096743084 -0.205896 0.12877212 0.023524974 0.07606822 0.029544048 0.08647454 -0.094895385 0.094154306 0.003464463 0.06704338 -0.0626473 0.04821066 0.14457054 0.2956059 0.10229111 -0.43923414 0.067184985 -0.017130006 -0.12642883 -0.08780174 -0.234931 -0.044353496 0.04214375 -0.25471404 -0.08873726 0.022520645 0.060760558 -0.105902985 -0.012417352 -0.36878538 -0.03787336 0.24690737 0.17914957 0.31344488 0.35630578 -0.16337454 0.15045142 -0.42877066 0.1613268 -0.08138462 -0.13216789 0.2435509 0.100851595 -0.33600932 0.12646173 0.391329 0.08020987 0.39343333 -0.14115494 0.4354053 -0.16939192 -0.0045400807 0.07641119 -0.04082084 0.44609872 -0.18992282 -0.010425715 -0.0685605 -0.17312622 0.19920748 -0.046983212 -0.19979003 -0.14453945 -0.31718096 0.016811464 -0.044073917 -0.31687313 -0.41378346 0.112926476 -0.32218966 -0.123464376 0.3080263 0.20615377 0.106136374 0.019032218 -0.073410094 0.24071406 -0.03525216 0.06743384 -0.045340635 -0.11497773 -0.23218529 0.17888202 -0.05841659 -0.33537287 -0.11985047 0.20553651 -0.038326114 -0.0109356055 -0.033296872 0.044491213 -0.069559634 0.18312694 0.19084844 -0.080335535 0.38821155 0.49956694 0.07369062 -0.021821711 0.08088655 0.28729904 -0.28130007 0.17257601 0.21869594 -0.12032539 -0.17098258 0.022941787 -0.1087865 -0.0417448 0.4113317 -0.12503947 -0.29792628 -0.50087017 0.006271379 -0.24107075 0.02504292 0.17111404 0.15261279 0.009075827 0.019905582 -0.091396675 0.21216683
147 0.018116053 0.107146725 0.027024157 0.019752786 -0.25387126 -0.37359872 0.025265807 -0.051621415 -0.18087873 0.011751873 0.01828717 0.11607385 0.093021095 -0.06295061 0.08923008 -0.29405043 -0.08584359 0.07786251 0.23946454 0.057157215 -0.15804768 -0.17297189 0.10277104 -0.03404198 0.01768414 0.062427152 0.015689986 0.12855402 0.2182896 -0.025475387 0.056371395 -0.016321778 -0.04699634 0.03937367 -0.047767885 -0.2889467 -0.049213007 0.08623821 -0.100077756 0.09957635 0.2215069 -0.038849823 0.17467505 -0.24160263 0.2777644 0.09502405 0.19156678 0.15544209 -0.21193215 -0.36685163 0.033671126 0.1729533 0.33963326 0.21680316 -0.26996884 -0.130094 -0.12468038 -0.13842498 0.058897495 0.1138018 0.47525123 -0.11115699 0.20921522 -0.18486783 0.16048035 0.12927546 -0.17450187 -0.021536432 0.12508261 0.0009252085 -0.012331703 0.1279178 0.00487365 -0.29300907 0.18075933 0.03719526 -0.12047978 -0.17975928 0.00024163359 0.11237877 -0.09389977 -0.2184515 0.0785881 -0.0033690934 0.03790598 -0.32335395 -0.0158916 -0.19451673 0.27835473 -0.08588561 -0.48358244 -0.4219864 0.096183434 -0.08929489 -0.18150394 -0.059769705 -0.33086357 -0.06481802 0.18383226 0.2626832 0.059977263 0.096607536 0.27545038 0.004505201 0.030505504 0.011932201 0.068586 -0.06682654 0.20491979 0.042076148 -0.16933423 0.07942952 0.17574865 -0.27126706 -0.01533175 0.14762206 0.011746964 -0.03237881 -0.12322047 -0.07322278 -0.03662593 -0.04306585 0.22445352 0.19708148 0.028285762 0.10051514 -0.009964453 0.39351004
360 -0.01629287 0.085727714 -0.03132192 0.13441446 -0.2929231 -0.20995325 -0.18277073 0.006041552 -0.0065900986 0.14318484 -0.06213832 0.024837498 0.09168213 -0.05890325 0.023405572 -0.2603882 -0.017075751 0.01647821 0.26662123 0.110521786 -0.077986956 -0.25074288 -0.073177874 -0.15085497 0.043538142 0.01718029 -0.101586506 -0.22566113 0.20344897 0.023289472 0.15833046 0.11238678 -0.10799764 -0.06859699 -0.18634212 -0.36063036 0.0780726 0.17363507 -0.010412455 0.19547877 0.19878466 -0.16530155 0.14997727 -0.23228891 0.3198369 0.05617201 0.04535346 0.18068078 -0.15435877 -0.2284794 -0.017239703 -0.0040395022 0.07660385 0.16445863 -0.23031254 0.045396492 0.019187767 -0.00045680677 0.08994033 0.08489157 0.25853476 -0.22630224 -0.06248391 -0.083515115 -0.0006928059 0.17940165 -0.32229254 0.1096549 -0.032996316 -0.119394705 0.14183143 0.08614402 0.053065795 -0.24458753 0.04068708 -0.2089594 -0.084827594 -0.05343252 -0.17285924 0.21740057 0.084752545 -0.26014763 0.087495774 -0.20595522 0.08367462 0.0063322773 -0.13740788 -0.14843334 0.19937459 -0.013699547 -0.43738624 -0.2852329 0.15834258 0.061433718 0.012382447 0.020818537 -0.15337572 -0.0547516 0.32923537 0.26149833 0.08836978 0.163724 0.3587607 0.15602323 0.08376934 0.14996025 -0.1398014 -0.024653351 0.103218 -0.33901656 -0.1657187 0.22904177 0.14511122 -0.18662645 -0.082523115 0.250323 0.018838985 0.080838054 -0.22381878 -0.23159124 -0.008233169 -0.22086139 0.55735517 0.24692456 -0.08731946 0.06854461 0.041415144 0.41356397
156 0.15276791 0.24520895 0.08706785 0.053458687 -0.29551524 0.009153463 0.13666058 -0.017681943 -0.16812378 0.26072323 -0.007175743 -0.09544057 0.26456612 -0.095868275 -0.10343228 -0.1669314 0.2426484 0.035443097 -0.19094363 -0.08123784 0.08893678 0.040406793 0.15526229 0.06723595 0.31525427 -0.2613183 0.10348114 0.07481848 0.19988948 -0.07879614 0.103082925 -0.13328804 0.07304713 -0.04179044 -0.10581492 -0.11408931 -0.0784147 -0.22312362 -0.057869334 0.2638735 -0.015608206 0.13508178 0.08708034 0.29777345 0.054265812 -0.11257563 0.07109331 0.13630252 -0.20397441 0.12720579 0.38394153 0.25082424 0.09869873 0.16691771 -0.26153025 0.10233242 -0.041410834 -0.077718325 0.18730691 -0.06970899 -0.07249963 0.29143408 -0.019606922 0.070078045 0.07283838 -0.01236161 0.047608778 0.0053396565 0.16529813 0.09900433 0.06057102 -0.21424991 -0.044258453 -0.1378431 -0.17213364 0.12269977 -0.30259174 -0.024024274 -0.028183477 -0.017641615 0.24768628 -0.32854587 0.19257057 0.24269445 -0.011100214 0.060552265 -0.2531172 -0.06953352 0.1993107 -0.09749673 -0.04186384 0.021682752 -0.24058475 0.08504711 0.105191156 -0.34653088 -0.0054333033 -0.13497077 0.08048484 0.08546773 0.049005035 0.3095526 0.16150117 0.24514623 -0.072390564 -0.21670002 -0.03782183 0.20769231 0.3474103 -0.10670176 -0.25787517 -0.21695858 -0.028530374 0.025117153 -0.027909629 0.061326936 -0.06726217 -0.038035724 0.025645265 -0.23621751 0.067967795 -0.23073828 0.11855447 0.034025308 -0.15902123 0.05592711 0.015570626 -0.116472475
148 0.3124598 0.75603485 -0.47926685 -0.037930794 -0.5999578 -0.66012806 -0.55039805 -0.18085425 -0.9796216 -0.15786465 -0.40745255 -0.3612923 -0.043590467 -0.15485263 -0.11420348 0.40809143 0.3662274 -0.0053083464 0.6369935 0.3018169 -0.455995 -0.009670658 0.09427418 -0.069513775 -0.11556732 0.32388765 -0.24799778 -0.3857101 0.15700646 -0.2188393 0.14859407 -0.008648954 -0.5846626 -0.27811056 -0.26327485 -0.43191394 0.13174814 -0.21302876 -0.07933745 0.3482673 0.1865825 -0.26120627 0.23815201 -0.518182 0.059242915 0.031859607 0.22441994 0.34578955 0.012892813 -0.45265093 0.45226714 0.1629662 0.49702266 0.37100303 0.2846461 -0.3370186 0.65813655 0.33312672 0.32358876 -0.18846469 -0.26751158 -0.10767239 0.054974806 -0.3000096 -0.19704665 -0.2690908 0.15409262 0.0020985005 -0.16586672 -0.42767468 -0.41770142 0.44045314 -0.32871294 0.004675359 -0.54070807 -0.9613871 -0.20514299 0.05173158 0.19912343 -0.63217753 0.50070316 -0.059344407 0.6558575 0.5253218 -0.374054 -0.3466347 0.33494547 -0.2656831 0.047899637 -0.6296225 -0.8537052 0.4196367 -0.5296969 0.3524534 -0.24953584 -0.5064489 1.1455147 -0.025968567 0.70671463 0.27618754 -0.056075964 -0.40302 0.15046288 -0.5939944 0.45937008 -0.12568055 0.63971424 -0.14283001 -0.2289861 -0.17532612 -0.116135135 -0.20521697 0.02442172 -0.89358795 0.09623445 0.10610318 0.46019274 0.09726634 0.04659101 1.1005207 0.075154126 0.08424105 0.22445256 -0.24744113 0.24184857 -0.0053828936 -0.56062573 0.27712786
72 0.03216083 0.12785727 0.017313201 0.16159733 -0.23577634 -0.43822637 0.03736303 0.050904926 -0.17609964 0.01042605 0.19361643 0.109563455 0.08116782 0.06837206 -0.09580389 -0.11661252 -0.09290489 0.052257203 0.09073793 -0.00031864762 -0.06120062 -0.23513941 0.18723257 -0.16447966 0.24297419 0.05280343 0.036721867 0.11172243 0.22927074 -0.14449202 0.0410258 0.15677291 0.053208515 -0.050755184 -0.11911619 0.13827462 0.10010796 0.20308994 -0.06335153 0.272887 0.15025859 -0.06836184 0.06335479 -0.25288197 0.1703788 -0.097005256 -0.016620308 0.097897805 -0.18621963 -0.320652 0.055321712 0.3894032 0.19314943 0.18829739 -0.041947987 -0.076713756 -0.13837801 -0.22211784 0.1463797 -0.15828328 0.46721682 -0.017433792 0.1182351 0.038293146 0.13401306 0.05809295 0.023390904 -0.058242958 0.018283492 -0.036253802 -0.048664525 -0.0036040104 0.14151566 -0.20256692 0.12929796 -0.03990785 -0.062291976 -0.19932672 0.14817123 0.24035595 0.06754619 -0.29668856 0.17130342 -0.0637908 -0.03752799 -0.23272997 -0.1867614 -0.21753933 0.32766035 -0.012540597 -0.45757365 -0.26976866 0.18822296 -0.16357832 -0.1330339 0.018904023 -0.41078946 -0.0033261206 0.19058532 0.11533673 -0.025283067 0.14290622 0.33895046 -0.046873674 -0.02205234 0.18806037 0.15808308 0.04751015 0.1361844 -0.10427212 -0.0664667 0.10815095 0.26957533 -0.18831784 0.004856277 0.29149702 -0.117250614 0.09911461 -0.30141127 -0.006014077 -0.094741195 -0.006842642 0.29903382 0.3065317 -0.09930279 -0.0735483 0.028655415 0.5734302
46 0.155615 0.03961939 0.059034925 -0.05222404 -0.13096546 -0.34631792 0.09981524 -0.092792265 -0.15037052 0.12698519 -0.018683748 -0.00399273 0.15353672 -0.14756678 0.054351214 -0.11582358 0.074052416 -0.08139125 0.26422888 0.009424161 -0.06451718 -0.23110713 0.007669688 -0.10057458 0.071044125 -0.024633216 0.016716238 -0.11807332 0.37053847 -0.30167642 0.20622203 -0.03357168 -0.1110038 -0.23654193 -0.056631994 -0.06774272 -0.057135157 0.29085082 0.018132273 0.07137773 0.13394636 -0.13855663 0.07100676 0.026183045 0.303573 0.10011091 0.076941654 0.16989635 -0.24041228 -0.376383 0.07323031 0.070799924 0.095925435 0.24227943 -0.17211407 -0.14451039 -0.19854693 0.033021107 0.2495954 0.017447839 0.430026 -0.08420349 0.10901211 -0.17878291 0.17287953 0.12676199 -0.3013554 -0.036462665 0.017539624 -0.08226534 -0.03004382 0.0038686756 -0.034753 -0.16954675 0.24967857 -0.16492286 -0.25876078 -0.19290845 -0.11929959 0.122735396 -0.045529168 -0.24054694 0.2658402 -0.12668611 -0.0278302 -0.17131686 -0.06896819 -0.2609798 0.26981652 0.04745675 -0.35014036 -0.297701 0.32816172 0.06184783 -0.12294595 0.031088317 -0.19338012 -0.06838396 0.24809183 0.14961165 -0.096606664 0.24886557 0.34873253 -0.052337483 0.027104646 0.20595095 -0.096252754 -0.0058527878 0.08087511 -0.032750137 -0.22444876 0.14064065 -0.0023832857 -0.14368501 -0.08269208 0.3466588 -0.034362357 -0.08302781 -0.07358043 -0.10502137 0.046090852 0.07176608 0.36799404 0.3438175 -0.101199985 0.015204065 0.07994711 0.45992944
219 0.3244674 0.7080235 -0.47851613 0.08881462 -0.6119375 -0.68268806 -0.53031534 -0.29153198 -0.99992293 -0.09474984 -0.5158881 -0.294878 -0.12195633 -0.120689824 0.045101665 0.4400167 0.19025685 -0.025966331 0.5089841 0.3437607 -0.52009445 0.024726411 -0.044668872 -0.059180796 -0.13360387 0.40169826 -0.3052271 -0.34377202 0.11577856 -0.29414895 0.24377204 -0.07892628 -0.5299579 -0.2938345 -0.31658226 -0.3243835 0.15126213 -0.24903908 -0.16079819 0.49784365 0.25742292 -0.22364414 0.2942313 -0.5534653 0.12509164 0.1173527 0.23499738 0.34417653 0.08972832 -0.58631325 0.40199688 0.3641506 0.47367084 0.56151366 0.22367798 -0.3459056 0.7847275 0.45281556 0.29229236 -0.33017266 -0.3422054 -0.15019757 0.1667869 -0.30271408 -0.076602705 -0.32544968 0.24824889 0.004456848 -0.04598809 -0.3224389 -0.4067481 0.3565736 -0.30573052 0.104088224 -0.552684 -0.96106017 -0.23630597 0.026079163 0.2020418 -0.6558979 0.43838078 -0.09487604 0.58913904 0.5531749 -0.467563 -0.38438904 0.26861796 -0.3804643 0.047079477 -0.7207047 -0.81172055 0.33923027 -0.49554098 0.36671758 -0.28378174 -0.44514522 1.0583681 -0.15902662 0.6504565 0.16324323 0.05578373 -0.40315738 0.079621226 -0.6001148 0.43559682 -0.081105426 0.72587043 -0.21767817 -0.18542282 -0.19800137 0.0089977225 -0.328283 -0.04413325 -0.8440423 0.15527624 0.033701554 0.4539455 0.083260655 0.09323335 1.1105299 0.1003878 0.06013207 0.1370811 -0.27358142 0.29703075 0.046693042 -0.46069735 0.2938653
239 0.027216032 0.044728488 0.24527492 -0.06954238 -0.2866039 -0.56435704 0.023163246 0.00165082 0.06276597 -0.11540318 0.021769853 0.09623614 0.22033304 0.2274712 -0.084198765 0.22610772 0.060369086 -0.12957492 0.13374694 0.14938216 -0.17848839 -0.16195269 -0.045550875 -0.031491514 -0.12942085 -0.19229788 -0.20275569 -0.0225857 -0.009460031 -0.22161242 0.011607427 -0.037040044 0.18137208 0.23950236 -0.12501904 0.04852965 -0.12176139 0.12851003 0.15706035 0.4027127 0.08192229 -0.37964952 0.25273353 -0.33893195 0.121067636 0.09488546 -0.018352166 0.27477914 -0.0059128455 -0.45623198 -0.029553087 -0.1086297 0.32738397 0.28087172 -0.40781668 0.12267865 -0.16600507 0.09983541 0.39435482 -0.2269571 0.25891697 -0.45407996 -0.0876741 -0.07267466 -0.0068856305 -0.27068713 -0.3045611 -0.06627252 0.20302033 -0.13992609 -0.28649324 0.20502514 -0.24490513 -0.5219031 0.18606351 -0.28950113 -0.2336679 0.05843265 0.12934168 0.0010986915 0.1936058 -0.3023522 0.12624946 -0.07840317 0.037911132 -0.012732232 -0.24289481 -0.3674363 0.17783256 0.0014175607 -0.4780773 -0.0032446275 0.32863438 -0.0035290436 0.00012606282 -0.005853411 0.1161506 -0.017737908 0.02521098 0.3089984 -0.23440921 0.21528031 0.174945 0.09199256 -0.11585774 0.118189424 -0.12338563 -0.21177046 0.2927604 -0.12151739 0.33208853 -0.04486513 0.09306075 -0.15272723 0.027064443 0.07550238 -0.15571874 0.034326784 -0.23798944 -0.07647829 -0.2833535 0.007537563 0.20517984 0.5581682 0.24219072 0.058224153 0.014931765 0.3090613
253 -0.4591789 0.4153666 -0.052856214 -0.16694091 -0.27414826 -0.22077888 0.5014124 0.25783446 0.05222448 0.090109415 -0.09273678 -0.2387647 0.21761736 -0.18108164 -0.33858255 0.27054897 0.2808561 0.08524849 -0.14273612 0.38543874 0.1843462 -0.06635051 -0.01761647 -0.09688822 -0.1384319 0.013848785 -0.12768163 0.06266111 0.26425326 -0.083731346 0.10319937 0.083604544 -0.3787436 -0.28032598 0.02778792 0.045371734 -0.030424204 0.06555471 -0.34565252 0.13031998 -0.0046567093 -0.14472684 0.05256182 -0.018141106 -0.009464807 -0.28265592 0.15614474 0.29004225 -0.04861633 0.12417332 0.45400953 0.33037367 0.038208283 0.3859586 -0.0020971948 0.17806669 0.23116302 -0.45435777 0.37944028 0.106206916 0.09389868 0.17939049 0.07598694 0.015610486 0.0024522182 0.047469176 -0.014905125 0.09021068 0.24564482 -0.09789314 -0.09425505 -0.13901225 0.23089814 -0.5591924 -0.153833 0.08571728 -0.50384897 0.2262615 -0.21588622 -0.3555754 0.30604452 -0.14844911 0.21126114 0.429961 0.34867477 0.41430342 -0.44398156 -0.19861707 -0.06333873 -0.03372926 -0.08287184 -0.37094188 -0.41056347 -0.12426958 -0.21400318 -0.17134984 -0.13164727 -0.09007899 0.07767602 0.25216347 -0.16206977 -0.06391235 -0.011344389 0.09325214 -0.13728845 -0.28467304 -0.05251222 -0.041513667 0.295569 -0.26623037 -0.45511407 -0.1375139 0.010632586 -0.047217447 -0.05563684 -0.039018467 0.11712358 0.227163 0.09562084 -0.3140898 0.36741734 -0.08625216 0.26547083 -0.061860032 -0.022959756 0.08842763 0.11169894 -0.11933409
198 -0.08921079 0.23643354 0.1522345 -0.11502538 -0.1773205 -0.15349627 0.31537876 -0.24242783 -0.4273745 0.15460737 -0.45087242 0.18604788 0.12128839 -0.21985964 0.15930912 0.20425919 0.31854048 0.13537237 -0.19315106 0.02385125 -0.13409191 -0.043152172 0.15694164 0.07332965 0.23623814 0.246358 -0.04718946 0.13305612 0.10140592 -0.21272597 -0.07085116 -0.18002114 -0.19711429 -0.2568408 -0.45789257 -0.24751046 -0.11654653 -0.13891435 -0.073145606 0.2098504 -0.17624189 -0.16845536 -0.0913639 -0.021341579 -0.113129936 -0.13073267 0.0062860353 -0.10341056 -0.029072654 0.04350121 -0.13766259 -0.18149893 -0.2711418 -0.0019068666 -0.2398921 -0.18402043 0.09117506 -0.22645643 0.101226434 -0.022430832 -0.33236 0.20961836 -0.051487792 -0.0058295983 0.08344158 -0.055022977 0.2836808 0.19941191 0.34801638 0.08406512 0.32763436 -0.2948616 -0.2963882 0.14889055 -0.2751137 -0.3449826 -0.34569487 0.12858328 0.21048257 0.2586872 0.14703435 -0.09822092 0.08363937 -0.013353963 -0.03184116 0.21567345 -0.19937193 -0.25978047 0.21575364 -0.52130604 -0.36172855 -0.06852085 -0.15833881 0.03284554 0.056406066 -0.32763657 -0.10300841 0.3577895 -0.21976776 0.13705084 -0.220027 -0.008171836 0.21350609 -0.11388858 -0.0883288 0.1157518 -0.027713897 0.3498642 -0.2332129 0.08817108 -0.18312478 0.15431184 0.07357209 0.06905417 -0.042556003 0.14175852 -0.3814742 -0.07926919 -0.055823535 -0.38976493 -0.18695939 -0.24748704 -0.12730949 -0.37901938 0.08153326 -0.26063615 0.15407349 0.28250772
104 0.3406062 0.7033002 -0.45242953 0.12418613 -0.5287305 -0.6003422 -0.45600864 -0.21414506 -1.012975 -0.059595518 -0.40366626 -0.38664097 -0.10578168 -0.13040692 0.10381965 0.44297826 0.35102674 0.030053109 0.64250535 0.3250475 -0.60793513 -0.054907985 0.0082219485 -0.042239677 -0.17799528 0.3542001 -0.27118674 -0.3932614 0.14549606 -0.18208258 0.06413138 0.052211918 -0.46827546 -0.29111823 -0.27344707 -0.22439766 0.25943205 -0.08978742 -0.05328497 0.33088335 0.28085956 -0.25143877 0.32104838 -0.6720781 0.06823956 0.08365614 0.25855094 0.3083283 0.069969475 -0.57492685 0.41547433 0.16044019 0.39740092 0.4923689 0.18204272 -0.42223245 0.6757658 0.41674125 0.31027272 -0.361243 -0.24330667 -0.13339886 0.009833117 -0.37586358 -0.096983336 -0.35170272 0.1745903 -0.10051702 -0.07549298 -0.3615623 -0.29549584 0.33900818 -0.32251182 0.012660091 -0.47747394 -0.8533892 -0.22599445 0.1829381 0.2269942 -0.65913516 0.3723461 -0.22610694 0.6081716 0.6566626 -0.44272882 -0.40249065 0.23768534 -0.35237366 0.06560322 -0.5621061 -0.79359174 0.37066507 -0.5414565 0.30884787 -0.18927008 -0.52790767 0.95233494 -0.22905268 0.6030797 0.34919792 0.0058942316 -0.36000344 0.23184633 -0.63736695 0.4470732 -0.21320975 0.7086509 -0.14159055 -0.26693362 -0.27706766 -0.09854591 -0.373884 -0.057052054 -0.9653336 0.14411943 0.023130065 0.44151077 0.21295595 0.14846349 1.2190737 0.042381026 -0.0006842516 0.08795236 -0.2183635 0.27654383 0.09669295 -0.40562603 0.28231144
479 -0.3808985 0.4117407 -0.012530063 -0.15709138 -0.20972803 -0.16958593 0.46193612 0.39314592 0.005068343 0.15818448 -0.14502509 -0.24516271 0.12209426 -0.09821152 -0.3559209 0.15847152 0.4112096 -0.03974092 -0.026302876 0.3937865 0.17740239 0.022105057 -0.028842801 -0.16310824 -0.07882258 -0.05713938 -0.1438153 0.001013672 0.33647576 -0.045181528 0.035532895 0.17283615 -0.3898946 -0.08593638 -0.036222987 -0.097802304 -0.09387714 0.24180482 -0.3502366 0.16960493 -0.06964054 -0.21211468 -0.08548023 0.12272879 0.06317973 -0.33290333 0.027580502 0.27701974 0.017718652 0.25337282 0.3223048 0.33728674 0.033358723 0.4055938 -0.10652002 0.16723672 0.31339818 -0.49069428 0.4577127 0.06408894 0.13725345 0.14920764 0.05089255 0.07367528 0.047641058 0.036855962 0.13968964 0.10461641 0.22583999 -0.18006489 -0.087760665 -0.23469141 0.38618487 -0.38093823 -0.079832986 0.067673214 -0.54440236 0.22321801 -0.1087785 -0.41499332 0.34354833 -0.19789201 0.30864832 0.5025367 0.5274265 0.13627759 -0.4099687 -0.35289934 -0.098544285 -0.106554024 0.05668121 -0.27705824 -0.47900695 -0.06708511 -0.29136115 -0.15908952 -0.084342584 -0.04881343 0.21286008 0.17423873 -0.12307132 -0.0035322702 -0.17679869 0.07351909 -0.0894414 -0.2371409 -0.06428736 -0.12016323 0.23913622 -0.30942318 -0.5016574 -0.08760989 -0.08641686 -0.05037669 -0.23791604 -0.122545645 0.21472768 0.16895746 0.023000922 -0.2613467 0.3234873 -0.109141745 0.21106568 -0.007843648 -0.07233611 0.01310329 0.17401631 -0.06062731
48 -0.18157709 0.13101074 0.12267169 0.06649595 -0.11730756 -0.03760128 0.21255617 -0.3799023 -0.42395726 0.17303367 -0.4651488 0.15394363 0.1886558 -0.26060224 0.20696497 0.2729681 0.29306892 0.15945652 -0.030533763 -0.031637397 -0.17681234 0.044658083 0.12292489 0.06311557 0.21530584 0.18249524 -0.082839206 0.10974714 0.102132335 -0.08826952 -0.088178396 -0.1224638 -0.18424177 -0.1800421 -0.55276716 -0.32135358 -0.36943924 -0.13340095 0.011749127 0.13757497 0.025972566 -0.32643914 -0.12111715 0.13274714 -0.19448517 -0.22756407 -0.114931 0.019137431 -0.0021790208 0.09105731 -0.13986203 -0.1614314 -0.2839133 -0.06333565 -0.3444809 -0.11545757 0.12111215 -0.10953643 0.24696757 -0.12174994 -0.3679537 0.20024171 0.051172614 -0.029030731 0.23970716 0.0032861228 0.30535594 0.19246718 0.27065197 0.12217752 0.31007946 -0.12019995 -0.26004 -0.026660739 -0.28969353 -0.1342313 -0.29571623 0.041127738 0.22124691 0.2626053 -0.09432898 -0.23882036 0.13904692 0.03150964 -0.026066737 0.45807838 -0.10190863 -0.20523554 0.16845308 -0.33773634 -0.38698974 0.06497144 -0.3668402 -0.014266979 0.111807734 -0.35475856 -0.098108925 0.37266722 -0.21926144 0.09623964 -0.24404524 0.07250551 0.32230443 -0.17050184 -0.022261951 0.0018610018 -0.008728637 0.15286289 -0.12401267 0.06595928 -0.105645 0.057820562 -0.0060760533 0.029566277 -0.08572319 0.16306248 -0.25638777 -0.052687455 -0.006348037 -0.3915002 -0.2595471 -0.26265055 -0.12344407 -0.35183945 0.069064766 -0.3935227 0.11795261 0.32281497
115 -0.08458221 0.33701327 0.19681686 -0.061522372 -0.45074576 0.015854869 0.44770914 -0.12016274 0.041114993 0.12611502 0.05163611 -0.19699726 0.42337173 -0.13401455 -0.3906688 0.22067375 0.04329913 0.022077322 -0.17598334 0.10031394 0.2066811 -0.037270904 -0.033057146 -0.019734703 -0.07282574 -0.1277238 -0.23965573 0.13971551 0.19596846 0.022093294 0.2394035 -0.119236454 0.058717698 -0.26387358 0.11135918 0.021317191 0.17986606 -0.072704226 -0.29068714 0.057283085 -0.032582857 -0.042060513 0.10084455 0.20699593 -0.16007195 -0.26946723 -0.055644307 0.09390651 -0.23012008 0.12904112 0.32940984 0.24279298 0.07592616 0.30231327 -0.33759066 -0.012317454 0.26431602 -0.2929645 0.22964805 0.16597342 0.08917389 0.13296 -0.102707244 -0.09147849 0.09208942 0.007224268 0.1699656 -0.1196069 0.2868681 -0.08550388 -0.006909116 0.0016327794 0.08382961 -0.23861164 -0.06245902 0.07965431 -0.5100313 0.14654526 0.027971607 0.16740128 0.18494046 -0.03135413 0.520189 0.4986983 0.36733246 0.12156577 -0.3373001 -0.026640369 0.1544401 0.00601875 0.0033093435 0.078486174 -0.363857 -0.0064873607 -0.09471896 -0.28024504 0.093676366 -0.08749698 0.16091643 0.3491881 -0.040444106 0.08199331 0.06601431 0.1584429 -0.015356371 -0.09545939 -0.012301837 0.21644454 0.179032 -0.1264268 -0.5463623 -0.3253093 -0.13361195 -0.08191338 -0.097733915 0.14808351 -0.010236496 0.01345388 0.08142891 -0.4397739 0.50729024 -0.07039946 0.16888267 -0.12844366 -0.08022494 0.2760127 0.03115161 -0.051556565
418 0.017426608 0.21049638 0.11333381 -0.09941533 -0.095180765 -0.4186434 0.022875948 0.17391427 0.016461296 0.18588936 0.35262886 -0.057496928 0.20843343 0.17309172 0.041135665 -0.11831636 0.09189493 0.012584359 0.1859417 0.09419076 -0.029157981 -0.05563605 -0.14511779 0.20497142 0.28816268 0.12139096 0.15871103 0.045637384 0.28960323 -0.18622868 0.22688954 0.08202304 -0.07737435 -0.21022032 -0.3107897 -0.03324772 -0.2371501 0.2537353 0.12930018 0.29432538 0.32364625 0.04307537 0.15180975 -0.031710453 0.054195274 0.018174639 0.12052749 0.27157417 0.04729452 -0.23057784 0.20332469 0.23802726 -0.04868261 0.19032662 -0.30907452 0.034973536 -0.29311177 -0.31669348 0.08440226 0.1561863 0.19395787 -0.1633159 0.07964031 -0.090486936 0.11719937 -0.08272849 0.12409511 -0.20388737 -0.12633625 -0.19881727 0.041311033 0.13821532 -0.0724173 -0.57656276 -0.008198337 -0.035350125 -0.2798784 -0.093907826 -0.12523127 0.06534295 -0.025309067 -0.2750743 0.29663792 -0.12247328 -0.085082985 -0.31723514 0.012094195 -0.24279758 0.19609721 0.028684994 -0.071432054 -0.14529584 0.27882707 -0.017067755 -0.13262884 -0.10858468 -0.23970176 -0.21447517 0.19394751 0.486056 0.050607767 0.109607354 0.5031619 0.039276045 0.13638325 0.26369017 0.14831804 -0.16043736 -0.13670635 -0.10473552 -0.042817786 0.19383577 -0.022897284 -0.30944768 -0.08786892 0.18930149 -0.15280835 -0.22189374 -0.22483046 0.015549448 -0.19832142 0.15561685 0.3615764 0.44094607 0.05359645 0.0077426606 0.12904431 0.36427772
241 0.3109448 0.8101981 -0.37138933 0.095304206 -0.5277764 -0.7361457 -0.6909737 -0.20161873 -0.87998825 -0.07401153 -0.5180027 -0.28598523 -0.15464903 0.039333213 0.022034578 0.38172135 0.29341888 0.028813383 0.59560883 0.27965432 -0.49094796 0.09676726 0.09579446 0.0073613003 -0.15769789 0.36536747 -0.118514925 -0.24347673 0.10848815 -0.17178564 0.039823685 -0.009887368 -0.44940835 -0.24012074 -0.28534207 -0.38330337 0.15557034 -0.19753265 -0.29569033 0.33738557 0.35064253 -0.43940577 0.4051694 -0.5807512 0.05276301 -0.004619329 0.31548655 0.24530022 0.17977458 -0.51450187 0.4791502 0.1843931 0.3343217 0.45846507 0.20559295 -0.33001763 0.76020616 0.39654085 0.2829863 -0.28596702 -0.29533464 -0.0629065 0.12884253 -0.3374641 0.0013717847 -0.28982875 0.12689906 -0.11428319 -0.1772287 -0.24052584 -0.2661333 0.4357249 -0.19271274 -0.0055062925 -0.5287195 -0.97044736 -0.37278065 0.11165427 0.29456782 -0.55896324 0.42187577 -0.06506641 0.6608596 0.58588696 -0.4207768 -0.38528612 0.21358934 -0.31624022 0.06516736 -0.45959496 -0.71737796 0.46063152 -0.5551156 0.30884868 -0.26408726 -0.5165637 0.9947054 -0.06754191 0.6428183 0.27208894 -0.026375448 -0.428598 0.04302795 -0.5436078 0.50055647 -0.10584393 0.6938132 -0.16320315 -0.14488289 -0.17602456 0.046091575 -0.2404978 0.05195872 -0.9580115 0.25467858 0.04701853 0.4281999 0.0877667 0.07101029 1.2046496 0.038053975 0.015158797 0.11625345 -0.26899797 0.14117216 0.14286517 -0.4753005 0.35880685
195 -0.13914596 0.13292809 -0.20189828 0.2693481 -0.44707665 -0.27629197 0.17189835 0.030184822 0.027725466 -0.16091868 -0.076157086 -0.09435329 0.31516102 0.21063401 -0.26637632 0.21819183 -0.17599104 -0.034728587 0.283814 -0.17793447 -0.21522965 -0.31238306 0.29488415 -0.044782016 0.32831663 -0.1398914 -0.16420269 -0.090412036 0.22627787 -0.08136306 -0.12839523 -0.06946637 0.16263177 -0.15508062 -0.12925677 -0.19764017 -0.17317869 0.25290278 0.23480096 0.2247038 0.34745345 -0.2869815 0.1445252 -0.5756907 0.15446657 0.13459177 -0.07540928 0.08224146 -0.08162282 -0.64645225 -0.04736598 0.06806321 0.2669617 0.35994345 -0.30890563 0.09473027 -0.162544 0.16218208 0.27794865 0.015177706 0.21315856 -0.376487 0.052124858 -0.00073775346 0.07386162 -0.01586 -0.13334438 -0.028854867 -0.016714498 0.03820298 -0.11803501 0.08274181 0.09078746 -0.21285093 0.073991105 0.03895369 -0.0439046 -0.11677935 0.090939 0.11071677 -0.04622991 -0.33660302 0.12631029 -0.15122154 -0.039429873 -0.046530075 0.31024954 -0.45012695 0.1189551 -0.30249283 -0.3090248 -0.19851165 0.27178237 0.22456372 -0.09398696 -0.064284325 -0.08710587 -0.03544526 0.13425925 0.19267383 0.21016224 -0.08783371 0.0057705184 0.09963897 0.16636735 0.040938325 -0.091660045 0.19584398 0.28142673 0.16398825 -0.03532325 -0.031161012 0.078012146 -0.4867929 -0.34944758 0.13837677 -0.14222531 0.17160557 -0.41704214 -0.09162436 -0.010688106 -0.22830333 0.062749974 0.074004225 0.1128303 0.046418585 -0.13389365 0.3201195
44 0.16561197 0.19136885 -0.046252895 0.07135292 -0.29980472 -0.35279295 -0.035018425 0.23907429 -0.36593962 0.116696075 -0.048747607 -0.13570307 0.16760007 -0.031062378 -0.18657266 -0.03948354 0.16476586 -0.21417177 -0.10757204 0.009592579 -0.1747171 -0.025235778 0.025570571 -0.1522092 0.23592678 0.11268687 0.19056731 -0.057975166 0.04578903 -0.30370727 0.5709427 0.106338546 -0.17861661 -0.25607327 0.0019375653 -0.18069102 0.014907249 -0.042146794 -0.045243774 0.17418656 -0.040884465 0.07343461 0.31755483 0.39088652 -0.008073373 -0.020191833 0.42445445 -0.058768094 0.017474402 0.20417215 0.16497232 0.39205396 -0.03441588 0.11843475 -0.007820845 0.47709283 -0.33944896 -0.31519723 0.3820667 -0.032590486 -0.010365578 0.2329072 0.14732283 -0.21632169 -0.1288689 -0.01446718 -0.075029366 0.06226772 0.101424165 0.30136588 -0.20557572 0.065379396 -0.09568552 -0.018866258 0.13088079 0.19669215 -0.32297307 0.076874934 0.14869866 -0.02218443 0.36468938 -0.15549387 0.14375898 0.064412355 -0.06729626 0.21022841 -0.06480811 -0.53391886 0.21902624 -0.1504383 -0.37724417 0.20663291 -0.12293207 -0.042606685 -0.20566063 -0.3470964 -0.3497006 -0.09621638 0.25175422 -0.14651288 -0.25052956 0.05475718 0.0044702743 0.26220626 -0.15290098 -0.37942755 0.19123809 0.4102005 0.3685179 -0.19637108 0.008788324 0.0044975826 0.1715352 0.30118766 0.0334492 0.3146819 0.08562231 0.15177993 0.07856912 -0.09407116 -0.24043955 -0.22717369 0.02597713 0.059287097 -0.23066385 -0.2797206 -0.040762134 -0.1879071
529 -0.29167488 0.2629532 0.16252433 -0.13821237 -0.15403794 -0.05051526 0.31181452 -0.22402197 -0.40451893 0.25829095 -0.34410942 0.26821816 0.04794673 -0.19525181 0.42078108 0.24014333 0.4045312 0.13868146 -0.058544405 0.12368352 -0.14135207 0.13528298 0.19021891 0.13152677 0.109537445 0.14045154 0.040638838 0.12712334 0.17613038 -0.16583067 -0.052401677 -0.13607474 -0.16228455 -0.41470072 -0.5029073 -0.28568077 -0.025769936 -0.10138385 0.020831622 0.13416502 -0.14469062 -0.12894014 -0.05638916 0.013222763 -0.21696924 -0.17697766 -0.041293662 0.079479665 0.082916066 0.04326064 -0.18600988 -0.18076146 -0.19183104 -0.17353281 -0.368361 -0.30308 0.068577744 -0.2613198 0.16514449 -0.19651635 -0.29024604 0.1575662 -0.0032188087 0.03508321 0.12784865 0.08469813 0.24675325 0.11137126 0.37526304 0.041326523 0.4961853 -0.10756999 -0.13341121 0.028467711 -0.22206347 -0.33118665 -0.35764155 0.21185756 0.16814913 0.13324845 -0.11571736 -0.18448877 -0.011462837 0.0919345 0.06761659 0.15365723 -0.081434906 -0.28506744 0.19282779 -0.63933086 -0.53016394 0.049197927 -0.2957961 0.2582034 0.09512834 -0.2783361 -0.22045209 0.2807681 -0.07146336 0.08494094 -0.1992314 -0.092110254 0.22530767 -0.08049239 -0.25076607 -0.09119256 -0.06746028 0.2876751 -0.027940275 0.06129407 -0.015187786 0.20694762 -0.13782035 -0.082218856 -0.2073022 0.21769382 -0.39515522 -0.1073665 0.1966953 -0.15438779 -0.12009947 -0.22396255 -0.21971473 -0.33394435 0.03732419 -0.3526473 0.08208358 0.25176218
539 -0.20340739 0.55894643 0.19750606 0.0122386655 -0.55112904 -0.07398988 0.5352085 0.007205327 -0.026908813 0.036148835 -0.038503475 -0.005947196 0.35911828 -0.2902721 -0.47783524 0.14992897 0.0467557 -0.19926928 -0.082962245 0.19904846 0.23187894 -0.34200123 -0.06218375 -0.11431974 0.043817766 -0.015917862 -0.15117812 0.13578779 0.36340797 -0.03655509 0.2708153 -0.0724219 0.0063242614 -0.19147226 0.14681232 0.082964666 0.07026729 0.056990515 -0.33770818 0.24770027 -0.06453242 -0.18027769 -0.072445385 0.29217657 -0.09779736 -0.34232023 -0.095371254 0.120203815 0.0064054504 0.21092731 0.28469765 0.27860722 0.13384964 0.29630664 -0.34478563 0.22412518 0.36424953 -0.19117889 0.30715257 0.034731746 0.12722953 0.21604156 -0.043202035 0.18119562 0.06629645 0.054737892 0.04346686 0.0052073514 0.17535737 0.028298091 0.100281335 0.025913121 0.12930739 -0.42876408 0.09960398 0.18209194 -0.6575581 0.0143498685 -0.020314248 0.054456584 0.4533599 0.008446487 0.6282654 0.51531583 0.37173268 0.23369075 -0.3827191 -0.18840176 0.020987667 0.114284955 0.05515191 0.088701285 -0.4265027 -0.08427073 -0.1582556 -0.085899726 0.02053867 -0.07725332 0.1594939 0.30482092 0.038881686 0.045875397 -0.1719255 -0.003036335 0.058540717 -0.12376807 0.022777645 0.20337252 0.1314685 -0.12170847 -0.45714942 -0.31788948 0.0017668797 -0.18528894 -0.027296992 0.17943601 -0.0088734375 0.07812498 0.10461913 -0.33666193 0.58168006 -0.28344575 0.06964417 0.13577625 -0.14535028 0.097816825 0.050114173 -0.022014352
372 -0.18133764 0.22608529 0.12067734 -0.101747066 -0.17506151 -0.023806857 0.21477284 -0.21296512 -0.28534743 0.22388668 -0.41010118 0.33392814 0.20704405 -0.21899183 0.29132548 0.1563021 0.32805362 0.19677573 0.027826097 0.0098218 -0.16902845 -0.035634916 0.032474082 0.2046531 0.09660899 0.29088992 -0.03872548 0.17078443 0.15861909 -0.2227327 -0.12407911 -0.16485853 -0.30824342 -0.34474355 -0.33729452 -0.38002694 -0.3122228 -0.07185459 -0.13152292 0.31350085 -0.16662079 -0.13066642 -0.12572561 -0.087942295 -0.17709476 -0.20965523 0.003484266 0.0106855575 -0.014986511 0.04793323 -0.033213284 -0.21162593 -0.12239403 -0.18864156 -0.27379304 -0.16633001 0.02991023 -0.11901916 0.25394443 -0.13434635 -0.35414934 0.25968847 0.04568756 0.01983965 0.15184684 0.022905206 0.1715575 0.25702873 0.4292484 0.09774859 0.26227146 -0.18006141 -0.2604566 0.052718315 -0.3441267 -0.35323456 -0.3215234 0.0035710502 0.099265665 0.26473394 0.057393536 -0.14608054 0.062756635 0.021031732 -0.107149094 0.19333987 -0.13146648 -0.19613017 0.2471703 -0.3715408 -0.4474512 0.06622242 -0.289379 -0.058212474 0.055193968 -0.30225363 -0.10515165 0.24173984 -0.19331355 0.16860197 -0.27809963 -0.019075481 0.20503725 -0.15129796 -0.14756994 0.112000994 -0.08960426 0.25497842 -0.18251306 0.07845496 -0.20103613 0.3129797 0.100036055 0.08606784 -0.06415292 0.06621626 -0.28278488 -0.2101254 0.09945279 -0.465747 -0.19803901 -0.31605625 -0.2031391 -0.30637893 0.06997742 -0.21242917 0.057329763 0.31530133
417 0.18395562 0.09533144 -0.024495518 -0.053836767 -0.21638563 -0.27668282 0.23453332 -0.082869865 -0.35953763 0.09458397 -0.13979144 -0.041509043 0.10615301 0.03278991 0.3260063 -0.065127544 0.07531578 0.072635084 0.16067521 0.1035675 -0.006859852 -0.04893273 -0.010624599 -0.14732787 0.06029381 0.06535431 0.092462786 0.08701094 0.3038458 -0.19955902 0.153383 0.067435294 -0.07776024 -0.065921605 -0.2761076 -0.1587129 0.05723152 0.22946265 0.094924666 -0.09125039 0.123113796 -0.097104706 0.10113223 -0.030678166 0.123252 0.18096294 0.2528309 0.17319903 -0.057687763 -0.39476308 0.31483617 0.19042379 0.2897126 0.09959425 -0.09688701 0.08686778 -0.005986442 -0.12451975 0.059116438 0.01230172 0.24360523 -0.30763742 0.11801019 -0.102373816 0.031018909 0.22674459 -0.039915115 -0.16565913 -0.017825885 -0.04924718 -0.05802851 -0.03914849 0.14159656 -0.18180151 0.53059274 -0.23481478 -0.15506119 -0.128275 -0.20542862 0.25748953 -0.16637504 -0.31406763 0.019049957 -0.14291485 0.07553327 -0.027934803 -0.23131356 -0.036466584 0.26465306 0.14785731 -0.34233865 -0.21003507 0.13000181 -0.09454131 -0.04103652 -0.1397037 -0.16892326 -0.17849876 0.17711279 0.1096927 -0.10134433 0.05736364 0.15068907 -0.010795599 0.06165676 0.15360008 -0.03459891 0.029455766 0.072299555 -0.041791975 -0.32272774 0.10211869 0.082785256 -0.056111824 -0.21314827 0.28583854 0.031446505 0.12322425 -0.26194975 -0.0985049 0.10307607 -0.21741566 0.37810072 0.117566936 0.054644965 0.023618147 -0.19122463 0.5376555
467 0.009769999 0.049138866 0.007809292 0.010863808 -0.24860966 -0.3555174 -0.062223643 0.11618801 0.085246585 0.06578747 0.011565689 -0.033819985 0.09808884 0.19997732 -0.19281878 -0.010808766 -0.12461179 -0.038607668 0.2431864 -0.12078198 -0.11512888 -0.11636938 0.025116067 0.07917962 0.18738942 -0.044510327 0.07084758 -0.03118321 0.20907767 -0.19443536 0.04135676 -0.05466991 0.10183373 -0.09067612 -0.22455084 -0.033994157 0.008011525 0.31284836 0.033066697 0.31152093 0.24501777 -0.16239566 0.17761393 -0.26826432 0.30008638 0.02325993 -0.043016862 0.20317854 -0.0070430213 -0.44383582 0.12971759 0.042494647 0.12193097 0.38490114 -0.30695328 0.14765657 -0.1485307 -0.042413026 0.20058165 -0.10748986 0.21070328 -0.2832729 -0.03337414 -0.23460038 0.029441467 0.0033130974 -0.0007586238 -0.06283011 -0.04915187 -0.13951498 -0.13315189 0.05873413 -0.24906915 -0.49853778 0.08997606 -0.1520029 -0.32950497 0.0935627 -0.019224057 0.13896388 0.040728275 -0.30529568 0.14922549 -0.12469767 0.08763875 -0.19895723 -0.17360081 -0.33084354 0.15401615 0.0014166753 -0.36749434 -0.18715414 0.27139112 0.105016716 -0.07355362 0.016660718 -0.106636986 0.15940748 0.16911514 0.30534256 -0.092569575 0.1941739 0.26770112 -0.032454353 -0.033054885 0.0758254 0.034111746 -0.18015517 0.08900315 0.1160265 -0.11321687 -0.011910088 0.22537474 -0.13751948 -0.13977079 0.14534849 -0.016961105 -0.09501773 -0.35201612 0.0014618929 -0.14182071 0.006184034 0.18741836 0.29380548 0.009484717 0.056635197 -0.058002114 0.30151442
77 0.26728386 0.19805539 0.06672866 0.14078897 -0.21678622 -0.3483334 0.018136993 -0.10934602 -0.083881855 0.16866763 0.0059266645 -0.1373613 -0.053246398 -0.058014143 0.13672881 -0.06123122 0.10615385 0.15151888 0.4983092 0.08024274 -0.17176725 -0.061526068 0.028297836 -0.118787386 0.30555564 0.19558214 0.10711624 -0.04750309 0.30148712 -0.14728081 0.012234351 0.066172235 -0.033533745 -0.055682532 -0.21654575 -0.11116886 -0.023212852 0.22857895 -0.15534836 0.09982758 0.08285295 -0.11966848 0.03718387 -0.040540405 0.2336909 -0.103286356 0.1251647 -0.011018419 -0.04372393 -0.47919133 0.071174204 0.08629498 0.14236635 0.17736939 -0.23606233 -0.011882868 -0.18308945 -0.4620987 0.10059089 0.07278933 0.44911414 -0.0013699806 0.20499897 0.09854183 0.14033568 0.054611996 -0.21284336 -0.076233566 -0.06905024 -0.1454634 -0.04673979 0.01809891 0.028653108 -0.29410943 0.16571851 -0.0122630615 -0.2658141 -0.2622111 0.06558374 0.087327346 -0.006655889 -0.35866353 0.21745452 -0.030739583 0.12295491 -0.20730805 -0.063888215 0.02456099 0.27667332 -0.033126704 -0.613092 -0.19379026 0.24335277 -0.011259273 -0.183995 -0.05488927 -0.34228173 -0.008094936 0.25452623 0.19645426 0.054690685 0.20999636 0.3586868 0.064138934 0.1089885 0.14421314 0.00457617 0.028702114 0.097991 0.02520037 -0.14802667 0.15755875 -0.03633215 -0.11347196 -0.24812925 0.20585486 -0.18435524 -0.024188245 -0.1007114 0.016502019 0.06422105 0.02494975 0.36920127 0.44144773 0.049843863 0.099933386 -0.13375634 0.5373346
306 -0.2438747 0.12582512 0.115095094 0.005349259 -0.2912954 -0.55957246 0.05022038 -0.0861577 -0.15332948 0.18752576 -0.04172318 0.15647535 0.09597537 0.008648655 0.029755175 0.04855232 -0.101844326 -0.024210861 0.19764876 0.050149426 -0.043598022 -0.30373478 0.1548486 -0.16066486 0.110931024 -0.0035219374 0.08983499 -0.10632168 0.11219244 -0.06907919 0.0022288554 -0.17340328 -0.07501667 0.14072527 -0.11851887 -0.21226476 -0.07722698 0.17752688 0.059883293 -0.12445996 0.26369014 -0.28043884 0.12373725 -0.3341588 0.020988015 -0.070053875 -0.006780138 -0.03958463 -0.2508267 -0.31738007 0.14302808 -0.056564897 0.26533565 0.29533303 -0.24041176 -0.081585616 -0.063618094 0.059969023 0.22452012 -0.16311523 0.35471466 -0.24118528 -0.07594468 -0.22288005 -0.0059185144 0.1725997 -0.33647487 0.042879086 0.24534433 -0.0036124527 -0.090782315 -0.022717593 0.018447693 -0.28146425 0.14151722 -0.060562655 0.1586085 -0.19577464 -0.014179593 0.07101967 0.016103974 -0.29436177 0.38517275 0.018188478 0.03399687 -0.47279236 -0.10825751 0.024809754 0.20145196 -0.06474152 -0.3279834 -0.29428723 0.19637875 0.024705026 -0.399077 -0.03548921 -0.16994329 0.0017312316 -0.107194066 0.2977899 0.20048672 0.2561376 0.2414856 0.07350183 -0.221024 -0.018536646 0.06853204 0.14294507 0.27587432 -0.1476272 -0.0126401875 0.09868135 0.15430743 -0.41108516 -0.12902288 -0.06108492 -0.12266819 -0.2544757 -0.22920047 -0.33250117 -0.18271875 -0.078203484 0.22659129 0.41754922 0.0908218 -0.007573964 -0.09907455 0.3535535
404 0.0046707885 -0.020873168 -0.22593297 0.09245899 -0.11817226 -0.35185906 -0.101414286 -0.11784106 -0.08896962 -0.017372929 -0.13060334 -0.012465986 -0.11871657 0.04155619 -0.084827386 -0.20617963 0.116620116 -0.04204879 0.28439105 0.08172425 -0.08548785 -0.27336103 0.05315124 0.045887783 0.011136761 -0.1722188 0.0061893244 0.051614333 0.26187563 -0.0723816 0.06789962 -0.09852413 -0.0017435224 -0.18880145 -0.1020384 -0.21962774 0.11711365 0.22325824 -0.05956031 0.036756095 0.23974216 -0.31003314 0.10785149 -0.117561646 0.20766024 0.11672285 -0.10083037 0.0019044637 -0.013205458 -0.22435957 0.16468035 0.039070524 0.0013332566 0.041344423 -0.08474999 0.024732511 -0.07954666 -0.068709604 0.22540289 -0.053794816 0.23198135 -0.15698528 -0.02624042 0.008347866 0.015812457 0.21310739 -0.22380579 -0.258486 -0.12961526 -0.20955604 0.11766681 0.06986601 -0.13663988 -0.28766745 0.05337116 -0.31866404 -0.23420036 0.12585768 0.17472148 0.1115506 -0.031860452 -0.10924729 0.23968436 -0.09599544 0.12857252 0.018778596 -0.084751435 -0.28596914 0.015852708 -0.015740903 -0.23598896 -0.14694387 0.2193975 -0.07069958 -0.15345214 0.08716751 -0.32659048 -0.14617208 0.33436483 0.18757209 -0.06046092 0.14902537 0.42085794 0.16799268 0.02594869 0.23121373 0.06990721 -0.1267505 -0.02352408 -0.22397529 -0.112068556 0.09803697 0.29146147 -0.21451257 -0.08084592 0.30404696 -0.020497322 -0.1924745 -0.3740219 -0.17571093 -0.025129996 -0.113997616 0.33397904 0.25937533 -0.0784457 0.07885149 -0.09338859 0.4079933
411 -0.03702135 0.19858935 0.1656684 0.02854429 -0.14719751 -0.18396832 0.008429561 0.14768283 -0.40853518 0.24166502 -0.21351235 -0.21273257 0.26946875 -0.21085298 -0.04033361 0.0073847156 0.08526944 -0.28758585 -0.087985426 0.0033955954 -0.17745526 -0.06113173 0.05190481 -0.2826729 0.2709582 0.13642673 0.14072722 -0.19773504 0.16611278 -0.17955443 0.6049206 0.118532434 -0.44420516 -0.2344754 -0.054683376 -0.07685391 0.098486215 -0.10445037 -0.08145313 0.1301183 -0.061856683 0.117533706 0.14344065 0.4641569 0.032235023 -0.30044982 0.19612436 0.23598778 -0.066119395 0.1499731 0.20907442 0.47212288 0.07412313 0.046393853 -0.10655284 0.3518936 -0.4270268 -0.32836634 0.48704886 0.0009080909 -0.108001895 0.11226031 0.21431306 -0.122788034 -0.17975268 -0.26404124 -0.015612983 0.13783756 0.38577506 0.26421213 -0.020524574 -0.10881969 -0.0053826272 -0.1489751 0.06649256 0.105634436 -0.40359035 0.26152366 0.15381461 -0.03429213 0.3156759 -0.032289803 0.009759879 0.0865668 -0.060932413 0.23454338 -0.07833655 -0.45521402 0.23986186 -0.18949689 -0.35974777 0.3307515 -0.10141355 -0.20673177 -0.34792116 -0.2781829 -0.5443116 -0.0067049707 0.4093256 -0.11500021 -0.31068558 0.14508788 0.14664447 0.63023424 0.042605672 -0.5122999 -0.02341779 0.28134206 0.4422302 -0.018503767 -0.09195165 -0.17372736 0.28978345 0.26561856 -0.13834321 0.18771094 0.12713733 0.19791295 0.13682394 0.14315185 -0.2739113 -0.2815061 0.12718904 -0.035957053 -0.1788709 -0.076309316 0.059253395 -0.30473748
28 0.24029598 0.058495272 0.02780279 0.0017140226 -0.24930796 -0.4566523 0.013015711 -0.15031576 -0.06943803 -0.054019794 0.1009399 0.11217167 0.05866833 -0.15064724 -0.11160134 -0.099966414 0.049431067 -0.12190604 0.24639618 0.03317535 -0.087073006 -0.07509706 0.026600936 -0.013612635 0.41530192 0.11887906 0.021658719 -0.12605417 0.25309694 -0.24948232 0.03495927 0.027402934 0.060783073 -0.23256856 -0.032725442 -0.19606471 -0.1544584 0.0817782 0.15646653 0.16217971 0.13822217 -0.2550829 0.034673166 -0.36747724 0.35398576 0.034359474 0.048356704 0.060812514 -0.09677939 -0.42627764 0.19070686 0.14885117 0.22157694 0.06892485 -0.171016 -0.18701069 -0.08228231 -0.031760387 0.17813976 -0.039632086 0.21032576 -0.26843682 0.29740542 -0.2603878 0.23380406 0.14535122 -0.00866031 -0.1300909 0.04790346 0.014433527 -0.08614135 0.025900826 0.16473618 -0.2677627 0.32861286 -0.16328186 0.071295805 -0.20729132 0.006303418 0.05995334 0.006242616 -0.3095275 0.14042139 -0.11299583 0.0501061 -0.07409855 -0.18321496 -0.24755085 0.052937 0.100421496 -0.5323472 -0.29606295 0.08794258 -0.013908495 -0.21960492 -0.03567402 -0.38377807 -0.06395279 0.1886177 0.31177798 0.06847045 0.016290838 0.38969332 0.020926703 0.12144069 0.13954127 0.03682129 0.050111122 0.2496028 -0.05280731 -0.18002948 0.10018469 0.15030323 -0.13977958 -0.13207321 0.28200608 0.01291663 0.35556644 -0.25235173 0.10537934 -0.057022013 -0.053711466 0.28277028 0.25403196 0.007781968 0.07357478 0.002260781 0.4555809
305 -0.24117504 0.1836515 -0.034110352 0.09299724 -0.27895242 -0.3146529 -0.16332202 0.351912 0.11873047 0.101309575 -0.12270567 -0.12920962 -0.077281654 0.11624525 0.095304176 -0.0016486987 0.020250516 -0.17616898 -0.037004724 0.13033938 0.037938572 -0.20773965 0.20765735 -0.11262624 -0.037792068 -0.15425314 -0.281211 -0.054902133 -0.022063522 -0.24396612 -0.044650003 -0.17233936 0.037721395 0.062367965 -0.09714626 -0.36290878 -0.03568877 0.29197672 0.18428601 0.27991194 0.19971175 -0.24273476 0.116436124 -0.2874589 0.15280393 0.0372413 -0.3101088 0.22073242 0.10936577 -0.31905076 0.17170219 0.22676842 0.1391439 0.5532762 -0.2993775 0.24579223 -0.30235675 0.11266427 0.13126074 -0.13534859 0.47312328 -0.35917524 0.14623635 -0.11907941 -0.14457653 0.096960165 -0.039500706 -0.094823085 -0.13265862 -0.0061831847 0.031669017 0.123676404 -0.24729486 -0.19229622 0.060704887 -0.18140411 -0.3628465 0.25568068 0.25128078 -0.057529066 -0.13988802 -0.26196063 0.22888145 -0.25286713 0.24984331 -0.001426155 0.019869845 -0.42273292 0.04852632 -0.12776576 -0.17863943 -0.18806359 0.2532914 -0.1017712 -0.0817468 -0.119251706 0.10572863 -0.05093825 0.21111834 0.29416862 0.14185302 0.31953827 0.36066413 0.038472846 0.0072437357 0.06838983 0.5183488 -0.08977124 -0.007620075 0.031106861 0.18872543 -0.2958316 0.0040930174 -0.1844126 -0.17904793 0.18984206 -0.18151051 -0.19816762 -0.34079152 -0.28731972 -0.15147947 0.07494257 0.079994574 0.2290227 0.19144154 0.26876566 -0.038950622 0.20556886
140 -0.34360147 0.08423508 -0.16523342 0.016661579 -0.33480296 -0.041816358 -0.29429996 0.09366843 -0.054215338 0.12858315 -0.19497433 0.107129276 -0.067652695 0.04022968 0.02679872 -0.036870167 -0.021654658 -0.08955937 0.1022422 0.2709142 0.24471863 -0.3364748 0.21878912 0.12285741 0.0067505725 -0.101523794 -0.12647922 -0.007231426 0.018748771 -0.37196934 -0.06682014 -0.074292175 0.05110761 -0.10915131 -0.035143256 -0.35469255 -0.064342275 0.16493213 0.10150527 0.37600538 0.3319925 -0.10469194 0.2230428 -0.32553917 0.1342305 0.030128188 -0.123732895 0.29010117 0.059906118 -0.4730181 0.18518527 0.23290578 0.13334088 0.3091533 -0.24429412 0.46476334 -0.14261718 0.100538865 0.08237174 0.12946165 0.26268712 -0.28597975 0.12775159 -0.09931145 -0.11615493 0.2569234 -0.12363209 -0.27848542 -0.19313632 -0.17054364 -0.045449633 -0.0026802428 -0.2820147 -0.30549422 0.116989486 -0.32932776 -0.29783028 0.2993021 0.10442599 0.047839966 0.044598684 -0.17038581 0.19405124 -0.074520424 0.10239613 -0.04927702 -0.064581394 -0.23089646 -0.06912746 -0.15341128 -0.16190939 -0.10409178 0.13125561 -0.14072454 -0.035931066 -0.119581856 0.038260605 0.13477908 0.32958317 0.27103153 -0.101872474 0.20157641 0.45088777 0.16953713 0.0048177647 0.04355402 0.22449559 -0.31099224 0.088153936 0.12961556 -0.16504832 -0.1451729 -0.04057229 -0.18329197 -0.09253802 0.3223007 -0.030447965 -0.23272762 -0.49617743 -0.057560857 -0.2955549 0.1706391 0.14458352 0.26300618 0.15895547 0.15848577 -0.0424145 0.16932936
39 -0.24096677 0.41604882 0.24819759 0.019974254 -0.019914014 -0.16039777 0.6091465 0.2810224 -0.14371876 0.011096302 -0.009509062 -0.09707129 0.62754285 -0.2055869 -0.38875285 -0.044379704 0.11302432 0.16993703 -0.049479425 0.15665673 -0.0038693324 -0.17915942 0.07509287 0.15455769 0.12930095 -0.36545897 -0.17328924 -0.005101715 0.15960684 -0.03881826 -0.051710706 -0.1576843 0.16536683 -0.37067994 0.04947716 0.08947397 0.12020817 0.06362814 -0.3834492 0.06833249 0.13281994 0.05014355 -0.10610425 0.08394111 0.24200937 -0.40408805 -0.22697367 -0.184932 -0.40788212 0.0040338472 0.12361712 -0.11720057 0.30544713 0.11509042 -0.10715317 0.104904614 0.22213641 -0.31782907 0.25323427 0.101021096 0.090654604 0.24743429 -0.063862495 0.18198143 0.21660368 0.13478659 -0.21480244 -0.14347993 0.1547177 -0.19641978 -0.17159905 0.056868177 0.11229952 -0.21119139 0.08842824 0.029922264 -0.59671855 0.1452085 0.32271263 -0.10239058 0.3343843 -0.30306682 0.5651652 0.45633426 0.3457139 0.38342914 -0.30778822 0.24327537 0.09646841 0.019357704 -0.06619428 -0.21616958 -0.38459328 0.03576574 -0.22232416 -0.24131554 0.17199688 -0.2278196 0.034002207 0.28501174 -0.12665704 0.1603816 0.07643568 0.06271963 -0.07370917 -0.09903194 0.09378682 0.09810438 0.1223516 0.036333673 -0.76191515 -0.37137854 -0.13953893 0.06853768 -0.09991081 0.05299836 0.027256679 0.16359441 -0.026530717 -0.33653504 0.09449094 -0.5179627 0.26882783 0.08914419 0.054642104 0.020818826 -0.06688728 -0.40908965
30 -0.3250846 -0.01995508 -0.10511878 -0.075532086 -0.1995878 -0.17909265 -0.026011555 0.05262097 0.001806208 0.031387012 -0.07380654 0.1387756 0.009451713 0.12111216 -0.09835552 -0.0017969292 0.11122393 0.059168477 0.17868014 0.118623696 0.1466761 -0.36518657 -0.013545273 0.07485501 -0.095637254 0.0031858636 -0.117704615 -0.11678571 0.22471038 -0.36566022 -0.051942308 -0.16640507 0.027934868 -0.075023286 -0.06506237 -0.16690905 0.03758815 0.1744703 0.05897581 0.3068147 0.1954173 -0.1365876 0.1605818 -0.18815207 0.11787849 0.02804946 -0.0008449837 0.367222 0.13961023 -0.28307647 -0.0022077928 0.4558443 0.12919843 0.32606828 -0.18398908 0.20988171 -0.32682365 -0.20348714 0.15411557 0.07508915 0.26420292 -0.2107282 -0.03412011 -0.07105716 -0.066542685 0.093201295 -0.020630302 -0.15435165 -0.09188319 -0.20857519 -0.05985864 0.03266107 -0.19530572 -0.4108399 0.0062195635 -0.043650977 -0.33100712 0.11343236 0.07588686 0.023207156 -0.13674216 -0.2579574 0.2438964 -0.113251455 0.26522306 -0.21275774 -0.037950646 -0.17133254 0.19248964 -0.0054907887 -0.24821183 -0.2146299 0.19782509 0.028518584 0.051516756 0.025003321 0.014756343 -0.018548805 0.26550704 0.297313 0.0290843 0.31295606 0.5259487 -0.012466564 -0.026434718 0.16674817 0.22371486 -0.110057786 -0.06280058 0.09019567 -0.14473435 0.074895255 0.11934298 -0.16504715 0.017387776 0.3048231 -0.11799213 -0.23513265 -0.46606916 0.027106015 -0.10461599 0.049862273 0.20014392 0.27916828 0.0836207 0.14904813 -0.007970226 0.2272886
294 0.20747328 0.09370138 -0.043777563 0.16872989 -0.103501216 -0.38750258 0.17369144 -0.046908326 -0.029007835 0.0852283 0.02133952 0.06526228 0.14366181 0.08985964 -0.015092665 -0.095672674 0.1028904 0.06075534 0.20082055 -0.054218203 -0.123341 -0.094073206 0.020734519 -0.2681805 0.2976744 0.09285327 0.2287547 0.16008453 0.41085237 -0.261854 0.090456046 0.18804756 0.011039271 -0.06729451 -0.048400912 -0.018087663 -0.045487452 0.063457556 -0.1615186 0.1449698 0.1278188 -0.0014241689 0.07633778 -0.29762197 0.096716546 -0.08913026 0.0417598 0.033963826 -0.2697505 -0.3771458 0.1488437 0.19240333 0.23660496 0.11375486 -0.21562865 -0.21387863 -0.13622864 -0.2750821 0.08647939 -0.1386729 0.38090295 0.048876755 0.096526615 0.04476267 0.18725279 -0.0074232663 -0.07655578 0.19587313 -0.034139883 0.13133696 -0.0782691 0.040902376 0.07745478 -0.18386759 0.09931982 0.026413547 -0.17253241 -0.31352088 0.09702838 0.16208917 -0.08688303 -0.30301502 0.31380624 -0.081517994 0.073681764 -0.2576532 0.1424566 -0.16230033 0.26574582 -0.098425396 -0.49922815 -0.12525846 0.12794688 -0.13676731 -0.24106906 -0.016324442 -0.43158486 -0.12251207 0.095243104 0.06925714 0.044740923 0.10196949 0.40367836 0.19438395 0.23091987 0.16370124 0.057105348 -0.02757755 0.2928794 0.13224953 -0.086717494 0.15072098 0.009592436 -0.07527286 -0.14843836 -0.049843494 -0.03761688 0.046346065 -0.32927483 -0.031499255 -0.18393011 -0.053086936 0.25425956 0.32623753 -0.097228624 0.03574797 -0.04909324 0.49551645
215 0.03152351 0.07916812 0.26687032 -0.0676422 -0.19892132 -0.37851223 0.053525362 0.11415119 0.18871629 0.10783509 -0.030321257 -0.07909738 0.058921035 0.39023373 0.0771207 0.031119127 -0.025095558 0.13778254 0.077229 0.05992233 -0.23431382 -0.3351759 0.08108449 0.007312872 0.016466094 -0.08812577 -0.115395114 0.044375673 0.05798875 -0.06881737 0.1134534 -0.1090478 0.25690246 0.15988395 -0.275015 -0.013116135 -0.03178933 0.3402091 -0.008151074 0.096787006 0.056780815 -0.2976553 0.22980507 -0.28285897 0.04070837 0.03596003 0.025852874 0.12285373 -0.031743072 -0.3983191 0.029593207 0.0010492614 0.09797284 0.2527932 -0.39569366 0.11556161 -0.09725744 0.09736957 0.38830432 -0.40514335 0.2756506 -0.32485428 -0.045718245 -0.09532812 -0.07655968 -0.16063681 -0.25482658 0.010826588 -0.07514382 -0.20580268 -0.28436285 0.18823087 -0.19337572 -0.54338914 0.29925033 -0.14822574 -0.38237032 0.11143205 0.10977221 0.043116286 0.20227487 -0.2678206 0.22439298 -0.087341264 0.0038343263 -0.056390163 -0.14403854 -0.32972094 0.17526184 -0.107557505 -0.5142034 -0.2831511 0.25359154 0.0022657686 -0.19303122 0.07383751 0.12850365 0.0252113 -0.0152293015 0.3279852 -0.19964743 0.27245402 0.30542243 0.14247678 0.036458746 0.11153475 -0.008918094 -0.26216212 0.25818577 -0.10814218 0.14172287 0.027351666 0.19209322 -0.20422965 -0.040427633 0.19930331 -0.11034556 0.010290746 -0.23673104 -0.22399788 -0.4284047 0.040633995 0.21781877 0.40397292 -0.044784617 0.07465931 0.006681483 0.4304153
421 -0.1378667 0.10225104 0.07566971 -0.036914017 -0.042809464 -0.26951593 0.009769719 0.25284 -0.07647183 0.040930197 0.2596212 -0.021799907 0.24739902 0.18310003 -0.10209362 -0.08157526 -0.019694414 -0.039505623 0.017739037 0.19246152 0.04241359 -0.23793596 -0.16260897 0.27611762 0.24209982 0.39125568 0.0010719326 -0.05580934 0.37275267 -0.43078855 0.26758137 -0.0017213942 -0.08121179 -0.1598399 -0.11038454 0.12002888 -0.15746944 0.13612992 0.20161179 0.56064886 0.2001865 -0.117449835 0.10876543 0.12472465 0.12320577 0.10482351 0.16899747 0.0670045 0.07977512 -0.24707921 0.16611588 0.28495944 0.0390608 0.27586728 -0.29118672 0.3716875 -0.2376478 -0.3096583 0.06804505 0.071378194 0.20851564 -0.28425476 0.052326262 0.0037246335 0.3524939 0.06842865 0.13633806 -0.2947934 -0.2591087 -0.07951783 0.07914878 0.17671406 -0.124801055 -0.60520416 -0.069324695 -0.22019686 -0.1739118 0.053120587 -0.019612925 -0.12611452 0.050684497 -0.23859711 0.3214587 -0.25290954 -0.002437141 -0.32583696 0.09003578 -0.3564189 0.13482776 -0.12672602 -0.25410366 -0.17644341 0.2506885 0.051805317 0.07073267 0.10936241 0.07985372 -0.11962111 0.21304688 0.55907375 0.16134556 0.28457263 0.42122847 -0.018480841 0.075824 0.27295235 0.06505116 -0.3561511 -0.11593951 -0.14165881 0.004237396 0.042553 -0.03280157 -0.28134462 0.06663326 0.35163847 -0.10021653 -0.49045232 -0.42364168 -0.023430038 -0.35829833 0.21563444 0.24979654 0.44829357 -0.036761362 0.045984406 0.060469218 0.20220743
400 -0.45854622 0.87116235 -0.08314677 0.36121917 0.14347802 -0.28586388 0.35474405 0.38009974 0.1705905 -0.29314652 -0.26516256 0.16474162 -0.14707872 0.29005274 -0.28914332 -0.15534474 -0.23065883 -0.3145659 -0.23011516 -0.20196317 0.33486 0.11471773 -0.17718872 -0.39758494 -0.014243391 -0.15512782 -0.5631336 -0.25525117 -0.25123644 -0.13719995 -0.20655194 -0.41742948 -0.4440822 -0.9085163 0.036045633 -0.03894839 -0.44420433 -0.10250411 0.44953912 -0.09381936 0.0917117 -0.4322405 0.8699326 -0.8251805 0.7698596 -0.026161725 -0.21470983 -0.0858191 -0.17706044 -0.24121474 0.3117692 0.35551307 0.16581097 -0.00918681 -0.44040886 0.0035965901 0.24738514 -0.2110558 -0.5948257 -0.12429957 -0.16213058 -0.38573456 0.015551437 -0.27681303 0.9115583 -0.41774836 -0.3738647 0.24268305 0.120507166 0.25489306 0.21970364 0.23997612 -0.3276122 -1.0098238 -0.09013445 -0.39659086 -0.4987907 0.04759786 0.44545442 0.24673273 0.021140745 -0.23757988 -0.38769156 -0.03998172 0.016391391 -0.14090078 0.17251314 -0.1600613 -0.01614085 -0.26752564 -0.41922057 0.54418826 -0.09757592 -0.19843817 -0.18446723 -0.05578494 0.39758846 -0.49638435 0.8489995 0.59042996 0.036895458 -0.21138531 0.01549134 0.714916 -0.54102886 0.37800905 0.34779668 0.15921693 -0.48272115 0.05088805 -0.26042715 -0.42800784 0.025302809 -0.03015598 -0.86695725 0.2734009 -0.63260865 0.6556162 0.06225938 0.19399099 -0.34110585 -0.033407442 0.012226212 0.30073422 0.40756065 -0.54022455 0.013643878 0.3538178
284 -0.096820824 0.0964527 -0.031135196 0.15134346 -0.29979116 -0.38596565 0.12782304 0.25897405 0.09488734 -0.07187791 0.087935895 -0.0046549714 0.056429744 0.24279334 -0.040213093 0.01337078 0.009201117 0.05971274 0.15954868 0.09545522 -0.055911455 -0.12723884 0.07379548 -0.037942365 0.12371631 -0.17888604 -0.065361224 -0.07316075 0.04136083 -0.18549071 -0.030697642 -0.074467026 0.11241532 0.058119994 -0.19722573 -0.052689068 -0.083195336 0.23693128 0.036583006 0.2975562 -0.0073944423 -0.42207196 0.15685822 -0.30715698 0.2243182 6.344189e-05 -0.20131837 0.1712381 -0.036544636 -0.34467492 0.21736471 -0.122710004 0.22994839 0.26885387 -0.5102592 0.17792757 -0.23929363 0.018630669 0.26888853 -0.21050799 0.37878016 -0.35235298 -0.07348875 -0.14465538 0.010008053 -0.20250963 -0.17179875 0.009511685 0.11520343 -0.12373442 -0.36123657 0.11272458 -0.34513685 -0.46378866 0.1276233 -0.27479467 -0.33300224 0.0373467 0.10815942 -0.004886907 0.12259476 -0.26707095 0.14088103 -0.19671 0.052638136 -0.09178832 -0.14585538 -0.2978312 0.17763063 -0.029515294 -0.32419372 -0.14649485 0.45486587 0.07884974 -0.17536435 -0.07931192 -0.011323775 -0.06593018 -0.046058062 0.2322151 -0.31696612 0.3536132 0.12286501 0.084351115 0.034331687 -0.026906818 -0.04990271 -0.14696826 0.04935676 -0.06787972 0.18488972 0.09726531 0.20716861 -0.21206929 -0.19082224 0.17380312 -0.05646925 -0.0066013765 -0.3312138 -0.036516182 -0.16664627 0.020334126 0.014669153 0.40890464 0.10425958 0.16046828 -0.0421715 0.3523499
182 -0.30847034 0.12074571 -0.058634236 -0.037201148 -0.09533407 -0.26433566 0.0025502094 0.1121049 0.058959693 0.08377122 0.16803315 0.033722024 0.18598054 0.19462276 -0.06663667 -0.21564002 -0.14117052 0.08251976 0.093629636 0.10124045 0.2518818 -0.13407633 -0.031548515 0.41773462 0.105108075 0.09833789 0.046195447 0.06086453 0.26832768 -0.29760054 0.10740814 0.0025358144 -0.042988457 -0.19153722 -0.06837033 0.07259557 -0.07402709 0.23230043 0.2085426 0.34528923 0.37573713 -0.21324362 0.14885888 0.14003743 0.0899708 0.16856647 0.20995745 0.20202784 0.07585145 -0.17419259 0.04889209 0.24062179 -0.07714361 0.45118475 -0.26178956 0.15227298 -0.25848573 -0.21618243 0.099610984 -0.0002886168 0.22128324 -0.1530644 0.14254986 -0.14276887 0.31394336 0.12224524 0.046380814 -0.06799482 -0.18046917 -0.21799357 0.12241421 0.18112901 -0.2105395 -0.6047689 -0.07679506 -0.30245435 -0.23292498 0.08009671 -0.06573675 -0.10362162 0.1185804 -0.36073712 0.2125195 -0.14920281 0.01225737 -0.28028825 -0.043391537 -0.26051915 0.1473278 -0.020376798 -0.14035483 -0.2176481 0.1515083 0.06587616 -0.07930239 0.060107335 -0.12525243 -0.18349485 0.15708108 0.6111594 -0.051960167 0.18377365 0.36364752 -0.015130934 0.01101114 0.20581892 0.25542817 -0.31032047 -0.09694653 0.011978132 -0.16750483 0.07677136 -0.009959099 -0.33521715 -0.0028537475 0.3350331 -0.15017168 -0.39634278 -0.3016602 0.02167534 -0.37762076 0.26625127 0.28500488 0.30617142 0.015381969 0.0971408 -0.22233447 0.21511099
361 -0.6792885 0.009150357 0.9010815 0.090970494 -0.09855193 -0.42563164 0.66313326 0.11522112 -0.17083456 0.25493693 -0.6325451 0.11831992 -0.48389423 -0.17462456 -0.35021836 0.38428515 0.33169934 0.42934984 -0.66837263 -0.15476243 -0.16864622 -0.17179278 -0.04661801 -0.087633274 0.027905056 -0.30921912 -0.5064843 0.23544648 0.8255388 -0.5752072 0.01976566 -0.018268438 0.27016065 -0.218362 -0.39588133 -0.049319483 -0.6146724 -0.38493806 0.37726834 -0.4121372 -0.004029148 -0.36079693 -0.073557004 0.2163639 0.40545508 -0.16540968 -0.33243778 -0.10586584 0.16191518 0.100303546 -0.0487929 0.41539142 0.13958207 -0.20512165 -0.12858394 -0.32678637 0.419287 -0.2884544 0.07959698 0.14220755 -0.059731867 -0.106235564 -0.49489877 0.1799955 0.26384833 0.56924695 -0.073004805 -0.20092931 0.5930873 -0.101253115 -0.8817018 0.39116865 -0.078674495 -0.047015987 0.040291212 0.06620894 -0.012966267 0.5186025 -0.24620374 0.08884281 0.11268458 -0.66948324 0.56553376 0.2123639 -0.12685893 -0.11415471 0.38442856 0.026185684 0.40583816 -0.5518 -0.19521612 0.3258026 0.16050449 0.006583766 -0.024820633 -0.14231539 -0.30438983 0.27218497 0.14079654 0.55866635 0.25586295 0.19450793 0.10329188 -0.25185022 -0.22918944 -0.12580279 -0.5794454 -0.6508527 0.043695368 -0.25198928 -0.34177792 -0.34468237 -0.037335668 0.22646636 0.111707024 -0.035783615 -0.09146305 -0.17541513 0.09981203 -0.44572628 0.13152282 -0.2852805 0.3294533 0.015887294 -0.08342449 -0.09236521 -0.18953294 0.03872878
446 -0.105996 0.25409666 0.09413024 -0.027715132 0.042911902 0.034163233 0.28973153 -0.29193452 -0.3153578 0.24647145 -0.4589835 0.18044226 0.028785774 -0.38191965 0.18975802 0.2809715 0.20543738 0.2525853 0.050444465 0.12098017 -0.086075686 -0.02218297 0.2106527 0.05343367 0.21934147 0.08043606 0.019178784 0.08456615 0.2600332 -0.07857002 -0.27674007 -0.30108416 -0.1537934 -0.28536797 -0.3171043 -0.29715255 -0.13304085 -0.16690685 -0.09668219 0.18167257 -0.007511012 -0.19520248 -0.059634868 0.018081041 -0.16758262 -0.15951839 -0.04633241 -0.040663246 0.0762858 0.047717493 -0.03648164 -0.1371971 -0.1979583 -0.1520085 -0.29166996 -0.38153464 0.15590647 -0.20184326 0.1904394 -0.1685042 -0.28576687 0.2439274 -0.012145859 -0.089172356 0.1108682 0.09113163 0.132418 0.079385094 0.24975803 0.07170352 0.29697636 -0.12369276 -0.41398868 0.004702295 -0.29523236 -0.18136416 -0.34831882 0.035259344 -0.053992275 0.21673006 0.043166824 -0.01655541 0.01779878 -0.01883656 -0.049173992 0.24875753 0.06736393 -0.29091063 0.3514941 -0.29368764 -0.36206475 -0.13965696 -0.3366674 0.026724955 0.2240173 -0.22457269 -0.122994274 0.21399625 -0.02944565 0.051461287 -0.313874 -0.007129465 0.31254104 -0.05869308 -0.16000928 -0.10768432 -0.039916527 0.11027926 -0.090988964 -0.023192465 -0.0970135 0.23763743 -0.10945871 0.13406114 -0.048108894 0.19773704 -0.25173324 -0.062515646 -0.047304526 -0.46826822 -0.24110124 -0.34383106 -0.339787 -0.23560926 0.100894816 -0.22827874 0.012147431 0.269619
170 -0.78761417 0.03683776 0.9945513 0.08970817 -0.001771998 -0.59186435 0.7099695 0.073616035 -0.103128225 0.34618372 -0.5245611 0.018688451 -0.45789495 -0.16338025 -0.34550306 0.37852117 0.30556375 0.4863205 -0.54095423 -0.10737661 -0.14037386 -0.2600788 -0.11867219 -0.12879255 -0.10581069 -0.2734911 -0.35144505 0.2549014 0.83879393 -0.5369237 -0.034569386 -0.059721854 0.31089133 -0.22702877 -0.34726426 -0.13942602 -0.6236004 -0.2585098 0.29119426 -0.45427948 0.024537783 -0.5028051 -0.09597144 0.23313391 0.40962952 -0.22106914 -0.39113495 -0.13540559 0.27309904 -0.0357482 -0.09354489 0.3443977 0.17226203 -0.2944554 -0.17720608 -0.27830094 0.3555785 -0.44401976 0.028483987 0.1955226 -0.20875613 -0.04480971 -0.48362643 0.17690854 0.25567627 0.4799403 -0.09703585 -0.14842583 0.64045525 -0.12695223 -0.9270331 0.31959182 -0.034726437 0.0111740455 -0.05861231 0.104213186 0.043792825 0.57884586 -0.13356714 0.04986626 0.035579626 -0.80147684 0.6214675 0.07382197 -0.1448458 -0.21912281 0.43078375 -0.016980974 0.3846337 -0.54316765 -0.16455363 0.21234728 0.24235666 0.007071517 0.044086862 -0.15180914 -0.25346375 0.13461074 0.08409985 0.5139509 0.27284482 0.22176886 0.1868192 -0.18494709 -0.27425465 -0.09782078 -0.50867265 -0.6914703 0.046272032 -0.2900512 -0.2738788 -0.27025035 -0.10189293 0.19137287 0.074153095 0.030380975 -0.15019646 -0.17618531 0.048154313 -0.36755708 0.112724185 -0.41251162 0.25502002 0.022890387 -0.11126854 -0.02455132 -0.30128485 -0.011328615
291 0.06262203 0.1349024 -0.1534686 0.35987493 -0.30897754 -0.23335902 -0.0004800861 0.21812554 0.014905574 -0.16665933 -0.08211824 -0.10462956 0.060669646 -0.009361213 -0.3765029 0.35194805 -0.16582108 0.052642748 0.28171843 0.03558114 -0.07354361 -0.27757698 0.18396392 0.0097057745 0.18339577 0.014871881 -0.21991779 -0.07985535 0.036450204 -0.13772804 -0.0013036119 -0.0074532875 0.024884047 -0.08320162 -0.1074252 -0.18027873 -0.10002617 0.17955224 0.34735778 0.27542016 0.16851415 -0.34342954 0.27681053 -0.5175499 0.08095834 0.13829744 -0.22958924 0.08834105 -0.11424365 -0.43500972 0.08989822 0.024917137 0.16604745 0.44113788 -0.36127257 0.14693892 0.021785127 0.028122174 0.25946322 -0.12516858 0.24219911 -0.48431087 0.19782975 -0.12826687 0.057028286 -0.12191495 -0.018738957 -0.05161902 0.08902309 -0.0060107308 -0.3109689 -0.04734914 -0.01621401 -0.096526094 0.019935042 -0.13702437 -0.038041893 0.043940406 0.022573665 0.06687541 0.10246269 -0.32930773 0.13015366 -0.3385224 0.032611188 -0.06654366 0.25907987 -0.17853197 0.011733109 -0.2774216 -0.3085845 -0.17272411 0.1533781 0.20668852 -0.1293241 -0.12354188 -0.15694422 -0.32555005 -0.04459038 0.21768723 0.2207312 -0.1819033 0.29008818 -0.0320191 0.09920554 -0.032254267 -0.033848 0.26430172 0.34608993 0.14274669 0.009526387 -0.055828568 0.029165708 -0.31125644 -0.22588772 0.14681089 -0.08967628 0.1993945 -0.41967034 -0.168006 -0.17439683 -0.28401783 0.09516319 0.2568418 0.117430516 0.26599422 -0.17874195 0.3728147
