531 128
64 0.17146502 -0.11235392 0.051006544 0.31287226 0.33356476 0.24099933 -0.39912403 -0.7803887 0.20545477 0.26622227 0.18051952 0.016082514 0.17008246 -0.08224231 -0.14625175 0.21964343 -0.23263124 0.04725954 -0.0048976033 -0.01445727 -0.08587292 0.13266002 -0.071427956 -0.08462779 0.06954004 0.6498551 -0.044335626 -0.19582848 0.20495279 0.47332767 -0.2776357 0.2489565 0.14935464 0.25686997 0.058967225 -0.46191987 0.56792027 0.15174821 0.12242649 0.33187416 0.25621918 0.17295976 -0.3944133 -0.3075976 -0.094957456 -0.51351976 0.2932914 -0.11358249 0.045820046 0.4442024 -0.20372629 0.468511 0.27158514 0.30290222 0.30186346 -0.24999848 -0.20404607 0.3730614 -0.370941 -0.14990805 0.0152661335 -0.14793679 0.54935 -0.29356235 0.07175311 -0.108764514 0.13563186 0.30852768 -0.24968235 0.4231963 -0.31284124 -0.13117409 0.46222007 -0.021440621 0.03477565 -0.20955616 0.152291 0.4220882 0.1593241 0.11697655 0.17139143 -0.42156917 0.22770077 0.2932196 -0.08661846 0.056706686 0.31407416 -0.20034775 -0.2071889 0.037932955 0.34189796 -0.07054461 -0.22460423 0.61723965 0.14613798 0.474006 -0.24768336 0.34386614 -0.33563307 -0.23546201 -0.12611903 0.24661775 0.53848726 -0.1604478 -0.45692903 0.49364975 0.025458544 0.0982985 -0.4600846 -0.39068037 0.2073216 -0.0034964653 0.3080257 0.21072459 0.08247991 -0.17524795 -0.27302933 -0.046910007 -0.064490266 0.19069344 -0.17495109 -0.22389278 0.31731033 -0.1785895 -0.06919175 0.27510506 -0.17516209 0.21696226
157 0.13818575 -0.112219244 0.18492472 0.22510253 0.2722059 0.16395016 -0.40692428 -0.6919021 0.19830206 0.15555014 0.09304565 0.03173428 0.2706248 0.01840294 -0.087868944 0.16204973 -0.20342687 0.047181264 0.024622217 -0.05908892 -0.06062462 0.12800802 -0.00651209 -0.063045904 0.1098984 0.62758094 -0.08739982 -0.12392158 0.19550917 0.5110085 -0.36535493 0.13145831 0.12673649 0.31828764 0.010992654 -0.34103635 0.5611976 0.124615364 0.15197448 0.2496017 0.2023267 0.2282194 -0.44409123 -0.20313628 -0.10399333 -0.36568007 0.2665248 -0.14594907 0.12156188 0.47065523 -0.09872381 0.5806632 0.23570138 0.28742856 0.33194765 -0.31622893 -0.25840196 0.4346261 -0.4337402 -0.23645632 0.10523822 -0.13464043 0.61571115 -0.27569848 0.04945852 -0.06980928 0.2193612 0.26666072 -0.15021703 0.4814064 -0.29061303 -0.08429292 0.45278776 0.03288716 0.06508541 -0.20455103 0.12289036 0.31545347 0.17116688 0.19839862 0.14246707 -0.45025688 0.14269727 0.3095307 -0.08798527 0.06455897 0.30303168 -0.28291088 -0.22563644 0.07377024 0.2816693 -0.1336381 -0.20376873 0.5775611 0.18306008 0.4996929 -0.049721062 0.3816184 -0.2793501 -0.12504534 -0.052978832 0.2289516 0.573563 -0.20350707 -0.49955124 0.48694968 0.126387 0.101125315 -0.3640136 -0.47518343 0.30294546 -0.10682197 0.3816387 0.1828336 0.10286727 -0.16476113 -0.24759154 -0.10472599 0.03786087 0.32218882 -0.119423285 -0.2671356 0.27807543 -0.19954897 0.0757485 0.33453026 -0.09648438 0.19152513
408 0.3123842 -0.10627606 0.14926274 0.2868075 0.32267678 0.16523153 -0.41829652 -0.6494638 0.08107096 0.2832502 0.1126341 -0.033432353 0.15481177 -0.039533146 -0.100556105 0.22681575 -0.22002055 -0.019486124 0.028849937 -0.12618548 -0.13066284 0.20837587 0.021366145 -0.014610955 0.044822734 0.65513915 -0.004990479 -0.12235046 0.1969768 0.44047078 -0.3057533 0.18410191 0.25818363 0.37523645 0.059879664 -0.4544031 0.42544022 0.1688418 0.09723968 0.294758 0.26144361 0.14604202 -0.3955237 -0.2849539 -0.1200314 -0.48422715 0.34453338 -0.0530997 0.055441055 0.4449705 -0.13815457 0.5058199 0.21902144 0.28268462 0.36548373 -0.2652706 -0.1545942 0.40638033 -0.24950375 -0.10851134 -0.0034282687 -0.108314425 0.5567594 -0.38742176 -0.020525837 -0.16898243 0.10440591 0.22713867 -0.16048221 0.3999753 -0.29284042 -0.18500513 0.43248752 0.108451575 0.1064393 -0.24373761 0.078891434 0.37832457 0.23178995 0.038973324 0.026354559 -0.30115885 0.20404072 0.24220432 -0.11264429 0.11339018 0.37796155 -0.1661774 -0.087850235 0.13043919 0.2750876 -0.0027207746 -0.25437644 0.5418103 0.18064436 0.51993275 -0.1924474 0.4385704 -0.2425384 -0.14814918 -0.06418571 0.29151237 0.48832402 -0.25391078 -0.56371385 0.5998965 0.07058146 0.099006616 -0.4463599 -0.39683232 0.32090515 -0.047547445 0.2731327 0.13237207 -0.022629034 -0.18318678 -0.23197258 -0.09589165 0.020378865 0.21284889 -0.1842943 -0.17406599 0.25649545 -0.09093948 -0.048783597 0.24296932 -0.08420826 0.16992989
12 -0.16606468 0.45180085 -0.18120112 -0.5474919 0.3583149 0.44305313 0.20986651 -0.33988225 0.100796744 -0.29428023 -0.091277935 -0.20982282 0.14403933 -0.37899977 -0.21240483 0.55062485 0.50318885 -0.48742318 0.74979836 -0.43642443 -0.5368991 0.34454566 0.027773965 0.085663885 -0.2502215 0.25179657 0.7323099 -0.63698393 1.095323 0.0036066582 0.39042458 -0.01156122 0.091773055 0.3702498 -0.19470626 -0.07091574 0.1479348 -0.096622474 0.325532 0.536851 -0.11478893 0.2944984 -0.16022944 -0.30309337 0.14785473 0.3033369 0.18703121 0.003424345 0.03942931 -0.26310444 -0.20184907 -0.4040476 -0.2655106 -0.27003098 0.31154114 0.209483 0.05251664 -0.36096817 -0.424895 -0.9691768 0.50810486 -0.18727122 0.52437335 -0.38140392 -0.5288874 -0.0010342612 0.28515112 0.2647419 0.7264999 0.65669674 0.05940725 -0.02603473 -0.059575595 0.30774844 -0.50732917 0.11968265 -0.63294333 -0.17010565 0.033759072 -0.08467832 0.2483295 -0.25281224 -0.16245139 -0.056927253 -0.0556699 -0.17536175 0.2429271 -0.054237716 -0.42317763 0.2287888 0.53410655 -0.010065066 -0.30238312 0.43292168 0.46855447 -0.09982117 0.0881751 -0.099027716 -0.43373883 -0.5112965 -0.44399938 0.28048328 0.3888502 0.26075768 -0.2900785 0.49582854 0.3141074 -0.2607645 0.17318341 0.15550204 -0.14029199 -0.06414806 -0.09559812 -0.14744657 0.15284072 -0.53054506 -0.18609963 0.3392537 0.31535882 -0.38289437 -0.0094099995 -0.43860143 0.07049037 0.6328193 -0.29470667 0.26166224 -0.27820134 0.22167015
400 -0.14919338 0.38516364 -0.10064378 -0.5290277 0.3552888 0.5039068 0.24176534 -0.25287592 0.079824984 -0.2990879 -0.03564268 -0.24590708 0.19560672 -0.44298422 -0.0856279 0.65723765 0.50399977 -0.45802045 0.6229652 -0.49763742 -0.50094503 0.34337506 0.02166671 0.06677239 -0.12692025 0.24155173 0.80247533 -0.55055714 1.112978 -0.029656755 0.42122698 -0.018931815 0.09697495 0.40249872 -0.14829011 -0.09240587 0.19068423 -0.20446676 0.3606252 0.48158783 -0.006207752 0.3245646 -0.23040807 -0.33605725 0.17142342 0.32577682 0.13319986 -0.03106347 -0.03600808 -0.18352303 -0.21107353 -0.43715248 -0.23044194 -0.31602958 0.35487294 0.21792407 -0.06368666 -0.3888875 -0.5299231 -0.8676357 0.5110664 -0.050295033 0.479692 -0.34041643 -0.4495569 -0.015224038 0.33656114 0.24431825 0.6365898 0.6808192 -0.004475412 -0.026690025 -0.17109817 0.3975699 -0.39975756 0.19996092 -0.6863353 -0.16432518 0.091675565 -0.0553219 0.15308361 -0.2720528 -0.2311687 -0.006971252 0.03699951 -0.0674386 0.31817943 -0.10987559 -0.4452267 0.1436688 0.48698798 -0.041383356 -0.3341246 0.47607675 0.43644583 -0.12736155 0.085372895 -0.11812062 -0.47385302 -0.4600185 -0.4760761 0.16754685 0.28552637 0.23714124 -0.30435944 0.5053109 0.31891656 -0.28490874 0.14096278 0.26360586 -0.18657029 -0.0150311915 -0.058051832 -0.1128928 0.074222095 -0.53971136 -0.20768557 0.23476553 0.25159425 -0.46501505 0.08011784 -0.42296374 0.15000753 0.57615465 -0.28976527 0.26271674 -0.2865882 0.13675994
99 -0.14357962 0.35807782 -0.13223004 -0.5140617 0.28871498 0.5080562 0.21127735 -0.26261 0.06714817 -0.24994865 -0.037427396 -0.19186874 0.15329404 -0.49677402 -0.17601071 0.53598315 0.52557 -0.39757153 0.7433135 -0.5196125 -0.516282 0.30285448 0.046924956 0.06764249 -0.13206923 0.21347806 0.7015259 -0.51015866 1.0246565 0.115478426 0.30974656 -0.07106281 0.07511032 0.4406191 -0.17651741 -0.11026108 0.15499364 -0.0765266 0.26690224 0.47854647 0.07734524 0.2784222 -0.24948314 -0.36173987 0.2217424 0.34294644 0.23233037 -0.0054453327 -0.08510934 -0.28434804 -0.25251552 -0.39840528 -0.2223913 -0.3195993 0.31199932 0.124428116 0.029651728 -0.3900688 -0.51598305 -0.9452829 0.3813102 -0.062785015 0.5329855 -0.3402354 -0.46459347 -0.042681742 0.22607367 0.29913592 0.7280336 0.6555223 -0.024751624 -0.1571583 -0.10514826 0.44751987 -0.3863625 0.26479542 -0.64544 -0.19809352 -0.009048573 -0.13159356 0.1796347 -0.2276067 -0.2578027 -0.09091033 0.010770017 -0.12592226 0.3552954 -0.08047397 -0.39540988 0.18854237 0.54095083 0.090366594 -0.25577536 0.47920883 0.43567336 -0.232194 0.05355674 -0.11707084 -0.53079706 -0.38116875 -0.49147275 0.1585047 0.2803882 0.2509651 -0.39541522 0.52744085 0.256081 -0.27207166 0.14299975 0.2053363 -0.051821243 0.023245716 -0.054520994 -0.13045797 0.18526164 -0.6190176 -0.3070074 0.34208542 0.2590962 -0.44362321 0.021829687 -0.44528395 0.11850331 0.5743148 -0.39802283 0.34857404 -0.2297594 0.11844919
249 0.12398462 0.15582807 0.12936795 0.053106844 -0.04324906 0.09224059 -0.07906613 0.09391831 0.08954987 -0.113371246 0.009935489 -0.16629368 0.1378687 -0.13918068 0.14718309 0.40109563 0.0053785644 -0.114242025 -0.006867722 0.34505016 -0.013366438 -0.017562423 0.037305895 -0.108680785 0.06709673 0.093978986 -0.18167737 -0.29177523 -0.17880775 0.0666696 0.17111292 0.007765826 -0.06337199 -0.08033168 0.07822598 0.043741155 -0.0846566 -0.13691345 0.23930798 -0.380824 0.19729672 0.031626426 -0.11086869 0.027641999 0.030207342 -0.08623346 0.21795338 -0.097228505 0.05482885 0.020928524 0.07372186 -0.17609185 -0.19210127 0.29048452 0.31893983 0.44273195 0.12645581 -0.5274075 0.014282954 -0.47919998 0.2506024 0.33847675 -0.0888081 -0.45433486 0.34826544 -0.117934726 0.014753354 0.28325367 -0.09854953 0.123949796 0.13280866 0.00417913 0.21240836 -0.23074241 -0.20518169 0.15021718 -0.110350244 -0.19410868 0.09424555 -0.4629777 0.27215138 -0.081935465 -0.047913834 -0.04197595 -0.27460757 0.25163546 0.16935061 -0.21529242 0.3466305 -0.06208933 0.37915406 -0.13115208 -0.32026756 0.32494047 -0.48773137 -0.24942988 0.05474388 -0.039136894 -0.058651567 -0.42999423 0.07133656 0.007399978 0.020606488 0.039092164 -0.16840668 0.1877243 0.013976661 0.18285598 -0.22199109 0.05265035 0.13160521 0.09486013 -0.036297843 -0.04426241 0.6266371 0.3584086 0.10628848 0.0783425 0.37429208 0.03187066 -0.065410204 0.04365358 0.0019124001 0.11368332 -0.05907822 0.13164571 0.41753316 -0.33603573
180 -0.2199605 0.024432033 0.15823591 -0.62833554 -0.34447703 0.7381684 0.5357209 -0.025553495 0.41210458 -0.8146066 0.1811991 -0.15796958 -0.23929378 0.18985887 0.7231854 1.0225332 -0.43902108 0.12251342 0.020818133 0.11412531 -0.09731376 0.16989627 0.3794914 -0.2883103 0.81442946 0.11132067 0.25597498 -0.23541634 0.43458813 0.15019292 -0.22573131 -0.35023132 0.63459295 -0.36522186 0.18031009 -0.17324564 0.08986028 0.37555152 0.10049848 -0.20414713 -0.135176 0.02539187 -0.15717039 -0.45185554 -0.51753736 -0.2882124 0.22792317 -0.14691931 0.42671406 -0.09113668 -0.3115673 0.36289352 -0.77002245 0.19148085 0.6446091 -0.6495805 -0.14240594 -0.12408654 -0.14130616 -0.25249755 0.61812747 -0.2975264 0.566171 -0.062240914 0.354638 0.33801785 0.12927054 0.34126925 0.2682725 -0.40723413 -0.1679072 -0.28947127 0.3299463 0.08056468 0.42843413 -0.13977778 -0.04736917 -0.021224339 -0.16617534 -0.4261625 -0.7105417 -0.59967476 0.06717797 0.13605264 0.27121124 0.09504215 -0.30484098 0.26062226 -0.07335632 -0.44209415 0.6582929 -0.40502372 0.44804874 -0.22179033 -0.3528693 0.20770691 -0.2387055 -0.00769666 -0.1850078 -0.40923914 -0.6337878 0.24251425 0.76282865 -0.3703324 0.12771457 0.24755445 0.05234851 -0.044832427 -0.37605178 0.18211387 0.5740315 0.19176582 -0.22089545 -0.41706616 -0.6013737 -0.38072568 -0.09298242 0.022619287 0.39338103 0.5388075 -0.0016178078 -0.042689897 0.014242215 0.55157137 -0.17603324 0.25396526 0.42133147 0.18126495
441 -0.072986685 0.42351803 -0.060205452 -0.483093 0.21332641 0.44174796 0.28205383 -0.31613377 0.05631305 -0.3955892 -0.038581066 -0.21733098 0.1456333 -0.40075728 -0.19439638 0.55343765 0.47760475 -0.4400145 0.7042489 -0.5264125 -0.5673411 0.27920073 -0.06550023 -0.019696957 -0.23595507 0.2585029 0.6723261 -0.5328279 0.9869882 0.04320085 0.49612617 0.07715227 0.08466539 0.39989668 -0.10132173 -0.15248585 0.13051876 -0.12731667 0.28227744 0.47968325 -0.0052319854 0.26375878 -0.16397867 -0.283518 0.088757515 0.29073882 0.11680361 -0.08961124 -0.060528908 -0.24695098 -0.3000474 -0.37477893 -0.25738317 -0.116523676 0.40305686 0.0996609 -0.0074077807 -0.38191685 -0.4567704 -0.85194236 0.4284504 -0.081055656 0.5646024 -0.4608386 -0.49869466 -0.007161516 0.36645612 0.27206737 0.6552483 0.61009806 0.10162137 -0.039975673 -0.092017956 0.48434672 -0.44666594 0.19866692 -0.5996652 -0.21033214 0.024906754 -0.061337657 0.21470185 -0.29654536 -0.25564846 -0.07494321 -0.00016259107 -0.106755905 0.35086617 -0.052307934 -0.4031822 0.21718523 0.49400675 -0.0627327 -0.28348827 0.39410567 0.36550865 -0.16131575 0.01687182 -0.004917565 -0.44215652 -0.42548513 -0.49917087 0.21529132 0.3209275 0.29105842 -0.4388142 0.38938725 0.3090513 -0.32891083 0.03622789 0.11940868 -0.11144428 0.057422984 -0.083571576 -0.111326754 0.15093099 -0.52423596 -0.23663618 0.30696058 0.21695238 -0.46111324 0.01830828 -0.38202778 0.14957838 0.5903398 -0.21195756 0.2393134 -0.3183788 0.16163434
185 -0.31690887 0.27427897 0.060166646 0.16134666 0.35832366 -0.20070751 -0.3876233 -0.5652223 0.18813924 0.04236531 0.32872942 -0.44423255 -0.08075426 0.09378603 -0.20505215 0.02560715 0.003954827 -0.15506361 0.26624757 0.04120896 -0.33445072 0.06536615 0.08157684 0.3690783 0.02471541 0.41254652 0.63454735 -0.26500148 0.62741846 0.5247173 -0.31735668 0.19967511 -0.14163002 -0.088756174 -0.49174762 -0.59711534 0.6055947 0.11240821 0.56992626 -0.20975219 0.024804033 0.26934445 0.010017118 -0.3713963 0.063940436 -0.3503623 0.08287264 -0.22152705 0.1980434 0.08835981 0.19567224 -0.050387677 -0.2525358 -0.15453416 0.037813198 -0.41800743 -0.13334258 0.0777628 -0.42453435 -0.06282284 0.12179638 -0.26929423 -0.53706425 -0.19737007 -0.11014155 -0.21282883 0.28762653 0.3758552 -0.121266074 -0.00773427 -0.24191299 -0.15996519 -0.04860429 -0.08142836 -0.14932814 0.31130916 -0.05241547 0.24063678 0.0012482379 -0.17225806 -0.015614292 -0.10130087 0.43709496 0.5979123 -0.35225222 -0.11952053 0.45599285 -0.28512424 -0.4621988 0.088200025 0.653575 -0.5472131 -0.6610265 0.7169133 0.2151526 -0.07811854 -0.2643499 0.81497777 -0.2773745 -0.17771703 0.23350634 -0.071283415 0.043885868 0.13413908 -0.31392428 0.76133424 -0.3211992 -0.3046364 -0.40298846 0.12490268 0.09758444 -0.11120805 -0.052493777 0.085838325 -0.3413955 -0.2744791 -0.063282214 -0.24546963 0.14257182 0.19666715 -0.0653678 -0.18812014 -0.07892238 0.055623744 -0.099983834 0.39188993 0.097019814 0.20091292
134 0.11050199 0.17913058 0.06829066 0.030916167 -0.022905678 0.10923074 -0.026901131 0.17480749 0.0029310503 -0.16302042 0.09162211 -0.009193638 0.076581605 -0.052551806 0.07860276 0.34720796 -0.06252166 -0.21649367 -0.097744636 0.3706782 0.04355278 -0.0897818 -0.06618493 -0.014933875 0.12248255 0.12313316 -0.22916667 -0.21120758 -0.13162318 0.017392777 0.09282057 0.015113483 -0.058252186 -0.04384574 0.120271206 0.04868276 0.004172375 0.06626979 0.25429478 -0.3390586 0.24029088 0.07070845 0.0032879564 0.07307793 -0.008117234 -0.0154084675 0.18014626 -0.09384799 0.09459757 0.0896391 0.111301705 -0.07221539 -0.12986119 0.33297613 0.37552467 0.39705753 -0.032329082 -0.6033525 -0.044410292 -0.4651353 0.16158321 0.32340705 -0.0071966625 -0.3812235 0.33425948 -0.1436963 -0.027045095 0.32931024 -0.09748934 0.16948676 0.024124712 0.046862647 0.11974707 -0.22232401 -0.23880221 0.12736648 -0.11727901 -0.19986294 -0.05405954 -0.48129094 0.3545517 -0.16863759 -0.04247651 0.005459034 -0.18202151 0.17085044 0.042290986 -0.30019593 0.2711093 -0.10073643 0.3646621 -0.22684231 -0.40108243 0.40161973 -0.48251718 -0.3569353 0.13288097 -0.03326558 0.018677048 -0.42445835 0.08133376 0.10469596 0.017621554 -0.029345466 -0.13139068 0.27800223 -0.04100151 0.08860729 -0.20215805 -0.020957274 0.18033436 0.16023003 -0.08640867 -0.022803508 0.5965111 0.36998197 0.07728455 0.14143069 0.4996047 0.034831583 0.057805542 0.031182732 -0.11389672 0.09199272 -0.094098315 0.089946695 0.44330648 -0.30216768
482 0.25829652 0.15928727 0.12409076 0.08020118 -0.13073076 0.11626537 -0.107417434 0.0833017 0.061423793 -0.12094953 -0.06655571 -0.09721689 0.15254714 -0.22288603 0.20175497 0.41892394 0.05439257 -0.1474182 -0.053207844 0.35801914 0.037455413 -0.05215325 -0.0824382 -0.04449931 0.1608883 0.07387614 -0.0652043 -0.19058679 -0.16677995 0.08437593 0.18894233 -0.0025659949 0.024293039 -0.120916806 0.11796131 0.032374013 -0.051242627 -0.010018023 0.29165515 -0.22290124 0.21048 0.04642926 -0.104661316 0.0065501602 0.06210933 0.039188266 0.19205652 -0.0020189546 0.028313203 0.043427512 0.14262678 -0.14991955 -0.2450403 0.48161143 0.3136533 0.40756097 0.13299425 -0.4372314 -0.026424972 -0.4273778 0.23402487 0.2852195 -0.07742216 -0.37224442 0.28659824 -0.12460876 -0.0720768 0.3158542 -0.07761014 0.1426278 -0.00067273335 0.00083318667 0.20600635 -0.11556161 -0.20990136 0.057535578 -0.06820892 -0.29121423 0.13796945 -0.5090545 0.3531967 -0.113774806 -0.03304937 0.056223646 -0.25032514 0.21718301 0.12893482 -0.25903726 0.2922659 -0.041479193 0.28779757 -0.15048513 -0.35831824 0.299104 -0.33492056 -0.28391138 0.17085643 0.016288197 -0.11790263 -0.41181815 0.09864117 0.07270578 -0.013093357 0.025165014 -0.11794566 0.22122088 0.05068216 0.11220444 -0.26206997 0.15873027 0.16895427 0.10908288 0.0040784534 -0.032471523 0.5099349 0.41679993 0.14517064 0.11747088 0.3480518 0.09831859 -0.07544862 0.17918095 -0.123770356 0.019134093 -0.06325994 0.17605571 0.46437055 -0.39847168
205 -0.3954717 0.22257334 -0.0064953356 0.15969665 0.4064531 -0.14081968 -0.5115987 -0.61221474 0.11254835 0.052157834 0.36164764 -0.3445991 -0.005626133 -0.06943472 -0.1445949 -0.051849082 0.0022452734 -0.18149163 0.17708187 0.027803319 -0.361315 0.09495747 0.19143814 0.363362 -0.0767326 0.37038103 0.5569553 -0.38928106 0.5117713 0.4605854 -0.2971112 0.041115277 -0.14934914 -0.16981103 -0.3815618 -0.48969948 0.49309677 0.11068656 0.73988336 -0.261544 -0.093769886 0.3553414 0.0791611 -0.3623343 0.022542939 -0.30420375 0.031004032 -0.13492902 0.11852226 0.07809089 0.1380653 -0.09547974 -0.15519308 -0.16407152 0.06567275 -0.37168828 -0.16504501 0.31338936 -0.324423 -0.15263614 0.28012258 -0.20612626 -0.42648932 -0.2121758 -0.24151537 -0.20234275 0.3107081 0.3943386 -0.12975658 0.008575714 -0.192978 -0.1815801 -0.07796929 0.0113819605 -0.08152407 0.26677763 0.048561897 0.22376353 0.004008142 -0.15406968 -0.019389287 -0.1713823 0.58342236 0.5633306 -0.33204633 -0.10826298 0.41034228 -0.19844648 -0.40433705 0.02121053 0.63700104 -0.48930663 -0.67577845 0.75394106 0.23937568 -0.01186852 -0.2491596 0.88852817 -0.33130303 -0.24497488 0.16653396 -0.2590269 0.023636786 0.14382492 -0.23714972 0.6367797 -0.310226 -0.15703492 -0.49780056 0.19717596 0.13483334 -0.12455537 0.06783632 0.2055132 -0.25173065 -0.22309086 -0.045059454 -0.16037022 0.19103561 0.29407823 -0.13622692 -0.26729053 -0.1128381 0.19399966 -0.12949163 0.30097893 0.10909319 0.24360979
322 0.13234726 0.036393687 0.088983834 0.087902784 0.069778614 0.173677 -0.061370496 0.18787053 0.0045497525 -0.1310744 0.051475603 -0.059038635 0.11601341 -0.11998952 0.072648525 0.32516998 0.028211974 -0.15682344 -0.12690052 0.3774225 -0.06280169 0.018385088 0.0113395415 -0.098022506 0.092009015 0.10409189 -0.18387981 -0.24849015 -0.13091125 -0.0063058697 0.2016445 -0.12907332 0.021305168 -0.0800388 0.116838634 0.10554963 0.042513996 -0.055160124 0.20062323 -0.36464006 0.21041518 0.049477648 -0.103488855 -0.01108675 -0.009909502 -0.012685098 0.2277627 0.038158573 0.0505298 0.06315322 0.115517095 -0.19646662 -0.11056286 0.31704462 0.30704635 0.31283012 0.13500954 -0.44086683 -0.017054312 -0.48290667 0.20357743 0.40231183 0.084870584 -0.3509959 0.37225413 -0.15476088 -0.00063927885 0.17056495 -0.06410598 0.054115254 0.05463757 0.015267791 0.18928671 -0.22470903 -0.24163505 0.14062187 -0.06049267 -0.18157327 0.0061588977 -0.46684018 0.3516682 -0.2249754 -0.060439773 0.073086224 -0.26365003 0.20252831 0.19097239 -0.18761964 0.31449807 -0.23605059 0.29789636 -0.24889481 -0.35847977 0.3285694 -0.37989566 -0.25727278 -0.053375665 -0.04108198 -0.101499856 -0.34484908 0.03165519 0.046568096 -0.07514392 0.10630585 -0.1106967 0.13298704 -0.048455477 0.19057302 -0.19860134 0.057726108 0.1894563 0.10083417 -0.022279568 -0.0033384028 0.5634544 0.33799887 0.09025772 0.09574795 0.5116447 0.12565906 0.014486306 -0.0037695658 -0.064073935 0.07027576 0.017957747 0.13596891 0.40545383 -0.2874242
259 0.1434253 0.09883779 0.11413762 0.10228229 0.123085275 0.10913725 -0.113887966 0.09657525 0.0500811 -0.18158653 0.06211067 -0.052986287 0.13983996 -0.15768224 0.22317055 0.23517255 0.028218647 -0.123132735 -0.0313812 0.3627016 0.02449782 0.011362418 0.04049358 0.001612507 0.10588755 0.040144756 -0.25177753 -0.23049124 -0.16321966 0.004552442 0.14032368 -0.09255154 0.06430371 -0.10403788 0.10721333 0.11404388 -0.06490533 -0.05791097 0.24546182 -0.36984494 0.20969144 0.056211438 -0.029870404 -0.016184423 -0.061343156 -0.044793703 0.21079162 0.06243086 -0.033572793 -0.0003249737 0.15928315 -0.08471424 -0.15623242 0.3366176 0.27845028 0.33711645 0.16818276 -0.5091189 0.06693033 -0.48322058 0.21924222 0.38092896 0.012209097 -0.34350753 0.28895292 -0.087246954 -0.055993393 0.25597274 -0.116794445 0.15086837 0.08991677 0.06965558 0.16804118 -0.23210602 -0.21933407 0.0819721 -0.14496808 -0.20205885 0.091091916 -0.52771974 0.33575553 -0.111244924 -0.069139965 -0.02133857 -0.24487378 0.27224666 0.11756813 -0.05150983 0.23163156 -0.069212995 0.40245584 -0.1779871 -0.37192577 0.3774398 -0.38832754 -0.27037337 0.038889904 0.012427327 -0.08881592 -0.30932269 0.034737017 0.017447477 0.052529205 0.07983521 -0.1081657 0.10773571 0.07225238 0.1517405 -0.22221076 -0.016326701 0.24595308 0.17238009 0.023272056 0.05231441 0.65580153 0.31362283 0.012311276 0.069354765 0.52722186 0.15291353 0.045540866 -0.032454304 -0.17805009 0.073322825 -0.014678999 0.057626758 0.4327072 -0.29409695
309 0.17216472 0.16931117 0.029239269 0.05869485 0.013431552 0.1900663 -0.09393354 0.048356473 0.10666961 0.0016419927 0.09969686 -0.054186013 0.055054028 -0.07972384 0.12680696 0.35491687 -0.017984105 -0.15437013 -0.03802277 0.39097393 0.0065278974 -0.069462836 0.04005142 -0.051431835 0.16569597 0.10223927 -0.18860702 -0.2379865 -0.17207739 0.0733187 0.23608242 0.009874756 -0.052479368 -0.12097829 0.090938054 0.09317264 -0.09518835 -0.0055214493 0.25627267 -0.2954507 0.21116732 0.08272937 -0.02490217 0.025939409 -0.034247965 -0.07386631 0.25802574 0.100532725 0.020971876 0.018596672 0.08876889 -0.12882537 -0.13155715 0.34234488 0.28548738 0.454362 0.103724286 -0.4158285 0.11915058 -0.4904331 0.20692764 0.41284806 0.02807145 -0.35270962 0.3508302 -0.15311606 0.003577213 0.18168023 -0.04052962 0.03219154 -0.051346716 0.036807977 0.24286991 -0.16321845 -0.28152797 0.15533637 -0.08975329 -0.20626284 -0.022101464 -0.5463583 0.27784696 -0.10774646 -0.016675113 0.026842825 -0.29467618 0.24518436 0.09127011 -0.27258188 0.33886886 -0.069441125 0.30618885 -0.28871185 -0.40324488 0.37326702 -0.43558693 -0.24475542 -0.021405108 0.06873291 -0.022795161 -0.39958453 0.005840448 0.0020835109 -0.05146023 0.098793544 -0.12932713 0.2306886 -0.00018646961 0.1724339 -0.27431628 0.08047546 0.25728014 0.110030346 -0.024370551 -0.05923495 0.5355752 0.3420269 0.12024468 0.14579701 0.42760783 0.068283826 -0.022631673 -0.0062170937 -0.12135218 0.114407055 0.0656857 0.16816327 0.42828125 -0.2996741
117 0.16026646 0.09601145 0.10751972 0.08819925 0.012941049 0.19235608 -0.0839246 0.041279394 0.018692067 -0.083692886 -0.013644335 -0.02959947 0.10094461 -0.18635586 0.14705445 0.31860748 -0.047828186 -0.14108184 -0.064795755 0.33642954 -0.04945302 -0.027950626 -0.09607282 -0.072952 0.14959492 0.07082436 -0.18311808 -0.25244007 -0.11207284 0.098919004 0.13012072 0.10849417 -0.061134767 -0.1049987 0.08977682 0.054200765 0.0067593222 -0.0050516035 0.17802665 -0.31055692 0.2082838 0.003947314 -0.0423684 -0.015584822 0.029523676 0.05419819 0.17273559 -0.11734662 0.05127046 0.111125536 0.083252706 -0.17458087 -0.05853901 0.34205642 0.2714741 0.42023164 0.15722923 -0.5046759 -0.05860675 -0.44142357 0.23573777 0.30611405 -0.039575893 -0.38283274 0.3746722 -0.14632565 -0.03550294 0.23236355 -0.07533793 0.104823366 0.11449671 0.0875382 0.18681692 -0.093794525 -0.32882953 0.1451105 -0.08726255 -0.19925499 0.078034475 -0.42231286 0.22231382 -0.039417762 -0.0758006 0.09364862 -0.21995857 0.13666223 0.1026269 -0.21038085 0.37026033 -0.061413884 0.30761367 -0.26907405 -0.27946824 0.33355603 -0.4387472 -0.2549963 0.06258157 0.022004092 -0.04758814 -0.35016447 0.09365373 0.054029487 -0.043743342 -0.005880296 -0.12476856 0.2838315 -0.067923516 0.14692281 -0.21093267 0.07185474 0.18176533 0.11577946 -0.07839247 -0.06802565 0.5102086 0.31694606 0.103461124 0.2178761 0.3265506 0.12289738 0.041906215 0.02532466 -0.10489171 0.12733456 -0.087164514 0.12644228 0.38033217 -0.32076553
410 0.23286758 0.15770887 0.08361611 0.045354232 0.023239475 0.07902483 -0.03269962 0.07326883 0.09366401 -0.16099314 -0.04026518 -0.06513344 0.09785631 -0.15379041 0.19816379 0.32248354 0.095087886 -0.20644897 -0.04344365 0.3888459 0.011767275 -0.06800696 -0.11469657 -0.086432576 0.12893985 0.06466317 -0.08397637 -0.23585173 -0.20120105 -0.0040571177 0.18551198 0.12409597 -0.07463712 -0.12808459 0.07069525 -0.0015144947 0.086228386 -0.048039526 0.22789986 -0.27438644 0.21033455 0.05399315 -0.028803566 0.11535273 -0.041172195 -0.03092277 0.23355721 -0.09316474 0.054428183 -0.0010370493 0.06825011 -0.15031368 -0.113482736 0.46200752 0.38088202 0.3558013 0.13627106 -0.4465146 0.020786947 -0.3999819 0.19099407 0.35257113 -0.028267842 -0.37650722 0.33893508 -0.16016805 -0.052795686 0.27627784 -0.043454163 0.03436882 0.0581965 -0.02674085 0.21711425 -0.13687772 -0.19313118 0.12850595 -0.036745135 -0.16218714 0.0706489 -0.3352918 0.4549384 -0.06172872 -0.026465127 -0.027255215 -0.21417072 0.19798872 0.121092215 -0.16674286 0.3712389 -0.12853426 0.36419135 -0.30869883 -0.33890453 0.334519 -0.40345857 -0.2938646 0.027998026 -0.038798764 -0.034970433 -0.26955226 0.036897592 -0.023692168 -0.0069255335 0.05059843 -0.16587791 0.17944288 0.011404927 0.21701989 -0.25788096 0.058371574 0.2216572 0.15752439 0.021210281 -0.05890943 0.6115126 0.3806048 0.100820966 0.22847387 0.40868062 0.08629492 0.030473405 0.006404162 -0.11839436 0.120666966 -0.019816985 0.18662311 0.44569725 -0.24235849
209 0.13839339 0.09498868 0.02938439 0.0046469998 0.002081651 0.06784093 -0.055040684 0.06700785 0.040492494 -0.23121955 0.029728988 -0.013874977 0.07411126 -0.083238505 0.21351008 0.38392517 0.03484684 -0.18848227 -0.08711347 0.3559826 0.13402383 -0.014377422 -0.017518241 -0.042214464 0.11625759 0.1472008 -0.29573643 -0.21175936 -0.17840774 0.097821556 0.17726879 0.064189695 -0.0522452 -0.048081357 0.041343797 0.102046296 0.070768185 0.038092837 0.23777755 -0.36572805 0.21108133 0.1474337 -0.035239905 0.10553227 -0.040205713 -0.072612956 0.21443766 0.0032834995 -0.032577008 0.04667407 0.14366889 -0.10730113 -0.16478924 0.2820187 0.36077163 0.4613436 0.073455475 -0.47884008 0.046301007 -0.5346438 0.20049024 0.47037327 -0.054329593 -0.49626538 0.29128468 -0.06909074 0.032793585 0.20795563 -0.08537399 0.014607449 0.11857494 -0.050710306 0.2518029 -0.12730224 -0.31571546 0.07832332 -0.108498834 -0.20474109 -0.0017088772 -0.4834124 0.29230002 -0.09106893 -0.029159399 0.03568839 -0.24021031 0.19117267 0.121948525 -0.22155924 0.31028524 -0.059799682 0.23742951 -0.24385868 -0.33104992 0.37354657 -0.4614033 -0.27754658 0.112330504 -0.040978774 -0.060778208 -0.41183946 0.10583166 0.047579773 0.062521674 0.05164648 -0.16274339 0.2062555 -0.041864857 0.052679896 -0.25438786 0.11443901 0.1907692 0.11742548 0.015674029 -0.079950385 0.5927197 0.32209498 0.015475405 0.11567408 0.5629196 0.13022976 0.05085163 0.008487994 -0.14838158 0.1136817 -0.019560276 0.0714405 0.41725817 -0.23073381
91 0.18472311 0.15899694 0.09179053 0.1433569 -0.025091466 0.10708116 -0.08044771 0.16353169 -0.010904317 -0.10248752 0.041980468 -0.11547412 0.15033782 -0.19085439 0.096087515 0.25267112 -0.010750374 -0.11734142 -0.013089271 0.33427095 -0.038781725 0.03228397 0.10527502 -0.09258119 0.13124761 0.06286984 -0.11972232 -0.29656234 -0.14200039 0.05732982 0.14298038 0.021953681 -0.061462525 0.026285233 0.13544817 0.04895662 -0.057516444 -0.09800138 0.30846757 -0.28507176 0.19086097 0.059115354 -0.02064823 0.11121128 0.013933929 -0.06782648 0.18531504 -0.0141278505 0.04887259 -0.002076431 0.0009356552 -0.13657466 -0.11139285 0.32932147 0.28982458 0.29281121 0.018921614 -0.5282901 0.034479205 -0.4017508 0.26892292 0.33472353 -0.0139562115 -0.41561237 0.37986228 -0.09233532 -0.024807332 0.27124032 -0.049876716 0.077882655 0.03481717 0.020808551 0.31681523 -0.21908751 -0.25514704 0.121703796 -0.13735141 -0.27919793 0.039252512 -0.45923367 0.35127842 -0.14308783 -0.033030927 0.058547582 -0.34705868 0.20263088 0.04340411 -0.14157373 0.26621896 -0.14708763 0.29270482 -0.24991778 -0.36313903 0.2965712 -0.40046006 -0.24442348 0.052744508 -0.0010229619 -0.0345767 -0.32246327 0.046402983 0.016403042 0.015382542 0.10264962 -0.111233145 0.27383217 -0.041711535 0.22824687 -0.26949763 -0.0070658117 0.31251302 0.19342773 -0.058074873 -0.033548024 0.5591738 0.4233321 0.1874488 0.095030494 0.38444307 0.082558334 0.0028381262 -0.14342418 -0.2087166 0.115775086 -0.07783971 0.14823315 0.48625028 -0.27584296
469 -0.34577262 -0.36061525 0.49742794 -0.47306263 0.15059029 0.10169197 -0.8251615 -0.35851696 -0.029788822 -0.6394405 -0.20916897 0.071784526 -0.46996874 -0.23400325 -0.13293576 0.16366106 -0.22872499 0.3166031 -0.23547952 0.16299798 0.111668445 0.50769496 0.17217004 -0.28452852 0.10530505 -0.027673963 0.4459489 -0.6395158 0.114236854 0.22273298 -0.172458 -0.11671529 -0.19197476 0.530718 0.3014093 -0.46297303 0.18283467 -0.16231094 0.26299685 -0.027547456 0.27173665 0.5673343 -0.5081733 -0.38679653 0.1210079 -0.27889255 -0.34643325 -0.08375022 0.28721443 -0.223657 -0.12231506 0.053115424 -0.187286 0.22810626 0.12283581 0.33272183 -0.12706396 -0.08422123 0.14530165 0.04738211 -0.095684916 0.11116878 0.29199365 -0.17284878 0.18707694 -0.26192316 -0.1762552 -0.55237675 0.1789743 0.17950106 -0.092092246 -0.007653687 0.11949187 0.0036145211 -0.11412938 0.2246886 -0.14977808 0.04559571 0.4072397 -0.17924264 0.28621647 -0.2855476 0.08855183 0.17581826 0.31786475 -0.009684497 -0.07540788 0.056353014 -0.17465119 0.6162894 -0.13388881 -0.063593455 0.015430402 0.50540805 -0.2914845 -0.08810586 0.21787512 -0.51944804 -0.26402113 -0.26257852 0.08859616 0.19745328 0.038395517 -0.18148468 0.31058997 -0.23666257 0.22615604 -0.18339962 -0.3880941 0.34557948 0.599868 -0.15853257 0.046346836 0.10064088 0.09267093 -0.21852297 -0.10008956 0.46207103 0.036161046 -0.33322126 -0.30050984 -0.005785614 -0.10294462 0.28514937 0.6928767 0.07132688 0.22228745 -0.24811438
392 0.24662164 0.20277424 0.030607522 0.114587195 0.08515852 0.22872648 -0.11093822 0.07259638 0.110911146 -0.10379455 0.0071776425 -0.10054305 0.12619406 -0.093267746 0.13973384 0.33276123 0.07859209 -0.17022148 -0.024782717 0.35726362 0.008058271 0.0740834 -0.0082612205 -0.062293723 0.13771516 0.067104444 -0.19634716 -0.24385308 -0.1923633 -0.053640697 0.13508733 -0.0034388048 0.00984874 -0.10566315 0.012471218 0.11280796 -0.0639953 -0.054645937 0.25987893 -0.32355165 0.2657253 0.073194444 0.0029298416 0.11850116 0.035391286 0.010451635 0.20857307 0.018817186 0.054874666 0.11066249 0.009697148 0.003724069 -0.24695446 0.37120223 0.38183904 0.31807336 0.008942347 -0.6212418 0.03971071 -0.4941426 0.21350576 0.30843893 0.0625116 -0.3731245 0.33272633 -0.1299865 -0.0003802318 0.18360834 -0.023609202 0.056102984 0.0062232516 0.015418003 0.22214712 -0.22693533 -0.26086956 0.16851425 -0.14221954 -0.15387471 0.04700583 -0.44048232 0.34430802 -0.1609903 -0.034794837 0.04093072 -0.311859 0.15794362 0.1700201 -0.30719557 0.37283078 -0.10263347 0.34348 -0.1886309 -0.43256754 0.25522402 -0.43971404 -0.25166044 0.045756977 0.024017122 -0.05424023 -0.34530866 0.039115395 0.058141638 -0.00412548 0.05238339 -0.12538141 0.18514177 -0.13523364 0.19965118 -0.25936434 0.07834559 0.23631226 0.20724127 -0.031005543 -0.10050359 0.6760617 0.41214472 0.05495951 0.10588869 0.41422492 0.014130466 0.042817242 -0.0057182405 -0.20482157 0.14252284 0.04866368 0.029240223 0.4942599 -0.36628434
175 0.1516559 0.13481557 -0.009228225 0.057224933 -0.04774702 0.080031745 -0.013286952 0.07427315 -0.013837611 -0.07926383 0.00024492992 -0.100383244 0.10329866 -0.16726932 0.087662034 0.33257717 -0.0028322865 -0.13753805 -0.08216734 0.43318224 0.011411299 -0.01150186 -0.085592866 0.041284375 0.10722423 0.13409331 -0.26904115 -0.26459637 -0.14266491 0.07017244 0.09566905 -0.008452782 0.022397764 -0.064932704 0.07830779 0.09812088 0.057722438 -0.008040527 0.31921294 -0.2796529 0.24331366 0.07339453 -0.054323748 0.046497773 -0.11450577 -0.0572128 0.14075431 0.026384944 0.063356176 0.022628928 0.15379028 -0.11819745 -0.22488125 0.29898515 0.37348557 0.4527669 0.06573776 -0.58495903 -0.015238654 -0.482793 0.27206075 0.32681304 -0.012065042 -0.4265571 0.36355868 -0.053022474 0.034749556 0.19679162 -0.11054706 0.020355308 0.076118566 0.017394245 0.07516762 -0.14528 -0.27909344 0.10745523 -0.055544518 -0.22972773 0.020200191 -0.4876782 0.34480116 -0.09248984 -0.040482722 0.02398746 -0.23470458 0.19518961 0.1292301 -0.23353808 0.26420718 -0.066876784 0.3340715 -0.12561129 -0.38018778 0.27355817 -0.3877073 -0.25816575 0.1263252 0.051695555 0.018631661 -0.339453 0.03995103 0.07422425 -0.07030628 0.04687505 -0.14740439 0.21823479 -0.03596479 0.22202806 -0.24849294 0.09080612 0.32869563 0.13397948 -0.014171258 -0.04992506 0.511235 0.27731997 0.12063936 0.139205 0.43445098 0.09015518 0.011515047 -0.011415535 -0.12962186 0.06196328 -0.07030055 0.10138671 0.42670518 -0.34741974
84 0.31103694 0.1508654 0.09425191 0.123425 -0.0052608494 0.07643839 -0.15234372 0.112479605 -0.038484257 -0.15183297 0.02612477 -0.11454576 0.105257094 -0.16858575 0.17920336 0.37228137 -0.014666253 -0.05645687 -0.020102678 0.36227563 -0.017678127 0.1282207 -0.03660709 -0.0382111 0.1598664 0.10237781 -0.17763 -0.23554946 -0.24173371 -0.017851425 0.1810204 -0.04593749 -0.0008962673 -0.075038254 0.05906402 0.07126258 -0.05414335 -0.002321197 0.2545864 -0.3249618 0.20633328 0.06507695 -0.02515174 0.14763974 0.015804771 -0.06747321 0.2380562 0.012306129 0.08557512 0.08499276 0.05561577 0.038653158 -0.17803104 0.334959 0.28533897 0.38198537 0.13011585 -0.5657736 -0.036659442 -0.4679758 0.34873953 0.3108652 0.026405038 -0.32469475 0.31086537 -0.15805292 -0.066195734 0.25199252 -0.03539085 0.09199848 0.11732114 0.007581224 0.18917958 -0.14408939 -0.24346592 0.16987492 -0.09460589 -0.16359547 0.06413645 -0.5432638 0.32592675 -0.11799043 -0.028164646 0.040396843 -0.19850871 0.16765109 0.14332326 -0.1462934 0.29996064 -0.040209956 0.25461823 -0.3019281 -0.3447174 0.32861218 -0.40302873 -0.29102078 0.054366503 0.06627481 0.015876 -0.3464489 0.10044672 0.046891 -0.018258514 -0.0028211658 -0.12290263 0.20127784 -0.026150307 0.08464348 -0.22158062 0.07212378 0.21710028 0.2133066 -0.032573648 -0.09158068 0.5653725 0.4453179 0.17375769 0.118160434 0.38590044 0.052329473 -0.05878556 -0.0944549 -0.12400868 0.12539136 0.0005767103 0.081608154 0.43815482 -0.33909288
95 -0.46161428 -0.2294171 0.5722243 -0.3674129 0.17235887 0.109207995 -0.7292578 -0.39828497 -0.024850927 -0.66405416 -0.09765564 0.10924358 -0.5080098 -0.13786408 -0.04148797 0.3144787 -0.17583543 0.35467458 -0.3056764 0.11800166 0.11191816 0.62753326 0.16873951 -0.2417054 0.23498528 0.044941142 0.35634327 -0.61298054 0.075165 0.18523423 -0.21662146 -0.23656936 -0.21100333 0.6569479 0.27898315 -0.5250783 0.05453719 0.038690165 0.26289207 -0.04593639 0.12542802 0.501956 -0.34225512 -0.42504376 0.22115606 -0.23249277 -0.42808932 -0.17307685 0.31146035 -0.068814084 -0.18186723 0.029511211 -0.167143 0.13217482 0.21456873 0.4445352 -0.05783797 0.0154265845 0.054340836 0.125187 -0.064646974 0.04546108 0.20917736 -0.21802203 0.28162685 -0.30025446 -0.1430751 -0.37973097 0.17206676 0.20715904 0.085100435 -0.13458793 0.13150296 0.011584174 -0.010990532 0.38924858 -0.11535127 0.06329239 0.34910315 -0.23571561 0.23101486 -0.2983922 0.025397502 0.105989404 0.29969782 -0.0056629176 -0.05367429 0.10103571 -0.20369932 0.5571087 -0.1425539 0.03527362 0.0618661 0.55349326 -0.17615962 -0.11874047 0.23557986 -0.5132539 -0.22460131 -0.25683877 0.17612569 0.18409754 0.06305832 -0.12376299 0.26595265 -0.23775381 0.29393128 -0.16969055 -0.46779394 0.30097342 0.49702552 -0.11860759 0.100338094 0.04774002 0.023827009 -0.14630446 0.050471608 0.45923185 -0.044129845 -0.39501312 -0.247047 -0.10574159 -0.121450864 0.28548747 0.6997183 0.16403028 0.24375805 -0.1344872
523 0.12604955 0.25430018 0.035016384 0.09102241 0.057150036 0.082261115 0.008838209 0.086456776 0.031178098 -0.12343977 0.07461731 -0.03898036 0.09496825 -0.11906287 0.09113742 0.29380774 -0.050651856 -0.12140701 -0.002600099 0.3485458 -0.0029798034 -0.009494516 -0.015168874 -0.053533673 0.092966266 0.09214256 -0.11047888 -0.24976648 -0.112239555 0.0068747248 0.17552993 0.07443416 -0.04530717 -0.104718655 -0.033073362 0.12214788 0.038926873 -0.10881583 0.2540332 -0.35831347 0.15791403 0.05309865 0.05670845 0.14697538 -0.07832023 -0.1027662 0.2598039 -0.051858254 0.01636584 0.10895986 0.0403706 -0.08730725 -0.10517267 0.35171223 0.3159662 0.38663834 0.09793188 -0.47332767 0.050488062 -0.47661722 0.13954686 0.40548328 0.064883746 -0.3555339 0.33129954 -0.20689921 0.054132517 0.35715768 -0.060890444 0.09791565 0.066018425 -0.021837313 0.091598146 -0.21642153 -0.28619722 0.098416544 -0.08417344 -0.15958895 0.00787259 -0.4419376 0.25833988 -0.1951659 -0.049860574 0.09354886 -0.31895575 0.25367013 0.044886798 -0.2680423 0.26734847 -0.13876227 0.30506378 -0.25174627 -0.35341886 0.30051187 -0.491703 -0.25510752 -0.022092331 -0.031649254 -0.015449803 -0.31770095 0.06388264 -0.012641792 -0.09722141 -0.08586289 -0.08698872 0.27003938 0.043450017 0.14786573 -0.28406435 -0.03648218 0.16942692 0.05016845 -0.014658632 -0.05670721 0.6131375 0.31566107 0.1451734 0.15619354 0.50472534 -0.01694669 0.040086642 -0.04123676 -0.13106534 0.13462941 0.019801244 0.15570071 0.504923 -0.38854113
336 0.23061897 0.10791152 0.14809921 0.04980461 0.013746417 0.12488656 -0.016159073 0.02133923 0.0073630246 -0.10326185 0.07645816 0.01810601 0.06839874 -0.107492134 0.19600786 0.30581442 0.090116605 -0.17758216 -0.035496257 0.38611558 0.05777935 -0.0019967598 0.07446708 -0.12704286 0.14852452 0.09355252 -0.0647986 -0.21049373 -0.19175284 0.03751642 0.11569743 0.042451743 -0.09147583 -0.11652817 0.07223906 0.14771931 -0.09130799 0.00939866 0.24345389 -0.3367708 0.22259007 0.11201685 0.039493065 0.04190038 0.040297527 -0.02444265 0.24017417 -0.0855725 -0.005956422 0.041662738 0.09727693 -0.05672581 -0.17205328 0.4060104 0.34677976 0.36773577 0.085686386 -0.6238083 0.07278415 -0.3270393 0.19311361 0.33323175 0.043214027 -0.3282253 0.30820808 -0.17875786 -0.014429024 0.29477417 -0.015772734 0.12655063 0.05405142 -0.04185201 0.07852566 -0.18845499 -0.20297737 0.09056467 -0.029892761 -0.20775616 0.10342824 -0.48850527 0.4062269 -0.19156668 -0.064809635 0.019526912 -0.36699829 0.23110388 0.14224471 -0.19073328 0.2817241 -0.06777431 0.22749098 -0.2942877 -0.30300125 0.2530926 -0.4002373 -0.2742716 0.08286545 0.0009874474 0.0027335763 -0.35232908 0.15353411 0.039649084 -0.015352884 0.0043480154 -0.13722795 0.2575997 0.030197892 0.05093267 -0.31499997 -0.012314554 0.21414295 0.22465807 0.05015989 -0.07968223 0.50450253 0.36592817 0.07533065 0.061998405 0.4682243 0.07458508 -0.018488232 0.097146235 -0.10503232 0.08707565 -0.11989464 0.12164854 0.4799344 -0.3561354
263 -0.21606164 0.09496951 0.1777707 -0.67867327 -0.35778922 0.7880489 0.54111147 -0.08019748 0.4444345 -0.7599558 0.25274488 -0.07978194 -0.22045612 0.20151782 0.7676113 0.91879725 -0.4420446 0.12618707 0.0108387405 0.08339384 -0.22902031 0.19830093 0.3829791 -0.31529132 0.80038464 0.14405999 0.36523405 -0.2502594 0.60862285 0.11703544 -0.31041327 -0.41546196 0.49803892 -0.269983 0.08731427 -0.04672544 0.013398577 0.32764328 0.4146671 -0.09184186 -0.09596583 0.07890009 -0.15759204 -0.44669738 -0.49766004 -0.12641856 0.25294897 -0.28614 0.5153032 0.09700304 -0.28283995 0.33173347 -0.763086 0.22999704 0.57703257 -0.45341074 -0.17026608 -0.039574884 -0.11437942 -0.28835094 0.5288495 -0.3141106 0.45219976 0.0600335 0.2951299 0.36813685 0.09120951 0.34427693 0.37372932 -0.51766706 -0.18561538 -0.2565531 0.3107275 -0.020466454 0.44084945 -0.13009484 0.045087583 0.029909207 -0.16277307 -0.4943387 -0.6339681 -0.6773849 0.30171913 0.12942417 0.12925601 0.12590215 -0.25388238 0.23293018 -0.058369663 -0.4041229 0.5846788 -0.3546745 0.466769 -0.25686878 -0.520553 0.34125137 -0.23246899 0.08630792 -0.15934192 -0.41813138 -0.6550534 0.4324626 0.6671749 -0.23044986 0.22031549 0.1611182 -0.045389865 -0.2026697 -0.42231086 0.19489054 0.502915 0.062230773 -0.10445249 -0.42261574 -0.6033325 -0.40439212 -0.12406038 -0.062295005 0.4385935 0.51573426 -0.01177894 0.08913273 -0.055194985 0.50790435 -0.2425898 0.25625798 0.5051619 0.15282597
237 0.11961552 0.18658505 0.052185293 0.088961855 0.029221034 0.11927584 -0.11430641 0.03593125 0.003279534 -0.14628555 0.032320213 -0.02991107 0.050297152 -0.17495003 0.12485966 0.39001426 0.0681989 -0.20186277 -0.074280016 0.34291166 0.04616717 -0.018708209 0.039289445 0.019779008 0.15777923 0.0967639 -0.26064274 -0.32874522 -0.07545324 0.093749 0.1272184 0.0835499 -0.09681579 -0.034777638 0.09254973 0.067351356 -0.004996158 0.041233964 0.23707414 -0.30176908 0.1025014 0.081767194 0.005028283 0.054431252 0.027865797 0.011144475 0.102208346 -0.008288188 0.045155164 0.040883034 0.10957128 -0.09457048 -0.10810944 0.30642223 0.32169542 0.36207873 0.08435128 -0.4950456 0.08710281 -0.56345636 0.23771343 0.33857867 -0.0546798 -0.3902595 0.25938007 -0.08660808 0.015282145 0.27119675 -0.06998637 0.08595223 0.019803243 -0.06072439 0.22220336 -0.09762125 -0.1933307 0.080551974 0.040535066 -0.26260555 0.080480434 -0.49858788 0.29239362 -0.092796974 -0.04783667 0.063714586 -0.19799563 0.273811 0.09277023 -0.19059582 0.33100122 -0.12647986 0.3244338 -0.22872923 -0.3742807 0.33465323 -0.34268963 -0.30819452 0.061081454 -0.0041728728 -0.07479274 -0.32355502 0.02074138 -0.056636166 0.028228182 0.051850777 -0.09420105 0.27996182 -0.02735366 0.15974066 -0.27311257 0.058148883 0.16950265 0.07483869 -0.022510713 -0.04089258 0.56330746 0.44066095 0.15758982 0.15358117 0.4661138 0.120815136 0.04186354 0.047277976 -0.17067903 0.08220109 -0.03738442 0.05743202 0.3961167 -0.40351874
503 0.22174944 0.08229708 0.12510537 0.07229175 -0.07111257 0.049506586 -0.13593253 0.08309771 -0.04874875 -0.15311722 0.12656339 -0.071028136 0.120886244 -0.13843709 0.15714183 0.37917057 -0.025424113 -0.12198032 -0.10214998 0.26606157 0.009646834 -0.03630614 -0.035267994 -0.008758807 0.12802345 0.14887306 -0.32842904 -0.23357604 -0.11891078 0.115466796 0.10626724 -0.024900716 -0.042730328 -0.0378448 0.09523982 0.13107464 -0.030772282 0.07954804 0.30408806 -0.205365 0.25651324 0.120487936 -0.021880992 0.025011243 0.02886906 0.04609253 0.26001817 -0.12268533 0.078317605 0.11119836 0.049943082 -0.1013687 -0.123686425 0.4506219 0.3208676 0.32655814 0.08513222 -0.52202964 -0.045685 -0.46258515 0.2512342 0.389376 -0.016779033 -0.33869138 0.3328645 -0.111068904 -0.058209736 0.25238672 0.0065607233 0.09535725 0.025705863 -0.010519307 0.19692999 -0.14008602 -0.2517607 0.0031015917 -0.017231824 -0.2758162 0.053566217 -0.41400483 0.23445942 -0.15404508 -0.06724442 0.10903702 -0.30894053 0.21498087 0.08483093 -0.1925529 0.30961332 -0.09111899 0.32299268 -0.21881218 -0.29224825 0.24674356 -0.44424865 -0.28073502 0.048520524 0.009124114 -0.050912984 -0.26960105 0.11203791 0.038531512 0.037269536 0.05004534 -0.13195121 0.14970054 -0.0028828683 0.18657103 -0.20803295 -0.02053889 0.24649926 0.08645416 -0.05611098 0.0049339384 0.513289 0.38131028 0.018340789 0.08941085 0.40867767 0.0019524312 -0.032224175 0.061424986 -0.10410502 0.21627854 -0.05805831 0.20868607 0.42273945 -0.3714276
227 -0.0074488483 -0.018996846 0.042868823 0.13564768 0.22273989 -0.031733528 -0.5028119 -0.58363754 -0.13687344 -0.059709888 -0.1213273 0.024047421 -0.26973146 0.13319306 0.077086866 0.092047304 0.04918286 -0.026330799 -0.16024762 0.23044547 -0.37617025 0.45834923 0.21808945 -0.35739797 0.005910582 0.11191005 0.29413918 0.20640196 0.078074865 0.09779918 -0.32345274 -0.25264102 0.59341896 0.25824994 0.060620453 -0.33288324 0.34585798 0.36601278 -0.14199422 -0.12708895 0.1847228 -0.39944726 -0.16153456 -0.29734585 -0.089203365 0.13176736 0.01672626 0.09320891 -0.29451704 0.37797016 -0.29109186 0.1390643 -0.15007944 -0.048402067 -0.041758187 0.28272882 -0.2590833 0.17267886 -0.0656182 -0.061096575 0.0028830757 0.019119538 0.12501764 -0.035567045 0.20235384 0.057449568 0.2720003 0.32221016 0.06257315 -0.10824991 -0.33249795 -0.16842471 0.025284888 -0.216639 -0.27325955 -0.17283556 0.033063907 -0.38998607 0.097144164 0.0024912718 -0.07620529 -0.43624595 0.19605394 0.2076505 -0.16127653 0.19219548 -0.05373973 0.17276084 -0.13953213 0.48693293 0.1242415 -0.058013044 -0.25915545 0.05068035 -0.32850096 0.24127527 0.3386631 -0.031927347 0.22898626 -0.17669103 -0.26383772 -0.24564938 0.32485548 0.015211948 0.13145143 0.40509865 0.1623756 0.6071638 0.29672876 0.088226646 -0.1791284 0.35559848 0.19182104 -0.48748496 0.05396002 -0.18071409 0.009505872 0.43266165 0.11193698 0.04208309 -0.056514435 0.08998208 -0.17857042 0.4060234 -0.26172137 0.07206918 0.13409528 -0.27192032
519 0.12131549 0.20295316 0.07014578 -0.0036760983 0.042927004 0.11739235 -0.080992274 0.114622794 -0.08587356 -0.1147815 0.06188094 -0.018148778 0.08675279 -0.16890545 0.16485935 0.32376772 0.030156186 -0.15294296 -0.10051981 0.3940105 -0.012569846 -0.043266863 0.018762467 -0.022195894 0.110753484 0.11106295 -0.3017395 -0.23304589 -0.14250532 0.08881149 0.09403022 0.05731766 -0.12991683 -0.06465951 0.09507953 0.12971245 -0.02867627 -0.03386012 0.26567268 -0.35766372 0.27408558 0.11004421 -0.036930665 0.041548233 0.005173389 -0.059899464 0.28730515 -0.14929563 0.06584322 0.057497058 0.10394613 -0.16286592 -0.18343385 0.41182956 0.35027173 0.3091552 0.04378032 -0.5737334 -0.024143375 -0.54356194 0.23083964 0.3636202 0.011301959 -0.40754902 0.327323 -0.18424588 -0.033933118 0.218588 -0.0733266 0.06666376 0.08536865 -0.0074917 0.2340007 -0.20701894 -0.23900454 0.030457592 -0.08030364 -0.23251647 0.122096084 -0.45557892 0.30612656 -0.20191175 -0.1234348 0.01739701 -0.41990772 0.24565262 0.19155522 -0.23314473 0.2891928 -0.066531256 0.21970864 -0.26652953 -0.2648244 0.28883827 -0.46254742 -0.21567082 0.12318255 0.008409916 0.02990992 -0.29504323 0.06918033 0.065088965 -0.067837425 0.008842061 -0.031448707 0.3342109 -0.05780105 0.19598863 -0.29264268 0.058914594 0.17689109 0.06437129 0.028079586 0.076123364 0.5584338 0.31271696 0.09428242 0.10448377 0.43448132 0.035283457 0.02508964 0.06907757 -0.16156343 0.08810247 -0.09796075 0.06917155 0.44934505 -0.33556294
174 0.008401478 0.02895604 -0.08673952 0.18445282 0.26153073 -0.12309279 -0.39810827 -0.6887141 -0.048433807 -0.19807604 -0.17779155 -0.1007066 -0.17053594 -0.024157068 0.19048752 0.024933811 0.117528215 0.11020669 -0.094313 0.27911174 -0.25398186 0.37763512 0.1197803 -0.37286872 0.11758099 0.05796522 0.27862382 0.24299693 0.06558354 0.08623296 -0.27877548 -0.23577727 0.6405882 0.35698193 0.0071800915 -0.44865477 0.3004429 0.2637182 -0.10469762 -0.27707168 0.25893676 -0.40656435 -0.1433268 -0.4302118 -0.07574766 0.08959612 -0.099420406 0.11570967 -0.21850942 0.27065608 -0.3297145 0.25074282 -0.12087618 -0.049459312 -0.03843913 0.32295167 -0.19681321 0.19056438 -0.22186887 0.07614991 -0.20892864 0.1746273 0.28623483 0.09086287 0.39305633 0.043225694 0.32978553 0.34612632 -0.0983843 -0.097372994 -0.35003862 -0.14791913 -0.073825024 -0.1355024 -0.26258674 -0.18563354 0.1771105 -0.27956733 -0.003800899 -0.16821633 -0.021489717 -0.27897277 0.28485283 0.14144252 -0.08232665 0.21248104 -0.023954362 0.18159789 -0.036088243 0.3620694 0.25902477 0.088647485 -0.35752395 0.029235898 -0.34396592 0.010274831 0.42316997 -0.006533912 0.2834826 -0.3184627 -0.206483 -0.21003687 0.38093382 0.023086831 0.14310142 0.43999186 0.19798888 0.5104059 0.36298516 0.2589838 -0.086486705 0.42003146 0.10633287 -0.41738683 0.072553925 -0.2064343 -0.035332948 0.40001392 0.022196766 0.16494294 -0.0698515 0.06532487 -0.15257975 0.5455186 -0.19817497 0.085094765 0.06506185 -0.13694145
243 0.20213038 0.122719534 0.04043566 -0.027346002 0.012735473 0.051122434 -0.09799173 0.08813202 -0.017898846 -0.15364385 0.07844107 -0.037197635 0.106427945 -0.17328943 0.19145879 0.2948492 0.12208809 -0.19793932 -0.026051147 0.38021475 -0.018832361 -0.076529734 0.015710281 0.028364511 0.14487293 0.0054066433 -0.22306722 -0.2497957 -0.10578577 0.03526067 0.21184695 -0.027541755 -0.068816215 -0.06939913 -0.0019260041 0.052245528 0.009427348 -0.13978207 0.28528258 -0.38271242 0.22088741 -0.023877397 -0.020972207 0.07480952 0.039288472 -0.040226337 0.23762672 0.06149252 -0.005857931 0.0201973 0.12272252 -0.08803728 -0.1643077 0.31058457 0.29919204 0.45386058 0.029052574 -0.6015216 0.064834 -0.4764891 0.24888726 0.27845985 -0.00042688695 -0.38789156 0.36201668 -0.022616921 0.0048195547 0.32729045 -0.037978157 0.12295453 0.08855055 0.025840886 0.14109246 -0.17187947 -0.2647506 0.15229502 -0.06092146 -0.2310932 0.0350815 -0.47115496 0.3103901 -0.11610298 -0.049192443 0.13873066 -0.21240419 0.2666815 0.13887948 -0.13224585 0.36652708 -0.022983504 0.25751624 -0.23988985 -0.36753616 0.2874409 -0.4513456 -0.28457478 0.01944226 0.09255877 -0.09879557 -0.39023557 0.08814304 0.078033715 0.015220982 0.07149208 -0.18130153 0.17320222 -0.007168427 0.077844426 -0.26590458 0.030436626 0.2390178 0.18220797 -0.0024536701 -0.10666759 0.52396655 0.27590507 0.0693928 0.07354069 0.413782 0.14459951 0.07636958 -0.06750928 -0.20491432 0.12012553 0.016797606 0.104067445 0.39573112 -0.31493932
221 0.10147244 0.08346502 0.059118308 -0.007033107 0.054025747 0.14849442 -0.076211184 0.046084445 -0.0068743057 -0.081501044 0.11028676 0.020628087 0.14607789 -0.17421748 0.19553015 0.36218053 0.06565955 -0.1421838 -0.029358547 0.42161444 -0.023065753 -0.032674972 -0.065032855 -0.025289726 0.1275912 0.05398613 -0.16802232 -0.2320485 -0.072561085 0.13900138 0.10259845 0.07474218 -0.061565977 -0.11755644 0.094257265 0.063311495 0.034326363 -0.05559353 0.28533706 -0.27557912 0.21914656 0.047206644 0.004128525 0.066748396 -0.025081327 -0.016451374 0.18502784 -0.047449652 0.0145502435 0.12447218 0.19593653 -0.079830036 -0.19703402 0.3609508 0.3496379 0.40528503 0.14179553 -0.50019515 0.14545421 -0.49201632 0.15608658 0.19900568 0.006063393 -0.39341557 0.389634 -0.13052918 0.004229705 0.24824579 -0.057002638 0.1474963 0.046302564 0.06505833 0.21943076 -0.12833613 -0.23891664 0.16373363 -0.080168016 -0.16148958 -0.052998886 -0.37422064 0.35397872 -0.0816761 0.06501086 0.04031972 -0.27056798 0.1991311 0.1325551 -0.19838412 0.24442026 -0.07185087 0.25889593 -0.24572448 -0.27235022 0.30751422 -0.4013166 -0.32640743 0.08765728 -0.010856468 -0.026210573 -0.30608946 0.05607044 0.058746032 -0.042396553 0.052704327 -0.15470555 0.17214969 0.025943823 0.23645918 -0.26779675 0.04253537 0.24109468 0.13552 0.029200766 -0.079040974 0.55550355 0.39379025 0.10582959 0.19487041 0.43103576 0.061126754 0.067854136 0.07869973 -0.089937955 0.111312255 -0.05253943 0.052606273 0.4835783 -0.33509588
464 -0.016473431 -0.10247705 -0.059240397 0.17524889 0.2293188 0.033863343 -0.37679285 -0.7007972 -0.19671553 -0.24133109 -0.17817561 0.0131963845 -0.07071383 0.09532481 0.15767874 0.1076189 0.028842514 0.08375377 -0.0956749 0.3350465 -0.2399045 0.321607 0.22836147 -0.33533555 -0.0030376622 0.14131477 0.39609957 0.1421218 0.1360475 0.06567915 -0.19580291 -0.28183874 0.54215753 0.23967347 0.08560322 -0.43533283 0.2661223 0.2470822 -0.17485337 -0.27344802 0.115102425 -0.31656867 -0.08557807 -0.2900411 -0.051183082 0.13518974 -0.06593488 0.115947954 -0.20066032 0.4998479 -0.24424493 0.17028208 -0.017414425 -0.12542543 -0.08514155 0.344327 -0.14962055 0.18316662 -0.202113 -0.016569898 0.00726105 0.14152683 0.18264523 -0.0013622829 0.32005733 0.029363042 0.30658892 0.3633946 0.035424188 -0.05277288 -0.37555674 -0.04426143 0.057185374 -0.20942591 -0.11131881 -0.23806739 0.15374997 -0.35906503 0.019399373 0.092617996 -0.25689402 -0.3997065 0.14315668 0.25000954 -0.14869337 0.20759806 -0.050297998 0.16593699 -0.03938273 0.48143634 0.11803467 -0.005647276 -0.2683781 0.2630041 -0.23639488 0.101926595 0.29997444 0.04818132 0.27914461 -0.117566206 -0.18226968 -0.1926467 0.44230184 0.056816686 0.12181335 0.3439004 0.23607162 0.6979468 0.4250757 0.18434319 -0.07786079 0.3845134 0.039209813 -0.51532346 0.041969575 -0.25794184 0.0081084855 0.4066666 0.08778742 0.16356528 0.08733316 0.05065069 -0.16062064 0.41594708 -0.12889852 0.021146262 0.23827554 -0.13232368
15 0.098749146 0.08832675 0.025258355 0.099542975 0.055534553 0.07006424 -0.012763322 0.15619141 -0.08351153 -0.08949703 -0.0018236943 -0.038858183 0.1105995 -0.208699 0.15121575 0.331395 -0.03696707 -0.14642191 0.014973208 0.36367118 0.054387145 0.060428184 0.07798232 0.026074238 0.08581874 0.07493762 -0.13704176 -0.22197898 -0.09593489 0.110590205 0.19922733 0.09614177 -0.10501186 -0.07362471 -0.01104004 0.008045503 0.02062824 -0.06544728 0.21129923 -0.38566074 0.23154107 0.1544374 -0.052772187 0.08650608 0.0028512534 -0.09152679 0.1717693 0.05428383 0.021135688 0.07408225 0.03990637 -0.18221883 -0.17519626 0.39695582 0.4131486 0.32065466 0.06660374 -0.5008188 0.061574116 -0.6128723 0.1910787 0.34216544 0.002125745 -0.31773803 0.24914984 -0.091418386 0.0347885 0.33983228 -0.017597482 0.10964024 0.08575572 -0.006771505 0.17032097 -0.15546134 -0.19895309 0.08146163 0.023999251 -0.22975415 0.010941778 -0.4607919 0.25327018 -0.14277793 -0.111900076 0.06305614 -0.3057917 0.222414 0.12103722 -0.22464022 0.31751364 -0.12591964 0.21322411 -0.22409512 -0.4514753 0.30117634 -0.3919506 -0.17723587 0.08205125 -0.00589076 -0.013261621 -0.3857444 0.107759066 0.023294425 -0.019028436 0.03432457 -0.15824275 0.22540693 -0.08997036 0.15862292 -0.29721826 0.0058459705 0.21372172 0.13813086 -0.037908547 -0.09305152 0.47835192 0.31499314 0.13033402 0.10749415 0.498276 0.0721077 0.12513845 0.0334509 -0.18019617 0.10717869 0.008767305 0.122159705 0.4319556 -0.37871253
21 0.2551602 0.058818452 0.29430827 -0.14795138 0.17838526 -0.19176082 -0.19618982 -0.4470152 0.08414124 -0.42332244 -0.06019016 0.046637297 0.029118367 0.24003272 -0.08699196 -0.17600298 0.13793123 -0.03273443 -0.2569704 0.121841684 -0.43788558 0.4256895 0.21943235 -0.11031313 0.07709017 0.22799501 0.4716803 0.064531825 0.45348763 -0.1224551 -0.26834017 -0.16706938 0.055441964 0.04912333 0.1567751 -0.41315708 -0.04085597 0.386913 -0.08508498 0.04341136 -0.038455155 -0.1625989 -0.12153769 -0.015314513 -0.18701859 -0.27786383 -0.12579519 0.19835742 -0.2111413 0.09653997 -0.57423306 0.14110258 -0.20456718 0.12957992 0.014870999 0.09908315 0.09080214 0.4289214 0.19998485 -0.32755315 0.08140923 0.27159843 0.08555955 -0.12883873 0.4278359 0.38505673 0.46594152 0.09427405 -0.575729 0.12533246 -0.42521334 0.23520091 0.3617985 -0.3687092 0.10433416 0.28004056 -0.1531727 -0.6355661 0.47720334 0.3491217 -0.3632818 0.015074152 0.07967294 0.31857318 -0.15950574 -0.024261521 0.10814792 0.10296369 -0.24302083 0.2807853 -0.009761177 -0.09376946 -0.36763617 -0.046746798 -0.10316996 -0.24532092 0.2696189 0.19542506 0.043088496 -0.3716694 -0.4562148 -0.07098766 0.24453457 -0.42146522 0.61040646 0.75795877 0.06060811 0.5336728 -0.097359195 -0.05444837 -0.20194659 0.4108424 0.22849096 -0.2714273 0.34750924 -0.68364996 0.05567132 0.29545578 -0.09425593 0.5019915 -0.19329013 0.0032136936 0.10997599 -0.06295264 -0.31696182 0.557027 0.116341434 -0.19371006
255 0.114142776 -7.650421e-05 0.034535147 0.10120027 0.022850381 0.06835838 -0.08137481 0.06689071 -0.06506405 -0.19008769 -0.012502253 -0.054408684 0.09376356 -0.13461316 0.16913596 0.24624757 0.044549525 -0.15413669 0.027017929 0.31765786 0.07469926 -0.05770558 -0.064608395 0.029173058 0.16826308 0.18115409 -0.17958319 -0.2207616 -0.06381834 0.09347336 0.21008009 0.03178257 -0.041143958 -0.15372752 0.048470575 0.07474119 -0.09860161 0.020948587 0.21590178 -0.26195234 0.22586519 0.080084376 -0.03678923 0.09481993 -0.1546328 -0.13853338 0.2138662 -0.1341513 0.024075445 0.0009959057 0.029634958 -0.16950797 -0.12186274 0.39617616 0.3599116 0.3737393 0.06411786 -0.60158825 -0.0074709225 -0.48915288 0.24989364 0.3534079 0.07198728 -0.34169748 0.35041967 -0.15694432 -0.04643861 0.23672353 -0.063924335 0.012139486 0.05015658 0.043930914 0.09186728 -0.22506374 -0.20950978 0.09333016 -0.0883565 -0.14274777 0.06434632 -0.40103573 0.29550296 -0.08063947 -0.17169926 0.0040697698 -0.30407667 0.27283764 0.080099285 -0.12141709 0.29583275 -0.11599232 0.30200255 -0.28493467 -0.40072954 0.25084805 -0.49448347 -0.25617328 0.08737628 -0.04148607 0.001515062 -0.30305505 0.053554613 0.12306385 -0.043280896 0.02079044 -0.1477973 0.22977267 0.02187412 0.1259592 -0.25463116 0.03981706 0.21041955 0.07169519 0.07293815 -0.04991395 0.5236356 0.39982527 0.04206043 0.045449086 0.42387635 0.02140444 -0.0053559113 0.026743682 -0.16743557 0.121785834 0.07556068 0.21601585 0.33864784 -0.39132333
304 -0.3253933 -0.007896268 0.42109329 -0.6591823 -0.34508732 0.7768075 0.63260025 0.04236277 0.55280566 -0.7205051 0.16146779 -0.11550924 -0.35281587 0.2134554 0.7862585 0.98005676 -0.34564635 0.18298277 -0.15632579 -0.065186076 -0.2312642 0.26737103 0.43960735 -0.4125748 0.86927575 0.20820825 0.47871333 -0.22714913 0.49129173 0.1401713 -0.2571217 -0.39284578 0.56777674 -0.3742061 0.0049524177 -0.11679802 -0.045566767 0.29555836 0.26172772 -0.1933936 -0.05127999 0.076406494 -0.162384 -0.5471285 -0.37456658 -0.2952245 0.15229282 -0.16288699 0.4299887 0.0033390103 -0.35619152 0.40653142 -0.7192504 0.16418788 0.73910743 -0.7104773 -0.11625463 -0.19467819 -0.022498034 -0.22170304 0.5642227 -0.24226658 0.5056161 0.106441975 0.27504876 0.30890927 0.17935714 0.4548893 0.37235168 -0.45559037 -0.18305291 -0.22214602 0.35042652 -0.017440889 0.5270584 -0.1428307 0.03385466 -0.029754093 -0.16609561 -0.5119163 -0.6490604 -0.59454054 0.23671918 0.0337416 0.31737232 0.11171725 -0.16048191 0.36737707 -0.060408182 -0.50064886 0.6035029 -0.41282094 0.32441536 -0.18218796 -0.28694677 0.18550807 -0.2917167 0.08826148 -0.22317766 -0.3988352 -0.6738203 0.38031864 0.8396768 -0.3197567 0.2173709 0.29503515 -0.10072502 0.028284824 -0.38745743 0.16034934 0.59912866 0.17754418 -0.0419816 -0.5056209 -0.58571017 -0.37455145 -0.108462855 0.04735586 0.51388717 0.4632304 -0.06653973 0.055015054 -0.07500696 0.51796496 -0.38451266 0.23110242 0.45384955 0.22876865
301 0.13977732 0.1636707 0.10666469 0.118332505 0.077937074 0.08684066 -0.034801424 0.1560462 -0.08208668 -0.19262394 0.048530806 -0.04563425 0.19488251 -0.16213141 0.10473511 0.38124752 -0.062402442 -0.06288206 -0.05483298 0.3027352 0.024291031 0.009611821 -0.06652085 -0.038968563 0.14180984 -0.025141962 -0.20899741 -0.2884451 -0.029107703 0.18914682 0.13361794 0.05613653 -0.14081714 -0.115282945 0.10290264 0.19689627 -0.06323698 0.008482091 0.19667383 -0.3008511 0.18174413 0.1055461 -0.06672882 -0.036828615 0.075070515 0.006199202 0.2242044 0.020226756 -0.057954416 0.08309178 0.08405043 -0.086755574 -0.2043914 0.4103808 0.31542495 0.34390444 -0.027133536 -0.5160468 0.06869175 -0.4572148 0.18656185 0.4690893 0.13058488 -0.38616633 0.3625714 -0.118277684 0.0054491274 0.26731148 -0.12904605 0.099891074 0.095417924 0.016320208 0.12153822 -0.28559735 -0.31094214 0.12060592 -0.04468904 -0.14041325 0.11353955 -0.33778134 0.28578138 -0.04113459 -0.100756325 0.10010653 -0.29744235 0.27716902 0.19613832 -0.19876844 0.18014082 -0.10905987 0.32899997 -0.23426844 -0.19415306 0.2514492 -0.38757297 -0.2759086 0.06657637 -0.04470458 -0.0023574568 -0.219987 0.056649063 -0.1130457 -0.017113257 0.03669544 -0.1394123 0.14677946 0.0095393555 0.11054164 -0.22494246 0.049527433 0.20822449 0.06922402 -0.00044406287 -0.0402724 0.47640997 0.31520465 0.05049903 0.08229021 0.44958386 0.04914896 0.05186666 0.009724861 -0.18729684 0.10915316 -0.13296126 0.15701562 0.34303516 -0.3248598
89 0.25749758 0.1274822 0.50238526 -0.16813688 0.14392836 -0.22943698 -0.11007331 -0.24682295 0.1771652 -0.46840605 0.17146869 0.07323835 0.12669222 0.47297192 -0.065432645 -0.22650962 0.17375913 -0.061509244 -0.18262072 0.09461718 -0.46139872 0.53167915 0.22413553 -0.00093466236 0.09369291 0.3131585 0.4428931 0.023656208 0.3433804 0.0615682 -0.23059364 -0.048424423 0.14466044 0.056707386 0.06898885 -0.28145704 0.056943186 0.36721253 -0.053597778 0.002265179 0.042534813 -0.15837023 -0.1119579 -0.007096817 -0.22793971 -0.19952105 -0.1936576 0.2312412 -0.1882391 0.16257931 -0.6114063 0.22045691 -0.32427433 0.13501416 0.062837146 0.19351028 0.042215675 0.42034453 0.09390192 -0.20644094 0.03774387 0.16153063 0.17952019 -0.1267697 0.28325602 0.33173743 0.46186876 0.07877298 -0.6145671 0.08035291 -0.51626015 0.08964451 0.18156599 -0.21100909 0.12220253 0.2579072 -0.15806112 -0.44472376 0.32839793 0.46902323 -0.30160555 0.13183191 0.2248996 0.39433578 -0.2448348 0.080055624 0.13859017 0.16633385 -0.15503404 0.27477813 0.029284544 -0.18981272 -0.32697475 0.0070787896 -0.17568247 -0.25667042 0.2952445 0.12589304 0.11555006 -0.37687385 -0.46318755 -0.056255527 0.2650546 -0.35008806 0.60907245 0.73511213 -0.008713989 0.5015485 -0.010704187 0.017815255 -0.19467026 0.33471903 0.14432442 -0.2745382 0.4567902 -0.5363234 -0.095083825 0.24392568 -0.04176208 0.3822939 -0.03942386 0.06445541 0.11972934 0.009405169 -0.16526763 0.55226237 0.13891119 -0.19726151
288 0.1665272 0.07960173 0.11590348 0.056481253 -0.006480583 0.1207122 -0.07545179 0.06538506 -0.06405449 -0.23689477 0.0792286 -0.057340324 0.14282715 0.006478725 0.12726575 0.41185063 -0.020502066 -0.14717849 -0.024011083 0.38749325 0.06427052 0.010960126 -0.0016523006 -0.019807845 0.17582574 0.06556218 -0.1917784 -0.20249017 -0.08389983 0.083928145 0.17856127 -0.03434127 -0.07552994 -0.17209893 0.020640664 0.14472577 0.0036175468 -0.031743985 0.24437988 -0.26676768 0.16150022 0.1951158 -0.068897985 0.12543234 -0.03220981 0.05128501 0.2219181 0.024881035 0.06621708 0.08511361 0.09648948 -0.02273665 -0.19010364 0.35870418 0.34643635 0.38594636 0.12137165 -0.54876655 0.07005175 -0.51401615 0.21903802 0.38545582 -0.038442746 -0.4286071 0.35043213 -0.1410834 0.03046083 0.2310191 -0.0033735125 0.097798534 0.07897972 0.03866439 0.12506351 -0.04615247 -0.17044616 0.09385821 -0.069970444 -0.17579901 0.015736997 -0.4144717 0.3942447 -0.08749004 -0.09622898 0.0224447 -0.30121824 0.22590423 0.15221575 -0.2198185 0.22357816 -0.1416937 0.26571265 -0.24186705 -0.36646265 0.30904734 -0.3808583 -0.26158968 0.10174573 -0.049395163 0.04104558 -0.2860467 0.020700216 0.02371686 0.025697079 -0.002536249 -0.20016769 0.2162333 -0.02637773 0.1637731 -0.22037956 0.029850801 0.17750588 0.11386054 0.07901261 -0.11639571 0.5969023 0.37525442 0.12919101 0.13754997 0.3711405 0.094394356 0.091529325 0.08616641 -0.07797457 0.083901286 0.10155671 0.0890946 0.41094232 -0.29904243
318 0.14041787 0.072973825 0.39252615 -0.182343 0.14403322 -0.23337999 -0.13195804 -0.3038099 0.19778806 -0.44301528 0.07663015 0.107957266 0.07649671 0.3635231 -0.11309353 -0.20265564 0.15675665 -0.037695874 -0.21969083 0.20500976 -0.48058534 0.39907166 0.059476197 0.0073016956 0.015127294 0.37041068 0.4419145 0.07933622 0.35733438 -0.13065171 -0.30604208 -0.024225766 0.13046089 0.084471755 0.2235212 -0.3322873 0.0126878135 0.41765627 -0.07929367 0.03222238 -0.047361728 -0.33645275 -0.17433685 -0.1368019 -0.31226578 -0.160071 -0.2161456 0.2276274 -0.14741221 0.07200588 -0.57561636 0.25983378 -0.34970346 0.1695213 -0.006852729 0.27450964 -0.0524141 0.32907048 0.15079091 -0.21975869 0.15516944 0.28599682 0.03839274 -0.07704023 0.40758744 0.2751915 0.42750424 -0.020360753 -0.5750841 0.099423304 -0.49817145 0.13834147 0.3267411 -0.28032768 0.051462684 0.25490364 -0.1142053 -0.48724544 0.30899024 0.45786315 -0.33451223 -0.007017546 0.2611662 0.2599008 -0.3160201 -0.13968377 0.16104285 0.057904873 -0.06643568 0.4094167 0.101507686 -0.16883224 -0.40003133 0.06576427 -0.15680657 -0.19172315 0.37338874 0.13133022 0.029464353 -0.29828167 -0.53797257 -0.031905144 0.205787 -0.2736851 0.65953445 0.73525465 0.20889701 0.55136013 -0.13261542 -0.04952441 -0.11328804 0.40382352 0.097005434 -0.28180704 0.3025066 -0.64768034 -0.14171389 0.2872713 0.057080492 0.4617168 -0.055253893 0.053043142 0.08466577 -0.024141524 -0.28922 0.563762 0.09130205 -0.25222892
352 0.1160653 0.04831123 0.3863086 -0.18514808 0.04334037 -0.26505855 -0.2418211 -0.27575102 0.052226085 -0.46997306 0.067864716 0.0784884 0.11398556 0.2264349 -0.2300155 -0.15830322 0.092965424 0.031087138 -0.104455 0.293656 -0.58397955 0.44100562 0.1447977 0.04287413 0.043345574 0.4155476 0.44747904 0.079437636 0.3615599 -0.053267382 -0.107086286 -0.22825092 0.061951935 0.16671097 0.23224762 -0.43531305 0.020102851 0.41090527 -0.18236049 -0.016093757 -0.0228398 -0.17227703 -0.23263264 -0.096849404 -0.2987458 -0.25762835 -0.15942127 0.063139975 -0.114686064 0.13148515 -0.5788654 0.21444726 -0.35069782 0.17718686 -0.056837138 0.17808789 0.15251091 0.27846324 0.15296806 -0.20554607 0.07009684 0.2882856 0.023102762 -0.1449474 0.4826448 0.33659637 0.38111016 0.23839498 -0.6113366 0.21873814 -0.5153966 0.1479645 0.29909477 -0.3165608 0.1164104 0.20568438 -0.16847888 -0.5379084 0.42779434 0.5406805 -0.2654787 -0.010306945 0.14235252 0.30145416 -0.4369871 -0.047772944 0.10209594 0.14205535 -0.20292781 0.2997106 0.0056512523 -0.18253753 -0.34805813 0.1250945 -0.120812275 -0.26991928 0.23420829 0.02569138 0.11467403 -0.1784738 -0.56355524 -0.017837113 0.30162534 -0.3844609 0.5870062 0.73033166 0.1293119 0.5702366 -0.015026166 -0.0357954 -0.117798984 0.4371593 0.1732979 -0.1951821 0.29622042 -0.50569254 -0.053320512 0.17885496 -0.06916757 0.3901985 -0.22180694 0.12673888 0.040385235 -0.03810567 -0.32465586 0.43911442 0.10169547 -0.053764936
47 -0.0522093 0.3716 0.053063124 -0.50118995 0.31406003 0.46739927 0.24167918 -0.3826776 -0.0366406 -0.27192655 0.11799063 -0.16111729 0.15987101 -0.42952037 -0.1631275 0.57254267 0.53121775 -0.3557399 0.6165715 -0.47016382 -0.60620713 0.22950651 0.23423657 -0.09046595 -0.14756447 0.23221658 0.81399345 -0.4374626 1.0732015 0.043516472 0.44356078 0.008253195 0.043317396 0.39375958 -0.058419388 -0.15089034 -0.031450596 -0.22026643 0.14786065 0.41603586 -0.07802753 0.3254779 -0.20958754 -0.31735042 0.09819528 0.26668325 0.033699334 -0.057441976 -0.08753992 -0.19633192 -0.17571054 -0.41794628 -0.13127609 -0.14539781 0.2892315 0.071552806 0.023980875 -0.3935115 -0.49713728 -0.9610524 0.4117489 -0.11138491 0.5851997 -0.3885612 -0.5664587 0.13077354 0.26726475 0.1649309 0.66671515 0.5905114 0.08232175 -0.020350095 -0.15297727 0.4679306 -0.44599944 0.14615329 -0.4549478 -0.19172265 0.045024578 0.04986723 0.2550883 -0.35724613 -0.07335672 0.021212464 -0.094943516 -0.05189688 0.4306122 0.007358693 -0.33996716 0.23555455 0.47536117 0.025678847 -0.34230548 0.38839507 0.4185864 -0.1546479 0.0794886 0.0629898 -0.42852348 -0.36466894 -0.40447986 0.09807056 0.30219695 0.22263944 -0.5051175 0.36387905 0.25690934 -0.27765647 0.04594186 0.10279902 -0.023059506 -0.07454138 0.049674347 -0.18310335 0.151069 -0.47989807 -0.3569481 0.43007794 0.3570428 -0.47304586 0.052882988 -0.25507036 0.09244923 0.61113554 -0.20532884 0.38037413 -0.26747814 0.28288862
45 0.15141843 0.08179712 -0.028873233 0.044418696 -0.050559804 0.09157862 -0.08383595 0.0028690712 -0.06467875 -0.19256087 0.05922692 -0.039433956 0.14478478 -0.1921006 0.13041738 0.2367167 -0.05490095 -0.106442854 -0.045109626 0.47712672 0.057189893 0.011100137 0.005895223 -0.022895286 0.11393125 0.08062864 -0.24571383 -0.23398341 -0.036455337 0.053291585 0.16421568 0.07954657 -0.09428829 -0.15034807 0.11087133 0.07179652 -0.019330272 -0.0031275086 0.250539 -0.26375216 0.22517692 0.04210757 0.037989456 0.06602537 -0.07490366 0.038845677 0.19415212 -0.07373835 0.06091895 0.049404513 0.020216933 -0.13196087 -0.079680644 0.3746985 0.23334236 0.4130528 0.07381499 -0.5267977 -0.0069679776 -0.48868665 0.25043827 0.35139677 0.0042490703 -0.33455294 0.38694367 -0.04506191 -0.0699521 0.24366337 -0.13851194 0.07663688 0.10126746 0.039790515 0.14049982 -0.13259232 -0.1708353 0.06901018 -0.019258944 -0.1614115 0.052170716 -0.4659836 0.3365997 -0.042695552 -0.07388657 0.034885876 -0.32334632 0.17801267 0.17978202 -0.2286398 0.21827377 -0.105600566 0.33806673 -0.14742886 -0.25713482 0.43066198 -0.36643144 -0.37470394 0.032751635 0.03596286 -0.056168213 -0.31013834 0.016547622 0.12468063 0.06591561 0.01980808 -0.17867772 0.21876992 0.057287976 0.17283332 -0.26632872 0.005515889 0.26630008 0.13912135 0.012106555 -0.061053414 0.48655888 0.39777505 0.13325767 0.0899333 0.455272 0.107998386 -0.080957934 0.055638243 -0.0669502 0.14976448 -0.09585873 0.10584426 0.4063965 -0.3001546
273 0.13725525 0.16649364 -0.014774932 0.11726632 0.107995786 0.10013508 -0.06221885 0.039979264 -0.05468619 -0.16438285 0.043793023 -0.044234358 0.111054674 -0.17418456 0.18720812 0.32794347 -0.061312415 -0.12231301 -0.0028759995 0.2923556 0.009846054 0.05247695 0.035149153 0.027826656 0.25409734 0.04904292 -0.23799647 -0.22599441 -0.16188516 -0.027052926 0.21904032 0.06019547 -0.17430143 -0.14610966 0.04314648 0.076039776 -0.09479979 -0.054370496 0.2249083 -0.31661522 0.2636281 0.1049697 -0.04648342 0.12403198 -0.11373388 0.022527045 0.21970735 0.02536978 -0.072491445 0.15774016 0.048351962 -0.09544998 -0.1285151 0.40094364 0.3201277 0.44425866 0.14359882 -0.4378146 0.05808973 -0.50944513 0.30986056 0.38787627 0.01758232 -0.36462086 0.39266706 -0.09221482 0.0054208995 0.2677428 -0.11629067 0.057445668 0.1478775 0.0030067384 0.088411234 -0.13311525 -0.22228673 0.107902415 -0.17154473 -0.12144273 0.056430906 -0.36472404 0.29894155 -0.1517007 0.03127585 0.053195257 -0.2571609 0.20656767 0.15696964 -0.15450504 0.32044464 -0.1600626 0.27962607 -0.25452268 -0.3588403 0.3642671 -0.491449 -0.24813318 0.040676296 -0.022273792 -0.002356018 -0.279458 0.019429114 0.044824734 -0.007195835 0.008408858 -0.21180746 0.16605107 0.044225495 0.19915329 -0.29210165 -0.0021074167 0.17152804 0.18736027 0.049030926 -0.018986134 0.5436127 0.26958305 0.1652588 0.09095221 0.40640756 0.056181647 -0.077583164 -0.0512402 -0.14564055 0.12734394 0.009284328 0.15232734 0.42686075 -0.30038545
450 -0.4039024 -0.32952356 0.5866517 -0.49918696 0.29721543 0.07458255 -0.6042255 -0.40418515 0.13063626 -0.6820611 -0.069411285 0.0983018 -0.48955262 -0.24882345 -0.05730864 0.2597737 -0.23635386 0.2957503 -0.14717293 0.1266467 0.10169272 0.56732637 0.17443252 -0.13087855 0.17320776 0.05996196 0.4095741 -0.53120786 0.046306517 0.11105526 -0.19171798 -0.15473199 -0.24971601 0.6495808 0.20306425 -0.44909284 0.15738876 -0.11617953 0.3159638 -0.005194633 0.14992431 0.4992276 -0.35714287 -0.52247447 0.13494258 -0.21623695 -0.42778796 -0.1690317 0.20028412 -0.11199958 -0.19255467 0.09618927 -0.12787676 0.29861653 0.18884127 0.48337927 -0.16007692 -0.0702913 0.068374574 0.014981429 -0.036385603 0.10604529 0.27171156 -0.09654024 0.24853948 -0.35036752 -0.176003 -0.5453927 0.12295637 0.0745985 -0.038010664 -0.11278173 0.018545927 -0.056180112 -0.03365891 0.25152692 -0.09622545 0.042151775 0.34450886 -0.2417988 0.27002835 -0.39110965 0.08124964 0.16498221 0.3740702 -0.003337847 -0.033921946 0.094019815 -0.12897116 0.48013648 -0.09638303 -0.074879594 0.0309158 0.48761263 -0.35102928 0.056928586 0.26532918 -0.46888465 -0.14230059 -0.19506764 0.11640954 0.19591612 0.053485412 -0.24654602 0.30278045 -0.16821972 0.22465184 -0.16099377 -0.42349592 0.34635973 0.42706788 -0.38122222 0.07943638 0.21334165 0.035691246 -0.3109464 -0.056772526 0.41518605 0.07242571 -0.40237045 -0.30832082 0.0065339035 -0.19810638 0.20438835 0.68572956 0.02425806 0.2503046 -0.14627065
416 -0.16201158 0.32642314 0.0013241397 -0.4592987 0.41863814 0.4337165 0.15963426 -0.34636658 0.05113005 -0.19522241 0.11950569 -0.2780281 0.18201669 -0.42639926 -0.26192284 0.4774474 0.52918845 -0.33255345 0.6116378 -0.44061673 -0.53931904 0.3278813 0.18169177 0.10244804 -0.1304429 0.2861567 0.74110734 -0.43046567 1.0493388 -0.07105471 0.40291247 0.021594968 0.16350053 0.35606322 -0.055788107 -0.13363223 -0.117159694 -0.22608106 0.26487222 0.42277494 0.0529856 0.31535316 -0.17489496 -0.3512574 0.131025 0.22793925 0.10579048 -5.2877e-05 -0.050676752 -0.22924872 -0.14475241 -0.48299423 -0.21005148 -0.051043995 0.23552425 0.099972926 -0.07602057 -0.30748403 -0.40392336 -1.0954459 0.4702671 -0.17086802 0.4866212 -0.31000352 -0.5400565 0.048230115 0.27474344 0.3663832 0.7372334 0.5683933 0.03950373 -0.07226036 -0.11776846 0.48808846 -0.250841 0.23341483 -0.5180968 -0.13963965 0.031408828 0.036478285 0.031780984 -0.29489458 -0.06990282 -0.07135729 -0.11011398 -0.15058981 0.38088197 -0.010263228 -0.43900803 0.20338514 0.5578866 -0.00059894635 -0.28126195 0.2512919 0.3796059 -0.22316721 0.14006379 0.02778312 -0.41726458 -0.26348776 -0.34729925 0.32186794 0.3011385 0.22151706 -0.3372619 0.53744406 0.31405017 -0.33695486 0.05425689 0.17892262 -0.103842296 -0.10652986 0.10379961 -0.10555361 0.11215813 -0.5683382 -0.32056424 0.3849875 0.37361243 -0.46149457 -0.011839923 -0.3155169 -0.09056199 0.6653406 -0.20338908 0.3187482 -0.22020419 0.26118922
345 -0.046888795 -0.07335845 -0.03593285 0.105575666 0.03381627 -0.10477726 -0.42470014 -0.737539 -0.11354836 -0.1867144 -0.4067666 0.15623595 -0.24671833 -0.069674395 0.18478195 0.21839966 0.3999999 0.09746284 -0.2455907 0.2248839 -0.27909532 0.35301197 0.028698971 -0.33824357 0.14517723 0.25265715 0.4644674 0.3330351 0.10756147 0.20100233 -0.3368504 -0.2334969 0.5362456 0.12358285 0.049523752 -0.25459102 0.34427088 0.39767364 0.037269153 -0.20517875 0.12636292 -0.3222251 -0.048965838 -0.2779786 -0.10409991 -0.008010455 -0.14138426 0.14041209 -0.12475702 -0.10954246 -0.5216144 0.1390284 -0.16366835 -0.26362383 -0.10224145 0.014744972 -0.21730973 0.3555216 -0.09087822 -0.09072146 -0.14556925 0.06775602 0.1490597 -0.06229384 0.44919848 0.06458337 0.51679623 0.30092794 -0.29431242 -0.14127344 -0.29040673 0.122630596 0.042122386 -0.1875166 -0.107739955 -0.031794537 -0.14230455 -0.34449115 0.043110844 0.2137385 0.0056446563 -0.17177655 0.169812 0.045879908 -0.20695786 0.30059108 0.06899766 0.08888148 -0.08144617 0.28872117 0.08982439 -0.055750497 0.083973706 0.2883103 -0.2737402 0.095173545 0.24174985 -0.12426723 0.30184826 -0.34803295 -0.18566719 0.020434178 0.22146578 0.039518833 -0.15186116 0.3566164 0.46853507 0.5866181 0.23860814 0.04933434 0.06913038 0.40168458 0.21990594 -0.31021208 0.24286206 -0.39707908 0.027900314 0.20046905 -0.13395123 0.18607162 -0.12958983 0.22040229 -0.26723108 0.3884385 -0.21426313 0.11004265 0.09787406 -0.42983973
75 0.08071172 0.2039658 0.0772714 0.07092826 0.016389685 0.08639787 0.0020841588 0.22758465 0.059604634 -0.14116114 0.04080862 -0.0039437166 0.25560895 -0.105983265 0.11171123 0.34961832 -0.035460778 -0.07897002 -0.118085176 0.22415033 -0.00086103624 0.042342346 0.010963703 -0.027446307 0.15527949 0.016813848 -0.2039202 -0.24948013 -0.13405557 -0.03416659 0.14190073 -0.003688276 -0.08776713 -0.19405301 0.050890774 0.025850719 0.06376997 -0.035599627 0.23297346 -0.29172787 0.16773301 0.03816679 -0.11976452 0.13836457 -0.004289637 -0.021809004 0.14801921 -0.11166774 0.011731356 0.13883413 0.021420509 -0.045187667 -0.052295033 0.44227207 0.30570307 0.35619485 0.07269189 -0.39020833 -0.13713515 -0.5693555 0.26432234 0.39361104 0.021447958 -0.33254045 0.29922402 -0.1671886 0.048331875 0.29267362 -0.13103543 0.19060944 0.14412288 0.020315707 0.14536482 -0.19079375 -0.29779726 0.051713735 -0.100812614 -0.22455901 -0.0058921073 -0.34703156 0.3141458 -0.16470315 -0.13881315 0.025404802 -0.27858803 0.19213617 0.14181066 -0.17018703 0.2648176 -0.16235605 0.28019997 -0.15318693 -0.3198676 0.32507265 -0.39070544 -0.24623735 0.035863806 -0.036589622 -0.104127795 -0.28842023 0.13930248 0.03870236 -0.08189427 0.04451834 -0.053680476 0.24759907 -0.08052541 0.23868178 -0.3147245 -0.02513032 0.17672493 0.016986191 -0.033176634 0.05816168 0.49218842 0.2501275 0.15789746 0.09091909 0.3344358 -0.0037409114 0.028413042 0.012173191 -0.13331579 0.23126635 -0.00032353363 0.059446644 0.36595932 -0.33680838
83 0.027231053 -0.051136706 -0.13574181 0.057462316 0.10622271 -0.12361251 -0.5072381 -0.87886316 -0.12556197 -0.21408771 -0.35568348 0.18251722 -0.30180842 0.016538236 0.15770473 0.25990248 0.33874142 0.039443295 -0.3018922 0.3213451 -0.26434556 0.2854075 0.0023889593 -0.3587915 0.118561074 0.16353744 0.52397186 0.26195946 0.23279591 0.24943872 -0.41494176 -0.23218398 0.5895126 0.22646189 0.10622994 -0.34182894 0.2522762 0.39622837 0.022998944 -0.21802492 0.16475913 -0.38146582 0.0961196 -0.33728427 -0.06541582 0.22290275 -0.035351846 0.2627928 -0.09016235 -0.104941204 -0.5133422 0.17512321 -0.13204946 -0.07985802 -0.061454963 0.07543347 -0.07075273 0.27483004 -0.040106144 -0.16812563 -0.17066248 -0.08363296 0.19560552 -0.08596239 0.5696618 0.2123413 0.49207497 0.31140321 -0.34304643 -0.10522365 -0.17394806 0.03661504 -0.050223257 -0.13939933 -0.24412742 0.020892113 -0.17619838 -0.34138376 -0.09905884 0.29006696 0.048061617 -0.1795034 0.28406134 0.15528856 -0.14596389 0.21585661 0.012129535 0.17082062 -0.027336575 0.28708053 0.23144434 0.14832616 0.04710949 0.32086053 -0.3401015 0.043882027 0.24156234 0.0004871074 0.22230683 -0.38484606 -0.096767284 -0.1626549 0.14077732 -0.07429613 -0.1618883 0.26161787 0.41533953 0.5405012 0.37560728 0.107600465 -0.22702698 0.6068151 0.104717754 -0.33305162 0.28429583 -0.43467823 0.083678655 0.29875273 -0.16938359 0.122525424 -0.118304975 0.28584096 -0.076163545 0.19117278 -0.14145362 0.0009419302 0.28416646 -0.4158241
203 0.06623896 -0.20690402 -0.0824263 0.12686867 0.11750152 -0.13335668 -0.46649474 -0.65268594 -0.127198 -0.2854631 -0.14115827 -0.069966726 -0.18956067 0.0022638761 0.15914273 0.23213725 0.28132012 0.06714719 -0.030959876 0.32562894 -0.27621648 0.5126306 0.04692137 -0.324967 0.105912484 0.008458117 0.337463 0.41156408 0.028573275 0.124687165 -0.2090364 -0.24247712 0.53290623 0.252953 -0.11271979 -0.3897325 0.29679868 0.25147378 -0.07325751 -0.11124325 0.07005404 -0.3080815 -0.07218764 -0.33275372 -0.033057533 0.0718188 0.024068337 0.14104013 -0.31659648 0.13836655 -0.46863702 0.16440777 -0.06488711 -0.026191287 -0.05144581 0.231447 -0.26033446 0.18601438 -0.023016497 0.0066184844 -0.08838685 0.10000572 0.1380349 -0.2040402 0.47843775 0.008429805 0.3346015 0.38710493 0.032446533 0.031859845 -0.1028812 -0.029278329 0.041356903 -0.35828048 -0.236732 -0.10186571 0.034902513 -0.39402354 0.11103187 0.19540213 -0.07293498 -0.3258088 0.18712912 0.074122444 -0.10757304 0.1413104 -0.0070758807 0.24723881 -0.089514196 0.34393388 0.117685 0.06515175 -0.1544735 0.17948933 -0.18709151 0.23935187 0.2954952 0.057396594 0.3216336 -0.4335713 -0.34197602 -0.068667114 0.31980824 0.03923352 0.019123916 0.3202768 0.13319543 0.59829426 0.3070563 0.26145816 -0.03527119 0.37091044 0.051824953 -0.44041827 0.087792866 -0.35163912 0.038107965 0.30842954 -0.12740047 0.14767815 -0.035021905 0.12860356 -0.13800575 0.22579166 -0.17868155 0.09993409 0.103302464 -0.20695244
78 -0.43227842 -0.25623015 0.46577317 -0.3695101 0.19683857 0.08162977 -0.6926723 -0.46659768 0.09434448 -0.7359583 -0.09866229 0.016814753 -0.5939445 -0.17901658 -0.14904504 0.28637838 -0.28563917 0.24326769 -0.10560828 0.14028557 0.20551707 0.48739213 0.20174687 -0.22709039 0.2124509 -0.008130922 0.41599733 -0.55168045 0.05275067 0.25913945 -0.2410111 -0.10060896 -0.3336771 0.63295555 0.19714564 -0.4260038 0.14373519 -0.15838577 0.22838834 -0.026992751 0.20762041 0.44861877 -0.29517856 -0.4705871 0.19662678 -0.26118234 -0.45728266 -0.20352091 0.24950722 -0.088369265 -0.11234017 0.06435954 -0.2409353 0.113047875 0.1755408 0.46617657 -0.12218277 -0.075020194 0.115743235 0.09305234 0.053218395 0.09444746 0.32547638 -0.16896902 0.23707983 -0.2739195 -0.20556547 -0.49831992 0.13053022 0.1670653 -0.017791914 -0.025620632 0.06510808 -0.22445548 -0.08264347 0.28943068 -0.16500765 0.018086147 0.32128015 -0.2970193 0.22764832 -0.3175127 0.11196196 0.12452645 0.42074543 -0.09500614 -0.01837145 0.07229617 -0.18766338 0.51126957 -0.123712786 -0.02799603 -0.027881296 0.44526455 -0.2730988 0.013212287 0.28909412 -0.31836116 -0.23518543 -0.26145086 0.08490106 0.20693108 0.016401112 -0.21879788 0.37165815 -0.18956889 0.33560732 -0.19108145 -0.5032895 0.35783213 0.3917874 -0.19783048 0.049778704 0.11458613 0.050936628 -0.19754311 -0.007624276 0.49604666 0.028392954 -0.3381053 -0.31728247 -0.030945545 -0.21098986 0.3648398 0.66280735 0.07599552 0.15955158 -0.23621038
418 0.120859645 -0.035010606 -0.12292343 0.16017893 0.20320903 -0.12421814 -0.44017234 -0.6864728 -0.011977733 -0.16617937 -0.15998116 -0.03721087 -0.15149502 0.057115927 0.024527151 0.27950108 0.26575267 0.022559278 -0.2099213 0.25860196 -0.2743965 0.49279416 0.2324356 -0.35559538 -0.02054502 0.103134364 0.42767173 0.19151536 0.09511026 0.10559132 -0.2906129 -0.3261455 0.636502 0.16557077 0.026375625 -0.3924956 0.28895923 0.3720511 0.057929795 -0.17203555 0.14934157 -0.29582107 -0.017901503 -0.19058457 0.010493249 0.0573552 -0.038477056 0.17740065 -0.21801323 0.13518643 -0.4293233 0.17239816 -0.0760308 0.13468233 -0.10803375 0.36538488 -0.2834616 0.2971056 -0.086470306 -0.06226833 -0.06849674 -0.019645471 0.29015374 -0.10052526 0.46710154 0.010130728 0.2616124 0.18112344 0.010633108 -0.13300127 -0.28094798 -0.2053047 -0.005091162 -0.24956356 -0.29124168 -0.11359308 -0.13100037 -0.3653192 -0.05378726 0.18439858 -0.21191017 -0.34783152 0.21799609 0.10650777 -0.15936373 0.18951222 -0.055532243 0.17022519 -0.31464833 0.4334898 0.055829052 -0.07566401 -0.26608214 0.047279097 -0.23782018 -0.027377866 0.3087574 -0.04565577 0.37214702 -0.26974145 -0.2639563 -0.22419357 0.38839096 -0.094776876 -0.046536673 0.3268398 0.25708938 0.58706367 0.30392897 0.082192264 -0.06615714 0.4265435 0.04157706 -0.5913431 0.17942305 -0.28094798 -0.035854217 0.23943798 -0.08608428 0.17427652 -0.12868258 -0.00015544413 -0.06976011 0.29100323 -0.10994724 0.026227338 0.3016354 -0.14672695
346 -0.11887204 0.42839733 -0.15157788 -0.5541229 0.32324135 0.49205777 0.3026399 -0.26422676 0.15311468 -0.37304884 -0.0816185 -0.22996168 0.15349068 -0.56569785 -0.18567969 0.54623353 0.50705606 -0.41153198 0.72990483 -0.46872866 -0.5093936 0.34796494 -0.0534093 0.070096396 -0.19176261 0.11691682 0.7654043 -0.5889841 1.057788 0.025118893 0.4110843 0.02262527 0.105211645 0.40665218 -0.13772704 -0.03329636 0.20212716 -0.11153445 0.37524435 0.5109371 -0.06362075 0.47075504 -0.21117133 -0.30927706 0.19595264 0.24100289 0.1522902 -0.03595229 -0.05134439 -0.35746062 -0.1849397 -0.38327312 -0.16258596 -0.24808356 0.3264843 0.17438388 -0.02744382 -0.38198403 -0.4838275 -0.94742846 0.45042378 -0.027410796 0.5124058 -0.39006516 -0.44231713 0.044800732 0.35910198 0.2676103 0.59678763 0.61233705 0.07551038 -0.16544303 -0.08031326 0.36213762 -0.41200176 0.10013694 -0.6386737 -0.21100435 0.09930831 -0.12811759 0.14842427 -0.20279016 -0.18733658 -0.07580748 -0.024202634 0.009475715 0.34707722 0.06317518 -0.4439137 0.18920875 0.55533075 0.037225995 -0.33482346 0.42045754 0.4386222 -0.10568519 -0.061201908 -0.073973894 -0.4319774 -0.4144218 -0.4467375 0.16273236 0.24973887 0.28869408 -0.39245486 0.4942175 0.2786992 -0.2534204 0.06806911 0.1608336 -0.18310887 -0.112729535 -0.115095 -0.11168635 0.14781389 -0.6113629 -0.29696804 0.3468708 0.24040464 -0.4640031 0.010343949 -0.44475126 0.075795464 0.5767753 -0.2757505 0.32825613 -0.24713744 0.13359992
386 -0.0684108 0.3108717 0.0068238764 -0.5619409 0.30049807 0.45191094 0.08483657 -0.3574939 0.04330354 -0.23830959 0.114376426 -0.22312829 0.2582116 -0.42070237 -0.23791516 0.5335922 0.61469984 -0.31548044 0.5597578 -0.47608644 -0.5384679 0.30630818 0.2283629 -0.101327606 -0.18997474 0.1713787 0.6485322 -0.44685537 0.97722626 0.020664651 0.2810917 0.052901752 0.07532406 0.41172945 -0.09737882 -0.10952009 -0.035813667 -0.06949313 0.333081 0.4103877 -0.018645175 0.31245723 -0.12602912 -0.3200927 0.1318303 0.212305 0.067651875 -0.048081484 -0.019354763 -0.2165218 -0.17258339 -0.42632893 -0.35012826 -0.072618455 0.3799143 0.06303693 0.089749545 -0.42908147 -0.44310582 -0.96723 0.37468 -0.095808424 0.48851293 -0.3974605 -0.3722256 0.15081307 0.14142692 0.28882617 0.65571934 0.6587869 -0.031691194 -0.13349462 -0.07708871 0.4534913 -0.3550251 0.3166656 -0.5618212 -0.18658029 -0.08342914 0.09263545 0.012655607 -0.21648249 -0.30815455 0.05272834 -0.04536727 -0.16566949 0.32851827 0.0087527605 -0.3959154 0.115742154 0.44470295 0.08735638 -0.41300496 0.30733958 0.39539734 -0.30130807 0.08740121 0.08645791 -0.5251886 -0.24423133 -0.31328896 0.13502912 0.2113519 0.23152544 -0.43928126 0.46434167 0.33384308 -0.23255831 0.009519967 0.14294901 -0.011872631 0.058952782 -0.04780585 -0.13229603 0.17749685 -0.44842172 -0.35569674 0.32809684 0.19241332 -0.41766 0.14912829 -0.40124208 -0.027780777 0.5643965 -0.06577619 0.30985686 -0.2810937 0.2765026
32 0.12291593 -0.17744514 -0.05258543 0.11049379 0.044266388 -0.05072052 -0.40477398 -0.76879317 -0.2605949 -0.20498966 -0.2720318 0.16893263 -0.22225063 -0.03958908 0.17149068 0.24287166 0.43091226 0.07612371 -0.22434328 0.16219832 -0.27273592 0.45386997 0.08661986 -0.3408684 -0.009961625 0.18985346 0.49031097 0.3765288 0.06049463 0.3101458 -0.31750798 -0.32966158 0.4571608 0.20255709 0.09624219 -0.27533892 0.3039193 0.27232155 0.13649824 -0.32249808 0.19063008 -0.35585296 0.08858307 -0.2036289 -0.18501012 0.14057896 -0.1290457 0.047229208 -0.16916071 -0.007597679 -0.61288536 0.13822553 -0.14297473 -0.2235538 -0.2401749 0.1065872 -0.06337068 0.33897713 0.003915708 -0.13214098 -0.12122403 0.05220659 0.21934883 -0.18580703 0.44309306 0.116866186 0.45721355 0.31677985 -0.29757467 -0.19694716 -0.20461202 0.1364602 -0.0090530645 -0.043815315 -0.20018993 0.021539941 -0.1436096 -0.33020854 -0.028247783 0.44389808 -0.043592185 -0.31338227 0.1779341 0.31100965 -0.41354728 0.28465697 0.009279649 0.10381436 -0.017695881 0.44121933 0.14680308 0.045542408 0.0072505074 0.28235495 -0.32606 0.065694325 0.24382299 -0.1125355 0.197424 -0.3283266 -0.14710954 -0.008311068 0.17260462 -0.068458945 -0.0960887 0.34991112 0.5020663 0.5265124 0.21161924 0.04336599 -0.045414448 0.46663055 0.19324756 -0.37685993 0.10460533 -0.3184837 -0.01879962 0.24032512 -0.1359305 0.17331988 -0.047818847 0.16902798 -0.17165054 0.39245978 -0.2632559 0.20044333 0.15036479 -0.36647516
393 0.112083726 0.18394381 -0.069457896 -0.06409485 0.07351454 0.029394282 0.013829331 0.0874155 -0.009806324 -0.24735725 -0.13581476 -0.024066996 0.23166761 -0.07194174 0.17066754 0.35305595 0.01000604 -0.03473512 -0.08201334 0.35741362 0.008021388 0.01511839 0.056717634 0.1032484 0.14864902 0.07371174 -0.29770377 -0.31083763 -0.082365796 0.0065691676 0.27056828 0.03191453 0.02209786 -0.11796584 0.024325453 -0.071744405 0.0074741943 -0.12584658 0.24509278 -0.27747127 0.1863611 0.12518917 -0.13128644 0.12447818 -0.09598861 -0.10158458 0.22866093 -0.023106055 0.08457673 0.09495635 0.03525923 -0.11552355 -0.08542902 0.43336195 0.34373802 0.4169894 0.10676289 -0.4537319 0.044878617 -0.47864664 0.20870268 0.35678816 -0.02403089 -0.3441902 0.31183144 -0.05749137 0.030096592 0.27261305 -0.10852722 0.0018265288 0.1947677 0.033108603 0.13200445 -0.07662393 -0.3276269 0.18135747 -0.07379591 -0.04996761 0.12889759 -0.3975648 0.28640538 -0.08540266 -0.115478456 0.039321363 -0.35644168 0.24704722 0.113255434 -0.25999427 0.21112207 -0.05245116 0.22482586 -0.31414092 -0.2554839 0.35717437 -0.36496547 -0.286186 0.058463633 -0.12385673 0.0052541546 -0.30621204 0.044121224 0.020659387 0.03929423 -0.023854183 -0.1771003 0.16744305 -0.00039269216 0.1426574 -0.1840308 0.0060316054 0.10335791 0.15816377 0.008841482 -0.1143267 0.5379408 0.28930992 0.1698313 0.09828003 0.4437755 0.13120118 0.039416596 0.040666595 -0.09834108 0.14579237 0.058497816 0.16511832 0.3498267 -0.3168217
380 -0.26832712 0.119895495 0.18950278 0.05937487 0.32341158 -0.15510169 -0.37778777 -0.7004638 0.20596787 -0.0980256 0.28671628 -0.25129408 0.19859633 0.004451134 -0.17009449 0.10259147 0.012190912 -0.2707674 0.19275127 -0.07801452 -0.3385031 -0.04192288 0.28345278 0.047743056 -0.04219491 0.3516296 0.4676649 -0.18148755 0.38269183 0.30597737 -0.40851507 0.037252583 -0.060338892 0.09133071 -0.363814 -0.48136297 0.37127 0.09013052 0.47694516 0.0041777315 -0.040558886 0.28954333 -0.060565937 -0.34939027 -0.009959884 -0.28474763 0.01769738 -0.0015714199 0.039051343 0.071361095 0.05250311 0.043582577 -0.14941436 -0.008261656 0.24104549 -0.32337654 0.026942765 0.18219456 -0.21867482 -0.12850589 0.20939705 -0.17458947 -0.41790837 -0.11327323 -0.1450111 -0.008877267 0.11066352 0.37908202 -0.1526196 0.20328093 -0.14156233 -0.27735403 -0.0350931 0.055975452 -0.061656713 0.2372999 -0.030797169 0.27976358 -0.063714355 0.06584064 0.06769546 -0.03212331 0.3481072 0.42459136 -0.3383384 -0.057125308 0.49634945 -0.17676324 -0.07734979 -0.046044376 0.46663082 -0.40841156 -0.3410158 0.7766748 0.28904197 -0.029902764 -0.24647447 0.70565957 -0.27857563 -0.074793346 0.083483644 0.07588941 0.13408427 -0.114057146 -0.18347773 0.63099 -0.1825061 -0.023362651 -0.45045534 -0.06359393 0.23872513 -0.043221407 0.06361676 0.1152226 -0.13307452 -0.34780934 -0.013540946 -0.083333336 0.121663764 0.18744335 -0.1325332 -0.22334504 0.07298944 -0.031168222 -0.03545342 0.31514803 0.058478594 0.39554498
280 -0.122391395 -0.033710778 0.09339663 -0.012165143 0.30074343 -0.18886481 -0.5268227 -0.6771821 0.093057714 -0.0902478 0.5128039 -0.40518743 0.19874555 0.19429755 -0.17516755 0.32464626 0.19088574 -0.35546255 0.31648368 -0.06922489 -0.16597967 0.008787209 0.19576697 0.086345226 -0.081200264 0.42550862 0.25693056 -0.19106619 0.39963922 0.27898216 -0.55909574 0.039362088 0.054048844 0.16414136 -0.37843496 -0.2982186 0.3842841 0.15414298 0.31287184 0.05437589 -0.04291812 0.10823333 -0.23923324 -0.3993963 0.064084254 -0.3382855 0.2208367 0.07115154 -0.049004644 0.073929675 0.013418462 0.018769082 -0.39947286 -0.0021245899 0.10905376 -0.23117279 -0.04520057 0.111614525 -0.36806583 -0.34281266 0.1311099 -0.24656744 -0.49284297 -0.028692331 -0.1513392 0.06339273 0.11052667 0.45901608 0.09313984 0.21839511 -0.30302364 -0.20813815 0.035971113 -0.1302809 -0.10836689 0.26606905 -0.03036055 0.2547528 -0.08394788 0.19883586 0.14713116 0.044650383 0.22105017 0.27297294 -0.28756455 0.05025457 0.23829246 -0.12501825 -0.0015736334 -0.12120768 0.3320859 -0.23116747 -0.29300842 0.6468481 0.22726773 -0.18409511 -0.2316438 0.53235626 -0.49267843 -0.12512706 0.2233563 0.20977 0.2990359 -0.28357214 -0.16669643 0.56700724 -0.018727582 0.0841698 -0.3917416 -0.04534768 0.20300572 -0.18756856 0.053100135 0.23182675 0.02129426 -0.57380116 -0.011746659 -0.1492727 -0.0034751592 0.3592217 -0.14505643 -0.3234927 0.07209872 -0.046231788 0.013121087 0.41760275 -0.11439431 0.3433053
133 -0.31272045 0.08895904 0.17662811 -0.7362572 -0.41569898 0.7787364 0.7027814 -0.13343969 0.4360548 -0.83998823 0.21394753 -0.12584561 -0.20611513 0.1775169 0.8047392 0.96893245 -0.2779841 0.14435177 -0.020152947 -0.004100861 -0.11470302 0.24870288 0.33819017 -0.3834784 0.87332165 0.033992715 0.25638223 -0.35026115 0.5008195 0.115620404 -0.22110508 -0.39404958 0.5470949 -0.32248786 -0.034238957 -0.12712388 -0.025470879 0.3832114 0.34370887 -0.14266972 0.052360885 0.017480586 -0.028659837 -0.44136447 -0.42122167 -0.27661017 0.29116917 -0.25627884 0.5135068 0.14407746 -0.31306955 0.45418692 -0.8032965 0.2557753 0.69144994 -0.56821394 -0.07563932 -0.18398006 -0.024288706 -0.2967438 0.5037703 -0.2543654 0.43713138 0.1111478 0.42350218 0.42180368 0.16016479 0.45173982 0.24383485 -0.42105332 -0.25289237 -0.29590362 0.32347775 0.008095041 0.46144837 -0.12745792 0.011214468 -0.047979552 -0.100680366 -0.51596254 -0.63246214 -0.6623855 0.20747805 0.07452163 0.26394632 0.017699275 -0.13904789 0.39663553 -0.040241804 -0.4657841 0.55995816 -0.37338862 0.306706 -0.18433061 -0.31467417 0.14194286 -0.28287536 -0.0708145 -0.17832616 -0.35899597 -0.6716767 0.3628428 0.7791172 -0.36885512 0.21187904 0.31093642 -0.025091933 -0.08286248 -0.5252727 0.16927493 0.64078754 0.15358892 -0.061560113 -0.36801454 -0.5300189 -0.3487278 -0.12132319 -0.080767915 0.43205902 0.48999918 0.048147164 -0.061644457 -0.19987756 0.49643242 -0.17572002 0.21643569 0.45349705 0.2740494
358 -0.25400293 0.23161267 0.07939921 -0.7586793 -0.75058246 0.06289056 0.2423768 -0.6396466 0.27317244 0.18643107 0.6641679 0.4952676 -0.07099795 0.35323912 -0.054532714 0.080816135 -0.09841165 -0.3063474 -0.80813205 0.21696724 -0.9740269 0.4676919 0.05746327 -0.6363645 0.34133774 1.4163991 0.5611066 0.1302369 1.2957736 0.66521 -0.44408053 0.002724066 -0.19530667 0.0054981154 0.6841088 -0.38075095 -0.30951232 0.39308882 0.3471996 0.21413665 -0.43955484 -0.07087932 -0.256896 -0.14580707 -0.50086945 -0.26385275 -0.021784045 -0.14885853 -0.480606 0.10945479 -0.04691261 0.16153263 -0.58549976 0.42887205 -0.07752601 0.29666224 0.0010973176 0.73486775 -0.023558827 -0.3242998 1.0671275 0.95172846 0.50633365 -1.3364028 -0.34442502 -0.098236 0.27184576 1.0589848 0.71905875 0.7990496 -0.31182683 -0.1673056 -0.6494531 0.3742998 0.40163267 0.14276636 0.12365832 0.4858423 -0.46053606 -0.21009602 -0.055758443 -0.42134324 0.015740946 0.37092006 0.08365582 0.47075865 -0.7139711 -0.25578263 0.1962588 0.026590684 0.37094858 -0.73826903 -0.0038691517 0.86552113 0.14878307 -0.15346676 -0.16173126 0.2938562 -0.050308168 0.043018647 0.48275837 0.07686285 -0.15918867 0.66522044 0.2818791 0.24972044 0.06900422 0.1277445 -0.10651406 0.11228829 0.29533002 -0.58039397 -0.11501632 0.15990263 -0.27493224 -0.36013603 0.45650226 -0.2428233 -0.7847403 0.5375056 0.025344018 -1.2630497 0.28730005 0.45499548 -0.548536 -0.50916535 -0.20602958 -0.3048536
137 0.18279402 0.073577024 0.23182783 -0.26573417 0.11819256 -0.15860796 -0.1050311 -0.1653905 0.18694343 -0.26853365 0.089748174 0.26601356 -0.1076503 0.30162317 -0.33120003 -0.3305448 0.0065433043 -0.087439165 -0.2482589 0.21996315 -0.5004739 0.34818053 0.34030655 0.024708655 0.0517888 0.46657252 0.28543535 -0.06544883 0.37378913 -0.20329203 -0.14135328 -0.11674802 0.16457388 0.17535673 0.17538574 -0.25728604 0.05302441 0.2824738 -0.13556589 -0.24485369 0.15932557 -0.40883636 -0.15935963 -0.11071633 -0.15960948 -0.24384043 -0.0261638 0.18333179 -0.018598152 0.17551921 -0.5637417 0.14383207 -0.20272261 0.15361683 0.10096355 0.2380256 0.085443914 0.51668984 -0.02779568 -0.22816603 0.16410322 0.2645469 0.02550243 -0.20480537 0.44912797 0.19664155 0.28822583 0.088128775 -0.49859864 0.24500641 -0.4646156 0.20300119 0.093634486 -0.2723665 0.031228257 0.2185133 -0.09044176 -0.46719897 0.17044787 0.43377325 -0.34230477 0.123628296 0.13638486 0.2806614 -0.32516462 -0.20882829 0.1441163 0.23976353 -0.15774302 0.3717551 0.14713986 -0.13837616 -0.3288074 0.0927994 -0.10953899 -0.28469443 0.28068018 -0.11839815 0.040902045 -0.3481822 -0.39601997 -0.05364536 0.29163516 -0.40411213 0.64199144 0.6621428 -0.017476501 0.47412896 -0.12427377 -0.056256883 -0.1501446 0.33710712 0.23257278 -0.17584164 0.30916572 -0.6553895 -0.11719754 0.06733393 -0.027380057 0.46396527 -0.12376545 0.16090368 0.16112304 -0.14641407 -0.2443014 0.54194504 0.040831804 -0.082724996
487 -0.17416997 -0.334149 0.3107492 -0.048692103 0.35990882 -0.17098358 -0.38367224 -0.787649 0.14515722 -0.10190767 0.4401437 -0.10681448 0.18901677 -0.003696165 -0.12150911 0.14966762 0.04870097 -0.36100027 0.2630949 -0.17040245 -0.08086895 0.04889889 0.28384602 -0.10094438 -0.2130403 0.37495837 0.29225644 -0.12265697 0.37762138 0.4058944 -0.53989106 -0.09606638 0.10213311 0.17816424 -0.40787375 -0.080704555 0.2065994 0.08636912 0.1692815 0.032551587 -0.031563267 0.040781073 -0.27241343 -0.4924642 0.11095857 -0.21396126 0.23874192 0.0949346 -0.057860035 0.11455221 -0.031579845 0.075424634 -0.19012946 0.16225217 0.29790518 -0.4368341 0.09034814 0.21168683 0.14611214 -0.33494347 -0.008830118 -0.060796164 -0.23157802 -0.14255036 -0.012888624 -0.36068118 0.06658107 0.36685827 0.011358163 0.37192324 0.007868619 -0.37030828 0.20804086 0.04675525 0.030332074 -0.064484574 0.15063372 0.28225267 -0.12825905 0.22876194 0.09503523 -0.14305831 0.32865125 0.36735725 -0.26727477 0.020586452 0.29199213 -0.034365736 -0.0845788 -0.11134374 0.23557575 -0.28778812 -0.3064685 0.63207597 0.15166686 -0.106287256 -0.20973289 0.46988422 -0.2954741 -0.26 0.017704686 0.11173355 0.3981251 -0.30955142 -0.24704793 0.3316624 0.05840963 -0.13773493 -0.290543 -0.243682 0.046011534 0.05443444 0.10347485 0.17442535 0.15168978 -0.278466 -0.26526868 -0.22214948 -0.043803845 0.2758802 -0.12681606 -0.38946912 0.02071491 0.024249041 0.2316983 0.47937927 -0.13656211 0.4202353
473 0.16143434 0.0854855 0.28966668 -0.29335737 0.005225533 -0.18761493 -0.20367552 -0.046068326 0.23898998 -0.29474226 0.24964592 0.21130605 -0.09160584 0.33439997 -0.2746394 -0.20120555 -0.0012647505 -0.03336873 -0.17680585 0.20203958 -0.5323145 0.41946256 0.25697222 0.043880526 0.19509621 0.4472229 0.40641028 0.23375379 0.35764712 -0.18814974 -0.2922781 -0.1840404 0.13326073 0.08624666 0.18904114 -0.3448413 -0.10302068 0.2644556 -0.2395934 -0.13618463 0.13830368 -0.35645574 -0.22765647 -0.15498671 -0.13536917 -0.24530712 -0.14563806 0.11938421 -0.07946429 0.086471625 -0.52168304 0.08298906 -0.18431997 0.10720857 0.10198021 0.109396316 0.12433534 0.44156227 0.0065774056 -0.2730714 0.071454905 0.31405884 0.103724495 -0.20794353 0.4416569 0.2130309 0.47825646 0.17305525 -0.45588323 0.018547053 -0.43618754 0.20925042 0.24416286 -0.16164993 0.185459 0.30726197 -0.06512746 -0.42173082 0.36041418 0.3873502 -0.20405474 0.08512963 0.23687428 0.26407903 -0.4415531 -0.106521904 0.113517284 0.19537671 -0.17208637 0.28888938 0.15215619 -0.19004181 -0.43000567 0.067734405 -0.11214363 -0.24977227 0.2695205 -0.06791808 0.023100981 -0.43640995 -0.3316896 0.002103135 0.14609048 -0.239386 0.5840926 0.8057293 0.004413195 0.46800098 -0.0062016696 -0.12106506 -0.29121488 0.31967118 0.12260741 -0.12985127 0.2558304 -0.514187 -0.16913728 0.17637 -0.024123978 0.4200659 -0.06897494 0.050305642 0.09050529 0.011379207 -0.28373775 0.6175431 0.021342428 -0.035428077
