478 128
188 -0.009379643 0.016454961 -0.11729696 -0.15318927 -0.056121342 -0.051833197 -0.3712921 -0.1063963 0.0760562 0.42754436 0.15477718 0.2569202 -0.052636478 -0.1605602 0.23961787 -0.055613145 0.22707282 -0.1661773 -0.13973472 0.27134177 -0.2408808 -0.20925781 0.11218988 -0.1463522 -0.20873651 -0.04596359 -0.05434615 0.13537346 -0.026493544 -0.24124318 -0.09133709 0.011211926 0.21722566 -0.025355853 -0.1885997 0.08156869 -0.11594945 -0.124258526 0.14317651 0.20215507 -0.14809924 -0.24789861 0.24459113 -0.040508807 0.36603245 0.14679195 -0.18757851 0.019905947 0.26168755 -0.16182941 0.025484728 -0.28316382 0.50529295 0.30975026 0.39718533 -0.090793125 0.18458351 0.105772875 -0.18176392 -0.072966285 0.0021317045 -0.37878063 -0.20208676 -0.35475916 0.24197759 -0.10378052 -0.38723612 -0.11184561 0.13097247 0.05547253 0.09185155 -0.10808782 0.38276485 0.0012143556 0.08221062 0.22293364 0.48158708 0.023776196 0.08014972 0.35125774 -0.10251948 0.15074831 0.13779275 -0.21122661 0.138678 -0.34501296 0.097259715 0.039963808 -0.017472154 0.08015059 0.27812347 -0.090781264 0.058336537 -0.1739124 0.0103605 0.31895152 0.028981479 0.17549615 -0.24530683 0.3919771 0.0020776943 0.10897995 -0.038204253 0.31654704 -0.06869784 0.30983704 0.2724656 0.33077157 0.19692321 -0.025549842 0.41735765 0.028047383 0.16967745 0.2685669 -0.10536575 -0.014957916 -0.023809744 0.36654076 -0.057652377 0.121917285 0.16296837 0.10112041 -0.047924142 -0.15639283 -0.42610195 -0.531029 -0.19807626 -0.2038394
359 0.1398483 -0.1209678 0.049987383 0.032648522 -0.07390655 -0.056312513 -0.23081166 -0.047883604 0.095700115 0.45308682 0.16350128 0.22903772 -0.05341962 -0.18249902 0.27993515 -0.040509768 0.36604956 -0.11929068 -0.23329481 0.17776485 -0.32175434 -0.14312088 0.14086837 -0.06279507 -0.2875293 -0.13639076 -0.058089763 0.115862 0.028056925 -0.31195748 -0.17375746 0.081260316 0.22058949 0.009537791 -0.1256725 0.012359431 -0.021714713 -0.08494144 0.1855711 0.14266951 -0.15497994 -0.16985802 0.36221758 -0.049224146 0.33754835 0.124933265 -0.18435799 -0.017338889 0.25763565 -0.16907461 -0.0072470773 -0.34658855 0.55734265 0.24290864 0.50006545 -0.033283256 0.1290144 0.091044284 -0.12864938 -0.04635194 -0.0012555474 -0.21919975 -0.21121232 -0.26517287 0.21461356 -0.051311422 -0.36492312 -0.14111194 0.010491675 0.04721902 -0.09074128 -0.07501976 0.331664 0.051446665 -0.057641417 0.40043288 0.44028518 0.09988544 0.13520314 0.41252542 -0.22608075 0.20250043 0.13422766 -0.10062254 0.21499316 -0.30569553 0.05993113 0.020695174 -0.07128138 0.10826937 0.3515876 -0.16019434 -0.018624282 -0.14665274 -0.00843077 0.34254998 -0.013441096 0.27049142 -0.32398093 0.4914567 -0.057306703 0.09433444 0.057855174 0.27531803 -0.043904915 0.45857692 0.16905592 0.29426864 0.13173892 -0.08066858 0.3420819 -0.007641654 0.13848457 0.22028668 -0.15162055 -0.14352357 0.01129289 0.24912716 0.005734942 0.08795275 0.14175747 0.08654316 -0.10647855 -0.13250576 -0.4738885 -0.49310055 -0.22223727 -0.14106984
448 0.031713303 -0.11396224 -0.019548297 -0.12082513 -0.10830465 0.001097868 -0.4567671 -0.08394351 0.15420434 0.3640067 0.15043999 0.25191665 -0.034825686 -0.14309359 0.28969905 -0.13788721 0.20794354 -0.1396153 -0.29798353 0.20507538 -0.08921873 -0.09447627 0.16915175 0.006788254 -0.2260842 -0.10814521 -0.09199211 0.10149065 0.0042868312 -0.19849014 -0.023396213 -0.044075605 0.32092622 0.019378534 -0.09665088 -0.051489905 -0.073272884 -0.07355455 0.24083674 0.32092714 -0.17793186 -0.24168801 0.30894572 -0.07139324 0.3951288 0.17857683 -0.24070005 -0.123855025 0.31470338 -0.011450017 0.01962382 -0.37573943 0.4757807 0.31618607 0.40552315 0.024554927 0.14574157 0.13388024 -0.14668943 -0.16746415 -0.046389896 -0.33761212 -0.22366482 -0.34431276 0.26121745 -0.101514935 -0.29676408 -0.08537823 0.14231333 0.020097917 0.13824043 0.026989799 0.31630114 -0.11676361 0.03130179 0.25782916 0.3745163 0.14901254 0.15097103 0.4036924 -0.20183603 0.16799891 0.18793567 -0.19322683 0.12017673 -0.29822633 0.15440094 0.11717796 -0.020600777 0.15349548 0.4283231 -0.080415174 -0.0319694 -0.09350647 -0.0823467 0.20877053 -0.112184435 0.16100207 -0.31015998 0.35741147 0.11920369 0.18158948 -0.0015642714 0.22361529 -0.08701976 0.38440764 0.2227803 0.28716755 0.14178436 -0.027214164 0.39200827 -0.028116496 -0.039849143 0.16646387 -0.15509285 -0.09946508 -0.06445203 0.3787527 0.05238429 0.055882297 0.17228287 0.11285421 0.016975492 -0.19398822 -0.44918853 -0.5379145 -0.3271131 -0.15544552
237 0.115323566 0.23240164 -0.0029119356 0.000733776 -0.28124985 0.48593134 0.3119585 -0.11677821 0.30707568 -0.116560824 0.023884227 0.3362322 -0.08351634 -0.03422404 0.27584565 0.16786279 0.27164498 0.061883397 -0.14351161 0.12552083 -0.2455294 -0.043447956 0.23133174 0.364999 0.13965933 -0.091248296 -0.15800808 -0.08238259 -0.091854416 0.028670704 -0.16789567 -0.05841253 0.031458855 0.007058435 0.123838276 -0.2489633 -0.043252304 -0.0004136549 0.23279318 -0.13778266 -0.1071017 0.03191069 0.15488036 -0.076040104 -0.14256984 -0.0038082371 -0.35525557 0.3460288 -0.110008076 0.13581714 -0.0567944 -0.115699135 0.33931792 0.15748201 0.22950636 0.091813825 0.3284126 0.15390141 -0.35847908 0.20261154 -0.46236354 0.0137361195 0.030371293 -0.16787377 0.19507147 0.21384875 -0.31720564 0.2594894 0.088722214 -0.3246804 -0.14730963 -0.23094925 0.10592241 -0.059989512 0.13000964 0.4041971 0.061391465 -0.2908985 -0.08892728 -0.060056996 0.08007698 0.027821733 0.102118075 0.075835265 0.17355642 0.3629705 -0.08480373 0.048518367 0.19223559 -0.016137108 0.32080784 0.28733516 -0.13547873 0.21413222 -0.04366376 -0.13095717 0.0002492781 -0.14516096 0.03906888 0.32855415 0.051213697 0.1184623 0.39849722 0.12774014 -0.1944008 -0.094700955 -0.00037345482 -0.1883552 0.09833425 0.4251383 -0.36498168 -0.1910903 -0.15745357 -0.20943427 -0.17781428 0.35327476 -0.1838734 0.015131928 0.15906473 0.10828491 0.43309715 -0.22314698 -0.14592658 0.40524712 0.076904535 0.024402268 -0.05183608 -0.15016481
8 0.10505494 0.21897097 0.0537772 0.07301441 -0.18134835 0.46543604 0.25753313 -0.08243757 0.31059587 -0.06092462 -0.11447068 0.29930314 0.09103862 -0.17908435 0.11569346 0.08931096 0.3684519 0.0009999591 -0.1963938 0.13879378 -0.20291148 -0.16172987 0.35777 0.30990538 0.21019173 -0.048126455 -0.19366379 -0.18574162 -0.09011586 -0.02990967 -0.0054038586 -0.018738728 0.098355025 -0.04307243 0.046035424 -0.29192522 -0.18946135 0.061308146 0.30050823 -0.20440044 -0.03964753 0.07675371 0.012686389 0.0013944956 -0.04577229 0.06808242 -0.2516591 0.27483296 -0.14089134 0.04837232 -0.23112664 -0.11382631 0.4827857 0.07774483 0.23462573 -0.0076154685 0.2764964 0.014290392 -0.3935804 0.164072 -0.4454275 0.035398822 0.0156769 -0.17946419 0.25996572 0.2330947 -0.2526521 0.2787484 0.10724123 -0.24010684 -0.1671207 -0.19225521 0.08316891 -0.01711239 0.05986284 0.3789057 0.036267333 -0.12085224 0.0712692 -0.10707795 0.15116407 0.0650496 -0.039927546 0.23309644 0.02994999 0.3831103 -0.19787812 0.051166013 0.24835484 -0.036706682 0.4246164 0.11950813 -0.24063815 0.21352023 0.086798735 -0.013861649 0.19311076 -0.16005726 0.07633714 0.26334468 0.14450769 0.15647946 0.32448456 0.25760013 -0.17750578 -0.013928506 -0.049590576 -0.2563536 0.044112533 0.49258393 -0.3158019 -0.20185687 -0.14486909 -0.18535116 -0.1209854 0.48138207 -0.18650083 0.010848501 0.21941657 0.17601672 0.32517767 -0.16873553 -0.22367246 0.41256803 -0.06626344 0.019956382 -0.07703008 -0.16853756
299 0.13322243 0.18216121 -0.02451365 -0.09864602 -0.36277434 0.27630135 0.17370842 -0.21709228 0.44122142 -0.1288904 -0.007359711 0.3546314 0.008339563 -0.1549334 0.18787898 0.10760398 0.20483568 0.027031654 -0.26101288 0.08461248 -0.21790232 -0.17287883 0.28800714 0.4525291 0.23201722 -0.10127793 -0.24158886 -0.08391463 -0.10912725 0.006330102 -0.12274313 -0.020066869 0.22308001 -0.04702809 0.1452737 -0.27192646 -0.051020894 -0.06309381 0.2796189 -0.1323415 -0.08615418 0.035223063 0.053610582 -0.11788537 -0.11954506 0.063834086 -0.25362656 0.38136312 -0.03681154 0.075508244 -0.16273807 -0.008055476 0.41384023 0.10329138 0.1988279 0.045193836 0.3760337 0.07934336 -0.29362813 0.13661566 -0.5000699 0.046696704 0.06237814 -0.17487602 0.20563206 0.11121093 -0.22902171 0.23336281 0.2769908 -0.34257215 -0.20041509 -0.28630036 0.06653197 0.02307427 0.15972386 0.34661335 0.07653193 -0.086576484 -0.15058623 -0.15740378 0.09698324 0.04743097 0.011974097 0.14857319 0.042803265 0.4173738 -0.12890396 0.16026281 0.17716277 -0.034558572 0.4047803 0.20577437 -0.41023925 0.20315492 -0.025698613 -0.10221523 0.044359405 -0.20277637 0.022991221 0.30411053 0.11245949 0.05280782 0.26638594 0.2511399 -0.20040527 -0.16072007 -0.061173577 -0.17205527 0.15122022 0.4839045 -0.38185337 -0.2583381 -0.13086984 -0.114799395 -0.087115645 0.3395006 -0.22742833 -0.014753725 0.12919198 0.08104174 0.4199066 -0.25628272 -0.21892598 0.4609265 -0.041373845 0.069550574 -0.084161006 -0.1936993
215 -0.09001337 -0.071385555 0.069595866 -0.0080621885 -1.0831592 -0.082471505 0.2741633 -0.552067 -0.051261794 0.102010004 0.2907126 0.20524639 0.06356938 -0.12165152 0.08733557 0.13042624 0.70215434 -0.15336186 -0.5959123 0.1711867 -0.12331209 -0.2717705 -0.31615114 -0.37715164 0.08036358 -0.07054272 0.014666775 -0.11311337 0.35778144 0.020962067 0.17720784 0.023654956 0.11121587 0.0056603476 0.29259127 0.18814412 -0.15823703 0.28138423 0.33197612 0.35967135 0.068710625 -0.34508997 0.31871375 0.10774563 -0.16937 -0.29486418 -0.10354689 0.36347407 -0.15619786 0.19506821 -0.28140417 -0.12480925 0.26225665 0.36699936 0.24021433 -0.09882723 0.36700016 0.33056232 -0.048532493 0.03368642 -0.4637612 -0.28082576 0.10579299 -0.24151301 -0.05436125 0.4683112 -0.0043601026 -0.23681976 -0.07592805 -0.03074825 0.31393445 -0.042156227 0.121217 0.06318131 0.011216819 0.09741922 -0.17065783 0.17669915 -0.19620018 -0.12826438 0.075031206 0.18680325 0.14072447 -0.3890103 -0.25088283 -0.09947862 -0.12013087 0.05654334 0.042387083 -0.23438779 0.17122407 0.14092009 -0.13942066 -0.23685189 0.260009 -0.05686186 0.1634382 -0.21795706 0.123926386 -0.34254354 -0.10041476 0.25201848 -0.001148166 0.24240315 0.1728098 -0.07529415 -0.15066877 -0.62129015 -0.034377594 -0.1783508 0.07186601 0.31343836 0.17885472 -0.047874138 -0.24046957 0.260891 -0.32279506 -0.28172755 -0.04381778 0.12421024 -0.19679834 0.6590247 -0.43292877 -0.027069207 -0.2506331 0.07014484 0.01798183 -0.10330957
194 -0.2054276 -0.018612405 -0.013227474 0.033998843 -1.151753 -0.1598634 0.35847366 -0.5698669 0.104963705 0.08790559 0.42776614 0.11511331 0.056889523 -0.066056736 -0.02243889 0.046385363 0.7247366 -0.172954 -0.5600541 0.027711648 -0.03329109 -0.2621967 -0.2696319 -0.39868543 0.0072747227 0.012770624 0.09280959 0.034211285 0.32038373 0.04101921 0.084143065 -0.062913574 0.09160665 -0.03251963 0.29694495 0.04293477 0.037814513 0.33180508 0.34978098 0.33294958 0.070296876 -0.43139452 0.31460765 0.13202585 -0.11886758 -0.4120046 -0.14547531 0.2738556 -0.12788108 0.18276373 -0.2800642 -0.04336575 0.20056804 0.39615035 0.111866206 -0.07370922 0.3070223 0.32510918 -0.070119105 0.044121668 -0.40250835 -0.2683358 -0.061250366 -0.22256558 0.010710387 0.4438644 -0.09693358 -0.115763135 -0.23906642 0.004265072 0.06581724 -0.007185203 0.22180438 -0.017007137 -0.057725027 0.19057125 -0.16926734 0.18466325 -0.22419119 -0.24894693 0.087335594 0.22537823 0.28139764 -0.34291437 -0.19434407 -0.080688566 -0.038136132 0.051530637 -0.021722209 -0.26260275 0.27350888 0.18734023 -0.14553462 -0.29402423 0.17655328 -0.091834955 0.109635 -0.14652602 0.1342804 -0.30554304 -0.07642342 0.37388867 0.037447426 0.21428245 0.15782197 0.013473171 -0.120162345 -0.610503 0.036614526 -0.17336492 0.11551896 0.17809124 0.11648025 -0.080839425 -0.23431924 0.21566387 -0.30570763 -0.37022927 -0.04233396 0.060719587 -0.081490435 0.66896814 -0.39557856 -0.00054273015 -0.25075966 0.050779324 0.045606676 -0.10836375
9 -0.35759503 -0.07468923 0.07881153 -0.05300136 -0.8647371 0.045369435 0.09083317 -0.61240786 0.17841507 0.1241439 0.21787529 0.0986977 0.11615914 -0.16056614 0.017450245 0.047643173 0.36266616 -0.2057182 -0.31036767 -0.014976518 -0.20614497 -0.13092941 -0.0041862875 0.025952553 0.07757545 -0.15022491 0.05501847 -0.21282838 -0.03717112 0.13489045 0.1076804 0.0029869603 -0.16893913 -0.11934159 0.06279804 0.118651435 -0.09390634 0.51666963 0.2804189 0.1405953 0.26042974 -0.24096358 0.20093717 -0.07839418 -0.026144963 -0.20653488 -0.00825859 0.23258033 -0.04093131 -0.05965272 -0.1515801 0.04864732 0.17827997 0.27922323 0.30880296 -0.1356411 0.21610329 -0.044349927 0.19444753 0.24965529 -0.3902356 -0.42270917 0.05409129 -0.06779061 0.067913055 0.06436759 0.07452189 -0.10000497 -0.072221726 -0.10713864 0.028773367 0.2182603 -0.08845253 -0.02757589 0.021913167 -0.2230554 0.008697337 -0.11980613 0.1427947 -0.10393526 0.14539841 0.07927852 0.2684959 -0.2919427 -0.10082653 0.064733356 -0.24934012 0.083417125 0.05914055 -0.08152122 0.10156909 0.10668102 -0.28261304 -0.16663404 0.08734182 0.033083145 0.10825571 -0.39866197 -0.17613344 -0.28343338 0.06064279 0.2273141 0.11001232 -0.035147686 -0.16158777 0.21248789 0.026322236 -0.08049699 0.028821763 -0.07732871 0.07920595 0.0762517 0.12605911 -0.089726135 -0.13444148 0.28575367 -0.11598773 -0.38164222 -0.12580101 -0.05946013 0.07522158 0.2910923 -0.061331674 0.19040011 -0.45961797 -0.062015824 0.0495908 -0.13011196
139 -0.10062397 -0.15176728 0.016645188 -0.019657915 -0.7445104 0.044477537 0.15609278 -0.5207758 0.25859463 0.12292618 0.24487151 0.056135062 0.05162252 -0.022040144 0.013012167 0.16335139 0.33021274 -0.24659419 -0.27564076 0.058090165 -0.27515653 -0.021142473 -0.0325222 -0.13032477 0.09492048 -0.1758325 0.13715638 -0.22499281 -0.09808688 -0.0030524398 0.011869376 -0.027816612 -0.28003994 -0.11283142 0.13511989 0.050970044 -0.06943304 0.5648438 0.3458307 0.3553923 0.42493787 -0.3165535 0.24605286 -0.23182109 0.07171736 -0.28379938 -0.1900476 0.23764656 -0.116684474 0.01561246 -0.16889434 -0.054738 0.02157874 0.3812491 0.3667569 -0.10081141 0.13745663 -0.007543947 0.13670604 0.21508007 -0.38008538 -0.3029109 0.0179762 0.030188872 0.1515769 0.1282333 0.15624359 -0.08321969 0.03848961 -0.13165066 -0.048334643 0.13693693 0.0671025 -0.062271804 -0.06926024 -0.13538541 0.044028185 -0.13158955 0.011232053 -0.22352977 0.03691707 0.19471611 0.15621482 -0.43018958 -0.09735503 0.05261493 -0.28138095 0.094762556 0.09330389 -0.10735678 0.16739343 0.07967858 -0.12710646 -0.24520594 0.20332193 -0.066190995 -0.02362804 -0.3939131 -0.0858228 -0.26202738 0.053079218 0.12411981 0.09729809 0.0712065 -0.04395969 0.08419 -0.04815047 -0.15600187 -0.013487307 -0.08465813 0.011488936 0.117098466 0.03895558 -0.11022016 -0.25451866 0.22246978 -0.08666566 -0.22992653 -0.18710344 -0.009247382 0.023881838 0.2283682 -0.035083942 0.16684806 -0.54613477 -0.05022379 0.09366124 0.081996545
445 0.00425177 0.073193595 -0.13465811 0.117066965 0.105749026 0.09600307 -0.3568045 -0.16081323 -0.026673036 0.23160407 0.3359728 0.14259116 -0.15145297 -0.11303043 0.29218915 0.04564505 0.20450737 -0.22755338 -0.25897503 0.08281439 -0.2223307 -0.21482068 0.23802446 0.097760886 -0.14118072 -0.012830627 -0.102077335 0.020957243 0.23436527 -0.18914878 -0.04742184 -0.055928543 0.2268759 0.095279664 -0.09737663 -0.08201115 -0.029362962 -0.17219052 0.1462565 0.06530326 0.11219971 -0.18837452 0.30607796 -0.21484321 0.2211861 0.10805007 -0.12773672 0.09082398 0.23113038 -0.0302092 0.14095418 -0.24155667 0.74818563 0.40496582 0.3003327 -0.17846344 0.15973799 0.111077316 -0.045267828 -0.240383 0.06438262 -0.29845664 -0.04222988 -0.59466606 0.31056687 -0.058520373 -0.4482456 -0.19492239 0.07677867 -0.0025481111 0.021269612 -0.07945089 0.44174594 0.0676298 0.07169298 0.34446004 0.3248451 0.2391009 0.01724316 0.45066026 -0.34534162 0.25113362 0.060048502 0.05428312 0.20801938 -0.31678757 -0.014963477 0.03950284 -0.09138404 0.12501787 0.06655499 0.07841707 -0.0075323745 -0.27229983 -0.32331795 0.3811897 0.025120027 0.050612 -0.23553476 0.5151467 -0.09040941 0.20115459 0.013758297 0.24258403 0.09078149 0.3590348 0.10739698 0.28899416 0.18883449 -0.17929567 0.3572843 0.044145614 -0.0722658 0.23010626 -0.278755 -0.066484116 -0.029630406 0.22536424 0.005722653 0.08035709 0.113327615 0.11360712 -0.044424273 -0.31129575 -0.5839394 -0.5668826 -0.18631408 -0.19091631
439 -0.12168288 -0.1346549 0.16926175 -0.0093327295 -1.119186 -0.19694382 0.3730527 -0.5671463 0.13636097 0.08710052 0.34388724 0.08948458 0.09366835 -0.13864718 0.12174091 0.05214211 0.7039326 -0.061985742 -0.5581798 0.04660177 -0.12122501 -0.36399457 -0.27323014 -0.41253355 -0.045500524 -0.0007960105 0.014790616 -0.089144714 0.3996489 -0.024734423 0.19781461 -0.04079651 0.009428271 -0.054293193 0.33634862 0.089127615 -0.09243884 0.32347113 0.39285892 0.29708633 0.23465325 -0.26276907 0.33173692 0.1378115 -0.086032726 -0.50203234 -0.14824447 0.18695897 -0.16779892 0.11086549 -0.31874922 -0.16570932 0.2419866 0.33396468 0.11103057 -0.014203487 0.35173932 0.33522683 -0.13364038 0.053236946 -0.38767567 -0.3218529 -0.061929744 -0.3291004 0.068820715 0.59830296 0.04605671 -0.22374132 -0.30832526 -0.07503814 0.2438179 -0.022326306 0.13404754 -0.0065058474 -0.09279629 0.16492355 -0.1541959 0.113478504 -0.24756685 -0.06818025 0.098190874 0.19444178 0.19768491 -0.3525445 -0.21848266 -0.0901899 -0.1269906 -0.053216908 0.06778828 -0.15352182 0.22407763 0.16293296 -0.15103689 -0.3493019 0.19520214 -0.050891418 0.14670868 -0.18029928 0.07330235 -0.35513318 -0.17089625 0.37696475 0.09665277 0.12701663 0.18347538 0.043164697 -0.07733838 -0.6386266 0.020283857 -0.15505959 0.08237089 0.21232945 0.16496824 -0.13706335 -0.14291678 0.34851384 -0.34129208 -0.2444761 -0.109886035 0.12698038 -0.103482336 0.63562196 -0.29532307 -0.097774565 -0.17030102 0.09881842 -0.029691832 -0.15907246
242 -0.09464531 -0.11735754 0.07193746 -0.0009809007 -1.0450279 -0.17589009 0.28379273 -0.5509869 0.13957274 0.20122653 0.40815622 0.12162975 0.14658049 -0.19892031 0.18532705 0.09242826 0.76760596 -0.18328804 -0.54472893 0.11483865 -0.10347623 -0.29036322 -0.3317745 -0.27951577 0.10018643 0.013447444 0.045298483 -0.06916292 0.39863896 -0.0464259 0.106952734 -0.03169397 0.03196918 0.091404125 0.28981593 0.15446092 -0.10614938 0.35684392 0.34333605 0.27312067 0.12414958 -0.38587925 0.3227841 -0.043971322 -0.14718117 -0.48995143 -0.1570029 0.31919986 -0.20749563 0.10310244 -0.20353617 -0.13549952 0.22304553 0.25132072 0.109151386 -0.031578485 0.34860858 0.32483563 -0.045533422 -0.030867672 -0.26376647 -0.26068854 0.08428889 -0.23679084 -0.014420663 0.5742263 -0.052253164 -0.2011788 -0.16831298 -0.08726381 0.23314132 0.038618576 0.19780381 -0.058368754 -0.031006623 0.07410741 -0.055850107 0.19775881 -0.18935545 -0.08037579 0.1395223 0.19255131 0.29068258 -0.28735608 -0.22814834 -0.03341391 -0.16585311 0.011428762 0.114836074 -0.1677729 0.2736939 0.22116613 -0.15953203 -0.26650685 0.23032552 -0.093268424 0.15418015 -0.22653498 0.16044474 -0.3743052 -0.20519058 0.3739803 0.16406634 0.19718099 0.09864971 0.06564988 -0.13131115 -0.6301616 -0.01621765 -0.21735075 0.14544228 0.15927425 0.20815024 -0.1402239 -0.19477041 0.35519788 -0.2767411 -0.32366714 0.00666393 0.10031009 -0.10640768 0.5836073 -0.27561128 -0.10190839 -0.20850487 0.09568577 -0.051999383 -0.13066742
458 -0.13191311 -0.012210326 0.06280911 -0.16131555 -0.7777375 0.06787592 -0.024014149 -0.5753025 0.2590643 0.12750441 0.2311528 0.12456904 0.11093758 -0.036553986 0.096766 0.059224363 0.31137836 -0.18190686 -0.3138725 -0.012919179 -0.22213803 -0.006785704 0.04042028 0.035151564 0.06725663 -0.1837348 0.072826475 -0.2598181 -0.1721518 -0.07654718 0.035196554 -0.0788904 -0.2369505 -0.041517463 0.18688567 0.046404954 -0.24902128 0.47610405 0.25277594 0.13426112 0.2770205 -0.26391226 0.3132286 -0.102864094 -0.06604268 -0.3627253 -0.08169454 0.3088486 0.016222075 0.0669914 -0.21478797 -0.055976752 0.17282405 0.25277585 0.35828552 -0.12835386 0.08444316 -0.045123503 0.22381075 0.24869187 -0.2064638 -0.3817501 -0.12476529 0.037272498 0.109335236 0.1657556 0.19502823 0.01742282 -0.05627356 -0.18531518 0.13477492 0.07061944 0.06337508 -0.01141315 -0.10081078 -0.13591765 -0.045737505 -0.15622295 0.2200389 -0.14832672 -0.042161573 0.15579806 0.24004278 -0.2748757 -0.058383014 0.012970073 -0.11799492 0.018547488 0.16654119 -0.11001801 0.17641352 0.18389866 -0.15664165 -0.27487156 0.12210641 -0.035649095 -0.021136634 -0.39643008 -0.1604336 -0.33122015 0.068327524 0.096086584 0.08581793 0.077039525 -0.2232757 0.1718372 -0.19418223 -0.08600949 -0.095021635 -0.07389926 0.071502455 0.008486623 0.19466048 -0.09420095 -0.24126686 0.28190166 -0.057515096 -0.32922778 -0.20648669 -0.053350333 -0.018963747 0.2500696 -0.0074123642 0.19173978 -0.41173944 -0.05900329 0.035337776 0.016420798
53 0.06630581 -0.1475515 0.016928196 -0.111214414 -0.13736552 -0.17466687 -0.26591456 -0.111072235 -0.012861898 0.36882126 0.08882797 0.20560877 -0.16300051 -0.2328856 0.20105936 0.028697455 0.36016923 -0.27862456 -0.15065026 0.17072363 -0.319145 -0.18880983 0.04940869 0.088112816 -0.36168697 -0.17854606 -0.010953572 0.12262417 -0.013819107 -0.25582674 -0.2564452 0.089400165 0.27477485 0.029008355 -0.19338512 -0.07163356 -0.046273395 0.1038545 0.10857194 0.19512963 -0.17618558 -0.23324701 0.27817613 -0.092595406 0.42019442 0.18025538 -0.17318559 -0.029827083 0.18034337 0.0599285 0.031039314 -0.33683982 0.6202937 0.29181674 0.46500236 -0.055462766 0.22844607 0.17071076 -0.21554504 -0.06474805 0.01970663 -0.30165264 -0.19083321 -0.27228937 0.20804715 -0.19533144 -0.501577 -0.192623 0.18156426 0.015467233 0.0635267 -0.050479975 0.3825027 -0.12818478 0.13621342 0.34028566 0.5441457 0.1547841 0.14628226 0.31379244 -0.13575621 0.046415277 0.03939367 -0.20231864 0.189331 -0.44444737 0.19068982 0.15797888 -0.055865627 0.05856716 0.24219225 -0.14647067 -0.055356834 -0.03295903 0.22383395 0.21214783 0.00751469 0.30358037 -0.27731657 0.15286775 -0.012892797 0.18302202 -0.0724512 0.196431 0.021575551 0.35307226 0.14043698 0.2603243 0.067866996 -0.14006563 0.36642182 0.016754175 0.1331015 0.28897116 -0.1763711 -0.07238736 -0.16540076 0.4462663 -0.022992725 0.16317567 0.12334941 0.023134021 -0.007626826 -0.078979984 -0.26662594 -0.4251701 -0.38287005 -0.109955445
459 -0.1876275 -0.012152124 0.08995221 -0.009452313 -0.7659514 -0.062498707 0.03870943 -0.43849576 0.11675802 0.25242236 0.23697756 0.03248436 0.04639099 -0.06986104 -0.0030492279 0.12328456 0.27257597 -0.2550223 -0.24602957 0.1479109 -0.15220535 -0.07931488 0.037289336 -0.025036333 0.14139517 0.016684808 -0.034501847 -0.19062486 -0.04297083 0.011007865 0.04490456 0.006043765 -0.2268318 0.059457794 0.09186162 0.13527663 -0.19564603 0.48688942 0.24751371 0.21001464 -0.012459631 -0.20425051 0.23515141 -0.24246792 -0.13362573 -0.2457225 0.100963116 0.26573735 -0.07394324 -0.061116327 -0.13322248 -0.085985556 0.11064141 0.1933665 0.19348252 -0.023273263 0.25112146 0.08114287 0.12868537 0.21906157 -0.07103958 -0.31792402 0.031622354 -0.10227168 0.1936087 0.13765283 0.15446761 -0.05713181 0.014699683 -0.20669669 0.10346378 0.20850627 -0.0028709103 0.027232187 -0.046603736 -0.046455473 0.12858737 -0.24826641 0.01551092 -0.022357529 -0.02711745 0.097887956 0.031931184 -0.23021364 -0.050633777 0.06525189 -0.24011089 -0.052318852 -0.026930027 -0.07061995 -0.105530865 0.072744876 -0.175885 -0.17912477 0.107069716 -0.08391714 -0.041983984 -0.38398087 -0.20292921 -0.2783584 0.008405833 0.03347981 0.20799942 0.015160523 -0.27358815 0.11867048 -0.058345236 -0.07669235 0.042800218 -0.06467865 -0.034291625 -0.0660625 0.0037845033 -0.13193575 -0.22945438 0.30138308 -0.09061151 -0.36690924 -0.18484174 0.037002612 0.1358545 0.20423298 0.0016709213 0.114808805 -0.39843467 -0.23781763 -0.064916685 -0.05826634
214 0.0062009585 -0.20377779 -0.099995576 -0.15893789 -0.11820615 -0.019345826 -0.33942693 0.084625766 0.10707378 0.36637673 0.11364495 0.22907513 0.0073385322 -0.1665812 0.2244498 0.009174807 0.30171645 -0.16808486 -0.2037991 0.20460169 -0.35379738 -0.106463805 0.11432518 -0.06267317 -0.16736913 -0.11064461 -0.12915352 0.2716353 0.057364214 -0.25609392 -0.058755536 -0.0053851516 0.2604651 -5.7807825e-05 -0.11804568 -0.039848257 -0.31507954 -0.21735913 0.123692565 0.29806787 -0.20020905 -0.26866415 0.30831832 -0.09874254 0.3446834 0.08807108 -0.16283983 -0.08813044 0.23507267 -0.15776539 0.12887849 -0.4017077 0.5712083 0.31877932 0.3930481 -0.067621276 0.11008584 0.22857898 -0.22919916 -0.21480636 -0.06545049 -0.30825847 -0.19595033 -0.20919909 0.27107015 -0.11433133 -0.3138058 -0.050270766 0.206123 0.09131873 0.13887492 -0.084431745 0.5169215 0.042482812 0.054037303 0.32981488 0.35870254 0.104980044 0.052911703 0.4248376 -0.06998138 0.16910851 0.13162091 -0.14893718 0.2504342 -0.19139983 0.0883455 0.09482907 0.0027207064 0.088657185 0.2561686 -0.26136413 -0.10633722 -0.19158603 0.0931372 0.23500581 -0.07619954 0.23813681 -0.38242924 0.3769834 -0.05902792 0.16212037 -0.039331567 0.31061625 -0.0892433 0.40117994 0.236728 0.300858 0.108326904 -0.1145182 0.38817635 0.026143562 0.17439164 0.23065555 -0.09173927 0.046117753 0.0010934419 0.21558376 -0.007569584 0.017455075 0.21778278 0.09692186 -0.13033727 -0.31366023 -0.38242283 -0.49975556 -0.13955608 -0.2059785
127 -0.16668423 0.14019985 0.5229342 0.16175704 0.1007623 -0.26500198 0.3389976 0.54406035 0.15567736 -0.6014074 0.03115044 0.06200134 -0.030917734 0.23490526 0.41450378 -0.051340703 -0.39617825 -0.107653365 -0.4136046 0.1802513 0.087745875 0.05046726 -0.61343414 -0.066547975 0.64033836 -0.28013077 -0.19245331 0.24679254 -0.2707293 -0.0650339 -0.30872768 0.35818085 0.43369752 -0.62375605 0.029387677 -0.92140687 -0.21116556 -0.090629354 0.31392273 0.34639838 -0.16775244 -0.22931407 0.29224655 -0.11763465 -0.13497424 0.1525813 -0.5505345 0.049319547 0.08140964 -0.39523366 -0.26930383 0.19412108 0.48760197 0.66218317 0.98361635 -0.08017728 0.325226 0.0646478 -0.29112747 0.3205426 0.398496 -0.19718508 0.29636338 -0.9684755 0.112248056 0.027399842 0.33504626 -0.24349654 0.33644217 0.24867728 0.41212174 0.3496125 0.06494361 -0.14585628 0.07870826 0.538466 -0.6901345 0.41326213 0.14432691 -0.2802409 0.07732087 0.11496342 -0.32202846 -0.09733543 0.1926498 0.14811002 0.0076804655 -0.42165142 0.20125176 -0.12311043 0.1549049 -0.027819289 -0.09251301 0.4502359 0.0032215815 0.090479806 0.10105589 -0.037498925 0.04021637 0.08565264 -0.3688287 -0.10240893 -0.29999438 -0.47081873 -0.12655234 0.18104422 0.44615242 -0.3400153 0.3148559 -0.09611137 -0.1230392 -0.20503306 0.24392967 -0.004351928 -0.65529615 0.53180856 0.14680757 -0.6638422 -0.41206923 0.37939882 0.48068693 0.054226007 -0.3724459 0.31427342 0.06381149 -0.18697728 -0.09792938 -0.08034195
331 -0.02612437 -0.075915076 -0.042532265 -0.22267358 -0.17197536 -0.17183661 -0.3402864 0.00875236 -0.03439111 0.37323454 0.09558894 0.25614184 -0.08965815 -0.264466 0.031459108 -0.068842754 0.2869236 -0.100994006 -0.102904744 0.281326 -0.22234675 -0.1663276 0.16716236 0.09944025 -0.3029475 -0.07642966 -0.05647689 0.16930911 0.10494746 -0.28202128 -0.11654626 -0.016061855 0.361338 0.023041878 -0.036329847 -0.05508996 -0.09228764 -0.0020067065 0.18716599 0.23268314 -0.2867244 -0.24707448 0.34057435 -0.12671047 0.26691732 0.1520806 -0.07744342 -0.10554564 0.20760357 -0.045570135 0.059039857 -0.405127 0.5391989 0.24587956 0.37215042 -0.107287645 0.14621161 0.18635826 -0.24285085 -0.17927991 0.056609843 -0.22023374 -0.27016145 -0.27047923 0.32371464 -0.19713844 -0.3198164 -0.32247594 0.12516187 0.06715763 0.06496757 -0.15426674 0.24741244 0.079236336 0.08504931 0.28594097 0.46582934 0.13168487 0.17940038 0.35884112 -0.23814602 0.07607541 0.10937678 -0.2610573 0.06291606 -0.35501233 0.0893036 0.17091495 0.03557393 0.06303698 0.21271214 -0.043231405 -0.12657697 -0.07047785 0.22481163 0.14789169 0.12410018 0.18788733 -0.17686091 0.280998 -0.02882785 0.22596203 0.019129233 0.19187382 -0.09781521 0.37655392 0.23172066 0.2277915 0.16443592 -0.16154902 0.3278721 0.06735017 0.15761927 0.11634076 -0.068584695 -0.09602882 -0.060501922 0.3050111 -0.05365209 0.29581377 0.12497295 0.027311804 -0.15108654 -0.09185529 -0.1890981 -0.52038306 -0.2493965 -0.16826439
447 0.05204425 -0.20961559 0.04166058 -0.14750911 -0.09577555 -0.059030633 -0.2862064 -0.12040914 0.04103582 0.27938685 -0.0018024705 0.33193612 -0.03995968 -0.22716175 0.30118284 -0.14319274 0.4386268 -0.045196187 -0.1828864 0.22172864 -0.19973026 -0.1440536 0.10105565 0.0025214269 -0.13130459 -0.13624682 -0.073901795 0.14965823 0.04569337 -0.25791144 -0.08443917 -0.033026747 0.24855134 -0.060316388 -0.09496085 -0.008340201 -0.14529686 -0.11275807 0.2172947 0.30767086 -0.07762455 -0.20003258 0.35980925 -0.039822713 0.44974023 0.013081949 -0.12516728 0.11247188 0.3315424 -0.062000655 0.10357664 -0.3741054 0.5270391 0.2819252 0.39207825 0.031049674 0.28857648 0.21710846 -0.11840504 -0.10220313 -0.08855364 -0.28658217 -0.29871142 -0.28120878 0.16311316 -0.0005668725 -0.31715542 -0.078721754 0.113284506 0.07070334 0.12648194 -0.13722847 0.3774201 0.012193436 0.0379922 0.3544535 0.35077593 0.13318276 0.14859974 0.38631576 -0.028966693 0.22257443 0.05777706 -0.16068652 0.12078328 -0.48596612 0.19690989 0.07082753 -0.024496285 0.07087778 0.3698054 -0.14412422 0.0038339766 -0.16836305 -0.16008182 0.24943556 -0.020731939 0.27070308 -0.31703153 0.43209276 -0.05054456 0.063007936 -0.0014924132 0.20023136 -0.24269074 0.4871647 0.17576794 0.3317273 0.050336394 -0.08349644 0.37278444 0.04499992 0.12653898 0.16973576 -0.089101 -0.12709546 0.01626905 0.43557304 0.060012497 0.10754327 0.023038652 0.048884578 -0.12971494 -0.17862359 -0.2350926 -0.5664171 -0.20112243 -0.21513478
150 0.12757616 -0.05672356 -0.006853478 -0.24579726 0.02402512 -0.1239509 -0.23168992 -0.042071123 0.008236573 0.33852252 0.10646148 0.3586095 -0.040819623 -0.11317525 0.31242955 -0.12567692 0.24741735 -0.061509516 -0.28179196 0.31105256 -0.36589748 -0.002528071 -0.002170995 0.0016685975 -0.25164807 -0.12748079 -0.14796498 0.19800909 -0.08716594 -0.26262724 -0.0016830772 -0.015058538 0.23168372 -0.07973735 -0.014401387 0.06294715 -0.09616178 -0.22445554 0.21114609 0.26578835 -0.050929423 -0.19690576 0.37963328 -0.0865818 0.3870516 0.08771826 -0.13429324 -0.056989074 0.30069917 -0.05754367 -0.004309051 -0.42705137 0.6050646 0.31933624 0.34794945 0.072359465 0.17087947 0.1243078 -0.28464466 -0.1489483 -0.058769684 -0.1563564 -0.2778521 -0.27762777 0.24408083 0.004927059 -0.26019523 -0.083890535 0.17022409 0.09755367 0.044858556 -0.07858727 0.33124208 0.048768383 -0.0102848485 0.216912 0.45015502 0.08312823 0.16475476 0.4209264 -0.069167815 0.18728024 0.077287555 -0.17642334 0.112607636 -0.42229533 0.03558328 0.11181007 -0.045743387 0.17383002 0.24161464 -0.21111864 -0.08523001 -0.18377768 -0.020198816 0.16812812 -0.055751007 0.3808836 -0.19661875 0.32710773 -0.10281228 0.22568677 0.14506626 0.22715282 -0.2040527 0.5309121 0.08196631 0.23056376 0.07690143 -0.22443514 0.23647295 0.17648512 0.24464749 0.21965145 -0.06721205 -0.12543103 0.13978925 0.35693043 -0.012260817 0.17641626 0.15597562 0.09515582 -0.050552107 -0.32105276 -0.30169556 -0.4882172 -0.27011493 -0.29037336
454 0.046871617 -0.029303487 -0.18377428 -0.045010604 -0.54718643 -0.1652797 0.074908525 -0.6409883 0.013702792 0.1111178 0.29278377 0.13906053 -0.01922886 0.049803864 0.028359475 0.10459286 0.3318645 -0.30149087 -0.30867708 0.32027194 -0.3037491 0.0686601 -0.106488414 -0.09856994 0.0975414 -0.04681349 -0.032410134 -0.035141207 0.00326646 -0.05074651 0.05891818 -0.11306925 -0.27199826 -0.16632783 0.16579883 0.055565197 -0.11581252 0.25737023 0.31264716 0.35576874 0.15115711 -0.34734747 0.4073533 -0.10439984 -0.059091423 -0.32739508 0.06220244 0.30249017 -0.06739934 -0.007843723 -0.2614829 -0.06374784 0.27812797 0.38115162 0.07979175 -0.06281843 0.22738895 0.17505202 0.09325307 0.16407217 -0.25980216 -0.1707751 -0.053476196 0.0076693892 0.05856328 0.16777767 0.070481576 -0.03489781 -0.2409421 -0.07297539 0.11723775 0.10504267 0.05950986 0.12648478 0.22321633 0.079020016 0.2178747 0.07687192 -0.14882496 -0.03468077 0.05101358 0.061310694 -0.044756502 -0.36662868 -0.0504359 0.05176861 -0.07458657 -0.011383011 0.02964121 0.0150168585 -0.12152131 0.22610696 -0.14093989 -0.22466457 0.01721772 0.03835171 -0.0537769 -0.18144801 0.08795309 -0.24022871 -0.056560956 0.10250483 0.20679297 -0.040995978 -0.14097296 -0.039882008 -0.19990821 -0.21201365 -0.16448946 -0.2594912 -0.08264156 -0.04459624 0.22059341 -0.13338073 -0.27293202 0.13740052 -0.18565553 -0.37638795 -0.02103119 -0.062309667 0.015163103 0.3903602 0.010551243 0.16224626 -0.27655685 -0.1871104 0.074041806 -0.20061052
330 0.038516067 0.31790906 0.032201275 0.033183947 -0.19385265 0.34323096 0.045748353 -0.29304096 0.19466585 -0.19218662 -0.09300053 0.41799068 0.14736484 -0.116137 0.10148021 0.048709445 0.13542862 -0.04052487 -0.31593364 0.06265603 -0.17453608 -0.1420612 0.10871124 0.39643916 0.29463735 0.23051913 -0.039876144 -0.21654461 0.02251426 0.03158563 -0.20587713 -0.19796197 -0.008219661 0.16032721 -0.0394008 -0.20811455 -0.16465534 -0.01892842 0.25369105 0.042688195 0.04193647 0.08312715 0.13107397 -0.09140254 -0.103592806 -0.0135361105 -0.29411674 0.4096899 -0.109558664 0.04812835 -0.063465744 0.0363347 0.54636455 0.12271061 0.21450165 -0.03967487 0.13875516 0.06304791 -0.32262313 0.1623126 -0.42156243 -0.0154407695 0.006436065 -0.14400578 0.09422229 0.049045604 -0.20545033 0.22741558 0.034157876 -0.21151416 -0.4256666 -0.20909093 0.090501055 -0.15764365 0.054697677 0.5645157 0.031179642 -0.17107645 0.00585972 0.11887319 0.21510306 0.085406944 -0.19344023 0.09463589 0.20114297 0.21124972 0.04158198 0.13084354 0.3015928 -0.22204065 0.3799256 0.15453963 -0.1075189 0.23856634 -0.06669547 -0.051681012 0.13495775 -0.12022605 0.08945246 0.058192853 0.08938591 -0.08213732 0.4200216 0.0670428 -0.1154934 0.057495117 0.074748464 -0.034490056 0.2619396 0.5025171 -0.26232862 -0.09828898 -0.25589636 -0.09969247 -0.11431485 0.3235046 -0.049318414 0.006283306 0.18887803 0.007406729 0.4933523 -0.16553654 -0.23516752 0.44511035 0.13415818 -0.076725304 -0.06473446 -0.25230226
61 -0.3072878 0.2453803 0.5314315 0.024973536 0.042844206 -0.10652328 0.48980162 0.43121466 0.096376546 -0.58509785 -0.042888828 0.09972122 -0.17122522 0.30512673 0.49368137 -0.014981699 -0.44501457 -0.13602227 -0.42009792 0.054995697 0.06165884 0.06008874 -0.6580586 -0.04027256 0.61082953 -0.3142866 -0.14887187 0.27752653 -0.38468966 0.019335646 -0.25994718 0.39207748 0.36739153 -0.79394025 0.059220426 -0.7985056 -0.14427575 -0.058799166 0.307976 0.3595279 -0.14875056 -0.28201452 0.16752188 -0.070867196 0.08230192 0.14726208 -0.58290005 -0.053943753 0.07562461 -0.39664727 -0.2798108 0.18655075 0.45098138 0.7540034 1.0347525 -0.034264762 0.24824077 -0.0062603927 -0.20535953 0.2948901 0.4365184 -0.20877756 0.37476486 -0.8789169 0.10846034 -0.031401068 0.36716148 -0.25097346 0.32259688 0.356429 0.37129092 0.26989612 0.05513267 -0.051211577 0.049449235 0.35353774 -0.6532736 0.46079525 0.023270102 -0.3648734 0.06551505 0.21461804 -0.38299528 -0.04206608 0.25885016 -0.0029415442 -0.02541273 -0.48329538 0.21706085 -0.0044947844 0.23030366 0.093351275 -0.0075483383 0.33700472 0.1091889 0.031006014 0.0569563 -0.16843909 0.029530872 0.1111141 -0.40151066 -0.12372752 -0.23221515 -0.42774135 -0.14268605 0.13175897 0.48283574 -0.4623465 0.4054629 -0.18147238 -0.16608396 -0.16968663 0.30290115 -0.00779344 -0.62391496 0.48762986 0.21682689 -0.6128097 -0.32608637 0.39287823 0.4639433 -0.0241417 -0.37873814 0.22283225 0.17853707 -0.2121446 -0.16754287 -0.05063085
272 0.22328396 0.14318833 0.12779987 0.055767316 -0.2772015 0.40639532 0.077624775 -0.109524 0.21552435 -0.23321539 0.100408494 0.32265273 -0.030474974 -0.13802157 0.11610302 0.08139989 0.2832212 -0.1158408 -0.16784175 -0.05933723 -0.13346446 -0.13680297 0.22239594 0.3952386 0.38215414 0.19908263 -0.04019537 -0.23724197 -0.0127139175 -0.09910984 -0.19301355 0.012708463 -0.020243542 0.13643794 -0.076037765 -0.33953846 -0.08607376 0.12682122 0.27577803 0.012225967 -0.047256425 0.104097046 0.21265304 -0.15223424 -0.107376516 0.01789204 -0.27544636 0.25084406 -0.10120211 0.004579392 -0.13074204 0.030340431 0.4296454 0.13642523 0.080904454 0.11463048 0.32885423 0.081274815 -0.4300736 0.18697362 -0.41164264 -0.17674388 -0.1220452 -0.16480766 0.15822428 0.1377684 -0.2722742 0.24703024 0.12101945 -0.3486316 -0.24147455 -0.09794618 0.09479876 -0.07574809 0.097293146 0.4643252 -0.008541368 -0.13674393 -0.04814468 -0.0679458 0.24856357 0.000111842906 -0.122259974 0.08404901 0.115026794 0.41750008 -0.061307125 0.20958813 0.16947035 -0.16169864 0.27276522 0.13545844 -0.031970058 0.2775535 -0.040645145 0.028723879 0.15780276 -0.12684435 -0.05019856 0.24749836 0.097279854 -0.06593991 0.34644362 0.15488367 -0.07789204 0.0022720506 0.12830125 -0.055100318 0.106956296 0.57079524 -0.19981141 -0.15937781 -0.15209275 -0.06707626 -0.15671149 0.32517016 0.030634949 -0.078003585 0.10573576 0.100312896 0.45652574 -0.14110701 -0.2945771 0.51765895 0.0058931326 -0.011500491 -0.035545245 -0.17033228
155 0.08723206 -0.15335977 -0.006530225 -0.21149503 -0.117623165 -0.12695521 -0.2798305 -0.03496922 -0.021224234 0.24851274 0.03935875 0.22167343 -0.14116311 -0.17065057 0.17220631 -0.21097848 0.30584955 -0.178092 -0.1917449 0.29948118 -0.33369878 -0.13385896 0.08930909 -0.029227374 -0.3093774 -0.015711823 0.030710194 0.18860887 -0.005833089 -0.1936743 -0.12871519 0.010341204 0.2957017 -0.08698037 -0.06818641 -0.08654151 -0.041504867 -0.1593305 0.13566595 0.16931453 -0.1754978 -0.2462604 0.35003895 -0.050550926 0.3899188 0.16681662 -0.23675992 -0.051927585 0.27999905 -0.044182613 0.07682605 -0.39736396 0.5768229 0.26509982 0.39690334 0.0034234342 0.097371995 0.18021876 -0.1415842 -0.18825312 -0.055480152 -0.26868358 -0.19486487 -0.45978415 0.2777513 -0.026430817 -0.3926477 -0.2678948 0.18104558 0.1520243 0.15585048 -0.10031436 0.37621126 0.07034218 0.010867179 0.32647505 0.44032055 0.17725077 0.056077443 0.3324842 -0.088563815 0.13706449 0.086345166 -0.20058587 0.076116204 -0.33911145 0.25308195 0.07027681 0.024704436 0.08742518 0.22922142 -0.13114198 -0.08014936 -0.14984609 0.07613823 0.2676776 -0.032337204 0.32140288 -0.38422745 0.41415998 0.014965609 0.23584741 0.041199308 0.27100286 -0.18234938 0.5098272 0.2519724 0.1997204 0.0012627746 -0.2085872 0.28370807 0.096678846 0.14437689 0.29171705 -0.07013036 -0.03871254 0.0215473 0.25622627 -0.074673235 0.065909065 0.12978332 0.018145105 -0.055298295 -0.17767912 -0.30413187 -0.47568607 -0.22594921 -0.124536455
322 0.015055139 -0.13743234 0.051712576 0.034018185 -1.0418078 -0.18230389 0.24031721 -0.5920969 0.18973365 0.20693144 0.2947555 0.03519366 0.16164668 -0.12816826 0.071523 0.14272238 0.7111711 -0.26748914 -0.42125827 0.13382997 -0.15843654 -0.3211896 -0.37472448 -0.42819425 0.036695365 -0.029542616 -0.030505253 -0.09709647 0.28061935 -0.11774064 0.062284093 -0.086801745 0.009127739 -0.085320994 0.22089261 0.060584087 -0.067822866 0.23993355 0.3148071 0.24943604 0.023119617 -0.4373116 0.4071282 0.023594638 -0.13423261 -0.39497298 -0.19420642 0.29429802 -0.18159196 0.0743923 -0.2659529 -0.1358941 0.17205605 0.33998078 0.11093543 -0.084108464 0.3296555 0.25929347 -0.068272196 0.0019917267 -0.3213186 -0.19403872 0.06436576 -0.2611991 0.016505094 0.49888653 0.0694532 -0.21083969 -0.16384955 -0.030864121 0.12901346 0.064089276 0.22397584 -0.086105034 -0.042324353 0.037157524 -0.17141078 0.08931031 -0.15953077 -0.19742054 0.15429424 0.25442478 0.29388043 -0.45980135 -0.17682955 0.05093493 -0.06239465 -0.08047912 0.075950034 -0.2704464 0.20936006 0.08265824 -0.055904165 -0.3252705 0.12839486 -0.04475031 0.14811294 -0.10805724 0.13911837 -0.27663943 -0.1360095 0.41692042 0.114517465 0.19417493 0.20746928 0.03570684 -0.11170129 -0.67653286 0.0030917022 -0.05868861 0.049099267 0.13632046 0.1336826 -0.03816011 -0.15897928 0.2754274 -0.26706994 -0.23752014 -0.10294591 0.10671768 -0.081790194 0.51343286 -0.20980118 0.01999522 -0.22525518 0.010247365 0.01903735 -0.10653249
104 -0.26309103 0.1791528 0.19527718 -0.20324731 -0.49174628 0.009722774 0.09211684 -0.548282 0.18411824 0.29957232 0.14609334 0.09107314 0.11594474 -0.2724729 -0.0022157484 0.2823968 0.14702895 -0.16024245 -0.30255702 0.05001368 -0.41573882 -0.11965468 0.13395414 -0.023778085 -0.08099774 -0.28989342 -0.05755752 -0.08541248 0.08593306 0.19131432 -0.03975777 -0.09347245 -0.095363766 0.02808016 0.19274312 0.19627239 -0.10065898 0.3632221 0.12826905 -0.08618583 -0.2569521 -0.12437527 0.1707027 -0.46426737 -0.00018604165 -0.3314198 0.13471755 0.31765056 -0.04661238 0.120252945 -0.14122881 -0.23751642 0.16834 0.042493884 0.0061341734 -0.03187941 0.22437976 0.2703956 0.2971043 0.3811634 -0.22004928 -0.19462678 -0.23645543 -0.1636091 0.118411064 0.18072625 0.19052581 0.07602813 0.08838852 0.030482916 0.021177996 0.22347902 -0.13852885 0.17682967 0.009733812 -0.013250928 -0.039483443 -0.3087521 0.07705731 -0.017884575 -0.022730945 0.17644125 -0.18985523 -0.18577652 -0.2300136 -0.10929868 0.07241177 -0.14669895 -0.09016112 -0.003653225 0.29177225 0.15179968 -0.2441726 -0.1323884 -0.03346965 -0.15418702 0.006727653 -0.33811492 -0.15343557 -0.17160058 -0.19151834 -0.14685324 0.08924478 0.11775255 -0.055705577 0.03743248 0.18608418 0.03602583 -0.099374525 -0.1316299 0.08525306 -0.07105772 -0.2120381 -0.23245198 -0.44272932 0.3855764 -0.13440125 -0.15776889 -0.16923785 0.14382991 0.23402867 0.09309528 0.14986777 0.26570523 -0.2876554 -0.17623305 -0.057478193 -0.15168981
419 0.06307361 0.089208424 0.019023366 0.098055445 0.2074701 0.054727536 -0.45891976 -0.25522387 0.08596763 0.364309 0.33567744 0.12119336 -0.022267403 -0.10820573 0.31294176 0.034640577 0.23296423 -0.22151338 -0.2258008 0.17068738 -0.2594516 -0.16390896 0.33914712 -0.1112195 -0.17101777 -0.19684762 -0.013836889 -0.004940372 0.1838839 -0.1635237 -0.108678006 -0.13653032 0.10102756 -0.036397047 -0.17661601 -0.04500093 -0.000698502 -0.28045157 0.18917444 -0.011529503 0.13612643 -0.058165036 0.20660742 -0.30395958 0.15985572 0.10483871 -0.23324826 0.059442334 0.08494268 -0.13180773 0.17908925 -0.10722834 0.7725448 0.5343889 0.29898253 -0.1730367 0.16857587 0.11690706 -0.047599193 -0.17928709 -0.0052180057 -0.4761933 -0.2188778 -0.5149166 0.2780088 -0.15152182 -0.50406146 -0.03344555 0.17737748 -0.09406095 0.040822234 -0.077647276 0.44724527 0.0005761731 0.13188115 0.26184583 0.1491952 0.31000698 0.08544362 0.3227905 -0.36514217 0.33999982 0.20194064 -0.06552873 0.23814572 -0.27564222 -0.034139812 0.06025101 -0.028216997 0.30200675 0.093013875 0.30367827 0.076468274 -0.227567 -0.090357855 0.3978402 -0.01635403 0.13409762 -0.31647286 0.52656394 -0.09848587 0.22254162 -0.08314835 0.24330391 0.18897715 0.36520556 0.07831629 0.3451181 0.14628379 -0.18313292 0.49116153 -0.021560432 -0.017267784 0.2554734 -0.25561035 -0.097923785 5.059281e-05 0.29913858 -0.03497607 0.12322896 0.10539574 0.11770435 -0.04798461 -0.26030478 -0.5696175 -0.54276174 -0.15249904 -0.116225
431 -0.3592456 0.15515763 0.19268255 -0.034671206 -0.7186526 -0.06769847 0.17754838 -0.3812725 0.2782314 0.26651412 0.22072129 -0.051436357 0.09756561 0.03708072 -0.032318313 0.18909349 0.13350086 -0.24048053 -0.14238513 -0.011528189 -0.28957018 -0.033009775 0.2565033 -0.050582036 0.1162393 -0.15807573 -0.20383412 -0.23783752 -0.0967461 0.18823059 -0.11706687 -0.07434583 -0.22252385 -0.041762132 0.045972817 0.14046563 -0.28713775 0.46949807 0.31529552 0.1831453 -0.11470052 -0.014601482 0.32316747 -0.36830017 -0.15819755 -0.34364083 0.047396187 0.24928333 -0.0695285 0.0060048713 -0.10244623 -0.008265999 0.21893498 -0.038254566 0.20143916 0.19648796 0.26021343 -0.03045769 0.06152565 0.13085003 -0.14501035 -0.20455968 -0.22098677 -0.090862 0.24058838 0.024942072 0.257338 0.14557543 -0.025451763 -0.12195944 0.014195642 0.10730721 -0.024301898 0.1812578 0.09874376 0.040119752 0.13742162 -0.40468198 0.066709064 -0.0051221917 0.00544172 0.120529346 -0.1432194 -0.19470672 -0.107823975 0.015477615 -0.028882938 -0.14036258 0.110349804 -0.070275255 0.016649581 0.049822535 -0.18046278 -0.07872183 0.05619959 -0.11480555 0.13476883 -0.33121654 -0.2683749 -0.20556632 -0.15597533 -0.060580254 0.12520899 0.0896353 -0.26643467 0.22285876 -0.17139153 -0.12984776 -0.13901053 -0.20734735 0.094417825 -0.08398709 -0.08376053 -0.1497666 -0.32939494 0.23083258 -0.11242098 -0.30507848 -0.31414127 -0.002204281 0.19516918 0.107376695 0.10959294 0.055090215 -0.31366292 -0.11639708 -0.12087504 -0.06790888
7 -0.49356794 -0.011293386 0.6391346 -0.21861038 -0.11621871 0.056757115 0.65481776 0.7187916 0.17569336 -0.74439114 -0.3065538 0.23207206 -0.35915643 0.39547622 0.7371045 -0.17902784 0.060014732 -0.053616084 -0.41177368 -0.1061336 0.20050593 0.0251693 -0.58348143 -0.21534555 0.46536574 -0.17921813 -0.5138868 0.50392675 -0.6862766 -0.1585204 -0.4980622 0.14548506 0.46448752 -0.98805845 -0.23636149 -0.8118893 -0.26170924 0.24749824 0.39447746 0.28201482 -0.1489422 -0.33646062 0.07959817 -0.157091 -0.2948276 0.051060006 -0.37177444 0.06427111 0.100997806 -0.39287627 0.14873742 0.33360296 0.33712775 0.95974207 0.8446019 -0.4557724 0.77718043 0.0037212274 -0.28863326 0.7548626 0.50230503 0.08092594 0.044146456 -0.9649966 0.22435592 0.06576879 0.14932923 -0.26583022 0.11842418 0.25841552 0.35003695 0.3770837 0.117842086 0.38817263 0.31180292 0.75501126 -0.7375488 0.22312434 0.21533278 -0.2585271 0.26954806 0.30524382 -0.059932034 -0.095979825 -0.09782528 -0.037291758 -0.06978333 -0.47963044 -0.07627013 -0.079119295 0.36127838 0.4685379 0.29829547 0.12949422 0.26393762 0.102834284 0.04766488 0.042853273 0.22640362 -0.04692313 -0.34538868 0.24134822 -0.15412517 -0.3859693 -0.21050616 0.19538376 0.3936058 -0.3376342 0.5780801 -0.14425103 -0.23209366 0.045522675 0.62574285 0.08468459 -0.22348675 0.4749127 0.28308678 -0.7950098 -0.12118251 0.60895616 0.5322417 -0.017914552 0.13633923 0.31592527 0.2625944 0.01572907 0.06164784 0.12385441
58 -0.08358758 0.6832522 0.74548286 0.21238597 0.03791417 0.21200588 -0.07760498 -0.21936686 0.23906188 0.3531297 -0.28875396 0.5925318 -0.0978517 0.052506603 0.14914548 0.7744517 0.36674267 -1.2576013 -0.14319257 0.47394288 -0.21046183 -0.16459557 0.46747535 0.4245581 0.5861528 -0.08063639 -0.60918725 0.042678155 -0.3301365 -0.49634987 1.3228301 -0.39417344 -0.19830024 -0.42739964 0.305454 -0.6768591 0.13613555 -0.10429618 0.38075155 -0.52576244 0.5210332 -0.012344331 0.519591 -0.15488367 -0.1745322 -0.56970006 0.26442036 0.2941313 -0.12707213 0.1011767 -0.03848383 0.58822244 0.5832643 0.26245922 0.6711759 -0.58247614 0.38366723 0.39604315 -0.21266577 0.9483994 -0.32652822 0.12659907 0.18329865 -0.8621489 -0.76821977 -0.18622975 0.2966587 0.118216634 0.6020171 -0.2530404 0.935499 -0.036383376 -0.103670806 0.24332054 0.37779588 -0.45869958 0.6205142 -0.99183095 -0.074007235 -0.07120104 0.40110093 0.31196073 -0.0702492 0.23263365 -0.022838613 0.17068765 0.19030347 0.25613514 -0.064291276 0.13858236 0.14381114 0.5496929 -0.26094374 -0.5195867 -0.33135036 -0.09273547 -0.13308506 0.3131792 -0.04810446 0.2931689 -0.6127591 -0.28337717 0.009419166 0.70151556 0.9135512 0.20449276 0.7226665 -0.9515086 0.048415754 0.08891144 -0.05534986 -0.4149392 -0.6415074 0.097863935 -0.26273504 -0.38135058 -0.19401133 -0.3843252 0.02837297 0.8207876 0.4424069 -0.15156806 0.13539617 0.048027817 0.25434393 -0.0035729795 0.22229062 -0.046234682
160 0.11635288 0.28781953 -0.16531244 0.09777349 -0.23026264 0.26698542 0.06376393 -0.22577602 0.30208406 0.08820624 -0.0024797977 0.111733474 -0.001870497 -0.10572976 -0.060863372 -0.08059324 0.012185435 -0.09086243 -0.13341741 -0.14741515 -0.47187293 0.001911841 0.2135585 0.0767549 0.0065885787 -0.033265498 0.17422184 -0.1014764 0.05022316 0.07683186 -0.093118794 -0.03584625 0.28833213 -0.09399407 -0.12853009 0.17771873 -0.06728231 0.17497016 0.391112 -0.22540541 -0.16803506 0.36849263 0.08238623 -0.26131272 0.043145727 -0.017288743 -0.14726055 0.31027588 0.2830297 0.075725764 -0.14197634 -0.18124376 0.25368494 0.11122675 0.23975606 -0.03844783 0.4029892 -0.10819403 -0.10136136 0.0028454573 -0.13543287 -0.008904425 -0.22290392 0.08409934 0.25155392 -0.07025754 -0.0967958 0.3031523 0.30197012 -0.27085292 0.06124866 -0.00510783 -0.32895938 -0.019686991 0.053718798 0.25391114 0.18385832 0.24709764 -0.15977065 0.22864456 0.031326305 0.15173797 0.13424332 -0.10841024 0.20771798 0.29532465 -0.1743486 0.15917553 0.08973963 -0.011254794 -0.14599109 0.042324413 0.03316566 0.014195112 0.019293822 0.16014567 -0.039381094 -0.0073259617 0.093848296 0.2014959 -0.19651231 -0.068200886 0.2628293 0.00569171 -0.3567457 0.017713957 0.24523444 -0.42485783 0.34918803 0.28069907 -0.23125711 0.10495531 0.0060413964 -0.29186618 -0.15644217 0.2870681 -0.16656926 -0.1981614 0.122059144 0.052161604 0.45089245 0.1121309 -0.13972287 0.12499468 0.0275333 0.017101325 -0.27328816 -0.16442579
54 0.08618944 0.11714405 0.0028814233 0.16580606 0.062008414 0.08676771 -0.43360704 -0.21940224 -0.050591886 0.26257384 0.41855663 0.14807506 -0.17921676 -0.023733871 0.31443718 0.05904368 0.1459372 -0.124983676 -0.25245926 0.14953345 -0.22308743 -0.35702464 0.29822943 -0.032904174 -0.17900327 -0.119729094 -0.1376634 0.06497178 0.06549019 -0.31104386 -0.15888056 -0.15286577 0.0663926 0.020285096 -0.23116958 -0.1095671 -0.09131083 -0.13640021 0.17122729 0.021579858 0.06036848 -0.026896337 0.15045677 -0.32932037 0.20364165 0.14009598 -0.24245344 0.09523372 0.16383685 -0.0737613 0.226969 -0.21612842 0.74440956 0.44093955 0.3219385 -0.29143596 0.20236403 0.1384063 -0.110255614 -0.20449823 0.1103864 -0.52750826 -0.16527078 -0.45832214 0.24124254 -0.1505538 -0.4306372 -0.3155503 0.18310438 -0.04092143 0.09132964 -0.07824929 0.4984813 -0.097982146 0.09951734 0.2180633 0.24992532 0.1126907 0.0915206 0.34265682 -0.2179719 0.22844148 0.24915619 -0.05461398 0.27650428 -0.35090962 -0.11823882 0.047772918 -0.13497098 0.2499868 -0.052095883 0.17428969 0.13889907 -0.3267711 -0.15845594 0.4760809 0.08776506 0.0103814965 -0.36471903 0.5640367 0.013074187 0.18872109 0.064512454 0.20458353 0.111575596 0.3836359 0.05409949 0.2980029 0.117300816 -0.053485166 0.39156014 0.021225324 0.1714364 0.19439483 -0.3389923 -0.052804653 -0.014970573 0.35968724 -0.0111823045 0.18232673 0.123154655 0.06798309 -0.078186184 -0.27214035 -0.5228915 -0.42199543 -0.20669045 -0.171806
370 -0.11179952 0.21279564 0.12720458 -0.3311019 -0.5861371 0.21741438 0.23036082 -0.6023374 0.14552224 0.25288388 0.11620488 0.122485176 0.08084725 -0.24179523 -0.17478815 0.23975438 0.14838548 -0.13839583 -0.36002633 0.051950425 -0.25567517 -0.05470238 0.24004464 -0.07003703 -0.24047527 -0.38708246 -0.18888794 0.010753416 0.11438081 0.2072323 -0.1403275 -0.047800086 -0.18184753 -0.00061947847 0.121842556 0.2999901 -0.16203645 0.37808806 0.24745677 0.08515309 -0.14838876 -0.13680646 0.15230054 -0.36588624 -0.058810014 -0.3758585 -0.020916332 0.2710359 -0.053496107 -0.008903342 -0.18410292 -0.25458622 0.10603423 -0.039652057 0.082130626 0.090851225 0.20832123 0.21620168 0.14539121 0.2677303 -0.19163181 -0.17921677 -0.33369094 -0.06662135 0.08821239 0.17162883 0.20312446 -0.071907245 0.20341179 -0.21038114 0.069462374 0.14157477 -0.089936525 0.13575011 -0.15492296 0.020447185 0.08662315 -0.35900044 0.041881535 -0.0694859 -0.053502522 0.0061362707 -0.12497352 -0.2608832 -0.21665056 -0.18743582 0.01707806 -0.1697825 -0.20509146 0.08738844 0.1413266 0.23912613 -0.18925014 -0.13872302 0.09625422 -0.09351603 -0.014120856 -0.31575304 -0.24562068 -0.048146885 -0.24042167 0.0012754587 -0.14697768 0.12462841 -0.09806738 -0.12375302 0.08307705 -0.1421924 -0.1329534 -0.08783099 -0.0012743522 0.010285024 -0.18448204 -0.18977286 -0.42976624 0.35968444 0.0967058 -0.24177359 -0.25537297 0.09249739 0.21688534 0.13196698 0.246849 0.24670781 -0.3372856 -0.13629608 -0.0033689754 -0.35263854
142 0.07965981 0.011650041 -0.30415308 -0.20448291 0.23627497 0.33630008 0.13011481 -0.06095485 -0.06816991 -0.09586914 0.09604318 -0.22687751 0.13351162 -0.23479511 0.017718986 -0.06481187 0.32584223 -0.13127698 -0.03899089 0.16530336 0.14144708 -0.4000481 0.06036731 -0.21306252 0.16471852 -0.023212558 0.10565557 0.18513346 -0.04144899 0.0018200837 0.17147389 0.23864014 0.48658442 0.0656066 0.26341674 -0.16053392 -0.9117772 0.45026916 -0.0028895987 0.124595694 -0.31394684 -0.087853044 0.23670557 -0.22099318 0.0050580725 -0.47036356 -0.1267804 0.025638055 0.09296764 0.3198897 -0.2423472 0.2917262 0.42338967 0.5647462 0.32553506 0.3427299 0.30956793 -0.1533213 -0.06870709 0.19382559 0.07940942 -0.26224324 0.2961919 -0.5948376 0.24018975 -0.06281936 0.21824007 -0.08598427 0.07004895 0.50412136 -0.09182489 -0.5960552 -0.10861254 -0.18089934 0.023762526 0.26000622 0.3523182 0.04405724 -0.121740445 0.11765547 -0.024571678 -0.032598443 0.7374743 -0.053215515 -0.06659518 -0.21508095 -0.020988971 -0.10462213 -0.08165149 0.38831648 0.02266163 -0.2507112 0.03727649 0.28112388 0.25083327 -0.2023129 -0.01840507 0.23713768 -0.16071661 0.20762965 -0.08899351 0.46123108 0.2581045 0.0021215756 0.4637654 0.128889 -0.01650916 0.23876406 0.2838551 -0.050260227 0.599326 -0.109316036 0.13970542 -0.1658528 -0.08101656 -0.6219688 0.12628639 -0.25161693 -0.09995482 0.04900503 -0.23385912 0.36510894 0.34980887 0.40548694 0.13251966 0.044565994 -0.3160681 0.123418905
259 -0.028972352 0.6812082 0.88003576 0.32523555 -0.0058608307 0.36025998 -0.119293526 -0.29485118 0.19338518 0.3678211 -0.23881106 0.6288407 -0.18645793 0.10632846 0.18404418 0.6754716 0.3298892 -1.3063983 -0.24087837 0.40583295 -0.20561929 -0.17823675 0.5005154 0.34063524 0.4964129 -0.015632428 -0.64434576 0.109952584 -0.40514928 -0.59526074 1.1556499 -0.3183309 -0.3245862 -0.45039374 0.059379097 -0.62255025 -0.053915307 -0.060637515 0.44938192 -0.5416614 0.45814645 -0.06843716 0.50971717 -0.20543562 -0.22204103 -0.46441597 0.30125102 0.29814538 0.05570616 0.19161971 -0.08794015 0.60849476 0.4823592 0.32099852 0.67268515 -0.47916815 0.3624882 0.49617553 -0.24673453 0.96301556 -0.26328012 0.2496928 0.20861235 -0.9778628 -0.9504463 -0.1459693 0.39203274 0.051930718 0.6068798 -0.32989982 1.0591712 -0.08193713 0.04364192 0.1978998 0.46430737 -0.45820138 0.8391613 -1.036275 -0.10837222 -0.043800276 0.30784184 0.3044814 -0.060690194 0.19629174 -0.03984952 0.19278023 0.2370752 0.23038071 -0.20981094 0.22096644 0.14874092 0.5441201 -0.28336585 -0.42810068 -0.31697372 -0.20509957 -0.070392966 0.19248004 -0.13950461 0.1742323 -0.6737556 -0.32885483 -0.07837407 0.73930836 0.87164956 0.2561937 0.59112567 -0.96814024 -0.07184385 0.2216846 -0.076691814 -0.4129948 -0.7721104 0.18771002 -0.19977918 -0.41441053 -0.16164578 -0.3586708 0.06397353 0.8879305 0.43450135 -0.024086572 0.0027935521 0.1298343 0.28283504 0.0059891315 0.23998699 -0.10711954
204 0.1607424 0.01747343 -0.17326276 0.056458473 -0.64882135 -0.20815668 0.06101004 -0.53383577 -0.08864471 0.16637689 0.19136842 -0.023539312 0.04263075 0.0051463195 -0.19124666 0.055260174 0.40408227 -0.29700673 -0.3551709 0.1891538 -0.27001515 -0.22691502 0.020553486 -0.18160892 0.305856 -0.015370837 -0.0921826 0.017756406 0.04063229 -0.031609673 -0.044651736 -0.029723568 -0.19917789 -0.1231171 0.073788986 0.049847644 -0.20489371 0.13115194 0.3108534 0.53788793 -0.08019706 -0.4497862 0.3634416 -0.017605644 -0.08279311 -0.26792225 0.047412176 0.25570783 0.06255837 -0.018798176 -0.07620256 -0.1535817 0.3380172 0.01301788 0.12731008 -0.081846304 0.21287581 0.1677128 0.06596172 0.07773269 -0.19535749 -0.1455421 -0.098305345 0.05595622 0.23611715 0.27509198 0.08766627 0.13394088 -0.2268883 -0.03365841 0.13615103 0.14569096 0.050810978 0.043222815 0.14648195 0.096361466 0.19708756 -0.07177552 0.061878394 -0.09692424 0.019628089 0.1046995 0.029738117 -0.2043939 -0.23619515 0.074162506 -0.050072435 0.037712075 -0.039372172 -0.076764375 -0.07762383 0.053461764 -0.21472849 -0.22242953 0.14073953 0.1507929 -0.18281348 -0.08306088 -0.02731588 -0.16953468 -0.14098336 -0.018592317 0.16258544 -0.0900727 -0.26176012 0.08392139 -0.09678989 -0.16545779 -0.047388084 -0.22773384 -0.12675492 0.073691085 0.07744288 -0.24833485 -0.23899864 0.22148499 -0.12223572 -0.5399716 -0.075870134 0.018414568 0.13311774 0.33151647 -0.13366392 -0.0011670308 -0.28108025 -0.14513466 -0.017212126 -0.22032121
380 0.07357101 0.021744732 -0.031986266 0.09905904 0.071373664 0.17498283 -0.38445958 -0.14670207 0.14367485 0.13138506 0.3326113 0.076271206 -0.26904574 -0.09478522 0.2487729 0.058792524 0.06639408 -0.25011212 -0.3135836 0.22325058 -0.2231047 -0.06899862 0.25048918 0.039283894 -0.13690616 -0.15830585 -0.026157726 0.022796817 0.15193479 -0.18746822 -0.0906603 -0.14113323 0.15348217 -0.05535772 -0.13420519 0.084386386 0.0040560393 -0.078483045 0.1307958 0.10203315 0.17035419 -0.008400198 0.21085696 -0.19979508 0.20928474 0.03569043 -0.2031126 0.025352713 0.072646834 -0.05810741 0.090326056 -0.34423804 0.6537622 0.48636252 0.33098978 -0.29170164 0.09867042 0.24447787 -0.008716669 -0.057548545 0.024469974 -0.45245516 -0.06313246 -0.51411426 0.31217396 -0.010667942 -0.44199592 -0.2154915 0.24730395 -0.08050206 -0.032710236 -0.044012062 0.3697591 -0.0222056 0.07180395 0.3096885 0.16540876 0.16212618 0.17859782 0.5269497 -0.54726917 0.20443411 0.2678126 0.031140955 0.34129912 -0.48320916 -0.14841464 0.14950652 -0.10287627 0.15841836 0.09951996 0.087912075 0.122671865 -0.21683279 -0.15168326 0.3784569 0.03234847 0.17076218 -0.27794263 0.49721867 -0.10559133 0.18702325 0.021659305 0.1965247 0.059565075 0.26692784 -0.027557965 0.395557 0.1359016 -0.075517505 0.3690777 0.12470765 -0.07317656 0.20153005 -0.22138539 -0.051258143 -0.035116933 0.15858573 0.031952593 0.12855491 -0.0021441663 0.07714696 -0.0068095564 -0.2677471 -0.6556315 -0.48907918 -0.17360851 -0.06475793
1 0.007906418 0.12102708 0.4295571 -0.074291475 -0.46949047 0.13493925 -0.1101829 0.07919609 0.44698775 0.11562573 -0.04195791 0.56799364 0.31863594 0.07513974 0.23952843 0.1327475 0.019914482 -0.14894883 -0.27028677 -0.16521947 -0.38877696 0.21860984 0.15089117 0.4443771 0.33023712 0.1956349 -0.4144807 -0.44545084 0.12448389 0.30775306 0.07885708 0.021501722 0.21935894 -0.06502128 0.30995715 -0.65899676 -0.010631493 -0.14958513 0.15162608 -0.0037343388 0.08900198 0.19232766 -0.16960242 -0.06206695 0.035479132 -0.3251287 0.19687869 0.21636583 -0.035441037 0.07612967 -0.069087155 0.03876221 0.505357 0.07207455 0.7986968 0.39959517 -0.024788123 -0.33735818 -0.48481146 0.36579445 -0.09170752 -0.1818414 0.4601512 -0.50421304 0.13718951 -0.09546411 -0.02187999 -0.012894281 0.13387062 -0.50162077 -0.026328456 -0.35923505 -0.17657189 -0.022554182 0.23190877 0.33246595 -0.22258112 -0.5523442 -0.020433774 -0.29537582 0.36452815 -0.0012674028 -0.0027858163 -0.24644776 -0.3448977 0.3526575 0.039976235 0.1252419 0.07698532 0.10582131 -0.217696 0.2029898 -0.017881185 -0.18547733 0.17326547 -0.044995632 -0.4470527 0.04398535 0.02144584 0.21829009 0.05133982 -0.26895258 -0.09140259 -0.10836352 0.2403679 0.0070975143 0.12286456 -0.06091297 0.06037209 0.16583021 -0.20394218 0.26746482 0.20815402 -0.01145557 -0.23092891 0.19459662 0.103937246 -0.39804816 0.6768026 0.39299884 0.36069527 -0.37325078 -0.0022633893 0.1404328 0.00516593 0.0837191 -0.37959433 0.09238329
135 0.049609073 0.101499975 -0.26335484 -0.09952848 0.31246418 0.18409014 0.09629277 -0.010654819 -0.10613433 -0.09320687 0.09851776 -0.0020185902 0.12454249 -0.37199116 -0.007022138 0.033480395 0.31815076 0.07085142 -0.058488887 0.27551094 0.19871283 -0.53273225 0.12650204 -0.27883705 0.24425915 -0.11006107 -0.022619447 0.1546675 0.02314525 -0.10835222 0.034026563 0.25188264 0.39615378 0.076463565 0.30304635 -0.10207631 -0.78122747 0.49610466 0.1272941 0.12505646 -0.36310115 -0.1925517 0.42027146 -0.13504216 -0.17454502 -0.6282268 -0.07146151 0.13684464 0.045587778 0.26059648 -0.18060581 0.4035352 0.4155936 0.4778125 0.41830325 0.3247243 0.13422038 -0.048623882 -0.0005424121 0.23038802 0.16508444 -0.15092422 0.3203535 -0.68541855 0.31307223 -0.09075517 0.14492828 -0.08079308 0.06572629 0.5714964 -0.17878164 -0.648376 -0.22252789 -0.10472738 -0.041782506 0.19858642 0.4219149 0.08773313 -0.19049875 -0.0020046332 -0.002064301 0.0897976 0.6525601 -0.095214605 -0.17217378 -0.15292138 -0.01926561 -0.07439375 -0.17421448 0.4818306 0.16570148 -0.3053821 -0.021275928 0.24324395 0.22987661 -0.07252313 -0.13513121 0.31760272 -0.12460243 -0.0481803 -0.027545488 0.3873167 0.10799745 0.10742581 0.5422342 0.032962438 -0.034797397 0.18293434 0.35916597 -0.095380194 0.5909128 -0.11910885 0.14931157 -0.20375466 -0.17616084 -0.49307817 0.13707629 -0.11152314 -0.07876921 -0.07824191 -0.29417846 0.45101193 0.24314956 0.2775636 0.066753544 0.12290629 -0.41431278 -0.039590348
420 0.010589963 -0.052992314 -0.36503392 -0.18440141 0.3093157 0.36365232 -0.0073409965 -0.13946058 -0.13070919 -0.1286452 0.05652435 0.016605623 -0.04641467 -0.25139606 0.004372312 0.19228129 0.24124666 0.05264339 -0.16468103 0.38139263 0.014024851 -0.4161588 0.049495414 -0.13007432 0.23792353 -0.062241796 0.10650785 0.28122547 0.08711741 -0.076056056 0.12456448 0.23742361 0.39580265 0.04833919 0.17929995 -0.05462633 -0.79420483 0.4265518 0.17902158 0.101657294 -0.36446798 -0.28791526 0.47743356 -0.14425856 -0.25210273 -0.6180939 -0.06958901 0.055161186 0.14913903 0.28203788 -0.08514371 0.1408755 0.4408747 0.5698153 0.38085544 0.30048406 0.10546264 -0.03988049 -0.05462857 0.1781488 0.03276076 -0.19060537 0.23064019 -0.8280969 0.25816795 -0.12643994 0.28842017 -0.3117318 0.09752013 0.5678994 -0.27461624 -0.5248377 -0.30428085 -0.041569732 -0.20655128 0.15541747 0.33882743 0.07619628 -0.047678128 -0.028102899 0.051171962 -0.09432658 0.83085525 -0.058298122 -0.18483676 -0.33552873 -0.0039039673 0.046565816 0.039752334 0.4389468 0.05098232 -0.20866972 -0.09617461 0.13263215 0.06653021 -0.12634476 -0.0067990134 0.29877636 -0.11027013 -0.11018347 -0.0064028706 0.3824794 0.0857625 0.03934943 0.54677093 0.14755876 -0.030078817 0.23257293 0.25753182 -0.024780337 0.49364033 -0.028416324 0.04561371 -0.20957546 -0.1754443 -0.55504364 0.11401352 -0.21142802 0.01234673 -0.0074209897 -0.28960162 0.37802804 0.28163043 0.21474917 0.08685406 0.12508054 -0.3203887 0.019308407
109 0.13160938 -0.033363543 0.3885486 0.09907252 -0.7831309 0.07212431 0.03872476 0.076703005 0.3885102 -0.066149466 -0.10231038 0.38424495 0.08979182 0.15128061 0.10536297 0.19513306 -0.09538367 0.12230729 -0.36657146 0.12061422 -0.0068310606 0.10242175 0.4169565 0.122272976 0.088447526 -0.21957979 -0.15705216 -0.16311587 -0.099672884 0.052349064 -0.10141711 0.11015413 -0.11059109 -0.13696188 -0.078519486 -0.009476277 -0.13099264 0.18365364 -0.042611994 -0.35625392 0.108917356 -0.23266295 0.08040171 -0.34993458 0.36395654 -0.081621215 -0.015894359 0.007726263 -0.12303525 -0.096992426 -0.4190629 0.07164569 0.47775888 -0.024856124 0.2024677 -0.00076271256 -0.10678959 -0.2575428 -0.184641 -0.04050411 -0.34343806 -0.36053884 0.23347355 -0.25097087 -0.026910592 0.058487866 0.09775585 0.090509556 0.34548318 -0.105780564 0.07436065 -0.16585688 -0.081413515 0.19334164 0.016176613 -0.04702119 0.19585904 -0.032039594 0.100744985 0.034604035 0.12051552 -0.22937624 -0.21090767 -0.33908823 0.12406586 0.10508862 -0.32123497 0.15638828 -0.037789896 0.08061528 -0.0069924635 -0.031891722 -0.23681802 -0.04043166 -0.14186183 -0.2887939 -0.14137733 -0.21242212 0.33060816 0.37934303 -0.025218511 0.045389026 0.3239547 0.50815237 0.027012961 0.33619505 -0.06946877 -0.10497414 -0.13741432 0.05096638 -0.0383665 -0.16254048 -0.09582679 -0.18922874 -0.08959241 0.39125594 -0.05854089 -0.5059291 -0.24003772 0.1692557 0.17904589 0.14276288 0.034426857 0.18434043 0.32965314 0.25062907 -0.2568927 -0.14529449
161 -0.066442475 0.018951008 -0.03227869 0.045534905 -0.76781654 0.023474075 0.04215804 -0.49924606 0.11760519 0.11573605 0.25822344 0.03883019 -0.12478036 -0.06146276 -0.025373496 0.15252228 0.2997473 -0.35601708 -0.22283654 -0.0035646951 0.022982778 0.035860702 -0.131626 0.057981912 0.08477768 0.00016862106 0.1291642 -0.06807134 -0.1571423 0.08761827 -0.01797581 -0.055438932 -0.19918701 -0.10064979 -0.03289613 -0.021125466 -0.10665372 0.4213948 0.22510426 0.13739118 0.19002903 -0.53093934 0.19136222 -0.16343349 0.08737969 -0.27191928 -0.16364372 0.31358227 0.050479896 -0.024786687 -0.22532468 -0.026662255 0.16333883 0.3754169 0.14780818 -0.12704194 0.24780716 0.045014806 0.22969712 0.17400126 -0.22770038 -0.18918009 0.13170229 0.017362304 0.15001778 0.05912614 0.24885087 0.21928604 0.05192781 -0.14124165 -0.024623996 0.23049718 0.107912675 -0.016501319 0.07207369 -0.22824794 0.04654939 -0.10201668 -0.012007224 -0.026030224 0.05911076 0.1376404 0.06097734 -0.26537994 -0.10550753 0.042698108 -0.2550941 -0.043715548 0.07299445 -0.088510744 0.08791602 0.19226338 -0.12580791 -0.08070158 -0.06714603 -0.15923928 -0.02410409 -0.283698 -0.21159548 -0.41928732 -0.012464318 0.18726085 0.22367974 -0.015245417 -0.14101437 0.10641526 -0.020348668 -0.008781487 0.013917992 -0.091667555 0.009939193 -0.030668259 0.08600539 -0.10528556 -0.27201495 0.2742863 -0.09965568 -0.2266619 -0.11558595 -0.004927697 0.046484597 0.29674563 -0.07649233 0.1278718 -0.33151615 -0.03934859 -0.08225532 -0.10833583
60 0.024450138 0.292306 0.24304536 -0.09445388 -0.39626494 0.06287181 -0.23554163 0.13539907 0.5374952 0.05447749 0.072924525 0.6301543 0.172776 -0.029436946 0.19091834 0.19062231 0.10032535 -0.1706174 -0.33297566 -0.12032755 -0.29437962 0.19840117 0.06400545 0.47166404 0.2836187 0.2555051 -0.37738752 -0.5252837 0.09478445 0.25811556 0.13880448 0.053023588 0.18581371 -0.028487826 0.25210238 -0.6887382 0.056632817 -0.20877814 0.22780333 -0.12334127 -0.0017813697 0.21826638 -0.07156585 -0.12333849 0.073385134 -0.4447905 0.123824574 0.27904233 -0.058396067 -0.027766174 -0.025062285 -0.054773264 0.43421745 0.0278927 0.7076664 0.33847642 0.16055019 -0.35960665 -0.47362134 0.24988489 -0.028833697 -0.19553119 0.42342868 -0.6167361 0.0335673 -0.11444639 0.057612054 0.040066995 0.16024318 -0.48344132 -0.030047942 -0.27134448 -0.13866656 0.029602624 0.2462996 0.30859306 -0.1504529 -0.39695793 -0.0602453 -0.29927015 0.29564893 -0.07285469 -0.13574927 -0.24607202 -0.38376758 0.28965917 -0.0025354845 0.01673195 0.15297422 0.17398503 -0.23329492 0.28510618 -0.030944994 -0.11944144 0.13726532 -0.03715914 -0.51709574 -0.050488178 -0.064777866 0.2982223 0.081435986 -0.3027404 -0.12489053 0.009511618 0.2966764 0.105679885 0.13416724 -0.09355794 0.12763599 0.10200367 -0.09399952 0.20363748 0.19719341 -0.0019431792 -0.32248342 0.22360098 -0.04803343 -0.39226526 0.6432093 0.39477748 0.26451388 -0.5250841 0.056916066 0.07483632 0.18043822 0.090780064 -0.36320403 0.17862056
248 -0.004577051 -0.27009463 -0.0921928 -0.20921178 -0.5027864 -0.17655091 0.21023233 -0.19836125 0.07993517 0.39455372 -0.0706789 -0.099102125 0.23114134 0.02802702 -0.11266337 0.34428552 0.2290863 -0.7599626 -0.6113756 0.41458812 -0.13704616 -0.3964756 0.049068857 -0.2525853 -0.10425788 -0.014237153 0.057360347 -0.20586486 0.008340412 -0.09806728 0.11320364 -0.49421594 0.18115501 0.123602085 -0.13609055 0.13196017 -0.0383145 0.24063951 0.23858729 0.29326513 0.23346587 -0.6708619 0.071951345 0.1724799 0.28947312 -0.21780653 -0.08199358 0.098868534 -0.0121138375 0.2837699 0.24230598 0.04110507 0.1589282 0.67264795 0.41128448 -0.0659997 0.5765767 -0.034719095 0.10633242 -0.017241716 0.1053975 -0.0383171 0.24256824 -0.3685136 -0.35915533 0.22046109 0.3849566 -0.03691429 -0.032606494 -0.10164636 -0.0695195 0.011085918 0.10002043 -0.047434818 0.1034096 0.40316802 -0.02113597 0.27392098 -0.1585177 -0.12582879 0.04212029 -0.0059487624 0.19903128 -0.18739994 -0.24900822 -0.13340493 -0.33201995 -0.12165995 -0.30053926 -0.42164642 -0.18780981 0.22341573 -0.25379702 0.07977899 -0.54576033 -0.12833746 -0.20759425 -0.020607699 0.38758376 -0.07854107 -0.13356617 -0.06547343 0.23371893 0.4766717 -0.16739562 -0.39255807 0.23496361 -0.09118266 -0.45712784 0.08559697 -0.058199875 0.02691309 0.48912162 -0.1551823 -0.08548093 -0.07331714 -0.030593839 -0.5261195 -0.12694196 -0.22692429 0.054308854 0.619832 -0.043983392 0.12927997 -0.05204356 -0.42684996 0.16809976 -0.38348898
473 0.10248334 -0.019443387 0.34444115 0.041110534 -0.7208324 -0.004086209 0.016762901 0.17061071 0.49158052 0.084827535 -0.03686137 0.37098673 0.107671335 0.039654665 -0.008712724 0.24460246 -0.0154884625 0.10033252 -0.26392853 0.20012449 0.010966972 0.11562331 0.3760325 0.27025774 0.09854977 -0.10025564 -0.21826574 -0.050578948 -0.1697385 0.011093287 -0.072797835 0.19678533 -0.23712605 -0.07018068 -0.037831668 0.020553581 -0.10566863 0.08705269 0.060198337 -0.20900118 0.12463777 -0.16378829 0.04565609 -0.1263273 0.43010175 -0.1289447 0.025873479 -0.1260845 0.016946523 -0.07049848 -0.4012422 0.074059926 0.48834276 0.029224409 0.18061553 0.01981253 -0.051420398 -0.23831382 -0.22177887 -0.023083871 -0.3132646 -0.3244632 0.13212869 -0.2009917 -0.08570879 0.16457282 0.056503523 0.1712254 0.41193235 -0.17492634 0.10920253 -0.2045445 -0.31391943 0.23396234 0.055545073 0.0715615 0.15082881 -0.035698704 0.11827293 0.036181174 0.17191431 -0.06921759 -0.16718063 -0.25509351 0.08661701 -0.0020214908 -0.2520999 0.1290689 0.0011693774 0.041226164 0.0996594 0.08480394 -0.11760754 -0.11717102 -0.01862941 -0.17622225 -0.111882836 -0.30975085 0.3566354 0.31166083 0.063371204 0.15222985 0.32183185 0.40385318 -0.009162252 0.25813317 -0.008446747 -0.035042997 -0.013957143 0.07941616 -0.06115531 -0.029203312 -0.08596349 -0.35177478 -0.15168013 0.36788064 -0.028799636 -0.6021839 -0.2674304 0.112812996 0.17605844 0.18309265 0.065753125 0.19888723 0.24975583 0.22234209 -0.13155672 0.04707085
355 0.105176166 -0.3319224 -0.11887188 -0.17097951 -0.46752265 -0.078680046 0.22310784 -0.15530944 0.11359052 0.33421716 -0.09755812 -0.06982993 0.21783076 0.08885936 0.0155648915 0.28555846 0.2860138 -0.6770683 -0.59168994 0.39801186 -0.07865598 -0.3795253 0.031434502 -0.21740368 -0.102343336 -0.0136923 -0.034035254 -0.21877508 -0.08424135 -0.11040777 0.026320925 -0.42433527 0.1692523 0.08850468 -0.021953871 0.12212309 0.05817278 0.30762017 0.29683033 0.1637348 0.26324877 -0.5939361 0.09745799 0.14870214 0.33984062 -0.030837027 -0.19968322 0.18467589 -0.038181357 0.29592156 0.2591437 -0.0014375994 0.16868351 0.7806949 0.2824584 -0.076495886 0.5220936 -0.013515997 0.1371662 0.012871 0.06589374 -0.12651995 0.27271742 -0.2864991 -0.35135132 0.19171648 0.31233984 0.04065498 -0.05385746 -0.10953327 -0.047899082 0.11735829 0.12962903 -0.10567866 0.0607341 0.3777273 -0.09656292 0.31459317 -0.16547711 -0.07824108 0.1213994 -0.04909662 0.100049324 -0.16738988 -0.31909335 -0.15546459 -0.2872866 -0.13498607 -0.2589523 -0.27373472 -0.1387456 0.2571022 -0.24810866 -0.07856422 -0.5725698 -0.15963513 -0.24675891 -0.056970228 0.3293393 -0.21747635 -0.16155781 0.036833514 0.23220794 0.36939406 -0.12273959 -0.36927137 0.18788977 -0.25201792 -0.5955732 0.025568232 -0.07758477 -0.0061743264 0.429052 -0.16905056 -0.0084490245 -0.14027098 0.016726779 -0.5202079 -0.13012666 -0.25600067 0.10998165 0.6654707 -0.04667375 0.16844204 -0.115597814 -0.36778098 -0.03375957 -0.38061908
132 -0.22333632 0.3205069 0.61125886 0.08054217 -0.076520346 0.06309099 0.315036 0.28953755 0.33143038 -0.54138136 0.2603248 0.21842115 0.045116 0.33412355 0.26859277 0.060981605 -0.43244368 0.05860602 -0.43615538 0.19622655 0.08124028 0.32519457 -0.61781543 -0.052702587 0.5726922 -0.52306664 -0.37406063 0.21889059 -0.08543099 0.18042523 -0.15720528 0.20236842 0.33419538 -0.75787526 0.073058605 -0.597836 -0.0070349346 0.03787012 0.21797527 0.23818487 0.09993069 -0.10747132 0.18895324 -0.074800536 0.3282682 0.27072704 -0.70020294 0.28613955 -0.375024 -0.40529323 -0.16319686 -0.056251932 0.48716903 0.6262305 0.7079533 0.020363973 0.30193648 -0.14557989 -0.23211537 0.3090438 0.8653591 -0.0924237 0.29353938 -0.87471235 0.16567521 0.022291817 0.109125815 -0.23628545 0.3954625 0.2718296 0.29481766 0.037140664 -0.22083138 -0.16240063 -0.24038789 0.27331552 -0.47454667 0.32053363 0.28097042 -0.17254983 0.2452523 0.10706027 -0.2366054 -0.30130565 0.31973907 -0.18484077 0.13945994 -0.24381529 0.38766277 0.028827704 -0.14066564 0.045909338 -0.06566695 0.32646587 0.13343285 0.16273579 -0.0051222513 -0.3162836 -0.1939102 0.010856942 -0.37528816 -0.25713867 -0.18040265 -0.51837516 0.05505416 0.02640726 0.4574451 -0.41090214 0.18839943 -0.17241889 0.32333103 -0.24787796 0.22810479 -0.15420274 -0.56599766 0.30961794 0.26839676 -0.5557561 -0.023040317 0.4597505 0.44167992 -0.013008214 -0.423252 0.30728498 0.14023824 -0.15959743 -0.1947867 -0.055319984
165 0.20301674 0.0546462 0.010991691 -0.036136895 -0.28631756 0.26075697 0.025601538 0.02015311 0.40352848 -0.05392574 -0.1304068 0.45666713 -0.030994534 0.08329931 -0.059851285 0.07956465 0.107652515 -0.11052628 -0.17312233 -0.08427464 -0.37152925 0.03980225 0.14233737 0.16034557 0.03353593 0.13464387 -0.11660387 -0.2695947 0.00762245 0.14772703 -0.09376966 -0.009375521 0.11324302 -0.18100575 -0.13312495 -0.28201964 -0.017967623 -0.06381939 -0.102663144 -0.33735204 0.09258944 0.18361649 0.02656126 -0.10680209 -0.23209815 -0.20765947 -0.10533656 0.3257671 -0.016760834 -0.035862867 -0.3295509 -0.20178157 0.3542885 0.12837626 0.45240885 0.040341314 0.31676468 0.07263277 -0.18855733 0.059494894 -0.2781332 0.15005313 -0.022742212 -0.4356328 0.19842547 0.12722649 -0.2837606 0.21379901 0.21237577 -0.24378157 0.012054931 -0.006026534 -0.12214533 -0.004645375 0.15145598 0.33117798 0.0013486792 -0.1201588 0.07523222 0.17167057 0.06558207 0.07777568 0.07035582 -0.23201561 0.016071072 0.19303395 -0.26515475 0.23425989 0.22593126 0.008159748 0.12770595 0.131306 0.13143608 -0.05568415 0.19434857 -0.1853935 -0.16114216 0.022761416 0.14536919 0.24974811 0.01210795 -0.1708111 0.11802699 0.11023235 0.01462064 0.07302622 0.03211901 -0.10756603 0.28295726 0.26270932 -0.27579916 -0.12309152 -0.017183205 -0.1746055 -0.07078117 0.22368246 0.046645865 -0.13558798 0.30801284 0.04216569 0.39247265 -0.1786974 -0.3025486 0.37328944 0.032447718 0.029970342 -0.32382 -0.13902877
381 0.1808776 0.104760185 -0.36294302 -0.18590921 0.33602172 0.22674522 0.07192985 -0.07477291 -0.14291933 -0.09861834 0.17630157 -0.10463643 0.12774701 -0.420564 -0.029923294 -0.10268193 0.2204816 0.03780136 -0.09255053 0.18487975 0.11682052 -0.53726053 0.1533221 -0.24280792 0.19159132 -0.09851446 0.037198078 0.122183554 -0.004374719 -0.0098762475 0.34594244 0.21631898 0.4521419 0.011194033 0.3628428 -0.19062431 -0.93756104 0.48874107 0.103800684 0.20054305 -0.36694032 -0.21337183 0.36292705 -0.23570567 0.03658782 -0.48366764 -0.15352568 -0.01848981 0.101082884 0.22255759 -0.23918146 0.34353867 0.4087812 0.45945972 0.37820622 0.369925 0.14829856 0.027139802 -0.115939066 0.19840367 0.12313822 -0.44610122 0.16907583 -0.6172217 0.2702502 -0.09116479 0.026582336 -0.12285443 -0.008417591 0.6138035 -0.10223686 -0.61527693 -0.15615547 -0.16665873 -0.041189853 0.26981935 0.38717878 -0.011392418 -0.13661095 0.07913239 -0.09018504 0.09126934 0.6455477 -0.0958121 -0.13822016 -0.19051215 -0.04978333 -0.13871035 -0.0064544957 0.49570101 0.099529624 -0.15418473 0.013907591 0.11145645 0.20219673 -0.07946859 -0.070285134 0.32003543 -0.12471227 0.19694334 -0.02950453 0.31212288 0.16315867 0.045888394 0.5763534 0.15783669 -0.01002559 0.13178568 0.315813 -0.06126154 0.48211756 -0.14703058 0.17652595 -0.3507588 -0.19650139 -0.6183138 0.10605306 -0.078493044 -0.0656009 -0.045439266 -0.19161676 0.37079173 0.2757454 0.42074177 0.06681507 0.047600247 -0.28674892 0.11292965
203 0.19002312 0.08927996 -0.114512 0.1564624 -0.38614807 0.30625364 0.030436313 -0.02787954 0.21703805 0.09057529 -0.033448074 0.396943 -0.02864536 -0.026248798 -0.037220553 0.15277937 -0.04232651 -0.11955997 0.0027529262 -0.27129847 -0.19326335 0.024594644 0.1003761 0.14835997 -0.062016215 0.14761522 -0.08477109 -0.2515065 -0.048691783 0.13753259 -0.081301905 -0.058206778 0.14230779 -0.028560922 0.0681022 -0.025421435 -0.085208796 0.110784166 0.23987027 -0.0803546 0.014815588 0.11990137 0.12566434 -0.100194246 -0.05886903 0.0013480365 -0.033039518 0.25867325 -0.14768638 0.055697832 -0.41527414 -0.27877373 0.30424726 0.058258485 0.31432876 0.05541837 0.3431419 -0.1334368 -0.1802184 -0.0021424328 -0.28227043 0.13959032 0.050838627 -0.3126457 0.48091006 -0.0987074 0.003505477 0.29645494 0.40452895 -0.189747 0.18828145 -0.099602364 -0.1935262 -0.08992975 0.2376919 0.21858983 0.05390388 -0.0750249 -0.13863857 0.15865529 -0.13122022 0.06692946 -0.0202527 -0.24314992 0.32281923 0.012595644 -0.18031003 0.20846508 0.12467768 -0.07150155 0.029889291 0.18564159 0.03646822 -0.12231771 0.111021385 0.09136676 0.20250598 -0.060549602 0.20403263 0.090521775 -0.020626506 0.03283072 0.07220075 0.31978753 -0.09205036 0.24805368 -0.14207312 -0.27168578 0.28213948 0.2395483 -0.31456268 -0.0049763173 0.057770062 -0.19065915 0.05521093 0.29635823 -0.20080054 -0.30605328 -0.21553862 0.008366609 0.14285451 -0.09849445 -0.3530108 0.3322368 0.3326266 0.06976494 -0.1598466 -0.1868135
108 -0.37194565 0.08357836 0.73025155 -0.21470861 -0.10762737 0.055706866 0.5090975 0.6932731 0.13004482 -0.7348867 -0.2688605 0.18082651 -0.31219172 0.4487453 0.70820534 -0.15087996 -0.12825392 -0.080101475 -0.4780435 -0.06035393 0.12202175 -0.06414313 -0.5623421 -0.16905738 0.42333242 -0.12565582 -0.50853425 0.42895296 -0.857609 -0.06878287 -0.4589138 -0.029600594 0.3460072 -0.89400655 -0.4111006 -0.7366397 -0.45517525 0.31144562 0.3468004 0.2553968 -0.2667531 -0.23481266 0.12170628 -0.048325192 -0.19033472 0.09611123 -0.29553026 0.046138745 0.13252367 -0.31947386 0.042745456 0.43211523 0.21678469 0.9648887 0.836349 -0.33021283 0.7366074 0.09239872 -0.26466703 0.76218945 0.40815443 0.3118684 0.091682464 -0.9365963 -0.073262915 0.023981167 0.23714404 -0.52231395 0.27159095 0.27756965 0.5231819 0.28211892 0.119525336 0.24169853 0.2669485 0.86313254 -0.7448829 0.15012296 0.19988683 -0.19463916 0.2186446 0.25415117 -0.10543234 -0.09679423 -0.08827537 -0.109336376 -0.18787265 -0.30802354 0.042064108 -0.034529313 0.27117705 0.4653371 0.3296117 0.34271634 0.29341647 0.12414486 0.045301855 -0.08233613 0.08003852 -0.040197015 -0.46685818 -0.015512938 -0.26555228 -0.2971074 -0.15578625 0.37570742 0.5431935 -0.39406356 0.65186197 -0.12983228 -0.23738877 0.055207558 0.53114605 0.20313153 -0.2370291 0.5061135 0.22518338 -0.8487886 -0.04409477 0.6028846 0.53469807 0.00819951 0.13421057 0.20976229 0.18222965 -0.046446666 0.009991703 0.13771102
347 0.17123853 -0.011078946 -0.29862955 -0.23853056 0.31483606 0.41182157 0.07465122 -0.19578043 -0.038784415 -0.12994897 0.072263926 -0.21601835 0.14502019 -0.34414992 0.0048652845 0.06797889 0.30770677 -0.00714738 0.050519895 0.13464378 0.017140875 -0.46424612 0.112402625 -0.3071931 0.122100666 -0.038961433 0.21873175 0.2484782 -0.026390767 -0.08040463 0.25270396 0.10774952 0.38709286 0.10889796 0.33588815 -0.086559 -0.7927574 0.5429012 0.08176483 0.15521574 -0.285427 -0.25914773 0.3196332 -0.2924868 -0.13557827 -0.552731 -0.062208533 0.06802749 0.21429512 0.2491533 -0.27422228 0.38221538 0.5378133 0.5813976 0.3609675 0.3723045 0.21688215 -0.14694318 -0.0718765 0.2190713 0.04897911 -0.27457443 0.2080998 -0.6011 0.34931093 -0.16126359 0.18366209 -0.18537086 0.040206358 0.56894153 -0.18656276 -0.4838799 -0.16267437 -0.014944075 -0.13195802 0.26502135 0.47494107 -0.048948117 -0.13475735 -0.019333573 -0.08944895 0.07483369 0.48514023 -0.08049953 -0.062110867 -0.21703215 -0.013741951 -0.1096674 -0.1706945 0.45749873 0.10037397 -0.2571818 -0.08986112 0.11982519 0.1644432 -0.04825912 -0.032451693 0.39056474 -0.09723284 0.03926994 0.11302881 0.21507071 0.074857965 0.0388058 0.57224464 0.110225864 0.0865631 0.2281537 0.3580877 -0.09901755 0.54195863 -0.15875475 0.24027006 -0.20657364 -0.08049083 -0.6774107 0.18537086 -0.16862242 -0.14978755 0.07494483 -0.20597266 0.30289134 0.20123093 0.33954975 0.17019126 0.19634743 -0.36139935 0.16929343
438 -0.09315012 -0.11512585 -0.055289995 -0.027792584 -0.5728463 -0.08310777 0.18712309 -0.3409614 0.016254218 0.20895404 0.08047657 0.02138504 0.17194292 -0.0419494 -0.05288143 0.07773442 0.26681286 -0.32376397 -0.19820607 0.17352076 -0.185002 -0.08564597 0.07756211 0.016641276 0.08339929 0.06975103 0.09685968 -0.05493773 -0.037574023 0.09503768 0.19622031 -0.04127889 -0.19009726 -0.041712027 -0.0076003913 0.036114793 -0.027756123 0.20837142 0.33428252 0.31003833 0.18818843 -0.5314513 0.07424579 0.092955515 0.20793387 -0.31432253 -0.07572353 0.16927415 -0.05359921 -0.061069734 -0.17242113 -0.19858924 0.17143816 0.4344948 0.37751734 -0.09865522 0.25650567 0.09066654 0.16792288 0.17180714 -0.17202528 -0.23163508 0.06030438 -0.06822656 0.022513665 0.01729654 0.13271926 -0.016366698 -0.061707206 -0.045837685 0.019834382 0.16823171 0.014366662 -0.041351326 0.056219917 -0.09570804 -0.007783049 0.09613398 0.0669033 0.07231185 0.16274673 0.3214363 0.15137677 -0.2275065 -0.09437256 0.08941577 -0.29578707 0.03563823 0.08388017 -0.25898015 -0.06323484 0.15493242 -0.18414326 -0.009209868 0.05305468 -0.053124636 -0.085022286 -0.12050461 -0.08662753 -0.45269606 0.013040773 0.08317089 0.2380854 0.30662516 -0.07123877 -0.04569731 0.1449678 -0.1676552 -0.078952864 -0.0815011 -0.06034417 0.12943539 0.0078690825 -0.17570476 -0.16096407 0.24678665 -0.121877275 -0.36346912 -0.21541762 -0.18363786 0.172284 0.34679592 0.046382405 0.22460951 -0.3781383 -0.20133139 -0.13184336 -0.14513908
20 0.15984191 -0.19177437 -0.16570975 0.14017244 -0.21961783 -0.10279145 0.02323799 -0.13778217 -0.06394645 0.31299263 0.21906161 0.052318003 0.08622015 0.024372635 -0.19183482 -0.062708884 0.21671823 -0.40894285 -0.15129115 0.15158786 0.0020233947 -0.2435466 -0.022696817 0.16735752 0.039796438 0.04163674 0.12177342 -0.057729863 0.05782998 0.09766431 -0.0714678 -0.3229732 0.10508312 -0.06270114 -0.18451 0.07446562 -0.0077524194 0.28073224 0.08317315 0.38953775 0.13285038 -0.66780525 0.13932054 0.09484128 0.55818623 -0.13450423 -0.0060971444 0.1940778 -0.00094831 -0.041231304 -0.21670753 0.0043400195 -0.0088961795 0.43820277 0.40677983 -0.10876234 0.4611537 0.052492704 0.1740233 0.1907401 -0.0029318393 -0.15549451 0.18213278 0.18045685 0.14538072 0.08009841 0.00019324635 0.016035644 -0.108025424 -0.08400048 -0.008173371 0.10123391 0.10626449 -0.10811349 0.106816284 -0.0518165 -0.09661877 0.08378578 -0.03699392 0.03473171 0.11396173 0.2805524 0.17073399 0.053077474 -0.07349037 -0.16222624 -0.3336613 -0.17209835 0.02063836 -0.006542798 -0.0072186203 0.22382772 -0.29302016 -0.0896399 -0.29946023 -0.06963227 -0.0467735 -0.08212402 -0.027434114 -0.29344383 0.11946795 0.075819455 0.16741042 0.18550578 -0.17166358 0.08709246 0.14636485 -0.1674917 0.09364145 -0.045239992 -0.057054214 0.04368139 0.1330189 0.0055971076 -0.36476597 0.071653955 0.05209912 -0.04013073 0.0046479707 -0.19420983 0.07917656 0.2979767 0.1664374 0.11558257 -0.19238107 -0.2921114 -0.117460124 -0.18746117
394 -0.26650742 0.36639667 0.48717177 0.13459818 -0.369081 0.079264134 0.39570147 0.21639094 0.18399362 -0.47601822 0.05156834 0.20760636 0.14288786 0.32504725 0.3044969 0.057330493 -0.32961595 0.017908856 -0.31367043 0.15879986 0.05779072 0.49602273 -0.70198345 -0.023246273 0.3390306 -0.4949592 -0.20169277 0.39939183 -0.20811823 -0.008068781 -0.21265471 -0.001069677 0.43188977 -0.5633314 0.11830988 -0.7311675 0.012607198 0.17062382 -0.005747282 0.17575753 0.11938233 -0.13566339 0.22780448 0.0723516 0.18225752 0.34796235 -0.50635684 0.12561466 -0.07234808 -0.19027163 -0.29335225 0.16629402 0.25915012 0.6716917 0.7492538 -0.1319336 0.3461249 0.019908689 -0.22668402 0.31061694 0.60894907 -0.15414378 0.27518532 -0.88672966 0.18146458 -0.08082851 0.11127386 -0.24174716 0.28782094 0.13600297 0.3434103 0.06499657 -0.37509257 -0.1595733 -0.12195502 0.34475836 -0.50295514 0.17340548 0.34963995 -0.25802872 0.1923331 0.38852027 -0.22126958 -0.15584843 0.1832671 -0.3239637 -0.16008984 -0.27420697 0.37653685 0.15070567 0.022922186 -0.019478844 -0.20040698 0.25567552 0.38777882 0.16949841 -0.13395818 -0.24879679 -0.1926008 0.1591176 -0.37724227 -0.21423678 -0.3169131 -0.5217068 0.16053902 0.094637394 0.2791839 -0.20620827 0.37531853 -0.18873502 0.07718808 -0.27069283 0.023423245 -0.34976256 -0.41631705 0.2588157 0.20309493 -0.64408624 -0.12656608 0.35303545 0.5935648 -0.17498057 -0.40969443 0.1891249 0.11992622 -0.21990958 -0.0874515 -0.06378059
232 0.009896481 -0.123933546 -0.21680182 -0.12692073 0.27150247 0.23272753 0.0903974 -0.021735124 -0.21522985 -0.073966786 0.11259178 0.057643145 0.040142015 -0.19970942 0.068405 0.16509846 0.27554345 0.16802248 -0.105439395 0.19962241 0.064927846 -0.5101376 0.06959611 -0.13493125 0.1425675 -0.11094299 0.17256778 0.2020343 -0.03725932 -0.03676123 0.2472895 0.072567314 0.38397047 0.12806667 0.28492913 -0.035914503 -0.83586305 0.4232485 0.0055224975 0.08407201 -0.36330244 -0.25845924 0.44022894 -0.07390679 -0.109152764 -0.49064317 -0.15427355 0.02973509 0.05774551 0.413944 -0.15820299 0.35210004 0.3439098 0.48780018 0.4245455 0.41676337 0.19568592 -0.10243513 -0.07290171 0.073467106 0.14496507 -0.16707122 0.23821127 -0.8075052 0.30624077 0.012515336 0.21979654 -0.20293353 0.25038123 0.47289023 -0.13272089 -0.61097604 -0.084208764 -0.09913863 -0.13708559 0.26097983 0.36051744 0.13229048 -0.16783974 0.09835469 -0.044498753 -0.010225526 0.6935877 -0.011145729 -0.16868193 -0.27847162 0.07106686 0.011322854 -0.12314282 0.3852133 0.060013253 -0.27889815 -0.00388032 0.10355088 0.16811375 -0.11151909 -0.06645784 0.23418465 -0.116083905 0.0706205 0.06688409 0.3126202 0.17600963 -0.061810985 0.5041479 0.10436227 0.11705469 0.16103898 0.37199375 -0.10833961 0.50103086 -0.12145439 0.0020011421 -0.19395667 -0.20189835 -0.4772864 0.2040345 -0.012657627 -0.00054435874 0.014214626 -0.18279952 0.3518913 0.34487852 0.3238437 0.120725706 0.09949601 -0.26863474 -0.0337976
130 -0.3963795 0.26579306 0.17545243 -0.041969817 -0.8349015 -0.04614624 0.1777777 -0.32224613 0.19252414 0.33614302 0.3045354 -0.043318834 0.26663888 0.050390884 0.0421767 0.18023016 0.3014681 -0.23920453 -0.17826782 0.052968204 -0.2263231 -0.032892782 0.11548377 -0.0010544972 0.0826353 -0.0649282 -0.09200551 -0.24103965 -0.08206558 0.12571377 -0.044933863 -0.0033502558 -0.3275116 0.025460383 -0.08232521 0.12154685 -0.29080492 0.5159998 0.23914523 0.12793209 -0.2315923 -0.05677091 0.21053384 -0.43749276 -0.15884355 -0.24626397 0.15369582 0.21591252 -0.061371807 0.028434284 -0.11502272 0.07313564 0.21758658 0.082851134 0.14259593 0.112920225 0.12846854 -0.03315569 0.25287583 0.15687543 0.055859867 -0.28647405 -0.09404797 -0.25496492 0.2376493 0.2124792 0.35436127 0.04876348 -0.023396144 -0.17861792 0.1175997 0.19011982 0.10736886 -0.0052490467 -0.069532834 0.24101503 0.17682385 -0.567521 0.11309247 0.047409553 -0.03626898 0.01077339 -0.21460792 -0.093093134 0.009411408 -0.029904788 0.025403896 -0.13232748 -0.12143397 -0.10962602 -0.10296668 -0.06977371 -0.29444265 -0.20960641 0.10538442 -0.15038447 0.0030626634 -0.43981922 -0.2689744 -0.25217864 -0.048222978 -0.0033757468 0.24301964 -0.1148365 -0.32971144 0.30147383 -0.17482287 -0.065465495 0.061056 -0.03454431 -0.11741366 -0.20194143 -0.127129 -0.17565538 -0.2139693 0.12376582 -0.17843053 -0.23229243 -0.25463668 0.024246266 0.23881018 0.23078422 0.17689212 0.053372238 -0.4866566 -0.15402357 -0.081457525 -0.07765517
320 -0.29468217 0.52663404 0.61785465 0.20869298 -0.053629942 0.082884215 0.5184123 0.0871272 0.4123752 -0.52455014 0.21288498 0.034978196 0.21821308 0.38024953 0.31266254 0.10621998 -0.41754177 -0.022737253 -0.42593175 0.32918885 0.024577836 0.39457265 -0.6509024 -0.12760614 0.6624684 -0.55065435 -0.22926086 0.40465102 -0.088630565 0.016137835 -0.3614182 0.07215587 0.3088479 -0.74655855 0.14893408 -0.54596204 -0.0994805 0.18042177 0.076234266 0.32845733 0.07202344 -0.15766808 0.3377155 0.045662474 0.2227659 0.30694485 -0.5977041 0.118384816 -0.32293922 -0.3041717 -0.12696588 0.08757355 0.3087396 0.7581177 0.71738976 -0.10612507 0.27884203 -0.17139842 -0.044643156 0.24080203 0.721618 -0.24748738 0.42397508 -0.9864832 0.14502127 -0.19993977 0.04165268 -0.069443926 0.33416194 0.06857075 0.4533342 -0.040528465 -0.44234124 -0.2236765 -0.12985711 0.26596102 -0.5056604 0.25592265 0.37463346 -0.15083754 0.23318967 0.2965093 -0.15784965 -0.016745048 0.10933562 -0.3979773 -0.11302148 -0.4139584 0.4034152 0.050992746 0.019110868 -0.016607521 -0.007853086 0.22440124 0.21688461 0.38538277 -0.107449055 -0.3683379 -0.06298982 0.2508178 -0.20083193 -0.013218694 -0.30937776 -0.43186674 0.22580183 -0.109168984 0.3205022 -0.17830323 0.21258144 -0.14901194 0.14052059 -0.1800248 0.17877041 -0.07207097 -0.573311 0.450075 0.2600209 -0.6682896 -0.16664734 0.4658953 0.425739 -0.04831285 -0.66674495 0.26786682 0.09418756 -0.35032365 -0.20026766 0.004301556
51 -0.010819662 -0.21094655 -0.0035750691 -0.14346263 -0.14591703 -0.1738511 -0.26162156 -0.10451253 -0.25016975 0.41049802 0.106188565 0.13008311 -0.023626398 -0.10899535 0.14709257 0.23939645 0.33443373 -0.26762554 -0.113933235 0.22653279 -0.29234037 -0.15084395 0.021194736 0.06251566 -0.332597 0.05088268 0.024825644 0.07077178 0.03828469 -0.30847394 -0.25714365 0.0029428387 0.6170096 0.032721054 -0.024786571 -0.11196054 0.02647072 0.12356216 0.060917053 0.22631937 -0.14338653 -0.19871219 0.33705732 -0.17435634 0.35737607 0.2685844 -0.10091511 0.0025512131 0.28469315 0.38316354 -0.09168167 -0.37291536 0.33291286 0.3767302 0.52414334 -0.13364694 0.053337585 0.103591874 -0.1600782 -0.033731803 0.10393951 -0.30596817 -0.18552272 -0.36539778 0.19852002 -0.1700092 -0.48351985 -0.321804 0.25221023 0.19151822 0.20574209 -0.3062393 0.27142516 0.02606869 0.11430853 0.33446485 0.4525663 0.26388872 0.15791751 0.33679986 -0.35028532 -0.04656374 0.13641393 -0.2873703 0.27011248 -0.387816 0.066729926 0.26535422 -0.1007807 -0.097156346 0.37828994 -0.14150424 -0.041326497 0.00439359 0.20243435 0.33009264 0.13283396 0.16972528 -0.26147193 0.33248326 -0.13814135 0.22713833 -0.24347451 0.11788828 -0.047297064 0.35569546 0.05709051 0.35175684 0.03524081 -0.08087182 0.3101361 -0.18186308 -0.027317597 0.21015596 -0.056719705 -0.14036143 -0.030138621 0.30927068 -0.1519235 0.25819093 0.14260724 -0.19462812 0.037875794 -0.08052934 -0.1328113 -0.38638225 -0.3718049 -0.13641235
290 -0.00831527 -0.07217382 -0.2912752 -0.2960109 0.3593055 0.3226736 -0.14594045 -0.07612491 -0.066513754 -0.07303926 0.06880945 -0.049366258 0.10123365 -0.23092525 -0.04494214 0.16736712 0.26086977 0.097423494 -0.06120912 0.2782436 0.055804994 -0.43719894 0.0934547 -0.21590528 0.15278865 -0.0011380572 -0.03613325 0.26514578 0.035934713 -0.03700524 0.14701416 0.15735392 0.32260576 0.07032245 0.23497163 0.008192696 -0.8236493 0.40044397 0.106716946 0.20075502 -0.32837382 -0.18784684 0.44904926 -0.19989888 -0.06644491 -0.5257473 -0.051972084 -0.08344313 0.029027527 0.30218235 -0.06441917 0.23049541 0.43525067 0.5267408 0.41954094 0.39212126 0.21776153 -0.08318329 -0.018016739 0.109988146 0.18277958 -0.24618106 0.17959684 -0.83285755 0.26684192 0.015024276 0.20319103 -0.16200903 0.026694119 0.3680336 -0.062264815 -0.5993979 -0.28619304 -0.073912166 -0.107148275 0.22733316 0.31216738 0.09676805 -0.11007071 0.05260215 0.0023485438 0.021658512 0.68654466 0.014913626 -0.25405693 -0.11411821 0.06341998 0.00408137 -0.16776711 0.45285192 0.11949289 -0.25581232 0.044966254 0.11314656 0.14050756 -0.10331742 -0.13396043 0.26342312 -0.08978733 0.062371556 0.057927027 0.38614663 0.12752979 0.087871574 0.4459995 -0.012085485 0.0378001 0.24426553 0.3071167 -0.081575386 0.5420178 -0.19851874 -0.025791094 -0.16379987 -0.289053 -0.4794304 0.10312147 -0.103912055 0.002900925 -0.030253205 -0.20647669 0.41832176 0.35467446 0.25895852 0.028060416 0.20097539 -0.33403963 -0.05927998
461 -0.07026264 -0.028584495 0.012935804 0.19619873 -0.5191697 0.071438976 0.1591327 -0.32131281 -0.024313245 0.28284368 0.22646514 -0.0447885 -0.11143264 -0.12762049 0.034891736 0.044161245 0.31095368 -0.32043588 -0.19898471 0.06597942 -0.08453661 -0.056232806 -0.115555726 0.14748202 0.0347913 -0.12376671 0.2247823 -0.2815153 -0.16830803 0.10512489 0.075626604 -0.15156534 -0.14381312 0.016023839 -0.14174888 0.0018909547 0.14012185 0.39469227 0.17794764 0.23846221 0.20113668 -0.64494914 -0.0005926663 0.20218262 0.30573472 -0.35103902 -0.0882648 0.32323083 0.035948053 0.04375398 -0.2395447 -0.030327344 0.18584293 0.34550333 0.41113043 0.06211935 0.42972016 0.089540936 0.028958239 -0.005421726 -0.08238131 -0.23570527 0.18083134 0.18631195 0.1490021 -0.020417336 0.3582063 0.16365178 -0.2757521 -0.068542644 0.21169092 -0.020868065 0.098559275 -0.09224685 0.076920286 -0.046597574 0.06895683 0.20651813 -0.24707198 0.07206879 0.1883439 0.2580743 0.14884453 -0.06930039 -0.09822346 -0.003785691 -0.22274718 0.041081257 0.11622271 -0.14265555 0.16219641 0.23606566 -0.09354079 0.03739164 -0.07772077 -0.15463305 -0.045830812 -0.10044321 -0.2150884 -0.485894 0.16597974 0.18119672 0.08623095 0.28421608 -0.14448959 -0.02993783 0.14288172 -0.11020985 0.043819185 -0.29298854 -0.2447502 0.2626882 0.22925189 -0.0022986948 -0.36318943 0.35016733 -0.064761505 -0.04402761 -0.16961157 -0.014150539 0.09306032 0.23407848 0.17655706 0.20360078 -0.104446486 -0.18491448 -0.3289804 0.0077236127
125 0.23948605 -0.05813124 0.12921792 -0.054676816 -0.28015685 0.29810777 0.15511863 -0.11076197 0.3462103 0.019755868 -0.23806676 0.3045298 -0.02231951 0.032530606 0.0033720687 0.117748074 -0.007195303 -0.08441773 -0.30386454 -0.15838014 -0.32772008 -0.016156372 0.17379381 0.22537938 0.035613466 0.12600146 -0.18716161 -0.24178897 -0.065952174 0.124930315 -0.2446373 0.03740346 0.20282845 -0.033197355 -0.043119166 0.05210881 0.05079443 -0.031089058 0.113072395 -0.18543144 0.1499309 0.24576485 -0.07319737 -0.13052954 -0.15239014 -0.24988578 -0.24994285 0.42127213 -0.03752039 0.011663938 -0.2369118 -0.09232707 0.44865116 -0.023799838 0.29965156 -0.04727954 0.31186563 -0.058826327 -0.18839167 0.10683739 -0.35414714 0.05761623 0.14874934 -0.15019274 0.28179994 -0.0028331245 -0.12976559 0.17755006 0.006508746 -0.26181054 0.0073674535 -0.1772089 0.001391635 -0.063675724 0.052736517 0.35128525 -0.06853676 -0.0972868 -0.009727172 0.092896074 0.10358909 0.099846385 0.057485748 -0.16729625 0.25875798 0.18094118 -0.10516563 -0.014020757 0.04574108 0.14477187 0.14173245 0.22164175 0.0019431484 -0.09918889 0.2981379 -0.19079943 0.016669976 -0.06311351 0.12753312 0.29167494 0.06411431 -0.11246635 0.18329059 0.12735783 -0.16564298 0.01919131 -0.05123327 -0.19543356 0.34742618 0.39061037 -0.06839667 -0.1756329 0.09238985 -0.16690846 0.027462136 0.26182386 -0.020782543 -0.16120294 0.11362572 0.3534017 0.43036747 -0.12635072 -0.20938152 0.32611567 0.22230104 -0.0015687462 -0.3364019 -0.19773522
128 0.091593936 0.09202577 0.33888105 -0.011425363 -0.7402824 -0.010894547 -0.021505296 0.19687487 0.39960223 -0.13091332 -0.01604272 0.23444478 0.22820072 0.14159003 0.15911196 0.19969948 -0.17812495 0.059627015 -0.18294579 0.12482909 0.010287903 0.08979249 0.38445604 0.16998369 0.040113103 -0.20666847 -0.17672868 -0.108993754 -0.28320548 0.016901571 -0.005608569 0.17376067 -0.2208688 -0.14755493 -0.16721757 -0.041554153 -0.110765286 0.27401417 0.14005905 -0.17143112 0.085410036 -0.19747737 0.026537597 -0.32742432 0.45116428 -0.06596753 -0.01847105 -0.1461989 -0.09850065 -0.00035334274 -0.32511264 0.10201388 0.58549994 0.0073777274 0.24260812 0.1470806 -0.12558304 -0.15542862 -0.22209196 0.021924436 -0.51760197 -0.32642448 0.17854469 -0.2207955 0.026439244 0.17691018 0.09873018 0.21078631 0.35878852 -0.3065307 0.21881214 -0.26724714 -0.07479913 0.07706087 -0.02127136 -0.036042087 0.23954771 0.010653702 0.26732635 0.11220167 0.22293875 -0.18182032 -0.16407055 -0.27114657 0.03863879 0.04971873 -0.19251747 -0.081537664 -0.15439183 -0.05797327 -0.0061926143 0.19839635 -0.1751653 -0.16500281 -0.027237386 -0.10362718 -0.069802776 -0.22657654 0.2614891 0.23000322 -0.059240025 0.01826581 0.23026367 0.38664046 0.0056180414 0.41990596 -0.01953752 -0.14826024 -0.007918765 0.03437376 -0.08985266 -0.11391202 -0.14918984 -0.33355954 -0.06817202 0.39997464 -0.12944327 -0.58102167 -0.16999601 0.23409346 0.08090862 0.11906108 -0.034064945 0.116751365 0.1866241 0.3160057 -0.19406761 -0.1079282
391 0.07213368 -0.040130448 -0.18677391 -0.2263958 0.46259218 0.33539695 0.07305163 -0.11761567 -0.26906326 -0.07914886 0.12689961 -0.18696572 0.080348045 -0.19802244 0.06101147 0.024262484 0.36800814 -0.030357914 -0.092498705 0.27497846 0.107221656 -0.38703254 0.07274645 -0.27085418 0.2207425 -0.13067973 -0.015995216 0.10193583 -0.19818692 0.05084404 0.22260894 0.057493757 0.54522574 0.10397351 0.4534893 0.053271282 -0.87236637 0.4626556 0.10552239 0.11480566 -0.24441028 0.04782026 0.274357 -0.14334004 -0.014050756 -0.5621327 -0.16866384 0.08371003 0.07631307 0.2560656 -0.19373411 0.3633614 0.30331835 0.48755333 0.33268592 0.45468557 0.27841336 -0.13510884 -0.1325336 0.1749455 -0.087486334 -0.27731958 0.20436795 -0.68185496 0.3707679 0.0017832982 0.16944042 -0.10012372 0.13426977 0.30864078 -0.13687377 -0.51947594 -0.043269522 -0.076386385 -0.048651047 0.14729911 0.39842597 0.13017896 -0.040761393 0.16380455 -0.11050372 -0.1318428 0.7276442 -0.073439464 -0.13559417 -0.3409711 -0.049606178 -0.26234648 -0.15539502 0.35549983 0.009773476 -0.21240333 -0.055115048 0.22481498 0.13713261 -0.15867536 0.00022321125 0.32882378 -0.20365764 0.062487315 0.06018303 0.37240687 0.19967991 -0.002083042 0.5973351 0.12702456 0.05802713 0.20370458 0.35922843 -0.18399741 0.4403096 -0.17609335 0.015856393 -0.04122515 -0.24319276 -0.4301479 0.11113452 -0.10617752 -0.0015016312 0.1621099 -0.16600163 0.30487496 0.2650072 0.34151098 -0.03081535 0.09317832 -0.36049294 -0.12345115
469 -0.2836924 0.25545758 0.68774563 0.22844721 -0.046349827 0.0042427024 0.40530896 0.0942289 0.4169863 -0.3789393 0.17353696 0.3224123 0.13677078 0.3597736 0.26005623 0.14618538 -0.4231271 -0.07044042 -0.46257457 0.2328107 0.09390913 0.33605844 -0.6787577 0.014730675 0.5137433 -0.61633307 -0.3481967 0.14668082 -0.22852522 0.121807806 -0.29893506 0.09562249 0.27877966 -0.6283613 0.11424086 -0.693621 -0.06873516 0.08377954 0.08869312 0.09941014 0.08037537 -0.3047418 0.10416873 0.015929848 0.23605247 0.27472976 -0.65011173 0.10047344 -0.556094 -0.42100462 -0.1928235 0.029553456 0.48514143 0.6356331 0.7889189 0.05973925 0.3622325 -0.26902008 -0.2646658 0.024533046 0.859165 -0.11448037 0.26953444 -0.75813293 0.22033307 -0.05423352 -0.03288767 -0.0857161 0.43360138 0.099147424 0.31307298 -0.010440565 -0.28731558 -0.3241102 -0.15524451 0.35253838 -0.3484451 0.36615768 0.18806885 -0.33902395 0.23304269 0.29020128 -0.15525335 -0.1120041 0.18333672 -0.36644778 0.078314036 -0.4430081 0.30921486 -0.11705153 -0.12047422 -0.13214242 -0.07272432 0.19464941 0.26301146 0.1858473 -0.06924418 -0.3843159 -0.038307875 0.028041324 -0.21591829 -0.27824548 -0.22544755 -0.6291576 0.19086541 -0.018663973 0.34535557 -0.36842903 0.20844193 -0.22162814 0.32672736 -0.2682 0.16833659 -0.1851231 -0.54820293 0.19854692 0.30702883 -0.62215793 -0.096528076 0.41546062 0.43056378 -0.048252635 -0.48185736 0.3382483 0.11054447 -0.34652486 -0.14806053 0.029170793
