531 128
147 0.15877084 0.021840366 -0.36857277 0.105868235 0.41479662 0.0049542026 0.2506951 -0.45616183 -0.10950777 -0.23055457 -0.12239465 0.19115151 0.19884655 0.1241342 -0.34828585 0.009595062 0.015257004 -0.09615553 0.1277691 0.29439855 0.2976636 0.23516609 -0.36810976 0.068849966 -0.07352119 0.3088562 -0.4677332 0.4699493 0.2499566 -0.3033681 0.13344939 0.38558158 0.018539546 0.12210164 -0.075063504 -0.08626872 -0.30745623 0.0016796712 -0.06567101 0.75832134 0.1974566 -0.123909764 0.35398278 0.2544446 0.2535976 -0.160418 0.11638231 -0.16394322 -0.38616565 0.22145516 -0.11097897 -0.1409869 0.22723086 0.18201315 0.30050868 0.7996106 0.35721484 -0.13554206 0.016341764 -0.07678988 0.07452561 0.120457835 0.057135712 0.53829825 0.07852486 -0.34894076 0.17235926 0.38131773 -0.3521151 0.12770641 0.17801161 -0.2738513 0.08409791 0.13071755 0.09391283 -0.47048333 -0.40227553 -0.12254926 0.5138221 -0.29662248 0.48302495 -0.21903346 -0.3304224 -0.035268098 0.2474607 -0.170984 0.15582521 0.37989897 -0.43670154 0.20023447 -0.31089407 -0.18533076 0.31618908 -0.10410955 -0.14433163 -0.23797637 -0.031229023 0.18618603 -0.09687534 -0.330758 0.10641523 0.2742578 -0.35978147 -0.2946124 -0.23311493 -0.1179551 0.32068074 -0.022228131 0.10187538 -0.06762163 0.27028894 0.4352152 -0.019447168 0.2122373 0.059938297 0.26925433 -0.27608982 -0.21791738 -0.07215756 -0.07539893 -0.29493755 0.058460396 0.44292516 -0.18466552 -0.29852244 0.6085508 0.437409 -0.06331947
429 0.23480813 -0.05564112 -0.25304988 0.061649483 0.3808119 0.111506976 0.19603695 -0.42385548 -0.13786367 -0.16877757 -0.17647626 0.27985555 0.27876133 0.05966932 -0.37421957 0.012018588 0.00511934 -0.09242055 0.07378408 0.3193631 0.2408369 0.2523548 -0.40546867 0.1079617 -0.16782217 0.25139356 -0.553464 0.47643623 0.14773303 -0.3464596 0.079405844 0.3037778 0.023980701 0.17493421 -0.008555147 -0.12047525 -0.29982343 -0.078767106 -0.17320071 0.89616525 0.22466747 -0.17739965 0.38409612 0.23875107 0.25574136 -0.14040501 0.11152038 -0.07921798 -0.34537214 0.24871132 -0.007991282 -0.061580423 0.26175344 0.15537682 0.30474585 0.6942985 0.31600398 -0.17559907 0.14933896 -0.019284034 0.07945529 0.107668184 -0.0256344 0.57167 0.00891601 -0.2628982 0.16007482 0.38430613 -0.32633126 0.11346468 -0.011126408 -0.16329007 0.0841642 0.1681371 0.25033286 -0.37503818 -0.37008452 -0.18121947 0.574418 -0.26467255 0.4258266 -0.16508302 -0.4048335 -0.07745305 0.2181064 -0.2846056 0.12246008 0.29043412 -0.43975648 0.16032259 -0.3590108 -0.11625535 0.3110715 -0.007531457 -0.0384229 -0.25019577 -0.001323695 0.17540568 0.008912945 -0.42486903 0.09848915 0.33397415 -0.30512998 -0.43249556 -0.21106859 -0.15517507 0.24708399 -0.18027835 0.17706744 -0.15721919 0.288205 0.4927497 0.15900108 0.16006106 0.07005939 0.34661397 -0.3316063 -0.16781087 0.024830196 -0.043575194 -0.25864962 0.049244147 0.4814349 -0.15110174 -0.48239383 0.5855264 0.34006318 -0.010190055
502 0.21188714 0.004738541 -0.33782747 0.1673978 0.31130123 0.15018268 0.14429149 -0.326227 -0.16581464 -0.15124395 -0.095575415 0.24614652 0.32300115 0.14404328 -0.4786226 0.06517957 -0.015936516 -0.08864685 0.11027293 0.37867406 0.27401376 0.2523183 -0.3334986 0.09977691 -0.12363797 0.18914905 -0.4487876 0.40896422 0.14964901 -0.38504633 0.15721852 0.3506932 -0.07182745 0.20778383 -0.07869791 -0.084529854 -0.27394927 -0.056136485 -0.13009293 0.82100695 0.19960085 -0.16854626 0.4861059 0.32856736 0.27523178 -0.1296772 0.15225169 -0.13558187 -0.2649205 0.2813039 0.026440358 -0.19624004 0.19780058 0.2193316 0.30233386 0.6889362 0.36679035 -0.16902004 0.114057705 -0.08642469 0.20604952 0.10414346 0.10994274 0.6726554 0.0469238 -0.27303204 0.068067685 0.36904097 -0.3639898 0.22247349 0.037899956 -0.13368602 0.2593217 0.19190526 0.18258125 -0.48009548 -0.50423723 -0.12509835 0.5905059 -0.2164894 0.3725379 -0.1305788 -0.37880486 6.0455204e-07 0.28945795 -0.21408278 0.14203738 0.27954718 -0.4396002 0.07153819 -0.42222854 -0.17511077 0.2745348 -0.008735448 -0.19824171 -0.09587626 -0.00315848 0.22025125 -0.08752025 -0.36773238 0.08440669 0.39132974 -0.29237437 -0.4137602 -0.12283447 -0.02956705 0.13533121 -0.12548098 0.26398182 -0.1277852 0.19907804 0.43339106 0.02943472 0.17942482 0.048755787 0.328235 -0.3944954 -0.15560743 -0.0005084278 0.018337801 -0.256469 0.02137341 0.40138724 -0.10402007 -0.37883863 0.5649308 0.40617597 -0.031950656
426 0.39719072 0.16235268 -0.5189989 0.13554649 -0.3531011 0.022550197 0.04484491 0.16194735 -0.03466829 -0.29922926 -0.20927769 -0.8745034 0.32260162 0.08285392 0.12807067 -0.37973648 0.9703779 0.26036683 -0.51674086 -0.32404032 -0.18491487 0.098859034 -0.6392909 -0.6364173 0.018792994 -0.37341577 -0.50851303 1.0910227 0.17675889 -0.010863599 0.31434947 0.16427013 0.26685005 0.06391607 -0.039906237 0.35133162 -0.41111824 -0.0027148747 -0.22360563 0.058423094 0.43737346 0.27048618 0.5907831 0.57951134 0.1996114 -0.5464752 0.49065998 -0.036973648 -0.43231952 -0.27078766 -0.024108063 -0.29186183 0.50926095 0.34647208 0.17002872 0.06748016 0.11270741 0.5885038 0.17913485 -0.11274555 0.1356976 0.085901424 0.32940453 0.026173064 -0.39575118 0.13780017 0.008248959 0.3233935 -0.40044358 0.35275197 0.08113998 -0.0836871 0.39805013 0.073379405 0.48321372 -0.63019526 0.39225313 -0.3858592 0.020134972 -0.11288246 -0.03128758 0.4724177 -0.080402374 -0.36211014 0.016585449 -0.036103792 0.1182301 0.122263364 -0.59693366 0.64273345 -0.49805212 0.10808632 0.38857085 -0.11295073 -0.32961163 -0.7524435 -0.13778207 -0.18318772 -0.044582516 0.34960267 0.22789133 0.13448025 -0.5156256 -0.10703711 -0.009448141 0.1507629 0.29131624 -0.7882705 0.13763262 0.8277905 -0.23731102 0.04226152 0.22245657 0.49824217 0.15754743 -0.2882904 0.3019806 0.13965343 0.6932943 -0.07813986 -0.4362407 0.21168952 0.10959591 0.08290199 -0.037341133 -0.118618466 0.1368624 0.28022206
489 0.41697308 0.092247576 -0.4812125 0.11746948 -0.3033984 0.01202403 0.025493277 0.14437534 -0.022121426 -0.3186784 -0.16097088 -0.83857536 0.27858293 0.016348733 0.12491122 -0.35592538 0.9089042 0.24096337 -0.53147584 -0.31140524 -0.10912383 0.10691728 -0.5804292 -0.58350915 0.06455073 -0.25250867 -0.45411327 1.0125962 0.014487793 -0.10159692 0.45266852 0.21227285 0.24829909 0.16522697 -0.058286827 0.35978448 -0.41749856 0.09019196 -0.18536857 0.008237883 0.2542501 0.25948825 0.6293667 0.49513063 0.12717506 -0.4873803 0.47968283 0.018478509 -0.4138342 -0.24449666 0.022662016 -0.29232386 0.42304575 0.31502554 0.24278052 0.16536127 0.102399044 0.5295021 0.21307607 -0.044071816 0.061098196 0.19013736 0.31384835 0.03416234 -0.31863582 0.06330579 0.018257532 0.37191164 -0.27244118 0.3730812 0.09706317 -0.035933938 0.30616966 0.041403666 0.34388483 -0.67338496 0.44473305 -0.40791062 0.012633664 -0.1024025 -0.106572986 0.5757783 -0.07321227 -0.31369263 -0.018339764 -0.0459162 0.11427754 0.15437925 -0.6142343 0.63067883 -0.49601054 0.15394014 0.38156798 -0.1140671 -0.36401317 -0.80368745 -0.18457638 -0.17927334 -0.061602604 0.2935764 0.17138575 0.14767337 -0.55397123 -0.1541736 -0.035820086 0.18008028 0.26931557 -0.71725386 0.18396884 0.85756654 -0.22595541 0.07290502 0.29956836 0.54854673 0.17096597 -0.3134951 0.3749143 0.19214262 0.7482218 -0.1132909 -0.47539586 0.23948988 0.1216367 -0.0048042126 -0.041682754 -0.072358795 0.084485345 0.27694035
127 0.35445487 0.15396121 -0.5000348 0.14843565 -0.30777216 0.022136902 0.0005937911 0.096097514 0.006910263 -0.19799891 -0.16439898 -0.8271112 0.29474166 0.05971257 0.20750467 -0.37151456 0.92659074 0.21804973 -0.47542205 -0.34195063 -0.16452244 0.16475452 -0.63325804 -0.5016466 0.010149919 -0.2880976 -0.47426596 1.1794314 0.020774113 -0.05654589 0.3471267 0.13563456 0.27967647 0.16348614 -0.05468509 0.4429848 -0.32663167 0.0067885444 -0.33540085 0.077872545 0.33634788 0.2355464 0.61517537 0.556284 0.16553317 -0.46258354 0.4413439 0.018524533 -0.42450625 -0.28661558 0.00879454 -0.32232544 0.465723 0.39430392 0.18458992 0.13550249 0.16259667 0.5743387 0.18597347 0.020912092 0.16668494 0.17045978 0.37644398 0.01112842 -0.37171456 0.15338877 -0.019845016 0.30852073 -0.2696865 0.18140957 -0.0070306547 -0.08299878 0.42941156 0.042920362 0.37710607 -0.6901749 0.44403347 -0.40644917 0.01882413 -0.033762004 -0.11498646 0.5011968 -0.08334325 -0.35257438 0.006489665 0.038190767 0.1140383 0.14726539 -0.54790294 0.5806466 -0.542723 0.23830844 0.4131302 -0.08337784 -0.3495951 -0.84203506 -0.22652563 -0.188554 -0.07902334 0.38876173 0.15064327 0.19147173 -0.5110997 -0.106011994 -0.074809186 0.24711904 0.29123586 -0.7192534 0.12686533 0.70575744 -0.25375372 0.028062563 0.25327343 0.57608443 0.06957411 -0.36474076 0.33729288 0.21075809 0.778536 -0.13887158 -0.48381934 0.30610135 0.14253289 0.093099795 -0.07773015 -0.09890252 0.13520117 0.25578097
250 0.45568982 0.16107215 -0.6207823 0.12462852 -0.26718742 0.025251264 -0.0027757653 0.09873142 0.043250974 -0.16679932 -0.12565172 -0.84394944 0.24055749 0.112523675 0.09809046 -0.46572646 0.9813345 0.124922216 -0.48113075 -0.35009584 -0.14946125 0.16318898 -0.5878702 -0.6194694 0.065457694 -0.27852544 -0.46268782 1.159649 0.035424605 -0.09973831 0.3994147 0.1496836 0.230738 0.11545833 -0.04525131 0.41341633 -0.33762568 0.07431823 -0.17640331 -0.00022278976 0.4581484 0.2273792 0.66230136 0.5735673 0.19716206 -0.47791594 0.4096216 -0.036052734 -0.35556456 -0.2842081 -0.06821297 -0.329327 0.48661935 0.30584767 0.20308553 0.00709854 0.15867314 0.64781564 0.20875105 -0.10305751 0.19141717 0.10033808 0.2976226 -0.018216869 -0.3048273 0.00800511 0.009103435 0.29417846 -0.35405728 0.2658887 0.038359992 -0.09482242 0.3929273 0.011111674 0.34232828 -0.6225193 0.44858828 -0.40712047 -0.032902777 -0.14818537 -0.13962728 0.55525386 -0.04297149 -0.29746664 -0.031519685 0.034548227 0.09344996 0.087063536 -0.5584419 0.7024245 -0.40506965 0.15751743 0.26019922 -0.17243989 -0.31543472 -0.6905459 -0.26943615 -0.1718371 -0.011849307 0.3133219 0.24610509 0.17393859 -0.5175621 -0.19005685 0.014603535 0.058642235 0.28596148 -0.7206367 0.1854291 0.8521352 -0.22694388 0.024150323 0.26133168 0.55053157 0.21498625 -0.23595656 0.34635746 0.16598426 0.7097089 -0.052252624 -0.42251742 0.24632277 0.13088804 -0.06517499 -0.0011547189 -0.13960673 0.013386267 0.1629942
145 -0.20893872 0.8174538 0.288053 -0.0031792975 -0.59202594 -0.028252307 0.33849734 -0.22467698 -0.31652647 -0.05385581 -0.7318721 -0.7578945 0.3115442 -0.011784065 -0.76299775 0.32740542 -0.23009476 0.819314 -0.06593289 -0.30356678 0.34602273 0.15676245 0.051903095 -0.22043817 -0.16216412 -0.024834622 -0.34176406 0.20569576 0.060817305 0.04649693 -0.21615562 0.074000895 -0.24037445 0.45910102 -0.7266639 -0.3791826 -0.61487126 -0.06904269 -0.23315042 0.31020078 -0.50693375 0.6631937 0.48529392 0.3191025 0.024771372 0.057047866 -0.16984676 0.5603695 -0.0075955493 -0.70580524 0.0658003 0.29077378 0.4069655 -0.51401025 0.26951522 0.54380506 0.13573845 0.19144554 -0.11182485 -0.23879658 0.46000972 0.3604543 -0.70434135 0.7694795 0.32450292 0.26129052 0.124522775 -0.38938725 -0.122003555 0.31908897 -0.14629437 -0.02616 -0.36194116 0.316894 0.732991 -0.24287811 -0.902323 0.29149467 -0.59568787 -0.038573638 -0.06184594 0.16095947 -0.47016892 0.17432947 0.15770008 -0.018239433 0.031397704 0.33046505 0.19763333 0.16755237 -0.44533634 0.1512933 0.18067254 -0.28685963 0.051455103 0.13581266 0.09564605 0.47270027 -0.19260909 -0.60449046 -0.009449149 0.5115503 -0.011006381 -0.33742666 -0.22817633 0.33237162 0.20141937 -0.12209157 -0.43407685 -0.039077405 -0.17389387 0.17829072 -0.09949513 0.55312407 0.3724223 -0.6438767 0.06210763 0.1678913 0.095503785 0.29572985 -0.6313507 -0.010486841 0.122433625 -0.2510354 0.2585922 0.573607 -0.4843917 0.11855516
58 0.17523986 0.32684475 -0.15103075 -0.101300366 -0.27004346 -0.039316863 -0.14207667 0.051290438 -0.22783221 -0.046882328 -0.14575261 0.09486161 -0.027579706 0.0266216 -0.22740449 0.05003175 0.101268694 -0.093198106 -0.01870432 -0.039221458 -0.03893206 0.24954005 0.28304917 -0.16857855 0.15445247 -0.099649996 -0.030506706 -0.036288884 0.16264167 -0.197267 0.12820043 0.07688921 0.17839044 0.2808779 0.020652246 -0.3376467 -0.32221466 -0.06259518 -0.11498674 -0.27136332 0.3500185 -0.046365652 0.015617793 -0.07533483 -0.26793474 0.4091379 0.36670005 -0.08405453 0.34550953 -0.4078461 -0.018112933 0.033799596 0.16600055 0.20283388 0.06410468 0.2592902 -0.20169614 -0.11984099 -0.060591973 -0.08593574 0.26295194 0.48302418 0.30141896 -0.08170491 0.013479548 0.2543134 0.093986616 0.1415848 -0.14031573 -0.22695199 0.12961613 -0.16652878 0.340088 -0.25560066 0.2521099 -0.12880754 0.1196751 0.059955284 -0.016458143 0.021751663 -0.2985993 0.08000705 -0.4538856 0.00046493302 0.15285917 0.1832454 0.18807256 0.19481097 -0.4735361 0.15344734 -0.017529387 -0.008266038 0.0150833735 -0.10624899 -0.13549815 -0.2786718 -0.1971085 -0.3710059 -0.06884268 -0.20823987 -0.47902232 0.25172064 -0.25966814 0.20784308 -0.027211724 -0.21419074 0.07165383 0.33953965 -0.041848518 0.3335732 -0.34979764 -0.017732512 -0.021965194 0.16031316 0.23052283 0.32061097 0.18917765 -0.06916172 -0.18492404 0.14809215 -0.15428402 0.26241288 0.14764772 0.18825886 -0.20958902 0.01972558 -0.13183321 -0.040116463
335 0.17703204 0.28681555 -0.24461547 0.30576533 -0.51193297 0.36978328 -0.082009286 -0.37172377 -0.13245407 -0.4153262 -0.31568143 -0.2096585 0.18770395 -0.55040824 -0.32675442 0.21047297 0.6640966 0.22030522 -0.08277762 0.2923022 0.69918495 -0.17397425 0.055646818 -0.26401737 0.18704788 -0.2958266 -0.44151008 0.01376926 -0.052020203 0.06593781 0.36960682 -0.4573968 -0.27246314 -0.20289363 -0.03473845 -0.1632575 -0.08752366 -0.014916818 -0.46603477 -0.12448288 0.21036573 -0.18118723 0.76959616 -0.34634927 0.33856976 0.21287502 -0.24392891 0.2841977 0.47762784 -0.13035886 -0.10491076 -0.06542669 0.3619651 -0.07697721 -0.15466604 0.031481642 0.058548845 0.5374465 -0.12144455 0.35004216 0.61818737 0.14493617 -0.07942684 0.1306652 0.112841964 0.2734928 0.043242775 0.060915068 0.3582947 -0.50008726 -0.33536917 -0.11309075 -0.13858016 -0.104344994 -0.15752009 0.016584687 -0.122993365 0.06891139 -0.035746276 0.022248253 0.34057736 -0.21646942 -0.5735438 0.2511477 -0.32925057 -0.348134 0.14039567 0.39116344 0.15219435 0.13303816 0.02306716 -0.24573049 0.0071875043 -0.051695608 -0.20457847 0.19371217 -0.20522283 -0.25167254 0.053804804 -0.23560509 0.2294672 0.21459872 0.26307327 0.13189723 0.0035975943 -0.5654041 0.526804 0.043851897 0.48356697 0.19248483 0.30047742 0.14936067 -0.018915167 0.037000686 0.1019365 -0.55434304 0.21937928 -0.29760814 0.4334845 -0.31109264 -0.121989205 0.044226807 0.1701331 -0.18322177 -0.3578029 -0.056682277 -0.032580897 0.3413436
307 -0.05188396 -0.32696724 -0.047805917 -0.018664377 0.12502894 -0.33951813 -0.05887907 0.020915763 0.1694037 -0.10488406 0.16014801 -0.55645645 -0.10356855 -0.0516017 -0.22151674 -0.20910428 -0.062483344 0.123976946 -0.15667403 -0.29032046 0.3756807 0.06302422 0.053241435 0.26044178 0.1814023 0.18750027 -0.42434376 0.011551441 0.5221998 -0.23340708 0.07184225 0.13749151 -0.5738415 0.105889395 -0.1448198 -0.31173638 0.10555465 -0.20729218 -0.19565476 -0.10685273 0.08296197 -0.31062013 0.36550036 0.10036312 0.2073278 -0.06756897 -0.31294388 -0.07424803 0.13045415 -0.555625 -0.1766836 0.13193974 0.06716013 0.06308835 -0.0073457165 0.024725107 0.039837345 -0.22600959 -0.05677462 -0.17650594 0.3874209 0.36031893 0.23194008 -0.023215367 -0.30566928 0.21135253 0.18943216 -0.024718584 -0.2614543 0.07547178 -0.12762357 0.10270888 -0.2456312 -0.0020719834 0.2931658 -0.3133531 -0.1336582 0.26028177 0.35477307 -0.14157052 -0.34544566 0.25849295 0.12385983 -0.018072033 -0.06451909 -0.45572308 -0.08581627 0.23077855 0.17550679 0.332021 0.06938442 0.18987696 0.19284278 -0.055351406 0.21723305 0.029946504 -0.066529095 -0.19463332 0.16811427 -0.15349211 -0.020308424 -0.1387372 -0.09658548 0.28594965 0.08718782 -0.120212585 -0.2092685 0.031062307 0.3466115 0.1433441 0.38721573 0.70817375 0.07145858 0.36589733 0.32368186 -0.330596 0.033098474 -0.47456896 0.14059842 0.54303676 -0.25502115 -0.1522655 -0.0035746437 0.22617443 -0.36955318 0.40103018 0.109213635 0.31260902
146 -0.15515128 0.8205203 0.32028085 0.08902595 -0.64258194 -0.034883015 0.3663903 -0.22414747 -0.41600165 -0.043390337 -0.82627267 -0.754521 0.27801692 0.026891358 -0.79243773 0.19285512 -0.20053509 0.8799465 -0.076748095 -0.19284198 0.2572471 0.12695706 0.058222644 -0.14793049 -0.14562312 -0.04704519 -0.4103544 0.19692346 -0.039774686 0.02746901 -0.15872869 0.1474432 -0.16835175 0.47085875 -0.69642764 -0.40583134 -0.557923 -0.13511705 -0.22296166 0.26834884 -0.54857504 0.5817294 0.4833819 0.32470438 0.15184882 -0.029388616 -0.10455751 0.52129245 0.088085845 -0.719709 -0.041357055 0.101687156 0.4019112 -0.5387611 0.36513084 0.44857234 0.22194856 0.067319036 -0.09855818 -0.1793074 0.39439517 0.29180014 -0.7389655 0.7505425 0.3493845 0.28785878 0.030337755 -0.36133 -0.19285622 0.3491141 -0.039221507 0.021140855 -0.40094295 0.30790138 0.698587 -0.36881962 -0.9086933 0.2520311 -0.5801534 0.076606765 -0.13359106 -0.047022864 -0.37736085 0.33038208 0.20488206 -0.07203742 -0.008212417 0.39687836 0.15887249 0.13527597 -0.34220967 0.02975804 0.13438497 -0.27919978 0.06735 0.08012394 0.12510873 0.4588443 -0.21273677 -0.5642598 -0.00860428 0.49587315 0.059782702 -0.29503396 -0.21791877 0.3003369 0.09477931 -0.029699367 -0.4528336 0.011297118 -0.12981585 0.2464476 -0.01157157 0.61142397 0.42521027 -0.6001994 0.017963223 0.17489165 -0.032782897 0.30003294 -0.5684327 -0.047639687 0.10840279 -0.30829236 0.09041607 0.68119776 -0.4157656 0.11575174
211 0.3089332 0.4682051 -0.36311492 -0.21449158 0.13017978 0.32134736 0.6008326 -0.49494743 0.061675124 -0.1819715 -0.5327793 0.02574632 0.1521629 0.15029266 -0.34308848 0.18303324 0.47664827 -0.03504435 0.14801122 -0.033862296 -0.18668316 0.34679735 -0.21070002 0.16094148 -0.103087336 0.04105264 -0.06378132 0.70289785 0.625141 -0.6500643 -0.36986294 -0.1158831 0.18145494 -0.5618796 0.3410801 -0.17686893 -0.043481372 0.06179038 -0.104333565 0.28282234 0.26172033 0.031841863 0.8615529 0.82205945 0.62920797 -0.17578468 0.17900738 0.13720265 0.14096645 -0.11104929 -0.025967957 0.3507291 0.53356767 0.20957875 0.24551162 0.06799134 0.33152002 -0.08176398 0.031600285 -0.030918771 -0.23196603 -0.06284355 0.054847058 0.34397253 0.15695015 0.020780737 0.16560653 0.4808246 -0.45444283 0.2704366 -0.109561846 0.10915269 0.37413913 0.28535917 0.17159452 0.10597211 -0.0070796455 0.09222092 0.04058766 -0.10408365 0.06970463 -0.11606503 -0.3112689 0.085015655 -0.07981683 -0.014868191 0.12496685 0.1396482 -0.20717417 0.17748708 -0.11435137 -0.16819437 0.051939014 0.0003771993 0.10663293 -0.28445056 0.4830995 -0.33698127 -0.1913202 0.10764846 0.27203408 0.35579434 -0.19149545 0.000908372 -0.5130934 -0.4577293 0.24062319 -0.11016879 -0.19023666 -0.22393928 0.16474833 0.3563913 -0.22843412 -0.08131143 -0.08730271 0.19237632 -0.4983995 -0.3877997 0.26079196 0.2116666 -0.37985915 0.28299284 0.057923667 0.28419647 -0.39594 0.2837087 0.35069367 -0.41441005
130 0.15616806 0.2894927 -0.21240869 0.423261 -0.5926917 0.33753297 -0.13124321 -0.35854387 -0.17839618 -0.51052195 -0.34526414 -0.21306573 0.22848128 -0.48864213 -0.25232428 0.19400017 0.6487603 0.23731609 -0.07746292 0.28978845 0.6693246 -0.18627566 -0.041650724 -0.18342341 0.16507404 -0.37347946 -0.3575633 -0.032919373 0.009760348 0.07692975 0.28983986 -0.3991998 -0.40782064 -0.15518233 -0.06549762 -0.1953758 -0.062406376 0.06500341 -0.48539987 -0.15468438 0.2196413 -0.103475705 0.68725085 -0.32634646 0.34573472 0.26676047 -0.2545362 0.21855207 0.615132 -0.092447385 -0.17706387 -0.12540978 0.34404504 -0.020695744 -0.03433738 0.16452153 0.0026840148 0.46159062 -0.116829574 0.26333293 0.6776702 0.12664548 0.004361037 0.23180509 0.057721455 0.19433208 0.020646308 0.10753806 0.42128095 -0.55242383 -0.36405554 -0.15211092 -0.13308752 0.0567948 -0.18104301 -0.018144825 -0.11940286 0.13125068 -0.17695789 0.04554016 0.41958922 -0.104178384 -0.5997328 0.29590768 -0.45004863 -0.47129515 0.0761726 0.48718628 0.14130229 0.12226618 0.0741921 -0.10184597 -0.11706553 0.14510094 -0.35075775 0.11737669 -0.38056323 -0.3592462 0.14164436 -0.16277255 0.11371181 0.14721811 0.36995527 0.13551252 0.031913903 -0.4727233 0.64004505 0.009445742 0.6038858 0.25360242 0.35284993 0.16818547 -0.029209575 0.08710347 0.08027661 -0.3790634 0.22977428 -0.3062513 0.486785 -0.31580052 -0.058720194 -0.022046663 0.33622375 -0.07191755 -0.26366827 -0.15446168 -0.026020596 0.40622592
228 0.24565308 0.3256259 -0.096184514 -0.11877672 -0.25454727 0.056508597 -0.21835855 0.04349522 -0.26474762 -0.04376502 -0.2561246 0.0061001023 0.13315445 0.07352584 -0.2005844 0.1252163 0.09210426 -0.07242166 0.014520423 -0.058785178 -0.001150448 0.24221927 0.26908278 -0.23163734 0.115613006 -0.1610191 -0.0103561655 0.017344613 0.21082565 -0.28007087 0.11977461 0.03152604 0.21147856 0.3363162 0.061407194 -0.3733373 -0.31892926 -0.039039448 -0.10852288 -0.31334916 0.40836588 0.01611483 -0.09543036 -0.08951979 -0.31912503 0.49210364 0.2976143 -0.078843504 0.29261056 -0.49597138 0.019196935 0.04579255 0.25438178 0.21629044 0.10314376 0.1368712 -0.16275352 -0.18392132 -0.113038205 -0.11696885 0.16460514 0.48505095 0.25225258 0.043183796 -0.020149475 0.3188032 -0.035732392 0.0575082 -0.19253565 -0.23783895 0.10948026 -0.1169214 0.30203873 -0.29658103 0.16742559 -0.04611049 0.11580873 0.13326803 -0.08069168 0.026569165 -0.3324561 -0.069025666 -0.52471066 0.049196094 0.058839113 0.17354907 -0.007039273 0.16013908 -0.45435643 0.22152905 -0.0056118052 -0.026890013 0.020680673 -0.16723256 -0.054259293 -0.28573212 -0.19728822 -0.27524906 -0.080402404 -0.26946554 -0.51503706 0.3574761 -0.30070308 0.13285391 0.014200758 -0.2380359 0.044149812 0.25355408 -0.038710784 0.35027012 -0.17991182 -0.07079413 0.008284577 0.10580319 0.22146995 0.33093375 0.30658045 -0.092972144 -0.08506632 0.23523507 -0.095768414 0.2548657 0.22617751 0.18544295 -0.27450454 -0.0396956 -0.123642504 -0.07518794
528 0.12661444 0.24207085 -0.17832507 -0.061672367 -0.18173303 0.009601183 -0.15112072 0.010310936 -0.23746252 -0.034171153 -0.17782825 0.05613248 -0.01347741 0.040518973 -0.16768162 0.099191956 0.13961008 -0.03953796 0.0036463928 0.051734857 -0.01593999 0.26279023 0.337644 -0.10531369 0.17179194 -0.13461849 -0.06768408 -0.052233472 0.20951955 -0.1434755 0.06872693 -0.02765314 0.25720528 0.30839178 0.035611343 -0.45170286 -0.3682291 -0.072862856 -0.10320971 -0.2629344 0.38126048 0.021983288 -0.009714313 -0.054956313 -0.36114123 0.50444174 0.288385 -0.13813272 0.27853167 -0.47244012 0.08178581 0.048780113 0.2392134 0.1899106 0.16169538 0.17158617 -0.22330059 -0.15009409 -0.11155138 -0.2001551 0.23318222 0.492677 0.30598685 -0.045394935 -0.036585495 0.23887168 0.058968868 0.051327273 -0.13978328 -0.19719112 0.13973927 -0.13203005 0.32939234 -0.21966448 0.2286776 -0.26072007 0.09785115 0.07619299 -0.020909697 0.021111466 -0.24456719 -0.035429273 -0.48399225 0.07525186 0.09746662 0.17990366 0.1459358 0.13752504 -0.5219942 0.1804487 -0.0034767555 0.080542594 -0.0010916074 -0.02593564 -0.05193521 -0.22196108 -0.10530652 -0.3466305 -0.08975649 -0.17809668 -0.56833607 0.2860594 -0.2673244 0.20164135 -0.0003622922 -0.26569664 0.12693483 0.26330757 -0.06778909 0.34288645 -0.25928015 -0.059876632 -0.074275196 0.18174414 0.19246818 0.25587222 0.26582897 -0.06847358 -0.18862186 0.22195147 -0.1061613 0.2685882 0.16442837 0.05042203 -0.22652707 -0.11382543 -0.067580394 -0.13082308
493 0.07080384 0.30638936 -0.08689955 -0.13591415 -0.23668334 0.003774305 -0.20783933 0.15721369 -0.20060918 0.056174923 -0.22978051 0.04593257 0.09559763 -0.018466217 -0.12543707 -0.00383832 0.17089644 -0.031300392 -0.021440612 0.011766196 -0.047076993 0.26697573 0.28971997 -0.15663935 0.15575846 -0.14816648 -0.036922198 -0.11600154 0.21649446 -0.19604868 0.07280838 0.025222447 0.31189075 0.25529474 -0.015268003 -0.3745629 -0.2561249 -0.1390887 -0.048442706 -0.24491258 0.43714547 0.019008169 0.02271896 -0.0069710296 -0.27694282 0.55914694 0.29538128 0.038836855 0.3266367 -0.44189554 0.01394929 0.18668261 0.28097197 0.07359373 0.1627314 0.21575983 -0.15042508 -0.124897055 -0.15189841 -0.15345828 0.19195306 0.4550306 0.2906364 0.042542193 0.018531734 0.24587527 -0.08455006 0.109962605 -0.15550527 -0.13628128 0.006696455 -0.23000446 0.35765594 -0.28502345 0.22598574 -0.1761772 0.13618854 -0.0018418463 -0.005810387 0.032126494 -0.37373903 -0.06712631 -0.3512611 0.1321891 0.13681655 0.17883824 0.10973267 0.16483144 -0.49291787 0.21830682 -0.05378041 -0.027892826 0.047142122 -0.04504346 -0.1687992 -0.23861353 -0.24520192 -0.32670656 -0.085915275 -0.1952988 -0.47779298 0.21526517 -0.27472246 0.19970515 -0.0085465945 -0.11853994 0.14346749 0.26506397 -0.11222344 0.25118986 -0.26399615 -0.04016547 -0.07878256 0.1947671 0.21273306 0.27360544 0.26142484 0.042007443 -0.27474043 0.1760349 -0.10868914 0.30699953 0.27309868 0.14482836 -0.323727 -0.0051519335 -0.19408397 -0.04471355
219 0.19554858 0.22926599 -0.118371874 -0.13927893 -0.20504276 0.06059259 -0.19140945 0.0966275 -0.24002841 0.045865316 -0.29836494 0.06385034 0.099244505 0.060240906 -0.20888008 -0.008836643 0.09869718 -0.18317395 0.03239046 0.0027364253 0.086398564 0.27290237 0.3771085 -0.2042446 0.24729349 -0.10261509 -0.12854983 -0.057309154 0.1775846 -0.1694506 0.18504734 -0.039398286 0.22610517 0.25831115 0.045061734 -0.4305693 -0.29701018 0.0042986395 -0.002975978 -0.3275268 0.33640283 -0.060802616 0.058216453 -0.1030034 -0.25334817 0.47246847 0.38886356 -0.006140195 0.3155149 -0.48507538 0.12153105 0.058277827 0.122919075 0.24952388 0.11487113 0.21173027 -0.17641878 -0.14918445 -0.19316997 -0.15193707 0.20996207 0.42245486 0.26705626 0.0034940727 0.080660515 0.25727656 0.0064802896 0.12050966 -0.11193506 -0.17514776 0.09006594 -0.14421915 0.25468057 -0.17688881 0.31562895 -0.1597559 0.1629459 0.09552713 -0.02959331 0.1290209 -0.33794534 -0.05604145 -0.4148546 0.07574607 0.1668481 0.22784866 0.17002213 0.18826866 -0.40882322 0.12672454 -0.07676482 0.014860608 -0.07187856 0.020410862 -0.17713106 -0.3796959 -0.21675555 -0.38782918 -0.104901634 -0.22659545 -0.50141543 0.17118393 -0.33179122 0.23305316 -0.039772578 -0.18173496 0.056289915 0.3060838 -0.021381581 0.25848922 -0.34535798 0.023993973 0.00084039813 0.22043835 0.19957834 0.32816082 0.34477502 0.003799759 -0.14735746 0.12935285 -0.10855734 0.22390644 0.22724618 0.1284371 -0.33354953 0.047395084 -0.15739202 0.051954057
465 0.19996276 0.35967514 -0.12211061 -0.13082689 -0.2244819 -0.00517607 -0.23362687 0.08536794 -0.23508789 0.074839495 -0.27369937 -0.0042071915 0.057272002 0.07346645 -0.22476642 0.06687678 0.17222027 -0.1010839 0.01738918 -0.048363373 0.029345654 0.18174967 0.35205588 -0.16772483 0.16221862 -0.11708595 0.03444262 -0.09707901 0.13988756 -0.20347975 0.119636364 0.063281916 0.16282722 0.24999423 0.06903701 -0.5111522 -0.2997907 -0.021949267 0.0059835557 -0.28531715 0.44527876 -0.052514363 0.10344972 -0.06281177 -0.37001985 0.49855116 0.39777622 -0.08028786 0.3505923 -0.5213303 0.017532151 0.09080102 0.19578625 0.27259836 0.120343976 0.2004738 -0.25452673 -0.1360572 -0.12005362 -0.20598322 0.21374394 0.323326 0.32912898 -0.042037435 0.036468424 0.26051807 0.052929886 0.04154614 -0.11748025 -0.18670417 0.07063681 -0.15577559 0.2787402 -0.22809847 0.18947913 -0.12488058 0.09749023 0.062417343 0.044634826 0.13410327 -0.2517381 0.020266188 -0.29921666 0.0076996246 0.16114064 0.12523755 0.1391647 0.23207988 -0.5198464 0.18338409 -0.041064985 -0.07488795 -0.109429196 -0.05072348 -0.0076929536 -0.16436367 -0.20814563 -0.26585573 -0.080973946 -0.20995328 -0.45427215 0.24246132 -0.37513536 0.20708208 0.088977605 -0.14783347 -0.013955494 0.333955 -0.07277772 0.2959437 -0.23768641 0.0014273719 -0.008353398 0.2608746 0.2582556 0.36221296 0.23351613 0.024353385 -0.10078222 0.15514852 -0.19665268 0.29297197 0.33492664 0.16982119 -0.35232505 0.014402263 -0.24061382 0.0048847925
333 0.18909857 0.3211339 -0.10354519 -0.14783075 -0.21784848 -0.13364889 -0.24939904 0.04904115 -0.27342182 -0.0052405777 -0.26510495 0.06448556 0.07993931 0.037979297 -0.21251467 -0.009021368 0.08744679 -0.062707685 0.050088108 -0.10225151 0.02190323 0.20297202 0.41431952 -0.19552934 0.10149348 -0.08881757 -0.024614368 -0.078393824 0.11745729 -0.2806957 0.10104442 -0.023181383 0.1447408 0.3086822 0.020501804 -0.32340893 -0.1441145 -0.049298245 0.00088772824 -0.35166413 0.3634923 -0.085256 0.05426288 -0.042458177 -0.2987815 0.50341445 0.33811685 -0.035113912 0.23398095 -0.5028791 0.084917285 0.0761539 0.19146933 0.19193783 0.13580456 0.23045689 -0.24741723 -0.13053243 -0.14488482 -0.20567471 0.14735258 0.52335 0.3615799 -0.013641916 0.0013750739 0.23007058 0.02810635 0.08833282 -0.1725035 -0.23360492 0.049942542 -0.12587535 0.2680667 -0.23793466 0.2537052 -0.16510393 0.12293105 0.15925348 -0.07650332 0.09454083 -0.21830815 -0.086528294 -0.4240789 0.058755945 0.10979096 0.16419324 0.09861804 0.19502336 -0.4590487 0.16937995 -0.06363516 -6.897087e-05 0.03379269 -0.032073893 -0.07546047 -0.24334382 -0.105459444 -0.27832484 -0.027407125 -0.21626163 -0.43994358 0.24337438 -0.26254857 0.15842862 -0.0070683034 -0.21288525 0.056623988 0.20638868 0.01694617 0.30231273 -0.2531609 -0.061874144 -0.0033166448 0.19689637 0.27074105 0.26856083 0.30146194 0.0022667747 -0.14349571 0.13246182 -0.072602205 0.22862485 0.22383857 0.16134293 -0.32499796 -0.094864815 -0.16752414 -0.043006063
71 0.3941289 0.32472694 -0.39968777 -0.21274862 0.14514366 0.20021576 0.5360905 -0.4188314 0.01703074 -0.3571502 -0.48214048 -0.021349397 0.1842706 0.05256396 -0.3510518 0.16864973 0.48580316 0.20094112 0.14722797 -0.0009428276 -0.20915368 0.37577942 -0.24564734 0.15232942 -0.02245403 0.03459326 -0.14701751 0.6375527 0.6585071 -0.6861635 -0.26621556 -0.13079545 0.1193636 -0.5666027 0.40424603 -0.013586297 -0.060261033 -0.0020592299 -0.03520304 0.2100122 0.1908578 0.035872877 0.8733207 0.801218 0.6985639 -0.22024637 0.2844333 0.06619473 0.19831283 -0.14412151 0.037902642 0.37177986 0.56594163 0.099719085 0.22821102 0.044230852 0.4218323 0.05022565 -0.04912047 -0.1301072 -0.23521754 -0.024311488 0.06999685 0.37000182 0.13287611 -0.031489115 0.28678706 0.43431216 -0.4787328 0.22019318 -0.16430844 0.101224616 0.34774065 0.30181292 0.16892973 -0.021965342 0.022737682 0.06954732 0.085419625 0.04576198 0.094551444 -0.17229256 -0.49094278 0.027168265 -0.032650176 -0.003998918 0.27175218 0.08894512 -0.26144695 0.0886545 -0.011315352 -0.18872753 -0.04121745 0.05214064 0.29084697 -0.2796606 0.4439389 -0.32144746 -0.14582196 -0.027803835 0.20883843 0.2301785 -0.22227298 0.036930077 -0.5522091 -0.45224267 0.33508104 -0.121406294 -0.21932583 -0.28240827 0.079150416 0.12572572 -0.17720428 -0.14795455 -0.098990455 0.14772747 -0.529543 -0.2919734 0.31230178 0.22390606 -0.5156997 0.22741762 0.18903789 0.18127777 -0.40948635 0.29766634 0.4372342 -0.48137766
260 0.15290405 0.2712657 -0.124698944 -0.23982717 -0.1949157 0.005482745 -0.1755251 0.05052076 -0.22638455 -0.065545335 -0.22508009 0.04908058 0.0045689894 0.010610812 -0.14363737 -0.0033278356 0.054560553 -0.11985155 -0.063031174 -0.06679431 0.011263486 0.21485656 0.3394288 -0.27469465 0.12761235 -0.063169874 0.04649591 0.0020489793 0.19816701 -0.24292552 0.12391223 -0.024400428 0.18920921 0.29745492 0.002418928 -0.31492993 -0.27772406 -0.11207012 8.310966e-06 -0.23670886 0.3645761 0.01798731 0.041735213 -0.15575555 -0.31092584 0.51763314 0.42300922 -0.06898347 0.46767357 -0.49108362 0.057146475 0.02852653 0.24303201 0.1726439 0.18227392 0.14291024 -0.17088033 -0.06344166 -0.040194787 -0.22114895 0.22540429 0.4940725 0.2580107 -0.03429253 0.030362416 0.25260192 -0.025819577 0.12898344 -0.16521814 -0.18307067 0.035110805 -0.12979387 0.26485553 -0.20913506 0.12340613 -0.2235086 0.21286477 0.121851526 -0.08200405 0.07144963 -0.31518933 -0.012751643 -0.42588598 0.089734815 0.19388923 0.23539026 0.21593912 0.11450011 -0.36007756 0.09857701 0.006642698 0.105636686 -0.024806531 -0.06694602 -0.07974763 -0.2100653 -0.18962386 -0.3312548 -0.12998742 -0.24161172 -0.5347075 0.1653204 -0.29211453 0.16752708 -0.081604555 -0.10024075 0.15306126 0.30649292 -0.0718207 0.2721817 -0.30259353 -0.08339665 -0.087897524 0.21649913 0.18735208 0.33130494 0.22805655 -0.012118635 -0.17226005 0.19688839 -0.18178058 0.32001007 0.26624024 0.13641888 -0.36944678 0.01585116 -0.04344229 0.05529475
24 0.14208597 0.27581322 -0.11670303 -0.0724613 -0.1473315 -0.015009641 -0.16081844 0.06241977 -0.14622523 0.036918305 -0.22344753 0.0046551037 -0.0021963073 -0.018099163 -0.21963547 0.05610252 0.15340224 0.020628877 -0.026984219 -0.007146418 0.04059827 0.25704473 0.3785762 -0.16412641 0.18385549 -0.13915895 -0.02901711 -0.107081145 0.18438126 -0.20212728 0.103693366 0.013649465 0.2965049 0.23323976 -0.06290755 -0.30579117 -0.27271828 0.024257565 -0.030428456 -0.21634205 0.3630424 -0.06853383 0.05064168 -0.020067345 -0.25782967 0.5027311 0.33987436 -0.12726897 0.36687878 -0.47942743 0.047236167 0.089511946 0.2617467 0.11925114 0.0751693 0.15830648 -0.17353101 -0.11165286 -0.0591842 -0.16504967 0.24535248 0.38890007 0.3215958 -0.06186384 -0.0060137315 0.24100195 0.0055062454 0.089294836 -0.1261921 -0.122644596 0.1180081 -0.15913223 0.30164006 -0.20278658 0.21884692 -0.20429468 0.13495879 0.071750306 -0.04131662 -0.018849008 -0.25557163 -0.05463863 -0.3784326 0.05736265 0.20188838 0.17434102 0.13861464 0.10591748 -0.38201246 0.21784034 0.027882293 -0.026508493 -0.06809494 -0.008297171 -0.14562365 -0.23226619 -0.2197361 -0.3434319 -0.086778626 -0.25222164 -0.5027723 0.292059 -0.21810482 0.13848028 -0.018376708 -0.12433194 0.06438897 0.2779763 -0.10581214 0.23021296 -0.20169106 -0.059412558 -0.09570615 0.22797449 0.24040021 0.3504574 0.30785444 -0.07193425 -0.21099117 0.16700202 -0.068303466 0.22937457 0.28192863 0.16125862 -0.15580694 -0.0012342085 -0.08760473 -0.07299573
318 0.22458602 0.28337374 -0.10804251 -0.17235771 -0.19808833 -0.026326273 -0.14366668 0.028819751 -0.242002 0.012810999 -0.29489404 0.067808166 0.030682154 0.0713275 -0.24731131 0.11764546 0.18282986 -0.008001793 -0.0026734567 -0.028766098 -0.00594549 0.20433827 0.4337058 -0.23831166 0.17445095 -0.046842303 -0.10902461 -0.11342705 0.17089558 -0.20097801 0.15184696 -0.01252855 0.2504638 0.25446293 -0.011502334 -0.3000661 -0.20123151 0.021912742 -0.051086575 -0.33930528 0.41779578 -0.011578945 0.04933519 -0.04419219 -0.22120598 0.5804642 0.43179676 -0.08116096 0.2715393 -0.5505054 0.04333201 0.07239877 0.15832618 0.17376842 0.24106075 0.29121202 -0.11763359 -0.07699555 -0.18838088 -0.11352441 0.18697189 0.4590381 0.27624014 0.0105364295 -0.025879491 0.28399953 0.07334854 0.10088288 -0.2616579 -0.22272721 0.10589308 -0.12566741 0.30961728 -0.26040205 0.2394234 -0.19193357 0.073358595 0.03246569 -0.029663831 0.106635615 -0.2731502 -0.13441391 -0.4112041 0.028469581 0.10114952 0.1281093 0.123940736 0.09180913 -0.40000838 0.2242109 0.13149977 0.051707134 -0.104143366 -0.15748402 -0.157216 -0.2803957 -0.23221095 -0.3464973 -0.022048172 -0.22084802 -0.47622132 0.18949993 -0.33839974 0.14469317 0.05764336 -0.21721633 0.03364575 0.24640341 -0.07159779 0.2722147 -0.33256912 -0.021864917 0.023511574 0.097478546 0.22096723 0.29968673 0.21833806 -0.033137333 -0.25811157 0.15090904 -0.08358755 0.18493311 0.19810924 0.26567665 -0.21525012 -0.021252964 -0.11517405 -0.09278134
112 -0.051742435 -0.1685073 -0.0069572427 -0.19654405 0.18658699 -0.16994901 -0.0146493735 0.10914096 0.07796596 -0.06321961 0.0577278 -0.67343897 -0.21793814 0.00042072032 -0.18750058 -0.15270142 0.022794321 0.10425427 -0.20607835 -0.2977508 0.45734942 -0.004173869 0.062659584 0.24922526 0.08073776 0.14775737 -0.28416312 0.19201425 0.50949055 -0.26800215 0.08217554 0.15338367 -0.43593687 -0.01981971 -0.17009729 -0.37433606 -0.0053054634 -0.19034344 -0.13008012 -0.093159154 0.058300402 -0.30295175 0.347366 -0.0059339423 0.27959356 -0.070202 -0.33947656 -0.055122375 0.1063072 -0.44455725 -0.25015223 0.13732623 -0.03099746 0.1305432 0.09479245 -0.0044462043 0.092684574 -0.1875386 -0.11064206 -0.29361317 0.23419854 0.28763813 0.19173095 0.06092482 -0.45933738 0.2707361 0.294101 -0.031843178 -0.27400148 -0.05406344 -0.16928865 -0.057260215 -0.26094586 -0.062356774 0.1791006 -0.25146073 -0.18879104 0.15661976 0.17875767 -0.037921414 -0.3878398 0.3521384 0.1577407 0.13901952 -0.09880649 -0.48037472 -0.04946656 0.1538725 0.34914383 0.38955057 0.089059204 0.2845741 0.09412055 -0.29527557 0.24651468 0.0659496 -0.0662311 -0.3071513 0.19265078 -0.1965695 0.02396579 -0.026164973 -0.19063349 0.24751213 -0.025700849 -0.064991556 -0.11231181 0.098571815 0.30441806 -0.024250884 0.4572381 0.8762221 0.117443904 0.27597916 0.30694267 -0.27420473 0.075434774 -0.5250694 0.25271097 0.51181847 -0.17443283 -0.19953102 0.12815803 0.02094927 -0.31602818 0.40338796 0.116683275 0.13331531
372 0.13020927 0.29846638 -0.17246479 -0.13558301 -0.22523089 0.0051338123 -0.21052192 0.05982275 -0.24729475 -0.089195 -0.23480609 0.12044116 -0.013253657 0.11441601 -0.22555184 0.03646881 0.12604138 -0.09205932 -0.04852716 -0.020502398 -0.050608635 0.2080738 0.3869172 -0.19837385 0.20826823 -0.14044964 -0.09385289 -0.06887069 0.23410772 -0.23869018 0.019382453 -0.022833219 0.3116649 0.21748683 -0.039202906 -0.3805398 -0.34459847 -0.08202005 -0.041527715 -0.3190876 0.45463774 -0.028694062 0.115576036 -0.0028742473 -0.3545519 0.56303793 0.3021027 -0.08697777 0.2708442 -0.45854822 0.025572756 0.03840151 0.23018868 0.20521054 0.24022183 0.2844691 -0.1419726 -0.13289088 -0.18196988 -0.20520806 0.13443568 0.34955925 0.31034043 -0.01859184 0.029677484 0.20045474 -0.042037252 0.1638304 -0.113856986 -0.18552484 0.07384084 -0.22359554 0.36767223 -0.21676643 0.3545928 -0.19152842 0.13449241 -0.007943014 -0.010252278 0.049965806 -0.23714939 -0.045268323 -0.4696769 0.08010179 0.13225275 0.18065359 0.17443201 0.12181998 -0.40623564 0.2171612 0.063085176 -0.01504461 0.01396804 -0.15788536 -0.2197524 -0.24373233 -0.35665056 -0.2520012 -0.05975787 -0.2669077 -0.4964928 0.21539852 -0.27704373 0.191397 -0.037929453 -0.12782466 0.07172104 0.2786542 -0.12013468 0.23791555 -0.2887171 -0.07592543 -0.05670726 0.16735934 0.1600369 0.24420317 0.21237463 -0.0005893606 -0.16146737 0.1272377 -0.16250178 0.19126393 0.32005376 0.1984568 -0.21625389 -0.031675447 -0.1608916 -0.092279404
300 0.110510044 0.32700709 -0.12490676 -0.09274753 -0.3047733 -0.013459767 -0.09274215 0.04783547 -0.24933177 0.039036725 -0.23240338 0.013117976 0.020927815 0.03393356 -0.21633758 0.050645065 0.14641 -0.06270636 -0.040272698 -0.07736404 0.06378932 0.2475913 0.33409876 -0.10636967 0.10049873 -0.15135308 0.013360362 -0.050425876 0.20265096 -0.28494325 0.084839836 -0.092172034 0.24458231 0.30241945 0.04439013 -0.35234016 -0.32171842 -0.039976414 -0.026075896 -0.30591935 0.3970381 -0.029185979 0.03937685 -0.12694141 -0.32946438 0.43688777 0.3186989 -0.13456441 0.23746704 -0.4440949 0.06960314 0.074845485 0.1947207 0.08281507 0.2935944 0.14199303 -0.17756967 -0.13292514 -0.18577625 -0.1409753 0.21690345 0.54473466 0.35034788 -0.040807866 -0.00871756 0.20560108 -0.006078291 0.09928987 -0.1663831 -0.17946732 0.090991646 -0.15100808 0.29696792 -0.1551362 0.16244996 -0.17747605 0.14478002 -0.006844207 -0.046975005 0.016823526 -0.2675106 -0.14389299 -0.5254479 0.08654672 0.11087191 0.2329231 0.16430251 0.15267827 -0.43637213 0.21381488 -0.016808625 -0.051660854 0.08057891 0.0001403193 -0.06284953 -0.3058517 -0.25480273 -0.30224442 -0.03683058 -0.27376607 -0.564938 0.2863478 -0.24036191 0.165337 -0.06110493 -0.20092359 0.037419677 0.32167447 -0.08273231 0.27171427 -0.21126752 -0.04335284 0.06708305 0.23742823 0.18372662 0.3394136 0.27238813 -0.041560665 -0.19872688 0.20520265 -0.14380823 0.24720283 0.1969903 0.14934665 -0.17154837 -0.009059356 -0.097256415 -0.03820016
389 0.42555448 0.053384062 -0.49084786 -0.011776248 -0.13069293 0.13229203 0.05340199 0.043872647 -0.06466714 -0.3216857 -0.21223317 -0.7617609 0.20755287 0.28795034 0.082354985 -0.372177 1.0267447 0.13038133 -0.45252013 -0.391186 -0.2873993 0.16710807 -0.60743886 -0.43927398 0.05056221 -0.3764968 -0.36135727 1.3068838 0.116455644 -0.20492321 0.32415608 0.12367248 0.17701538 -0.03604723 -0.17968789 0.36094517 -0.32347792 0.012165886 -0.09695264 0.08960187 0.45025706 0.17605649 0.6093139 0.6661082 -0.04173339 -0.40301564 0.47391188 0.032804172 -0.27328622 -0.41982087 0.063701026 -0.31598493 0.43648824 0.26678324 0.07879818 0.020170916 0.1266148 0.51664615 0.10879288 -0.042141683 0.23435894 0.020985423 0.43057016 0.11121276 -0.35577318 0.18471177 0.20938738 0.39898947 -0.5190095 0.3081375 0.044640455 0.018103693 0.3088264 -0.05210885 0.35125208 -0.5753372 0.5442999 -0.33281314 0.04643203 -0.11572269 -0.055966 0.38532385 -0.14986835 -0.2291699 -0.07496122 -0.07713183 0.16184507 0.08566283 -0.3892504 0.50020885 -0.39774665 -0.0012453733 0.3628015 -0.059409954 -0.14865683 -0.65369624 -0.2642289 -0.072619244 -0.09756816 0.34236246 0.18077804 0.13976265 -0.6008504 -0.25878447 0.042994093 0.12819934 0.2745346 -0.77227956 0.10380215 0.8796192 -0.15212028 0.07733352 0.262739 0.39548427 0.23642439 -0.27193275 0.41374466 0.28007036 0.62873083 -0.1268352 -0.3943508 0.27019414 0.16155738 0.074233875 0.08112919 -0.08411757 0.070791945 0.15064572
328 0.08540115 0.30025232 -0.08214082 -0.12118734 -0.27271536 -0.0029630342 -0.22433737 0.041090094 -0.20757402 0.017498752 -0.1556303 0.07936984 0.071679726 0.009523607 -0.18016255 0.0877744 0.13137203 0.0020272506 0.02379087 -0.03505326 -0.008572209 0.17095709 0.31752473 -0.18116665 0.19039738 -0.15421663 -0.057817627 -0.07976582 0.2217686 -0.2820956 0.14707908 -0.039741363 0.20946707 0.295335 0.022889318 -0.33947435 -0.2717474 -0.069123454 -0.1894707 -0.32472584 0.44033587 -0.0059903385 0.0403314 0.028888572 -0.27451155 0.5158712 0.3127119 -0.10398671 0.34298584 -0.38803154 0.06491828 0.14060049 0.2422114 0.111274324 0.15268199 0.17448126 -0.22897823 -0.07255507 -0.21641551 -0.12220079 0.119737424 0.4432706 0.2567289 0.0051653245 -0.012460668 0.2930446 -0.006800586 0.003917253 -0.18501626 -0.14586344 0.16525102 -0.19062893 0.36236945 -0.1741767 0.2744846 -0.16267982 0.18511134 0.033201613 -0.038718674 0.08169076 -0.2989531 -0.09566062 -0.45635626 0.12578748 0.08070918 0.17835179 0.14161511 0.16000009 -0.36596707 0.21966301 0.07955809 -0.05993218 0.054770295 0.06904601 -0.08362444 -0.2077266 -0.20159577 -0.27775565 -0.10695875 -0.22170281 -0.5361657 0.3038643 -0.25872654 0.1405955 0.017662259 -0.27072936 0.02823285 0.2967708 -0.028048307 0.34618282 -0.24517763 -0.05291025 -0.019786585 0.22291839 0.156392 0.30792603 0.18597321 0.016915118 -0.17344828 0.20015323 -0.06692293 0.25102824 0.27885675 0.1014387 -0.25429535 -0.026873212 -0.18623447 -0.04265996
23 -0.23996426 0.88943404 0.29505044 -0.017817184 -0.7010652 -0.124673165 0.32996812 -0.24778624 -0.32378635 -0.17266673 -0.6774774 -0.82351255 0.3380536 -0.026240008 -0.83439213 0.3739435 -0.22459677 0.8703183 -0.06422394 -0.11063209 0.15950151 0.24881804 0.1650325 -0.16324878 -0.12626274 -0.16820145 -0.27353415 0.19111434 0.02733927 0.0013782006 -0.15725018 0.07639777 -0.2918004 0.39838737 -0.7910327 -0.46303952 -0.65709084 -0.0681949 -0.18935403 0.31573787 -0.5790191 0.6118795 0.4679304 0.4336151 0.16299494 -0.093717836 -0.029727226 0.65616125 -0.030468415 -0.629781 0.078695945 0.34617898 0.54958934 -0.55022144 0.35153687 0.61037886 0.18493159 0.08076679 -0.06385119 -0.1394236 0.4327846 0.24582142 -0.62637466 0.7830198 0.26116273 0.3120485 0.118828885 -0.31786048 -0.21011078 0.23038137 0.0041787755 -0.07360009 -0.40491945 0.36630735 0.67192787 -0.45080024 -0.9977927 0.34567422 -0.52724063 0.09347404 -0.15712212 0.1455633 -0.3660675 0.25973922 0.15132572 -0.10871675 -0.07994981 0.28382248 0.33456063 0.15985563 -0.3863215 0.086867094 0.13890901 -0.36768985 0.076680064 0.22904028 0.052465353 0.3348988 -0.2185843 -0.6648075 -0.04094449 0.36180028 0.02479822 -0.5033709 -0.25692138 0.25598437 0.15785825 0.037576262 -0.39110243 -0.020712437 -0.06323451 0.27657712 -0.0212203 0.5850584 0.36081257 -0.6227599 0.1474664 0.24933071 0.075870395 0.30569306 -0.6288552 -0.18086801 0.16854012 -0.25202775 0.29607242 0.57657945 -0.34057975 0.086823605
422 0.12816533 0.36201355 -0.13113457 -0.15542503 -0.18116392 -0.023780504 -0.22690596 0.029599193 -0.2555849 0.01450518 -0.28783113 0.037871916 0.09318794 0.004719931 -0.11578722 0.032746285 0.18978466 -0.0234095 0.01462407 0.005246213 0.13554671 0.18397276 0.29689378 -0.23626968 0.16919604 -0.22591428 -0.11394819 -0.051825758 0.12574273 -0.24045327 0.11186146 0.0049399696 0.28844306 0.27312762 0.09338349 -0.36551598 -0.30829027 -0.0872294 -0.049738854 -0.34723923 0.34019643 -0.004743693 0.045351658 -0.0758485 -0.30490184 0.5636538 0.29537016 -0.11161271 0.30172005 -0.46654016 0.03181427 0.1595887 0.19127238 0.09405917 0.11167001 0.15748152 -0.197155 -0.030333346 -0.21908236 -0.11659329 0.20338044 0.47400102 0.30460835 -0.06346858 -0.009567491 0.1746697 0.013108011 0.20791051 -0.09297251 -0.12970838 0.030214202 -0.17134666 0.2773283 -0.18843657 0.21496548 -0.12988141 0.12770917 0.027744344 -0.025912577 0.024023443 -0.29088435 -0.0401702 -0.43493366 0.08108755 0.09575838 0.14409886 0.16055611 0.105120055 -0.4162541 0.22052744 0.059419792 -0.050581552 -0.014650867 -0.05547151 -0.05432551 -0.26407453 -0.27427998 -0.27195233 -0.038574334 -0.22463293 -0.49267247 0.2943515 -0.30907494 0.19241795 -0.022230221 -0.18093842 0.052220665 0.27367017 -0.107115194 0.34686297 -0.18681152 -0.10269201 0.05160196 0.22638427 0.21364419 0.35949364 0.36441258 0.034718525 -0.23214845 0.2570903 -0.08976611 0.26396215 0.25735056 0.253008 -0.30588263 -0.020512564 -0.1713626 -0.07647412
472 0.19421999 0.30912864 -0.1585946 -0.07483809 -0.20878372 -0.01466567 -0.18793789 0.11070459 -0.21687168 -0.07217303 -0.23721004 0.012059766 0.007183427 -0.0029991665 -0.2342318 0.06411763 0.14251749 -0.14839713 -0.034390826 0.012083809 0.0043694833 0.1936547 0.3834055 -0.09182645 0.109507024 -0.16020776 -0.107193224 -0.083423376 0.19857968 -0.26047853 0.12104469 0.012999928 0.22316322 0.2984501 -0.007171368 -0.3364766 -0.28324932 -0.03717539 -0.121221535 -0.32631463 0.38256267 0.012458077 0.1007329 -0.10577618 -0.2923751 0.5285831 0.38723668 0.04111331 0.38330826 -0.48776335 0.046767477 0.061961707 0.19043352 0.17084427 0.062613584 0.10077543 -0.22618599 -0.027738145 -0.10444701 -0.19180088 0.17571023 0.45925707 0.25884685 0.0066869827 0.066209935 0.31150594 0.011129997 0.062250383 -0.14204945 -0.18869235 0.07518087 -0.15254539 0.35315222 -0.25058484 0.19227108 -0.17254901 0.18885909 0.00068420504 -0.11077929 0.03689126 -0.32748404 0.03188486 -0.37882227 0.09819633 0.061219133 0.18672769 0.23026907 0.16603327 -0.46472076 0.13134535 0.034709703 0.05879833 -0.035435576 0.013807224 -0.07988903 -0.22784185 -0.15447862 -0.29189393 -0.0807543 -0.2337726 -0.48317263 0.28144005 -0.3749332 0.16559422 -0.06199333 -0.15703827 0.038964085 0.327917 0.0052567925 0.27959886 -0.26383653 -0.027552929 -0.10343573 0.1855649 0.1926766 0.2792932 0.18696001 -0.008006058 -0.20486258 0.10422907 -0.07503461 0.18785107 0.27131435 0.08989079 -0.2516447 0.053331375 -0.17946258 -0.07210937
89 0.022584612 -0.25537783 0.030547887 -0.048555408 0.21580248 -0.16013801 0.07522024 0.097609706 0.14053291 -0.068830565 0.06781207 -0.6658746 -0.17413034 0.11619381 -0.15550473 -0.09408402 0.019677775 0.23310006 -0.12200668 -0.15446046 0.27885494 0.11090835 0.16215287 0.1776936 0.137647 -0.0043181097 -0.3677652 0.10198899 0.5722493 -0.2556676 0.03833107 0.18362086 -0.62419385 0.14363194 -0.14946528 -0.3733609 0.09969965 -0.24984366 -0.11084136 0.042006683 0.043074794 -0.31224367 0.34113225 -0.02198151 0.18135472 0.026391644 -0.2896971 -0.068116 0.12272241 -0.43827266 -0.023236685 0.33493465 0.12424984 0.15439725 -0.0025186536 0.034378633 0.1598193 -0.2127801 -0.007054968 -0.25958374 0.2796507 0.2218138 0.3635576 0.01823881 -0.3599569 0.2900339 0.36521628 0.038384534 -0.25877035 0.018372482 -0.16614734 0.00684683 -0.28636163 -0.09283914 0.30138958 -0.20391393 -0.22119315 0.091799326 0.3087376 -0.032145794 -0.40658674 0.46477982 0.24086395 0.10001538 -0.2445733 -0.32974127 -0.025052581 0.22154422 0.11539832 0.35651883 0.2121023 0.2384078 0.14408858 -0.022183118 0.20720285 0.12903649 -0.047556173 -0.23522536 0.28610098 -0.19416265 0.05148063 -0.06423874 -0.14482461 0.21258543 -0.048685074 -0.14584406 -0.20589761 -0.013810416 0.3647913 -0.04698521 0.4452399 0.77312773 0.03991134 0.30281937 0.26908857 -0.29761377 0.02699287 -0.36433998 0.1861769 0.5171429 -0.15505497 -0.13065101 0.05548755 0.023249004 -0.26543775 0.30806786 0.076273136 0.2804989
214 0.181812 0.31132442 -0.18228252 -0.1558312 -0.23408535 0.055772267 -0.14696002 0.11077467 -0.22681308 -0.021130662 -0.33166483 0.033612538 0.14549112 0.1242177 -0.27008164 0.024025189 0.15313591 -0.071022004 0.021393323 0.0332064 0.031384256 0.29311225 0.39230755 -0.20543472 0.17460649 -0.13914506 -0.07457452 -0.07809403 0.18525946 -0.27606168 0.09033714 0.00859446 0.23298982 0.3854445 0.07763989 -0.47051907 -0.32486194 -0.09909215 0.006479375 -0.3246121 0.39679798 -0.05827306 -0.010477575 -0.12660651 -0.3472024 0.49380767 0.31838605 -0.053145684 0.25944322 -0.44449475 0.07250458 0.0049890177 0.16232312 0.16581503 0.06700744 0.2599969 -0.20541711 -0.122543246 -0.17477438 -0.11627467 0.1343605 0.4408547 0.35526025 -0.0014259599 -0.034466363 0.19586001 -0.0035418454 0.15047328 -0.16403663 -0.20214698 -0.005008742 -0.26425394 0.26444402 -0.25741726 0.2422266 -0.11775591 0.11595587 -0.08258671 -0.05965492 0.10641123 -0.29946634 0.008207945 -0.50738156 0.067016065 0.14826255 0.21575738 0.17975666 0.25530478 -0.4284157 0.20636122 0.027927184 -0.03314882 -0.10405666 -0.15893169 -0.10380027 -0.22639176 -0.23519374 -0.30906722 0.012266507 -0.23174956 -0.49220353 0.23817669 -0.3288517 0.123152345 0.034440987 -0.13467738 0.13314047 0.25991404 -0.04004518 0.25675422 -0.18274784 -0.08377958 -0.03229318 0.19978307 0.23338866 0.3377475 0.24370666 0.050517607 -0.19282714 0.21767114 0.0004958393 0.30012345 0.23364575 0.21799365 -0.23510435 -0.07358996 -0.11936747 -0.05221926
501 0.1530062 0.21215257 -0.20543626 -0.115561664 -0.30466327 -0.008591534 -0.18453957 0.012010372 -0.271366 -0.0627785 -0.31345436 0.05701851 0.022077758 0.102870375 -0.29211888 0.011202243 0.16450202 -0.13419679 0.0434824 -0.054773472 0.041104697 0.20026194 0.355275 -0.15688582 0.12280381 -0.14257827 0.07549339 -0.10286476 0.16570419 -0.17155637 0.11061863 -0.03712675 0.18221268 0.22839455 0.029263325 -0.31664544 -0.30303848 0.0064893235 -0.07779161 -0.2847637 0.4249058 -0.08737473 0.05587488 -0.07348622 -0.3875274 0.42284283 0.41829038 -0.10118618 0.37770358 -0.4678885 -0.024542276 0.03800862 0.1730711 0.15265132 0.14990243 0.15204753 -0.1724978 -0.07394197 -0.12360352 -0.19504842 0.15781006 0.4437285 0.33192316 0.060685072 -0.009248859 0.26902908 0.048646763 0.08243078 -0.25296357 -0.178727 0.10357269 -0.18173078 0.31326747 -0.15746322 0.19502342 -0.20316203 0.14816666 0.010926586 -0.07231674 0.07733511 -0.24625373 0.03514611 -0.2808643 0.062187288 0.10878624 0.17679922 0.18352482 0.17076693 -0.42025638 0.19570048 0.044487108 -0.042637575 -0.004699889 -0.10921815 -0.12933487 -0.2855443 -0.1866882 -0.27613595 -0.020340208 -0.19919212 -0.42747104 0.24396668 -0.2731431 0.14208089 0.03781654 -0.21846916 0.037547704 0.2970336 -0.09632448 0.29631507 -0.2192192 -0.026686031 -0.04751288 0.1747661 0.17678887 0.34126863 0.2406307 -0.08787083 -0.20043771 0.12248441 -0.08500584 0.2036987 0.1985358 0.025929945 -0.21396488 -0.055101864 -0.19070086 -0.10807422
222 0.20956658 -0.020673733 0.09532735 -0.078773186 0.46296802 -0.2337252 -0.017894223 0.15475383 -0.032259587 0.02356317 0.2734765 -0.52733606 -0.0979701 -0.33674648 -0.2840278 0.06825828 0.34054053 0.22458842 -0.08681158 -0.17797014 0.014488292 0.13629608 0.10309743 0.27806085 -0.2702408 -0.029449342 0.08324286 0.6379302 0.1960607 -0.24290553 -0.115635976 0.24643743 -0.32114115 0.13004568 -0.32993582 0.069811374 0.06958202 0.046721797 -0.11211195 0.2183572 0.28475767 -0.2014996 0.5181694 -0.20368339 0.18609896 0.07733658 -0.14919698 0.021507952 0.16682403 -0.22338086 0.19879629 -0.40557235 0.13766506 0.024319094 -0.31904897 -0.20435165 0.12742925 -0.4337511 -0.44057032 -0.4256206 0.22833605 0.2846342 0.048190746 0.2738497 -0.32697102 0.17703274 0.45398554 0.1940454 -0.42942974 0.14821807 0.22477837 0.21834895 -0.31831172 0.16440491 0.5056004 0.30187297 -0.034472562 0.27442375 0.39736167 0.07446823 -0.37555507 0.21218981 0.04234952 -0.19938496 -0.10753073 0.031543363 0.10983502 0.19813931 0.041379523 0.4077631 0.106444076 0.19668227 0.1245917 -0.23226908 -0.26719975 -0.0041360483 -0.33555076 0.11202147 0.44465083 -0.33516985 -0.4194724 -0.053069994 -0.17738083 0.2623126 0.053865418 -0.0038074758 -0.045684703 0.15214258 0.34890762 0.17548572 0.16313043 0.6063148 -0.084910154 0.38598204 0.035153408 -0.23827231 -0.40273836 -0.2215111 0.12748991 1.0556027 -0.2561142 -0.07839168 0.21133105 0.25150388 -0.25871173 0.34746394 -0.24231264 -0.21891172
428 0.16917233 0.26827002 -0.09650889 -0.13593578 -0.29099202 -0.05435597 -0.23583049 0.030407285 -0.323146 -0.0064578173 -0.17172529 0.09691501 0.050816443 0.11486006 -0.23706895 0.1517769 0.12240462 -0.091100976 -0.04751195 -0.0929864 0.0058437954 0.1533351 0.3833815 -0.1501006 0.14369531 -0.07174094 -0.08805822 -0.06672213 0.21679053 -0.24493405 0.09184144 -0.027984593 0.25416234 0.24386443 0.037215784 -0.42354777 -0.23215923 -0.1018567 -0.042242453 -0.2529483 0.40538263 -0.015794367 0.12872979 -0.09250842 -0.2713379 0.55831105 0.36901715 -0.11096539 0.2780504 -0.4805769 0.0070382035 0.01683002 0.20963015 0.21104665 0.13329822 0.21004647 -0.15479453 -0.08264696 -0.18642491 -0.16165157 0.16870317 0.43529776 0.24496499 -0.05483073 0.04211445 0.27903932 0.06938927 0.069804415 -0.15778592 -0.21971174 0.14177291 -0.12801708 0.2641812 -0.23905692 0.2565876 -0.114454016 0.09206159 0.13413599 -0.055114217 0.009142497 -0.26962268 -0.081475966 -0.41165736 0.09749272 0.12306579 0.19626862 0.08775498 0.1418715 -0.46257937 0.27805093 -0.08275987 -0.008329633 -0.016184801 -0.057548974 -0.023090478 -0.29583353 -0.18376571 -0.30051878 -0.037833616 -0.24565731 -0.4556086 0.25580227 -0.32266974 0.16267188 -0.02030817 -0.22096194 0.13335796 0.33807948 -0.025307976 0.29145375 -0.28548753 -0.053676844 -0.0710904 0.11015637 0.27849817 0.3344131 0.31613687 -0.032595046 -0.1914288 0.14130996 -0.10983146 0.1975434 0.27237862 0.09571018 -0.27235925 -0.07652552 -0.15603375 -0.04212274
270 0.1529867 -0.08976386 0.11085234 -0.15093069 0.4971628 -0.29938865 -0.061167534 0.11203293 0.058064647 0.052608334 0.17499655 -0.5092411 -0.20786017 -0.25390297 -0.36353117 -0.011159565 0.41011572 0.14781709 -0.015999898 -0.21006824 -0.054306813 0.10968488 0.094190255 0.25806797 -0.23557027 -0.15265828 0.07815935 0.57560897 0.03999843 -0.21634428 -0.043425303 0.21511152 -0.32329208 0.08561807 -0.37622595 0.10724083 0.030068446 -0.071507655 -0.1320645 0.1758979 0.30755815 -0.3080233 0.622781 -0.14143021 0.16261081 0.10035917 -0.12865305 -0.0038212591 0.117818326 -0.19752386 0.15173642 -0.5198817 0.1060759 -0.082665004 -0.30131653 -0.11733022 0.023489054 -0.28812435 -0.36468413 -0.4883934 0.23318595 0.38865453 0.101533145 0.19288377 -0.37741947 -0.05298304 0.32938886 0.15813413 -0.25184733 0.18861 0.16701257 0.2571868 -0.27466097 0.1088469 0.506696 0.18392293 -0.027879886 0.29929805 0.40149456 -0.10085643 -0.3323599 0.13677755 -0.065477334 -0.23621823 -0.0046442766 -0.069116816 0.08202775 0.011699048 0.166861 0.29065818 0.26631 0.17817265 0.0030201445 -0.009626486 -0.22033149 -0.0006383027 -0.33767262 0.22648785 0.39466956 -0.28709528 -0.34903193 -0.09774712 -0.09530668 0.21621977 0.04424104 -0.001803099 -0.11925784 0.1896234 0.34381285 0.24843387 0.16936326 0.6127596 -0.18616776 0.45826045 0.12776479 -0.18175459 -0.3163387 -0.14050652 0.11629925 0.98568714 -0.29364252 0.0047406335 0.11004451 0.23966832 -0.4736683 0.38213205 -0.35753694 -0.19192119
88 0.18445514 0.33493084 -0.15229978 -0.15677303 -0.2855677 0.05468007 -0.16100678 0.033081304 -0.27472284 -0.011398977 -0.22193195 -0.014701587 0.04919375 0.031833194 -0.14191052 0.056321688 0.0928076 0.054296568 0.10367383 -0.019846354 -0.014194646 0.24415979 0.28958818 -0.16600473 0.2179561 -0.18980502 0.016157463 -0.03408122 0.22185807 -0.28165588 0.11661373 0.023227133 0.20495869 0.23264366 -0.024690608 -0.31054723 -0.26208422 -0.0067560957 -0.07609129 -0.3419596 0.42193055 0.027635992 -0.0037391242 -0.031963445 -0.2625887 0.45333523 0.29950354 -0.11350115 0.27172807 -0.44869855 0.042782526 0.11233127 0.14921084 0.22586912 0.22195174 0.25121802 -0.17005372 -0.1493793 -0.10645087 -0.052672703 0.16058065 0.5308949 0.27900845 -0.10018784 0.02412835 0.24185923 0.013144872 0.15601668 -0.22217138 -0.22286661 0.12241901 -0.18809138 0.34385133 -0.23019002 0.2903183 -0.12781957 0.09130508 0.0028302087 -0.07382472 0.01959223 -0.2397728 -0.012492291 -0.45617315 0.06371839 0.10874218 0.14012496 0.16356078 0.20777786 -0.31741437 0.1534578 0.016261473 -0.015889298 0.015932653 -0.040629398 -0.0435494 -0.22781208 -0.12205986 -0.3568963 -0.056908593 -0.34128 -0.48785803 0.2626673 -0.23502828 0.13916996 0.07977907 -0.23048405 0.14720847 0.32638386 -0.046598382 0.29161638 -0.24173723 -0.036529414 -0.03792816 0.16637006 0.20337762 0.33586878 0.27523595 0.017790722 -0.17604224 0.24648103 -0.091875926 0.26752698 0.1836192 0.12614396 -0.227242 -0.06509942 -0.091839 -0.060191065
234 0.24586378 -0.1109703 0.11702673 -0.09425947 0.4560052 -0.29169166 0.055877823 0.18159363 0.04013948 -0.040882718 0.22453374 -0.52819157 -0.08536278 -0.37678477 -0.3792498 -0.0426072 0.44781077 0.16341054 -0.10641332 -0.07478266 -0.14888236 0.1474674 0.04701292 0.24001114 -0.26991504 -0.03451896 0.04912366 0.5589976 0.18571407 -0.17083947 0.036130697 0.23831001 -0.391222 0.11863598 -0.3719584 0.04453413 0.06533684 -0.038631994 -0.028135419 0.15133993 0.14401217 -0.30928403 0.5515633 -0.31438163 0.15740527 0.16619384 -0.1894965 0.037795592 0.13169357 -0.12939237 0.25008842 -0.39377597 0.11365999 0.08125901 -0.32358047 -0.0018327025 0.09723518 -0.4368771 -0.38571876 -0.38758385 0.24777338 0.24925792 0.07781269 0.26597396 -0.3856009 0.18212387 0.4344322 0.08866386 -0.28848606 0.15514244 0.18723993 0.2832345 -0.24776815 0.17133878 0.4733675 0.24635862 0.13321862 0.39411497 0.44355232 0.035311043 -0.42663395 0.16186444 0.03379773 -0.2531242 -0.14030279 0.058310244 0.046459075 0.016555443 -0.031543814 0.22006638 0.2265222 0.14778078 0.006361489 -0.06964749 -0.27616704 0.037639312 -0.44815284 0.16335411 0.49180436 -0.36475253 -0.47661898 -0.115353815 -0.08437335 0.17307611 0.031314876 0.03810787 -0.0950065 0.09979173 0.32232597 0.27272105 0.12640198 0.44424614 -0.08142462 0.46780738 0.08582852 -0.23944102 -0.28647316 -0.10805671 0.05880992 1.0647866 -0.40822548 -0.08615777 0.07815637 0.190317 -0.4232475 0.4413915 -0.1711779 -0.108717896
197 0.17037243 0.0029781116 0.11641087 -0.18925433 0.4664351 -0.2515223 -0.044953655 0.19201604 -0.067470744 0.07818471 0.28012985 -0.5925847 0.016795155 -0.33504194 -0.27700686 -0.13577983 0.35744366 0.20641668 -0.20475554 -0.2815915 0.023985015 0.12307243 0.24054432 0.2942521 -0.25323367 -0.10760467 0.11807596 0.65495574 0.070002876 -0.17777155 -0.04152072 0.027186677 -0.32222155 0.13449915 -0.46282494 0.19519654 0.04193863 0.09142667 -0.059080508 0.17023408 0.31247908 -0.12171467 0.60308677 -0.16405438 0.28115338 0.13784237 -0.11089245 -0.07677993 0.15877962 -0.051602755 0.16651128 -0.46080366 0.1464684 0.029977266 -0.41439003 -0.26684302 0.051227514 -0.2454383 -0.37819993 -0.4275725 0.23237799 0.2872189 0.170955 0.23324826 -0.35629624 0.0648876 0.3981817 0.20833631 -0.37999624 0.15224253 0.21149674 0.15830597 -0.2870461 0.18759084 0.4074109 0.12350008 -0.07364279 0.32126155 0.4488042 -0.019383289 -0.41029552 0.19058993 0.06873274 -0.16935049 -0.150301 -0.022963278 0.11885249 0.0910871 0.012840938 0.16465947 0.214949 0.2220521 0.036912505 -0.077148974 -0.22898532 0.07248327 -0.3770028 0.102138564 0.43282586 -0.4007054 -0.40410796 -0.10190774 -0.12178679 0.2336986 -0.013522091 -0.0024961624 -0.0915138 0.287877 0.22378463 0.18936731 0.2208535 0.6561271 -0.023595953 0.44432828 0.004445778 -0.20311858 -0.28982866 -0.2141679 0.14514317 1.0816742 -0.27139202 -0.04503582 0.19383097 0.11778763 -0.35471928 0.27597687 -0.2632678 -0.1488379
314 0.13900638 0.31256574 -0.14705847 -0.190954 -0.24990316 -0.004397335 -0.19422723 0.12178089 -0.23557164 -0.069219135 -0.34956598 -0.008634583 0.102810465 0.023275657 -0.20423898 0.005886837 0.09199463 -0.04447542 -0.06633549 -0.047229316 -0.022045957 0.16944589 0.3612801 -0.20091222 0.16332862 -0.10638561 -0.043596283 0.0029952775 0.1554771 -0.19325732 0.03694643 -0.073488444 0.13773355 0.2437693 -0.0101306625 -0.3859252 -0.3567649 -0.14596915 -0.05727528 -0.27761942 0.39494598 -0.05005853 -0.095500804 -0.15875225 -0.33115458 0.48856586 0.31365108 -0.043509968 0.25428402 -0.4477042 0.0680951 0.026277509 0.17375904 0.23332147 0.13434109 0.26262158 -0.19547427 -0.17895707 -0.093489476 -0.22228347 0.18536025 0.41500375 0.23841345 -0.03211748 -0.054829303 0.29475132 -0.016775837 0.07825266 -0.15778005 -0.16302142 -0.010323647 -0.19713965 0.2615277 -0.30378368 0.2516128 -0.109804675 0.089853115 0.02798134 0.025830152 0.04150719 -0.25769567 -0.087611586 -0.46339065 0.05281955 0.13631259 0.16017286 0.20806837 0.14099336 -0.46756557 0.22995788 -0.089938626 0.035559703 0.023818193 -0.13389479 -0.04035116 -0.25917226 -0.21406205 -0.37348786 -0.038187772 -0.24359071 -0.47081402 0.25712824 -0.25376317 0.1251327 -0.02006248 -0.2043814 0.08629121 0.28565916 -0.059421107 0.2720872 -0.19527261 -0.09808426 0.022954175 0.16532502 0.20868975 0.27161723 0.28587085 -0.060607936 -0.1994616 0.15191734 -0.14105405 0.3098001 0.20537534 0.16241151 -0.2114968 -0.08979502 -0.10114826 -0.08604665
123 0.19044887 0.26349804 -0.029427232 -0.17233916 -0.22838925 0.059626512 -0.2469307 0.031139804 -0.29467553 -0.030265871 -0.172387 0.054860435 0.1260749 0.08683948 -0.19886969 -0.00041279383 0.15214667 -0.050151225 0.018605607 -0.061736617 -0.056646537 0.15275764 0.35897648 -0.1792515 0.22714214 -0.19314747 -0.012298648 -0.09528272 0.1944722 -0.26005176 0.10350103 0.027248302 0.2272696 0.28391647 0.029445529 -0.35994712 -0.2492508 -0.06737138 -0.09804292 -0.30395752 0.28628555 0.035659693 0.06897989 -0.05582682 -0.3130887 0.5422511 0.28457698 -0.06514978 0.3376086 -0.45723274 0.10349686 0.09000734 0.2030905 0.16580854 0.14398563 0.22972639 -0.12371346 -0.14542118 -0.24214093 -0.16799551 0.1703867 0.41963726 0.25609744 0.058134258 0.029599817 0.29974052 -0.012266496 0.17939244 -0.12414919 -0.22830772 0.15148151 -0.084262535 0.2868734 -0.1183659 0.26377425 -0.15177569 0.11007346 0.07646861 0.019722681 0.09384483 -0.3673898 -0.089409724 -0.42306313 0.048947364 0.084745824 0.18545575 0.11308163 0.20132928 -0.38936 0.14885859 0.0040513827 -0.064183645 0.0046388553 -0.032329813 -0.1016067 -0.3325967 -0.28966886 -0.30769992 -0.064294934 -0.26158512 -0.46478495 0.3088979 -0.31673265 0.22604145 0.03997346 -0.21764141 0.114495546 0.26062915 -0.05251397 0.285007 -0.22533795 -0.11166881 0.016255312 0.22381113 0.19990304 0.27472374 0.23752743 -0.011188195 -0.24398305 0.08245382 -0.043818217 0.20300235 0.2931622 0.070816115 -0.23150577 0.081901856 -0.07587922 -0.10154365
60 0.19007671 0.43413088 -0.05979564 -0.13783312 -0.16625279 0.05708063 -0.18906312 0.01602043 -0.21986562 0.057710618 -0.2328539 0.028148476 0.08658901 -0.019929102 -0.23818205 0.078877725 0.10065153 -0.04623408 -0.007763974 0.011524614 -0.10060983 0.21737759 0.42307627 -0.27171856 0.11968634 -0.09001409 -0.011380291 0.015826125 0.18301497 -0.20120858 0.0782612 0.05503932 0.22025283 0.26517513 0.061973494 -0.34512174 -0.3107452 -0.060767166 -0.04800892 -0.41652718 0.42607704 -0.040352147 0.06127284 -0.10700122 -0.20438755 0.4645901 0.33222687 -0.12831317 0.19351152 -0.46788588 0.115030296 0.0032782217 0.22834538 0.27357385 0.109136775 0.28835124 -0.16999239 -0.1761564 -0.065210566 -0.13395672 0.2428287 0.4711677 0.32609183 -0.047364417 0.055930067 0.2635453 0.10177382 0.10414062 -0.1841567 -0.17038311 0.049445186 -0.09458547 0.28494892 -0.21693455 0.25666937 -0.16199124 0.041945055 0.03565725 -0.075162664 -0.036201306 -0.19469729 -0.106417194 -0.33710906 0.06389885 0.13781689 0.21246809 0.16706096 0.15243371 -0.3255021 0.20914105 -0.0717138 0.009566227 -0.06940207 -0.06610175 -0.08422486 -0.3084439 -0.22819449 -0.49819496 -0.080212876 -0.25769275 -0.5146953 0.25213823 -0.3028711 0.10155026 0.061693836 -0.2043666 0.03571307 0.287495 -0.10265869 0.23871444 -0.07055924 -0.10326154 0.032264266 0.24948424 0.1479753 0.31182948 0.26092142 0.085196696 -0.1801894 0.09524069 -0.0016156635 0.27179518 0.16988635 0.1536505 -0.22986333 -0.0062674773 -0.17814775 -0.059010897
76 0.4262179 0.06785389 -0.41312578 0.0744555 -0.25304624 0.21818872 0.035878204 0.07844877 -0.05377779 -0.3476739 -0.22867277 -0.7956788 0.2853111 0.17119674 0.09253241 -0.4437259 1.0006808 0.14224324 -0.46928036 -0.36758915 -0.2514525 0.08503318 -0.6310115 -0.50866574 0.08455136 -0.3401158 -0.3499165 1.2760577 0.20957291 -0.039919358 0.28979537 0.19829336 0.15945734 -0.030473411 -0.09242831 0.4285895 -0.3645589 0.14050047 -0.12833062 0.09143659 0.41803673 0.16584212 0.5723422 0.6504792 0.118234694 -0.44324026 0.47634748 0.003923755 -0.3226069 -0.35984778 0.07581734 -0.35623658 0.46068755 0.25706112 0.20404984 0.06319088 0.2461211 0.54238254 0.04934218 -0.03527358 0.19504927 0.06933719 0.2937241 0.051101986 -0.30486524 0.17102103 0.14845978 0.37386203 -0.43830147 0.3583856 0.1289049 0.07199566 0.34671867 -0.13509853 0.41649303 -0.5281804 0.47688016 -0.4487794 0.02566557 -0.13666111 -0.21500659 0.49079177 -0.17770094 -0.35157678 -0.067382984 0.00061244244 0.25675908 0.1845172 -0.38473803 0.47363982 -0.50141656 0.11323108 0.3434475 -0.05480816 -0.07425762 -0.6473944 -0.19140236 -0.20637834 -0.22599798 0.26160908 0.16085422 0.09448576 -0.64695174 -0.18465218 0.06794327 0.12097346 0.27445078 -0.6702556 0.050036173 0.90731716 -0.12974595 0.06552711 0.26390553 0.42663053 0.23802586 -0.3365563 0.3098744 0.23547392 0.64330703 0.026514523 -0.5365345 0.2239981 0.086249694 0.08662351 0.063414015 -0.044701908 0.10468155 0.17438431
132 0.20407495 0.3598444 -0.06313121 -0.07973292 -0.18978634 -0.08856291 -0.13826846 0.03314682 -0.19626462 0.015198887 -0.2399646 -0.042591132 0.17170759 0.15442331 -0.24337856 -0.048533194 0.06745584 -0.029624606 0.086452074 0.03610214 0.08021968 0.20956756 0.41601685 -0.32127148 0.14668953 -0.12651607 0.0784703 0.030613337 0.19273686 -0.18492724 0.24343781 -0.10234728 0.29612222 0.2590054 -0.07131602 -0.3007751 -0.2839921 -0.09889374 0.022135245 -0.32792875 0.343 -0.037460614 0.042998884 -0.14244486 -0.24304198 0.4865303 0.34852225 -0.10932083 0.21844123 -0.5048998 0.09753395 0.104243204 0.19456977 0.2739371 0.17329909 0.15054712 -0.24842866 -0.1322098 -0.11290061 -0.20397398 0.21922994 0.485666 0.35654974 0.028232206 0.0024542313 0.2809798 -0.022849157 0.19363075 -0.1394075 -0.21205178 0.024266008 -0.1417861 0.27495638 -0.20832476 0.24838077 -0.1439851 0.033164736 -0.0035287812 -0.0913232 0.00141264 -0.21662712 -0.106048696 -0.36182952 0.12369465 0.15787682 0.19776458 0.16692516 0.16710693 -0.36522007 0.20342824 0.04979333 0.012937271 0.0039539454 -0.019514702 -0.14159903 -0.2594829 -0.2053756 -0.4026118 -0.09149097 -0.32069445 -0.43178168 0.22120453 -0.33542484 0.14816932 0.055442475 -0.2816155 0.114770696 0.29167843 -0.065625735 0.23621182 -0.2012784 -0.07220894 -0.041364364 0.17568474 0.1997381 0.436816 0.24542601 0.07337208 -0.24615267 0.11334579 -0.058224116 0.26231244 0.2017432 0.18828444 -0.3550483 0.026677344 -0.08202911 -0.030280244
302 0.13784973 0.3583748 -0.12487755 -0.08063683 -0.15635656 -0.019947557 -0.12297125 0.020872805 -0.10264467 0.027649486 -0.2107834 0.038788762 0.05553187 0.058138553 -0.16174674 0.009701637 0.14341478 -0.036883883 -0.059790697 -0.104822055 0.07574305 0.21110955 0.3527101 -0.1997214 0.23395124 -0.12259208 0.081271335 -0.08742955 0.21112244 -0.15845346 0.10358699 -0.09051595 0.25710088 0.20397961 -0.079493955 -0.4138505 -0.2472076 -0.07795073 0.011341365 -0.29846972 0.41556105 0.014749693 0.12605326 -0.057343867 -0.32222602 0.598618 0.3183196 -0.0612035 0.29818702 -0.5427322 -0.0073711653 0.045290876 0.33912885 0.23750849 0.16134891 0.13059913 -0.11541407 -0.13140813 -0.048097186 -0.07384888 0.12528251 0.3840459 0.2935339 -0.035051122 0.02860628 0.1827478 0.026047925 0.1795264 -0.16427727 -0.10600728 0.06780045 -0.20224385 0.39434367 -0.27802312 0.196609 -0.10261427 0.05451254 0.052636877 -0.059206 -0.072250575 -0.19888368 -0.004674124 -0.33795312 0.03882784 0.19578288 0.16534616 0.10172302 0.1909314 -0.4118152 0.22491272 0.008643024 -0.047630124 0.020182388 0.00687136 -0.107615806 -0.13603342 -0.23856032 -0.3820701 -0.075830646 -0.25315514 -0.48581308 0.31900364 -0.33976173 0.13099647 -0.02644359 -0.2672592 0.12590477 0.22497848 -0.08550186 0.19711547 -0.2940741 -0.09540385 -0.030624073 0.19752683 0.17351075 0.30334064 0.1759193 0.020413073 -0.2377935 0.11072412 -0.04490369 0.27073392 0.22029501 0.10202026 -0.22874388 -0.044994026 -0.054584432 -0.061995234
464 0.13266374 0.33484998 -0.07669306 -0.11855493 -0.22101937 0.03625994 -0.22062236 8.32017e-05 -0.16853888 -0.038229275 -0.14537048 0.03996731 0.21180612 -0.014854589 -0.1967328 -0.050352067 0.13237303 -0.052773926 -0.026463995 -0.03659839 0.05694038 0.22195904 0.43260133 -0.20411405 0.1093973 -0.071115226 -0.04536552 -0.014147056 0.11207974 -0.2011315 0.1487894 -0.031735472 0.22627549 0.25587323 0.041261375 -0.400625 -0.283749 -0.09631909 -0.06365482 -0.40547535 0.3610061 -0.041763924 0.12908997 -0.057435565 -0.26890594 0.44607407 0.32840112 -0.024833664 0.2778499 -0.43548903 0.06678276 0.1402779 0.24975504 0.16776814 0.23375407 0.153746 -0.16084853 -0.082840696 -0.13870096 -0.11491038 0.13369955 0.4599755 0.2587927 0.0071585677 -0.034159053 0.21198925 -0.077802844 0.15669589 -0.16809464 -0.11883973 0.0006599107 -0.14251156 0.22818176 -0.14974883 0.23652698 -0.07156884 0.13720825 0.03941798 -0.049377725 -0.005166966 -0.30203786 -0.084446944 -0.38178575 0.09145986 0.045611456 0.16203243 0.14846683 0.083574526 -0.40737185 0.13954994 0.03268278 0.013766562 0.03220309 0.011239921 -0.13298535 -0.22577165 -0.18294829 -0.47264042 -0.07144326 -0.30079603 -0.4524067 0.19259031 -0.28291413 0.109994344 -0.011818931 -0.1556008 0.09202915 0.27001363 -0.113111526 0.2484925 -0.25192395 -0.055025116 0.04035648 0.14531551 0.19199717 0.32863063 0.25425643 0.12214632 -0.25694066 0.14067069 -0.021608178 0.28764096 0.23059103 0.10588998 -0.30979952 0.004643353 -0.18549956 -0.059213836
370 0.1574734 0.3135108 -0.26111555 0.47746393 -0.5021761 0.3162736 -0.18785894 -0.300818 -0.17699985 -0.52424496 -0.39055544 -0.30678573 0.1891459 -0.51935583 -0.38294178 0.31734493 0.6316524 0.24315964 -0.036708377 0.250935 0.8076674 -0.146693 0.012719026 -0.15868284 0.09973324 -0.33646858 -0.4104899 -0.017078523 -0.015966244 0.1445446 0.29241723 -0.40904346 -0.31301644 -0.19667141 -0.03505785 -0.11680115 -0.13124786 0.08061183 -0.3675327 -0.16477983 0.2707281 -0.139578 0.7353592 -0.3519783 0.35283083 0.32664973 -0.33202797 0.24056381 0.39578834 -0.089645736 -0.13257618 -0.13714215 0.37903723 -0.13850877 -0.036706645 0.04475177 0.06928605 0.44141528 -0.020751545 0.33130774 0.524016 0.17566599 0.051480282 0.20645654 0.11570437 0.2135299 0.0017243804 0.16323546 0.41839817 -0.39592403 -0.24361701 0.038892996 -0.020892963 -0.073107995 -0.14861427 0.0027723154 -0.26413655 0.23318727 -0.097676426 -0.04926453 0.3065064 -0.07091855 -0.5939961 0.20849179 -0.32980296 -0.466249 0.15546961 0.40739036 0.16994406 0.13003457 0.15827426 -0.08682721 -0.08743018 0.10589808 -0.2714753 0.11530071 -0.36345342 -0.23599477 0.123510264 -0.22253829 0.16852532 0.2119776 0.28689128 0.09960837 0.1666343 -0.5940301 0.61621684 -0.052458193 0.5370456 0.27699924 0.40545282 0.08879257 -0.05259747 -0.011554663 0.026520496 -0.42445183 0.12711923 -0.2941405 0.32763213 -0.2647067 -0.13014498 0.13868782 0.13193144 0.011186459 -0.11296824 -0.19715089 0.08087072 0.32863957
182 0.21282606 0.30457157 -0.3338952 0.33495176 -0.45490056 0.45357057 -0.08106363 -0.34331307 -0.2172393 -0.5309037 -0.2795537 -0.27475822 0.07750443 -0.4817077 -0.2832272 0.19964792 0.7313175 0.21057242 -0.13671385 0.2494061 0.8117218 -0.103927456 0.12601073 -0.17080279 0.22532667 -0.3249511 -0.31372336 0.12068922 0.064419076 0.09556951 0.24246629 -0.4199029 -0.3124954 -0.11741813 -0.07906572 -0.17503828 -0.089180835 -0.011555471 -0.38377574 -0.1575823 0.28489384 -0.19494304 0.72899824 -0.32705852 0.2356945 0.20621398 -0.26542103 0.1826619 0.51465327 -0.23191004 -0.2014936 -0.15261795 0.33000433 -0.17585558 -0.011267365 0.039140176 0.047821023 0.56042546 -0.0941294 0.3770948 0.5237365 0.045209818 0.03813517 0.2552245 0.12534551 0.25812355 0.08963376 0.18584788 0.378075 -0.3661267 -0.6006084 -0.1455447 -0.14585304 -0.1379867 -0.09242421 0.073387206 -0.026730565 -0.009038797 -0.062347967 0.023107434 0.50181717 -0.17858228 -0.5473233 0.2928293 -0.4752082 -0.390821 0.22403628 0.48503438 0.20230737 0.24828447 0.061654992 -0.24922557 -0.09283065 -0.101429336 -0.23670673 0.21949366 -0.36632356 -0.24403544 0.21218704 -0.21722852 0.14959414 0.27944297 0.41199628 0.0489683 -0.06133839 -0.55304307 0.5503929 -0.006155506 0.45452067 0.15255004 0.379458 0.14006828 -0.0986059 -0.015632419 0.061353557 -0.48675165 0.22026542 -0.3420537 0.3612303 -0.24395417 -0.045292273 0.062104173 0.31377038 -0.1295517 -0.2437308 -0.19977722 -0.13180588 0.304478
458 -0.054503046 -0.33134776 -0.1228314 0.0021226439 0.110056736 -0.16139042 0.12248889 0.29407483 0.2688338 -0.070185676 0.079342246 -0.50790596 -0.3988284 0.1975169 -0.35968897 -0.22855686 0.16366003 0.39535072 -0.07811607 -0.11423415 0.29357785 0.017603612 0.15055542 0.08191554 0.16917272 -0.19754961 -0.30895528 0.055516794 0.38776794 -0.28378478 -0.05253975 0.25279227 -0.46977085 0.051818706 -0.1830049 -0.34776437 0.014602866 -0.1234184 -0.16345994 -0.2023536 0.14879583 -0.027309516 0.30437526 -0.022382248 0.24904609 -0.1367592 -0.19821015 -0.1659603 -0.058151558 -0.3178873 -0.17901856 0.259798 0.11621346 0.1857998 -0.009368264 -0.2227443 0.010022634 -0.1285538 -0.1823228 -0.20345774 0.2508037 0.3543033 0.29268315 0.31008 -0.2393957 0.23754847 0.18434903 -0.052961208 -0.41604537 -0.0020734577 0.13253349 0.016168727 -0.20542318 0.098115385 0.26039135 -0.26300257 -0.29206222 0.1908031 0.35075006 -0.21698146 -0.25830564 0.32158452 0.0891444 0.1929285 -0.048653148 -0.29298314 -0.16071995 0.1772839 0.04904642 0.43529877 0.25681975 0.04468669 0.2402629 -0.35876557 -0.013534405 -0.07824099 -0.25400633 -0.14093912 0.2514092 -0.11515992 -0.07007991 -0.10711597 -0.13589382 0.49926385 -0.18313543 -0.13635065 -0.29066163 -0.100031674 0.6534031 -0.13966052 0.51156044 0.7654337 0.07244666 0.5490793 0.0032789744 -0.218403 -0.04051763 -0.5075333 0.17475122 0.62460995 0.10946091 -0.030134762 0.2063248 0.08155891 -0.525898 0.4241746 0.027838966 0.2972331
366 0.114836514 0.36743447 -0.13721974 -0.1631258 -0.19603336 -0.113916986 -0.23307204 0.00051226787 -0.22217129 0.005632045 -0.22620903 -0.005021395 0.1864685 0.17275661 -0.19179854 0.028847154 0.111678615 -0.016227663 -0.0039622933 -0.025716651 0.027819382 0.2258488 0.4533521 -0.21224599 0.0996315 -0.08185414 0.045843355 -0.024394847 0.18428694 -0.2734563 0.18558662 -0.12926044 0.17456315 0.14896862 -0.038339976 -0.31418437 -0.34470138 -0.14774443 -0.041816305 -0.40002963 0.45763832 -0.090097666 0.060731657 -0.09963415 -0.33013085 0.48423275 0.34159303 -0.13035032 0.29607376 -0.55922896 0.04824205 0.06271504 0.21227923 0.27064404 0.07553998 0.20800115 -0.18989095 -0.15490066 -0.09521983 -0.15367831 0.15567479 0.4594908 0.38941902 0.04305666 -0.016276004 0.24201275 0.04441236 0.19896124 -0.12232298 -0.19995035 0.11481806 -0.14429829 0.23105691 -0.20792532 0.21305348 -0.09953624 0.07576122 0.1467058 -0.11043639 0.01920331 -0.20196754 -0.054662798 -0.38157365 0.06161421 0.10004284 0.13335691 0.10194843 0.18670136 -0.37191126 0.14030315 -0.052412607 0.07588599 -0.021840854 0.04828951 -0.005521091 -0.17747734 -0.22378609 -0.43166646 -0.08911052 -0.2547294 -0.38560507 0.26182204 -0.32003015 0.0835992 -0.07240649 -0.2684604 0.06845921 0.2963118 -0.030595127 0.31066102 -0.30178517 -0.026341818 0.03551662 0.16115983 0.16630419 0.27959195 0.26324883 0.05008894 -0.20555411 0.17299433 -0.15386328 0.31021953 0.17302692 0.13070764 -0.21831271 -0.033913504 -0.14259773 -0.04419571
47 0.3834326 0.102848984 -0.39418924 0.14865725 -0.17714757 0.1022811 0.09241447 0.09898426 0.009457263 -0.18702564 -0.1655826 -0.7962734 0.30228966 0.019509621 0.06539788 -0.37615183 1.005354 0.21296418 -0.5117287 -0.27176026 -0.24203728 0.17218444 -0.7106721 -0.54380786 -0.029488387 -0.31600502 -0.39145634 1.0852435 0.12665881 -0.10161723 0.40956533 0.05298164 0.3115617 0.08164546 -0.113901325 0.43272856 -0.4124292 -0.023168009 -0.24147063 -0.025800312 0.26574907 0.26110944 0.5599396 0.4808991 0.11320075 -0.5575161 0.41573936 0.03291319 -0.4141827 -0.20925039 -0.10437532 -0.33037454 0.54153115 0.33329657 0.1875564 0.12327907 0.17358522 0.64961785 0.25799915 -0.052529182 0.13266811 0.1453098 0.48588267 0.029671576 -0.27931395 0.07789597 0.030736174 0.35152364 -0.23617443 0.21360154 0.065597795 -0.065803245 0.3602899 0.080618136 0.43717897 -0.60906565 0.41609234 -0.52702194 -0.07155207 -0.11967389 -0.10872994 0.5934461 -0.07329251 -0.28403714 -0.11486687 -0.057006128 0.11033014 0.22412182 -0.6023097 0.65523183 -0.48926485 0.170049 0.2695703 -0.23126021 -0.39914545 -0.73282665 -0.23393357 -0.21595837 -0.09748213 0.31808722 0.25164005 0.1690759 -0.57309777 -0.20994438 -0.012239356 0.11717343 0.23923235 -0.75164485 0.0007744252 0.7955801 -0.2301699 -0.028801734 0.3178752 0.59583116 0.1867186 -0.24646653 0.30851036 0.20327763 0.8278957 -0.12684417 -0.4729648 0.22835755 0.026710607 0.113950774 -0.04913903 -0.19915691 0.16387133 0.17499259
97 -0.10746194 -0.40446407 -0.09320435 -0.05895241 -0.003820684 -0.11029721 0.08289108 0.24636003 0.21481165 -0.08780024 0.14845838 -0.49382102 -0.32519707 0.18451576 -0.4517663 -0.28144497 0.14694059 0.47204 -0.1411375 -0.25161254 0.29716533 -0.09851247 0.20871414 0.19616477 0.18475318 -0.14193845 -0.26195225 0.10026581 0.44775832 -0.23867433 -0.03105665 0.18628882 -0.5345943 0.04362955 -0.18776618 -0.33537996 0.019448632 -0.08081436 -0.064316474 -0.105976105 0.123191096 0.021446615 0.27798936 0.046525665 0.20744833 -0.25872934 -0.12650381 -0.16455019 0.038595404 -0.3799085 -0.09287887 0.2078331 0.19079095 0.17199321 0.0013760098 0.0067218943 0.0718502 -0.123311035 -0.19511586 -0.062129498 0.24455649 0.2980354 0.22747499 0.28762698 -0.3811195 0.090356514 0.31669086 -0.027092183 -0.3051843 -0.10502893 -0.035843015 0.025033161 -0.15180537 0.21602874 0.33549765 -0.2556268 -0.25724143 0.11346537 0.36200878 -0.17115341 -0.42819116 0.36290768 0.18043391 0.24230865 0.05322793 -0.33772042 -0.13911554 0.21138526 0.03481946 0.47694543 0.3234749 0.17856906 0.2017542 -0.22741534 0.009333507 -0.04195727 -0.30425236 -0.18093434 0.3382251 -0.16971481 -0.25813895 0.023199206 -0.15193991 0.4554382 -0.23253436 -0.048848487 -0.15496895 -0.10224954 0.6979515 -0.20420165 0.5102749 0.7773761 0.08008204 0.59073013 -0.055067897 -0.12872617 -0.0016400913 -0.5865537 0.15643662 0.53798854 -0.014257924 -0.18434826 0.09272454 0.083445966 -0.5249369 0.3791412 0.1230878 0.35825837
504 -0.10315958 -0.29717842 -0.15429701 -0.14758462 0.09581472 -0.018508632 0.03992316 0.23504195 0.2416708 -0.06756598 0.18980983 -0.6129866 -0.3378562 0.059591368 -0.35344818 -0.29206607 0.13778198 0.30500647 -0.0998869 -0.25870496 0.18679412 -0.008897166 0.15378815 0.118601896 0.22052611 -0.19012108 -0.44765708 -0.031003485 0.3534748 -0.19578078 -0.034386113 0.2350431 -0.49478143 0.049524553 -0.2500695 -0.37760136 0.06906098 -0.22098173 -0.090151116 -0.26673925 0.19993386 0.039418932 0.32927313 0.12190515 0.36335757 -0.12056148 -0.1327053 -0.11062524 0.07624885 -0.39083377 -0.11532248 0.13671106 0.0731083 0.17492647 0.054504618 -0.13647102 0.051076643 -0.19895178 -0.12931128 -0.31241038 0.22299373 0.32980505 0.2629421 0.21384585 -0.3394961 0.09928884 0.41280243 -0.1517743 -0.34008497 0.040027067 0.078441106 -0.12161335 -0.20294864 0.12678418 0.36504024 -0.22953846 -0.3317314 0.091620825 0.41811493 -0.16756964 -0.34228516 0.48059064 0.16815685 0.16167332 -0.09477067 -0.3671731 -0.10067514 0.1760643 0.06151256 0.3933523 0.1858825 0.08198069 0.15615305 -0.1954911 -0.083132 -0.07110924 -0.17477915 -0.20663764 0.26434475 -0.08913481 -0.09945359 -0.10340465 -0.16841315 0.4870723 -0.24190177 -0.13238905 -0.20936438 -0.058140863 0.61115104 -0.20192486 0.6498617 0.76439714 -0.038825467 0.52130073 -0.02941522 -0.10679099 0.02217627 -0.47008574 0.07699985 0.63778037 0.07373864 0.008261971 0.18187091 0.027584258 -0.53143567 0.44365168 0.0127578955 0.2229602
514 0.013707849 -0.29800856 -0.058502 -0.00017322609 0.1537788 -0.16980745 0.089232326 0.05079038 0.2023998 0.047922317 0.09777802 -0.5773423 -0.31961703 0.017226566 -0.12099583 -0.08058483 0.17744406 0.2046972 -0.22038966 -0.1895199 0.40719345 0.06510821 0.056867775 0.13546225 0.13639207 -0.023779022 -0.4498769 0.11930903 0.55975825 -0.28697377 -0.06653609 0.15573835 -0.5152914 0.11781563 -0.24868158 -0.31779942 0.1273252 -0.07665868 -0.23569582 -0.11512351 -0.055235785 -0.19644268 0.3882879 0.057744328 0.072708696 -0.13850102 -0.18100421 -0.13282275 0.09117321 -0.36833388 -0.05391908 0.091983154 0.04172767 0.19546072 -0.049232922 0.027275922 0.1403218 -0.30185726 -0.14948912 -0.26309553 0.30567408 0.4517545 0.1687255 0.18317516 -0.4355156 0.2289236 0.3028428 -0.024676124 -0.43353838 0.07195346 0.04432295 -0.041362915 -0.09155437 -0.009350748 0.23002112 -0.19960684 -0.32182106 0.29446718 0.40857437 -0.044590425 -0.3637234 0.39379436 0.16896363 0.14811772 -0.1171313 -0.33895835 -0.22108747 0.09692334 0.2415644 0.32601497 0.11831501 0.23598078 0.21590716 -0.2295094 0.18995155 0.022498528 -0.15307397 -0.16136345 0.33956593 -0.17406006 -0.07081365 -0.020455852 -0.083683014 0.25562376 -0.11063881 -0.105430715 -0.17380656 -0.008371526 0.42014402 0.0104486495 0.43691888 0.6291329 0.0655104 0.45646313 0.2064547 -0.27562362 0.083267465 -0.38303536 0.15602984 0.6091126 -0.099432714 -0.37673327 0.14120038 0.11855307 -0.36292967 0.2451228 0.108878344 0.21948296
393 0.41401523 -0.001725603 -0.44471386 0.019628517 -0.22317645 0.052131403 0.051180083 0.06822951 -0.054301426 -0.2485072 -0.21102713 -0.7735558 0.2679838 0.0998865 0.19641685 -0.427793 1.0407941 0.19817197 -0.44723278 -0.41633034 -0.3280845 0.25893673 -0.73462313 -0.3956175 0.00054041727 -0.31987163 -0.4723726 1.2050899 0.18219951 -0.1860906 0.35060117 0.13555771 0.073184066 -0.010775504 -0.18634142 0.2866337 -0.26316547 0.09687239 -0.1736549 0.18520132 0.44789988 0.25590244 0.55305237 0.58219576 -0.033470914 -0.26525337 0.5234897 -0.0022928712 -0.30063507 -0.29457867 0.06486686 -0.18416746 0.38180622 0.29266852 0.13749431 0.021739889 0.14008464 0.5427675 0.091424644 -0.021886643 0.2019564 0.10045705 0.32273275 -0.030507568 -0.29188874 0.14792247 0.045675613 0.32839307 -0.42516497 0.3558868 0.09188304 -0.025690908 0.26230568 -0.10851219 0.28686076 -0.5858591 0.5932237 -0.41049734 -0.015083731 -0.10384728 -0.15330897 0.44791928 -0.11225698 -0.33574596 -0.15541951 0.07131615 0.22162935 0.19463561 -0.40107912 0.64393723 -0.40796408 0.048402 0.40767485 -0.041804124 -0.08713156 -0.52878046 -0.22646052 -0.0023832596 -0.12973917 0.33394393 0.20378533 0.21301915 -0.4682424 -0.11691818 0.045732737 0.15872608 0.27728096 -0.6012539 0.06300571 0.90860057 -0.26106477 0.13072534 0.24881402 0.55273443 0.2001233 -0.42152458 0.39563423 0.28084776 0.68199795 -0.08408773 -0.5075134 0.23173444 0.21449636 0.014552604 0.033350974 -0.04178132 0.10550091 0.21880862
114 -0.052356858 -0.30522016 -0.09169457 0.035207596 0.07505032 -0.21007636 0.10082217 0.119496375 0.13751273 0.03388319 0.12814999 -0.5306485 -0.15993346 0.09330047 -0.26860118 -0.21058796 0.12103187 0.22601211 -0.20901969 -0.28327832 0.31091145 0.0633008 0.1103038 0.22479485 0.16588074 0.027691646 -0.25803354 0.11057766 0.49919093 -0.21977708 0.048689574 0.29158378 -0.5026908 0.16743854 -0.25916186 -0.36636737 0.07604382 -0.21876773 -0.16573974 -0.047363006 0.041864987 -0.2149584 0.3212094 0.0018846631 0.24879496 -0.0069573484 -0.23940542 -0.23836727 0.056026176 -0.44579408 0.042255584 -0.121943444 0.16411062 0.17608824 -0.045433957 -0.091965154 0.15805487 -0.27422857 -0.2611466 -0.3233772 0.2534577 0.30806965 0.23040853 0.11193501 -0.29953045 0.22952464 0.30080637 -0.04094005 -0.24576399 0.16017114 0.12686387 -0.08491013 -0.35288766 0.10594802 0.2522202 -0.37404492 -0.29473427 0.09686647 0.49179015 -0.09989958 -0.30995506 0.37337232 0.2418339 0.19977179 -0.14203124 -0.3802325 -0.00854306 0.19872177 0.1870327 0.46048987 0.20636976 0.13415255 0.096007206 -0.029346865 0.18307658 0.022166152 -0.069078095 -0.09450563 0.25771588 -0.19800173 -0.01902192 -0.16896379 -0.11973202 0.40436235 -0.109116524 -0.06050533 -0.20956497 -0.091604434 0.44143364 -0.11523016 0.49356383 0.6574222 -0.10280294 0.45870814 0.25135356 -0.06255981 0.1227571 -0.54617715 0.16316643 0.4146752 -0.16751137 -0.073826104 0.073276 0.051210146 -0.3588041 0.382445 0.075112365 0.23186633
84 0.09388404 -0.15072164 0.06686272 -0.18684812 0.35494885 -0.30982324 0.14157806 0.06695796 -0.05995871 -0.16635168 0.3428657 -0.57868874 -0.21410164 -0.19414066 -0.21981232 -0.25320807 0.31769913 0.23557144 -0.0073362733 -0.3317041 -0.052983373 0.11406225 0.106728256 0.48101103 -0.2546528 -0.12231371 0.0061418386 0.6286435 0.065915056 -0.09504123 -0.051809464 0.0848137 -0.40527007 0.12368645 -0.43698975 0.021348689 -0.00665025 -0.05145872 -0.04707492 0.155128 0.32326987 -0.18429117 0.75079596 -0.08427925 0.264128 0.25684965 -0.2729082 -0.08861078 0.089785576 -0.12782836 0.08962765 -0.39781886 0.2036478 0.08097782 -0.29031074 -0.10069736 0.17828816 -0.40297788 -0.39962867 -0.5541283 0.17963882 0.12549728 0.17965303 0.30223778 -0.3180162 0.03248661 0.49314812 0.18493487 -0.382567 0.054814693 0.17622335 0.26901034 -0.10107651 0.22735097 0.5663084 0.30626288 0.008189337 0.2325979 0.3313141 -0.11226028 -0.4552213 0.0852068 -0.027034296 -0.2758188 -0.09241096 -0.013813748 0.020354267 -0.042388294 0.22343409 0.14448127 0.23349835 0.01691379 0.04903864 -0.064420946 -0.3637438 0.066154316 -0.408473 0.13341668 0.38145036 -0.32177275 -0.29936516 -0.30131173 -0.2688717 0.11418204 -0.08369631 0.026830949 -0.06692489 0.27652815 0.26236036 0.27362064 0.14057934 0.40562457 -0.0016035201 0.4753257 0.28167966 -0.15544271 -0.33142227 -0.28718057 -0.053974073 0.93236196 -0.40831694 0.18904623 0.061767343 0.039535977 -0.25729388 0.43949175 -0.1996836 -0.10173431
469 -0.17340186 0.92071164 0.34083316 0.032040823 -0.7859008 0.026441764 0.30403683 -0.16927868 -0.38085508 -0.0994835 -0.69436514 -0.9036388 0.2627594 -0.1298621 -0.8079836 0.30327365 -0.17639278 0.84346396 0.028237933 -0.2086346 0.222934 0.15844132 0.054477885 -0.10591329 -0.15783745 -0.050569907 -0.45352373 0.1733489 0.011642146 0.033892 -0.19215782 0.1576317 -0.29223195 0.4659895 -0.6825838 -0.51366216 -0.5811416 0.04140083 -0.24721995 0.390378 -0.7117483 0.61134374 0.53761333 0.31131712 0.1273664 0.02290922 -0.10137618 0.6028574 0.02236583 -0.8171722 0.110304214 0.33854675 0.5887162 -0.5361042 0.49109706 0.63368344 0.1748355 0.037581284 -0.1995501 -0.18877523 0.3918906 0.1971273 -0.7997057 0.7154424 0.31296572 0.26595485 0.002074919 -0.4010131 -0.17005767 0.29037553 0.004458675 0.057267334 -0.56074864 0.32869044 0.57372403 -0.47228485 -0.8954636 0.23524651 -0.5274043 0.068513155 -0.13141444 0.057934962 -0.46609548 0.227453 0.22450991 0.021765715 -0.089131355 0.42054236 0.18234035 0.33052352 -0.41041142 0.118324846 0.14027674 -0.2532214 0.014348358 0.20363262 0.12582119 0.36471885 -0.15658592 -0.5785913 0.03094038 0.32623282 0.102292195 -0.40639862 -0.21951614 0.26350197 0.23947895 0.0041905474 -0.52515835 0.009524658 -0.21226276 0.20195273 -0.11924308 0.64294267 0.37193435 -0.6113647 0.07022139 0.1609335 0.076628625 0.42443126 -0.62937325 -0.11358578 0.19361964 -0.38774863 0.11199987 0.53957844 -0.3530468 0.13966353
301 0.16297096 0.3422022 -0.027767204 -0.101668626 -0.2781191 -0.11886012 -0.2041514 0.029502742 -0.22621593 0.08304979 -0.22341092 0.032368153 0.068497844 0.066162236 -0.24130686 -0.052593365 0.1984573 0.0001506322 0.023332343 0.05259342 -0.06756891 0.18994208 0.3083394 -0.110852376 0.23350869 -0.08773991 -0.12144604 -0.025813771 0.20566405 -0.2547102 0.16014913 0.012130191 0.30618286 0.20239504 -0.018761657 -0.28945664 -0.24949214 -0.073957875 -0.07394336 -0.35515162 0.42847115 -0.046121154 0.058101572 -0.11154552 -0.3560138 0.47918767 0.27217987 -0.07735846 0.20055716 -0.4370359 0.07299553 0.13314813 0.25459155 0.15340413 0.15570252 0.18946198 -0.19197664 -0.10129615 -0.18399955 -0.11865575 0.20429677 0.45130023 0.26498595 -0.072555356 -0.043044835 0.32046518 -0.022877306 0.0919616 -0.13602123 -0.16352542 0.033411745 -0.18847503 0.30236492 -0.12493503 0.23761606 -0.019023797 0.010743804 -0.0018767059 -0.050283004 -0.033263147 -0.2252931 -0.12650724 -0.34702376 0.04178169 0.13033816 0.18649825 0.13526909 0.18011433 -0.3111411 0.1492986 0.013614454 -0.03449989 0.009736811 0.016263662 -0.13748308 -0.23979236 -0.2793253 -0.4209481 -0.16502975 -0.2609147 -0.4398982 0.31579155 -0.43563724 0.225578 -0.0020094637 -0.22893837 0.07141802 0.23530345 -0.0657502 0.23254046 -0.24956153 -0.009537599 -0.025725396 0.14510508 0.1274373 0.371577 0.30370906 -0.03443645 -0.21069226 0.051653665 -0.07487967 0.22469269 0.20622979 0.18212855 -0.27872607 0.054622527 -0.11958547 0.0037680094
272 0.038062733 -0.10286145 0.11318102 -0.17397073 0.44905862 -0.3544098 0.102018304 0.15504146 0.018495927 -0.14375919 0.30888733 -0.6669232 -0.10666611 -0.33766836 -0.23489982 -0.12200361 0.34966242 0.18399437 0.08981257 -0.31121826 0.069708 0.09724551 0.15445773 0.50862294 -0.23679811 -0.1486971 0.112500705 0.6691231 0.07194748 -0.12985061 -0.013531993 0.20098217 -0.4640264 0.09277529 -0.5330769 0.010019415 -0.013957598 -0.14021192 -0.09836064 0.1777609 0.3081309 -0.23395911 0.66598713 -0.056576267 0.10860475 0.3259264 -0.13316876 0.024719343 -0.019722624 -0.098584056 0.020185906 -0.49360958 0.08275179 0.019576574 -0.1418421 -0.10304933 0.17715324 -0.3389515 -0.42293978 -0.5869604 0.12218594 0.15067048 0.22514755 0.24876326 -0.4015819 0.073644884 0.34958917 0.28795406 -0.48952627 0.11234471 0.09942656 0.07398061 -0.21029556 0.2719821 0.5264866 0.296332 -0.04317068 0.337092 0.35988835 -0.0061852043 -0.39284784 0.13206327 0.014956342 -0.123930134 -0.12682493 -0.15557519 -0.0149679 -0.01841428 0.21574172 0.14996132 0.30185902 0.11780915 0.1228596 -0.07794557 -0.21818008 0.07835976 -0.31939742 0.06875354 0.4882311 -0.2837945 -0.34491986 -0.22995909 -0.16600941 0.10099412 -0.057770737 0.014355952 -0.013878 0.25459823 0.30383155 0.27737075 0.04663612 0.37047186 -0.05498602 0.4942498 0.2237194 -0.28875268 -0.2614201 -0.17024854 0.06130994 1.0316317 -0.2767055 0.113696255 0.13550916 0.11610478 -0.27361625 0.28555208 -0.3330749 -0.2195109
99 0.094862655 -0.06701502 0.09141428 -0.17923105 0.49110717 -0.2833803 0.115280695 0.06712284 -0.12002033 -0.027536433 0.2801031 -0.58169544 -0.2285194 -0.20205916 -0.23979709 -0.061947312 0.2532025 0.21035539 0.06528994 -0.3633145 -0.049342465 0.21397185 0.06689978 0.49493375 -0.2584295 -0.2653091 0.18132798 0.6119874 0.15873978 -0.15530291 0.0580698 0.09779217 -0.3693906 0.0967199 -0.5351898 0.01280616 -0.011434214 -0.1587775 -0.14800887 0.23508103 0.24978487 -0.24442622 0.67454195 -0.034292914 0.10891936 0.18095568 -0.15732014 -0.08500597 0.08693619 -0.08630249 0.08926597 -0.4010991 0.24515982 0.011737819 -0.10467489 -0.09509106 0.2430116 -0.21671991 -0.41883385 -0.55315393 0.23700143 0.061058264 0.23426369 0.33415025 -0.34561032 0.17910695 0.51146674 0.24946155 -0.25867638 0.070194066 0.14487438 0.19650131 -0.27062336 0.12826107 0.41105145 0.25106576 0.0552461 0.32298422 0.40034994 -0.076738834 -0.27544358 0.14101255 -0.063346535 -0.1403314 -0.1001394 -0.071549475 -0.08353991 -0.04918261 0.1566327 0.15254776 0.31993118 0.12199557 0.18152668 -0.007600668 -0.32998022 0.08893231 -0.33239266 0.14205596 0.33164856 -0.3377765 -0.34696487 -0.14679785 -0.14025025 0.142183 -0.19335364 0.053769838 -0.19638273 0.23775879 0.3628586 0.2767083 0.10203136 0.41843888 -0.043323282 0.48094088 0.19309136 -0.19188699 -0.2768004 -0.1399491 0.12105922 0.93636173 -0.2745286 0.10487728 -0.036011808 0.11672784 -0.2764722 0.3647173 -0.20659684 -0.21223901
27 0.12731563 0.33028775 -0.09472004 -0.15884314 -0.29373297 -0.030140411 -0.2608517 -0.0001402202 -0.12303971 0.018023128 -0.18064706 0.0058886805 0.10198431 0.12966669 -0.2874942 -0.07451509 0.22247756 -0.019860093 -0.011600847 -0.07729289 0.00027786868 0.08908849 0.31856477 -0.20475881 0.075505674 -0.11083733 0.003839008 -0.06324254 0.12659042 -0.20136587 0.17731583 0.004873226 0.12556271 0.15502675 -0.0075812424 -0.3348288 -0.26837537 -0.13035867 -0.07326527 -0.2809103 0.25828272 0.051561814 -0.0220786 -0.13468152 -0.36871687 0.42888308 0.21533173 -0.08569351 0.38769138 -0.34270826 0.06578435 0.11137382 0.2658169 0.21418715 0.11499891 0.20620097 -0.15792559 -0.15461007 -0.10929539 -0.24663757 0.054187976 0.41832557 0.2549238 -0.065305844 0.07432898 0.24502999 0.0818744 0.18275328 -0.07246777 -0.21517639 0.030982574 -0.0689375 0.31853104 -0.17547737 0.30897245 -0.13057654 -0.0041757817 0.1762404 -0.16466652 -0.12483199 -0.1648923 -0.06692867 -0.38339585 0.1153449 0.10090505 0.100899585 0.095240265 0.019665176 -0.23092875 0.09879944 -0.055116303 -0.023964457 0.07949414 0.039148662 0.080698535 -0.29893985 -0.28630096 -0.42864215 -0.08427272 -0.2674965 -0.39748174 0.18636435 -0.36455214 0.14172594 -0.061134744 -0.17006277 0.09273509 0.18935166 -0.04307314 0.21408547 -0.17992525 -0.10019443 -0.020681562 0.22211571 0.16608559 0.37691966 0.28201693 -0.04860992 -0.18246515 0.013019706 -0.0744034 0.25194386 0.24056125 0.18846877 -0.32070264 -0.0786848 -0.18757725 -0.06573781
104 0.21008791 0.21317965 -0.24596693 0.46122712 -0.46340814 0.3620058 -0.07948072 -0.20800164 -0.2050364 -0.41822374 -0.28181797 -0.115932114 0.038760167 -0.45547605 -0.25329122 0.26829863 0.60961735 0.25145334 0.048004713 0.26248473 0.6050181 -0.0914216 -0.036420822 -0.14606357 0.13550581 -0.3594117 -0.4926648 -0.008576017 0.0038517471 0.038599417 0.2768681 -0.43046623 -0.37501344 -0.073320575 -0.10604092 -0.2970114 -0.15588515 0.106501624 -0.42516962 -0.23318768 0.3033244 -0.09591648 0.6933551 -0.33892536 0.3976323 0.23536544 -0.24390526 0.285542 0.44189236 -0.10724523 -0.18888985 -0.14323321 0.4376996 -0.034132227 -0.04942038 0.077847674 0.16993743 0.4134715 -0.025543712 0.23779371 0.5263893 0.04597507 -0.070682734 0.23202929 0.13180886 0.26114964 0.06221511 0.07955528 0.4438984 -0.39323047 -0.3078728 -0.065899 -0.15551765 -0.025321584 -0.10719023 0.060812883 -0.033957116 0.07499933 -0.10134423 -0.029401045 0.23991308 -0.18175004 -0.48867473 0.30879036 -0.23967151 -0.2824618 0.29100993 0.4812458 0.18886183 0.13070017 0.18591209 -0.17476892 -0.10127155 -0.037512425 -0.28983116 0.20516442 -0.28687114 -0.3637932 0.13657276 -0.098408714 0.22271632 0.08135404 0.36356747 0.09046735 0.12193163 -0.55029047 0.50324845 -0.15246828 0.44111744 0.1945617 0.3883894 0.110909246 -0.08311634 0.057979085 0.11750852 -0.38695535 0.1407076 -0.293825 0.39351806 -0.25001553 -0.025398573 0.09059183 0.2259681 -0.17606899 -0.35827753 -0.10891834 -0.0021713502 0.4472845
331 0.38876817 0.09581221 -0.56170005 -0.003116833 0.028307851 0.13350092 0.2046629 -0.37997788 -0.1870063 0.024803791 -0.37382513 -0.036221024 0.20684506 0.19369222 -0.21013123 -0.029719958 0.43690014 0.0984815 0.30151042 -0.1426735 -0.21612291 0.37904254 -0.40524474 0.21687913 -0.36646923 0.2938632 -0.18407679 0.618 0.43459666 -0.3633466 -0.08108696 0.024232095 -0.10359438 0.083764404 0.34720528 0.15103684 -0.027689323 -0.086937435 0.0022288146 0.0798629 0.07731482 -0.023821633 0.39607936 0.699808 0.46800396 0.24949285 0.31909835 0.15727147 0.06895418 -0.025574317 0.18556847 0.1202688 0.23383793 0.046714418 -0.04004035 0.16603164 0.2587655 0.01259049 -0.2042013 -0.4034174 -0.044038907 -0.07327474 0.15037955 0.3600549 0.038609836 0.13671854 0.10252519 0.4980193 -0.29849556 0.38162234 -0.037120685 0.039422717 0.36277246 0.15016131 -0.057398394 -0.35320976 -0.123844765 0.13225967 0.19895564 -0.020610811 0.27910367 -0.13357428 -0.35985225 0.035375558 -0.12773003 -0.13218364 0.010210995 0.01391506 -0.3801887 -0.040851697 -0.07037589 -0.27499142 0.17501964 -0.035021268 0.16585109 -0.21832612 0.06170602 -0.07437071 -0.09401264 0.011098375 0.2752787 0.01498164 -0.25344783 0.08390499 -0.27969673 0.10507213 0.2824166 -0.13212903 -0.024187606 0.045178026 0.1264556 0.24142717 -0.06664699 0.15783007 0.118713565 -0.063719444 -0.43512487 -0.17659777 0.49650666 0.12970826 -0.41641146 0.18954468 0.280191 0.076695256 -0.17650759 0.54586047 0.18759257 -0.3106205
10 0.3805692 0.21719491 -0.4746758 -0.17222221 0.18595642 0.15642205 0.28983688 -0.27654853 -0.041120946 -0.15327857 -0.47075045 -0.24811845 0.02338563 0.04245386 -0.28027055 -0.00032726547 0.443597 -0.01892731 0.13057259 -0.006506002 -0.1986103 0.24555293 -0.4699811 0.16239727 -0.31609008 0.12341944 -0.16140006 0.6270589 0.3435103 -0.38906866 -0.13019313 -0.0718642 0.04791305 -0.032597266 0.31329253 0.008215191 -0.3047538 -0.030933278 0.04235384 0.19938745 0.08783736 -0.060607273 0.42266557 0.7419607 0.40902883 0.026169512 0.21548057 0.08980272 0.071481764 0.0068914504 0.12574263 0.22110543 0.33984658 -0.0009946489 0.026486414 0.17373516 0.34442765 0.107056 -0.08603349 -0.31907776 -0.046091925 -0.02386211 0.35225248 0.3599617 0.1422419 0.023662526 0.18609256 0.4628567 -0.41563353 0.263398 0.014508201 -0.13639015 0.397037 0.219644 0.05551285 -0.085930526 -0.016943555 0.16992019 0.29713407 0.024258098 0.06712497 -0.14031829 -0.3468049 -0.039342415 -0.0895129 -0.11838187 0.11735077 0.045110382 -0.2419801 -0.027341226 -0.14980718 -0.11806904 0.22892562 0.070921525 0.21567297 -0.1638851 0.18814728 -0.27726448 -0.1699114 -0.0042368704 0.3089223 0.14995898 -0.22982568 0.063258685 -0.24117443 -0.11405085 0.39406255 -0.14211905 -0.22096588 -0.2677341 0.19924298 0.21794735 -0.14037845 0.14896657 -0.006744199 0.116442986 -0.47904104 -0.23512173 0.3500289 0.009279238 -0.3658421 0.3812022 0.13744219 0.024506206 -0.34858373 0.4962428 0.28889605 -0.31107718
