531 128
71 -0.007516239 -0.07948815 -0.45561898 -0.16478446 -0.13810688 0.4910019 -0.101554595 0.16481346 -0.34451032 -0.35933116 -0.02678436 0.13030739 0.3915865 0.21938166 0.25013062 0.12792976 0.31108278 -0.25291505 -0.3286731 -0.10211021 -0.17930911 0.07965224 -0.29541638 -0.09482795 0.38810137 0.42693394 0.027227717 -0.2872722 0.2790828 0.09180281 -0.28281435 -0.28850433 0.21070077 -0.15884326 -0.21405981 -0.3222611 0.2478798 -0.33666795 0.37381688 -0.2986446 -0.24677208 0.4606827 -0.17025802 -0.27424482 0.005137375 -0.009951717 0.020564985 0.27241778 -0.0480813 0.024171721 0.07468093 -0.29312548 0.036696125 0.059106763 -0.124544464 0.11491803 0.120299324 -0.33167002 0.634403 0.6365 0.2833893 0.19988222 -0.39053392 0.4811079 0.63130265 0.14639613 0.1423948 0.06366585 -0.33168638 -0.048937216 0.035063133 0.25791484 0.33292076 -0.24812931 -0.22474188 -0.25454652 -0.10940881 0.29220074 0.022550989 -0.30109093 0.32389092 -0.10503785 0.4290881 -0.13725631 -0.23185493 -0.08792644 0.25600228 0.14198248 0.020069037 0.39281207 0.060694795 -0.16256237 -0.33306214 0.24385428 -0.0007357165 -0.0049254545 -0.3861997 0.18720467 0.11217178 0.2748997 0.36984357 -0.548421 0.28095892 -0.087973595 -0.23760296 0.4484364 0.48129013 -0.46739346 -0.18601888 0.3135908 -0.26760325 0.16574685 -0.51604825 0.17149657 0.010194589 0.18188104 -0.20487474 0.07782704 0.01668953 0.18806225 -0.23881985 0.16884544 0.3666175 -0.33367124 0.09796467 0.012137049 0.48235214 -0.17941022
152 0.052255537 -0.20126306 -0.42175868 -0.21844873 -0.10633061 0.457849 -0.17612107 0.11112915 -0.34498218 -0.3364042 -0.080934934 0.2182623 0.25735807 0.25053298 0.26120728 0.18380475 0.39630345 -0.29969817 -0.27897525 -0.2332847 -0.3002586 0.087076835 -0.13861166 -0.07171998 0.3539934 0.34759918 0.020181485 -0.26580307 0.19953991 0.097921126 -0.31762013 -0.24098401 0.17693546 -0.04557512 -0.24982974 -0.37197006 0.23397455 -0.35466626 0.330715 -0.31059796 -0.278886 0.53390026 -0.15775809 -0.13788377 -0.099462524 -0.020834466 -0.06678112 0.30494046 -0.14094697 0.09330491 0.07662663 -0.2368651 0.033885155 -0.031775203 -0.15838899 0.16173375 0.14998436 -0.36897942 0.7190868 0.6773913 0.23236573 0.110274784 -0.3639009 0.5278216 0.626793 0.08497771 0.048672114 0.18768284 -0.29176158 -0.07085934 0.12329523 0.31497496 0.37572676 -0.13321193 -0.2665244 -0.34090066 -0.03423677 0.22834608 -0.019981517 -0.33139196 0.40905115 -0.23077853 0.3784907 -0.05622638 -0.29435143 -0.10192066 0.19436343 0.20652382 0.015218823 0.43498984 0.07325644 -0.25999615 -0.265399 0.21447508 0.07847922 0.10955172 -0.38849673 0.20290303 0.15504286 0.31785432 0.3650522 -0.5381071 0.28182685 0.076517925 -0.1767774 0.43286562 0.5156366 -0.43128037 -0.24126463 0.37603387 -0.29540852 0.10037517 -0.45035684 0.2213844 -0.010566945 0.09999922 -0.29082537 0.013612876 0.047822077 0.16062737 -0.11113408 0.20649114 0.3119817 -0.4089347 0.05661539 0.034544308 0.4744175 -0.2032017
316 0.028967198 -0.13934582 -0.45200878 -0.18494706 -0.07406841 0.5159369 -0.2310339 0.09765915 -0.3512657 -0.30011594 -0.12855507 0.17087875 0.3390007 0.16607031 0.26858145 0.14373402 0.30321977 -0.27244538 -0.28544173 -0.18103948 -0.29234532 0.08170447 -0.21769854 -0.072919026 0.24018396 0.3182787 -0.026488667 -0.24647109 0.17523529 0.069944404 -0.30991396 -0.36193004 0.18638097 -0.105884135 -0.16150157 -0.42227963 0.4018698 -0.2818797 0.38454196 -0.27112758 -0.29593933 0.4888092 -0.2359206 -0.3198361 -0.18993083 0.09717544 -0.0056296336 0.35350418 0.040351503 0.0040142247 0.0074135396 -0.1966307 0.13901873 -0.01819425 -0.13691185 0.19247375 0.0605494 -0.3346566 0.55130005 0.5845839 0.22763045 0.12642308 -0.39550972 0.49662226 0.7071832 0.18853447 0.07330768 0.09623613 -0.30362785 -0.071039975 0.09795371 0.29675412 0.37013537 -0.17975117 -0.23046887 -0.27558693 -0.09788722 0.22919677 -0.03772492 -0.29554102 0.34179017 -0.20429957 0.28002542 -0.124142334 -0.3377267 0.0017852258 0.22304037 0.10472978 -0.07986405 0.4221876 -0.020845434 -0.275488 -0.32410637 0.27243328 0.050720137 0.045799844 -0.25596902 0.2324882 0.13219373 0.23495752 0.39702123 -0.4460332 0.35851076 0.022243984 -0.1785902 0.44249314 0.47388947 -0.5008812 -0.2807228 0.37780255 -0.3046941 0.14317788 -0.48889804 0.19071385 0.03515042 0.067213245 -0.31097797 0.1447874 0.023326587 0.15087676 -0.18197393 0.23736714 0.24403715 -0.3752023 0.14180441 -0.113691226 0.39964682 -0.23998117
25 -0.16538984 0.11765879 0.023395639 -0.7089999 0.17868458 0.67223734 -0.3348289 0.78200334 -0.19760351 -0.023571026 -0.0068292646 -0.78193384 -0.2246803 0.23004687 -0.2063725 -0.2907436 -0.1161103 -0.53124183 -0.7365803 0.17885596 -0.251236 0.21419773 -0.19649209 0.0370301 0.15627003 0.39798823 -1.0373596 0.047988635 0.41524115 -0.2378361 0.48541015 0.22095852 0.27020693 0.62307376 0.2494563 0.20073704 0.33347252 -0.6223292 0.12659281 0.31315616 0.04980707 -0.27363575 -0.026625177 -0.15793733 -0.1831176 0.27040964 -0.09895658 0.23417526 -0.059788592 -0.26453316 -0.13306847 -0.02420964 -0.54404825 -0.31590384 -0.63376355 -0.23225242 -0.060011126 -0.4270246 0.29036006 0.481859 0.637295 -0.12153204 -0.3836122 0.5533496 -0.13297932 0.14257424 -0.09468497 -0.32044443 0.17772411 0.042203803 0.35761878 0.33230352 -0.038955025 0.09072309 -0.08777904 0.057825707 -0.0060744747 0.40523383 -0.7639131 0.1677737 -0.26888388 -0.77732927 0.24594653 -0.15423928 -0.29022157 0.09338675 0.16359487 -0.26441664 0.12821119 0.33537757 -0.079285026 0.29336238 0.53286195 0.08913533 -0.019814238 0.33162868 -0.15381977 0.2064258 -0.14811446 -0.31894007 0.53719103 -0.23112968 -0.5773633 0.17900696 0.32497436 -0.21116473 0.4635651 -0.42100623 0.116074644 -0.27825147 0.40633914 -0.2397421 -0.52400655 -0.42872632 -0.17816833 -0.0551471 -0.9122089 0.22855538 0.0970451 0.5335359 0.7271458 0.15481237 0.13074803 -0.16797686 -0.11758226 -0.53656524 -0.19423643 0.25234598
16 0.41099057 0.4612618 -0.25110638 -0.5535703 -0.18287171 -0.12753895 -0.28265503 -0.14742677 -0.22006509 0.049944527 -0.24504867 -0.27721125 0.46640292 -0.24239333 0.024841193 0.25563663 -0.035660185 -0.15597647 0.021159787 -0.10877791 -0.32590643 0.380952 -0.8641413 -0.4465423 0.5402678 0.569086 -0.4469919 0.22382052 0.35079768 -0.52866256 -0.26056755 0.23124233 0.20768106 -0.25863984 -0.63122445 0.42119253 0.3863967 -0.23598705 0.6083809 0.18736787 0.56437564 0.5631799 0.0287265 -0.29204497 -0.42893764 0.19070353 -0.2852755 0.034509294 -0.08085512 -0.3169723 0.36655667 -0.36715925 0.03360452 -0.14152564 0.021025538 0.086098485 0.6453745 -0.0034553055 0.1279789 -0.071072616 0.629153 -0.4198482 0.111589536 -0.07620318 0.51436055 -0.33596808 -0.030236116 -0.13290612 -0.02730094 -0.2912932 -0.07567993 0.81987715 0.5031137 -0.8646981 0.060912296 -0.51108617 -0.40414837 0.051052775 0.53173006 -0.35645983 -0.2792788 -0.5460445 -0.20880495 0.19419411 -0.3983603 -0.31794336 0.368524 0.008021323 -0.070273645 0.049952574 -0.12670068 0.0021088498 0.13713272 0.5375587 0.31950402 -0.16189007 0.21042484 0.41972283 0.055161633 0.509053 0.37880045 -0.52973497 -0.21387419 -0.059534926 -0.21988735 -0.017799404 -0.07957517 0.007446862 0.23107775 -0.08609631 0.14108443 0.32142818 0.17040622 0.22303192 0.48193642 -0.1756066 -0.44127336 -0.6198923 -0.08550545 0.12508214 0.4600423 0.49799034 0.14420885 -0.1023469 0.16749309 -0.3317325 -0.43556383 0.29683325
310 0.31099254 0.46823442 -0.2407331 -0.686122 -0.22440055 -0.27559748 -0.2649378 -0.11209375 -0.27263603 -0.0101463655 -0.20685129 -0.29409268 0.4777104 -0.103439085 0.12346951 0.27261624 0.15659422 -0.24113397 0.067802735 -0.11122656 -0.29153904 0.43876725 -0.879712 -0.32951334 0.638822 0.6919564 -0.48897976 0.21277699 0.49498585 -0.5904975 -0.24974261 0.27595094 0.12348827 -0.3038401 -0.5612533 0.34174904 0.32341042 -0.19431488 0.5316434 0.23434438 0.51188457 0.5631038 -0.045277245 -0.32485574 -0.38931566 0.09959744 -0.45053595 -0.040073488 -0.09290959 -0.3380676 0.41333994 -0.45931658 0.039802432 -0.18721843 0.012462623 0.07268496 0.5633969 -0.100428544 0.038975496 -0.012999763 0.62894803 -0.44570288 0.17435007 -0.042561233 0.41623187 -0.41309333 -0.14610699 0.01842178 -0.053143702 -0.36608952 -0.06612395 0.8553089 0.5127342 -1.024692 0.06555129 -0.34424192 -0.31550992 -0.12408316 0.47077966 -0.36310077 -0.2550753 -0.61537486 -0.15291174 0.21979907 -0.4419905 -0.28597775 0.28623506 0.107127465 -0.06475097 0.110583745 -0.102330044 0.05127467 0.24081911 0.64718026 0.31772962 -0.20219885 0.27088594 0.34141353 0.027433088 0.54493546 0.34223294 -0.568405 -0.13917693 -0.058134705 -0.3504526 -0.05465055 0.034523174 -0.035880808 0.26484096 -0.08192044 0.16156583 0.34332746 0.16741492 0.26084214 0.46202368 -0.07482552 -0.43165752 -0.50771207 -0.16765425 0.09260003 0.5471774 0.5218617 0.1125565 0.007091403 0.1968996 -0.301565 -0.37766764 0.3144841
267 0.35448462 0.41381624 -0.24783823 -0.6823455 -0.17333023 -0.21813332 -0.3173366 -0.1355065 -0.27858454 -0.015257919 -0.21043546 -0.2927469 0.499717 -0.20515026 0.18811126 0.3123929 0.016227376 -0.14081587 0.032688178 -0.16557351 -0.27914616 0.5420347 -0.7843111 -0.39497015 0.7170576 0.64032054 -0.40040514 0.2095343 0.48160928 -0.60625607 -0.3585913 0.3811212 0.03635381 -0.32435298 -0.5611815 0.3634789 0.33743936 -0.19948511 0.50138736 0.18779199 0.5783891 0.6919043 -0.014669173 -0.26932016 -0.4416507 0.15225087 -0.40728208 -0.032549385 -0.07708451 -0.41213933 0.37155673 -0.36408982 0.06520254 -0.10124812 -0.018789107 0.017948516 0.6514298 -0.06954623 0.07020476 0.031883072 0.6279788 -0.4524488 0.09279522 -0.003847487 0.4592385 -0.4610609 -0.21596524 -0.067869395 -0.15767868 -0.3532861 -0.0634916 0.82563365 0.45357844 -0.9342579 0.14266208 -0.3734859 -0.36528063 -0.05679146 0.4723345 -0.31205288 -0.22915435 -0.62287116 -0.02275626 0.24687922 -0.54573363 -0.2513644 0.2683472 0.080772206 -0.091742545 0.10168382 -0.15566777 0.06355339 0.22458923 0.5749258 0.29180437 -0.20816894 0.1969785 0.3560376 -0.0072993548 0.5556365 0.32496092 -0.43366355 -0.18048355 -0.018211255 -0.3024504 -0.012125564 -0.017403666 0.005029946 0.2492681 -0.1905999 0.17932412 0.46765068 0.17915636 0.18869908 0.46077013 -0.054325636 -0.45828897 -0.58768153 -0.20694579 0.102358244 0.52890515 0.4591088 0.13067143 -0.121309094 0.08238314 -0.28469324 -0.34502715 0.28938183
118 0.2894352 0.48193684 -0.38913968 -0.5414539 -0.2070854 -0.19878118 -0.25726226 -0.16558771 -0.19370383 -0.05828296 -0.2047825 -0.26173857 0.4989092 -0.25297904 -0.06368028 0.28317696 0.01986673 -0.24568552 0.08879055 -0.04690433 -0.2591212 0.3984348 -0.7976975 -0.3264183 0.58790636 0.5513922 -0.52416766 0.3023447 0.4705848 -0.5506429 -0.25917608 0.3013623 0.14106402 -0.21461473 -0.50280684 0.3876167 0.32516965 -0.15840578 0.5653038 0.26040497 0.4963921 0.6230305 -0.004090277 -0.18923749 -0.3339699 0.13555159 -0.42610574 -0.035062406 -0.20836438 -0.25315022 0.39559865 -0.47228837 0.008464046 -0.26454452 0.043246895 0.06822175 0.5646048 -0.044260275 0.00802301 -0.0036305096 0.6792633 -0.4720429 -0.0185211 -0.11431261 0.3905746 -0.34179813 0.046526644 -0.012619634 -0.11892185 -0.2803713 -0.03167248 0.8362473 0.5306921 -0.8809005 0.090112634 -0.32937208 -0.42957413 0.05341777 0.46959195 -0.3752281 -0.19069481 -0.42902207 -0.11394968 0.08036989 -0.43652105 -0.3531816 0.3372167 0.045146942 -0.051865347 0.20040177 -0.024030726 -0.016191896 0.21408954 0.6726011 0.23096025 -0.22250749 0.29933125 0.41713688 0.07295034 0.52339745 0.34695292 -0.55522513 -0.18188068 -0.08130634 -0.34248075 -0.094250634 -0.08976096 -0.045634042 0.27838892 -0.031478778 0.1448786 0.3639413 0.12523931 0.26285633 0.5469152 -0.17908937 -0.486948 -0.5844239 -0.14904821 0.013796526 0.57973474 0.4820485 0.13875909 -0.068232074 0.20341557 -0.23461062 -0.48495486 0.30648643
192 0.34170902 0.18723114 -0.14979775 -0.42830506 0.5287416 0.2098543 -0.34443533 -0.061725095 -0.3938587 -0.3677746 -0.053137276 -0.10821472 -0.26005033 -0.011537987 0.15910733 0.10526245 0.43360928 0.22516039 -0.10361832 -0.2996115 -0.59390914 0.015682055 -0.319364 0.060528852 -0.06779702 -0.06921062 -0.053555626 -0.21825498 0.041922394 0.15660535 0.007393754 0.1978184 0.27742934 0.42068878 0.56147546 0.33488008 -0.7580866 0.027560987 -0.5511898 -0.04241023 0.47583777 0.21406537 -0.47592443 -0.37252784 -0.083617605 -0.1492645 -0.044863746 -0.069587946 0.023633964 -0.0854663 -0.28685135 -0.04823047 -0.2887016 -0.101394586 -0.0047348887 0.03290049 -0.18822327 -0.027123908 0.21597403 0.11000076 -0.19487192 0.32843694 0.082204096 -0.15922028 0.40749383 0.27220672 -0.101483844 0.49757284 -0.503868 0.012833909 0.24146111 0.35517365 0.12705088 -0.5166502 -0.22600071 -0.26783517 -0.25245655 0.06246429 -0.15582071 0.4717587 -0.2717447 -0.12173688 0.013615857 0.16867442 -0.2105057 0.015394599 -0.11199746 -0.01577104 -0.3563463 -0.09636402 0.15059759 0.18843688 -0.2509614 0.008356639 0.57075715 -0.7010872 -0.22806916 0.6045159 0.091536835 -0.27679938 0.27487832 -0.17157029 -0.21761608 -0.051561307 -0.24445663 -0.36073962 -0.2407046 -0.5802043 -0.063145235 -0.099527985 -0.45954156 -0.16179757 -0.07324732 -0.14518212 -0.06559416 -0.56399435 -0.05592788 -0.45470732 0.36801133 0.87687653 0.18015411 0.17456435 -0.09053373 -0.16822353 -0.22104803 0.22637017 -0.20953858 -0.043848857
176 0.34962 0.18729043 -0.09113679 -0.4290367 0.5702684 0.11088377 -0.2554075 -0.08260146 -0.4645007 -0.31780642 -0.041013222 -0.12650864 -0.12909436 0.008014596 0.32084695 0.26695567 0.3649635 0.1786836 -0.1027712 -0.30041274 -0.6416422 0.041119676 -0.2932495 -0.0101577435 0.08153695 -0.13372375 -0.039380644 -0.22199112 -0.010174468 0.19463071 -0.0735518 0.2133926 0.21487382 0.34202668 0.48946518 0.33049065 -0.7459672 0.05671542 -0.5651896 0.004326847 0.47068787 0.23078161 -0.4875184 -0.42012787 -0.0027530626 -0.06039043 -0.10960332 -0.10716939 0.072632946 0.050000556 -0.13072428 -0.06786781 -0.31276613 -0.13203533 -0.05947024 -0.056864705 -0.22485408 0.0055563822 0.24316818 -0.0703357 -0.22775882 0.24371801 0.02372836 -0.11222808 0.3161931 0.25829768 -0.105921715 0.46490583 -0.5858129 0.0124238515 0.25314403 0.18158197 -0.0001038338 -0.61787367 -0.16700374 -0.2943092 -0.29426265 -0.09138778 -0.08674841 0.57838714 -0.378118 -0.08977204 0.124420315 0.3017956 -0.34973913 0.088590115 -0.04339078 -0.06749791 -0.48975694 -0.030627804 0.16398871 0.24263088 -0.26720312 0.081962965 0.46625775 -0.49541676 -0.21486491 0.46075448 0.03844026 -0.28685832 0.25871235 -0.195873 -0.2227079 -0.019371549 -0.24138811 -0.2693863 -0.20471504 -0.5439645 -0.08519936 -0.13545868 -0.5122024 -0.31944975 -0.10453127 -0.15262553 -0.059329063 -0.4329254 -0.03428786 -0.4338297 0.42314568 0.73334986 0.25739697 0.15354714 -0.103147775 -0.1808805 -0.23557694 0.26925024 -0.3296835 0.044450488
467 0.26711226 -0.06533667 0.12734988 -0.1265504 -0.20551181 -0.11088308 -0.2999607 0.030109713 -0.29535112 0.028000766 -0.09068697 0.36377105 -0.12775086 0.18296508 0.094009005 0.5028937 0.046743542 0.27904728 -0.1941152 0.06991383 -0.12249498 0.16712858 -0.18008262 -0.19195898 0.024345651 0.20462467 -0.3794409 -0.16082858 -0.325272 0.75051236 -0.08597859 -0.04588545 0.08866667 0.06533141 -0.027227625 0.12177366 0.048310358 -0.12650861 -0.08458335 0.060896456 0.21041025 -0.13061011 -0.4731803 -0.099949464 -0.12511122 -0.006296201 -0.5879949 -0.016909277 -0.2758081 -0.07074101 0.056788754 -0.09001476 -0.2347315 0.041983414 0.09703383 -0.15931657 -0.25715336 -0.21880148 -0.17396846 0.49085534 0.06806871 -0.12335794 -0.038633827 0.01739212 0.19240168 0.25245357 0.14634013 0.24186523 -0.5030324 -0.10149861 -0.18527573 -0.05647687 0.088541225 -0.026173916 -0.21464182 -0.12647358 -0.21801192 0.0131172305 0.1301508 -0.55123204 -0.22536874 -0.13692291 0.11964174 -0.3178334 0.107792914 -0.11228368 0.057899024 -0.054485805 0.19428024 -0.04799818 -0.09165417 0.1216474 0.14039317 -0.08767257 -0.1447269 -0.22714627 0.24589199 -0.11935812 0.031154795 0.28350213 0.0071030944 0.059055135 -0.0042968844 0.08995272 0.4030747 -0.09744464 0.09486415 -0.038881794 -0.10487355 -0.043119226 0.14503254 0.10779696 -0.23603435 -0.19071731 0.046043787 0.29339474 0.11037685 -0.19369012 -0.046048287 0.33243778 0.39590466 -0.13546076 -0.22124542 0.13427533 0.21908668 -0.22564746 0.031367626 0.2657736
324 0.22701445 -0.062113408 0.11456327 0.035558168 -0.26690882 -0.07786599 -0.31065264 -0.026977552 -0.19727941 0.054640546 -0.023392217 0.3900227 -0.06338465 0.30247325 0.012854716 0.46926335 -0.0027305738 0.23786142 -0.21643278 0.13143854 -0.14304492 0.1900996 -0.21365169 -0.17847732 0.0078231795 0.23572417 -0.44310176 -0.10556371 -0.33493286 0.7387033 -0.062115826 -0.11946396 0.011419387 0.17180863 -0.0013289236 0.20482163 0.1534058 -0.17232606 -0.20285827 0.13536805 0.38331708 -0.08765662 -0.46504167 -0.07726528 -0.15275133 0.077828094 -0.67387646 0.05347755 -0.28756788 -0.17067526 0.11940129 -0.06197524 -0.18451455 0.0061749564 0.14604995 -0.20349193 -0.3081739 -0.23526563 -0.26109418 0.4591228 0.121020675 -0.19153419 -0.08651426 -0.0009849769 0.22093712 0.27018207 0.22737762 0.16885298 -0.5564574 -0.099569984 -0.054897014 -0.0361777 0.120724104 0.017058538 -0.20245758 -0.10101342 -0.30472594 -0.08692246 0.17617272 -0.5121308 -0.08896752 -0.08613829 0.19531628 -0.19890383 0.09060238 -0.0773685 0.055747468 -0.0064031305 0.20274213 -0.051148757 -0.12323037 0.119104415 0.01704738 -0.16806836 -0.078254804 -0.25862795 0.25526482 -0.17728639 -0.013211864 0.16387665 -0.054452065 0.014737313 -0.040014382 -0.0017456315 0.443606 -0.12849237 0.07580182 -0.14127782 -0.07133281 9.765191e-05 0.11799769 0.0024709392 -0.31719062 -0.14376742 0.07651865 0.24947938 0.09882057 -0.22576113 0.06347824 0.2865424 0.45079574 0.029047858 -0.25300974 0.16477899 0.2456492 -0.2543216 0.08563315 0.24120049
3 0.31626216 -0.10097721 0.1380761 -0.0069418396 -0.25202098 -0.1063137 -0.2395608 0.011659031 -0.19738021 0.05058556 -0.03254193 0.565236 -0.123929225 0.34284496 0.13928342 0.57934934 0.072018534 0.23712051 -0.17431068 0.058641896 -0.16745177 0.14896767 -0.12989771 -0.16182865 -0.01522527 0.18516096 -0.37667578 -0.07405413 -0.25014418 0.64999014 -0.09833692 0.0077640284 0.00367394 -0.0004168637 -0.012385523 0.27496696 0.11271581 -0.16545008 -0.1399423 0.03554991 0.3486636 -0.105529614 -0.33144438 -0.21270254 -0.10567034 -0.045374863 -0.59398776 0.047968686 -0.24568464 -0.11760265 0.109290555 -0.048176993 -0.17042616 -0.040903077 0.114604056 -0.1521035 -0.24921237 -0.35942823 -0.30904284 0.45482415 0.072429866 -0.13893948 -0.012875695 -0.05008509 0.20411357 0.27258268 0.11040859 0.22155268 -0.5416172 -0.07419658 -0.19293196 0.003594059 0.04253658 -0.12656888 -0.23421168 -0.079662845 -0.29223102 0.023001133 0.21332082 -0.51286995 -0.29248402 -0.07403792 0.14010872 -0.23342395 0.09834932 -0.13510123 0.033409297 -0.1169812 0.12742047 -0.058267564 -0.12915494 0.110240154 0.041776985 -0.06626531 -0.1915732 -0.25334558 0.26671484 -0.101781294 -0.064989425 0.22802033 -0.03239526 0.042623866 -0.006051166 0.04714153 0.34221762 -0.12624039 0.1334686 -0.14217977 -0.06570313 -0.101892106 0.15718345 0.10964265 -0.23182993 -0.1780602 0.13913627 0.32881525 0.16084808 -0.16501237 -0.12981823 0.4462696 0.45069417 -0.06824273 -0.31803095 0.13368489 0.24804448 -0.1503231 0.13470142 0.18642816
184 -0.15350963 0.13539952 0.11253019 -0.67127305 0.3048814 0.6555175 -0.2647045 0.81085247 -0.2573483 0.06408017 0.017979486 -0.82156175 -0.18075147 0.20674352 -0.1572477 -0.29736876 -0.075885385 -0.58794945 -0.6724245 0.11790895 -0.16205527 0.27279213 -0.3650254 0.115864396 0.17645586 0.41904646 -1.0990565 0.0067331125 0.51482487 -0.13220115 0.447222 0.30188233 0.3413804 0.6769335 0.30515248 0.26075935 0.26278865 -0.6347359 0.22253293 0.11072747 0.05719281 -0.17218333 -0.13703375 -0.19438413 -0.07741225 0.2995152 -0.15025212 0.13834162 0.05021989 -0.23715542 -0.20597114 0.04895555 -0.52404785 -0.21993434 -0.5567492 -0.30035543 0.04573361 -0.59424776 0.35942212 0.4667151 0.70672154 -0.14144182 -0.42403024 0.4125442 -0.2234562 -0.020373186 -0.29837456 -0.38148472 0.26729608 0.03066511 0.4659091 0.44716373 0.048133325 0.07325531 -0.1414487 0.15828459 -0.08487077 0.44185048 -0.75027466 0.15812232 -0.2854195 -0.6763802 0.25905237 -0.052006494 -0.3139947 0.056603108 0.08407993 -0.27898973 0.06632201 0.4280774 -0.020650554 0.29096273 0.65472066 -0.009008576 -0.12270451 0.31228718 -0.1495328 0.25444016 -0.18605012 -0.15924253 0.64073646 -0.13018239 -0.5650893 0.12876953 0.244997 -0.321717 0.36546776 -0.51737064 0.17392297 -0.25071597 0.41487005 -0.21060203 -0.56137615 -0.28388426 -0.23205505 -0.043793842 -0.8240588 0.13465549 0.2735182 0.56088084 0.6239593 0.12149088 0.06671554 -0.15758418 -0.24341431 -0.6231727 -0.04872437 0.30694583
462 0.20505975 -0.2886424 -0.76017773 0.46647143 0.15267 0.066692054 -0.0010143182 0.09815448 -0.23441361 -0.02415951 0.0794284 0.05504781 -0.06135759 0.14714964 0.18481024 0.26750743 0.2800422 -0.08164291 -0.31023008 0.36784437 -0.47675502 -0.21761136 -0.2069583 -0.1889257 -0.19849347 0.01588712 -0.41629654 0.13062675 0.49541283 0.21584393 -0.017925078 0.020150708 0.20074765 0.023991432 -0.4704836 0.15519007 0.006978288 -0.28616557 0.63408077 -0.36139715 0.19513133 0.69549364 -0.33784756 -0.22951937 -0.26004794 -0.01838027 -0.18962593 0.4261807 0.08162967 0.59731597 0.24567854 0.12740147 -0.15498048 0.07493254 -0.23882216 0.027779596 0.16718161 -0.42376825 0.09806667 0.40163106 0.33356273 -0.33132565 -0.024033088 0.47925574 0.35348907 0.30726802 0.5406715 -0.13533139 0.20517339 -0.46243468 0.16520931 0.103796996 0.19897375 -0.23862547 0.0007665407 -0.11188069 -0.3722748 -0.40920493 0.18680893 0.07507523 0.67385644 -0.06601954 0.20165694 -0.36027867 -0.4194364 -0.2647802 0.21012188 -0.21532534 0.16927063 0.5280216 -0.2451421 -0.43009296 -0.07755369 0.4090293 0.2702372 0.08617466 0.09462192 0.3846864 0.27329192 0.28210142 -0.36328185 -0.2370907 -0.10307985 0.010498175 -0.644801 0.16470301 0.7311338 0.1259454 -0.12550487 0.09422648 -0.27671164 -0.43937355 0.21166728 0.1187954 0.25870496 0.60249317 -0.34437662 0.17855576 0.004216785 0.15086713 0.3417672 0.3348547 0.20086013 -0.40786675 -0.049872197 -0.039889432 -0.07715283 0.20441374
339 0.11192197 -0.23930788 -0.7677119 0.5230511 0.06275088 0.129661 0.0076120836 0.11359423 -0.22607782 0.025945764 0.021336807 0.036528524 -0.089616396 0.22706588 0.25295237 0.38967142 0.41494784 -0.15514046 -0.24646553 0.47980425 -0.2544998 -0.25839096 -0.34079337 -0.26669547 -0.17719443 0.016222779 -0.40210855 0.10252358 0.6066947 0.25535688 -0.041727267 0.04522916 0.2625537 -0.04330465 -0.4098927 0.23400106 0.0104320515 -0.3001552 0.5344288 -0.23504923 0.07581185 0.737468 -0.36905795 -0.22927666 -0.26212505 -0.065995365 -0.32355657 0.30598179 0.16386534 0.47289956 0.18532775 -0.024219839 -0.077784754 0.09838406 -0.1639598 -0.009628008 0.23669088 -0.39075166 -0.013017179 0.532969 0.39232302 -0.15554814 0.003851889 0.4368992 0.34218717 0.34449962 0.4167443 -0.24529171 0.24110723 -0.4014413 0.1765519 0.12147257 0.2643247 -0.31849304 0.06078948 -0.120639965 -0.471782 -0.24633718 0.18222415 0.08759451 0.6675277 0.02705986 0.2788239 -0.3475289 -0.4974103 -0.24317877 0.19454585 -0.26103544 0.21922408 0.46288222 -0.15715507 -0.3622036 -0.04067781 0.3555367 0.21261919 0.15370923 0.07085476 0.36396855 0.3295368 0.2527535 -0.37483472 -0.3237922 -0.12621117 -0.065399304 -0.5951913 0.11170436 0.6746372 0.13156849 -0.11625198 0.0331123 -0.32569242 -0.3695539 0.23088725 0.062670104 0.27736205 0.5818144 -0.23659705 0.26992807 0.03165661 0.18408282 0.29449564 0.37434497 0.264493 -0.39641148 -0.08586414 0.07649349 0.010589888 0.28114325
144 0.24227493 -0.06951952 0.2628329 -0.1609524 -0.31805506 -0.10247885 -0.2289605 0.11775407 -0.17332938 0.055503786 -0.025027478 0.3963052 -0.15756263 0.28248167 0.15828316 0.5914599 0.028676126 0.26891252 -0.17068675 0.025355743 -0.070404015 0.15714481 -0.21367407 -0.1557375 0.029192127 0.2660482 -0.35501686 -0.07349451 -0.2647442 0.7351902 -0.1152739 -0.18636097 0.044658404 -0.018017314 0.053239197 0.14213493 0.102299295 -0.14664996 -0.1563216 0.098902024 0.33833417 -0.1376511 -0.42107862 -0.116686516 -0.108832575 0.020592963 -0.6376742 0.01879421 -0.23566285 -0.24003159 0.104659155 -0.029047666 -0.19858098 0.117143854 0.07390229 -0.1968788 -0.37200207 -0.31517175 -0.21493986 0.40091696 0.049193624 -0.19519807 -0.06557445 0.030851636 0.14568561 0.34611025 0.123522475 0.24361424 -0.5376224 -0.029432517 -0.08864662 -0.015008976 0.10278213 -0.043435756 -0.15602398 -0.044856776 -0.35143164 -0.0070039737 0.25034252 -0.5303877 -0.19689143 -0.0456844 0.15193132 -0.18248576 0.11828437 -0.09539824 0.007905125 -0.034146655 0.18999426 -0.017743893 -0.09320281 0.14848635 0.04268319 -0.07460519 -0.09179492 -0.251544 0.25219843 -0.081908666 -0.08944754 0.29018688 -0.020903783 -0.01965056 0.004019872 0.10782924 0.24367449 -0.17209683 0.11689231 -0.12230932 -0.09276475 -0.08113809 0.19476686 0.06516536 -0.18673566 -0.21351732 0.04705598 0.22386225 0.12907742 -0.16089335 0.042087242 0.36897272 0.3912689 0.011146498 -0.14291824 0.12039061 0.26250607 -0.24976473 0.08255172 0.22149135
523 0.07164929 0.36613098 0.06698609 -0.35322157 0.014439704 0.6485535 -0.3014844 -0.030584687 -0.36469123 -0.058581255 0.23289274 -0.20500892 0.13732842 -0.0052519054 0.36171544 0.57721055 -0.29020557 -0.3281075 0.2912088 0.1407726 -0.22762695 0.2076765 -0.24564482 -0.0066361893 0.2543603 -0.13211438 -0.01453962 0.09834916 -0.10227077 -0.011206094 0.078577556 0.26294783 0.02418649 0.2714463 0.06807503 0.14225113 0.14407553 -0.3061334 0.32364452 -0.35164154 -0.15117398 -0.32068887 -0.23967013 0.040774953 -0.15367313 -0.17955254 0.025252221 -0.17669651 -0.32253706 0.015662007 -0.081262074 0.065299585 0.3027951 -0.26073757 -0.07122704 0.14687528 -0.37010327 0.06307208 -0.16122344 -0.12351266 0.23492537 -0.24129163 -0.13563162 0.03711663 0.25587872 0.2917556 0.23477498 -0.14437428 -0.18144247 -0.38135353 0.34483296 0.33364522 -0.004656149 -0.3395281 -0.17840602 -0.6321448 -0.114704646 -0.23955876 -0.3073977 0.26441595 0.0060257735 0.01837931 -0.21460554 -0.21812439 -0.26758534 -0.24338092 0.117188536 -0.55006087 0.32668316 -0.08536568 0.110697806 0.03398239 0.17901202 0.123358496 -0.0015604701 -0.30669516 0.09616726 0.24380521 0.29443216 -0.33605403 0.08980463 0.024449946 -0.14380664 -0.29992282 -0.20782809 -0.40796787 0.2325859 0.44239 -0.3202697 0.050251916 -0.1204152 -0.12608452 -0.39425996 -0.16647951 -0.056536514 0.301985 -0.15138018 -0.17123508 -0.2715306 -0.13378023 0.18950568 0.12197286 0.22695945 -0.27078685 -0.087712355 0.045307506 0.33738202 -0.049963903
221 0.2704874 0.43166637 0.10192693 -0.32461855 0.085203275 0.4868904 -0.37795278 0.101011425 -0.31256053 -0.11058938 0.36117572 -0.24780144 0.23746893 0.16882281 0.25575238 0.5337928 -0.27061272 -0.37357444 0.3158401 -0.09632807 -0.27098796 0.13531764 -0.22230974 -0.076286845 0.202285 -0.13815497 0.061325073 0.13724701 -0.04895828 0.0018872158 0.20851739 0.34481847 0.012168919 0.13848567 0.06007335 0.18111862 0.12020069 -0.31824863 0.47535583 -0.39267352 -0.17933789 -0.3326012 -0.18537208 -0.0552572 -0.20878583 -0.100620076 -0.08702511 -0.13473715 -0.21720098 -0.0069602677 -0.014629965 -0.080264784 0.2194007 -0.35265818 0.1053261 0.13546734 -0.40293178 0.23010853 -0.37749127 0.004146248 0.0012282765 -0.24177633 -0.1048463 0.12384871 0.2028709 0.25918636 0.33155766 -0.1441542 -0.15537295 -0.29411268 0.39014596 0.20956787 0.22127347 -0.2954479 -0.37409765 -0.47940862 -0.23730619 -0.2939879 -0.41064513 0.27857372 0.00067087676 -0.1781906 -0.14483605 -0.21962886 -0.267615 -0.31035528 0.16829781 -0.5210585 0.36374646 0.090808555 0.073790506 0.07593908 0.10053531 0.2805019 -0.010364639 -0.29448763 0.09190585 0.34983903 0.064358905 -0.43149135 -0.04531685 -0.06514702 0.12257288 -0.09895163 -0.22143847 -0.41453144 0.27534935 0.4794374 -0.2455398 -0.06999158 -0.09690381 -0.09885251 -0.2889473 -0.33139387 0.020315444 0.33749792 -0.1583795 -0.027670987 -0.15682058 -0.10538597 0.025570719 -0.025904782 0.27764133 -0.27202043 -0.16830842 -0.06487114 0.33227864 -0.041157443
505 0.2528961 -0.07851034 0.1575641 -0.030446602 -0.25197947 -0.09319873 -0.30499184 0.13752331 -0.24337497 0.03018148 -0.10409676 0.3494331 -0.20988728 0.20415378 0.101538226 0.5227398 0.039423324 0.2770313 -0.15379472 0.14076652 -0.18845117 0.101234436 -0.17658266 -0.2356007 -0.016311368 0.30814245 -0.37817848 -0.07069103 -0.2683815 0.71457744 -0.11995369 -0.13720593 0.11360088 0.098320775 0.056211695 0.18306388 0.10003289 -0.15779978 -0.18213327 0.15971498 0.24568796 -0.20436461 -0.43844804 -0.14113957 -0.1627957 0.033618778 -0.5878155 0.0667048 -0.282229 -0.042216774 0.10494969 -0.059730034 -0.12907712 -0.041834198 0.115730375 -0.2105829 -0.3043548 -0.16477415 -0.14032331 0.5689074 0.024453124 -0.1218004 0.030582359 -0.016342316 0.22453864 0.27624166 0.12717584 0.29346436 -0.5388598 -0.16158427 -0.19905984 -0.007644386 0.094865896 -0.038583867 -0.18400753 -0.06855089 -0.26761323 0.023457311 0.19660906 -0.45153844 -0.14865538 -0.110724516 0.13290039 -0.20187439 0.03467619 -0.082273096 0.08216218 -0.096013635 0.16382405 -0.08901614 -0.14864294 0.12026352 -0.0668338 -0.028814418 -0.13376641 -0.17173567 0.26890877 -0.15396407 -0.060858797 0.30459502 -0.002443519 0.033301413 -0.012091352 0.08514189 0.34463963 -0.09618237 0.15478057 -0.04610439 -0.102188155 -0.0130172875 0.13957275 -0.049807824 -0.18112688 -0.19607337 0.022141835 0.21380569 0.20870447 -0.18999523 -0.06476958 0.3068255 0.53761196 -0.042955674 -0.2366133 0.2080585 0.28703013 -0.1606751 0.08402168 0.35214108
78 0.1923963 0.0068439497 0.11659695 -0.016016457 -0.28985775 -0.028635608 -0.3391062 0.025662802 -0.19038786 0.03740433 -0.09755614 0.40930948 -0.16596588 0.2590094 0.13516699 0.5206084 0.03618516 0.19028278 -0.16181456 0.060436253 -0.16383061 0.10462449 -0.19335851 -0.17812744 -0.014557699 0.20691766 -0.36578348 -0.14235939 -0.26390794 0.6169625 -0.119464055 -0.08527707 -0.029192286 0.04134702 0.012915853 0.1252395 0.1493373 -0.21801415 -0.10416443 0.011128917 0.2217626 -0.19120115 -0.3371883 -0.1704254 -0.050219826 0.044994686 -0.5374038 0.043485973 -0.2833387 -0.13383174 0.056011196 -0.008488526 -0.12443577 0.049032018 0.0678173 -0.24254057 -0.3548083 -0.13723414 -0.1923632 0.4288683 0.10342164 -0.11310094 0.031618174 -0.052186437 0.20697396 0.2975416 0.18145323 0.30219188 -0.4605767 -0.103024215 -0.039964892 -0.09055126 0.04781609 -0.102006055 -0.13009568 -0.006326217 -0.33176136 -0.08981934 0.14515759 -0.50314265 -0.20574805 -0.11491899 0.16925675 -0.18735497 0.15948592 -0.10515995 0.04103439 0.05208494 0.11436768 -0.017512182 -0.19793347 0.091781884 -0.0005848329 -0.07919967 0.018995866 -0.2315097 0.25634786 -0.18481977 -0.13672942 0.23512848 0.0028843095 -0.0033773251 -0.0071340543 0.112553656 0.3690703 -0.13651851 0.06976698 -0.09877525 0.036254674 -0.12499103 0.15466477 0.036790617 -0.266811 -0.111160375 0.091426425 0.3053283 0.08704223 -0.15316346 -0.009788547 0.2147272 0.38694292 -0.017464576 -0.2844361 0.17911036 0.20484318 -0.15954705 0.120507106 0.27255332
454 0.1602849 0.3854839 0.017514842 -0.19426276 -0.063615024 0.52233386 -0.32171422 0.02451118 -0.44664413 -0.017103873 0.29134306 -0.2695392 0.06531409 0.0024894369 0.258914 0.4579161 -0.24691467 -0.24526179 0.3424885 0.08817385 -0.23278385 0.26274547 -0.33504564 -0.03182763 0.28396925 -0.20617999 0.0077791754 0.13375084 -0.03834599 -0.0073502366 0.1593482 0.26142895 0.013833241 0.24264117 -0.0047716373 0.17945506 0.14187513 -0.37988186 0.42621875 -0.37840918 -0.04797511 -0.29567572 -0.21981429 -0.067788854 -0.16052364 -0.16325639 0.0128115285 -0.112712234 -0.2688655 -0.13984016 0.019916704 0.13019449 0.25157997 -0.19194336 0.047641926 0.33162975 -0.33260128 0.19140883 -0.26753402 -0.060619265 0.10965936 -0.23208785 -0.081180416 0.21557373 0.2839916 0.29140115 0.2912655 -0.097030684 -0.11801215 -0.17460424 0.14952219 0.14330584 0.09513866 -0.423361 -0.26572245 -0.57423246 -0.17062244 -0.12838395 -0.37725016 0.25699797 0.07976538 -0.07359973 -0.20136625 -0.1978121 -0.20130582 -0.17549354 0.2969668 -0.44184408 0.27735323 -0.049376737 0.14829162 0.00871924 0.20469514 0.2659745 0.094535396 -0.2141125 -0.07927855 0.22607793 0.043254826 -0.49690807 0.053476937 0.009548964 -0.07341926 -0.12730196 -0.19430804 -0.31466883 0.14286469 0.56757975 -0.16981106 0.108936295 -0.045136333 -0.268875 -0.48652375 -0.25592357 -0.027407993 0.30791077 -0.151187 -0.16256464 -0.2220267 -0.04044331 0.07144169 0.09840533 0.30440134 -0.2961615 -0.0856603 0.045876026 0.32585078 0.050065115
484 0.3465791 -0.045891963 0.10791626 -0.10300857 -0.31043977 -0.21597223 -0.30886447 0.038700793 -0.24364707 0.070875816 -0.033675086 0.36399361 -0.075938545 0.26319677 0.19862685 0.4638204 0.08584026 0.26851544 -0.050036035 0.032554924 -0.20731506 0.13552222 -0.042773448 -0.14231442 -0.020911075 0.14954746 -0.40529653 -0.035850644 -0.29863918 0.6280162 -0.11112233 -0.1358138 0.029239751 0.113542415 0.07056471 0.18600734 0.0446313 -0.25796536 -0.008484556 0.11401533 0.27500534 -0.2157941 -0.31043854 -0.13514034 -0.041362833 0.08314267 -0.5126236 0.008838204 -0.27774388 -0.03192514 0.1726167 -0.04271531 -0.16457419 0.021222863 0.022035705 -0.20346384 -0.3269693 -0.18223578 -0.25300702 0.40912044 0.10716858 -0.22169022 -0.032572445 -0.12406398 0.2563297 0.28193212 0.14077543 0.23934405 -0.60834527 -0.118635096 -0.1322155 -0.084031776 0.0491292 -0.072735034 -0.22203451 -0.07305626 -0.19826956 -0.088219166 0.1545871 -0.5883589 -0.17490917 -0.20011391 0.18684804 -0.25856495 0.101043254 -0.14238533 0.13869104 0.052782938 0.15448941 -0.15645556 -0.10569742 0.07520781 0.06330034 -0.0985859 -0.05941479 -0.24025843 0.3049835 -0.14109744 -0.090664074 0.3023046 -0.025028398 0.067961074 -0.098814145 0.04235209 0.30293712 -0.088126816 0.12082762 -0.13696095 -0.060134042 -0.074344076 0.18978882 0.030417139 -0.23155178 -0.13263893 0.0010097701 0.2157951 0.10386794 -0.13507259 -0.0077796476 0.28205562 0.4255077 -0.03980346 -0.22369452 0.10890527 0.18659966 -0.21613787 0.15281057 0.18148205
54 0.04853838 0.3086516 -0.015211357 0.11123492 0.025041968 0.39175186 -0.44656864 0.25142267 -0.29776758 -0.31092352 -0.19312692 -0.20986055 -0.07284202 -0.00885037 0.09423098 0.49770823 -0.35926357 0.11168708 -0.17737198 -0.03482311 0.16812898 0.15054871 -0.23393814 -0.28360957 -0.028669337 -0.11674818 -0.11537544 -0.03225973 -0.1795498 -0.26746544 -0.084876366 0.018536478 0.15848203 -0.25011995 -0.0101012755 0.2190796 0.14163664 -0.42759672 0.44760504 -0.42774382 -0.24864717 -0.065854415 -0.26856896 0.1442444 -0.26302227 0.43283457 -0.13571505 -0.08169381 -0.11712652 0.09743012 0.3077088 -0.036963522 0.121811494 -0.2084027 -0.027102834 0.15179357 -0.7476061 -0.37924165 -0.29966167 0.24767241 0.35196066 -0.72441095 -0.43071595 0.16812348 0.6344091 0.0050267377 -0.1275353 0.22084133 -0.061772596 -0.242971 0.11287738 0.08929643 0.02397538 -0.5946923 -0.38669765 -0.011903637 -0.18598996 -0.39910555 -0.2599023 0.40596935 -0.28524727 0.14460085 -0.39261216 0.23506007 -0.24686794 -0.8237767 0.36120343 -0.56737614 0.4217277 -0.14046712 0.06633681 -0.013073167 -0.172995 0.21814926 0.20906463 -0.10588419 0.10882132 0.29153708 0.51389855 -0.25128648 -0.0686226 0.0511675 -0.2520902 -0.17408475 -0.051662512 -0.07444361 0.1162373 0.23763755 -0.12622838 0.056653794 -0.0023011172 -0.34384573 -0.8610516 -0.1594711 -0.078013025 0.11596214 -0.024459898 -0.045513634 0.27199128 0.28481656 -0.3921843 -0.23965679 -0.19026682 0.08601211 -0.5206671 0.18216732 0.23907694 -0.30176184
420 0.2140034 -0.20817403 0.11012816 0.0029432133 -0.3373954 -0.12291362 -0.28428155 0.102951415 -0.14955448 -0.00023129287 -0.030618675 0.3689229 -0.13469447 0.26275748 0.082697764 0.41891488 0.10941071 0.097991444 -0.12921672 0.1730229 -0.22196066 0.17804065 -0.13798143 -0.18009028 0.045278057 0.13635136 -0.370406 -0.13349114 -0.29734743 0.63705003 -0.22131668 -0.13196357 0.036780484 0.0941499 0.020916952 0.15987827 0.08894131 -0.2237336 -0.03735318 0.21124497 0.2876015 -0.15568975 -0.33698228 -0.08165828 -0.08282525 0.028727388 -0.662874 -0.017956574 -0.22741738 -0.13566484 0.10866195 -0.078221016 -0.24008708 0.007066211 0.11296861 -0.13638906 -0.3267532 -0.23380028 -0.25882864 0.4699205 0.118669815 -0.164517 -0.104735926 -0.02857063 0.11204826 0.3124669 0.17960633 0.24384616 -0.63870937 -0.09615644 -0.13259429 0.0028152012 0.029841261 -0.028158324 -0.3030659 -0.20849474 -0.36070383 -0.054636274 0.26002598 -0.5247849 -0.27057657 -0.18614355 0.15296438 -0.23251146 0.12559132 -0.12207907 -0.003058956 -0.035914656 0.12456505 -0.064881675 -0.09824329 0.084548555 0.16277312 -0.096941635 -0.18315274 -0.23660718 0.24509913 -0.071046576 -0.112481385 0.17619343 -0.136464 0.011026653 -0.030361276 -0.004152093 0.42544678 -0.16332592 0.153645 -0.16281936 -0.12344693 -0.1007999 0.108895734 -0.01899276 -0.123291515 -0.2317777 0.014818253 0.25949004 0.13175033 -0.1948427 -0.057052463 0.3794245 0.3984658 -0.038981367 -0.1409078 0.13843693 0.25947514 -0.128995 0.09950724 0.24926932
13 0.32098597 -0.17161648 0.22343971 -0.018384011 -0.18587205 -0.13169661 -0.37388113 0.047589343 -0.12597398 0.10101518 -0.08209279 0.4853868 -0.19667 0.29354545 0.16991194 0.53914493 0.046680257 0.1898611 -0.21825096 0.09585871 -0.15767923 0.23600484 -0.15816665 -0.1601392 -0.10194842 0.24626985 -0.34983 -0.1220113 -0.36423323 0.6505028 -0.10918649 -0.07633532 0.15143134 0.078436546 0.037161417 0.22535475 0.16741309 -0.12026481 -0.08049156 0.04998783 0.2887854 -0.17237362 -0.3222862 -0.16145569 -0.10652759 0.025048262 -0.66644 -0.01821213 -0.18565628 -0.18912697 0.049881537 -0.018816113 -0.21177846 -0.03217821 0.1617508 -0.15828066 -0.24871182 -0.28609735 -0.2290426 0.4930194 0.055532955 -0.20006849 -0.06713803 0.022834506 0.12492996 0.30469885 0.14330994 0.2932006 -0.48725525 -0.04832948 -0.10908039 0.028552648 0.15689142 0.00665772 -0.25111485 -0.08919507 -0.3113841 0.047496676 0.16527812 -0.5061439 -0.2331334 -0.20422438 0.13690266 -0.19704968 0.07202506 -0.081423186 0.122320406 -0.12936449 0.08485291 0.019016385 -0.053835075 0.1846364 0.033577364 -0.0050635603 -0.11985199 -0.2511175 0.30287203 -0.18194488 -0.13562755 0.21050024 -0.011875721 0.0331411 0.059518173 0.075393505 0.345066 -0.18856695 0.05766665 -0.1502156 -0.10157281 -0.19875593 0.07498608 0.06832968 -0.2669542 -0.11927738 0.052452303 0.28924155 0.04527973 -0.13459252 -0.06024952 0.32808286 0.4162511 -0.023728298 -0.13029225 0.18481651 0.26880065 -0.1583005 0.06917195 0.26884338
20 0.3174297 -0.15890288 0.18236606 0.023059571 -0.26583505 -0.08929081 -0.25244504 0.13078888 -0.27835786 -0.01391653 -0.012442138 0.46091992 -0.20060861 0.26742738 0.073156245 0.49285826 0.0044044564 0.27198973 -0.080633655 0.16584349 -0.07546086 0.15249787 -0.11341835 -0.2324478 -0.027930893 0.2535391 -0.41671395 -0.13900506 -0.28318566 0.7535981 -0.20173655 -0.10243183 0.087857895 0.05936907 0.016039165 0.2887607 0.2117445 -0.20530622 -0.13231792 0.08913907 0.31339294 -0.10233119 -0.31003422 -0.18707879 -0.11052521 -0.065680586 -0.52865326 0.071861565 -0.24356164 -0.10643226 0.10248999 -0.0037714313 -0.24401148 0.12794317 0.06820992 -0.17797956 -0.27539414 -0.20601636 -0.20023385 0.5425095 0.05375678 -0.16609734 -0.09651948 0.0025879776 0.20434873 0.27941462 0.15163845 0.2912004 -0.49909705 -0.07757407 -0.15658036 0.048442233 0.06729525 -0.05596469 -0.179827 -0.2244659 -0.30077356 -0.041954044 0.21807386 -0.5585194 -0.29696664 -0.1928512 0.2017452 -0.20718795 0.15498261 -0.14118093 0.07056951 0.0002721092 0.28776398 -0.0153246615 -0.15871444 0.098778576 -0.00012952584 -0.1499547 -0.0680722 -0.29035497 0.25007933 -0.025608722 0.100141756 0.26494333 -0.04330831 -0.011015249 -0.041352313 0.04627879 0.2791224 -0.16306914 0.10850567 0.0038672104 0.009387344 -0.075181976 0.16224945 0.06150478 -0.15475686 -0.21065399 0.10947656 0.17399026 0.2511904 -0.066983536 -0.12688714 0.39821485 0.39917186 -0.020374116 -0.26133457 0.19663075 0.23858736 -0.24328111 0.12500373 0.1714776
351 0.13968593 0.2537554 0.07828524 0.13696668 0.06893953 0.20914699 -0.45667583 0.35343406 -0.3120038 -0.38533494 -0.22550696 -0.11696732 0.026054569 0.008364915 0.010942168 0.5599324 -0.26391125 0.14413606 -0.20358445 -0.0370279 0.21949148 0.22785303 -0.16064398 -0.21514109 0.11166718 -0.03684315 0.1121913 0.016363056 -0.27191997 -0.26527745 -0.10392149 0.10250078 0.22424951 -0.32366085 -0.007782878 0.19604614 -0.02129795 -0.32037705 0.3837688 -0.2417009 -0.30758408 -0.02699756 -0.24698764 0.03231426 -0.34087613 0.2670016 -0.16281527 -0.14162876 -0.061260488 0.095604464 0.32424146 -0.038825613 0.069556065 -0.23260409 -0.2134427 0.078791566 -0.70647013 -0.38449913 -0.25797907 0.20576628 0.2187793 -0.6508442 -0.47906163 0.33369666 0.50125515 -0.060218558 -0.15572818 0.22747199 -0.03777664 -0.2723477 0.094503 -0.08544986 0.054903228 -0.5964232 -0.194644 -0.24105187 -0.093718424 -0.3079771 -0.27678904 0.4033202 -0.19280252 0.10723843 -0.27450958 0.06902837 -0.32356188 -0.78329027 0.36715075 -0.72251874 0.47212115 -0.07415327 0.14569493 -0.010945964 -0.13410638 0.23501883 0.16156967 -0.15684801 0.059928305 0.2515659 0.43430343 -0.28374875 -0.1276015 0.055915613 -0.23006232 -0.058420558 -0.19955558 -0.14383337 0.114102334 0.15606126 -0.13197319 0.010692982 0.025586946 -0.3201942 -0.75205964 -0.24088031 -0.0042388295 0.16151065 0.03984052 -0.119040124 0.25451615 0.20541762 -0.32358757 -0.17801814 -0.13841143 0.10433259 -0.45640346 0.19454585 0.26676148 -0.49289712
508 0.23993315 -0.05638052 0.12087736 0.019277945 -0.28282037 -0.124194264 -0.33059263 -0.029583063 -0.17302671 -0.04263844 -0.055300165 0.41105413 -0.081538 0.24207616 0.13031812 0.40563908 0.111371614 0.259764 -0.14366616 0.11317903 -0.053901378 0.19927253 -0.08440468 -0.1759135 -0.03412822 0.25756127 -0.31715026 -0.0952164 -0.2796899 0.72705454 -0.10038283 -0.023092631 0.012950532 0.0764477 0.010128613 0.11060765 0.1204087 -0.18707733 -0.06384134 0.1430804 0.2794271 -0.17238335 -0.37021935 -0.12990804 -0.08406666 0.018796783 -0.54936725 -0.091801666 -0.18457761 -0.1431471 0.09640875 -0.12143384 -0.13552988 0.06772256 0.10787712 -0.20415102 -0.2061038 -0.19818366 -0.21434332 0.48429418 0.055818234 -0.17595018 -0.033159055 0.0070946715 0.18130867 0.28636765 0.19400176 0.23552689 -0.53192997 -0.12662065 -0.08954167 0.021867167 0.094130024 -0.016410753 -0.17880076 -0.14046061 -0.3502496 -0.04330476 0.15943983 -0.50481683 -0.17647365 -0.16395637 0.17831111 -0.3144277 0.09875308 -0.025359696 0.032629784 -0.08636181 0.19633125 0.0014359377 -0.012062923 0.1407817 0.046894707 -0.0696319 -0.06996883 -0.29947537 0.21483132 -0.019707384 -0.051399026 0.25830564 -0.04490051 -0.016118502 -0.041472323 0.07587146 0.38684943 -0.15969557 0.066737115 -0.0822928 -0.077225365 -0.17024198 0.21638636 -0.00617429 -0.24366833 -0.21232632 0.035355646 0.2664996 0.16364391 -0.17691001 0.049333446 0.41554964 0.3912324 -0.047701295 -0.1330158 0.12681213 0.24431112 -0.24231748 0.059958413 0.27590817
88 0.24083139 -0.08134449 0.08967783 -0.024124304 -0.22953247 -0.13664989 -0.2448238 0.05666196 -0.15622525 0.017782008 -0.08052437 0.40286902 -0.13326621 0.30042326 0.12542567 0.4786398 0.077181645 0.32244903 -0.1222699 0.07687369 -0.14851822 0.1373823 -0.20548981 -0.23324688 0.04850525 0.16844308 -0.34369475 -0.16560338 -0.2950428 0.68926024 -0.15765083 -0.063297085 0.096707724 0.058697056 0.05579403 0.18545485 0.11781986 -0.20540702 -0.15677522 0.080346115 0.29769108 -0.17125341 -0.40148333 -0.09845065 -0.14043091 -0.04716276 -0.62608814 0.020591103 -0.24867345 -0.12960759 0.08905897 -0.0024627163 -0.22104146 0.03921666 0.10647496 -0.14741847 -0.3041621 -0.29402512 -0.3014585 0.4503704 0.042576082 -0.23941748 -0.109055914 -0.04060717 0.10963576 0.32429066 0.20470801 0.21347721 -0.51059425 0.014831137 -0.06978682 -0.06293345 0.16289175 -0.06587017 -0.20559706 -0.08371523 -0.30102357 -0.022208506 0.14559595 -0.5067779 -0.240713 -0.1573033 0.2199452 -0.23532934 0.1678033 -0.22377436 0.06863289 -0.024454141 0.17158182 -0.08296771 -0.08060239 0.21845555 0.028475171 -0.09498122 -0.08554497 -0.26650578 0.28366423 -0.10273974 -0.08729123 0.21589372 -0.06101115 0.0027221353 -0.02097031 0.0076002725 0.3541033 -0.15342282 0.2037026 -0.093407884 -0.013650209 -0.10753315 0.22493169 0.033064093 -0.1887107 -0.13967133 0.12962094 0.28943148 0.012373241 -0.1737079 0.0061230143 0.3634583 0.32549518 -0.024628697 -0.16665642 0.15284786 0.25307798 -0.26764557 0.11850494 0.24336745
242 0.27527493 -0.013355154 0.19326384 -0.031257264 -0.2615529 -0.103738844 -0.2790518 0.10863184 -0.16306104 -0.004694713 -0.056159895 0.45981202 -0.1275692 0.3815549 0.16785175 0.469085 0.132479 0.28276482 -0.15065348 0.09178938 -0.2072596 0.14780445 -0.26041877 -0.24055396 -0.04592019 0.08449332 -0.2948346 -0.076031685 -0.26190934 0.75785655 0.008200811 -0.05471337 0.0641158 0.073195554 0.020421341 0.27609247 0.11633548 -0.22800387 -0.018746488 0.071999 0.26046714 -0.18589821 -0.43918267 -0.12936419 -0.14594142 -0.04428979 -0.5776955 0.025611449 -0.27295193 -0.00541546 0.14282876 0.012625114 -0.21545404 -0.0928967 0.14960724 -0.1460254 -0.2828062 -0.26351267 -0.24046448 0.553446 0.066662796 -0.21893379 -0.059168663 -0.0025227992 0.12578562 0.2824232 0.17851117 0.24790484 -0.5307207 -0.0062517175 -0.15419948 -0.027250752 0.08335343 -0.010430161 -0.2683794 -0.089455925 -0.30874246 -0.02303577 0.22392724 -0.5700438 -0.2796245 -0.10704705 0.22358221 -0.24313015 0.120069265 -0.09212836 0.03425242 -0.027100507 0.16143154 -0.11589729 -0.11978622 0.1061752 0.03655816 -0.08343464 -0.16413131 -0.18046765 0.18472677 0.057175905 -0.08363653 0.11762979 0.031406812 0.042226996 -0.032268535 0.052657235 0.31144515 -0.07495608 -0.027963502 -0.0876742 -0.10684688 -0.09326719 0.1646893 0.046382103 -0.15493014 -0.15881677 0.1310941 0.3077268 0.13119045 -0.09520141 -0.034560673 0.42638513 0.37657064 -0.09043168 -0.11707331 0.21217453 0.32904023 -0.3411454 -0.0061640474 0.2917583
496 0.34912077 -0.06527825 0.107451096 -0.042829987 -0.30646113 -0.15333354 -0.2517378 0.08492938 -0.24750721 -0.015915569 -0.115867466 0.43145227 -0.11795886 0.19181107 0.08995916 0.3817203 0.02156612 0.21040994 -0.21973114 0.19271539 -0.21462403 0.20285502 -0.117419004 -0.123407975 -0.0025903916 0.28028396 -0.4117845 -0.01913028 -0.2929318 0.65715337 -0.09896831 -0.10269413 0.06811254 0.099036016 0.014563919 0.27034783 0.08303694 -0.14021061 -0.07799817 0.06689991 0.3143257 -0.24672207 -0.34963077 -0.18924683 -0.13724472 0.017552193 -0.6034813 0.023739649 -0.2050412 -0.10445736 0.12431475 -0.007091005 -0.1659844 0.11727038 0.045473933 -0.2541362 -0.38929787 -0.2824103 -0.17265612 0.46915385 0.09354867 -0.20001748 -0.008763907 -0.004087647 0.14607896 0.32980102 0.20893036 0.21927379 -0.55042696 -0.02138094 -0.14041056 0.100347735 0.031442318 -0.068352036 -0.27901393 -0.053386245 -0.36172226 0.015382745 0.21830507 -0.5170986 -0.24734047 -0.16163799 0.16356437 -0.17692941 0.24078634 -0.076864436 0.03417544 -0.03532745 0.1759105 -0.07105289 -0.1254202 0.1585119 0.12311157 -0.08926283 -0.0633221 -0.23454243 0.27262607 -0.08647551 -0.091302246 0.27609435 -0.088006176 0.091398776 -0.04184809 0.03912502 0.34909227 -0.13320793 0.08933729 -0.09415299 -0.1107251 -0.028488047 0.11612797 0.19048254 -0.17120184 -0.1503773 0.001390671 0.22711426 0.21025318 -0.18046999 -0.062389594 0.30375046 0.41485664 -0.06914381 -0.10205967 0.12823872 0.18972673 -0.20651296 0.122137904 0.21383767
459 0.3059021 -0.052724537 0.109264255 0.041098468 -0.18746102 -0.14296287 -0.35295564 0.13754083 -0.22895542 0.06269465 -0.06537727 0.4122451 -0.14521904 0.25070238 0.1325038 0.42126575 0.12073654 0.19491135 -0.13368495 0.095285505 -0.13332902 0.18942454 -0.15787724 -0.23752636 -0.029829836 0.2204146 -0.37149525 -0.08380418 -0.26323515 0.5955509 -0.010554335 -0.124062285 0.004120922 0.026673866 0.078117855 0.25404736 0.13933952 -0.1373186 -0.12707976 0.08489739 0.2869555 -0.1863001 -0.36069974 -0.24995592 -0.1128343 0.008276906 -0.5786373 0.06291578 -0.29502028 -0.095823616 0.052110687 -0.102172695 -0.18904439 -0.0445482 0.15132211 -0.22490354 -0.369695 -0.18199977 -0.23530443 0.5182592 0.07187028 -0.10581441 -0.07942008 -0.0886605 0.14648902 0.29118174 0.11595927 0.2759045 -0.5319749 -0.03745178 -0.08507761 0.043291498 0.10756228 -0.026824739 -0.2172001 -0.061414275 -0.31346914 -0.016530298 0.14002338 -0.52514684 -0.23734133 -0.06549067 0.24244402 -0.22442193 0.13827549 -0.14486189 0.081061535 0.009372354 0.19788024 -0.037916835 -0.02182136 0.15286377 0.19082277 -0.0016757504 -0.16809623 -0.2153102 0.21629119 -0.1265982 -0.01521531 0.20702367 -0.024742322 0.014705274 -0.071557455 0.09097816 0.37480175 -0.1651758 0.11523281 -0.12737857 -0.13749257 -0.07983421 0.13194926 0.07768985 -0.13188465 -0.1860833 0.020354489 0.31323767 0.16005243 -0.120002285 0.015612885 0.36141562 0.38839045 -0.053757895 -0.14914826 0.15735658 0.21395595 -0.16732141 0.024968527 0.31187052
435 0.09544787 0.4179279 0.10441959 0.21329544 0.10275361 0.25589633 -0.5560835 0.3547386 -0.28849062 -0.36596718 -0.16402782 -0.07501431 0.046046484 0.06681507 0.06338905 0.45607558 -0.26315317 0.12547463 -0.27175704 -0.096092805 0.17723228 0.07268958 -0.33330724 -0.23486604 0.025353266 0.0060923058 0.111189544 0.038091555 -0.19599983 -0.23009905 0.023049079 0.16586463 0.20523323 -0.32662243 0.09014948 0.19680685 0.0007907411 -0.43050647 0.51240045 -0.32558993 -0.30624202 -0.09875711 -0.24096735 0.020504309 -0.3684899 0.45480844 -0.123738386 -0.14934942 -0.17716938 0.02123844 0.23618178 0.020305647 0.2518139 -0.35857567 -0.12888257 0.06666934 -0.65942943 -0.42839834 -0.3512278 0.16592541 0.24311286 -0.73818 -0.34861934 0.3212377 0.50046676 -0.019711375 -0.11876316 0.2441136 -0.12858917 -0.25427246 -0.05295046 0.018233076 0.1497166 -0.5302726 -0.29062515 -0.08012357 -0.10332623 -0.29538128 -0.25294262 0.39054036 -0.17372902 0.18398695 -0.31495002 0.18873145 -0.26189646 -0.7105561 0.4740726 -0.67365026 0.48180303 -0.20133573 0.01160914 0.034646735 -0.23219632 0.32890475 0.24332036 -0.18713132 0.08493892 0.29873696 0.416379 -0.39456493 -0.07070116 0.08582855 -0.23453364 -0.055077348 -0.15706901 -0.18699862 0.032846138 0.18025863 -0.13429756 -0.063981466 -0.016774705 -0.2839146 -0.9310164 -0.28832236 -0.04286606 0.15843873 0.03931934 -0.16582131 0.12848444 0.23405416 -0.34176826 -0.14228342 -0.029480841 0.11744976 -0.38761133 0.23312728 0.21302822 -0.3447751
157 0.22887713 -0.15641797 0.089411534 -0.022203377 -0.260148 -0.14541057 -0.27134943 0.09685724 -0.24333084 0.08241499 0.03242463 0.44768173 -0.18824641 0.24816938 0.12095926 0.43693802 0.043790467 0.23571648 -0.15422578 0.19584477 -0.206235 0.103706114 -0.23302399 -0.15444759 0.04863158 0.25382927 -0.44035938 -0.0897812 -0.24888542 0.692677 -0.07017904 -0.038928267 -0.0466603 -0.010786443 -0.008891184 0.18366374 0.11618606 -0.13119912 -0.10828468 0.08539414 0.3091663 -0.13273776 -0.32263112 -0.16512768 -0.14281186 0.07179011 -0.6865112 0.08557163 -0.28035378 -0.09147629 0.1434614 0.02065322 -0.124561876 0.011590252 0.058275107 -0.23258953 -0.3960638 -0.20236436 -0.21480168 0.48178434 0.17236172 -0.08250079 -0.11763257 -0.061757997 0.24813023 0.27819762 0.13826795 0.24125998 -0.5147387 -0.063235596 -0.09522662 0.03797605 0.09492911 -0.04059564 -0.24152006 -0.06039286 -0.28754902 -0.029721651 0.2081149 -0.46138132 -0.23574695 -0.08096783 0.20443882 -0.2535896 0.10995525 -0.13897793 0.13874565 -0.014885954 0.111717194 -0.10115985 -0.09595965 0.20525187 0.028813189 -0.104633756 -0.08421886 -0.30149698 0.19491178 -0.1001471 -0.104100026 0.1315232 -0.0909052 -0.002142616 -0.08398059 0.045197785 0.40271175 -0.11456629 0.050655954 -0.11919079 -0.117893405 -0.08295538 0.12984873 0.040159453 -0.1242168 -0.161283 0.14862171 0.24095519 0.10979715 -0.11008033 -0.046094332 0.4182378 0.39295453 -0.14486054 -0.14425169 0.11743087 0.2304719 -0.16927022 0.06105253 0.27557656
105 0.255285 -0.11006497 0.13043685 -0.05670104 -0.28158545 -0.13422911 -0.28409448 0.033384737 -0.15049236 0.041073754 -0.04736903 0.44402575 -0.11220655 0.27202067 0.10798852 0.42601174 0.07575538 0.15996419 -0.15179218 0.09829097 -0.22707765 0.1179131 -0.13410248 -0.22703983 -0.07056889 0.18854219 -0.39888403 -0.12489553 -0.29910114 0.7160822 -0.16724965 -0.07558161 0.009126408 0.025196785 -0.027991883 0.14820014 0.07187389 -0.18176247 -0.044830404 0.08655554 0.33221304 -0.12169265 -0.39955017 -0.1145923 -0.09518855 0.0076827337 -0.5862911 -0.026932357 -0.24005176 -0.10955322 0.073168814 -0.08966338 -0.17512299 -0.04990573 0.056082364 -0.16871844 -0.30561113 -0.24875845 -0.25231516 0.47754842 0.10813925 -0.25966176 0.04604873 0.042142764 0.11421468 0.27717063 0.11473389 0.23401004 -0.56447834 -0.0768175 -0.17016032 0.00020214159 0.14300989 -0.0025338985 -0.15618156 -0.107723236 -0.28154096 -0.031792205 0.1799313 -0.5088071 -0.3078853 -0.1611599 0.18181725 -0.2014171 0.087069295 -0.17616358 0.06011292 -0.09591629 0.15965025 -0.042141642 -0.08774056 0.15426798 0.09928377 -0.15593705 -0.056393243 -0.2428161 0.32912654 -0.022674419 -0.019583996 0.22256984 -0.003022202 0.07871393 0.046665534 0.043746747 0.35983735 -0.028033638 0.09359142 -0.1192884 -0.043645825 -0.091970906 0.17090954 0.022969807 -0.26135957 -0.23014808 0.09843513 0.346183 0.20546158 -0.14146666 -0.0066515678 0.39200655 0.44003108 0.082224056 -0.23079914 0.18671595 0.26328903 -0.18788871 0.12183762 0.27093637
84 0.35440227 -0.08317759 0.22002563 0.010662629 -0.2272545 -0.16457246 -0.26287058 0.12966354 -0.14444092 0.103119396 -0.09645216 0.43682525 -0.2310588 0.25038725 0.07989378 0.48003107 -0.017271994 0.24889158 -0.14362316 0.1476629 -0.20872362 0.13236752 -0.24539937 -0.24969214 0.009366729 0.21126944 -0.39141616 -0.16052291 -0.23650053 0.720858 -0.040007684 -0.08934508 0.052940033 0.052401565 0.10331096 0.22858569 0.15923086 -0.19097087 -0.09300118 0.11107502 0.27100915 -0.1477062 -0.35996577 -0.115769975 -0.16763707 0.045656677 -0.6065956 0.06370012 -0.24329707 -0.13870381 0.24078359 -0.038033534 -0.14021192 -0.047036193 0.14268073 -0.19907634 -0.35842067 -0.21495041 -0.24207951 0.47647777 0.09210236 -0.19823487 -0.098086804 -0.07018277 0.16974391 0.27238047 0.17237072 0.23101693 -0.5576116 -0.15317635 -0.08684216 -0.024798624 0.063064806 -0.05087072 -0.14781816 -0.11141586 -0.26878121 -0.10192077 0.19718127 -0.47845292 -0.26667574 -0.07098118 0.15778711 -0.19796698 0.06098904 -0.07269997 0.045299146 -0.000492644 0.11668028 -0.034434576 -0.12617478 0.18370438 -0.034892347 -0.07827062 -0.15127254 -0.24900964 0.25486422 -0.09715998 -0.08445284 0.17622948 -0.08541287 -0.025039528 -0.05940658 0.082892925 0.35297891 -0.17742746 0.10356739 -0.11813632 -0.019575432 -0.03511997 0.14580195 0.07450763 -0.2076187 -0.046785723 0.10100005 0.1853036 0.13502793 -0.16853125 -0.07004521 0.40112022 0.3292179 0.04407419 -0.2068684 0.16005905 0.2891695 -0.17535216 0.10674096 0.21854806
74 0.2544794 -0.10111273 0.14352442 -0.05091199 -0.2912144 -0.15593672 -0.3461251 0.043598566 -0.22653738 -0.032853387 -0.057242025 0.40114117 -0.22629163 0.3405997 0.13605516 0.45568788 0.069713056 0.25692663 -0.1015469 0.111713104 -0.22736888 0.18689494 -0.18252051 -0.22687641 0.04472961 0.17195617 -0.44143456 -0.15571553 -0.31401682 0.6584289 -0.123743854 -0.115486234 0.07447458 0.13077553 -0.0694546 0.19105583 0.06373424 -0.1973615 -0.1452646 0.06816464 0.26300654 -0.20704113 -0.41838893 -0.13041274 -0.10299273 0.020664457 -0.70946527 -0.041408777 -0.21730338 -0.14490977 0.20533304 -0.1350524 -0.21365133 -0.05824347 0.0940107 -0.1673386 -0.21805826 -0.219805 -0.20758566 0.48781 0.013344472 -0.15176806 -0.10861645 0.030278005 0.083586045 0.24464081 0.17237549 0.24496225 -0.58514744 -0.07707604 -0.13055274 -0.031853832 0.057883296 -0.032831598 -0.14778757 -0.1117137 -0.3437771 -0.12564209 0.2476705 -0.50219375 -0.17984831 -0.14601003 0.20923351 -0.16494644 0.1751118 -0.11083982 0.009194167 -0.05835114 0.20161434 -0.13542515 -0.07972374 0.13389196 0.052258372 -0.061901737 -0.13759723 -0.17664361 0.27874792 -0.10280638 -0.08625452 0.16231558 -0.07959757 0.021424966 0.028978 0.04192349 0.37994242 0.008041799 0.16617751 -0.07613733 -0.09424443 -0.04979986 0.2860487 0.0057810615 -0.2198549 -0.20681517 0.10873924 0.20288081 0.12366172 -0.13876471 -0.06394556 0.36196503 0.31341657 -0.023119727 -0.16232733 0.059963387 0.2723585 -0.17297788 0.039599825 0.33779198
77 0.19427493 0.43668568 0.072309054 0.18358974 0.22987975 0.2159494 -0.46221647 0.3512526 -0.32134724 -0.47297034 -0.11591599 -0.07009372 0.040638246 0.048949596 0.1792754 0.45002958 -0.31891403 0.14036681 -0.25116318 -0.008144284 0.15419178 0.099374294 -0.13536328 -0.27009216 0.022596514 0.024693772 0.008309682 -0.017631045 -0.31371713 -0.3211683 -0.08722007 0.14324076 0.24061482 -0.38757074 -0.039788317 0.18856129 -0.029474381 -0.44963816 0.4173878 -0.25336403 -0.27160048 -0.18603806 -0.41091898 0.13481624 -0.40630913 0.20723918 -0.14102145 -0.10359572 -0.17470682 0.08217295 0.3411819 -0.028247518 0.2011846 -0.3317888 -0.080179326 0.058410365 -0.6755231 -0.40969813 -0.28758803 0.10692192 0.3327324 -0.64380795 -0.42272303 0.25637075 0.5104804 -0.003039 -0.2772681 0.28278607 -0.10344602 -0.21532468 0.09622438 -0.027714906 0.2212669 -0.59675986 -0.26996556 -0.15809575 -0.1581094 -0.2564566 -0.27514586 0.28062594 -0.23964551 0.11806317 -0.43256888 0.16824844 -0.20533551 -0.8305685 0.312812 -0.74569446 0.4908179 -0.18192795 0.06616502 0.010336992 -0.2293169 0.23067267 0.20108233 0.06352103 0.08699644 0.2912448 0.50665325 -0.3180056 -0.095365 0.091039374 -0.11157278 -0.10914074 -0.15213399 -0.08747483 0.10984181 0.16857699 -0.042441044 0.020519596 0.002253011 -0.2322763 -0.7412668 -0.22806633 -0.021189723 0.24587478 0.10924242 -0.11463002 0.42166 0.23867686 -0.36249754 -0.23249854 -0.06375029 -0.104419924 -0.4107524 0.08035734 0.27489153 -0.49815488
160 0.2675511 -0.09974908 0.050729383 -0.007547573 -0.27083296 -0.105040826 -0.34282836 0.06944118 -0.216713 -0.03725173 -0.049121317 0.46192658 -0.06696888 0.29725212 0.10433892 0.40238246 0.11298428 0.17294289 -0.18636003 0.15606968 -0.14605318 0.21005821 -0.13012384 -0.09895626 -0.015843632 0.18692744 -0.49854007 -0.119410254 -0.19814417 0.63961303 -0.045983974 -0.076341376 0.017211225 0.14319564 0.04171716 0.23376861 0.1031972 -0.069470294 -0.07987874 0.06057271 0.23591779 -0.1442264 -0.35776964 -0.097108506 -0.052853428 -0.04869286 -0.5602502 -0.007936972 -0.21265054 -0.05798798 0.11920334 -0.07085569 -0.176153 0.032109357 0.12381683 -0.24095656 -0.33905375 -0.21668722 -0.27689946 0.4120735 0.107026525 -0.15511681 -0.0075647817 -0.026489573 0.13673197 0.2771984 0.21281774 0.22264239 -0.53620106 -0.086742856 -0.114336796 0.0047954824 0.1584235 -0.063174926 -0.13117501 -0.14966345 -0.26200828 -0.021340072 0.1940422 -0.62943447 -0.26203832 0.026231978 0.23192143 -0.28122082 0.08862786 -0.16216746 0.08804879 -0.078685924 0.23384647 -0.024154546 -0.05936558 0.13902076 0.0982194 -0.17959557 -0.14588408 -0.21878415 0.28324053 -0.038631037 -0.023605503 0.31141737 -0.045025893 0.067351796 0.0007214654 0.12657352 0.4498168 -0.1905364 0.06543225 -0.06755464 0.01555296 -0.04891967 0.20415273 0.056729913 -0.1563513 -0.13081041 -0.01211809 0.29317477 0.19853382 -0.114314795 0.029876636 0.34809387 0.399167 -0.03857257 -0.17012908 0.094536245 0.23028332 -0.15550397 0.035841055 0.25023276
408 0.005258641 0.08875145 0.15239088 -0.7775283 0.16803111 0.73039514 -0.25542057 0.8714557 -0.30999014 0.10905959 0.12645544 -0.6892922 -0.24188721 0.20581041 -0.2648676 -0.32126746 -0.14777641 -0.5212572 -0.85266256 0.23556413 -0.100086704 0.28490543 -0.18907616 0.10093943 0.14815594 0.28145707 -1.0456477 0.03516346 0.46634528 -0.33253542 0.39236555 0.21738885 0.43316445 0.56196326 0.38785642 0.25417766 0.3125295 -0.64558697 0.21239138 0.17009208 0.1278994 -0.2588754 -0.07373508 -0.1601446 -0.16281135 0.19967155 -0.22881961 0.15911661 0.08168373 -0.22630778 -0.366645 0.1895229 -0.5463134 -0.20401974 -0.5738689 -0.13485181 0.020563046 -0.504706 0.26285374 0.56444407 0.7012075 -0.14195389 -0.43104577 0.43934292 -0.22077423 0.11716772 -0.30601063 -0.3543628 0.22504023 0.044150606 0.39777294 0.399532 0.10214246 -0.014481464 0.022903763 0.0781053 -0.017583495 0.29204795 -0.79663503 0.15400636 -0.1604954 -0.6281439 0.2604716 -0.06881033 -0.24539676 0.19177438 0.11044737 -0.24748038 0.05175096 0.523825 -0.16094014 0.3200362 0.43571866 0.11080731 -0.06692315 0.20399047 -0.23207074 0.3124596 -0.09987295 -0.2575761 0.6844653 -0.31604043 -0.6359388 0.19956873 0.3538477 -0.39680827 0.43920165 -0.33890885 0.20878737 -0.20554054 0.5705456 -0.20927896 -0.65499645 -0.4051837 -0.20391802 -0.010038 -0.901436 0.22759433 0.23503271 0.64351416 0.55439544 0.13283283 0.035750497 -0.24018751 -0.24480516 -0.5407987 -0.21215302 0.33569035
434 0.28255337 -0.06528749 0.16858709 0.03380716 -0.24175136 -0.16841789 -0.23765855 0.0631745 -0.25702354 0.040653154 -0.09436396 0.37220716 -0.049368426 0.21553436 0.16854733 0.47109452 0.073483534 0.22875369 -0.08801332 0.13047023 -0.17626734 0.25391304 -0.15101294 -0.23229791 0.016580904 0.19676642 -0.3999583 -0.07182133 -0.3315126 0.7082449 -0.16689992 -0.15613008 0.08291927 0.111200266 0.08943911 0.18985009 0.12823607 -0.24929716 -0.17423508 0.09870093 0.20164625 -0.15044402 -0.34400833 -0.17932582 -0.08231633 0.045318674 -0.66700715 -0.029511726 -0.24443935 -0.103576235 0.09899073 -0.0066978056 -0.23361503 0.062897846 0.18887658 -0.10210021 -0.22378743 -0.2017795 -0.1299227 0.4916746 0.11419475 -0.18285915 -0.06815449 -0.00771341 0.0942335 0.24801114 0.13921946 0.14972895 -0.55609137 -0.044576015 -0.09517842 -0.021607867 0.18844876 -0.11426747 -0.25463346 -0.10372844 -0.2799324 -0.13590658 0.20061702 -0.49728608 -0.21032712 -0.16881058 0.24907178 -0.2291678 0.065678075 -0.12256133 -0.009710538 -0.018910551 0.19017844 -0.115056776 -0.09354752 0.16234282 0.065322034 -0.044811722 -0.1719707 -0.21657331 0.31356516 -0.07983947 -0.10065937 0.2639725 -0.078792855 -0.027723543 -0.08808647 0.13583012 0.45992607 -0.10043733 0.17426707 -0.13107406 -0.02073572 -0.12323629 0.23747267 0.10907942 -0.20844106 -0.19339831 0.0996463 0.25265577 0.14873241 -0.14385256 -0.041114166 0.3695792 0.3408459 0.007643242 -0.21032554 0.092480995 0.11154481 -0.19976574 0.12701687 0.21977156
60 0.20877494 0.4913999 -0.34438506 -0.4387918 -0.2787602 -0.11208741 -0.14514637 -0.025593733 -0.23796685 -0.11485126 -0.17859603 -0.1778194 0.50570077 -0.23158091 -0.008239906 0.3335408 0.003299956 -0.18357272 -0.054982435 -0.07399663 -0.3295182 0.44387433 -0.61533785 -0.3820074 0.63783056 0.36025763 -0.4100389 0.30017808 0.24864812 -0.45220608 -0.09972313 0.27760625 0.16751394 -0.20681512 -0.3143904 0.29050684 0.3378378 -0.044897225 0.39176264 0.36551443 0.4719691 0.6497501 -0.13361767 -0.23040116 -0.3667529 0.102781855 -0.38492173 -0.0143332295 -0.12358129 -0.23033294 0.42745647 -0.5082566 -0.10843112 -0.10209513 -0.025907315 -0.108948916 0.7574882 -0.06810517 0.21143177 0.19694993 0.53305584 -0.6054475 -0.14679453 0.08962107 0.39907092 -0.4746652 0.05338285 -0.030648537 -0.1356848 -0.44482473 -0.18720168 0.82748413 0.34469107 -0.92161584 0.12951843 -0.30631524 -0.52429396 -0.21692777 0.4916529 -0.47276688 -0.27706757 -0.42267987 0.020335224 0.18980183 -0.41121006 -0.38250345 0.32314274 0.17209989 -0.09224945 0.006289743 -0.049045824 0.0068247346 0.07189249 0.657585 0.30448356 0.13207465 0.27489805 0.49982777 -0.07308426 0.52283037 0.15181868 -0.32963517 -0.18882488 -0.04349086 -0.46280047 -0.15266965 -0.03268135 0.14517535 0.08489564 -0.12512952 -0.09261775 0.27638283 0.14642867 0.21851428 0.4669883 -0.0909644 -0.4582103 -0.5188774 -0.3395439 0.13585877 0.35902202 0.31558993 0.10834034 -0.08757205 0.14358412 -0.22463931 -0.4047236 0.22450505
330 0.31176263 -0.0013676732 0.11989054 -0.04852433 -0.202729 -0.05388546 -0.25513437 -0.00039599004 -0.15276316 -0.03400835 0.025596628 0.5078422 -0.05917759 0.26840943 0.15377197 0.3964171 0.030887011 0.16714431 -0.2030144 0.1805101 -0.22101243 0.21610871 -0.07396069 -0.22716431 -0.05152561 0.17217594 -0.39240205 -0.06470782 -0.2838542 0.6980422 -0.14578302 -0.102741234 0.09689591 0.10250806 0.13628884 0.31152442 0.0058737067 -0.2388219 -0.1360539 0.11150574 0.26242942 -0.11160377 -0.31743014 -0.009671706 0.0045679403 0.006066664 -0.5302565 0.08793395 -0.22850005 -0.09835418 0.123575665 -0.059093196 -0.1418814 -0.0030825755 0.08095648 -0.16350856 -0.21821225 -0.19638063 -0.3144514 0.58179414 0.047470424 -0.18087249 0.04114774 -0.03952246 0.19222127 0.28834844 0.06464246 0.1081031 -0.55624855 -0.0053031435 -0.108817816 -0.08413981 0.12843333 -0.0552912 -0.2876549 -0.103046134 -0.32289606 -0.068955734 0.22043689 -0.60254544 -0.2724764 -0.08576175 0.22234249 -0.19136973 0.0729948 -0.17056943 -0.01711274 0.07291436 0.2525306 -0.028434264 -0.04128766 0.20301974 0.18173534 -0.020277448 -0.12872511 -0.26837522 0.2268083 -0.17728747 -0.044544883 0.22752002 -0.020768914 -0.012951818 -0.050893135 0.1684981 0.37601107 -0.14703725 0.028332576 -0.17797333 -0.083060004 -0.13467886 0.18782826 -0.035309836 -0.16126296 -0.1231167 0.11882398 0.31318852 0.16502894 -0.23072648 0.029846976 0.41763026 0.26784673 0.0042367424 -0.12174076 0.15404375 0.21224274 -0.17385125 0.08631181 0.24648297
385 0.33415082 -0.15433943 0.109683104 -0.01769688 -0.2126252 -0.058916252 -0.20732835 -0.029140178 -0.21394548 0.027388487 -0.07002721 0.4024236 -0.14259437 0.2893124 0.056962706 0.35454887 0.091810316 0.22968344 -0.0997305 0.08480769 -0.20102362 0.18635288 -0.11736246 -0.20721675 0.027180905 0.2141361 -0.43529746 -0.029480053 -0.30361703 0.62972486 -0.17269243 -0.14060752 -0.0026252558 0.10249408 0.1100838 0.28351942 0.16074952 -0.18855265 -0.1847204 0.16292758 0.29867765 0.039649088 -0.380485 -0.123923585 -0.04401926 0.021088358 -0.58721983 0.10195903 -0.17426033 -0.18589632 0.11025789 -0.041289493 -0.16097867 -0.02295194 0.12633812 -0.18460074 -0.35241595 -0.16561754 -0.23161322 0.42108905 0.041642897 -0.04165004 -0.048430994 -0.091177054 0.22501148 0.29023334 0.15547459 0.11819071 -0.5201851 -0.0004500685 -0.14383484 0.004978225 0.09307759 -0.03657186 -0.20072581 -0.12372422 -0.33846486 -0.033380866 0.15899621 -0.4915607 -0.15402603 -0.047790922 0.11318875 -0.22677715 -0.019948272 -0.033842236 0.11259088 -0.05128646 0.16848645 -0.055963103 -0.07056974 0.22247376 0.08023153 0.009882777 -0.1927586 -0.28168577 0.268069 -0.13068238 -0.0206505 0.16306014 0.00082863 0.02901624 -0.044148643 0.103398606 0.39882362 -0.089571744 0.13681659 -0.13027902 -0.07205208 -0.011647699 0.33037105 -0.002908497 -0.16134463 -0.058631767 0.16744445 0.24268386 0.16941895 -0.22154598 -0.019417876 0.3098419 0.32695127 -0.05172199 -0.18356173 0.10760107 0.1811502 -0.18349993 0.19398609 0.22971572
474 0.23908757 0.19237624 -0.18111338 -0.48445892 0.46748316 0.1444079 -0.37447613 -0.15963504 -0.3503799 -0.35845855 -0.02925759 -0.12997507 -0.15683594 0.0921427 0.36606696 0.14127189 0.4158215 0.1373411 -0.09605894 -0.33757114 -0.69500285 0.035566807 -0.1586941 -0.012132035 0.02536814 -0.25057667 -0.108147815 -0.239209 0.038651638 0.22084872 0.034958415 0.2661118 0.31296682 0.46449837 0.5926551 0.2899005 -0.6525656 -0.031319596 -0.56928766 -0.048122406 0.49773145 0.39339453 -0.43850684 -0.37328357 -0.05664008 -0.09029893 0.008638937 -0.15330951 0.044786517 -0.058422267 -0.09862233 -0.1265643 -0.31179282 -0.109332316 0.1093019 0.023454238 -0.14503407 -0.059592787 0.28315705 -0.0070907907 -0.29343712 0.35819763 -0.015580334 -0.045375604 0.37111476 0.19411059 -0.13314304 0.4824817 -0.5584443 0.036165427 0.24370965 0.34032372 0.006235912 -0.57135004 -0.24454245 -0.3505098 -0.21060349 -0.10493708 -0.057445608 0.62872964 -0.2962575 -0.19015333 0.14156343 0.16586131 -0.29628688 0.08023626 -0.04307314 -0.18152508 -0.3329003 -0.17888144 0.20905814 0.25279737 -0.45725787 0.21425895 0.52314377 -0.69578034 -0.20954375 0.60876536 -0.0064057917 -0.3629921 0.12900603 -0.13266955 -0.12629326 -0.0011149391 -0.23510663 -0.45300588 -0.2773036 -0.44568655 -0.08191533 -0.12088381 -0.53786397 -0.24092276 -0.06337923 -0.14492205 -0.11302641 -0.40908253 -0.011724759 -0.44383988 0.28948206 0.7891085 0.16007514 0.07320447 -0.056289922 -0.19718613 -0.1987177 0.20335026 -0.19021688 0.024394602
396 0.17686924 -0.09367847 0.14205627 -0.09063556 -0.1899604 -0.1470609 -0.34336326 0.04758383 -0.08962765 -0.023376858 -0.13684648 0.4141577 -0.11095967 0.3202483 0.08431207 0.30341646 0.07364317 0.12658092 -0.11554898 0.11306904 -0.109461196 0.1845783 -0.2899829 -0.28098375 -0.06250664 0.12916036 -0.3571705 -0.0741289 -0.29998332 0.6456367 -0.06302488 -0.053364947 0.1039525 0.115534835 0.055772558 0.2177325 0.1344743 -0.14766312 -0.010753103 0.1032756 0.18113227 -0.08467631 -0.36635473 -0.1428116 -0.17011453 -0.118578896 -0.60439587 0.023402572 -0.26825082 -0.2073688 0.1370553 0.03519122 -0.18283145 0.0045543173 0.060961667 -0.16705184 -0.1888981 -0.24240603 -0.22607961 0.4586922 0.044877358 -0.07880838 -0.0042805495 -0.026252065 0.16927919 0.2503388 0.1075573 0.12929428 -0.5372155 -0.07229294 -0.17175831 -0.017727537 0.08677106 0.032988336 -0.19365919 -0.09503757 -0.27319327 -0.14214556 0.18280318 -0.42878798 -0.117361255 -0.1872189 0.18574764 -0.14139894 0.075667076 -0.06267776 0.0065828064 -0.07230608 0.18285103 0.01217342 -0.1101188 0.15664336 0.005275234 -0.08031491 -0.0872468 -0.21084912 0.19296627 -0.09196314 -0.08528362 0.20947929 0.033002656 0.10557973 0.14517914 0.19845597 0.3039403 -0.10298105 0.008238331 -0.13895339 -0.07114974 -0.13866583 0.20381534 -0.06927257 -0.20612137 -0.15026417 0.07031328 0.15376984 0.26236525 -0.14463519 -0.039650705 0.28836364 0.38588303 0.06319018 -0.1499652 0.18166 0.18107212 -0.24776962 0.13991618 0.24915293
403 0.24052392 -0.16467158 0.07344278 -0.032777216 -0.2743543 -0.07672299 -0.32971185 0.008739334 -0.17846899 0.0786819 -0.027503984 0.3715528 -0.08459367 0.36918825 0.12212432 0.3783554 0.06757838 0.20149568 -0.1811868 0.20976202 -0.18955062 0.12806179 -0.17300914 -0.30008227 0.02237792 0.09640218 -0.41007257 -0.09354706 -0.27596962 0.63738894 -0.14442463 -0.1273531 -0.013486234 0.11150196 0.04682102 0.229225 0.1595931 -0.18179138 -0.14426853 0.054293446 0.3025049 -0.08456252 -0.34758094 -0.08083068 0.0040986603 0.0071755005 -0.57053155 0.12076538 -0.24685487 -0.21988337 0.16412503 0.017745085 -0.18906917 -0.034354366 0.16060984 -0.22917874 -0.27190852 -0.21369451 -0.22770517 0.5174044 0.07639794 -0.026843514 -0.08204966 -0.071987085 0.12041921 0.24596289 0.09366614 0.26076454 -0.541174 -0.047441754 -0.1631808 -0.074781954 0.15557 -0.0077036894 -0.26652473 -0.1450829 -0.3323187 -0.04696987 0.17728159 -0.5189001 -0.14406879 -0.19684012 0.23611958 -0.08150166 0.03816489 -0.13125297 0.044826504 -0.039853584 0.22609225 -0.114629924 -0.031256016 0.10807123 0.07356046 -0.043993533 -0.12643193 -0.272499 0.23194458 -0.14405447 -0.08077977 0.18212435 0.056205258 0.033288687 0.015574888 0.14246985 0.35369727 -0.083330214 0.037944704 -0.18919931 0.02980295 -0.028686602 0.194271 -0.023228772 -0.18278396 -0.16768551 0.10571743 0.24677226 0.14219548 -0.2135009 0.017512893 0.33207586 0.347071 0.055774495 -0.1729293 0.13270986 0.20663862 -0.23340026 0.11142726 0.33119035
185 0.16472432 0.5155469 -0.29584524 -0.3964123 -0.2933912 -0.2205896 -0.2145316 -0.090741314 -0.30732867 -0.1677738 -0.14892541 -0.29104945 0.48603308 -0.3936632 0.01259712 0.29200557 -0.05277631 -0.055777248 0.057768572 0.021091158 -0.29931942 0.28352794 -0.8012256 -0.56340903 0.6126914 0.38669997 -0.3695404 0.32258552 0.36651275 -0.4962974 -0.18416885 0.2984685 0.14472423 -0.23459853 -0.41573343 0.29043433 0.3077094 -0.22595702 0.47467425 0.23933607 0.4534032 0.5633946 -0.12217719 -0.25646976 -0.47225848 0.12765424 -0.4494618 0.0058857454 -0.113203846 -0.22900619 0.40930608 -0.48438615 -0.15280381 -0.21385778 0.060094215 -0.08009886 0.73511165 -0.040484592 0.053408362 0.251689 0.570575 -0.48080015 0.035921194 -0.0103231175 0.50262153 -0.3911713 -0.020863617 -0.0713051 -0.0048843757 -0.38496104 -0.18833056 0.8427054 0.2859786 -0.8860423 0.09515109 -0.32035354 -0.40777317 -0.06225729 0.45948458 -0.39521235 -0.29005924 -0.466753 -0.076933615 0.2570205 -0.43420446 -0.35706398 0.31829908 0.1722468 -0.2333447 0.048687056 -0.055636335 0.14989835 0.15061095 0.46165493 0.28000084 -0.0009228267 0.14387493 0.38071203 -0.18235044 0.48386925 0.2814852 -0.45438907 -0.2724003 -0.11922629 -0.3535613 -0.20390654 0.060803805 0.10595999 0.17200755 -0.2555004 -0.036882557 0.34211645 0.1007096 0.23935626 0.5139388 -0.08619742 -0.4631394 -0.54912525 -0.37979952 0.12097885 0.38872677 0.37184936 0.11716196 -0.042684246 0.21574782 -0.3192299 -0.4572552 0.24087223
9 0.40567926 0.053083006 -0.08136018 -0.43219712 0.42969748 0.061166786 -0.36013943 -0.07596389 -0.47572234 -0.29309404 -0.030359518 -0.086845845 -0.14478742 0.041409243 0.25616193 0.202602 0.5168181 0.16005027 -0.21189767 -0.29713017 -0.5944 -0.023692634 -0.28584832 0.05634028 -0.0034224654 -0.28088048 0.023761323 -0.3121741 -0.032477025 0.21057782 -0.106639005 0.10508401 0.34658512 0.3647081 0.47839198 0.43835598 -0.66624516 -0.060570356 -0.66633856 0.029097969 0.4856969 0.26813334 -0.36430356 -0.34392163 0.060849268 -0.06949083 -0.08295043 -0.011081194 -0.00033146533 0.04116335 -0.1903697 -0.012087713 -0.37459698 -0.06309536 -0.034300916 0.1111879 -0.11687748 0.0464301 0.28211948 -0.017813487 -0.15084234 0.28395712 0.04786091 -0.112670474 0.3426999 0.34172818 -0.12143479 0.47414872 -0.4972466 0.043078925 0.20673999 0.22153674 0.015158025 -0.581099 -0.2693241 -0.5476896 -0.2512395 -0.06924263 -0.14413182 0.60348916 -0.3551205 -0.14058508 0.18416458 0.17386886 -0.24796072 0.027646707 -0.09713017 -0.18800834 -0.4486719 -0.18480846 0.25313357 0.24352135 -0.35606265 0.10766654 0.46600586 -0.6612695 -0.29167506 0.54497784 0.025542641 -0.1772466 0.33282232 -0.28698573 -0.2934549 -0.083893955 -0.1357892 -0.36205965 -0.23738252 -0.45776883 -0.12873279 -0.22113223 -0.57404333 -0.2518492 -0.025161922 -0.08717681 -0.12368716 -0.476229 0.0015557064 -0.5053628 0.39654282 0.82994676 0.2126663 0.16210376 -0.015581479 -0.16721728 -0.19562702 0.25997496 -0.2962091 0.07529338
510 0.18773991 -0.10461795 -0.465898 0.28915593 0.21944395 0.16515744 -0.12389007 0.17030038 -0.21301094 -0.029585835 0.16545257 0.07801571 -0.042746477 0.13778779 0.22606997 0.47836226 0.103806585 -0.30910757 -0.36003563 0.09913872 -0.15517372 0.04087522 -0.33582023 -0.33354563 0.11627172 0.057334922 -0.06914283 0.15735693 -0.032488216 -0.020988876 -0.18403593 -0.07704872 0.37661374 -0.1411739 -0.17952913 0.0684584 0.14760965 -0.1964627 0.42645317 -0.16216964 -0.06788154 0.31421328 -0.16284028 0.11672786 -0.07254036 0.19487353 -0.10167079 0.23644342 0.22850835 0.3248042 0.17605568 -0.1827875 -0.14757994 0.09355128 -0.039002664 -0.09557078 0.09897575 -0.35343838 0.1551424 0.3197665 0.35059914 -0.14695898 -0.22563265 0.40280306 0.5755677 0.18260646 0.07093278 -0.100614116 0.033002015 -0.4080985 0.08741336 0.050673548 0.2961404 -0.31667557 -0.040087245 -0.045841433 -0.5020367 -0.2924639 0.3447334 -0.121623956 0.4611136 0.16671948 0.2681013 -0.1432185 -0.6155334 -0.124801345 -0.07214737 -0.4589411 -0.10738131 0.42466214 -0.063397594 -0.16535255 0.10923455 0.35233054 0.16194336 0.24892648 0.22847624 0.24723716 -0.077254385 0.5415605 -0.0063710297 -0.24250865 -0.09337756 -0.16606283 -0.41305193 0.13880602 0.592156 -0.06518124 0.016589485 -0.15064459 -0.33338565 -0.13584428 -0.056726784 0.32798022 0.2843401 0.047804654 -0.2567714 0.21688804 0.18192773 0.2644792 0.08808191 0.17629187 0.09936101 -0.472899 0.13950957 -0.22010115 0.1913421 -0.011101008
217 0.3097937 -0.095597066 0.16231924 0.04754883 -0.1681708 -0.121744625 -0.2915532 -0.110256545 -0.19914585 0.088979185 -0.022797491 0.42477506 -0.15142988 0.30325493 0.15542899 0.40350032 0.053890288 0.21602814 -0.0852658 0.064391516 -0.27607426 0.14188445 -0.13130255 -0.15424107 -0.02448773 0.20268196 -0.37316865 -0.13249889 -0.23048699 0.6395646 -0.16107142 -0.0500884 0.11118264 0.13991301 0.06768904 0.25986877 0.16182591 -0.19710907 -0.11224401 0.08260763 0.27324122 -0.13437979 -0.3746533 -0.073762 -0.10266638 -0.025759736 -0.5257809 0.07600307 -0.14372773 -0.21582481 0.20699961 0.0023394562 -0.13251446 -0.0051249624 0.04627443 -0.2257191 -0.26845777 -0.2615886 -0.29134142 0.39850622 0.11001282 -0.19161077 -0.053474054 0.030155597 0.12690319 0.38828677 0.20500998 0.2834993 -0.5530175 -0.04027191 -0.11546581 0.041628104 0.08436085 -0.0030610112 -0.26073918 -0.07624055 -0.14248669 -0.0319072 0.27927098 -0.43913513 -0.26511747 -0.04295042 0.15970865 -0.18249789 0.080637515 -0.05983279 -0.006271991 0.017798364 0.24192046 -0.08020663 -0.12976149 0.09000072 0.06535616 -0.04386633 -0.13886616 -0.18954295 0.22623259 -0.042531468 -0.018662544 0.16917971 0.13820031 0.07392165 0.042862833 0.096458495 0.25790343 -0.080756135 0.013155947 -0.085388854 -0.027837226 -0.09904384 0.18250982 0.11664876 -0.17836691 -0.14031886 0.06689445 0.22057767 0.2011094 -0.08481844 -0.040744208 0.32830828 0.28432414 0.04039316 -0.1871374 0.13612607 0.26165056 -0.10238659 0.03911508 0.34462437
356 0.08219671 0.5406716 0.08989209 -0.5581042 0.07099373 0.5558334 -0.16948512 0.061585687 -0.44797918 -0.12600045 0.202089 -0.025709309 0.22796202 0.01915061 0.05986393 0.5732589 -0.4177103 -0.42743707 -0.06743667 0.06543404 0.031130021 0.15798263 -0.1185282 -0.22128583 0.2776963 0.051688433 0.033212602 0.15711816 -0.3557514 -0.18138176 0.12806164 0.16241328 0.089848295 0.15321627 -0.0126690045 0.26366517 0.16387413 -0.32814685 0.29797968 -0.43040138 0.05605366 -0.3420768 -0.22569795 0.06641815 -0.09674177 -0.004782413 -0.101389 -0.10635006 -0.18463759 0.035699118 -0.08248927 0.2277451 0.22084191 -0.28673282 0.11507274 0.107167564 -0.31483614 0.048798732 -0.25860667 0.05700836 0.11295197 -0.5730865 0.039872777 0.07418131 0.7738162 0.27890736 0.14393236 -0.023170942 -0.13069208 -0.121467575 0.26803586 0.25492796 0.07185214 -0.20177773 -0.3201904 -0.40207878 0.02432374 -0.21426497 -0.31456012 0.4350595 -0.07254899 -0.015769346 -0.034200728 -0.1398235 -0.20325129 -0.088999785 0.28813735 -0.55429554 0.4780781 0.1404272 -0.16862759 0.111977786 0.12397331 0.20612504 0.35377598 -0.34336028 0.03492957 0.23576653 0.26515457 -0.44868004 0.009940514 -0.11119236 -0.1846556 -0.09537684 -0.0007264173 -0.26442167 0.09487722 0.41615346 -0.0078181205 0.40866953 -0.09606774 -0.16912067 -0.3735901 0.021999745 0.1367045 0.1975767 -0.03573449 -0.13731724 0.072324015 -0.37957907 0.08180464 0.41983768 0.41236302 -0.049832955 -0.17789878 -0.049351916 0.38586855 0.10545459
42 0.30414277 -0.066460036 0.16229099 0.038478553 -0.2810145 -0.09962973 -0.3508104 0.08939969 -0.12603965 0.057767246 -0.05506248 0.41660914 -0.1665961 0.21345323 0.049098715 0.4738501 0.0036049546 0.23513864 -0.13654006 0.16223179 -0.2863995 0.21450469 -0.13649225 -0.20882308 0.048372254 0.20834297 -0.19705503 -0.0741258 -0.24220888 0.58467895 -0.2185179 -0.037173096 0.160079 0.074149616 0.101658165 0.17332226 0.1371277 -0.13881409 -0.087503254 0.082833394 0.25103375 -0.18382193 -0.39982772 -0.042573772 0.03411183 0.06595691 -0.62325746 0.040816817 -0.22395904 -0.0527453 0.08826923 -0.045462858 -0.23524722 0.094281584 0.0020494342 -0.25478533 -0.293206 -0.24602948 -0.18875322 0.5697696 0.052170057 -0.19184445 -0.037611414 -0.04888135 0.19551203 0.2824917 0.1999968 0.19782363 -0.55605996 0.0012537504 -0.16426596 -0.1062708 0.06633901 -0.06766825 -0.28166932 -0.055417486 -0.3609224 0.048796207 0.19604431 -0.44485283 -0.24371114 -0.14115222 0.19124292 -0.22844031 0.105761394 -0.11181992 0.032699972 0.0060899206 0.15972665 -0.040962145 -0.04549777 0.2208235 0.15972632 -0.07326668 -0.096227325 -0.3094301 0.20151646 -0.038211923 -0.052974675 0.23371142 0.011680413 0.15614264 -0.018510113 0.119691 0.37883064 -0.09700098 0.03166648 -0.1576079 0.060934618 -0.13670868 0.22149843 -0.027264398 -0.12536371 -0.09088156 0.15284392 0.18070261 0.21779247 -0.22136289 -0.020549411 0.31933767 0.3570489 -0.03314732 -0.16656312 0.11706949 0.20553231 -0.2412182 0.14488952 0.2469578
419 -0.13033536 0.02859976 0.29051226 -0.6344412 0.2053136 0.7121228 -0.38229215 0.7913706 -0.23289795 0.100617535 0.071513474 -0.9136766 -0.15496081 0.33221668 -0.1488853 -0.19826801 0.057121098 -0.5327606 -0.86937046 0.012356065 -0.22165836 0.3072064 -0.4834503 0.06423914 0.19530965 0.288751 -1.0455383 -0.07126904 0.43005443 -0.2300601 0.42271128 0.2500466 0.4954489 0.62094307 0.4060005 0.21718675 0.38215765 -0.6774963 0.21132489 0.20013326 0.024302702 -0.28276604 0.054388143 -0.18987383 -0.22645698 0.21913745 -0.18818249 0.19987278 0.11342351 -0.22931305 -0.28233105 0.1730968 -0.5104671 -0.120371625 -0.6667417 -0.193134 -0.07845235 -0.58330214 0.2738583 0.5342227 0.8035344 -0.16742317 -0.36479443 0.5068638 -0.22791019 0.023493698 -0.23007788 -0.36884993 0.2511197 0.12357598 0.40095153 0.3951442 -0.046385292 0.06716756 0.0221104 0.073790945 -0.046319053 0.4283639 -0.69661015 0.13423386 -0.12888393 -0.72197944 0.2639937 -0.06989547 -0.23789343 0.0019382964 0.12803538 -0.18234536 -0.012503651 0.4641783 -0.07147237 0.27001402 0.57012004 -0.037718125 -0.07346751 0.32037097 -0.18592112 0.27204198 -0.15248248 -0.22774734 0.58862996 -0.108221926 -0.57407075 0.095507175 0.31729043 -0.40705338 0.43831405 -0.35771427 0.09313074 -0.33332306 0.4555237 -0.14073819 -0.5791884 -0.36680964 -0.1731291 -0.0847779 -0.9006015 0.22208303 0.15482938 0.5372745 0.56123567 0.035436746 -0.030522093 -0.26467487 -0.28500178 -0.55097294 -0.13344812 0.29939508
304 0.012983431 0.48524085 0.1368562 -0.4198406 0.12305554 0.44614217 -0.2257297 0.16415834 -0.5181915 -0.08823678 0.28669703 -0.0614059 0.2656878 -0.014054549 0.16382752 0.58848065 -0.31352335 -0.3588876 -0.00887447 0.008451791 0.08975438 0.10007918 -0.044704992 -0.29717755 0.38414726 -0.12031609 0.015077965 0.116690665 -0.36295208 -0.030776935 0.17758629 0.18248904 0.15963739 0.103377186 -0.048715133 0.09740454 0.22607885 -0.31735736 0.4003054 -0.3183926 0.09003303 -0.3205907 -0.17918275 -0.022216337 -0.095710725 -0.04968201 0.057973925 -0.068936326 -0.18743724 -0.032349404 -0.23400488 0.15911973 0.23894896 -0.23805366 -0.048283964 0.03744963 -0.33474 0.049249064 -0.08639617 0.16666089 0.076638006 -0.4455284 0.08959361 -0.006429813 0.71454763 0.22285463 0.04742682 -0.11683269 -0.1583169 -0.19078162 0.2832574 0.23215316 0.008318416 -0.21796313 -0.28007177 -0.46697298 -0.08150697 -0.22465481 -0.25548056 0.2910339 -0.13193601 -0.032854013 -0.17161754 -0.19418502 -0.32465148 -0.05899247 0.42025682 -0.5229077 0.50706774 -0.05323409 0.03372199 0.18975738 0.1801304 0.22972217 0.36552426 -0.4009674 0.038029473 0.17322215 0.3880579 -0.4647019 0.02758446 -0.1417432 -0.16987604 -0.23408815 0.04039429 -0.40045524 0.14833423 0.40696093 -0.11194905 0.39092577 -0.058633797 -0.21858251 -0.37885275 -0.02574046 0.25269863 0.22250213 -0.15856947 -0.30407596 0.13880798 -0.31274486 -0.12630253 0.17154333 0.48404667 -0.18497507 -0.19485906 -0.028476639 0.47324464 0.13883467
335 0.27296445 0.39922205 -0.257791 -0.5687376 -0.2664366 -0.26925907 -0.4015683 -0.14019676 -0.20822011 0.040754333 -0.1746865 -0.28247085 0.46574652 -0.27156186 0.07340507 0.25759563 0.12921484 -0.16062932 0.14637022 -0.033883173 -0.34540108 0.48129717 -0.78270394 -0.42027825 0.5533461 0.58741367 -0.487825 0.21978424 0.5094806 -0.59239715 -0.29924524 0.31851056 0.18701582 -0.26842442 -0.5430167 0.38887742 0.4035345 -0.21752916 0.6320996 0.1806059 0.56116444 0.67098135 0.0762657 -0.24131371 -0.31628305 0.106729835 -0.36701885 -0.03181094 -0.002758872 -0.31016245 0.47893858 -0.49974203 -0.028201785 -0.20588982 0.020220468 0.101205125 0.6391752 -0.13520445 0.12478371 -0.022874655 0.6877347 -0.4704998 0.12742624 -0.06580302 0.3560195 -0.37067378 -0.1848322 0.0048370752 -0.1129588 -0.32008594 -0.04834897 0.7880645 0.6484219 -0.889874 0.0948547 -0.48626295 -0.35062748 -0.00863702 0.4736754 -0.41346985 -0.26729125 -0.58315474 -0.12797979 0.22607617 -0.46391347 -0.2872424 0.3696569 0.034315895 -0.017034512 0.093460344 -0.013130006 0.046172347 0.2802035 0.6136611 0.28045633 -0.26412022 0.18923013 0.40588066 0.06993013 0.52493036 0.2820979 -0.5227186 -0.19051902 0.05700795 -0.35700953 0.025145745 -0.100928046 -0.018983105 0.2519631 -0.1709382 0.14649448 0.32127345 0.19634719 0.19477984 0.4947326 -0.11407972 -0.466712 -0.64960843 -0.13692026 0.040915567 0.5117603 0.46528593 0.09800549 -0.17071201 0.14004827 -0.233559 -0.41883227 0.36973438
519 0.07701311 -0.14544027 -0.49323165 0.2516535 0.2727555 0.11312701 -0.28602064 0.1719591 -0.4265239 -0.18193467 0.029334543 -0.025362823 -0.14154011 0.25494182 0.28349087 0.38832352 0.028954277 -0.42579487 -0.15584797 -0.018464461 -0.29876882 -0.23382904 -0.19066991 -0.25482854 -0.068400376 0.21916017 -0.09527723 0.15455931 0.13820545 0.10469948 0.030542923 -0.29852948 0.3499151 -0.15277024 0.015415274 -0.0654846 0.11436452 -0.13425231 0.44749793 -0.34086865 -0.29016683 0.13331686 -0.16283318 -0.03531141 -0.13135596 0.17370492 -0.091852054 0.18315184 0.21150611 0.19344933 0.23834844 -0.2830046 0.004835506 0.09234048 -0.054321703 -0.037665986 0.16039084 -0.40399376 0.1906123 0.32163244 0.28441772 0.0036724696 -0.23888291 0.3882732 0.54731834 0.2830861 0.07168598 -0.12715574 -0.14480244 -0.39036155 -0.012897284 0.2253865 0.30973944 -0.13267271 -0.15246531 -0.111749895 -0.3945539 -0.10580085 0.2544344 -0.2612481 0.43674165 0.14406595 0.30508724 0.053301465 -0.5002479 -0.18694657 -0.07886489 -0.24628666 0.043510444 0.34342432 -0.027913548 0.010331233 0.13788606 0.36768368 0.2717468 0.16271871 0.11457411 0.26494986 0.03853645 0.37606204 0.042202372 -0.32611936 -0.016228488 -0.072955035 -0.4261403 0.14991185 0.52259064 -0.22183934 -0.023074528 -0.15171209 -0.35698554 -0.06614471 -0.009287188 0.2684364 0.20447318 -0.049568344 -0.076565035 0.1630804 0.049006093 0.15288958 -0.087478526 0.01000435 0.25256667 -0.47778225 0.24129145 -0.3877377 0.2796535 0.05105652
524 -0.07663664 -0.17406534 -0.5637149 0.3807051 0.19675958 0.103981346 -0.088591315 0.20578936 -0.1445236 -0.12184084 0.092841305 -0.0019144116 -0.06581707 0.13837819 0.1964143 0.4193893 0.2041917 -0.2228387 -0.38674963 0.24198017 -0.20276578 0.008446768 -0.19196443 -0.23738912 -0.07066722 -0.026650237 -0.16773003 0.094006136 0.14303868 -0.01564845 -0.067792326 -0.06316347 0.25884002 -0.10138952 -0.14605618 0.16711448 0.03869403 -0.2262165 0.46735346 -0.06715993 0.06435074 0.62116444 -0.26424137 -0.050417606 -0.15680785 0.03474419 -0.17704229 0.35079694 0.079024956 0.5753838 0.23729733 -0.1505977 -0.14886093 0.115725406 -0.09676894 0.06508878 0.2164374 -0.3807986 0.14918676 0.4766576 0.43892485 -0.023274913 -0.06077808 0.46301746 0.46654868 0.23049873 0.35219622 -0.025448669 0.13134365 -0.30087182 0.117162496 0.07846066 0.22539747 -0.30311772 0.005144754 -0.171053 -0.46076638 -0.2310025 0.278497 -0.051393665 0.5480057 0.031621933 0.15507202 -0.26662475 -0.42356947 -0.21826273 0.06972114 -0.25771365 0.05386747 0.51743543 -0.08206572 -0.25147977 -0.050921187 0.22792308 0.17605703 0.04307869 0.04145595 0.24722034 0.13097613 0.47490633 -0.1733724 -0.2983479 -0.055849325 -0.28468975 -0.3642057 -0.085570455 0.59539133 0.1083115 -0.12711489 -0.02736802 -0.41835627 -0.14283279 -0.05502038 0.2531975 0.27927125 0.29216015 -0.29485375 0.16763757 -0.038274948 0.21755305 0.19575642 0.0782646 0.11088811 -0.43373922 0.10156817 -0.04186302 0.08574741 0.13158487
237 0.3490398 -0.1009381 0.09687059 -0.033553716 -0.13424818 -0.075658046 -0.27756745 0.0482918 -0.16215654 -0.03841692 -0.03425438 0.5591543 -0.23191394 0.2373585 0.1588458 0.36170617 0.063646086 0.12667261 -0.21470538 0.06714077 -0.25370502 0.26701334 -0.17984897 -0.2272459 -0.06344781 0.2052449 -0.44459462 -0.13973582 -0.25961527 0.49968135 -0.11847951 -0.16087683 0.04317124 0.13590169 0.10812965 0.28071615 -0.018112041 -0.11614107 -0.078579016 0.06270262 0.23972376 0.017524356 -0.37087154 -0.19414145 0.0051224576 -0.03808103 -0.66492224 0.06388112 -0.20988265 -0.16822942 0.15471539 0.034831 -0.19662668 -0.028023476 0.09679503 -0.21240379 -0.26528713 -0.26002145 -0.23585162 0.44202572 0.15491448 -0.122664236 0.012171506 -0.016774986 0.16486473 0.29458407 0.1062783 0.123277456 -0.51528287 0.04097868 -0.07831075 -0.03843885 0.24515799 0.021252759 -0.16556051 -0.12780242 -0.28758067 0.037749097 0.24666752 -0.4604669 -0.18552917 -0.10195988 0.18150829 -0.20706485 0.19950645 -0.064776696 0.13689229 -0.032117248 0.26877537 0.014371266 -0.06505028 0.21895166 0.059061598 -0.068124026 -0.17554502 -0.2750175 0.23470442 -0.14560015 -0.04870516 0.11350099 -0.04434234 0.060477924 0.024914555 0.13464706 0.2726223 -0.08780679 0.03779433 -0.17259698 0.03945681 -0.1290149 0.27061474 0.042664748 -0.1446753 -0.08068082 0.12511094 0.1807367 0.25756016 -0.03469224 -0.037153836 0.3336864 0.33587852 -0.014762888 -0.2388472 0.15608406 0.16937482 -0.12301813 0.19483577 0.3035165
89 -0.04462986 0.30808058 0.10625838 -0.43488142 -0.05522643 0.4029159 -0.30641156 0.12874117 -0.44826186 -0.1269091 0.21551323 -0.13755219 0.28351945 -0.01183437 0.25486413 0.49950314 -0.28020126 -0.332123 0.16259453 0.09674302 -0.22211461 0.107204035 -0.22347774 -0.14926323 0.35434106 -0.21082681 0.020813528 -0.011299741 -0.14743493 -0.22807717 0.15521094 0.29931992 0.0015443754 0.027895745 -0.031976078 0.14704886 -0.05116817 -0.39487183 0.24102236 -0.3868766 -0.029579606 -0.30970338 -0.14030449 0.0048046517 -0.15088168 -0.054173317 -0.0071921 -0.1827938 -0.3066926 -0.0668191 -0.038226727 0.21789706 0.16855392 -0.3043399 0.123240665 0.056207307 -0.28767398 -0.013559069 -0.2715369 0.05532717 0.10552964 -0.41388503 -0.21382831 0.15748432 0.44295344 0.29294926 0.23267153 -0.060879946 -0.2780127 -0.22739217 0.22989964 0.27135128 0.15617454 -0.2311202 -0.3138359 -0.5605598 -0.055797115 -0.21746254 -0.33127737 0.28066278 -0.04580013 -0.111860305 -0.07487588 -0.06549984 -0.23580928 -0.23174325 0.3289859 -0.4315683 0.40102214 -0.057192817 0.068609685 0.061777245 0.061511308 0.22370414 0.12166021 -0.22880699 0.04915504 0.24831596 0.33550152 -0.4048894 0.056153275 -0.047956795 -0.14260255 -0.27013376 -0.18211171 -0.48832542 0.20832674 0.48133808 -0.11367107 0.10116656 -0.07362396 -0.208971 -0.41510832 -0.07131567 0.054369204 0.26991975 -0.18389668 -0.23229401 -0.055143632 -0.23467833 -0.043155767 0.084642984 0.36282974 -0.3855173 -0.1638707 0.032504164 0.22892706 0.07944848
349 0.06509959 0.43142945 -0.0046040444 -0.4205545 0.01969281 0.49032253 -0.40579352 0.06540548 -0.37032646 0.012118009 0.30670208 -0.23644835 0.22193626 0.093837604 0.30793002 0.64435625 -0.30486336 -0.31828856 0.040295467 0.13354729 -0.18107188 0.20151258 -0.17200287 -0.18495587 0.13074395 -0.14243086 -0.0019928114 0.079170324 -0.05178437 -0.14116997 0.16135466 0.33417907 -0.035521045 0.11146321 -0.113232896 0.21880582 -0.06979491 -0.2586174 0.40209332 -0.46931052 -0.257337 -0.34897485 -0.10252683 -0.033582754 -0.1438679 -0.032396153 -0.13498592 -0.08066892 -0.2907256 -0.056569234 -0.03660932 0.20303498 0.17350376 -0.26066947 -0.04545006 0.19857393 -0.40259343 0.07007271 -0.15034132 -0.07560824 0.13308795 -0.34153545 -0.0928064 0.11468889 0.34959581 0.40813184 0.2647282 0.017847978 -0.26179862 -0.18566154 0.312272 0.28410846 0.21653543 -0.37554425 -0.41124094 -0.55743897 -0.20857435 -0.14672205 -0.45258233 0.2383898 -0.03452169 -0.042078264 -0.12762552 -0.097175196 -0.14716527 -0.28233975 0.2808573 -0.48442513 0.4153513 0.06655431 0.14246711 0.10169906 0.11345219 0.35933846 0.06966352 -0.3849847 0.022451108 0.10726233 0.44408804 -0.3460296 -0.0518047 -0.00732182 -0.0028882553 -0.319313 0.020998156 -0.42298758 0.25640383 0.4735065 -0.027051365 0.12359146 -0.06968768 -0.19603719 -0.2853298 -0.09365254 0.06081529 0.16708712 -0.07870545 -0.08186503 0.056923263 -0.29385102 0.003218604 0.21977098 0.31172344 -0.15104808 -0.047198314 0.122120455 0.2499444 -0.06840607
507 0.1658485 0.49167845 -0.18365224 -0.38937613 -0.19036114 -0.17168447 -0.2651818 -0.09885476 -0.10056512 0.0426974 -0.13184188 -0.25374264 0.5398736 -0.33419475 0.21535051 0.38425544 -0.031168863 -0.10749143 -0.021307118 -0.1718816 -0.34615442 0.4008785 -0.72363645 -0.5458185 0.48984316 0.44539508 -0.44458297 0.14556055 0.37761363 -0.58556885 -0.20175885 0.28426287 0.18053573 -0.23439214 -0.45448446 0.18775226 0.30789456 -0.18892664 0.5981292 0.276462 0.39698085 0.5022313 -0.1298043 -0.22648023 -0.47356606 0.15925218 -0.40205258 -0.03857071 0.019332387 -0.1674083 0.39339718 -0.5284236 -0.093822405 -0.048338145 0.09077026 -0.036457628 0.5618662 -0.11464251 0.21136844 0.20564993 0.4978264 -0.4287761 0.101900704 0.0038839458 0.42046246 -0.36674917 -0.09476158 0.08762584 -0.053582907 -0.3906822 -0.14022174 0.774875 0.36244866 -0.81947684 0.033921693 -0.36685184 -0.47431767 -0.018529264 0.4019659 -0.46726066 -0.25671062 -0.43499836 -0.14388014 0.26676142 -0.5114288 -0.4020148 0.3525772 0.15371752 -0.16226606 0.123200126 -0.047977623 0.0023453354 0.040985107 0.61556417 0.19389638 0.005390096 0.19706711 0.4842148 -0.17446291 0.5776277 0.18426992 -0.44737154 -0.1733272 -0.22925182 -0.32345673 -0.15509313 -0.08359588 0.10053436 0.3092474 -0.16913456 -0.12934826 0.33869442 0.06883887 0.115636334 0.56971014 -0.121090785 -0.42686966 -0.43913946 -0.2871348 0.114142 0.36187068 0.23787417 0.057956956 0.062006664 0.10221123 -0.28582993 -0.29003838 0.29662788
103 -0.09405712 0.5612431 0.018541774 -0.45600653 0.122389935 0.56423455 -0.27342626 0.08369227 -0.48607323 -0.13794416 0.24626748 -0.024285767 0.22237995 0.01443411 0.25717357 0.63120604 -0.4413135 -0.4021528 -0.14452836 0.06938403 0.059622537 0.1021606 -0.1468643 -0.2747321 0.30787197 -0.01993832 0.011290996 0.05497072 -0.3277594 -0.23922701 0.26146686 0.22514807 0.0672905 0.06208438 -0.09422736 0.17488873 0.20030366 -0.3923998 0.41298684 -0.3867716 0.09449612 -0.25696337 -0.21407145 0.014029269 -0.050079137 -0.020756233 -0.05360817 -0.101601265 -0.21722436 -0.16391282 -0.08427122 0.28346604 0.20401086 -0.23707011 -0.03570567 0.117678806 -0.3113287 -0.13802218 -0.18536772 -0.05248351 0.062188033 -0.37352946 0.15097478 0.0011886256 0.6914776 0.3698131 0.09266784 -0.10150177 -0.092672475 -0.14494346 0.23094481 0.17124586 0.08103736 -0.21160567 -0.35181868 -0.5365453 -0.08970748 -0.115467526 -0.28844547 0.40566316 -0.069479614 -0.07814505 -0.13480541 -0.13915426 -0.16161403 -0.16314341 0.38448197 -0.62898666 0.4644366 0.12194109 -0.036365367 0.14266989 0.10662022 0.112364866 0.3740759 -0.43469873 0.032664318 0.06746636 0.25349513 -0.43004617 -0.030961715 -0.16419874 -0.18614034 -0.19988932 -0.0052546524 -0.42413872 0.064028636 0.37045553 0.024629226 0.3057179 -0.09905368 -0.2553539 -0.38308775 -0.056645323 0.14857152 0.26984814 0.014148686 -0.20476119 0.09533404 -0.26455835 -0.058883023 0.25105527 0.45963505 -0.28868288 -0.11170804 -0.05612923 0.37864077 0.14454164
96 0.074208915 0.2856272 0.031343658 0.2112011 0.17013246 0.18225889 -0.41330278 0.38113132 -0.25517148 -0.3634533 -0.22671145 -0.34120265 0.1987123 0.0374557 -0.06631162 0.48423845 -0.21928912 -0.082859226 -0.105206944 -0.080762744 0.05575681 0.082138084 -0.35008493 -0.314377 -0.19543548 -0.06128542 0.10907428 0.10596607 -0.18801324 -0.117885925 -0.24790753 0.041824084 0.16074267 -0.38402903 -0.12530872 0.13838509 -0.13463043 -0.39968333 0.4711536 -0.41627547 -0.3257367 -0.0061439606 -0.3157255 0.12426286 -0.27465063 0.25199497 -0.113124184 0.09747299 -0.23410033 0.051960617 0.26664785 -0.15125518 0.016348528 -0.3745172 0.0342256 0.1686169 -0.7127118 -0.41952983 -0.26286298 0.34388107 0.36270335 -0.79743934 -0.31422696 0.1724161 0.5523067 0.007082173 -0.27101663 0.14364834 -0.049034834 -0.23726694 0.04986966 0.040395737 0.048406135 -0.59926045 -0.2922845 -0.1297406 -0.2875004 -0.30225185 -0.34423172 0.47193515 -0.09249921 0.17320764 -0.37954158 0.23959452 -0.21966623 -0.65848863 0.27290347 -0.6602835 0.6692257 0.044448227 0.021608725 0.18562938 -0.0547087 0.15587378 0.22547528 -0.04512192 0.021045314 0.15802424 0.5279255 -0.28415552 -0.18307278 0.00025891466 -0.1930125 0.033208374 0.05936013 -0.3319907 -0.099555306 -0.025799593 -0.22338083 0.112528734 -0.046085685 -0.27152014 -0.7170498 -0.13255309 -0.019938106 0.33327633 -0.19967756 -0.1257545 0.19222486 0.33811787 -0.4140142 -0.30110967 0.07381425 -0.008616949 -0.25878617 0.23278329 0.27977976 -0.3193461
422 0.14244382 0.2084972 0.034678344 0.13190134 0.22008264 0.23797242 -0.42783007 0.25869647 -0.29940253 -0.49948126 -0.3139219 -0.32665452 0.19036604 -0.0020269644 0.18294692 0.51728094 -0.29432508 -0.002566195 -0.09709129 -0.06186827 0.07762387 0.08928297 -0.2973622 -0.20638733 -0.2052959 0.023799999 0.13228257 0.011276952 -0.2985169 -0.1485798 -0.24926214 -0.04535785 0.13792591 -0.21952602 -0.19117326 0.15145932 -0.062574305 -0.41385362 0.5146385 -0.3058562 -0.25902495 -0.09907122 -0.17630745 0.14752913 -0.31795797 0.22751468 -0.074070804 0.046384193 -0.28693599 0.13807154 0.23516515 -0.110175595 0.046737917 -0.25088117 -0.044530656 0.13077162 -0.40290254 -0.39998338 -0.36766934 0.28542295 0.387969 -0.67057824 -0.37418562 0.30793294 0.5466726 -0.07400814 -0.18091595 0.20419903 0.046933047 -0.19904374 -0.024719322 0.07733996 0.112013385 -0.61747754 -0.20967497 -0.20281915 -0.19939065 -0.2988984 -0.25690264 0.35543698 -0.034335237 0.20652911 -0.24856745 0.25614443 -0.19159842 -0.6297159 0.34734312 -0.65798825 0.7742343 -0.07699972 0.0463525 0.16328838 -0.24068649 0.1479399 0.24570747 -0.058673613 -0.08235744 0.26877147 0.50609654 -0.31853548 -0.06741066 0.07663173 -0.06275528 -0.08804226 0.023225246 -0.30764392 0.052354947 0.055899005 -0.13281569 0.16129243 0.005792427 -0.36738932 -0.6271889 -0.17084518 0.067954525 0.2630691 -0.097997494 -0.082784414 0.22733763 0.38388297 -0.31839484 -0.2691641 0.013312004 0.06367752 -0.21939701 -0.016991433 0.1478067 -0.36461514
308 0.10324007 -0.33040756 -0.57624704 0.32916635 -0.029334372 0.16842785 0.012653783 0.09301676 -0.12839103 -0.035757378 0.0044680056 0.15252244 -0.08086363 0.049973745 0.21712723 0.43530157 0.30278385 -0.26778355 -0.30268937 0.31795645 -0.38068962 -0.12626863 -0.00018181806 -0.1524703 -0.056252707 0.0036084226 -0.25854626 0.086750366 0.43408495 0.10289365 -0.035048723 -0.10983728 0.33731824 -0.082860254 -0.26610598 0.2256255 0.08946179 -0.15629764 0.52239 -0.23905478 -0.03478125 0.6018734 -0.35950398 0.08983173 -0.19151333 -0.08024523 -0.041704785 0.4141504 0.14500578 0.53533524 0.18234159 -0.17501192 -0.1649383 0.16049008 -0.19744611 -0.097829506 0.14698882 -0.49560025 0.14321071 0.5667832 0.2573812 -0.084884994 -0.008106478 0.28518248 0.21066326 0.21542181 0.4352901 -0.1870218 0.18351899 -0.47646725 0.2923801 0.09640004 0.14538854 -0.28810948 -0.041068133 -0.3670929 -0.4587107 -0.18723401 0.19082908 0.051277965 0.5521909 0.019247187 0.04118455 -0.2958757 -0.5011981 -0.20877625 0.19873813 -0.2614237 0.05633248 0.40648928 -0.054494675 -0.2630072 -0.079810776 0.46206516 0.29400462 0.13994676 0.03430176 0.31669235 0.19729471 0.3389446 -0.1386741 -0.3224702 0.0100491075 -0.13548265 -0.5153449 0.034228582 0.6230996 0.007347433 0.02411403 0.1171689 -0.36224613 -0.28217018 0.0016818516 0.1643237 0.32669035 0.5140299 -0.26520166 0.21306747 0.23616765 0.12136347 0.2027712 0.32263768 0.21815996 -0.3097673 0.09084779 -0.110566184 0.13730256 0.24073422
